<?xml version="1.0"?>
<opencv_storage>
<opencv_ml_svm>
  <format>3</format>
  <svmType>C_SVC</svmType>
  <kernel>
    <type>RBF</type>
    <gamma>1.0000000000000001e-05</gamma></kernel>
  <C>1.0000000000000001e-01</C>
  <term_criteria><epsilon>1.1920928955078125e-07</epsilon>
    <iterations>1000</iterations></term_criteria>
  <var_count>256</var_count>
  <class_count>2</class_count>
  <class_labels type_id="opencv-matrix">
    <rows>2</rows>
    <cols>1</cols>
    <dt>i</dt>
    <data>
      0 1</data></class_labels>
  <sv_total>2000</sv_total>
  <support_vectors>
    <_>
      372. 173. 89. 202. 168. 118. 125. 63. 556. 129. 710. 217. 700.
      113. 324. 90. 81. 1065. 144. 940. 78. 474. 72. 300. 174. 278. 161.
      145. 112. 144. 95. 82. 88. 144. 200. 171. 161. 108. 173. 82. 217.
      66. 325. 81. 447. 81. 521. 81. 89. 436. 142. 388. 129. 259. 173.
      250. 82. 166. 172. 80. 122. 141. 168. 121. 124. 301. 143. 270.
      319. 148. 268. 247. 707. 375. 227. 251. 359. 144. 288. 124. 153.
      1034. 299. 666. 135. 1531. 187. 640. 147. 178. 106. 308. 92. 165.
      175. 172. 73. 91. 54. 121. 224. 176. 171. 301. 411. 410. 213. 80.
      248. 125. 459. 174. 154. 562. 187. 424. 106. 509. 127. 516. 188.
      250. 119. 123. 147. 217. 277. 210. 194. 285. 211. 270. 136. 161.
      149. 159. 262. 122. 470. 126. 396. 139. 434. 142. 189. 770. 98.
      478. 135. 217. 153. 381. 143. 256. 124. 126. 158. 142. 159. 125.
      336. 442. 534. 290. 491. 442. 502. 332. 614. 172. 1074. 123. 856.
      355. 1352. 265. 278. 848. 301. 1470. 417. 570. 505. 1380. 240.
      317. 419. 341. 352. 359. 640. 463. 150. 174. 171. 179. 135. 134.
      110. 132. 295. 103. 234. 104. 363. 109. 300. 108. 181. 616. 137.
      395. 144. 433. 115. 397. 75. 98. 99. 100. 159. 157. 161. 153. 134.
      161. 168. 113. 266. 532. 203. 341. 389. 129. 505. 144. 860. 278.
      1216. 269. 123. 655. 291. 957. 319. 1477. 425. 1513. 195. 252.
      312. 328. 334. 411. 393. 408.</_>
    <_>
      71. 122. 112. 182. 133. 94. 155. 99. 731. 201. 573. 140. 647. 122.
      407. 173. 167. 1000. 151. 764. 160. 438. 120. 273. 244. 258. 201.
      234. 158. 104. 161. 122. 80. 95. 177. 111. 167. 92. 177. 137. 228.
      136. 387. 98. 556. 104. 814. 134. 122. 240. 107. 172. 185. 175.
      182. 191. 155. 228. 190. 128. 222. 114. 186. 92. 230. 295. 161.
      253. 316. 203. 194. 214. 1030. 422. 375. 180. 686. 177. 483. 154.
      181. 830. 329. 896. 122. 1083. 152. 567. 174. 268. 124. 190. 174.
      137. 199. 214. 72. 116. 88. 110. 165. 228. 255. 270. 356. 354.
      234. 113. 316. 118. 472. 173. 112. 401. 177. 336. 103. 385. 135.
      394. 141. 268. 120. 214. 128. 104. 148. 156. 206. 229. 230. 258.
      210. 164. 225. 171. 317. 159. 326. 126. 513. 141. 513. 147. 136.
      298. 132. 505. 98. 151. 162. 331. 232. 133. 228. 268. 170. 134.
      187. 162. 268. 359. 469. 259. 434. 387. 423. 320. 618. 205. 979.
      146. 1098. 191. 1604. 213. 329. 598. 366. 1332. 430. 682. 488.
      1411. 245. 321. 256. 423. 243. 237. 538. 323. 176. 143. 151. 112.
      180. 151. 130. 190. 319. 166. 186. 81. 423. 158. 501. 103. 158.
      304. 105. 341. 140. 410. 123. 423. 173. 154. 129. 164. 170. 179.
      134. 165. 138. 265. 164. 206. 273. 582. 179. 311. 714. 172. 588.
      110. 1107. 242. 1125. 233. 176. 739. 196. 933. 279. 1591. 221.
      1519. 184. 347. 222. 350. 244. 260. 335. 422.</_>
    <_>
      119. 118. 114. 116. 186. 76. 83. 42. 920. 196. 1217. 132. 841.
      137. 385. 167. 121. 881. 153. 769. 92. 576. 104. 521. 114. 119.
      94. 119. 52. 55. 104. 56. 106. 122. 87. 106. 150. 127. 142. 112.
      250. 92. 256. 76. 520. 87. 356. 109. 104. 473. 125. 621. 162. 342.
      187. 458. 75. 123. 146. 119. 119. 156. 135. 116. 169. 247. 100.
      156. 189. 116. 167. 143. 800. 475. 506. 226. 499. 139. 424. 243.
      124. 1923. 120. 1859. 92. 1062. 110. 857. 160. 199. 182. 130. 77.
      140. 149. 127. 60. 127. 54. 97. 167. 256. 151. 233. 259. 338. 206.
      141. 312. 170. 469. 199. 134. 611. 176. 796. 139. 801. 156. 962.
      141. 291. 169. 122. 264. 240. 281. 131. 219. 167. 249. 190. 203.
      174. 210. 133. 231. 173. 407. 132. 431. 189. 372. 197. 213. 911.
      181. 688. 136. 274. 185. 342. 127. 165. 105. 191. 96. 117. 109.
      97. 246. 327. 303. 324. 253. 306. 250. 182. 287. 201. 536. 178.
      680. 388. 868. 238. 250. 1412. 248. 1692. 298. 867. 373. 1373.
      133. 302. 152. 263. 171. 491. 207. 236. 118. 162. 119. 151. 67.
      89. 75. 106. 124. 98. 320. 141. 194. 64. 268. 157. 197. 970. 237.
      727. 115. 625. 153. 487. 74. 102. 144. 123. 83. 119. 150. 163. 89.
      209. 267. 206. 144. 194. 204. 226. 202. 157. 467. 157. 1160. 285.
      1269. 263. 180. 874. 411. 1170. 294. 1008. 300. 1335. 75. 165.
      138. 197. 396. 317. 339. 230.</_>
    <_>
      279. 248. 241. 273. 225. 145. 136. 124. 1440. 248. 1595. 240. 732.
      170. 560. 153. 151. 947. 291. 864. 88. 519. 150. 397. 237. 242.
      313. 169. 148. 164. 125. 104. 110. 160. 85. 55. 143. 98. 137. 85.
      246. 191. 325. 91. 626. 245. 673. 133. 105. 520. 149. 471. 210.
      339. 194. 380. 103. 166. 152. 102. 250. 171. 144. 133. 218. 479.
      186. 176. 257. 186. 202. 177. 995. 334. 494. 218. 702. 154. 669.
      247. 250. 1355. 509. 798. 222. 1059. 217. 637. 189. 219. 300. 213.
      178. 333. 255. 219. 129. 176. 90. 174. 272. 307. 203. 297. 221.
      212. 239. 134. 485. 117. 638. 202. 168. 625. 185. 629. 197. 489.
      199. 499. 162. 270. 184. 192. 204. 172. 235. 151. 159. 234. 236.
      194. 146. 120. 400. 179. 306. 230. 693. 151. 372. 201. 381. 203.
      189. 734. 222. 482. 96. 215. 713. 712. 179. 188. 193. 189. 98.
      136. 122. 147. 169. 168. 212. 165. 171. 189. 188. 240. 499. 216.
      543. 129. 871. 456. 499. 175. 154. 741. 250. 1120. 399. 542. 533.
      1701. 89. 244. 244. 333. 182. 211. 141. 264. 163. 261. 159. 128.
      73. 166. 150. 122. 235. 192. 224. 137. 433. 87. 294. 115. 235.
      561. 160. 300. 130. 377. 132. 329. 135. 123. 197. 177. 145. 122.
      143. 146. 77. 129. 133. 160. 175. 223. 235. 251. 186. 86. 419. 85.
      894. 194. 716. 150. 129. 703. 155. 1018. 333. 816. 247. 1010. 89.
      113. 190. 233. 205. 192. 75. 156.</_>
    <_>
      255. 234. 257. 258. 255. 119. 141. 125. 1443. 263. 1598. 225. 754.
      183. 569. 146. 149. 897. 263. 801. 103. 502. 167. 390. 248. 248.
      328. 173. 173. 169. 113. 96. 113. 138. 90. 45. 128. 109. 139. 87.
      258. 205. 301. 79. 640. 249. 663. 140. 85. 498. 151. 523. 236.
      308. 205. 345. 114. 163. 143. 94. 229. 185. 123. 136. 220. 478.
      211. 207. 286. 178. 206. 201. 1004. 349. 462. 174. 697. 144. 640.
      243. 259. 1284. 477. 796. 238. 1050. 249. 620. 180. 231. 329. 261.
      208. 317. 264. 205. 128. 197. 79. 206. 272. 308. 198. 302. 246.
      197. 275. 133. 474. 122. 664. 190. 171. 651. 180. 643. 196. 498.
      189. 520. 168. 271. 180. 196. 197. 178. 226. 164. 159. 272. 251.
      204. 157. 144. 371. 198. 329. 183. 583. 175. 409. 174. 381. 205.
      181. 755. 213. 479. 105. 202. 632. 615. 170. 196. 216. 189. 105.
      160. 129. 153. 169. 198. 211. 134. 190. 203. 146. 267. 471. 218.
      540. 135. 858. 430. 548. 186. 160. 783. 228. 1126. 364. 584. 597.
      1675. 89. 227. 256. 326. 176. 206. 143. 284. 158. 196. 170. 113.
      72. 155. 158. 162. 263. 185. 222. 111. 435. 91. 321. 110. 230.
      528. 181. 323. 143. 389. 144. 349. 146. 127. 200. 178. 139. 107.
      149. 144. 85. 137. 118. 144. 181. 238. 220. 229. 186. 92. 406. 71.
      901. 192. 687. 143. 120. 724. 158. 1041. 333. 808. 267. 1044. 90.
      107. 194. 208. 200. 155. 85. 160.</_>
    <_>
      283. 231. 267. 277. 274. 139. 127. 130. 1435. 279. 1588. 237. 764.
      151. 574. 155. 156. 897. 259. 766. 129. 530. 149. 369. 230. 248.
      294. 187. 188. 157. 116. 94. 101. 119. 91. 54. 126. 115. 137. 86.
      287. 197. 296. 79. 665. 237. 670. 99. 88. 525. 165. 478. 218. 315.
      188. 385. 91. 182. 155. 102. 251. 172. 151. 128. 232. 498. 190.
      190. 278. 186. 159. 196. 1000. 358. 482. 217. 736. 161. 670. 220.
      266. 1274. 401. 794. 272. 1029. 197. 623. 195. 253. 343. 296. 198.
      306. 259. 226. 119. 150. 96. 213. 281. 315. 202. 317. 225. 215.
      266. 127. 519. 132. 665. 214. 161. 596. 153. 674. 200. 457. 191.
      518. 157. 269. 173. 190. 174. 171. 205. 184. 156. 260. 243. 198.
      174. 131. 363. 194. 298. 183. 506. 155. 434. 175. 426. 227. 184.
      774. 240. 472. 109. 198. 523. 558. 200. 213. 212. 201. 117. 134.
      143. 171. 130. 210. 216. 131. 167. 228. 143. 247. 509. 188. 543.
      120. 878. 396. 552. 185. 161. 815. 225. 1126. 385. 599. 577. 1730.
      90. 243. 264. 342. 190. 192. 135. 264. 157. 140. 153. 100. 67.
      156. 181. 155. 266. 170. 206. 93. 456. 90. 304. 120. 203. 499.
      194. 325. 149. 388. 140. 368. 130. 125. 199. 156. 142. 96. 137.
      151. 66. 129. 142. 129. 171. 221. 226. 237. 214. 98. 401. 87. 861.
      209. 741. 164. 135. 726. 161. 1102. 331. 822. 262. 1120. 101. 116.
      198. 242. 174. 135. 86. 157.</_>
    <_>
      395. 322. 286. 217. 276. 260. 145. 92. 683. 315. 555. 268. 526.
      325. 402. 172. 258. 1043. 248. 925. 176. 512. 181. 428. 351. 395.
      398. 339. 240. 222. 114. 106. 57. 93. 111. 76. 147. 101. 87. 86.
      227. 127. 242. 83. 370. 229. 534. 117. 83. 424. 78. 505. 177. 374.
      187. 299. 82. 126. 140. 83. 146. 166. 123. 114. 303. 458. 337.
      315. 482. 403. 240. 255. 621. 533. 362. 363. 590. 390. 469. 323.
      290. 1307. 548. 1226. 240. 1405. 252. 711. 349. 385. 452. 487.
      316. 318. 278. 194. 99. 162. 124. 92. 249. 332. 239. 307. 393.
      193. 199. 110. 506. 306. 543. 212. 74. 497. 148. 562. 174. 540.
      192. 491. 115. 170. 114. 156. 365. 103. 288. 104. 230. 290. 285.
      169. 175. 87. 208. 134. 293. 166. 289. 91. 359. 216. 547. 134.
      199. 1097. 146. 680. 99. 224. 236. 386. 208. 276. 195. 262. 117.
      162. 134. 79. 148. 154. 237. 97. 175. 155. 200. 144. 356. 209.
      476. 174. 833. 548. 860. 259. 115. 1092. 158. 1611. 238. 674. 306.
      1417. 142. 145. 179. 232. 235. 151. 135. 89. 90. 127. 160. 99. 75.
      91. 271. 75. 243. 91. 197. 117. 365. 114. 409. 89. 138. 741. 138.
      465. 40. 277. 92. 292. 97. 89. 101. 102. 122. 93. 100. 91. 82.
      100. 91. 65. 135. 285. 286. 125. 272. 73. 413. 97. 1047. 216. 907.
      147. 62. 612. 114. 1088. 195. 1610. 175. 1796. 66. 77. 64. 95.
      187. 96. 106. 78.</_>
    <_>
      509. 157. 186. 188. 138. 58. 95. 68. 762. 214. 940. 182. 522. 223.
      381. 98. 119. 2106. 217. 1520. 74. 655. 56. 428. 146. 170. 202.
      136. 96. 79. 44. 42. 76. 119. 138. 115. 177. 72. 102. 104. 315.
      113. 314. 90. 441. 168. 420. 134. 76. 396. 144. 495. 149. 169.
      270. 302. 104. 108. 154. 85. 126. 163. 163. 155. 171. 229. 161.
      155. 160. 129. 123. 130. 943. 368. 547. 260. 598. 126. 396. 171.
      138. 1847. 247. 1194. 150. 2090. 211. 949. 177. 181. 250. 136.
      127. 328. 174. 148. 58. 103. 114. 94. 168. 124. 174. 176. 289.
      194. 228. 152. 418. 188. 497. 227. 99. 422. 168. 382. 112. 279.
      240. 365. 133. 129. 176. 143. 149. 196. 273. 132. 290. 130. 167.
      107. 208. 140. 143. 133. 347. 189. 515. 102. 457. 197. 624. 132.
      200. 468. 93. 273. 152. 158. 114. 210. 110. 158. 160. 135. 120.
      63. 129. 81. 172. 275. 298. 206. 413. 339. 304. 271. 556. 312.
      754. 230. 1243. 553. 1189. 319. 381. 1038. 281. 1070. 475. 454.
      335. 873. 276. 397. 329. 414. 487. 340. 318. 263. 115. 169. 145.
      158. 146. 138. 167. 51. 207. 109. 255. 133. 296. 92. 320. 123.
      128. 483. 169. 258. 132. 487. 203. 355. 124. 103. 119. 77. 84.
      173. 116. 109. 139. 171. 221. 253. 301. 373. 453. 315. 411. 166.
      540. 242. 924. 314. 1121. 423. 190. 516. 354. 600. 398. 1105. 472.
      1054. 150. 153. 198. 215. 358. 321. 265. 286.</_>
    <_>
      199. 239. 254. 251. 230. 149. 144. 130. 866. 215. 829. 174. 528.
      212. 402. 107. 156. 1592. 210. 1259. 77. 631. 137. 501. 159. 186.
      200. 124. 113. 162. 100. 84. 140. 137. 160. 155. 137. 148. 160.
      124. 288. 141. 211. 114. 248. 160. 348. 154. 116. 309. 193. 285.
      127. 222. 157. 219. 157. 229. 174. 111. 205. 180. 241. 159. 230.
      388. 210. 196. 227. 212. 225. 184. 917. 279. 461. 233. 584. 184.
      562. 248. 218. 1510. 304. 860. 144. 1393. 245. 637. 225. 317. 211.
      258. 254. 332. 233. 151. 119. 179. 129. 154. 278. 255. 297. 264.
      255. 209. 191. 120. 289. 213. 341. 233. 110. 363. 206. 257. 241.
      467. 207. 395. 188. 249. 177. 203. 185. 209. 263. 223. 227. 238.
      189. 166. 157. 172. 278. 186. 367. 237. 340. 187. 309. 204. 327.
      202. 172. 378. 222. 394. 137. 160. 167. 246. 254. 170. 430. 290.
      187. 166. 173. 162. 227. 308. 337. 248. 386. 269. 407. 276. 465.
      353. 633. 213. 739. 402. 1018. 243. 263. 803. 294. 1107. 476. 522.
      315. 1308. 290. 379. 307. 365. 262. 289. 400. 249. 191. 249. 127.
      119. 132. 117. 152. 113. 216. 211. 116. 103. 239. 156. 191. 120.
      182. 355. 205. 272. 174. 345. 259. 283. 154. 92. 121. 192. 168.
      226. 151. 137. 183. 197. 288. 334. 360. 347. 424. 416. 415. 217.
      437. 206. 803. 324. 750. 396. 150. 406. 229. 627. 379. 1180. 317.
      932. 178. 217. 230. 291. 406. 361. 317. 338.</_>
    <_>
      145. 167. 187. 208. 205. 154. 209. 89. 1006. 309. 1135. 179. 673.
      190. 676. 186. 159. 1540. 237. 1387. 145. 760. 142. 547. 203. 202.
      167. 161. 125. 191. 97. 112. 65. 137. 150. 107. 176. 108. 137. 78.
      320. 207. 195. 84. 500. 187. 311. 119. 126. 376. 182. 443. 229.
      314. 182. 309. 98. 175. 168. 122. 214. 181. 237. 112. 160. 363.
      260. 269. 254. 183. 203. 181. 1182. 345. 796. 215. 689. 260. 649.
      316. 222. 1566. 401. 1039. 201. 1403. 204. 810. 181. 286. 218.
      170. 255. 520. 248. 252. 60. 116. 126. 144. 185. 238. 176. 275.
      332. 137. 198. 188. 441. 215. 449. 272. 113. 332. 197. 519. 231.
      560. 177. 661. 96. 107. 197. 205. 220. 209. 379. 228. 346. 267.
      214. 184. 195. 141. 134. 183. 306. 309. 360. 139. 430. 237. 390.
      268. 224. 469. 267. 510. 158. 231. 276. 382. 228. 174. 226. 276.
      127. 113. 104. 180. 160. 314. 331. 174. 210. 232. 217. 171. 313.
      316. 376. 196. 661. 310. 705. 172. 229. 935. 238. 1146. 312. 438.
      304. 1103. 154. 228. 188. 321. 225. 245. 181. 258. 228. 250. 191.
      109. 137. 124. 77. 105. 257. 218. 213. 112. 332. 146. 259. 166.
      241. 497. 323. 397. 186. 491. 210. 334. 131. 136. 154. 151. 153.
      197. 158. 157. 130. 149. 188. 172. 303. 303. 274. 294. 276. 170.
      332. 153. 843. 215. 907. 223. 190. 472. 231. 739. 264. 842. 207.
      763. 127. 199. 144. 180. 243. 197. 167. 126.</_>
    <_>
      169. 190. 177. 220. 189. 137. 203. 92. 949. 340. 1124. 162. 669.
      214. 711. 185. 147. 1549. 229. 1387. 144. 775. 142. 552. 213. 192.
      140. 162. 118. 185. 102. 127. 67. 120. 147. 108. 175. 114. 139.
      73. 323. 202. 205. 96. 532. 192. 298. 123. 126. 425. 166. 427.
      250. 293. 190. 288. 92. 178. 173. 121. 223. 184. 255. 120. 201.
      357. 251. 252. 260. 197. 204. 189. 1165. 363. 804. 212. 708. 253.
      632. 299. 190. 1545. 413. 1017. 188. 1403. 214. 835. 181. 282.
      233. 155. 255. 503. 251. 250. 59. 120. 130. 160. 209. 252. 173.
      300. 318. 151. 201. 189. 441. 227. 466. 288. 115. 335. 175. 549.
      240. 533. 182. 635. 98. 111. 210. 198. 218. 231. 358. 222. 326.
      242. 228. 173. 167. 139. 149. 176. 340. 300. 394. 125. 445. 256.
      383. 254. 209. 448. 254. 500. 166. 251. 271. 390. 227. 172. 223.
      263. 117. 115. 99. 182. 177. 319. 323. 159. 204. 202. 209. 168.
      313. 340. 403. 200. 681. 259. 703. 171. 236. 940. 216. 1178. 304.
      460. 318. 1111. 158. 197. 195. 323. 222. 232. 202. 227. 223. 239.
      163. 99. 138. 135. 79. 115. 265. 228. 206. 125. 323. 167. 252.
      177. 238. 524. 326. 356. 215. 454. 207. 338. 139. 129. 158. 175.
      153. 196. 159. 148. 150. 150. 182. 164. 306. 296. 280. 303. 282.
      183. 316. 141. 824. 214. 901. 223. 191. 454. 241. 738. 251. 801.
      219. 745. 124. 204. 147. 186. 249. 205. 156. 115.</_>
    <_>
      183. 181. 176. 228. 215. 154. 181. 79. 964. 364. 1095. 176. 651.
      242. 681. 163. 162. 1496. 215. 1382. 141. 747. 148. 534. 204. 190.
      160. 184. 124. 192. 101. 126. 71. 126. 145. 121. 178. 120. 121.
      93. 320. 194. 203. 103. 531. 185. 314. 128. 123. 425. 146. 433.
      231. 297. 207. 306. 94. 163. 170. 130. 204. 173. 248. 117. 175.
      356. 247. 261. 270. 214. 236. 176. 1207. 390. 832. 213. 767. 256.
      610. 306. 178. 1535. 398. 982. 189. 1373. 216. 823. 211. 266. 238.
      180. 282. 492. 264. 288. 70. 122. 118. 151. 176. 249. 171. 291.
      340. 158. 181. 186. 444. 184. 439. 298. 124. 349. 190. 533. 224.
      569. 180. 644. 89. 109. 194. 201. 206. 259. 327. 223. 335. 238.
      222. 164. 189. 143. 157. 188. 331. 266. 386. 136. 441. 253. 427.
      218. 226. 462. 248. 482. 168. 276. 291. 378. 210. 166. 217. 264.
      128. 96. 118. 179. 163. 319. 328. 157. 221. 191. 206. 165. 303.
      346. 378. 198. 661. 240. 686. 154. 237. 905. 234. 1210. 300. 485.
      339. 1141. 169. 223. 204. 317. 242. 230. 166. 229. 210. 225. 150.
      112. 141. 133. 79. 116. 244. 227. 218. 138. 312. 176. 281. 167.
      234. 513. 338. 398. 214. 441. 213. 340. 136. 136. 135. 170. 139.
      181. 147. 170. 133. 120. 174. 164. 306. 296. 290. 309. 290. 175.
      322. 146. 840. 189. 865. 228. 194. 475. 237. 753. 252. 796. 221.
      749. 113. 194. 163. 160. 266. 208. 171. 128.</_>
    <_>
      1754. 254. 348. 265. 301. 199. 141. 95. 761. 287. 507. 211. 659.
      351. 355. 119. 171. 1040. 207. 836. 211. 454. 260. 570. 284. 294.
      278. 189. 194. 220. 159. 122. 77. 137. 61. 79. 230. 125. 72. 65.
      125. 90. 132. 60. 296. 261. 328. 109. 74. 542. 152. 578. 166. 234.
      183. 316. 102. 134. 100. 129. 144. 130. 123. 82. 242. 259. 488.
      321. 336. 302. 282. 179. 770. 253. 585. 382. 741. 303. 637. 258.
      261. 1704. 531. 886. 250. 1151. 312. 758. 228. 314. 348. 295. 332.
      355. 333. 238. 65. 107. 81. 125. 217. 370. 144. 378. 132. 88. 134.
      78. 492. 307. 417. 155. 87. 430. 130. 452. 200. 546. 183. 664. 78.
      172. 163. 129. 258. 113. 301. 117. 178. 257. 230. 153. 226. 114.
      250. 130. 330. 240. 249. 139. 340. 218. 310. 112. 182. 702. 109.
      597. 126. 216. 139. 312. 240. 267. 191. 313. 177. 114. 134. 82.
      173. 215. 200. 103. 284. 258. 157. 141. 433. 270. 656. 149. 699.
      445. 561. 144. 215. 1170. 170. 1806. 215. 759. 223. 1572. 108.
      188. 168. 249. 269. 207. 269. 211. 125. 174. 129. 92. 137. 114.
      164. 108. 115. 71. 90. 69. 244. 74. 186. 48. 153. 960. 162. 570.
      159. 372. 106. 356. 81. 179. 84. 107. 92. 77. 90. 53. 81. 140. 89.
      101. 194. 349. 120. 211. 215. 127. 481. 93. 968. 248. 890. 137.
      60. 748. 123. 1803. 137. 1335. 80. 1887. 56. 127. 150. 199. 146.
      135. 156. 130.</_>
    <_>
      1392. 291. 331. 288. 301. 194. 185. 100. 768. 347. 420. 248. 601.
      337. 344. 149. 205. 1034. 215. 847. 223. 490. 256. 529. 329. 310.
      279. 244. 183. 216. 142. 102. 77. 151. 68. 84. 203. 118. 78. 68.
      106. 114. 149. 61. 324. 180. 298. 117. 61. 517. 159. 512. 206.
      230. 178. 262. 102. 160. 113. 121. 191. 161. 132. 102. 237. 251.
      445. 343. 346. 286. 272. 204. 731. 227. 549. 444. 745. 338. 639.
      303. 252. 1561. 479. 837. 265. 1099. 300. 688. 243. 309. 333. 332.
      335. 359. 368. 273. 57. 98. 94. 133. 213. 402. 176. 401. 118. 78.
      144. 91. 450. 324. 498. 182. 85. 388. 110. 455. 246. 512. 187.
      641. 57. 181. 150. 173. 262. 130. 367. 158. 192. 250. 270. 181.
      278. 152. 282. 148. 312. 256. 205. 138. 335. 174. 357. 143. 214.
      662. 115. 567. 128. 210. 134. 278. 258. 241. 218. 317. 197. 145.
      125. 74. 216. 234. 194. 108. 305. 345. 142. 122. 474. 317. 628.
      156. 723. 402. 523. 120. 209. 1129. 182. 1829. 233. 784. 225.
      1597. 148. 179. 168. 255. 262. 193. 215. 195. 112. 182. 135. 82.
      137. 133. 150. 113. 125. 79. 118. 66. 236. 100. 206. 65. 161. 898.
      178. 539. 162. 378. 102. 336. 72. 164. 100. 144. 120. 76. 97. 63.
      73. 137. 94. 129. 162. 381. 83. 225. 194. 112. 490. 81. 999. 244.
      836. 149. 69. 736. 115. 1741. 131. 1289. 83. 1811. 57. 107. 181.
      189. 115. 178. 165. 190.</_>
    <_>
      655. 250. 263. 196. 292. 195. 121. 78. 789. 318. 715. 206. 681.
      422. 397. 156. 229. 1025. 271. 760. 185. 500. 197. 314. 360. 250.
      306. 184. 201. 269. 189. 129. 86. 119. 110. 99. 197. 110. 98. 46.
      156. 177. 189. 70. 374. 237. 370. 141. 73. 321. 177. 242. 178.
      212. 184. 213. 93. 204. 115. 114. 204. 191. 192. 80. 250. 356.
      431. 301. 356. 191. 294. 205. 894. 415. 628. 409. 646. 304. 635.
      347. 238. 1277. 609. 674. 271. 1271. 254. 569. 302. 256. 355. 432.
      306. 371. 315. 278. 84. 123. 123. 152. 184. 277. 225. 265. 251.
      142. 264. 108. 411. 148. 509. 216. 76. 351. 165. 401. 156. 532.
      181. 485. 98. 224. 140. 164. 234. 133. 230. 104. 245. 260. 220.
      135. 169. 157. 179. 159. 275. 225. 312. 122. 323. 145. 413. 124.
      253. 948. 90. 553. 149. 165. 118. 177. 241. 312. 177. 300. 110.
      136. 103. 109. 253. 278. 280. 146. 343. 310. 282. 150. 423. 250.
      584. 161. 1055. 479. 942. 185. 259. 944. 266. 1795. 290. 861. 283.
      1300. 92. 277. 149. 218. 218. 144. 308. 248. 135. 113. 125. 152.
      183. 135. 130. 116. 132. 178. 223. 94. 371. 138. 306. 126. 211.
      461. 85. 419. 138. 268. 81. 237. 77. 82. 97. 94. 147. 104. 94.
      101. 95. 169. 182. 140. 192. 356. 162. 213. 246. 104. 436. 80.
      864. 284. 1070. 222. 131. 545. 143. 1520. 262. 1560. 119. 1842.
      90. 116. 156. 167. 212. 157. 171. 193.</_>
    <_>
      157. 183. 142. 199. 175. 93. 97. 89. 764. 172. 1232. 208. 799. 98.
      509. 85. 263. 1207. 215. 1232. 115. 874. 86. 482. 314. 329. 310.
      330. 130. 112. 115. 98. 51. 109. 101. 129. 101. 70. 104. 57. 202.
      71. 130. 79. 287. 132. 156. 102. 125. 432. 198. 478. 134. 288.
      116. 391. 62. 202. 92. 95. 110. 136. 96. 86. 142. 306. 183. 321.
      345. 250. 236. 313. 405. 243. 556. 403. 545. 211. 363. 219. 129.
      2271. 411. 1659. 136. 1419. 174. 1046. 118. 231. 164. 262. 154.
      249. 193. 211. 68. 114. 108. 151. 207. 276. 209. 337. 310. 123.
      133. 147. 399. 303. 361. 226. 107. 502. 183. 791. 148. 623. 220.
      866. 112. 218. 122. 178. 216. 221. 390. 166. 247. 350. 241. 166.
      242. 153. 140. 111. 232. 114. 258. 149. 298. 130. 190. 108. 245.
      750. 163. 811. 170. 382. 135. 284. 170. 184. 225. 201. 79. 82. 69.
      101. 161. 300. 274. 272. 315. 312. 229. 199. 229. 245. 324. 279.
      680. 349. 412. 216. 265. 1721. 249. 1978. 736. 784. 247. 1189.
      209. 283. 232. 395. 332. 262. 153. 178. 97. 149. 86. 190. 78. 81.
      91. 107. 71. 105. 181. 128. 195. 126. 227. 59. 125. 782. 153. 691.
      95. 481. 96. 465. 64. 101. 64. 159. 110. 125. 118. 102. 68. 153.
      228. 291. 192. 281. 207. 298. 154. 118. 285. 229. 490. 317. 726.
      355. 143. 608. 303. 1022. 307. 1170. 287. 1287. 100. 127. 203.
      318. 319. 248. 315. 221.</_>
    <_>
      194. 160. 178. 220. 169. 111. 104. 64. 794. 198. 1160. 204. 1033.
      197. 586. 80. 221. 1211. 166. 1113. 91. 815. 92. 445. 304. 356.
      250. 258. 143. 177. 94. 114. 55. 113. 88. 100. 108. 91. 118. 68.
      214. 117. 240. 66. 444. 112. 396. 84. 111. 416. 104. 339. 131.
      396. 178. 285. 160. 204. 157. 121. 147. 112. 128. 91. 115. 263.
      228. 331. 325. 151. 327. 237. 650. 230. 751. 420. 733. 258. 431.
      250. 218. 2027. 478. 1952. 163. 1133. 122. 911. 194. 298. 250.
      291. 181. 172. 155. 162. 61. 85. 115. 205. 247. 407. 124. 365.
      260. 133. 217. 161. 381. 203. 480. 288. 88. 349. 148. 531. 192.
      498. 204. 545. 113. 149. 143. 228. 204. 277. 299. 240. 237. 288.
      226. 197. 149. 153. 143. 127. 270. 173. 272. 138. 408. 152. 394.
      154. 110. 600. 195. 589. 197. 371. 191. 266. 177. 176. 204. 255.
      115. 93. 107. 122. 219. 316. 236. 323. 351. 293. 244. 216. 287.
      274. 346. 248. 387. 360. 425. 157. 337. 1360. 323. 1732. 771. 735.
      365. 1243. 225. 274. 255. 386. 324. 327. 188. 225. 131. 143. 124.
      198. 115. 78. 136. 102. 197. 158. 211. 155. 281. 161. 259. 94.
      114. 518. 213. 485. 166. 363. 94. 363. 88. 108. 93. 184. 84. 83.
      116. 141. 91. 229. 220. 304. 231. 400. 280. 255. 210. 150. 228.
      218. 502. 232. 420. 222. 176. 465. 293. 1054. 357. 929. 328. 1191.
      119. 135. 207. 267. 359. 319. 231. 278.</_>
    <_>
      166. 175. 155. 119. 153. 111. 102. 85. 1031. 196. 1220. 99. 1192.
      165. 713. 58. 148. 910. 183. 997. 148. 790. 135. 468. 176. 168.
      99. 99. 117. 178. 105. 102. 102. 143. 106. 123. 123. 150. 115.
      122. 173. 89. 185. 93. 331. 152. 258. 101. 78. 523. 136. 383. 258.
      476. 201. 362. 95. 166. 116. 111. 124. 161. 110. 106. 103. 264.
      150. 230. 250. 170. 200. 181. 831. 439. 629. 281. 854. 107. 729.
      271. 219. 1217. 398. 1216. 203. 1195. 204. 1012. 204. 297. 197.
      317. 96. 201. 198. 182. 71. 147. 96. 236. 208. 176. 187. 288. 185.
      99. 137. 125. 534. 159. 339. 169. 110. 455. 200. 715. 195. 476.
      218. 640. 97. 175. 173. 205. 165. 161. 267. 152. 170. 239. 210.
      127. 232. 179. 181. 86. 224. 194. 180. 123. 223. 163. 268. 134.
      223. 466. 193. 525. 195. 330. 130. 275. 154. 178. 138. 258. 67.
      106. 78. 122. 152. 264. 274. 288. 231. 340. 174. 210. 223. 280.
      295. 188. 776. 425. 859. 190. 301. 1440. 309. 1629. 385. 1258.
      339. 1506. 124. 241. 84. 251. 202. 298. 165. 231. 110. 204. 114.
      144. 87. 202. 68. 129. 105. 152. 162. 121. 174. 123. 161. 88. 227.
      515. 250. 685. 214. 489. 102. 507. 82. 143. 95. 212. 84. 161. 72.
      152. 100. 226. 264. 255. 166. 255. 186. 251. 196. 143. 424. 131.
      1157. 293. 1262. 290. 185. 852. 322. 1477. 302. 1319. 287. 1333.
      80. 188. 172. 286. 267. 271. 232. 251.</_>
    <_>
      173. 147. 288. 206. 199. 129. 152. 50. 1351. 281. 1559. 208. 1108.
      165. 602. 109. 145. 899. 248. 959. 139. 602. 151. 544. 215. 295.
      156. 182. 164. 114. 101. 103. 73. 136. 78. 103. 147. 148. 111. 65.
      318. 113. 273. 85. 470. 103. 367. 96. 132. 570. 184. 451. 169.
      331. 163. 430. 86. 149. 133. 109. 109. 98. 138. 108. 183. 330.
      149. 207. 209. 215. 226. 185. 1428. 505. 833. 287. 1119. 210. 794.
      238. 250. 1151. 190. 1252. 162. 1133. 167. 1069. 244. 356. 196.
      272. 155. 159. 130. 136. 83. 101. 76. 188. 225. 225. 195. 220.
      183. 186. 208. 83. 410. 205. 398. 197. 126. 489. 205. 620. 129.
      383. 185. 539. 115. 134. 137. 205. 151. 132. 215. 136. 160. 152.
      190. 110. 185. 136. 194. 119. 325. 101. 355. 109. 344. 141. 354.
      193. 152. 441. 121. 456. 123. 297. 161. 350. 159. 201. 184. 226.
      100. 71. 83. 114. 155. 227. 249. 221. 174. 221. 151. 136. 350.
      217. 569. 121. 1084. 254. 1207. 197. 254. 1190. 224. 1408. 340.
      1010. 298. 1298. 125. 252. 139. 254. 169. 202. 185. 167. 90. 173.
      73. 134. 99. 201. 117. 173. 177. 118. 202. 90. 265. 105. 207. 134.
      170. 675. 167. 630. 193. 448. 212. 482. 124. 137. 124. 158. 121.
      145. 75. 165. 106. 158. 209. 148. 139. 215. 161. 233. 274. 121.
      487. 112. 1206. 273. 1438. 248. 141. 750. 239. 1133. 189. 1075.
      275. 1282. 92. 130. 146. 180. 185. 170. 262. 170.</_>
    <_>
      300. 207. 294. 241. 285. 195. 288. 144. 1060. 334. 1280. 300. 498.
      210. 526. 166. 125. 742. 287. 674. 121. 404. 237. 434. 255. 347.
      379. 284. 190. 192. 223. 144. 76. 117. 136. 105. 205. 95. 160. 69.
      237. 197. 320. 107. 290. 152. 372. 137. 94. 428. 170. 286. 281.
      301. 199. 245. 179. 341. 217. 154. 245. 188. 300. 177. 210. 295.
      299. 228. 290. 276. 251. 230. 857. 330. 572. 307. 524. 217. 337.
      210. 270. 979. 598. 594. 174. 1061. 301. 611. 205. 295. 287. 355.
      262. 328. 224. 203. 80. 156. 167. 125. 327. 345. 306. 458. 440.
      237. 181. 91. 534. 206. 444. 146. 134. 419. 185. 333. 115. 450.
      193. 396. 150. 367. 115. 216. 228. 208. 302. 197. 239. 346. 239.
      210. 206. 166. 382. 196. 289. 232. 484. 136. 253. 129. 409. 145.
      199. 705. 197. 565. 97. 167. 538. 500. 177. 250. 214. 278. 116.
      115. 141. 144. 178. 254. 290. 105. 203. 246. 317. 224. 432. 267.
      679. 73. 645. 402. 736. 177. 206. 1105. 139. 1382. 272. 496. 454.
      1655. 119. 318. 175. 212. 205. 232. 273. 223. 119. 212. 155. 97.
      165. 204. 224. 188. 179. 136. 232. 95. 305. 192. 409. 95. 240.
      679. 167. 271. 91. 344. 165. 272. 98. 173. 79. 146. 145. 160. 193.
      146. 88. 198. 155. 130. 243. 281. 291. 237. 413. 210. 637. 77.
      1214. 249. 1109. 157. 114. 449. 111. 841. 130. 867. 205. 1037. 81.
      226. 83. 131. 252. 200. 237. 236.</_>
    <_>
      219. 268. 303. 218. 209. 159. 177. 131. 1498. 318. 1582. 219. 645.
      262. 704. 215. 182. 936. 247. 798. 116. 461. 173. 416. 307. 380.
      351. 276. 184. 148. 122. 146. 100. 112. 142. 92. 157. 91. 162. 65.
      256. 140. 333. 131. 374. 202. 532. 141. 126. 507. 197. 330. 181.
      293. 171. 204. 104. 258. 135. 90. 196. 233. 152. 78. 290. 375.
      304. 226. 305. 199. 256. 185. 1270. 397. 773. 193. 715. 369. 546.
      264. 245. 1258. 332. 746. 237. 1016. 228. 513. 347. 307. 234. 265.
      298. 375. 306. 234. 85. 183. 126. 93. 319. 363. 218. 416. 424.
      191. 251. 106. 608. 163. 679. 122. 95. 361. 108. 228. 156. 479.
      130. 393. 122. 172. 147. 145. 192. 201. 279. 211. 181. 235. 249.
      158. 116. 152. 253. 196. 395. 186. 362. 148. 379. 172. 546. 138.
      149. 659. 155. 512. 100. 164. 305. 390. 194. 306. 200. 310. 120.
      110. 184. 120. 205. 187. 325. 99. 166. 192. 245. 131. 446. 365.
      763. 163. 828. 374. 753. 145. 145. 1239. 192. 1819. 125. 492. 353.
      1526. 132. 179. 125. 250. 98. 117. 139. 154. 163. 146. 228. 94.
      172. 98. 201. 148. 287. 126. 212. 92. 390. 240. 320. 95. 158. 420.
      167. 264. 110. 231. 186. 334. 111. 164. 129. 92. 147. 156. 197.
      102. 100. 85. 144. 94. 203. 243. 245. 193. 341. 148. 650. 65.
      1261. 310. 1090. 156. 80. 419. 76. 1066. 160. 950. 145. 1166. 95.
      134. 127. 81. 222. 125. 188. 113.</_>
    <_>
      142. 247. 209. 204. 231. 106. 162. 76. 1027. 263. 1078. 206. 642.
      159. 635. 128. 147. 1100. 195. 1112. 139. 688. 83. 518. 252. 327.
      243. 250. 158. 172. 141. 107. 101. 123. 100. 112. 219. 83. 201.
      113. 323. 152. 311. 95. 419. 93. 299. 114. 89. 551. 165. 518. 186.
      175. 100. 238. 154. 217. 208. 138. 166. 106. 210. 86. 155. 432.
      202. 321. 303. 254. 289. 282. 1139. 436. 663. 329. 635. 155. 515.
      252. 223. 1268. 268. 1060. 267. 1345. 215. 885. 206. 314. 234.
      358. 216. 147. 136. 228. 95. 174. 83. 149. 301. 304. 251. 352.
      378. 257. 168. 177. 461. 175. 504. 331. 95. 393. 64. 373. 157.
      487. 168. 429. 127. 249. 144. 194. 169. 151. 218. 194. 212. 261.
      234. 140. 246. 107. 139. 140. 275. 192. 284. 155. 375. 134. 510.
      159. 254. 472. 197. 522. 149. 180. 140. 256. 297. 211. 288. 287.
      163. 159. 156. 165. 265. 270. 351. 210. 336. 239. 310. 204. 411.
      276. 538. 240. 587. 218. 828. 193. 252. 943. 316. 1445. 386. 578.
      279. 1147. 304. 319. 248. 269. 267. 204. 255. 187. 168. 211. 115.
      130. 183. 140. 117. 124. 227. 146. 182. 145. 379. 122. 351. 186.
      155. 490. 114. 477. 136. 342. 100. 405. 118. 146. 91. 194. 191.
      91. 204. 148. 139. 148. 229. 143. 237. 348. 249. 287. 293. 96.
      448. 155. 1258. 163. 1359. 204. 124. 497. 126. 848. 259. 952. 201.
      930. 125. 195. 159. 233. 259. 215. 234. 209.</_>
    <_>
      132. 148. 159. 138. 176. 73. 123. 90. 929. 209. 1004. 159. 695.
      149. 428. 115. 107. 996. 162. 1002. 102. 645. 122. 395. 206. 201.
      142. 123. 118. 163. 78. 79. 58. 130. 76. 75. 158. 85. 167. 71.
      304. 102. 304. 59. 424. 123. 401. 91. 95. 371. 102. 361. 152. 181.
      151. 277. 107. 80. 170. 127. 159. 114. 143. 51. 174. 175. 166.
      222. 241. 167. 267. 200. 992. 393. 545. 305. 789. 146. 521. 237.
      175. 1181. 189. 959. 139. 999. 172. 807. 140. 182. 181. 160. 124.
      189. 99. 173. 68. 172. 144. 129. 170. 186. 211. 241. 580. 310.
      275. 167. 346. 98. 664. 246. 114. 375. 126. 410. 190. 632. 174.
      487. 120. 257. 125. 197. 135. 130. 161. 180. 162. 211. 207. 182.
      111. 88. 143. 113. 215. 112. 553. 139. 313. 137. 561. 217. 141.
      359. 221. 422. 143. 180. 188. 237. 210. 181. 187. 227. 118. 93.
      162. 145. 275. 375. 343. 201. 432. 316. 482. 250. 448. 212. 895.
      199. 1304. 422. 1900. 319. 296. 899. 302. 1277. 507. 687. 438.
      1406. 259. 218. 329. 373. 266. 152. 293. 217. 165. 189. 158. 180.
      159. 164. 91. 99. 282. 125. 338. 183. 294. 120. 351. 201. 172.
      460. 150. 304. 199. 501. 177. 383. 136. 85. 93. 96. 146. 130. 113.
      125. 151. 133. 215. 238. 242. 246. 375. 264. 457. 197. 670. 220.
      1258. 300. 1289. 342. 228. 761. 285. 901. 365. 1007. 361. 973.
      154. 215. 195. 332. 281. 329. 295. 316.</_>
    <_>
      151. 109. 255. 276. 176. 82. 117. 112. 881. 282. 834. 162. 753.
      153. 326. 112. 123. 1416. 154. 1260. 107. 657. 106. 518. 149. 274.
      126. 144. 176. 162. 117. 141. 91. 167. 151. 83. 137. 84. 147. 120.
      207. 65. 331. 47. 445. 75. 479. 109. 111. 454. 153. 513. 194. 224.
      163. 341. 79. 163. 179. 58. 117. 128. 136. 80. 102. 106. 264. 269.
      274. 138. 247. 229. 909. 324. 494. 243. 826. 148. 605. 226. 149.
      1861. 251. 1386. 223. 1269. 127. 747. 139. 286. 197. 210. 162.
      238. 173. 147. 80. 107. 100. 125. 156. 132. 112. 192. 419. 206.
      240. 161. 382. 137. 570. 189. 109. 485. 142. 411. 137. 528. 193.
      407. 93. 253. 163. 191. 105. 147. 132. 117. 208. 217. 195. 205.
      102. 134. 184. 156. 280. 139. 596. 96. 268. 120. 396. 171. 158.
      358. 169. 406. 141. 163. 120. 334. 128. 167. 130. 187. 119. 78.
      131. 158. 221. 354. 357. 261. 348. 248. 272. 164. 429. 167. 855.
      148. 1355. 275. 2171. 265. 275. 1092. 257. 1342. 425. 701. 382.
      908. 241. 277. 341. 279. 352. 218. 341. 246. 106. 267. 98. 83.
      130. 150. 175. 104. 229. 129. 201. 88. 344. 117. 280. 146. 199.
      548. 192. 341. 180. 626. 172. 353. 90. 99. 138. 134. 122. 137.
      147. 155. 87. 166. 125. 211. 292. 281. 281. 314. 461. 205. 573.
      141. 1053. 282. 1200. 312. 156. 801. 238. 1008. 263. 838. 261.
      965. 121. 208. 162. 271. 296. 276. 289. 270.</_>
    <_>
      235. 280. 201. 186. 196. 112. 175. 97. 1089. 335. 1069. 190. 864.
      345. 585. 170. 183. 1053. 221. 1001. 204. 641. 166. 451. 260. 296.
      286. 187. 148. 211. 113. 144. 88. 156. 196. 160. 99. 103. 158.
      113. 283. 163. 258. 100. 225. 136. 341. 82. 144. 357. 203. 548.
      154. 173. 163. 367. 115. 200. 165. 149. 129. 152. 181. 92. 265.
      275. 251. 211. 287. 200. 269. 267. 1071. 370. 614. 310. 1042. 311.
      600. 287. 227. 1220. 269. 841. 199. 1098. 208. 722. 215. 307. 260.
      230. 227. 313. 223. 187. 133. 151. 85. 116. 177. 187. 240. 303.
      353. 168. 119. 89. 462. 182. 527. 206. 135. 436. 164. 495. 211.
      474. 196. 518. 196. 244. 98. 150. 137. 133. 179. 117. 154. 226.
      272. 124. 138. 107. 124. 149. 197. 185. 445. 142. 299. 185. 404.
      181. 144. 419. 162. 517. 106. 180. 214. 342. 194. 203. 178. 205.
      108. 94. 136. 161. 305. 331. 345. 216. 251. 287. 290. 205. 564.
      238. 826. 174. 850. 428. 868. 320. 231. 816. 263. 1104. 339. 544.
      409. 1190. 203. 212. 213. 271. 154. 204. 249. 242. 125. 236. 142.
      131. 153. 151. 160. 159. 236. 114. 198. 115. 336. 117. 273. 128.
      208. 663. 155. 397. 160. 534. 148. 398. 95. 137. 155. 139. 145.
      142. 159. 129. 111. 99. 183. 162. 262. 273. 303. 232. 456. 126.
      554. 125. 1269. 379. 1155. 398. 146. 556. 227. 859. 270. 914. 306.
      914. 99. 155. 148. 203. 244. 250. 344. 299.</_>
    <_>
      218. 251. 220. 209. 181. 108. 205. 103. 1113. 329. 1083. 180. 812.
      345. 565. 183. 156. 1001. 227. 959. 196. 686. 172. 450. 222. 276.
      259. 183. 144. 221. 118. 133. 88. 159. 183. 143. 109. 93. 198.
      127. 252. 152. 282. 113. 250. 144. 319. 87. 170. 361. 199. 562.
      156. 179. 166. 400. 126. 211. 179. 153. 130. 143. 181. 124. 248.
      277. 259. 217. 278. 182. 267. 261. 1096. 335. 588. 277. 1022. 299.
      563. 272. 240. 1165. 246. 848. 203. 1088. 214. 760. 211. 344. 251.
      206. 210. 284. 206. 183. 124. 144. 88. 130. 174. 189. 226. 290.
      356. 146. 127. 93. 521. 159. 551. 207. 136. 451. 144. 460. 202.
      452. 203. 514. 205. 278. 112. 174. 137. 149. 165. 129. 185. 229.
      254. 114. 137. 109. 122. 130. 259. 202. 488. 112. 322. 165. 392.
      177. 135. 450. 160. 481. 113. 177. 208. 360. 186. 212. 166. 201.
      102. 119. 137. 174. 305. 300. 368. 208. 255. 293. 244. 193. 532.
      278. 785. 143. 815. 417. 877. 324. 248. 832. 251. 1120. 338. 502.
      420. 1209. 193. 213. 204. 279. 175. 167. 266. 262. 110. 236. 172.
      135. 181. 177. 151. 177. 231. 102. 194. 111. 362. 154. 339. 129.
      224. 718. 135. 369. 182. 521. 148. 450. 95. 130. 146. 165. 159.
      141. 162. 124. 103. 93. 184. 167. 249. 269. 282. 259. 440. 152.
      572. 119. 1192. 395. 1171. 369. 162. 631. 213. 842. 302. 899. 291.
      942. 92. 164. 136. 200. 243. 254. 357. 249.</_>
    <_>
      226. 367. 343. 269. 222. 231. 170. 139. 1246. 355. 1359. 249. 548.
      224. 389. 154. 223. 778. 293. 727. 150. 580. 145. 443. 258. 203.
      325. 272. 157. 185. 146. 136. 93. 115. 114. 112. 133. 127. 141.
      94. 399. 184. 384. 112. 342. 157. 427. 186. 147. 525. 200. 442.
      144. 355. 254. 329. 125. 222. 167. 142. 128. 200. 202. 167. 174.
      329. 298. 351. 422. 267. 323. 409. 965. 413. 656. 345. 565. 227.
      416. 234. 161. 890. 534. 661. 219. 1162. 247. 701. 200. 329. 258.
      366. 226. 273. 195. 272. 121. 172. 85. 199. 343. 368. 326. 475.
      376. 253. 194. 195. 514. 191. 375. 168. 213. 317. 231. 488. 158.
      495. 158. 435. 146. 240. 163. 228. 139. 189. 234. 172. 173. 302.
      147. 123. 141. 134. 182. 143. 505. 226. 493. 162. 260. 142. 764.
      154. 261. 563. 289. 458. 178. 309. 240. 407. 223. 192. 229. 295.
      161. 146. 144. 167. 165. 209. 110. 101. 131. 200. 273. 209. 475.
      187. 550. 141. 630. 307. 1005. 136. 208. 999. 227. 1222. 241. 686.
      357. 1116. 187. 264. 196. 247. 145. 251. 173. 220. 140. 269. 142.
      155. 112. 160. 236. 186. 271. 194. 154. 106. 205. 108. 348. 133.
      208. 542. 242. 391. 146. 481. 159. 400. 126. 149. 128. 221. 172.
      171. 143. 171. 88. 197. 85. 113. 236. 269. 207. 200. 411. 132.
      298. 92. 1090. 234. 806. 179. 171. 646. 163. 925. 187. 865. 181.
      948. 88. 225. 130. 202. 266. 262. 224. 200.</_>
    <_>
      231. 374. 328. 276. 200. 225. 191. 143. 1254. 302. 1399. 240. 569.
      241. 356. 133. 213. 910. 289. 682. 149. 590. 134. 448. 249. 210.
      354. 266. 175. 187. 132. 122. 81. 110. 107. 106. 126. 119. 138.
      98. 386. 154. 382. 100. 363. 156. 387. 180. 158. 517. 186. 481.
      135. 323. 250. 346. 120. 215. 191. 151. 114. 221. 209. 177. 188.
      338. 316. 312. 409. 236. 346. 410. 986. 434. 594. 344. 505. 212.
      417. 214. 152. 954. 567. 668. 219. 1161. 236. 694. 180. 271. 253.
      341. 224. 320. 191. 262. 102. 172. 97. 189. 316. 355. 350. 450.
      406. 240. 183. 185. 489. 215. 404. 199. 175. 346. 225. 493. 158.
      496. 140. 413. 139. 259. 145. 222. 143. 192. 251. 199. 170. 292.
      139. 107. 154. 137. 183. 143. 479. 213. 533. 156. 276. 123. 758.
      161. 241. 580. 247. 506. 176. 316. 253. 389. 203. 158. 224. 271.
      145. 141. 133. 163. 139. 212. 110. 102. 149. 205. 273. 184. 471.
      197. 587. 128. 638. 294. 1050. 164. 197. 1091. 255. 1228. 268.
      656. 345. 1170. 163. 274. 199. 255. 171. 261. 148. 144. 143. 246.
      127. 153. 110. 153. 228. 192. 260. 172. 153. 95. 215. 112. 327.
      147. 213. 534. 217. 418. 140. 499. 171. 411. 115. 140. 119. 226.
      185. 153. 146. 184. 89. 205. 83. 124. 241. 290. 200. 217. 420.
      148. 319. 118. 1105. 235. 892. 175. 171. 660. 177. 951. 228. 850.
      183. 965. 79. 251. 91. 180. 272. 257. 196. 165.</_>
    <_>
      210. 373. 340. 273. 215. 234. 176. 139. 1221. 319. 1381. 247. 585.
      245. 341. 139. 237. 868. 277. 704. 155. 606. 131. 436. 244. 218.
      344. 285. 165. 190. 130. 130. 74. 107. 115. 115. 131. 121. 145.
      97. 370. 172. 391. 96. 356. 157. 401. 170. 146. 534. 206. 458.
      127. 322. 225. 341. 127. 229. 188. 146. 110. 217. 192. 174. 144.
      372. 301. 339. 394. 253. 332. 406. 982. 454. 603. 343. 542. 200.
      415. 216. 167. 911. 584. 681. 234. 1140. 262. 686. 186. 282. 238.
      325. 217. 305. 164. 275. 104. 164. 99. 194. 321. 353. 312. 472.
      429. 241. 194. 184. 474. 201. 398. 175. 173. 339. 210. 505. 162.
      486. 154. 415. 140. 257. 147. 219. 137. 199. 245. 196. 170. 289.
      134. 119. 142. 131. 196. 140. 457. 198. 517. 158. 255. 139. 748.
      152. 263. 583. 235. 485. 146. 294. 235. 356. 211. 177. 237. 262.
      120. 139. 141. 178. 133. 224. 112. 102. 158. 200. 293. 172. 492.
      196. 596. 128. 656. 294. 1047. 177. 201. 1065. 284. 1239. 248.
      703. 339. 1182. 171. 281. 199. 276. 189. 254. 153. 176. 133. 283.
      133. 151. 103. 139. 217. 185. 262. 164. 166. 83. 200. 112. 336.
      166. 207. 526. 207. 441. 149. 462. 172. 437. 114. 132. 121. 227.
      186. 163. 158. 174. 94. 194. 85. 119. 247. 271. 219. 218. 410.
      145. 323. 114. 1117. 233. 903. 181. 151. 649. 183. 964. 260. 856.
      202. 931. 71. 234. 101. 200. 272. 256. 204. 167.</_>
    <_>
      222. 237. 214. 202. 221. 115. 181. 104. 1142. 341. 1107. 194. 808.
      324. 529. 183. 156. 1036. 212. 1021. 172. 671. 192. 438. 233. 272.
      272. 151. 128. 205. 125. 140. 118. 165. 197. 145. 88. 112. 180.
      127. 265. 153. 253. 128. 278. 160. 316. 98. 166. 381. 204. 551.
      156. 192. 168. 408. 119. 206. 153. 161. 135. 153. 184. 119. 222.
      276. 280. 222. 268. 188. 281. 268. 1081. 375. 552. 313. 1025. 303.
      563. 264. 243. 1152. 254. 850. 205. 1106. 196. 748. 206. 333. 271.
      223. 203. 285. 221. 187. 128. 157. 92. 112. 156. 181. 223. 269.
      350. 141. 146. 89. 508. 159. 567. 220. 126. 440. 142. 478. 210.
      498. 200. 506. 189. 278. 108. 193. 138. 156. 171. 111. 173. 218.
      250. 124. 132. 119. 114. 136. 241. 194. 455. 99. 326. 193. 407.
      192. 130. 441. 161. 475. 110. 160. 224. 342. 199. 223. 180. 198.
      95. 117. 109. 160. 300. 323. 380. 248. 238. 274. 256. 195. 531.
      286. 800. 157. 812. 398. 904. 300. 242. 836. 240. 1093. 345. 522.
      381. 1185. 213. 219. 197. 286. 186. 159. 299. 238. 118. 215. 163.
      145. 169. 186. 155. 182. 226. 100. 214. 124. 343. 144. 304. 119.
      216. 716. 138. 357. 161. 527. 161. 439. 101. 118. 130. 171. 151.
      152. 157. 135. 119. 90. 176. 161. 277. 277. 261. 250. 437. 127.
      582. 126. 1218. 352. 1201. 357. 156. 617. 213. 855. 297. 852. 299.
      882. 101. 157. 151. 218. 227. 270. 378. 246.</_>
    <_>
      213. 251. 203. 207. 205. 107. 182. 95. 1127. 332. 1113. 173. 851.
      325. 527. 168. 160. 1065. 211. 1004. 172. 668. 167. 475. 233. 268.
      267. 133. 142. 207. 112. 147. 102. 161. 205. 143. 99. 110. 190.
      131. 274. 138. 242. 127. 270. 126. 325. 117. 158. 397. 186. 551.
      163. 184. 155. 389. 113. 184. 163. 169. 132. 166. 207. 102. 237.
      263. 270. 209. 271. 183. 301. 270. 1041. 385. 565. 278. 1047. 285.
      586. 270. 228. 1176. 257. 844. 201. 1130. 189. 747. 206. 339. 268.
      230. 204. 288. 207. 178. 132. 148. 101. 123. 160. 178. 231. 284.
      357. 147. 132. 80. 514. 152. 589. 217. 134. 429. 157. 483. 213.
      482. 199. 553. 199. 277. 95. 181. 137. 155. 152. 110. 172. 252.
      255. 144. 104. 116. 123. 140. 246. 187. 472. 101. 305. 198. 420.
      179. 126. 432. 157. 471. 115. 141. 250. 344. 201. 197. 163. 203.
      112. 116. 118. 175. 288. 351. 388. 251. 252. 255. 261. 195. 569.
      239. 829. 168. 852. 383. 914. 300. 247. 839. 240. 1037. 299. 510.
      380. 1169. 225. 219. 204. 298. 170. 168. 272. 237. 122. 221. 167.
      135. 170. 194. 167. 174. 251. 105. 191. 123. 325. 132. 316. 122.
      219. 694. 145. 370. 163. 564. 152. 433. 102. 136. 136. 172. 146.
      167. 156. 151. 122. 95. 187. 158. 305. 263. 285. 249. 440. 120.
      577. 137. 1255. 310. 1172. 357. 158. 611. 216. 780. 268. 887. 302.
      897. 107. 154. 150. 251. 225. 252. 352. 250.</_>
    <_>
      167. 279. 213. 171. 166. 118. 130. 105. 1111. 316. 1090. 199. 765.
      294. 506. 153. 162. 1131. 214. 945. 179. 702. 163. 540. 270. 231.
      260. 193. 146. 222. 100. 148. 91. 137. 201. 156. 88. 121. 180. 90.
      248. 121. 259. 102. 299. 119. 271. 98. 134. 401. 192. 534. 131.
      204. 156. 377. 106. 181. 188. 129. 107. 142. 180. 110. 279. 337.
      239. 157. 336. 221. 269. 265. 1114. 457. 597. 221. 1098. 318. 645.
      248. 219. 1456. 300. 996. 178. 985. 182. 760. 208. 342. 254. 240.
      207. 245. 165. 211. 122. 159. 96. 130. 206. 208. 212. 257. 328.
      184. 179. 89. 530. 130. 559. 191. 144. 509. 187. 554. 241. 549.
      169. 470. 135. 223. 113. 171. 156. 177. 181. 177. 212. 305. 277.
      143. 75. 116. 156. 128. 290. 193. 490. 87. 263. 161. 402. 202. 88.
      422. 169. 465. 94. 200. 219. 376. 215. 154. 201. 175. 69. 110.
      111. 149. 319. 318. 278. 203. 260. 283. 322. 203. 648. 257. 924.
      140. 861. 329. 1082. 238. 242. 854. 229. 1236. 326. 514. 296.
      1249. 230. 212. 258. 309. 185. 165. 206. 228. 93. 218. 197. 134.
      129. 169. 202. 149. 210. 95. 173. 79. 305. 125. 314. 132. 183.
      771. 141. 409. 171. 586. 161. 399. 98. 174. 121. 157. 149. 169.
      166. 147. 108. 127. 162. 140. 204. 245. 329. 265. 381. 167. 443.
      112. 1243. 246. 1353. 388. 127. 610. 160. 714. 206. 754. 224. 841.
      103. 171. 134. 207. 251. 288. 271. 252.</_>
    <_>
      166. 216. 267. 251. 142. 108. 125. 85. 1009. 438. 1029. 294. 733.
      243. 638. 165. 143. 1146. 216. 906. 97. 722. 162. 549. 262. 253.
      256. 184. 192. 177. 112. 117. 54. 104. 142. 128. 152. 55. 154. 71.
      464. 131. 363. 151. 356. 109. 416. 121. 133. 470. 174. 518. 138.
      166. 154. 245. 152. 218. 242. 128. 123. 77. 164. 118. 212. 185.
      310. 188. 331. 244. 273. 268. 1185. 466. 535. 207. 1148. 290. 639.
      196. 156. 1240. 223. 971. 136. 1190. 168. 771. 225. 263. 237. 188.
      266. 228. 149. 143. 81. 111. 91. 111. 253. 285. 244. 284. 434.
      216. 238. 98. 422. 122. 512. 131. 102. 505. 131. 375. 171. 519.
      152. 483. 116. 214. 140. 146. 133. 149. 106. 165. 198. 214. 248.
      180. 126. 104. 127. 147. 255. 202. 571. 110. 286. 131. 566. 156.
      122. 486. 168. 377. 138. 184. 245. 357. 191. 154. 196. 189. 114.
      75. 111. 157. 285. 227. 260. 125. 278. 208. 228. 211. 692. 310.
      1031. 125. 1043. 347. 1248. 237. 201. 853. 189. 1225. 308. 516.
      338. 1208. 298. 229. 252. 361. 176. 125. 205. 196. 127. 165. 192.
      121. 137. 176. 179. 124. 252. 87. 225. 93. 387. 159. 416. 152.
      164. 507. 176. 332. 140. 578. 160. 362. 96. 147. 111. 159. 147.
      159. 160. 125. 104. 108. 207. 156. 242. 257. 243. 298. 559. 189.
      719. 176. 1283. 362. 1274. 363. 112. 649. 129. 840. 170. 658. 219.
      911. 146. 186. 154. 158. 230. 241. 270. 187.</_>
    <_>
      162. 246. 254. 248. 140. 107. 132. 75. 985. 420. 989. 281. 739.
      242. 623. 172. 161. 1136. 239. 918. 103. 704. 176. 556. 245. 270.
      258. 167. 180. 184. 118. 121. 77. 114. 155. 114. 156. 44. 147. 66.
      434. 160. 366. 148. 356. 102. 416. 138. 138. 479. 171. 531. 131.
      164. 156. 253. 159. 205. 230. 132. 138. 81. 161. 128. 199. 174.
      328. 181. 318. 236. 263. 253. 1155. 474. 509. 222. 1102. 281. 659.
      229. 184. 1227. 246. 979. 132. 1220. 183. 755. 207. 264. 215. 191.
      237. 240. 134. 139. 73. 100. 93. 118. 264. 273. 266. 307. 466.
      217. 247. 93. 430. 135. 516. 134. 96. 502. 130. 387. 169. 510.
      140. 488. 134. 201. 144. 138. 138. 155. 121. 158. 200. 223. 264.
      174. 108. 110. 116. 153. 251. 220. 576. 120. 310. 139. 533. 156.
      121. 483. 156. 381. 142. 169. 276. 343. 189. 145. 203. 200. 107.
      78. 130. 160. 298. 227. 245. 140. 271. 207. 240. 189. 654. 289.
      1008. 158. 1113. 357. 1202. 245. 181. 875. 196. 1207. 300. 504.
      332. 1181. 316. 216. 247. 346. 141. 128. 202. 205. 130. 155. 206.
      114. 139. 174. 189. 137. 245. 84. 243. 108. 385. 173. 419. 167.
      160. 514. 169. 344. 132. 586. 156. 390. 89. 153. 102. 161. 154.
      143. 145. 130. 93. 98. 212. 148. 233. 270. 250. 282. 563. 200.
      731. 172. 1230. 332. 1323. 337. 111. 676. 143. 813. 193. 629. 232.
      878. 150. 186. 165. 183. 253. 238. 261. 183.</_>
    <_>
      145. 286. 278. 248. 226. 214. 127. 125. 1066. 281. 1519. 141. 631.
      236. 531. 130. 200. 745. 332. 659. 144. 509. 102. 352. 213. 231.
      296. 245. 175. 160. 114. 105. 55. 125. 115. 63. 120. 155. 142.
      112. 304. 175. 259. 96. 451. 155. 541. 151. 129. 483. 184. 396.
      182. 276. 213. 249. 131. 212. 145. 95. 168. 130. 161. 138. 218.
      242. 227. 242. 412. 260. 218. 368. 932. 332. 457. 279. 560. 161.
      329. 173. 248. 861. 577. 688. 232. 1178. 226. 703. 216. 282. 250.
      263. 184. 285. 152. 187. 94. 163. 138. 115. 337. 317. 305. 447.
      577. 360. 196. 171. 533. 188. 466. 286. 166. 351. 306. 325. 175.
      491. 225. 470. 133. 238. 154. 151. 117. 152. 175. 222. 133. 206.
      185. 184. 90. 155. 185. 206. 394. 244. 418. 175. 472. 123. 783.
      294. 168. 605. 215. 425. 178. 209. 256. 299. 246. 265. 224. 284.
      211. 130. 199. 245. 146. 225. 235. 166. 242. 311. 381. 257. 503.
      298. 462. 261. 854. 318. 1191. 314. 190. 755. 313. 1050. 411. 625.
      506. 908. 209. 238. 246. 295. 252. 218. 268. 250. 188. 216. 134.
      111. 146. 123. 134. 94. 269. 202. 158. 103. 472. 164. 367. 157.
      201. 535. 200. 387. 170. 258. 185. 365. 145. 140. 161. 152. 138.
      149. 118. 178. 114. 205. 131. 173. 302. 255. 274. 285. 445. 273.
      317. 207. 912. 341. 807. 382. 154. 576. 356. 844. 268. 719. 322.
      901. 144. 211. 258. 288. 173. 247. 218. 311.</_>
    <_>
      155. 312. 319. 235. 210. 216. 99. 117. 1047. 281. 1627. 164. 533.
      259. 513. 148. 177. 729. 346. 654. 130. 553. 138. 385. 227. 202.
      267. 239. 159. 132. 118. 114. 47. 133. 125. 69. 139. 145. 159.
      102. 337. 183. 312. 79. 407. 140. 520. 134. 116. 510. 187. 413.
      182. 271. 202. 225. 132. 219. 170. 103. 169. 147. 178. 180. 201.
      238. 214. 228. 465. 273. 202. 351. 907. 356. 403. 212. 552. 149.
      374. 169. 236. 925. 589. 707. 235. 1157. 222. 742. 214. 268. 230.
      266. 188. 291. 155. 198. 108. 150. 111. 135. 352. 332. 357. 541.
      555. 347. 242. 184. 545. 204. 460. 246. 184. 370. 327. 328. 176.
      485. 224. 453. 153. 243. 155. 174. 125. 149. 165. 187. 140. 191.
      172. 155. 95. 157. 219. 184. 467. 268. 455. 209. 422. 148. 647.
      356. 198. 696. 230. 457. 182. 188. 262. 297. 278. 237. 242. 316.
      190. 127. 169. 200. 152. 249. 222. 165. 248. 288. 396. 225. 419.
      291. 473. 248. 811. 371. 1046. 357. 189. 747. 297. 1058. 353. 568.
      506. 951. 203. 230. 259. 282. 219. 220. 254. 227. 208. 228. 163.
      143. 124. 130. 158. 97. 283. 185. 168. 109. 472. 189. 398. 167.
      206. 516. 181. 355. 196. 273. 193. 356. 104. 141. 156. 144. 140.
      151. 159. 145. 125. 198. 171. 118. 286. 254. 309. 276. 463. 241.
      299. 173. 902. 373. 798. 392. 146. 528. 340. 829. 301. 694. 277.
      839. 140. 209. 242. 277. 184. 274. 224. 278.</_>
    <_>
      197. 337. 306. 269. 201. 193. 140. 108. 1192. 317. 1635. 252. 557.
      243. 481. 121. 175. 685. 295. 675. 128. 612. 171. 432. 245. 195.
      316. 284. 159. 116. 120. 154. 74. 141. 118. 60. 166. 129. 138.
      102. 342. 175. 371. 88. 433. 166. 598. 122. 133. 486. 192. 427.
      177. 308. 201. 289. 98. 211. 140. 127. 146. 135. 138. 158. 290.
      253. 272. 294. 454. 251. 293. 369. 913. 415. 610. 321. 533. 204.
      378. 209. 224. 865. 482. 639. 219. 1122. 217. 776. 310. 265. 239.
      228. 215. 333. 165. 232. 90. 180. 78. 166. 397. 386. 324. 425.
      494. 271. 213. 171. 589. 136. 429. 172. 128. 377. 229. 330. 183.
      369. 161. 389. 169. 277. 183. 164. 140. 169. 178. 173. 185. 181.
      177. 104. 136. 123. 276. 170. 418. 221. 458. 149. 471. 195. 908.
      240. 190. 639. 223. 443. 118. 247. 209. 340. 269. 253. 228. 295.
      121. 103. 123. 148. 157. 210. 185. 121. 233. 207. 356. 154. 414.
      220. 446. 146. 757. 364. 1143. 240. 163. 1089. 206. 1356. 225.
      653. 348. 1129. 194. 268. 221. 357. 296. 166. 230. 228. 164. 187.
      141. 103. 101. 92. 203. 127. 325. 168. 168. 84. 378. 125. 428.
      179. 209. 489. 211. 389. 133. 349. 150. 487. 178. 218. 165. 148.
      162. 161. 146. 157. 99. 161. 114. 132. 283. 206. 354. 251. 478.
      221. 344. 163. 992. 337. 732. 245. 125. 627. 199. 894. 200. 787.
      166. 1026. 104. 225. 207. 174. 191. 217. 182. 166.</_>
    <_>
      170. 282. 238. 190. 256. 161. 151. 130. 1139. 325. 1581. 264. 650.
      167. 519. 189. 227. 630. 299. 712. 144. 535. 155. 506. 261. 305.
      335. 268. 168. 154. 122. 139. 98. 130. 143. 105. 185. 90. 174.
      127. 357. 191. 354. 107. 410. 151. 470. 142. 144. 436. 197. 344.
      170. 238. 174. 238. 134. 172. 142. 102. 211. 169. 153. 112. 181.
      244. 244. 278. 517. 282. 270. 361. 1031. 445. 537. 291. 682. 242.
      403. 206. 287. 889. 497. 831. 263. 922. 260. 729. 292. 310. 227.
      264. 212. 286. 205. 211. 80. 124. 128. 160. 454. 344. 323. 595.
      499. 285. 228. 167. 531. 209. 519. 303. 166. 384. 201. 394. 201.
      412. 241. 350. 151. 212. 160. 183. 163. 203. 212. 197. 171. 285.
      171. 140. 205. 113. 206. 146. 382. 262. 406. 169. 300. 206. 744.
      273. 175. 632. 219. 553. 140. 259. 213. 320. 234. 249. 167. 290.
      176. 196. 235. 254. 143. 209. 181. 184. 248. 212. 340. 250. 480.
      269. 663. 144. 574. 379. 846. 285. 205. 701. 330. 993. 319. 431.
      480. 1013. 137. 194. 254. 293. 258. 213. 284. 262. 181. 213. 152.
      168. 117. 155. 173. 120. 303. 214. 195. 134. 359. 162. 405. 153.
      267. 537. 210. 309. 182. 326. 215. 289. 187. 123. 184. 113. 105.
      137. 132. 117. 148. 171. 122. 123. 166. 248. 263. 227. 477. 220.
      424. 162. 986. 302. 764. 245. 158. 442. 278. 699. 266. 778. 256.
      860. 131. 235. 211. 227. 190. 211. 210. 278.</_>
    <_>
      214. 351. 227. 228. 259. 232. 139. 133. 1147. 286. 1753. 255. 649.
      257. 512. 146. 242. 658. 352. 646. 140. 561. 196. 503. 249. 300.
      320. 262. 185. 170. 107. 114. 100. 139. 139. 105. 164. 105. 131.
      94. 336. 136. 349. 95. 397. 191. 400. 91. 125. 486. 230. 380. 149.
      247. 175. 257. 121. 214. 178. 121. 188. 155. 149. 133. 176. 339.
      279. 276. 502. 307. 293. 364. 952. 349. 626. 296. 654. 269. 455.
      257. 263. 938. 563. 809. 262. 997. 285. 690. 300. 250. 228. 233.
      204. 321. 201. 265. 83. 123. 97. 161. 338. 356. 320. 526. 481.
      297. 190. 183. 425. 212. 373. 289. 105. 454. 204. 487. 181. 410.
      207. 356. 159. 213. 146. 166. 174. 138. 171. 186. 151. 253. 131.
      165. 172. 104. 188. 147. 383. 286. 382. 117. 371. 196. 735. 252.
      214. 635. 233. 462. 144. 252. 245. 384. 207. 203. 158. 256. 163.
      152. 185. 251. 119. 183. 204. 184. 190. 211. 332. 270. 462. 258.
      584. 184. 583. 358. 919. 255. 206. 745. 300. 1016. 382. 579. 446.
      976. 180. 235. 261. 294. 231. 180. 193. 301. 177. 204. 165. 181.
      123. 164. 175. 122. 269. 186. 193. 118. 359. 171. 454. 128. 276.
      524. 249. 386. 147. 344. 200. 269. 187. 170. 173. 113. 121. 128.
      106. 104. 112. 142. 120. 137. 202. 259. 245. 198. 509. 201. 385.
      176. 1061. 285. 920. 228. 196. 547. 294. 704. 252. 850. 214. 879.
      80. 249. 179. 207. 174. 219. 178. 227.</_>
    <_>
      254. 337. 257. 214. 206. 220. 133. 105. 1268. 310. 1748. 185. 618.
      254. 415. 144. 234. 607. 328. 612. 151. 568. 163. 448. 275. 272.
      355. 251. 155. 181. 97. 158. 87. 106. 118. 88. 144. 114. 158. 124.
      417. 170. 402. 80. 303. 156. 442. 133. 109. 436. 216. 446. 118.
      272. 178. 243. 111. 218. 159. 156. 146. 139. 146. 124. 274. 301.
      340. 321. 558. 252. 255. 369. 923. 505. 481. 353. 567. 264. 394.
      212. 332. 800. 639. 803. 263. 826. 299. 675. 301. 298. 272. 276.
      211. 313. 190. 212. 94. 109. 86. 135. 368. 285. 313. 613. 540.
      290. 172. 150. 445. 189. 370. 258. 99. 391. 216. 444. 133. 422.
      216. 328. 171. 225. 134. 143. 150. 174. 225. 180. 165. 275. 123.
      190. 111. 113. 188. 142. 384. 231. 511. 158. 252. 180. 776. 170.
      205. 645. 187. 447. 138. 259. 243. 328. 189. 269. 228. 254. 120.
      160. 160. 193. 151. 237. 180. 231. 357. 196. 370. 214. 453. 229.
      718. 187. 780. 353. 1194. 276. 236. 731. 323. 932. 361. 446. 420.
      904. 193. 251. 272. 304. 260. 200. 295. 274. 167. 177. 147. 132.
      131. 114. 162. 128. 254. 201. 202. 172. 331. 217. 470. 147. 216.
      548. 229. 318. 161. 303. 175. 290. 150. 155. 106. 108. 122. 164.
      97. 106. 112. 131. 125. 126. 196. 239. 293. 268. 500. 260. 345.
      203. 1087. 328. 1071. 260. 150. 558. 240. 712. 196. 805. 252. 821.
      127. 252. 156. 198. 223. 195. 278. 242.</_>
    <_>
      4114. 198. 123. 131. 223. 129. 220. 107. 876. 237. 925. 208. 415.
      203. 236. 160. 236. 925. 455. 742. 128. 318. 161. 381. 223. 319.
      262. 205. 136. 128. 132. 124. 52. 82. 118. 47. 200. 91. 149. 93.
      287. 170. 237. 83. 283. 109. 260. 152. 84. 260. 98. 288. 284. 487.
      151. 227. 92. 217. 190. 61. 164. 145. 244. 125. 213. 324. 168.
      229. 337. 225. 262. 198. 742. 309. 256. 261. 724. 286. 428. 193.
      221. 1428. 887. 1134. 98. 949. 294. 763. 140. 218. 198. 231. 199.
      191. 111. 116. 41. 119. 98. 120. 307. 317. 166. 386. 374. 223.
      178. 80. 868. 294. 730. 134. 278. 306. 280. 331. 161. 358. 201.
      456. 162. 299. 110. 142. 115. 180. 317. 181. 86. 625. 170. 252.
      236. 99. 335. 150. 247. 209. 428. 165. 447. 168. 458. 143. 192.
      586. 485. 386. 124. 222. 293. 559. 166. 194. 286. 254. 84. 163.
      119. 108. 127. 376. 238. 114. 212. 205. 368. 189. 387. 446. 601.
      112. 517. 1057. 1055. 248. 142. 864. 159. 1294. 231. 788. 514.
      1444. 88. 216. 210. 236. 232. 251. 314. 199. 90. 122. 179. 157.
      124. 136. 224. 119. 181. 133. 140. 88. 308. 90. 247. 86. 166. 617.
      135. 341. 66. 291. 132. 271. 94. 123. 71. 91. 109. 110. 121. 94.
      73. 87. 163. 94. 165. 220. 292. 242. 434. 136. 454. 55. 775. 566.
      1036. 190. 93. 283. 185. 709. 176. 852. 322. 1246. 71. 112. 114.
      138. 205. 146. 253. 229.</_>
    <_>
      5187. 202. 141. 126. 182. 136. 191. 117. 857. 276. 904. 176. 387.
      211. 177. 143. 202. 873. 445. 768. 127. 368. 141. 389. 231. 303.
      239. 228. 121. 131. 116. 116. 45. 87. 108. 57. 195. 78. 134. 102.
      223. 138. 224. 82. 171. 81. 272. 128. 79. 273. 124. 270. 388. 380.
      170. 225. 105. 215. 147. 90. 190. 182. 240. 76. 239. 342. 170.
      259. 339. 246. 251. 179. 749. 395. 260. 224. 596. 277. 434. 181.
      251. 1437. 926. 1079. 92. 973. 291. 759. 160. 234. 193. 228. 167.
      186. 112. 109. 66. 104. 104. 139. 284. 271. 199. 388. 350. 230.
      156. 78. 856. 326. 659. 106. 265. 369. 299. 321. 171. 403. 215.
      439. 115. 249. 77. 136. 158. 191. 328. 171. 100. 622. 180. 275.
      264. 126. 368. 171. 277. 196. 381. 118. 336. 183. 462. 138. 236.
      681. 439. 440. 121. 232. 320. 468. 171. 181. 337. 243. 94. 126.
      122. 115. 114. 339. 213. 140. 222. 204. 368. 188. 362. 419. 598.
      82. 606. 938. 1021. 237. 105. 796. 119. 1304. 194. 649. 509. 1448.
      112. 255. 250. 307. 211. 254. 271. 203. 67. 120. 163. 106. 103.
      127. 248. 148. 111. 132. 156. 94. 292. 102. 281. 110. 179. 610.
      104. 325. 81. 290. 129. 211. 95. 145. 81. 103. 110. 120. 116. 101.
      80. 86. 120. 96. 212. 294. 326. 213. 425. 98. 467. 57. 823. 558.
      1040. 165. 66. 268. 108. 787. 181. 850. 318. 1198. 60. 99. 107.
      124. 175. 160. 270. 197.</_>
    <_>
      6552. 301. 242. 242. 213. 126. 123. 108. 893. 246. 1102. 249. 377.
      92. 197. 87. 203. 590. 469. 583. 117. 509. 130. 276. 162. 256.
      390. 246. 96. 105. 137. 105. 101. 143. 104. 92. 161. 74. 166. 103.
      235. 122. 246. 113. 166. 295. 251. 127. 114. 258. 100. 250. 480.
      441. 340. 325. 135. 231. 178. 142. 178. 189. 198. 116. 127. 257.
      138. 246. 385. 272. 248. 233. 847. 402. 253. 405. 586. 213. 252.
      221. 201. 845. 1012. 634. 178. 1131. 337. 797. 212. 280. 242. 208.
      90. 283. 126. 139. 68. 182. 135. 148. 230. 339. 293. 384. 346.
      649. 186. 154. 783. 479. 715. 171. 208. 368. 234. 336. 177. 420.
      297. 532. 142. 364. 69. 140. 111. 195. 349. 159. 172. 563. 130.
      272. 383. 71. 412. 226. 273. 164. 307. 141. 386. 262. 525. 184.
      237. 754. 381. 343. 154. 182. 425. 572. 235. 301. 220. 181. 126.
      93. 160. 136. 125. 165. 116. 95. 206. 148. 365. 178. 284. 205.
      495. 121. 233. 1023. 622. 244. 245. 541. 166. 846. 374. 428. 527.
      1406. 128. 263. 175. 215. 233. 211. 258. 177. 104. 173. 126. 180.
      157. 176. 225. 132. 227. 139. 129. 130. 268. 92. 332. 113. 178.
      717. 194. 303. 72. 281. 207. 340. 104. 172. 126. 187. 88. 126. 96.
      107. 90. 216. 84. 79. 158. 271. 251. 174. 277. 176. 291. 96. 610.
      412. 550. 309. 108. 305. 168. 645. 183. 566. 270. 792. 88. 119.
      76. 134. 172. 149. 190. 140.</_>
    <_>
      156. 256. 128. 212. 195. 97. 158. 83. 1150. 268. 822. 170. 533.
      93. 353. 130. 151. 916. 377. 908. 170. 765. 153. 466. 216. 300.
      234. 147. 86. 152. 87. 78. 79. 150. 178. 130. 127. 112. 160. 107.
      169. 146. 333. 117. 138. 186. 266. 167. 118. 225. 257. 352. 159.
      244. 253. 228. 105. 140. 157. 147. 83. 148. 143. 133. 163. 215.
      195. 325. 306. 123. 237. 203. 1419. 428. 445. 377. 1162. 157. 496.
      213. 227. 1286. 828. 1068. 219. 1069. 271. 758. 250. 347. 215.
      367. 110. 137. 130. 156. 85. 134. 83. 106. 178. 169. 238. 195.
      397. 302. 241. 130. 659. 364. 617. 304. 188. 544. 314. 438. 265.
      470. 226. 449. 174. 307. 133. 269. 209. 228. 245. 193. 283. 633.
      217. 239. 218. 147. 291. 162. 340. 199. 441. 132. 283. 200. 471.
      142. 203. 360. 399. 333. 131. 241. 227. 308. 326. 206. 271. 227.
      109. 122. 111. 112. 315. 352. 253. 136. 295. 321. 388. 198. 417.
      386. 733. 180. 764. 911. 835. 301. 327. 693. 241. 999. 417. 615.
      434. 1279. 205. 217. 269. 335. 203. 278. 257. 323. 128. 197. 98.
      136. 118. 125. 190. 199. 210. 102. 146. 80. 250. 143. 222. 91.
      175. 530. 166. 338. 125. 452. 236. 386. 79. 137. 122. 204. 86.
      121. 105. 129. 91. 126. 95. 208. 160. 306. 306. 392. 293. 121.
      444. 129. 607. 563. 769. 268. 170. 718. 155. 707. 339. 844. 368.
      864. 63. 144. 141. 233. 296. 255. 328. 287.</_>
    <_>
      122. 150. 146. 208. 246. 77. 173. 109. 1161. 260. 892. 199. 582.
      76. 318. 129. 200. 867. 368. 779. 130. 724. 133. 484. 174. 300.
      249. 175. 100. 76. 75. 98. 87. 120. 166. 90. 110. 109. 200. 107.
      184. 189. 304. 142. 155. 133. 287. 192. 132. 226. 177. 279. 174.
      290. 183. 197. 98. 131. 222. 110. 109. 167. 154. 149. 239. 396.
      168. 382. 235. 167. 218. 241. 1658. 962. 516. 420. 1031. 176. 551.
      165. 236. 1321. 772. 1034. 199. 1205. 209. 940. 273. 421. 242.
      313. 109. 131. 135. 157. 93. 99. 121. 149. 191. 143. 223. 168.
      336. 256. 175. 158. 598. 394. 644. 243. 259. 310. 234. 367. 275.
      427. 234. 303. 148. 272. 182. 235. 207. 221. 232. 240. 298. 474.
      205. 274. 266. 129. 235. 122. 366. 138. 387. 107. 304. 175. 382.
      190. 202. 498. 322. 339. 155. 214. 227. 241. 330. 229. 257. 225.
      137. 90. 140. 111. 333. 372. 269. 92. 320. 310. 380. 283. 334.
      372. 550. 224. 590. 904. 733. 325. 279. 703. 277. 1150. 421. 522.
      445. 1401. 272. 236. 305. 355. 272. 241. 213. 310. 156. 232. 121.
      156. 144. 173. 183. 187. 218. 97. 151. 138. 209. 128. 243. 107.
      167. 473. 163. 323. 126. 448. 166. 302. 91. 146. 92. 205. 72. 137.
      136. 109. 96. 122. 135. 161. 192. 312. 317. 332. 297. 128. 490.
      169. 654. 662. 853. 341. 171. 486. 142. 698. 322. 859. 396. 922.
      106. 185. 147. 176. 278. 217. 311. 250.</_>
    <_>
      448. 270. 310. 177. 184. 130. 205. 113. 1134. 353. 1239. 281. 589.
      376. 568. 226. 166. 990. 232. 921. 213. 621. 127. 435. 275. 330.
      236. 210. 184. 203. 158. 125. 98. 118. 135. 105. 160. 92. 188. 90.
      196. 188. 272. 103. 290. 146. 302. 128. 190. 352. 174. 436. 189.
      195. 170. 248. 381. 376. 192. 150. 187. 157. 145. 102. 331. 352.
      295. 320. 270. 199. 301. 249. 1296. 637. 600. 475. 909. 360. 599.
      283. 284. 1114. 932. 1002. 251. 942. 239. 731. 325. 345. 365. 375.
      227. 190. 201. 149. 91. 168. 77. 175. 198. 252. 203. 353. 435.
      234. 190. 136. 704. 157. 667. 201. 116. 404. 166. 554. 210. 394.
      147. 431. 173. 325. 111. 280. 154. 258. 320. 208. 392. 813. 681.
      260. 152. 127. 376. 185. 229. 174. 454. 111. 352. 184. 507. 204.
      182. 499. 137. 396. 170. 176. 446. 402. 278. 173. 232. 247. 128.
      122. 106. 88. 256. 181. 236. 130. 205. 192. 277. 204. 341. 384.
      414. 120. 855. 443. 452. 276. 129. 645. 122. 952. 383. 438. 406.
      1073. 154. 212. 210. 274. 165. 214. 146. 142. 134. 211. 173. 144.
      139. 170. 201. 171. 215. 140. 226. 100. 304. 132. 330. 149. 161.
      734. 198. 326. 108. 382. 206. 342. 97. 114. 134. 144. 107. 106.
      125. 125. 95. 103. 246. 147. 164. 255. 267. 202. 249. 105. 495.
      121. 774. 389. 690. 325. 142. 522. 123. 549. 195. 618. 264. 658.
      113. 127. 154. 139. 185. 150. 213. 135.</_>
    <_>
      176. 294. 210. 239. 166. 109. 234. 76. 1207. 352. 1101. 201. 716.
      248. 533. 225. 195. 1056. 402. 1001. 220. 651. 169. 407. 299. 344.
      255. 217. 187. 195. 128. 134. 71. 114. 117. 125. 162. 87. 137. 76.
      248. 207. 298. 94. 285. 408. 365. 174. 162. 357. 131. 445. 191.
      207. 120. 213. 272. 295. 214. 178. 217. 126. 105. 75. 291. 308.
      259. 309. 359. 216. 293. 382. 1308. 512. 710. 330. 1161. 318. 708.
      258. 325. 1099. 1073. 1033. 231. 931. 285. 710. 269. 320. 306.
      337. 215. 141. 151. 163. 104. 173. 82. 212. 168. 252. 267. 333.
      351. 168. 192. 148. 572. 177. 780. 174. 175. 424. 264. 506. 236.
      458. 121. 453. 94. 273. 146. 266. 152. 236. 177. 175. 377. 700.
      207. 253. 359. 128. 359. 175. 285. 199. 395. 103. 242. 166. 463.
      181. 171. 438. 423. 371. 160. 157. 375. 403. 302. 204. 238. 216.
      125. 109. 113. 110. 222. 203. 223. 107. 227. 222. 264. 197. 384.
      283. 536. 121. 492. 1049. 633. 287. 152. 718. 138. 950. 375. 463.
      450. 967. 142. 145. 250. 275. 172. 175. 189. 157. 138. 152. 133.
      127. 171. 166. 180. 157. 317. 138. 248. 115. 319. 158. 374. 147.
      155. 690. 167. 304. 98. 420. 214. 393. 93. 112. 93. 172. 140. 65.
      91. 93. 97. 83. 176. 116. 168. 194. 249. 220. 377. 126. 508. 118.
      701. 409. 741. 307. 99. 504. 139. 521. 224. 545. 280. 780. 103.
      161. 159. 166. 170. 157. 185. 159.</_>
    <_>
      4677. 242. 221. 175. 228. 141. 165. 90. 1048. 218. 1478. 158. 447.
      140. 410. 52. 127. 529. 338. 557. 71. 578. 77. 374. 232. 282. 330.
      217. 125. 107. 116. 104. 39. 102. 97. 82. 100. 50. 114. 66. 307.
      91. 303. 75. 248. 336. 326. 88. 59. 304. 157. 255. 465. 417. 183.
      243. 111. 197. 109. 128. 147. 163. 271. 96. 209. 250. 158. 228.
      462. 243. 243. 221. 1090. 455. 324. 272. 615. 257. 371. 142. 238.
      836. 997. 602. 202. 1100. 341. 811. 274. 280. 199. 196. 165. 272.
      176. 178. 67. 149. 115. 171. 299. 344. 269. 550. 508. 600. 162.
      91. 645. 313. 697. 122. 164. 302. 244. 476. 132. 461. 204. 535.
      120. 300. 66. 132. 108. 264. 246. 214. 206. 619. 214. 306. 258.
      88. 426. 231. 338. 192. 312. 140. 333. 203. 675. 177. 240. 644.
      495. 380. 92. 159. 384. 507. 246. 332. 227. 251. 118. 114. 126.
      112. 180. 236. 228. 104. 245. 222. 433. 244. 335. 291. 435. 111.
      429. 994. 615. 293. 199. 465. 214. 656. 378. 383. 640. 1279. 149.
      251. 264. 271. 314. 208. 378. 243. 126. 105. 154. 177. 152. 118.
      259. 137. 198. 97. 158. 207. 241. 106. 333. 72. 141. 504. 180.
      263. 67. 338. 174. 363. 114. 94. 90. 118. 139. 111. 142. 132. 76.
      121. 95. 115. 228. 295. 307. 198. 372. 130. 270. 137. 752. 415.
      787. 380. 102. 340. 187. 591. 242. 526. 284. 719. 109. 142. 147.
      176. 181. 145. 261. 268.</_>
    <_>
      4672. 297. 199. 165. 256. 177. 156. 110. 1024. 259. 1443. 250.
      410. 175. 344. 92. 170. 376. 361. 440. 68. 560. 140. 367. 247.
      203. 356. 240. 106. 126. 118. 98. 72. 134. 125. 61. 135. 71. 119.
      64. 263. 99. 265. 95. 221. 407. 268. 106. 76. 314. 110. 266. 429.
      433. 304. 278. 144. 156. 135. 121. 150. 94. 238. 153. 171. 298.
      195. 266. 436. 274. 215. 212. 1143. 429. 231. 295. 547. 227. 230.
      173. 169. 763. 1263. 466. 165. 1255. 352. 865. 217. 237. 256. 212.
      136. 220. 137. 130. 61. 118. 117. 193. 313. 270. 299. 510. 625.
      892. 153. 129. 869. 463. 721. 130. 111. 242. 187. 431. 83. 417.
      262. 553. 166. 265. 75. 149. 114. 264. 353. 273. 173. 807. 177.
      221. 384. 97. 516. 143. 301. 176. 368. 163. 397. 282. 813. 176.
      245. 766. 671. 320. 114. 179. 372. 604. 263. 301. 269. 283. 95.
      104. 92. 103. 95. 226. 164. 106. 267. 141. 402. 173. 259. 343.
      276. 82. 393. 946. 566. 156. 201. 606. 214. 798. 322. 403. 528.
      1382. 160. 233. 204. 307. 262. 161. 250. 193. 107. 136. 175. 189.
      129. 138. 260. 164. 131. 129. 173. 267. 192. 114. 332. 102. 158.
      494. 207. 295. 97. 256. 163. 317. 87. 110. 118. 144. 134. 106.
      108. 99. 102. 158. 95. 124. 242. 259. 327. 227. 350. 151. 227.
      123. 601. 504. 723. 254. 106. 328. 149. 644. 179. 486. 236. 792.
      98. 106. 100. 143. 168. 164. 183. 122.</_>
    <_>
      373. 253. 270. 196. 201. 84. 149. 67. 1407. 355. 1242. 343. 836.
      257. 590. 175. 199. 1014. 281. 730. 155. 497. 126. 377. 377. 548.
      346. 238. 189. 147. 99. 100. 68. 75. 124. 60. 141. 59. 150. 52.
      329. 141. 289. 78. 441. 148. 407. 99. 85. 378. 105. 373. 301. 259.
      85. 225. 163. 295. 175. 117. 158. 96. 160. 43. 282. 251. 311. 334.
      437. 255. 269. 370. 1781. 539. 861. 620. 1384. 358. 818. 344. 258.
      1142. 913. 876. 266. 739. 217. 556. 342. 390. 240. 277. 324. 296.
      168. 177. 55. 110. 51. 117. 187. 310. 191. 291. 672. 394. 248.
      139. 726. 224. 810. 281. 64. 261. 130. 557. 132. 406. 94. 479.
      120. 365. 78. 138. 141. 211. 192. 270. 320. 888. 712. 224. 175.
      86. 305. 149. 237. 149. 507. 128. 367. 143. 538. 233. 150. 411.
      206. 434. 138. 154. 347. 316. 207. 161. 177. 171. 132. 62. 100.
      92. 234. 232. 243. 116. 199. 217. 250. 197. 299. 401. 411. 119.
      948. 394. 749. 316. 146. 617. 182. 813. 373. 441. 665. 1024. 184.
      185. 223. 291. 142. 101. 234. 180. 85. 130. 158. 94. 121. 141.
      201. 93. 228. 85. 309. 156. 396. 74. 485. 97. 133. 472. 105. 210.
      115. 399. 146. 276. 107. 90. 81. 152. 145. 116. 120. 117. 100. 74.
      178. 139. 252. 186. 252. 189. 373. 143. 555. 93. 968. 328. 984.
      372. 81. 425. 103. 489. 179. 442. 245. 613. 94. 88. 118. 139. 203.
      115. 180. 179.</_>
    <_>
      153. 193. 232. 203. 197. 79. 203. 93. 1020. 341. 1061. 341. 792.
      237. 492. 159. 188. 836. 386. 747. 151. 556. 163. 445. 396. 457.
      310. 250. 179. 196. 97. 125. 47. 67. 150. 98. 151. 69. 113. 72.
      250. 148. 365. 94. 253. 139. 326. 152. 124. 425. 121. 351. 221.
      217. 80. 222. 225. 361. 199. 126. 114. 102. 113. 63. 227. 252.
      251. 374. 363. 207. 276. 322. 1584. 549. 617. 414. 1149. 297. 769.
      294. 179. 1122. 1066. 869. 253. 930. 326. 709. 262. 280. 284. 299.
      248. 257. 232. 180. 64. 108. 87. 129. 222. 295. 234. 292. 493.
      294. 200. 141. 875. 164. 793. 201. 86. 311. 170. 473. 140. 372.
      140. 464. 131. 301. 130. 188. 152. 317. 319. 218. 499. 830. 199.
      261. 307. 85. 399. 181. 312. 250. 482. 123. 428. 294. 559. 176.
      138. 456. 559. 389. 187. 196. 312. 358. 244. 174. 165. 194. 93.
      29. 113. 98. 174. 189. 256. 136. 236. 211. 255. 173. 351. 436.
      374. 135. 641. 1169. 614. 281. 154. 664. 179. 806. 458. 515. 524.
      1165. 213. 161. 254. 285. 108. 114. 184. 149. 101. 127. 173. 97.
      119. 171. 139. 123. 246. 95. 284. 141. 385. 142. 420. 122. 132.
      511. 138. 305. 113. 443. 187. 278. 131. 119. 123. 188. 95. 86. 96.
      110. 85. 70. 243. 149. 241. 216. 246. 196. 362. 128. 524. 129.
      832. 887. 917. 324. 104. 428. 116. 578. 157. 434. 216. 671. 105.
      109. 132. 163. 189. 130. 214. 130.</_>
    <_>
      5159. 257. 211. 136. 163. 122. 147. 85. 790. 237. 659. 239. 362.
      155. 320. 101. 198. 859. 390. 745. 91. 460. 142. 378. 249. 221.
      291. 216. 98. 92. 124. 94. 67. 47. 93. 47. 146. 58. 158. 46. 349.
      149. 214. 106. 239. 82. 413. 111. 56. 298. 106. 237. 428. 286.
      127. 208. 128. 244. 144. 60. 146. 139. 229. 83. 207. 240. 190.
      207. 267. 207. 199. 188. 781. 311. 235. 279. 619. 315. 390. 179.
      248. 1468. 805. 1281. 152. 1055. 296. 760. 143. 236. 137. 212.
      133. 219. 145. 140. 69. 65. 76. 152. 324. 219. 257. 448. 485. 309.
      156. 90. 793. 270. 695. 104. 195. 233. 261. 339. 110. 401. 202.
      344. 84. 272. 42. 116. 106. 153. 263. 193. 113. 663. 204. 221.
      273. 117. 368. 130. 340. 189. 452. 111. 383. 191. 650. 164. 179.
      642. 431. 370. 155. 183. 283. 350. 206. 167. 335. 197. 94. 97.
      130. 109. 148. 328. 285. 114. 385. 209. 342. 206. 523. 419. 676.
      79. 839. 960. 1400. 244. 83. 464. 181. 1042. 241. 458. 496. 1312.
      207. 290. 271. 312. 176. 234. 295. 210. 70. 77. 106. 116. 89. 130.
      181. 97. 247. 143. 142. 109. 384. 105. 362. 78. 176. 430. 107.
      197. 78. 304. 168. 201. 71. 103. 107. 90. 107. 122. 96. 74. 72.
      83. 165. 82. 258. 310. 399. 235. 488. 117. 537. 64. 1058. 648.
      1198. 184. 61. 270. 117. 621. 119. 804. 360. 1282. 85. 125. 110.
      91. 203. 206. 365. 185.</_>
    <_>
      4390. 238. 178. 141. 143. 117. 153. 80. 918. 201. 1292. 225. 501.
      127. 435. 87. 157. 392. 270. 487. 77. 480. 161. 355. 216. 166.
      411. 209. 102. 62. 92. 103. 55. 142. 85. 63. 133. 64. 153. 67.
      285. 78. 243. 66. 203. 150. 275. 97. 99. 237. 116. 208. 395. 493.
      315. 288. 164. 212. 186. 151. 156. 109. 237. 120. 137. 258. 157.
      242. 448. 251. 283. 257. 1037. 445. 327. 368. 646. 191. 202. 184.
      144. 583. 1203. 482. 128. 1110. 310. 721. 166. 169. 237. 195. 86.
      150. 166. 131. 65. 107. 107. 146. 337. 269. 297. 333. 643. 806.
      128. 145. 1028. 524. 710. 207. 112. 300. 196. 331. 88. 415. 229.
      480. 141. 335. 113. 170. 147. 276. 401. 287. 425. 940. 172. 155.
      327. 181. 399. 195. 301. 183. 402. 155. 393. 141. 964. 119. 284.
      658. 727. 296. 82. 147. 345. 506. 146. 255. 185. 177. 89. 93. 144.
      113. 139. 212. 175. 77. 252. 212. 430. 215. 279. 389. 274. 81.
      479. 1480. 728. 295. 259. 660. 185. 720. 277. 507. 644. 1392. 138.
      203. 188. 189. 241. 237. 308. 223. 153. 164. 138. 150. 114. 106.
      238. 125. 214. 109. 128. 307. 235. 119. 291. 102. 178. 680. 169.
      243. 73. 309. 142. 397. 111. 139. 99. 137. 73. 99. 104. 77. 102.
      160. 111. 149. 175. 207. 311. 200. 402. 141. 289. 114. 591. 1031.
      777. 275. 81. 348. 188. 647. 214. 541. 269. 867. 72. 110. 129.
      150. 221. 112. 252. 156.</_>
    <_>
      187. 224. 244. 165. 208. 98. 126. 75. 1379. 489. 1133. 284. 805.
      314. 608. 183. 246. 935. 359. 721. 151. 545. 154. 351. 316. 443.
      278. 272. 240. 145. 101. 109. 58. 77. 148. 84. 142. 43. 104. 51.
      352. 115. 360. 76. 333. 167. 332. 126. 100. 294. 131. 369. 210.
      221. 84. 222. 249. 348. 214. 128. 149. 102. 128. 68. 232. 248.
      316. 336. 417. 240. 261. 368. 1638. 592. 779. 545. 1321. 306. 766.
      265. 381. 1086. 901. 1012. 236. 753. 254. 628. 317. 353. 262. 311.
      302. 285. 170. 181. 41. 101. 97. 142. 286. 299. 292. 422. 602.
      287. 239. 145. 826. 204. 877. 264. 73. 300. 113. 524. 231. 314.
      133. 468. 124. 367. 53. 126. 160. 189. 179. 212. 329. 881. 703.
      216. 162. 125. 313. 149. 243. 208. 480. 175. 333. 208. 743. 202.
      132. 401. 223. 341. 192. 151. 333. 267. 237. 166. 208. 190. 132.
      60. 129. 99. 251. 254. 313. 141. 189. 228. 207. 208. 239. 420.
      318. 82. 873. 417. 620. 207. 166. 621. 176. 827. 360. 523. 495.
      1112. 237. 150. 254. 332. 195. 96. 278. 196. 144. 156. 157. 148.
      129. 190. 190. 114. 225. 111. 278. 156. 365. 148. 455. 127. 145.
      542. 114. 242. 142. 341. 143. 284. 91. 99. 107. 171. 106. 81. 122.
      136. 110. 94. 184. 166. 156. 147. 263. 189. 352. 190. 538. 99.
      999. 345. 869. 345. 75. 397. 109. 597. 177. 401. 233. 663. 60.
      153. 162. 170. 159. 163. 166. 169.</_>
    <_>
      188. 239. 255. 200. 243. 72. 180. 79. 1054. 411. 1054. 250. 725.
      314. 734. 173. 256. 890. 349. 841. 158. 543. 173. 405. 313. 410.
      276. 251. 189. 173. 113. 126. 47. 66. 155. 99. 151. 75. 157. 50.
      436. 190. 415. 68. 328. 167. 465. 167. 130. 331. 137. 419. 119.
      207. 102. 303. 343. 367. 224. 110. 141. 79. 127. 56. 252. 310.
      262. 289. 405. 239. 263. 339. 1395. 502. 657. 428. 1132. 317. 678.
      299. 394. 1125. 705. 957. 260. 727. 322. 631. 222. 312. 274. 331.
      255. 204. 221. 155. 68. 122. 103. 137. 297. 356. 278. 384. 604.
      243. 177. 128. 675. 216. 659. 245. 96. 382. 126. 514. 187. 338.
      116. 497. 157. 338. 99. 235. 156. 280. 189. 226. 362. 868. 703.
      236. 188. 123. 287. 159. 262. 193. 452. 162. 424. 162. 728. 171.
      92. 396. 187. 376. 158. 159. 321. 328. 314. 208. 229. 195. 101.
      63. 138. 104. 262. 199. 273. 174. 188. 252. 244. 195. 342. 380.
      364. 79. 882. 495. 707. 252. 137. 726. 157. 836. 277. 525. 464.
      1177. 186. 165. 241. 312. 165. 121. 217. 174. 160. 176. 184. 147.
      123. 190. 199. 118. 294. 147. 262. 115. 524. 164. 545. 102. 136.
      603. 129. 316. 112. 435. 175. 317. 89. 108. 116. 195. 102. 89.
      113. 82. 89. 99. 187. 168. 167. 144. 235. 170. 442. 217. 514. 44.
      807. 299. 920. 265. 75. 527. 128. 612. 161. 449. 182. 733. 98.
      153. 151. 133. 188. 166. 183. 152.</_>
    <_>
      148. 243. 177. 215. 190. 83. 96. 81. 1448. 349. 1040. 181. 612.
      91. 407. 85. 134. 948. 382. 848. 120. 582. 125. 380. 213. 343.
      215. 181. 112. 147. 61. 89. 83. 111. 109. 84. 90. 82. 129. 97.
      227. 189. 361. 97. 206. 141. 279. 110. 100. 182. 128. 355. 102.
      213. 147. 272. 153. 176. 238. 108. 86. 101. 54. 97. 161. 303. 228.
      336. 305. 154. 242. 277. 1918. 755. 798. 221. 1051. 176. 628. 220.
      196. 1362. 973. 1032. 203. 1068. 204. 695. 257. 295. 273. 282.
      158. 223. 137. 187. 120. 119. 77. 53. 189. 166. 265. 278. 331.
      211. 166. 101. 490. 296. 543. 242. 144. 378. 258. 339. 204. 497.
      184. 344. 132. 248. 127. 193. 182. 206. 239. 194. 268. 671. 297.
      221. 174. 119. 219. 88. 336. 157. 425. 106. 303. 157. 519. 164.
      137. 380. 374. 213. 146. 148. 233. 315. 229. 147. 239. 175. 96.
      142. 103. 123. 247. 266. 197. 107. 411. 285. 400. 244. 445. 270.
      527. 139. 808. 943. 894. 258. 292. 826. 282. 1184. 362. 726. 484.
      1744. 226. 220. 242. 364. 265. 269. 208. 279. 108. 156. 146. 79.
      120. 141. 171. 113. 200. 84. 141. 111. 215. 110. 201. 108. 142.
      458. 137. 280. 104. 472. 175. 439. 77. 105. 139. 183. 116. 88.
      121. 104. 96. 141. 144. 194. 253. 243. 344. 341. 309. 156. 502.
      135. 684. 582. 870. 379. 116. 663. 188. 765. 286. 949. 293. 1263.
      94. 118. 167. 221. 269. 202. 308. 276.</_>
    <_>
      183. 313. 299. 229. 180. 89. 88. 79. 1805. 294. 1100. 201. 687.
      108. 334. 90. 199. 1013. 303. 820. 148. 647. 143. 383. 297. 408.
      237. 293. 85. 149. 80. 102. 68. 105. 108. 63. 92. 85. 124. 60.
      346. 175. 422. 83. 249. 149. 278. 88. 74. 161. 164. 342. 92. 186.
      93. 315. 102. 177. 179. 127. 110. 121. 50. 76. 145. 251. 252. 302.
      435. 204. 262. 425. 1916. 429. 981. 250. 1454. 319. 640. 215. 218.
      1456. 667. 1208. 161. 1063. 245. 725. 242. 360. 207. 332. 180.
      219. 127. 202. 91. 136. 89. 65. 188. 156. 290. 242. 432. 130. 177.
      83. 420. 119. 567. 213. 140. 282. 187. 335. 148. 410. 151. 371.
      109. 228. 79. 193. 115. 240. 201. 144. 265. 727. 540. 235. 109.
      92. 132. 94. 403. 171. 508. 114. 344. 77. 523. 97. 114. 356. 152.
      343. 114. 128. 151. 360. 202. 181. 206. 191. 70. 98. 153. 100.
      256. 259. 229. 137. 357. 304. 328. 251. 397. 266. 571. 169. 999.
      558. 976. 293. 236. 668. 269. 1046. 373. 850. 603. 1777. 207. 200.
      213. 314. 294. 266. 159. 305. 73. 110. 89. 91. 112. 113. 175. 142.
      213. 91. 167. 102. 278. 64. 196. 99. 125. 416. 130. 262. 96. 425.
      170. 329. 74. 134. 79. 152. 92. 91. 105. 83. 120. 150. 134. 182.
      220. 208. 294. 376. 342. 150. 407. 129. 777. 251. 945. 387. 148.
      574. 139. 754. 317. 957. 340. 1298. 101. 154. 186. 214. 258. 230.
      317. 310.</_>
    <_>
      213. 276. 175. 232. 203. 66. 179. 97. 1307. 338. 1345. 239. 736.
      188. 450. 178. 180. 915. 459. 955. 133. 635. 172. 427. 324. 293.
      274. 259. 142. 191. 155. 113. 106. 118. 108. 149. 127. 116. 105.
      111. 262. 159. 298. 83. 260. 435. 276. 99. 178. 408. 137. 396.
      127. 209. 152. 331. 274. 371. 182. 131. 148. 128. 142. 69. 270.
      372. 250. 367. 325. 185. 338. 306. 1179. 494. 566. 430. 1138. 309.
      689. 302. 301. 1234. 1140. 1075. 164. 985. 222. 664. 324. 305.
      258. 391. 215. 183. 125. 140. 67. 129. 74. 118. 127. 220. 149.
      274. 375. 181. 188. 129. 543. 235. 695. 158. 165. 367. 227. 554.
      210. 445. 124. 555. 111. 332. 74. 206. 205. 298. 351. 197. 245.
      834. 190. 268. 311. 89. 387. 198. 250. 218. 346. 113. 323. 170.
      665. 153. 168. 517. 513. 345. 126. 151. 326. 484. 282. 146. 243.
      202. 79. 63. 121. 103. 251. 241. 186. 114. 191. 208. 245. 138.
      382. 371. 472. 125. 516. 954. 579. 273. 172. 885. 173. 1091. 286.
      516. 372. 1156. 220. 158. 194. 328. 183. 126. 167. 110. 115. 176.
      144. 128. 168. 142. 155. 109. 256. 87. 219. 112. 341. 145. 351.
      125. 131. 671. 130. 318. 136. 445. 203. 401. 88. 137. 94. 214. 93.
      113. 103. 82. 113. 99. 174. 125. 189. 193. 318. 198. 411. 128.
      461. 116. 853. 393. 803. 359. 93. 477. 123. 639. 233. 524. 274.
      804. 69. 129. 112. 176. 171. 131. 236. 159.</_>
    <_>
      2127. 175. 117. 250. 177. 86. 219. 99. 1080. 279. 1105. 220. 544.
      185. 522. 158. 156. 818. 389. 832. 141. 652. 153. 450. 329. 391.
      220. 229. 170. 156. 100. 109. 93. 75. 84. 102. 88. 87. 93. 68.
      224. 124. 298. 101. 264. 152. 289. 121. 93. 337. 133. 340. 226.
      482. 171. 288. 104. 230. 159. 112. 151. 151. 182. 73. 239. 252.
      228. 353. 272. 167. 298. 260. 1343. 499. 510. 396. 985. 294. 634.
      250. 266. 960. 999. 941. 181. 928. 179. 654. 268. 245. 267. 361.
      165. 143. 104. 144. 87. 135. 112. 120. 160. 191. 154. 223. 656.
      493. 289. 134. 778. 252. 746. 129. 159. 328. 263. 583. 196. 511.
      148. 452. 138. 512. 117. 215. 142. 263. 309. 179. 417. 687. 146.
      295. 331. 81. 301. 129. 253. 188. 313. 131. 539. 319. 581. 158.
      156. 487. 455. 342. 127. 187. 257. 440. 228. 171. 252. 201. 117.
      129. 102. 117. 209. 247. 201. 142. 222. 220. 279. 153. 339. 381.
      450. 134. 587. 1148. 575. 200. 156. 883. 158. 1073. 309. 535. 330.
      1042. 230. 153. 253. 283. 188. 163. 205. 125. 102. 194. 132. 129.
      186. 120. 165. 99. 257. 144. 189. 98. 268. 122. 320. 97. 154. 646.
      143. 357. 127. 405. 164. 420. 102. 120. 105. 169. 121. 56. 88. 86.
      87. 86. 170. 97. 165. 228. 331. 222. 301. 89. 502. 137. 745. 844.
      779. 410. 85. 470. 98. 626. 222. 634. 223. 866. 73. 87. 163. 156.
      192. 163. 224. 138.</_>
    <_>
      797. 255. 158. 236. 225. 97. 201. 108. 912. 380. 963. 205. 529.
      184. 498. 133. 236. 867. 760. 889. 118. 616. 241. 514. 269. 382.
      207. 214. 186. 184. 130. 122. 80. 126. 95. 161. 130. 117. 139. 81.
      245. 169. 296. 93. 312. 106. 337. 133. 143. 463. 144. 391. 138.
      227. 110. 237. 215. 297. 222. 135. 152. 107. 107. 88. 275. 317.
      267. 370. 278. 135. 338. 204. 1126. 542. 462. 343. 972. 321. 676.
      257. 309. 1284. 1004. 1007. 187. 1079. 215. 698. 241. 259. 307.
      308. 228. 181. 188. 181. 80. 127. 107. 122. 167. 230. 152. 244.
      328. 190. 171. 176. 584. 314. 550. 216. 199. 451. 199. 576. 253.
      505. 138. 420. 148. 337. 155. 223. 208. 249. 361. 194. 206. 637.
      258. 237. 252. 103. 265. 225. 312. 228. 350. 127. 415. 269. 421.
      175. 143. 519. 687. 316. 155. 168. 300. 521. 204. 160. 238. 178.
      88. 86. 114. 125. 188. 204. 224. 171. 240. 229. 321. 148. 403.
      352. 462. 134. 649. 1454. 575. 249. 150. 730. 189. 937. 293. 508.
      322. 1061. 217. 165. 260. 291. 188. 121. 182. 148. 123. 209. 132.
      131. 158. 176. 208. 119. 295. 132. 181. 127. 273. 166. 337. 149.
      156. 572. 116. 315. 145. 416. 193. 432. 143. 151. 100. 186. 125.
      117. 103. 136. 70. 103. 175. 156. 206. 246. 338. 217. 275. 138.
      501. 157. 707. 852. 703. 387. 87. 510. 160. 583. 266. 507. 257.
      770. 69. 111. 172. 163. 223. 166. 248. 163.</_>
    <_>
      192. 274. 186. 219. 205. 113. 186. 112. 972. 320. 1157. 279. 605.
      282. 692. 211. 263. 821. 509. 886. 164. 631. 208. 444. 316. 270.
      280. 268. 165. 193. 104. 134. 84. 87. 116. 97. 120. 108. 145. 101.
      259. 146. 288. 94. 207. 421. 278. 165. 158. 403. 154. 377. 168.
      227. 210. 295. 292. 333. 199. 126. 164. 197. 126. 80. 299. 444.
      270. 388. 264. 195. 254. 270. 1022. 511. 429. 461. 801. 325. 565.
      227. 299. 1418. 1203. 1115. 181. 1084. 263. 739. 287. 418. 291.
      320. 174. 179. 176. 203. 117. 157. 79. 153. 178. 219. 214. 278.
      479. 184. 217. 145. 566. 276. 705. 166. 155. 451. 248. 514. 263.
      407. 239. 474. 110. 282. 85. 253. 205. 297. 374. 221. 218. 819.
      193. 291. 354. 112. 404. 200. 196. 229. 311. 118. 324. 291. 479.
      171. 177. 619. 495. 427. 141. 232. 439. 550. 219. 198. 207. 225.
      148. 101. 109. 116. 200. 268. 217. 131. 186. 234. 217. 194. 329.
      321. 377. 141. 498. 946. 382. 228. 201. 832. 122. 943. 334. 447.
      400. 1143. 228. 154. 245. 278. 205. 126. 145. 125. 152. 196. 156.
      158. 154. 137. 162. 112. 275. 171. 198. 120. 287. 163. 296. 132.
      169. 736. 178. 376. 132. 402. 217. 337. 95. 202. 106. 173. 95. 53.
      75. 78. 84. 84. 194. 121. 152. 180. 265. 171. 360. 126. 446. 104.
      874. 385. 770. 344. 109. 482. 103. 482. 251. 567. 279. 850. 87.
      132. 113. 173. 155. 127. 220. 135.</_>
    <_>
      170. 401. 216. 193. 192. 112. 84. 96. 1551. 254. 1222. 193. 666.
      174. 251. 89. 175. 1298. 267. 975. 92. 684. 130. 277. 299. 326.
      229. 228. 153. 190. 82. 71. 80. 122. 121. 80. 147. 72. 147. 105.
      257. 141. 369. 92. 220. 183. 257. 134. 122. 162. 139. 210. 111.
      152. 96. 283. 103. 179. 120. 119. 118. 139. 85. 71. 200. 254. 338.
      307. 381. 197. 247. 359. 1616. 447. 692. 290. 1198. 235. 558. 245.
      266. 1648. 928. 1205. 156. 1160. 159. 682. 317. 348. 256. 398.
      220. 276. 137. 127. 86. 68. 89. 90. 206. 123. 198. 246. 248. 155.
      197. 135. 355. 158. 638. 257. 120. 271. 170. 333. 178. 402. 150.
      384. 106. 247. 87. 224. 193. 273. 246. 126. 258. 729. 635. 244.
      155. 85. 170. 95. 289. 189. 494. 140. 350. 126. 442. 109. 106.
      296. 175. 297. 105. 91. 169. 221. 270. 171. 259. 183. 116. 85.
      143. 101. 301. 236. 283. 158. 387. 339. 344. 231. 351. 291. 627.
      178. 1109. 557. 1107. 324. 239. 883. 219. 984. 350. 894. 381.
      1640. 167. 175. 423. 384. 310. 264. 245. 245. 115. 163. 151. 74.
      103. 109. 77. 96. 181. 57. 186. 94. 283. 71. 221. 115. 119. 404.
      97. 196. 84. 435. 112. 348. 79. 84. 85. 181. 112. 85. 95. 108. 84.
      133. 141. 146. 192. 230. 265. 299. 291. 78. 447. 180. 800. 231.
      1050. 412. 129. 622. 133. 806. 279. 1127. 333. 1421. 56. 94. 131.
      265. 221. 213. 363. 302.</_>
    <_>
      1896. 184. 164. 183. 196. 103. 119. 66. 1194. 375. 953. 236. 648.
      139. 272. 91. 145. 895. 390. 894. 61. 728. 95. 427. 205. 305. 292.
      223. 72. 78. 32. 40. 74. 94. 135. 92. 122. 121. 168. 105. 219.
      120. 305. 91. 155. 115. 267. 98. 69. 198. 142. 329. 119. 182. 225.
      369. 130. 112. 124. 125. 80. 98. 83. 113. 235. 233. 157. 276. 291.
      180. 231. 257. 1418. 555. 660. 323. 1084. 163. 579. 191. 264.
      1449. 855. 1089. 161. 1455. 216. 1069. 288. 299. 245. 377. 133.
      153. 124. 143. 61. 164. 98. 137. 116. 146. 224. 153. 293. 149.
      184. 130. 827. 367. 752. 244. 196. 409. 252. 371. 195. 507. 172.
      404. 138. 266. 92. 222. 132. 199. 251. 158. 531. 653. 195. 285.
      280. 120. 229. 89. 262. 169. 464. 58. 395. 194. 684. 94. 300. 481.
      411. 239. 92. 152. 152. 235. 234. 205. 223. 212. 85. 66. 113. 96.
      192. 237. 211. 152. 247. 312. 295. 206. 314. 273. 613. 139. 661.
      1258. 904. 247. 327. 731. 187. 979. 368. 657. 327. 1330. 168. 191.
      194. 247. 176. 160. 178. 165. 142. 144. 102. 133. 95. 102. 207.
      92. 171. 116. 203. 90. 200. 77. 240. 135. 180. 680. 98. 275. 105.
      473. 211. 362. 70. 93. 86. 139. 93. 117. 97. 94. 81. 91. 98. 171.
      156. 178. 309. 198. 324. 93. 521. 120. 873. 945. 1014. 356. 128.
      516. 102. 672. 245. 980. 353. 1118. 96. 79. 86. 167. 159. 175.
      366. 322.</_>
    <_>
      4697. 232. 198. 188. 312. 180. 164. 109. 1022. 194. 1436. 158.
      380. 162. 231. 83. 130. 591. 344. 501. 92. 535. 105. 232. 244.
      207. 346. 213. 123. 92. 87. 73. 61. 118. 132. 87. 98. 69. 108. 83.
      224. 91. 223. 91. 137. 132. 258. 109. 66. 217. 109. 278. 420. 532.
      303. 259. 118. 161. 133. 125. 172. 124. 238. 150. 219. 285. 185.
      225. 433. 225. 146. 238. 1259. 498. 283. 426. 539. 245. 285. 181.
      169. 1002. 1153. 694. 128. 1094. 244. 821. 234. 214. 235. 270.
      156. 209. 164. 176. 68. 131. 96. 151. 271. 256. 267. 454. 555.
      760. 146. 122. 1001. 470. 702. 142. 145. 259. 249. 399. 129. 426.
      305. 556. 115. 281. 83. 166. 131. 262. 327. 260. 435. 712. 182.
      246. 356. 129. 444. 172. 307. 205. 434. 129. 340. 207. 725. 169.
      260. 748. 636. 323. 89. 172. 381. 535. 212. 293. 225. 264. 110.
      99. 118. 105. 127. 214. 109. 93. 263. 207. 368. 196. 285. 391.
      350. 95. 324. 1347. 529. 265. 220. 520. 230. 812. 330. 448. 606.
      1400. 129. 213. 204. 240. 264. 221. 294. 222. 90. 141. 148. 136.
      117. 71. 244. 166. 156. 102. 128. 265. 122. 75. 338. 101. 208.
      577. 185. 278. 89. 276. 159. 325. 86. 126. 92. 142. 93. 101. 88.
      95. 93. 168. 95. 103. 173. 304. 332. 205. 300. 130. 172. 128. 534.
      955. 745. 317. 110. 343. 160. 612. 147. 479. 254. 797. 75. 84.
      160. 178. 175. 130. 184. 153.</_>
    <_>
      127. 282. 231. 266. 225. 192. 190. 132. 1346. 318. 1651. 166. 693.
      202. 598. 115. 255. 604. 383. 647. 173. 626. 141. 454. 232. 268.
      340. 230. 166. 202. 156. 148. 62. 122. 117. 98. 131. 96. 127. 101.
      483. 139. 348. 103. 388. 175. 378. 91. 83. 474. 199. 536. 119.
      274. 123. 268. 158. 185. 183. 171. 117. 187. 126. 108. 168. 299.
      247. 259. 493. 295. 354. 350. 1127. 380. 569. 277. 726. 305. 422.
      239. 330. 1077. 554. 792. 188. 1000. 307. 806. 195. 322. 247. 270.
      209. 275. 190. 235. 78. 148. 125. 135. 375. 277. 319. 435. 543.
      282. 146. 204. 482. 219. 421. 251. 148. 395. 257. 383. 179. 487.
      197. 398. 142. 156. 104. 179. 157. 204. 134. 172. 138. 318. 123.
      138. 119. 133. 202. 161. 388. 217. 422. 173. 324. 206. 737. 205.
      209. 669. 236. 425. 88. 210. 288. 367. 248. 229. 228. 248. 106.
      141. 183. 181. 124. 259. 191. 159. 192. 279. 378. 319. 402. 220.
      495. 161. 518. 372. 791. 235. 202. 716. 349. 970. 377. 472. 613.
      1057. 175. 196. 267. 285. 228. 261. 242. 299. 136. 228. 182. 110.
      120. 119. 133. 111. 249. 169. 126. 94. 262. 128. 435. 133. 184.
      570. 251. 325. 139. 351. 184. 422. 155. 180. 166. 147. 105. 138.
      113. 148. 96. 169. 115. 143. 231. 291. 242. 247. 430. 178. 313.
      211. 979. 328. 964. 240. 228. 494. 248. 711. 355. 806. 391. 885.
      142. 174. 184. 248. 202. 229. 206. 275.</_>
    <_>
      127. 290. 242. 268. 207. 191. 185. 143. 1327. 309. 1638. 178. 706.
      191. 582. 147. 241. 608. 357. 661. 162. 638. 153. 457. 219. 253.
      345. 226. 168. 208. 130. 140. 66. 114. 111. 99. 135. 103. 138.
      112. 467. 138. 351. 120. 373. 206. 404. 88. 81. 448. 180. 567.
      115. 263. 121. 265. 158. 162. 180. 183. 144. 177. 130. 107. 163.
      290. 267. 255. 523. 278. 333. 355. 1115. 390. 534. 275. 737. 290.
      423. 246. 327. 1050. 554. 798. 194. 1024. 296. 771. 231. 312. 258.
      247. 196. 292. 195. 240. 78. 142. 111. 151. 355. 282. 330. 430.
      510. 291. 164. 204. 452. 198. 393. 255. 159. 399. 240. 399. 165.
      496. 194. 382. 164. 158. 108. 202. 164. 194. 124. 167. 137. 313.
      107. 145. 145. 127. 211. 150. 382. 223. 392. 164. 313. 218. 746.
      180. 221. 643. 267. 431. 93. 209. 294. 359. 248. 226. 253. 245.
      112. 137. 207. 194. 131. 266. 214. 171. 197. 268. 358. 327. 424.
      210. 488. 150. 513. 418. 802. 264. 221. 706. 370. 976. 354. 449.
      622. 1004. 160. 171. 265. 298. 196. 288. 255. 304. 132. 230. 172.
      116. 112. 129. 148. 120. 252. 186. 141. 95. 256. 121. 434. 115.
      181. 515. 258. 335. 132. 360. 188. 415. 154. 183. 159. 169. 106.
      122. 112. 152. 104. 182. 120. 153. 248. 296. 260. 237. 423. 187.
      325. 195. 997. 319. 947. 253. 217. 439. 265. 686. 379. 809. 384.
      886. 151. 180. 196. 261. 215. 237. 219. 275.</_>
    <_>
      117. 215. 245. 208. 229. 144. 118. 120. 1187. 247. 1503. 219. 760.
      204. 538. 108. 214. 686. 334. 708. 98. 475. 138. 432. 232. 278.
      380. 267. 121. 183. 148. 148. 34. 105. 100. 118. 135. 105. 153.
      121. 380. 178. 260. 89. 336. 152. 369. 111. 120. 413. 180. 515.
      143. 267. 236. 372. 119. 171. 223. 167. 151. 160. 104. 89. 214.
      341. 322. 324. 454. 254. 240. 272. 984. 409. 580. 281. 694. 223.
      400. 272. 312. 1075. 434. 749. 192. 914. 292. 603. 191. 311. 238.
      157. 213. 276. 143. 220. 78. 154. 118. 160. 354. 288. 281. 376.
      423. 292. 229. 218. 433. 166. 410. 221. 199. 441. 233. 405. 230.
      550. 284. 522. 117. 271. 122. 179. 153. 172. 129. 212. 156. 227.
      128. 183. 91. 161. 179. 194. 280. 225. 364. 190. 272. 202. 611.
      246. 205. 737. 246. 479. 169. 228. 274. 383. 157. 291. 215. 306.
      159. 156. 216. 200. 114. 237. 153. 208. 219. 302. 353. 343. 385.
      243. 409. 165. 613. 347. 851. 332. 273. 753. 452. 922. 392. 664.
      637. 1020. 178. 195. 303. 236. 208. 278. 252. 368. 198. 194. 166.
      114. 97. 172. 178. 126. 192. 174. 188. 92. 374. 108. 421. 125.
      280. 559. 286. 389. 163. 320. 187. 372. 144. 192. 147. 139. 128.
      166. 125. 151. 84. 197. 102. 128. 246. 282. 259. 280. 303. 235.
      290. 182. 879. 305. 821. 330. 255. 511. 317. 820. 355. 901. 471.
      1046. 120. 240. 246. 292. 158. 243. 225. 291.</_>
    <_>
      249. 371. 273. 270. 316. 238. 179. 161. 1262. 348. 1814. 236. 743.
      229. 607. 154. 219. 645. 262. 687. 151. 532. 158. 492. 317. 277.
      319. 316. 223. 181. 158. 167. 76. 139. 132. 95. 139. 91. 135. 86.
      462. 165. 376. 93. 268. 134. 375. 98. 89. 445. 286. 524. 160. 242.
      157. 259. 137. 217. 182. 143. 131. 216. 170. 122. 270. 287. 243.
      295. 527. 339. 263. 399. 1090. 450. 630. 348. 552. 293. 339. 194.
      260. 1016. 562. 686. 248. 1004. 265. 815. 293. 307. 295. 324. 257.
      278. 273. 244. 114. 143. 103. 160. 415. 376. 281. 557. 547. 214.
      161. 182. 520. 179. 490. 235. 90. 444. 157. 363. 187. 528. 178.
      455. 116. 223. 149. 225. 147. 182. 189. 154. 169. 272. 116. 164.
      83. 134. 244. 147. 322. 222. 371. 148. 280. 173. 805. 194. 275.
      704. 275. 493. 125. 161. 210. 389. 265. 255. 161. 292. 231. 180.
      177. 197. 147. 209. 186. 100. 257. 194. 339. 216. 392. 205. 545.
      164. 528. 301. 706. 234. 152. 759. 316. 975. 278. 526. 408. 1002.
      153. 163. 211. 222. 244. 227. 201. 220. 172. 172. 161. 103. 106.
      95. 182. 123. 243. 177. 186. 121. 324. 165. 508. 138. 228. 674.
      218. 372. 106. 342. 158. 383. 142. 181. 170. 209. 119. 165. 121.
      116. 101. 155. 102. 112. 256. 236. 274. 255. 427. 191. 286. 179.
      1003. 219. 800. 297. 95. 393. 206. 762. 227. 846. 193. 910. 119.
      189. 176. 190. 244. 235. 201. 219.</_>
    <_>
      216. 200. 202. 234. 190. 127. 141. 97. 1040. 405. 1078. 214. 738.
      237. 595. 154. 160. 1188. 228. 1014. 118. 766. 150. 560. 272. 337.
      245. 218. 182. 144. 146. 145. 80. 148. 139. 154. 114. 93. 127. 91.
      395. 104. 342. 100. 376. 150. 334. 146. 100. 333. 208. 541. 105.
      224. 141. 324. 149. 221. 235. 160. 156. 115. 116. 108. 263. 288.
      243. 346. 323. 256. 262. 274. 1035. 384. 454. 249. 846. 329. 626.
      246. 206. 1754. 268. 1351. 227. 1204. 194. 873. 193. 331. 207.
      282. 261. 193. 158. 203. 101. 117. 71. 94. 221. 318. 258. 253.
      426. 158. 258. 125. 545. 167. 560. 176. 70. 399. 116. 387. 163.
      499. 208. 492. 134. 230. 135. 177. 187. 151. 128. 126. 183. 215.
      255. 158. 166. 98. 199. 121. 409. 157. 543. 163. 331. 130. 554.
      210. 135. 489. 190. 456. 136. 182. 220. 323. 128. 165. 259. 174.
      134. 121. 160. 178. 280. 317. 377. 177. 298. 209. 275. 156. 337.
      254. 501. 195. 953. 340. 983. 256. 258. 913. 170. 1122. 465. 435.
      291. 1023. 229. 284. 234. 361. 281. 125. 178. 202. 136. 162. 119.
      141. 125. 170. 137. 133. 300. 145. 270. 119. 323. 129. 315. 151.
      175. 592. 130. 306. 182. 503. 227. 397. 100. 121. 173. 159. 132.
      137. 111. 136. 113. 99. 254. 206. 246. 265. 320. 293. 317. 154.
      573. 189. 1227. 296. 1156. 337. 161. 484. 123. 664. 230. 587. 251.
      722. 118. 180. 181. 226. 238. 234. 237. 193.</_>
    <_>
      133. 196. 165. 199. 199. 135. 141. 90. 974. 316. 1182. 187. 815.
      225. 600. 170. 135. 982. 234. 1014. 122. 749. 199. 632. 242. 324.
      266. 181. 134. 157. 120. 165. 83. 141. 160. 150. 145. 131. 119.
      94. 380. 135. 398. 89. 353. 151. 391. 106. 92. 473. 221. 624. 114.
      215. 136. 328. 125. 224. 232. 158. 141. 128. 99. 130. 280. 288.
      194. 309. 263. 212. 203. 220. 1067. 345. 485. 254. 940. 272. 692.
      208. 185. 1400. 219. 1254. 223. 1221. 170. 864. 223. 246. 165.
      190. 221. 159. 119. 210. 75. 124. 87. 91. 209. 303. 239. 258. 461.
      131. 308. 97. 589. 187. 618. 146. 87. 450. 125. 402. 158. 619.
      177. 607. 126. 230. 110. 157. 208. 179. 171. 115. 184. 186. 214.
      144. 121. 90. 149. 117. 428. 178. 520. 115. 451. 137. 579. 175.
      125. 507. 169. 416. 110. 205. 254. 394. 164. 185. 244. 174. 102.
      100. 158. 179. 249. 291. 282. 173. 313. 169. 265. 190. 350. 280.
      475. 173. 741. 434. 968. 249. 234. 1018. 178. 1247. 440. 510. 290.
      1149. 263. 288. 269. 389. 278. 134. 181. 187. 125. 171. 142. 160.
      114. 180. 147. 117. 332. 117. 302. 142. 309. 108. 326. 135. 163.
      761. 126. 348. 187. 618. 191. 462. 121. 135. 156. 143. 132. 131.
      111. 152. 117. 108. 269. 190. 236. 304. 348. 306. 294. 144. 552.
      178. 1022. 291. 973. 370. 181. 581. 122. 802. 256. 707. 244. 830.
      92. 148. 152. 233. 308. 221. 247. 185.</_>
    <_>
      175. 301. 292. 244. 357. 226. 200. 197. 1320. 281. 1428. 277. 514.
      245. 423. 198. 205. 728. 298. 672. 216. 439. 180. 470. 262. 304.
      304. 305. 195. 163. 174. 133. 113. 110. 132. 101. 154. 134. 201.
      121. 441. 156. 397. 91. 294. 185. 429. 162. 152. 431. 196. 416.
      155. 321. 181. 361. 101. 135. 212. 163. 133. 213. 193. 175. 199.
      279. 263. 290. 480. 262. 306. 444. 930. 425. 575. 312. 614. 218.
      350. 270. 263. 939. 499. 640. 184. 859. 217. 703. 212. 330. 257.
      313. 205. 317. 255. 264. 81. 189. 75. 257. 504. 402. 383. 520.
      372. 282. 160. 157. 411. 236. 306. 224. 142. 494. 205. 354. 174.
      474. 209. 502. 142. 236. 203. 230. 158. 213. 218. 185. 162. 247.
      125. 157. 185. 143. 286. 140. 454. 243. 536. 228. 228. 190. 631.
      235. 295. 665. 235. 481. 173. 190. 271. 413. 239. 275. 217. 258.
      152. 179. 187. 161. 124. 126. 126. 126. 240. 199. 322. 198. 525.
      136. 640. 139. 435. 311. 781. 213. 210. 905. 207. 1025. 249. 662.
      305. 1363. 253. 180. 256. 287. 186. 214. 164. 193. 132. 261. 142.
      116. 157. 194. 258. 136. 250. 139. 125. 126. 247. 98. 353. 165.
      235. 517. 206. 325. 191. 336. 150. 446. 156. 173. 142. 206. 185.
