<?xml version="1.0"?>
<opencv_storage>
<opencv_ml_svm>
  <format>3</format>
  <svmType>C_SVC</svmType>
  <kernel>
    <type>RBF</type>
    <gamma>1.5000000000000001e-04</gamma></kernel>
  <C>2.5000000000000000e+00</C>
  <term_criteria><epsilon>1.1920928955078125e-07</epsilon>
    <iterations>1000</iterations></term_criteria>
  <var_count>256</var_count>
  <class_count>2</class_count>
  <class_labels type_id="opencv-matrix">
    <rows>2</rows>
    <cols>1</cols>
    <dt>i</dt>
    <data>
      0 1</data></class_labels>
  <sv_total>2000</sv_total>
  <support_vectors>
    <_>
      4569. 1693. 1211. 1086. 1135. 1156. 587. 673. 946. 1259. 955.
      1181. 855. 878. 577. 631. 1535. 3476. 1159. 2477. 1726. 2125. 862.
      1369. 926. 2584. 1168. 2867. 1111. 1553. 913. 1343. 991. 833. 607.
      737. 691. 1117. 466. 897. 712. 809. 778. 913. 616. 733. 642. 863.
      876. 1413. 667. 972. 921. 1589. 642. 1430. 717. 1363. 876. 1605.
      753. 1159. 904. 1662. 4324. 938. 2355. 796. 2017. 902. 1507. 772.
      3442. 1085. 3637. 976. 2188. 1046. 1874. 841. 1216. 907. 1087.
      779. 851. 615. 943. 779. 1135. 1000. 1637. 1133. 911. 742. 1266.
      1148. 1659. 936. 886. 586. 1859. 1087. 1261. 828. 1399. 920. 1433.
      866. 1709. 902. 1737. 909. 958. 741. 669. 572. 967. 679. 780. 610.
      819. 853. 1071. 855. 893. 809. 1153. 1022. 1080. 1067. 1060. 974.
      1302. 1238. 783. 1107. 594. 677. 563. 805. 563. 671. 601. 807.
      854. 1707. 633. 1341. 845. 1280. 524. 1196. 796. 1342. 1069. 1617.
      600. 827. 653. 1248. 1104. 1067. 758. 1123. 1314. 1441. 825. 1361.
      580. 813. 791. 1063. 867. 1114. 905. 1374. 927. 1708. 997. 1783.
      1137. 2931. 787. 3000. 837. 1633. 1427. 2383. 1021. 2758. 1176.
      4413. 1178. 623. 977. 700. 1584. 815. 1315. 1061. 1383. 633. 1579.
      749. 1292. 740. 1556. 868. 726. 503. 680. 518. 682. 571. 662. 803.
      1500. 649. 1954. 712. 741. 627. 960. 988. 1870. 894. 1669. 1268.
      3387. 1250. 2206. 1437. 1257. 777. 2115. 1388. 2542. 1130. 4242.
      1708. 993. 683. 871. 673. 1217. 1135. 1053. 1094. 960. 718. 1241.
      847. 1259. 1610. 1647. 2071.</_>
    <_>
      10418. 2449. 1867. 1400. 1107. 1536. 505. 665. 1112. 2049. 1176.
      1460. 463. 648. 333. 474. 1864. 6446. 1858. 3865. 1950. 2332.
      1018. 1403. 1053. 2995. 1307. 3125. 573. 1034. 490. 823. 581. 844.
      401. 565. 576. 1482. 360. 1074. 400. 784. 452. 907. 302. 509. 315.
      658. 827. 1777. 734. 1154. 925. 1946. 737. 1491. 484. 1239. 670.
      1332. 462. 788. 459. 1163. 7294. 1439. 3374. 843. 3262. 1239.
      1852. 750. 5521. 1821. 5986. 1184. 2202. 876. 1894. 467. 1605.
      824. 1557. 652. 1062. 514. 1076. 401. 1512. 802. 1961. 712. 647.
      367. 638. 504. 1538. 707. 839. 495. 2579. 1263. 1578. 757. 1459.
      802. 1543. 793. 1580. 808. 1722. 708. 865. 505. 609. 260. 1203.
      503. 790. 363. 708. 709. 712. 473. 601. 996. 742. 594. 549. 667.
      413. 557. 637. 848. 456. 737. 486. 978. 557. 961. 270. 461. 392.
      749. 639. 1620. 842. 1507. 658. 1172. 698. 1166. 735. 1645. 1487.
      1959. 327. 557. 594. 1115. 378. 605. 278. 599. 608. 1185. 687.
      1094. 316. 652. 435. 943. 403. 710. 937. 1204. 500. 1613. 693.
      2058. 802. 3547. 886. 2862. 591. 1299. 1270. 2717. 568. 1744. 874.
      3328. 1083. 520. 962. 382. 1545. 580. 1415. 720. 1918. 1101. 2515.
      955. 1220. 554. 1887. 751. 565. 395. 714. 348. 566. 338. 694. 515.
      1628. 592. 2273. 687. 494. 326. 836. 1311. 775. 394. 982. 596.
      3689. 992. 3042. 1388. 1177. 771. 2292. 1192. 3806. 1110. 6654.
      1560. 523. 302. 544. 270. 1246. 516. 1122. 628. 674. 440. 1139.
      568. 1062. 908. 1625. 1160.</_>
    <_>
      10705. 2531. 1842. 1676. 1087. 1342. 606. 875. 1168. 1972. 1216.
      1340. 831. 1057. 565. 587. 1851. 4427. 2021. 3435. 1367. 1781.
      924. 1547. 1141. 2581. 1261. 2355. 886. 1015. 649. 858. 885. 1000.
      668. 910. 676. 1491. 627. 1383. 605. 951. 645. 972. 633. 769. 693.
      818. 750. 1691. 808. 1282. 1012. 1651. 834. 1745. 695. 1251. 855.
      1428. 704. 991. 912. 1357. 4805. 1265. 3465. 972. 1881. 1085.
      1451. 985. 3289. 1582. 4286. 1084. 1766. 1078. 1775. 658. 1393.
      1023. 1628. 878. 1007. 588. 957. 684. 1293. 1190. 1834. 981. 820.
      579. 915. 635. 1229. 969. 944. 650. 1642. 1393. 1390. 978. 1021.
      968. 1060. 715. 1400. 860. 1403. 702. 1006. 920. 738. 504. 1386.
      875. 1000. 659. 695. 731. 734. 601. 838. 1561. 811. 654. 856. 985.
      687. 867. 910. 1170. 564. 927. 630. 1109. 687. 988. 557. 792. 469.
      788. 1004. 1558. 976. 1475. 679. 1215. 697. 1293. 1081. 1902.
      1375. 1797. 502. 895. 603. 1216. 582. 677. 530. 978. 916. 1277.
      822. 1281. 441. 753. 738. 1122. 701. 861. 1227. 1236. 737. 1428.
      1081. 1784. 848. 2792. 742. 2487. 1084. 1745. 1542. 2225. 852.
      2125. 1000. 3099. 1019. 550. 947. 637. 905. 595. 904. 948. 1765.
      1000. 1692. 778. 1057. 891. 1437. 901. 756. 547. 923. 532. 548.
      495. 610. 752. 1883. 1007. 2041. 805. 679. 746. 932. 1520. 906.
      537. 1032. 913. 2337. 1015. 1866. 1349. 1097. 682. 1425. 877.
      2924. 982. 4229. 1186. 790. 587. 588. 491. 1154. 786. 729. 693.
      985. 771. 1002. 639. 1068. 1246. 1240. 1245.</_>
    <_>
      3473. 1464. 1337. 1090. 1064. 1144. 691. 774. 962. 1208. 937. 821.
      881. 965. 576. 589. 1213. 2657. 1236. 2095. 1297. 1572. 883. 1472.
      711. 1822. 878. 1670. 896. 1025. 722. 851. 927. 839. 744. 903.
      824. 1434. 708. 1500. 731. 962. 951. 986. 996. 1006. 956. 1186.
      724. 1310. 873. 1118. 1035. 1607. 1014. 1971. 547. 1039. 830.
      1239. 875. 986. 1126. 1698. 3895. 930. 2764. 846. 2056. 1077.
      1453. 1021. 3086. 1250. 3966. 865. 2111. 1185. 1912. 773. 1162.
      912. 1297. 824. 827. 653. 1038. 727. 1177. 1073. 1864. 870. 988.
      727. 1061. 793. 1480. 1154. 865. 756. 1880. 1355. 1238. 1202.
      1133. 1059. 1140. 735. 1599. 1050. 1324. 859. 1121. 997. 792. 624.
      1338. 1081. 1062. 934. 707. 822. 816. 601. 942. 786. 897. 797.
      1015. 968. 1179. 924. 1045. 1072. 691. 945. 701. 986. 760. 763.
      751. 854. 546. 700. 879. 1596. 860. 1294. 722. 1117. 579. 1089.
      936. 1754. 1322. 1713. 709. 973. 690. 1194. 756. 778. 807. 1247.
      1051. 1352. 732. 1650. 726. 936. 1072. 1308. 995. 1162. 876. 1427.
      994. 1572. 1250. 1685. 1053. 2541. 896. 2925. 1266. 2040. 1812.
      2458. 1216. 2639. 1346. 4363. 1018. 598. 1030. 643. 1209. 788.
      1037. 1066. 1675. 949. 1845. 897. 1322. 1069. 1438. 975. 785. 584.
      913. 566. 622. 497. 733. 674. 1948. 1063. 2579. 858. 1014. 890.
      1119. 850. 1273. 810. 1400. 1207. 2782. 1278. 1688. 1617. 1142.
      889. 1611. 1158. 2701. 1291. 3434. 1565. 1121. 836. 811. 662.
      1283. 1182. 1049. 1139. 1320. 999. 1267. 753. 1447. 1652. 1506.
      1865.</_>
    <_>
      42907. 1394. 1194. 1009. 763. 921. 476. 564. 817. 1226. 742. 935.
      708. 778. 364. 404. 1150. 2521. 1084. 2207. 1257. 1368. 713. 1119.
      944. 1825. 909. 2016. 766. 772. 462. 585. 1359. 647. 490. 677.
      670. 1523. 487. 1018. 495. 645. 548. 659. 592. 775. 493. 614. 522.
      941. 649. 850. 940. 1574. 733. 1623. 530. 730. 612. 886. 571. 729.
      610. 989. 4717. 981. 2996. 770. 2082. 979. 1513. 784. 3649. 1218.
      3806. 732. 1972. 998. 1508. 428. 1141. 1156. 959. 621. 993. 500.
      894. 498. 1104. 1002. 1337. 690. 710. 358. 687. 523. 1038. 693.
      713. 521. 1860. 1167. 1415. 725. 1041. 691. 943. 538. 1406. 859.
      1418. 644. 621. 499. 551. 403. 1160. 731. 958. 542. 526. 484. 568.
      439. 652. 834. 716. 840. 666. 517. 1472. 544. 662. 713. 575. 597.
      450. 801. 575. 857. 423. 634. 367. 543. 595. 1072. 684. 1019. 567.
      781. 488. 1005. 702. 1478. 1209. 1483. 420. 734. 464. 945. 459.
      588. 505. 977. 813. 1479. 817. 1436. 381. 839. 657. 1098. 790.
      1403. 784. 1592. 504. 1235. 1078. 1617. 1002. 3543. 1056. 3990.
      776. 1530. 1510. 2320. 1056. 3749. 1412. 5786. 909. 499. 777. 360.
      1031. 554. 841. 650. 1734. 721. 1532. 689. 1064. 726. 1105. 634.
      607. 341. 622. 425. 534. 376. 565. 471. 1685. 937. 2132. 710. 628.
      524. 785. 672. 911. 520. 1148. 833. 2978. 1305. 1920. 1416. 1293.
      723. 1797. 1080. 2499. 1280. 3621. 1579. 674. 439. 703. 489. 1332.
      1238. 1037. 1325. 859. 632. 1119. 740. 1177. 1798. 1550. 1938.</_>
    <_>
      3214. 1765. 1272. 1150. 978. 1214. 615. 790. 1133. 1367. 989. 977.
      899. 1027. 491. 564. 1546. 3033. 1323. 2485. 1504. 1709. 984.
      1265. 880. 1905. 1095. 2047. 888. 1080. 711. 872. 839. 902. 705.
      853. 740. 1405. 614. 1459. 617. 1043. 767. 1001. 757. 928. 766.
      942. 676. 1209. 735. 1074. 1068. 1664. 833. 1923. 519. 1002. 849.
      1266. 732. 953. 879. 1472. 4735. 1091. 2955. 748. 2075. 897. 1583.
      789. 3734. 1422. 4229. 969. 2100. 1122. 1813. 645. 1274. 976.
      1212. 764. 911. 563. 1011. 641. 1295. 1101. 1849. 868. 825. 616.
      992. 589. 1489. 1137. 927. 664. 2013. 1423. 1201. 1085. 1178. 975.
      1101. 730. 1700. 999. 1334. 742. 956. 821. 632. 480. 1204. 869.
      1014. 712. 762. 738. 829. 545. 848. 657. 894. 602. 921. 893. 1096.
      841. 897. 971. 550. 960. 613. 958. 716. 904. 591. 749. 426. 621.
      778. 1481. 824. 1223. 795. 1085. 623. 1130. 950. 1595. 1444. 1678.
      659. 885. 659. 1103. 627. 720. 729. 1016. 904. 1409. 673. 1796.
      558. 852. 829. 1184. 898. 1302. 884. 1653. 800. 1445. 1151. 1872.
      1192. 3175. 1019. 3514. 1005. 1924. 1605. 2764. 1241. 3372. 1442.
      5987. 994. 526. 1011. 633. 1179. 727. 1027. 928. 1677. 868. 1892.
      898. 1300. 881. 1380. 879. 729. 468. 852. 498. 601. 443. 650. 591.
      2042. 1020. 2443. 861. 813. 662. 879. 662. 1198. 786. 1288. 1130.
      3080. 1277. 1922. 1682. 1104. 817. 1566. 1279. 2871. 1315. 4040.
      1746. 1038. 713. 838. 536. 1408. 1305. 1004. 1243. 1250. 844.
      1275. 813. 1454. 1785. 1695. 2104.</_>
    <_>
      3312. 1738. 894. 915. 951. 1178. 466. 733. 747. 1409. 629. 1051.
      619. 908. 320. 533. 1535. 3811. 1154. 2575. 1707. 1833. 902. 1304.
      941. 2247. 1050. 2709. 993. 977. 621. 916. 872. 912. 466. 748.
      752. 1627. 440. 1400. 527. 858. 632. 1005. 527. 870. 523. 980.
      730. 1252. 692. 890. 1011. 1737. 871. 1813. 553. 1133. 821. 1335.
      716. 969. 943. 1514. 5234. 888. 2679. 574. 2249. 881. 1423. 666.
      3983. 1322. 4334. 816. 1859. 834. 1771. 585. 1122. 748. 959. 511.
      856. 413. 815. 443. 1215. 877. 1775. 802. 574. 394. 875. 491.
      1708. 1010. 734. 512. 2450. 1554. 1282. 1007. 1441. 1081. 1201.
      837. 1751. 963. 1545. 825. 1027. 607. 611. 322. 1289. 656. 896.
      546. 824. 739. 960. 519. 690. 571. 891. 662. 886. 854. 1096. 634.
      846. 1084. 618. 881. 396. 904. 492. 846. 400. 698. 405. 638. 788.
      1266. 744. 1263. 791. 1164. 645. 1141. 840. 1470. 1360. 1895. 567.
      797. 686. 1371. 605. 779. 551. 985. 875. 1792. 739. 1847. 398.
      918. 714. 1295. 680. 1264. 694. 1787. 778. 1384. 1079. 1763. 1219.
      3603. 1141. 3788. 1042. 1918. 1559. 3027. 1116. 3253. 1510. 6619.
      1101. 487. 867. 485. 1588. 744. 1194. 873. 1586. 778. 2074. 846.
      1208. 744. 1689. 882. 657. 331. 712. 344. 677. 412. 749. 513.
      1743. 676. 2569. 769. 640. 480. 1167. 693. 1309. 757. 1324. 983.
      3922. 1718. 2522. 1996. 1242. 907. 1958. 1472. 3149. 1520. 4853.
      1949. 906. 511. 787. 472. 1443. 1274. 1272. 1252. 1233. 757. 1542.
      823. 1471. 1760. 1976. 2198.</_>
    <_>
      32800. 1638. 1286. 1124. 965. 831. 484. 587. 886. 1605. 980. 1324.
      960. 813. 476. 483. 1338. 2855. 1490. 2481. 2453. 2043. 827. 1289.
      1141. 2379. 959. 2644. 1550. 1276. 518. 765. 1088. 689. 536. 546.
      533. 1141. 564. 873. 522. 592. 501. 689. 598. 484. 532. 576. 695.
      1598. 658. 926. 1006. 1642. 633. 1942. 580. 1053. 519. 1068. 718.
      766. 535. 1248. 5551. 1097. 2959. 1016. 2343. 921. 2003. 1030.
      3481. 1112. 4423. 1043. 2118. 865. 1807. 481. 1094. 854. 1339.
      998. 1139. 659. 1067. 667. 1009. 806. 1377. 956. 799. 464. 702.
      690. 1144. 492. 713. 469. 1702. 759. 1853. 648. 1051. 543. 1139.
      690. 1557. 458. 2058. 644. 681. 657. 602. 529. 1254. 577. 1130.
      491. 485. 528. 600. 602. 706. 1358. 648. 792. 849. 620. 669. 769.
      765. 600. 504. 648. 536. 1243. 623. 1209. 538. 556. 497. 570. 762.
      1668. 673. 1492. 587. 901. 362. 970. 792. 1865. 923. 1900. 462.
      758. 370. 1157. 529. 542. 397. 870. 725. 951. 845. 912. 484. 698.
      496. 1395. 788. 687. 1081. 848. 577. 1439. 1207. 1354. 738. 2757.
      572. 1697. 689. 1493. 746. 1757. 697. 1837. 692. 2493. 1040. 508.
      854. 622. 1199. 450. 996. 663. 1725. 660. 1912. 971. 1113. 538.
      1661. 716. 604. 486. 466. 614. 469. 480. 429. 591. 1384. 948.
      1392. 637. 534. 582. 630. 1429. 816. 412. 1670. 1360. 4428. 725.
      3441. 1047. 1558. 742. 2962. 2249. 4445. 892. 6634. 1211. 458.
      441. 622. 594. 983. 551. 848. 597. 575. 434. 858. 603. 1022. 960.
      1206. 991.</_>
    <_>
      63740. 1407. 1304. 1070. 672. 714. 419. 600. 713. 1377. 808. 1012.
      700. 575. 350. 451. 1118. 2644. 1231. 2096. 1686. 1392. 660. 1056.
      1037. 1906. 912. 2002. 980. 934. 436. 673. 1095. 760. 551. 562.
      552. 1022. 617. 835. 538. 560. 487. 564. 502. 439. 503. 581. 720.
      1543. 608. 906. 875. 1437. 577. 1785. 633. 1002. 490. 850. 572.
      719. 549. 1071. 4366. 974. 2604. 846. 1832. 1012. 1632. 979. 2830.
      1014. 3424. 828. 1825. 962. 1517. 478. 1034. 756. 926. 935. 1174.
      572. 1075. 534. 986. 761. 1229. 815. 737. 424. 665. 669. 1068.
      458. 666. 405. 1442. 727. 1526. 679. 899. 424. 942. 508. 1465.
      498. 1948. 689. 674. 558. 539. 423. 1059. 539. 1254. 472. 533.
      485. 547. 523. 602. 1335. 773. 807. 829. 605. 680. 658. 664. 572.
      663. 708. 519. 1137. 553. 1006. 513. 573. 477. 638. 634. 1383.
      610. 1265. 379. 992. 390. 998. 693. 1816. 870. 1565. 409. 802.
      357. 1066. 507. 512. 335. 762. 742. 1068. 884. 948. 478. 723. 444.
      1174. 834. 785. 958. 848. 584. 1495. 1221. 1381. 611. 2535. 602.
      1890. 623. 1470. 796. 1541. 584. 1682. 621. 2214. 920. 479. 701.
      537. 945. 407. 798. 670. 1663. 665. 1660. 887. 1050. 512. 1366.
      715. 595. 456. 433. 460. 451. 473. 476. 549. 1394. 868. 1508. 538.
      527. 428. 574. 1206. 698. 344. 1066. 815. 3156. 637. 2682. 875.
      1346. 617. 2291. 1627. 3585. 955. 5323. 1241. 431. 376. 533. 504.
      777. 479. 993. 522. 545. 423. 842. 523. 896. 908. 1353. 988.</_>
    <_>
      64664. 869. 1114. 792. 610. 810. 457. 526. 479. 627. 617. 709.
      574. 530. 340. 414. 701. 1820. 763. 1536. 945. 1133. 465. 946.
      753. 1458. 648. 2071. 891. 968. 435. 971. 1246. 546. 576. 600.
      468. 1347. 528. 1026. 477. 500. 484. 547. 500. 527. 514. 533. 544.
      1158. 620. 947. 716. 1279. 522. 1786. 571. 951. 544. 1040. 572.
      761. 582. 1126. 4805. 767. 2854. 674. 2780. 1147. 2141. 871. 4400.
      767. 4320. 491. 2442. 863. 1727. 429. 778. 810. 942. 630. 680.
      504. 711. 567. 965. 801. 1527. 636. 671. 455. 676. 773. 930. 465.
      752. 404. 1299. 1089. 1479. 800. 904. 487. 886. 438. 1452. 764.
      1602. 650. 515. 508. 536. 380. 819. 626. 1112. 636. 513. 504. 621.
      656. 669. 1008. 774. 825. 703. 673. 1115. 698. 786. 824. 596. 677.
      459. 901. 510. 784. 413. 546. 381. 584. 522. 1112. 604. 1059. 465.
      913. 397. 1046. 536. 1539. 864. 1342. 403. 809. 318. 1163. 693.
      779. 587. 934. 866. 1438. 632. 1284. 490. 734. 627. 1133. 897.
      1070. 781. 1038. 622. 1531. 1661. 1521. 819. 3005. 736. 2434. 631.
      1474. 1121. 1726. 864. 2523. 872. 3148. 881. 489. 738. 416. 1036.
      542. 869. 569. 1673. 524. 1781. 482. 1112. 728. 1246. 556. 526.
      385. 494. 391. 392. 391. 420. 503. 1398. 968. 1867. 516. 472. 596.
      630. 699. 798. 461. 1043. 889. 2405. 850. 1753. 912. 1357. 619.
      1616. 1144. 2969. 1176. 3918. 1295. 527. 494. 577. 566. 802. 903.
      712. 828. 753. 602. 992. 701. 1239. 1361. 1351. 1403.</_>
    <_>
      2191. 1879. 1784. 1370. 1440. 1002. 630. 580. 1166. 1584. 1127.
      1150. 1065. 1093. 505. 412. 1735. 3035. 1658. 2386. 1764. 1930.
      878. 1442. 925. 2016. 1215. 2046. 1089. 1027. 601. 889. 855. 565.
      780. 591. 625. 1288. 654. 1255. 609. 885. 881. 950. 829. 876. 826.
      770. 683. 1092. 832. 1011. 1101. 1366. 930. 1670. 447. 815. 657.
      1266. 798. 830. 998. 1492. 4087. 876. 2708. 952. 2970. 1004. 2123.
      862. 2815. 1418. 3483. 1139. 2936. 1190. 2227. 741. 1172. 982.
      1574. 1024. 922. 668. 1038. 763. 1036. 1015. 1956. 999. 874. 603.
      1206. 788. 1552. 935. 1127. 607. 1991. 1391. 1387. 1056. 1195.
      1171. 1341. 701. 1894. 1020. 1732. 676. 982. 807. 905. 587. 1285.
      757. 1230. 803. 550. 751. 832. 480. 715. 773. 1115. 697. 1002.
      914. 1145. 872. 1033. 699. 529. 659. 625. 1120. 725. 1014. 743.
      920. 418. 568. 777. 1358. 842. 1333. 737. 1172. 473. 1052. 840.
      1394. 1087. 1506. 608. 894. 479. 880. 691. 685. 893. 1202. 721.
      1213. 807. 1364. 651. 1016. 1135. 1348. 1059. 1163. 962. 1028.
      786. 1736. 1263. 1671. 1037. 3862. 943. 2613. 970. 1565. 1336.
      2112. 1213. 2429. 1121. 2968. 1222. 496. 1202. 807. 1714. 654.
      1252. 1182. 1749. 823. 1978. 897. 1689. 972. 1522. 809. 673. 494.
      666. 616. 549. 482. 582. 701. 2097. 745. 2020. 796. 988. 795. 839.
      814. 1768. 813. 1617. 1380. 3417. 1350. 2052. 1921. 1188. 801.
      1955. 1357. 3138. 1443. 4066. 1345. 915. 674. 888. 730. 1411.
      1090. 1096. 1149. 1119. 856. 1303. 685. 1892. 1676. 1878. 1384.</_>
    <_>
      20450. 1261. 1073. 746. 1022. 1022. 526. 525. 784. 1190. 663. 706.
      877. 954. 390. 340. 1011. 2625. 1096. 2205. 1311. 2098. 732. 1837.
      774. 1750. 815. 2050. 810. 1143. 551. 1019. 1246. 595. 561. 756.
      556. 1028. 489. 1102. 516. 903. 744. 929. 718. 782. 655. 792. 626.
      1437. 752. 1213. 999. 1628. 879. 2120. 441. 1154. 653. 1347. 708.
      887. 888. 1533. 4258. 776. 2435. 708. 2558. 809. 1744. 642. 3437.
      1181. 3812. 746. 2638. 1062. 1836. 480. 987. 980. 1328. 814. 878.
      450. 1044. 610. 916. 1028. 1745. 862. 756. 462. 866. 575. 1398.
      972. 866. 707. 1897. 1186. 1235. 999. 1050. 958. 1134. 576. 1638.
      840. 1494. 615. 937. 769. 712. 448. 1308. 795. 1211. 678. 532.
      603. 672. 441. 782. 992. 965. 642. 854. 880. 1177. 810. 918. 817.
      546. 651. 578. 1079. 696. 983. 652. 896. 377. 490. 748. 1867. 783.
      1727. 565. 1472. 474. 1403. 676. 1795. 985. 1791. 509. 1088. 503.
      1158. 601. 673. 653. 1222. 823. 1128. 669. 1469. 501. 967. 874.
      1437. 957. 1169. 893. 1134. 759. 2075. 1236. 2139. 1057. 4440.
      1051. 3484. 1052. 2230. 1405. 2745. 1332. 3375. 1160. 3506. 973.
      471. 1059. 594. 1264. 567. 1188. 1077. 1737. 731. 1973. 813. 1394.
      919. 1496. 681. 535. 398. 749. 471. 478. 390. 582. 671. 1237. 970.
      2084. 703. 701. 657. 829. 655. 1086. 553. 1288. 1130. 2978. 1025.
      1810. 1945. 1107. 674. 1639. 1152. 2869. 1250. 4118. 1356. 899.
      583. 754. 579. 1226. 1032. 1098. 1129. 800. 684. 1031. 577. 1468.
      1558. 1696. 1427.</_>
    <_>
      17042. 1213. 1103. 782. 1095. 997. 514. 530. 784. 1156. 652. 770.
      953. 951. 392. 386. 1021. 2722. 1096. 2230. 1330. 2022. 779. 1844.
      821. 1770. 782. 2152. 929. 1184. 560. 998. 1227. 596. 615. 767.
      560. 985. 478. 1132. 497. 806. 782. 932. 762. 841. 714. 766. 594.
      1551. 767. 1280. 1014. 1592. 846. 2084. 411. 1106. 693. 1354. 706.
      1024. 961. 1580. 4140. 799. 2394. 689. 2595. 883. 1752. 640. 3518.
      1188. 3891. 843. 2717. 1068. 1881. 456. 975. 997. 1324. 790. 969.
      436. 1050. 641. 979. 1007. 1677. 851. 783. 459. 834. 624. 1423.
      897. 826. 705. 1998. 1237. 1380. 1025. 1124. 936. 1039. 616. 1648.
      869. 1485. 698. 944. 771. 693. 482. 1251. 785. 1225. 713. 553.
      659. 645. 435. 732. 1013. 938. 650. 908. 874. 1177. 825. 903. 859.
      598. 675. 557. 1044. 698. 878. 687. 862. 367. 487. 726. 1825. 837.
      1735. 619. 1524. 442. 1488. 694. 1831. 1058. 1749. 503. 1138. 472.
      1259. 567. 709. 731. 1328. 824. 1102. 708. 1558. 482. 910. 943.
      1436. 1003. 1119. 925. 1121. 729. 2180. 1274. 2180. 1068. 4446.
      930. 3522. 1058. 2276. 1486. 2833. 1272. 3481. 1172. 3551. 935.
      431. 1027. 577. 1230. 569. 1089. 997. 1724. 790. 2020. 792. 1381.
      1001. 1517. 688. 516. 430. 755. 455. 484. 393. 612. 629. 1258.
      995. 2214. 697. 777. 746. 842. 676. 1169. 566. 1339. 1221. 2871.
      1134. 1848. 1902. 1124. 736. 1756. 1133. 2816. 1226. 4063. 1371.
      820. 622. 765. 578. 1242. 1060. 1075. 1099. 882. 712. 1021. 605.
      1487. 1575. 1687. 1397.</_>
    <_>
      10228. 1930. 1435. 1305. 945. 1410. 552. 899. 924. 1907. 944.
      1208. 790. 926. 372. 468. 1435. 4735. 1605. 4130. 1331. 2150. 882.
      2016. 843. 2610. 1146. 3006. 889. 1043. 517. 852. 703. 809. 620.
      832. 518. 1351. 733. 1598. 400. 879. 668. 959. 539. 605. 591. 740.
      655. 1906. 790. 1272. 926. 1939. 900. 2300. 429. 1014. 775. 1384.
      520. 750. 820. 1467. 4800. 1017. 3254. 743. 2271. 1115. 1933. 924.
      2959. 1626. 4587. 982. 2344. 1244. 1789. 593. 1124. 801. 1512.
      791. 1043. 483. 1345. 610. 1095. 1157. 2110. 1016. 736. 436. 836.
      464. 1327. 836. 834. 568. 1959. 1467. 1628. 1060. 1046. 958. 1069.
      615. 1651. 920. 1576. 650. 1015. 702. 618. 350. 1423. 751. 1177.
      639. 634. 731. 676. 452. 664. 1351. 782. 562. 869. 869. 686. 874.
      683. 737. 421. 684. 598. 1241. 657. 1033. 523. 611. 319. 459. 815.
      2349. 945. 1998. 581. 1340. 446. 1400. 1008. 2345. 1359. 2271.
      474. 939. 443. 1080. 385. 544. 493. 978. 638. 859. 720. 1374. 353.
      726. 760. 1238. 639. 688. 1025. 1022. 600. 1933. 1044. 1946. 763.
      3272. 683. 2812. 1099. 2236. 1709. 2790. 840. 2210. 951. 3595.
      1007. 416. 1027. 494. 1297. 587. 1037. 973. 1947. 1038. 2193. 896.
      1417. 885. 1576. 711. 593. 339. 714. 345. 468. 350. 496. 618.
      2047. 943. 2433. 669. 754. 725. 819. 1313. 953. 466. 961. 758.
      3141. 997. 2071. 1664. 1258. 631. 1725. 1012. 3178. 938. 4766.
      1211. 759. 440. 523. 349. 1096. 801. 818. 736. 1006. 646. 1035.
      523. 1335. 1201. 1593. 1244.</_>
    <_>
      29926. 1829. 1528. 1337. 902. 1119. 509. 791. 942. 1546. 997.
      1160. 665. 766. 356. 458. 1347. 4200. 1494. 4130. 1023. 1760. 778.
      1751. 960. 2638. 1012. 2887. 735. 913. 485. 873. 704. 787. 549.
      775. 582. 1463. 740. 1593. 443. 733. 596. 778. 477. 574. 620. 735.
      622. 1781. 739. 1298. 721. 1768. 695. 2222. 459. 1060. 662. 1203.
      418. 762. 693. 1353. 4672. 928. 2964. 854. 2161. 951. 1867. 788.
      2663. 1266. 3876. 826. 2261. 1225. 1639. 565. 1075. 801. 1261.
      827. 953. 530. 1059. 499. 1021. 1021. 1663. 785. 763. 457. 745.
      619. 1083. 698. 723. 452. 1830. 1336. 1602. 1020. 922. 788. 947.
      500. 1523. 797. 1632. 706. 804. 713. 548. 341. 1087. 782. 1029.
      584. 512. 717. 579. 392. 697. 1345. 845. 770. 838. 765. 593. 811.
      677. 692. 420. 691. 660. 939. 646. 825. 469. 588. 411. 475. 744.
      2263. 794. 1882. 436. 1239. 421. 1247. 812. 2168. 1276. 1894. 426.
      893. 455. 1005. 487. 454. 436. 889. 646. 959. 730. 1178. 399. 625.
      647. 878. 618. 704. 1069. 1042. 617. 2099. 845. 2047. 602. 3216.
      656. 2735. 1020. 2155. 1426. 2518. 742. 2298. 919. 3271. 1032.
      452. 895. 482. 1075. 491. 958. 759. 1941. 848. 1952. 647. 1305.
      787. 1634. 607. 601. 453. 600. 378. 443. 437. 426. 584. 1975. 967.
      2414. 603. 669. 722. 876. 1290. 906. 361. 911. 603. 2865. 924.
      2086. 1571. 1241. 588. 1545. 774. 3093. 1006. 4615. 1267. 702.
      442. 456. 303. 952. 764. 814. 722. 921. 659. 1007. 465. 1238.
      1318. 1535. 1550.</_>
    <_>
      3268. 1444. 1449. 1254. 1260. 928. 578. 650. 1088. 1682. 1070.
      1045. 1315. 1180. 520. 485. 1611. 3319. 1553. 3178. 2091. 2127.
      1240. 1656. 767. 2204. 1013. 2276. 1211. 1281. 651. 818. 800. 667.
      727. 918. 713. 1273. 637. 1413. 775. 903. 981. 1006. 1166. 913.
      959. 890. 711. 1181. 812. 1107. 1372. 1690. 1127. 1983. 442. 876.
      672. 1055. 977. 1034. 1089. 1285. 3793. 902. 2963. 1162. 2062.
      933. 1527. 920. 2846. 1184. 3680. 963. 2166. 1156. 1664. 722.
      1133. 1127. 1767. 1407. 1071. 721. 1276. 1090. 944. 1234. 1569.
      1173. 896. 827. 1062. 781. 1052. 772. 830. 857. 1606. 1105. 1099.
      1027. 858. 935. 875. 669. 1296. 925. 1104. 673. 927. 1015. 952.
      863. 1407. 1046. 1535. 1125. 511. 732. 620. 540. 852. 694. 916.
      663. 956. 904. 1156. 1038. 884. 772. 616. 607. 927. 1330. 862.
      1087. 1069. 971. 468. 509. 890. 1728. 886. 1497. 796. 1057. 494.
      963. 975. 1885. 1133. 1771. 760. 1089. 458. 991. 686. 710. 893.
      1303. 863. 1058. 643. 1246. 1041. 1245. 1329. 1596. 1448. 1211.
      948. 1204. 851. 1728. 1323. 1903. 1272. 3536. 954. 2691. 1150.
      2235. 1545. 2283. 1448. 2684. 1134. 3503. 837. 521. 1052. 985.
      1072. 627. 987. 944. 1336. 993. 1585. 1105. 1265. 1090. 1107. 752.
      568. 488. 712. 830. 578. 502. 548. 699. 1422. 1032. 1658. 930.
      837. 898. 733. 676. 1158. 815. 1312. 1838. 2512. 1147. 1781. 1663.
      1113. 1010. 1512. 1563. 2511. 1386. 2593. 1267. 991. 895. 969.
      1067. 1483. 1086. 1169. 1230. 1058. 960. 942. 819. 1552. 1327.
      1415. 1326.</_>
    <_>
      1550. 1741. 1352. 1203. 1187. 1440. 540. 813. 906. 1629. 847.
      1133. 864. 1100. 421. 406. 1288. 2766. 1553. 2311. 1998. 2008.
      1147. 1407. 829. 2107. 1007. 2675. 1081. 1154. 556. 752. 608. 822.
      674. 851. 599. 1401. 500. 1501. 519. 1001. 813. 1021. 691. 891.
      739. 904. 525. 1054. 1054. 1200. 1247. 1879. 1107. 2084. 334. 889.
      714. 1255. 704. 915. 973. 1412. 4734. 996. 3081. 809. 2256. 1096.
      1625. 755. 3246. 1600. 3843. 1020. 2399. 1151. 1822. 617. 1087.
      776. 1641. 753. 1137. 585. 1245. 646. 1132. 989. 1727. 841. 847.
      646. 930. 535. 1369. 981. 1005. 636. 1986. 1420. 1233. 1049. 1108.
      1178. 1183. 704. 1837. 1138. 1556. 775. 982. 848. 789. 376. 1518.
      940. 1161. 759. 742. 836. 732. 541. 919. 732. 916. 601. 729. 981.
      1048. 772. 889. 999. 574. 782. 584. 1328. 659. 872. 677. 867. 363.
      483. 720. 1222. 1020. 1415. 716. 1250. 484. 1159. 896. 1559. 1567.
      1967. 573. 843. 480. 896. 525. 660. 834. 1337. 809. 1272. 607.
      1579. 465. 1304. 1179. 1556. 815. 1011. 716. 1156. 715. 1305.
      1611. 1757. 1111. 2704. 1030. 2723. 946. 1927. 1938. 2630. 1134.
      2158. 1210. 2997. 979. 441. 1037. 525. 1368. 694. 1224. 899. 1519.
      1086. 1995. 936. 1665. 1043. 1508. 899. 619. 387. 836. 421. 595.
      421. 657. 505. 1975. 1084. 2395. 838. 875. 841. 1049. 685. 1316.
      723. 1473. 1181. 3716. 1426. 2952. 2056. 1280. 959. 2376. 1373.
      3557. 1318. 4964. 1462. 1025. 669. 769. 498. 1686. 1174. 1236.
      1021. 1220. 976. 1377. 784. 1553. 1287. 1692. 1236.</_>
    <_>
      1539. 1716. 1406. 1232. 1127. 1355. 556. 833. 914. 1541. 771.
      1141. 949. 1092. 407. 442. 1321. 2628. 1557. 2236. 1993. 1959.
      1109. 1423. 832. 2027. 998. 2610. 1126. 1194. 527. 762. 651. 823.
      694. 890. 546. 1441. 546. 1426. 543. 975. 890. 1059. 632. 947.
      763. 881. 583. 1081. 1039. 1143. 1269. 1794. 1077. 2167. 348. 911.
      793. 1237. 728. 905. 998. 1473. 4777. 984. 2936. 881. 2297. 1071.
      1666. 729. 3140. 1511. 3762. 1039. 2423. 1135. 1821. 584. 1001.
      798. 1548. 792. 1132. 603. 1293. 656. 1089. 1066. 1818. 829. 863.
      670. 952. 584. 1387. 960. 912. 636. 1855. 1373. 1235. 1062. 1091.
      1226. 1185. 724. 1802. 1170. 1540. 780. 1033. 877. 816. 443. 1417.
      931. 1222. 721. 676. 827. 722. 500. 937. 692. 952. 627. 753. 993.
      1081. 806. 883. 924. 591. 781. 598. 1396. 638. 873. 679. 874. 377.
      485. 764. 1279. 1021. 1372. 735. 1232. 520. 1167. 868. 1648. 1498.
      1929. 550. 909. 481. 990. 557. 660. 818. 1377. 764. 1193. 568.
      1511. 519. 1213. 1198. 1539. 863. 1105. 731. 1173. 743. 1376.
      1561. 1650. 1191. 2722. 975. 2690. 1019. 1803. 1965. 2646. 1166.
      2048. 1275. 3007. 951. 418. 1127. 560. 1405. 747. 1129. 926. 1508.
      1072. 1910. 852. 1597. 1051. 1495. 871. 679. 381. 789. 377. 575.
      474. 628. 540. 1883. 1077. 2370. 824. 844. 910. 1073. 726. 1416.
      756. 1446. 1315. 3663. 1315. 2794. 2045. 1350. 908. 2346. 1437.
      3657. 1380. 5022. 1526. 1070. 750. 802. 531. 1624. 1212. 1181.
      1127. 1249. 994. 1295. 774. 1702. 1295. 1580. 1191.</_>
    <_>
      2560. 1719. 1231. 1278. 1304. 1325. 701. 791. 1036. 2084. 859.
      1291. 1096. 1093. 492. 448. 1499. 2899. 1933. 2646. 2070. 1957.
      1237. 1529. 835. 2100. 1118. 2670. 1000. 1042. 511. 663. 425. 586.
      631. 869. 633. 1412. 650. 1301. 632. 914. 894. 989. 776. 768. 799.
      714. 557. 1052. 938. 1099. 1170. 1715. 1016. 1821. 458. 646. 761.
      965. 630. 757. 874. 952. 4797. 993. 2989. 943. 2891. 1378. 1811.
      884. 3607. 1798. 3910. 1116. 2259. 1147. 1851. 517. 1145. 793.
      1834. 1043. 1129. 737. 1403. 750. 1169. 1060. 1873. 839. 720. 562.
      825. 521. 1292. 880. 928. 798. 1985. 1469. 1385. 1292. 1165. 1067.
      1126. 766. 1616. 1033. 1467. 745. 1011. 838. 799. 527. 1541. 937.
      1542. 759. 613. 863. 701. 440. 915. 1011. 859. 621. 593. 738. 683.
      823. 779. 826. 492. 575. 715. 1585. 695. 1030. 724. 811. 413. 411.
      631. 1182. 1024. 1323. 632. 1002. 534. 939. 868. 1741. 1456. 1802.
      533. 840. 415. 775. 523. 550. 832. 1105. 812. 1273. 716. 1345.
      628. 1220. 1192. 1481. 942. 1168. 934. 1136. 613. 1109. 1573.
      1704. 1151. 2858. 1013. 2369. 922. 1452. 1818. 1970. 1055. 2041.
      1144. 2565. 982. 506. 1088. 656. 1378. 634. 1247. 1083. 1947.
      1044. 2286. 1072. 1589. 963. 1684. 796. 607. 460. 841. 480. 553.
      564. 701. 625. 2002. 1094. 2525. 811. 868. 839. 923. 774. 1032.
      573. 1224. 1139. 3148. 1325. 2391. 2011. 1236. 894. 2056. 1384.
      3328. 1560. 5190. 1620. 776. 642. 785. 545. 1512. 1105. 1451.
      1057. 1262. 939. 1429. 776. 2010. 1581. 1820. 1267.</_>
    <_>
      13720. 1158. 991. 881. 859. 1013. 386. 592. 714. 1170. 676. 980.
      910. 809. 285. 353. 1010. 2373. 1100. 2143. 1613. 1512. 802. 1255.
      777. 1702. 941. 2043. 1227. 993. 553. 608. 547. 635. 468. 651.
      573. 1654. 467. 1460. 428. 735. 460. 748. 562. 751. 423. 643. 487.
      1080. 744. 1129. 1349. 1645. 1064. 1907. 473. 719. 646. 981. 716.
      833. 687. 1056. 6142. 860. 4337. 785. 4085. 1350. 2744. 854. 6232.
      1244. 6402. 1062. 4034. 1012. 2391. 532. 876. 631. 1326. 706.
      1078. 461. 1291. 597. 1167. 679. 1705. 646. 838. 399. 945. 575.
      1242. 671. 936. 529. 2106. 1606. 1604. 930. 1176. 748. 1308. 630.
      1834. 932. 1813. 735. 615. 475. 696. 478. 1366. 613. 1905. 631.
      466. 366. 570. 377. 632. 384. 956. 539. 554. 582. 862. 597. 912.
      700. 297. 484. 481. 1485. 466. 971. 499. 765. 313. 426. 566. 1270.
      725. 1396. 553. 824. 434. 806. 745. 1980. 1277. 1892. 476. 803.
      416. 925. 458. 536. 781. 1173. 713. 1374. 451. 1380. 456. 1361.
      830. 1684. 838. 1256. 540. 1123. 508. 1324. 1541. 1819. 1202.
      3058. 1084. 2864. 729. 1601. 1688. 2602. 1130. 2308. 1100. 3455.
      1068. 469. 922. 571. 1726. 580. 1027. 630. 1959. 931. 2254. 1026.
      1411. 808. 1361. 706. 558. 286. 626. 445. 434. 303. 461. 374.
      2079. 669. 2531. 621. 729. 373. 829. 462. 1355. 521. 1524. 1190.
      3665. 1134. 2310. 1500. 1420. 910. 2854. 1817. 3711. 1626. 5605.
      1631. 556. 467. 765. 715. 1218. 730. 1336. 957. 907. 548. 1341.
      642. 1368. 1128. 1946. 1400.</_>
    <_>
      17759. 1551. 1343. 1128. 899. 1279. 423. 770. 718. 1582. 743.
      1223. 686. 753. 276. 439. 1153. 2270. 1487. 1984. 1963. 1782. 728.
      1323. 824. 1988. 1008. 2285. 1070. 1226. 409. 859. 489. 869. 433.
      796. 475. 2073. 444. 1988. 362. 783. 447. 811. 375. 620. 376. 700.
      577. 1375. 827. 1262. 1065. 1963. 820. 1979. 433. 957. 619. 1213.
      459. 844. 630. 1315. 5709. 1085. 3536. 836. 3501. 1379. 2652.
      1083. 4285. 1672. 4860. 1105. 2973. 1072. 1938. 494. 1112. 473.
      1276. 561. 1308. 405. 1228. 395. 1383. 718. 1933. 580. 903. 362.
      694. 396. 1372. 728. 802. 487. 2525. 1791. 2061. 1106. 1328. 846.
      1265. 607. 1974. 832. 2334. 738. 785. 452. 574. 212. 1388. 576.
      1415. 395. 533. 587. 525. 299. 590. 899. 841. 706. 682. 831. 501.
      731. 588. 760. 335. 644. 427. 1439. 471. 1120. 383. 535. 302. 458.
      744. 1528. 1091. 1465. 541. 1120. 416. 1051. 856. 2085. 1604.
      2039. 386. 736. 462. 1047. 339. 606. 541. 900. 552. 1192. 514.
      1301. 300. 857. 544. 1167. 475. 809. 736. 1005. 552. 1821. 1439.
      2175. 822. 3265. 720. 2738. 735. 1760. 1482. 2534. 751. 1719.
      1048. 2582. 1185. 470. 786. 494. 1248. 463. 1042. 673. 2301. 912.
      2495. 1052. 1546. 626. 2046. 745. 797. 288. 664. 268. 481. 329.
      442. 376. 2792. 960. 3234. 594. 692. 493. 989. 1014. 884. 414.
      1302. 688. 3247. 968. 2971. 1293. 1651. 700. 3048. 1304. 3646.
      995. 6240. 1385. 656. 367. 520. 282. 1064. 612. 979. 620. 990.
      590. 1125. 628. 1099. 896. 1343. 1047.</_>
    <_>
      10887. 1342. 1293. 1212. 936. 1098. 464. 668. 805. 1314. 803.
      1036. 951. 921. 381. 389. 1135. 2322. 1383. 2294. 1536. 1728. 825.
      1411. 817. 1552. 898. 2005. 1307. 1125. 516. 728. 620. 691. 625.
      776. 569. 1847. 459. 1629. 559. 770. 685. 752. 804. 791. 544. 631.
      506. 1104. 943. 1118. 1102. 1754. 1007. 2106. 489. 758. 594. 865.
      843. 804. 742. 1115. 6448. 853. 4285. 884. 3376. 1234. 2135. 975.
      6042. 1333. 5610. 876. 3774. 1136. 2138. 470. 946. 760. 1397.
      1027. 931. 699. 1213. 778. 1076. 797. 1844. 865. 892. 561. 829.
      625. 1070. 664. 813. 537. 1995. 1360. 1259. 890. 899. 711. 894.
      551. 1581. 895. 1509. 635. 622. 691. 732. 642. 1258. 798. 1843.
      870. 397. 454. 549. 483. 745. 547. 746. 715. 778. 743. 889. 826.
      807. 689. 388. 582. 580. 1292. 579. 944. 771. 945. 417. 431. 709.
      1277. 870. 1530. 563. 918. 389. 888. 904. 1868. 1457. 1710. 526.
      835. 380. 800. 611. 615. 792. 1266. 918. 1338. 591. 1287. 641.
      1232. 990. 1571. 1274. 1352. 737. 1087. 595. 1262. 1522. 1734.
      1046. 2887. 1016. 2984. 1011. 1813. 1928. 2441. 1360. 2703. 1175.
      4018. 759. 394. 944. 617. 1047. 494. 798. 717. 1911. 890. 2126.
      873. 1358. 863. 1183. 661. 435. 437. 595. 614. 413. 392. 433. 546.
      1801. 801. 2453. 683. 767. 629. 642. 535. 973. 525. 1424. 1431.
      3013. 1086. 1848. 1377. 1262. 892. 2151. 1644. 3779. 1516. 4994.
      1622. 623. 609. 786. 799. 1232. 984. 1106. 1091. 827. 700. 1305.
      693. 1534. 1444. 1641. 1548.</_>
    <_>
      17904. 1367. 1186. 1203. 987. 1030. 444. 652. 794. 1350. 804. 933.
      952. 919. 428. 520. 1155. 2582. 1305. 2280. 1461. 1607. 818. 1371.
      999. 1546. 892. 2002. 1372. 1107. 622. 924. 1342. 651. 501. 741.
      646. 1279. 541. 1296. 648. 824. 627. 807. 641. 667. 573. 589. 579.
      1225. 814. 1056. 1147. 1746. 824. 2045. 640. 890. 611. 1096. 679.
      847. 780. 1254. 5288. 974. 3619. 897. 2983. 1005. 2069. 928. 4531.
      1228. 4796. 861. 3003. 986. 2374. 615. 1086. 1043. 1317. 875. 938.
      512. 1030. 678. 1070. 1037. 1506. 938. 864. 509. 886. 826. 1147.
      742. 836. 647. 1989. 1203. 1804. 1014. 959. 739. 1056. 698. 1637.
      766. 1798. 683. 732. 690. 682. 564. 1175. 733. 1528. 807. 469.
      521. 713. 630. 734. 1050. 902. 829. 815. 705. 1119. 816. 888. 799.
      536. 643. 569. 1186. 586. 996. 605. 849. 472. 583. 698. 1618. 821.
      1389. 607. 965. 501. 994. 972. 2195. 1273. 1904. 473. 895. 473.
      872. 720. 751. 601. 1105. 896. 1375. 728. 1219. 568. 973. 755.
      1434. 927. 1091. 968. 1007. 689. 1546. 1570. 1526. 923. 3029. 935.
      2229. 848. 1671. 1333. 2086. 932. 2468. 951. 2976. 1054. 577. 956.
      620. 1198. 551. 968. 778. 2045. 726. 2072. 761. 1374. 753. 1513.
      716. 714. 474. 686. 553. 544. 401. 495. 556. 1741. 1032. 1877.
      686. 600. 635. 747. 986. 1153. 675. 1455. 1264. 2818. 987. 1815.
      1451. 1339. 803. 2040. 1612. 3809. 1138. 5049. 1395. 670. 543.
      777. 731. 1043. 900. 975. 986. 818. 630. 1083. 781. 1310. 1247.
      1628. 1368.</_>
    <_>
      43543. 1592. 1284. 1109. 741. 915. 414. 551. 668. 1271. 747. 1035.
      829. 694. 301. 377. 1084. 2346. 1310. 2099. 1542. 1461. 764. 1157.
      749. 1493. 849. 2002. 1057. 1065. 427. 748. 813. 555. 473. 568.
      447. 1215. 463. 1313. 493. 643. 404. 626. 496. 526. 433. 558. 510.
      1072. 764. 1070. 1013. 1761. 790. 2003. 443. 732. 470. 878. 564.
      814. 526. 1086. 5368. 999. 3161. 884. 3013. 1191. 2158. 974. 4203.
      1117. 5080. 961. 3285. 955. 2135. 460. 944. 595. 1186. 820. 1156.
      493. 1369. 586. 932. 625. 1310. 678. 809. 395. 565. 500. 894. 502.
      723. 401. 1906. 1018. 1804. 871. 1038. 621. 1070. 554. 1836. 557.
      2131. 578. 499. 477. 533. 408. 1015. 530. 1460. 548. 389. 471.
      402. 380. 592. 1211. 632. 698. 713. 601. 512. 633. 517. 643. 439.
      565. 566. 1361. 507. 1147. 461. 645. 365. 398. 546. 1093. 812.
      1170. 492. 794. 311. 830. 714. 2047. 1212. 1610. 409. 797. 372.
      863. 390. 588. 481. 962. 609. 1155. 680. 1053. 433. 1045. 558.
      1244. 670. 919. 772. 917. 562. 1491. 1562. 1752. 788. 2978. 665.
      2257. 699. 1513. 1174. 2097. 808. 2277. 732. 2841. 887. 425. 736.
      467. 1042. 371. 926. 569. 1900. 701. 1948. 868. 1425. 638. 1535.
      635. 548. 387. 470. 515. 384. 349. 431. 525. 1797. 1112. 2132.
      568. 513. 514. 680. 876. 690. 355. 875. 819. 3465. 779. 2743.
      1165. 1690. 723. 2425. 1291. 4714. 893. 6781. 1246. 504. 438. 487.
      515. 911. 669. 814. 728. 699. 541. 806. 697. 1054. 1079. 1304.
      1207.</_>
    <_>
      1169. 980. 973. 962. 1279. 898. 502. 492. 1034. 1556. 881. 1186.
      1752. 1200. 523. 333. 1006. 2098. 1392. 2557. 2466. 1664. 1172.
      1446. 748. 1865. 753. 1867. 1938. 1106. 579. 674. 408. 438. 534.
      703. 679. 1277. 604. 1127. 615. 810. 791. 941. 1141. 756. 821.
      673. 517. 762. 831. 983. 1524. 1082. 1111. 1490. 385. 626. 584.
      781. 1065. 691. 1011. 998. 4930. 811. 3545. 1115. 3394. 1189.
      2449. 796. 4374. 1375. 4685. 1195. 3357. 1110. 2270. 633. 864.
      766. 1717. 1781. 1390. 861. 1795. 1204. 865. 880. 1652. 1002. 978.
      613. 1023. 662. 1173. 803. 1055. 846. 2241. 1570. 1478. 1152.
      1227. 985. 1395. 747. 1931. 930. 1791. 614. 868. 943. 930. 769.
      1768. 969. 2310. 1160. 492. 630. 644. 420. 853. 606. 983. 501.
      727. 756. 749. 849. 1004. 665. 404. 573. 844. 2127. 756. 1331.
      1130. 995. 424. 431. 584. 1118. 759. 1188. 645. 814. 374. 639.
      648. 1779. 930. 1289. 661. 828. 383. 567. 640. 524. 1146. 1198.
      818. 1125. 595. 1180. 855. 1317. 1381. 1629. 1478. 1074. 824. 967.
      586. 1060. 1425. 1316. 908. 2028. 849. 1628. 886. 1327. 1427.
      1601. 1295. 1631. 1158. 2385. 1017. 428. 1226. 927. 1445. 640.
      1256. 1011. 1908. 1108. 2465. 1469. 1659. 996. 1628. 743. 537.
      423. 846. 740. 519. 405. 519. 612. 1687. 943. 2377. 906. 772. 690.
      740. 604. 1460. 636. 1848. 1880. 3233. 1082. 2475. 1757. 1732.
      1047. 2772. 2079. 4503. 1582. 5860. 1505. 810. 644. 825. 844.
      1337. 917. 1177. 1076. 1115. 800. 1235. 702. 1696. 1199. 1754.
      1265.</_>
    <_>
      1557. 1182. 1705. 1233. 958. 981. 634. 831. 845. 1163. 921. 1123.
      1193. 900. 490. 482. 743. 1486. 1388. 1644. 1384. 1266. 793. 1178.
      612. 1243. 888. 1504. 1219. 1057. 552. 765. 619. 708. 996. 866.
      619. 1551. 625. 1649. 510. 696. 889. 742. 868. 731. 708. 763. 521.
      955. 1052. 1106. 933. 1825. 900. 1736. 403. 693. 621. 789. 628.
      858. 793. 1261. 6955. 1034. 4557. 1027. 3685. 1317. 3056. 1175.
      4863. 1335. 5186. 1168. 3626. 1483. 2671. 717. 1049. 616. 1525.
      847. 1302. 760. 1621. 927. 1205. 838. 1811. 748. 1142. 795. 1007.
      634. 1576. 818. 1128. 651. 2382. 1429. 1794. 1048. 1432. 922.
      1488. 715. 2324. 909. 2415. 782. 855. 769. 728. 504. 1244. 930.
      1593. 825. 651. 881. 769. 412. 940. 810. 1056. 656. 798. 782. 878.
      938. 764. 765. 497. 669. 795. 1565. 801. 974. 806. 844. 421. 485.
      693. 1122. 1011. 1126. 488. 848. 394. 723. 812. 1718. 1297. 1262.
      479. 923. 409. 830. 629. 677. 1153. 1176. 723. 1375. 665. 1175.
      550. 889. 980. 1114. 896. 995. 676. 825. 768. 1585. 1504. 1783.
      780. 2630. 684. 1952. 941. 1533. 1480. 1724. 956. 1849. 946. 2425.
      1365. 520. 1304. 718. 1509. 652. 1374. 792. 2489. 952. 2383. 1133.
      1779. 960. 2245. 809. 905. 533. 723. 437. 506. 413. 476. 530.
      2641. 1322. 2366. 776. 925. 1003. 879. 909. 1197. 536. 1670. 1088.
      3098. 1064. 2533. 1200. 1721. 803. 3068. 1343. 4445. 1276. 6018.
      1288. 758. 613. 645. 508. 982. 776. 752. 645. 1254. 815. 1164.
      517. 1580. 1410. 1501. 997.</_>
    <_>
      52754. 1432. 1660. 1138. 793. 1015. 554. 767. 823. 1235. 869. 737.
      662. 807. 372. 439. 1053. 2754. 1389. 2659. 1017. 1718. 804. 1700.
      698. 1553. 789. 1795. 537. 894. 406. 796. 1396. 757. 664. 921.
      522. 1076. 666. 1330. 455. 756. 655. 777. 476. 632. 657. 745. 562.
      1674. 754. 1380. 711. 1759. 761. 2108. 382. 1052. 625. 1211. 489.
      840. 725. 1460. 3724. 801. 2936. 825. 1820. 904. 1769. 917. 2755.
      1141. 3553. 774. 2306. 1191. 1840. 513. 914. 865. 1364. 681. 840.
      501. 954. 571. 966. 1042. 1599. 786. 811. 477. 712. 513. 979. 708.
      793. 517. 1526. 1044. 1370. 912. 871. 744. 784. 369. 1673. 710.
      1507. 574. 795. 785. 603. 330. 1084. 730. 975. 573. 471. 586. 455.
      315. 573. 1331. 661. 542. 806. 862. 996. 894. 546. 726. 443. 721.
      524. 1016. 554. 730. 468. 679. 377. 437. 780. 2173. 938. 1863.
      502. 1227. 356. 1200. 969. 2042. 1212. 1694. 411. 1002. 382. 1217.
      369. 599. 413. 1047. 575. 943. 650. 1125. 384. 661. 743. 985. 519.
      673. 832. 802. 646. 2144. 853. 1965. 625. 3638. 612. 2462. 1033.
      2163. 1423. 2101. 746. 2395. 816. 2881. 728. 350. 800. 401. 824.
      457. 753. 788. 1716. 749. 1705. 609. 1268. 746. 1271. 574. 518.
      334. 587. 338. 435. 388. 384. 586. 1635. 1123. 1782. 669. 627.
      706. 710. 1007. 798. 432. 698. 625. 2322. 704. 1844. 1152. 1081.
      461. 1317. 484. 2937. 773. 4035. 964. 648. 445. 495. 272. 800.
      721. 655. 636. 819. 644. 790. 412. 1054. 1096. 1021. 1075.</_>
    <_>
      57225. 1034. 884. 868. 841. 727. 401. 489. 590. 1133. 591. 774.
      756. 777. 357. 423. 783. 2367. 963. 2015. 1261. 1471. 815. 1395.
      736. 1763. 679. 1907. 937. 1069. 450. 783. 1498. 480. 513. 608.
      474. 950. 786. 840. 539. 791. 582. 763. 678. 678. 579. 616. 561.
      1315. 797. 1090. 1093. 1529. 901. 2014. 365. 871. 503. 1032. 645.
      774. 836. 1170. 3638. 583. 2620. 618. 2378. 629. 1537. 604. 3395.
      930. 4265. 689. 2563. 1066. 1725. 447. 817. 954. 998. 715. 927.
      474. 1245. 614. 725. 918. 1219. 724. 649. 459. 683. 470. 993. 554.
      873. 537. 1604. 874. 1447. 649. 908. 743. 933. 567. 1369. 724.
      1418. 598. 652. 703. 644. 470. 1195. 742. 1425. 649. 395. 573.
      429. 458. 585. 859. 714. 565. 636. 751. 1270. 706. 658. 614. 439.
      511. 480. 1024. 485. 854. 635. 874. 378. 507. 637. 1763. 734.
      1546. 565. 1114. 407. 1090. 734. 1717. 911. 1620. 497. 861. 373.
      1021. 453. 606. 574. 1161. 669. 1059. 584. 1074. 491. 1086. 779.
      1449. 862. 956. 686. 952. 640. 1864. 1044. 1775. 1018. 2586. 857.
      2118. 844. 1914. 1253. 2106. 1052. 2028. 1006. 2634. 697. 399.
      701. 515. 937. 406. 884. 598. 1371. 693. 1595. 636. 1313. 967.
      1353. 588. 461. 459. 499. 510. 444. 371. 525. 550. 957. 773. 1172.
      579. 436. 590. 625. 598. 796. 491. 1075. 1013. 2615. 995. 1809.
      1528. 1287. 746. 1516. 1236. 3335. 1184. 4371. 1306. 602. 563.
      647. 572. 1138. 855. 972. 819. 584. 560. 815. 605. 1194. 1121.
      1492. 1302.</_>
    <_>
      15057. 2060. 2161. 1688. 1007. 1106. 746. 966. 1215. 1524. 1306.
      1101. 857. 966. 574. 666. 1441. 3012. 1951. 3100. 1300. 1799. 907.
      1796. 918. 1832. 1192. 2231. 890. 1259. 579. 1099. 708. 842. 801.
      1125. 565. 1259. 655. 1552. 603. 829. 945. 927. 657. 617. 743.
      747. 755. 1639. 912. 1466. 844. 1706. 743. 2030. 567. 1150. 785.
      1191. 652. 1025. 853. 1526. 4095. 1283. 3294. 1085. 2159. 1071.
      1995. 1381. 3101. 1505. 4016. 996. 2412. 1168. 1921. 770. 1272.
      971. 1733. 984. 891. 828. 1154. 920. 1205. 1178. 2036. 906. 943.
      806. 1004. 811. 1092. 742. 811. 633. 1611. 1108. 1365. 1127. 1012.
      793. 908. 547. 1580. 701. 1531. 650. 799. 1005. 666. 520. 1017.
      927. 912. 789. 577. 836. 567. 460. 760. 1279. 748. 803. 1133. 905.
      874. 1157. 735. 836. 535. 689. 929. 1329. 870. 908. 621. 784. 487.
      523. 959. 2137. 1131. 1929. 577. 1290. 452. 1208. 1114. 2367.
      1281. 1803. 539. 1193. 469. 1104. 652. 661. 614. 1286. 603. 904.
      745. 1112. 538. 850. 889. 993. 687. 795. 895. 908. 765. 1991.
      1062. 1777. 733. 3164. 581. 2452. 1085. 2393. 1348. 2199. 872.
      2503. 822. 3264. 1008. 589. 928. 610. 956. 541. 754. 893. 1915.
      927. 1851. 730. 1305. 831. 1446. 673. 684. 588. 659. 546. 432.
      525. 504. 651. 2039. 1171. 2052. 816. 759. 818. 766. 1079. 861.
      473. 894. 769. 2519. 757. 1901. 1132. 1138. 500. 1474. 723. 3134.
      897. 4599. 957. 759. 608. 604. 497. 760. 728. 619. 716. 837. 701.
      837. 602. 1126. 1129. 1178. 1219.</_>
    <_>
      1777. 1360. 1310. 1156. 1127. 1087. 511. 648. 999. 1446. 962.
      1152. 862. 1018. 432. 493. 1273. 2780. 1284. 2840. 2289. 2322.
      893. 1545. 785. 2500. 985. 3129. 1131. 1530. 682. 1080. 845. 675.
      701. 750. 700. 1093. 549. 1105. 636. 992. 843. 1051. 838. 914.
      725. 795. 678. 1118. 813. 1074. 1292. 1619. 993. 1677. 507. 958.
      676. 1241. 939. 1040. 985. 1381. 5404. 918. 3476. 772. 2701. 873.
      1803. 691. 4292. 1223. 4793. 942. 2620. 943. 2009. 567. 1080. 965.
      1227. 899. 863. 518. 1082. 783. 978. 1003. 1450. 1006. 686. 658.
      857. 753. 1155. 783. 904. 637. 1817. 1021. 1413. 897. 1199. 932.
      1233. 786. 1734. 849. 1604. 684. 853. 843. 687. 646. 1309. 861.
      1505. 849. 579. 719. 729. 683. 702. 704. 897. 721. 863. 793. 1087.
      817. 992. 922. 558. 683. 662. 1131. 693. 992. 724. 863. 423. 571.
      778. 1482. 825. 1399. 875. 1124. 460. 982. 886. 1567. 1121. 1669.
      659. 916. 498. 1033. 767. 690. 695. 1105. 1125. 1393. 664. 1280.
      672. 1099. 1049. 1562. 1010. 1138. 801. 1366. 696. 1322. 842.
      1550. 1298. 3495. 1000. 2869. 1047. 1753. 1563. 2384. 1350. 2963.
      1272. 4218. 823. 442. 1058. 554. 1211. 559. 1139. 997. 1381. 842.
      1889. 888. 1206. 882. 1644. 863. 651. 529. 700. 565. 572. 520.
      584. 710. 1437. 1026. 1796. 804. 670. 697. 781. 803. 1263. 717.
      1437. 1453. 3519. 1244. 2372. 1668. 1274. 913. 2143. 1796. 3318.
      1380. 5131. 1616. 871. 819. 822. 900. 1565. 1093. 1201. 1179. 880.
      955. 1126. 1011. 1345. 1417. 1545. 1557.</_>
    <_>
      2184. 1815. 1758. 1416. 1084. 1112. 629. 813. 1028. 1441. 1105.
      994. 889. 962. 505. 448. 1351. 2786. 1600. 2749. 1231. 1620. 840.
      1484. 745. 1928. 1054. 2000. 779. 1006. 499. 762. 694. 802. 704.
      799. 689. 1565. 578. 1503. 577. 827. 943. 811. 888. 838. 970. 905.
      522. 1351. 739. 972. 945. 1990. 984. 2049. 360. 912. 605. 942.
      630. 983. 973. 1614. 5872. 1202. 3647. 1008. 2454. 1132. 1888.
      877. 3739. 1379. 4541. 849. 2683. 1141. 2248. 666. 1190. 983.
      1475. 825. 946. 749. 1104. 704. 1251. 1092. 1820. 934. 749. 716.
      854. 575. 1510. 868. 978. 722. 1879. 1316. 1443. 1015. 1235. 937.
      1156. 610. 1978. 991. 1775. 703. 903. 988. 666. 478. 1142. 978.
      1181. 883. 659. 787. 663. 419. 850. 1089. 881. 796. 875. 869.
      1045. 905. 836. 775. 568. 757. 685. 987. 790. 782. 668. 725. 493.
      556. 786. 1460. 871. 1202. 515. 991. 365. 967. 1093. 1660. 1434.
      1616. 487. 903. 497. 1001. 637. 602. 844. 1114. 906. 1277. 844.
      1436. 638. 861. 1213. 1091. 1133. 1120. 1111. 1278. 729. 1654.
      1068. 1591. 960. 3267. 803. 2971. 1098. 1950. 1706. 2023. 1262.
      2909. 1310. 4190. 1016. 506. 1076. 633. 1068. 622. 1110. 999.
      1787. 845. 2192. 704. 1739. 995. 1909. 806. 727. 492. 752. 443.
      478. 569. 556. 705. 2241. 975. 2451. 770. 913. 823. 1091. 1003.
      1086. 682. 1163. 1036. 2782. 1240. 2006. 1813. 1153. 840. 1664.
      825. 3160. 1374. 4928. 1352. 975. 834. 682. 605. 1311. 1287. 1128.
      1240. 1088. 995. 1130. 696. 1641. 1455. 1567. 1653.</_>
    <_>
      2684. 1744. 1698. 1367. 1041. 1128. 644. 857. 982. 1374. 1181.
      983. 934. 922. 566. 485. 1344. 2686. 1427. 2582. 1248. 1594. 814.
      1518. 769. 1816. 1024. 1950. 727. 1026. 517. 793. 753. 864. 717.
      894. 716. 1505. 618. 1482. 542. 867. 939. 830. 889. 777. 985. 970.
      622. 1359. 854. 977. 893. 1934. 911. 2056. 376. 882. 631. 943.
      589. 1011. 1084. 1648. 5412. 1153. 3416. 940. 2405. 1090. 2016.
      884. 3448. 1352. 4265. 873. 2646. 1130. 2298. 742. 1214. 978.
      1453. 868. 844. 680. 1113. 670. 1185. 1123. 1809. 913. 794. 765.
      997. 710. 1591. 947. 1015. 711. 1908. 1312. 1464. 1141. 1245. 936.
      1192. 597. 1968. 1020. 1805. 795. 915. 969. 693. 430. 1098. 927.
      1143. 875. 676. 888. 766. 467. 790. 1125. 995. 871. 996. 892. 988.
      930. 905. 849. 627. 828. 670. 947. 759. 773. 633. 751. 546. 572.
      912. 1558. 927. 1213. 552. 1032. 420. 1008. 1158. 1677. 1430.
      1576. 483. 839. 526. 1062. 707. 653. 844. 1156. 849. 1175. 761.
      1454. 634. 874. 1133. 1021. 1117. 1068. 1127. 1244. 792. 1706.
      1071. 1440. 996. 3177. 759. 2819. 1104. 1946. 1630. 2076. 1158.
      2818. 1321. 4032. 1145. 498. 1097. 577. 1114. 643. 1104. 965.
      1885. 928. 2213. 767. 1765. 969. 1864. 929. 788. 569. 728. 484.
      496. 556. 622. 685. 2254. 922. 2437. 800. 949. 876. 1099. 1081.
      1304. 741. 1215. 1088. 2711. 1195. 1991. 1807. 1235. 797. 1586.
      752. 3122. 1207. 4524. 1288. 1018. 805. 727. 609. 1237. 1232. 991.
      1233. 1201. 1002. 1041. 668. 1638. 1473. 1629. 1619.</_>
    <_>
      1696. 1644. 1631. 1507. 1083. 1058. 624. 813. 1052. 1320. 1111.
      1124. 907. 989. 558. 505. 1209. 2734. 1590. 2566. 1463. 1623. 902.
      1405. 797. 1933. 955. 2210. 880. 1257. 578. 856. 722. 824. 751.
      797. 673. 1672. 611. 1451. 559. 797. 865. 774. 939. 852. 856. 817.
      621. 1369. 1004. 1089. 944. 1678. 1042. 1774. 393. 918. 687. 1002.
      688. 1021. 958. 1389. 6170. 1107. 3535. 1059. 2516. 1139. 2053.
      952. 3921. 1273. 4372. 1015. 2829. 1088. 2249. 673. 1078. 953.
      1399. 1034. 1079. 755. 1354. 823. 1202. 1035. 1734. 959. 969. 807.
      893. 760. 1438. 762. 931. 704. 2064. 1180. 1542. 926. 1191. 765.
      1197. 619. 2181. 903. 1919. 813. 864. 892. 759. 609. 1111. 1020.
      1380. 917. 598. 808. 647. 556. 868. 1200. 983. 803. 951. 860. 921.
      900. 928. 826. 532. 776. 742. 1290. 852. 989. 777. 761. 480. 579.
      917. 1287. 955. 1287. 660. 1153. 472. 1027. 1013. 1388. 1412.
      1431. 500. 893. 475. 865. 718. 760. 881. 1119. 901. 1326. 809.
      1269. 723. 1032. 1244. 1138. 1099. 1009. 1082. 1142. 683. 1459.
      1134. 1611. 932. 2714. 755. 2415. 1097. 1706. 1570. 1807. 1187.
      2595. 1106. 3344. 933. 538. 1043. 720. 1120. 612. 1073. 852. 1808.
      877. 1942. 870. 1758. 894. 1939. 810. 715. 575. 712. 552. 534.
      547. 486. 638. 2191. 1011. 2171. 833. 835. 948. 904. 1035. 1279.
      686. 1302. 1204. 3149. 1083. 2186. 1418. 1502. 862. 1961. 1050.
      3529. 1147. 5479. 1312. 865. 777. 725. 763. 1198. 1155. 972. 1068.
      1022. 958. 1001. 721. 1507. 1563. 1469. 1493.</_>
    <_>
      1689. 1635. 1756. 1444. 1004. 1067. 677. 875. 1007. 1381. 1063.
      1137. 968. 941. 566. 518. 1249. 2696. 1551. 2437. 1357. 1614. 909.
      1472. 787. 1840. 936. 2192. 825. 1240. 544. 830. 716. 891. 798.
      858. 663. 1626. 695. 1522. 621. 755. 896. 807. 866. 860. 925. 810.
      632. 1339. 1031. 1082. 887. 1765. 1046. 1837. 398. 962. 678. 947.
      625. 1034. 913. 1334. 6352. 1136. 3803. 1052. 2450. 1123. 2106.
      916. 3940. 1227. 4384. 1001. 2746. 1068. 2147. 745. 1108. 965.
      1391. 1020. 996. 867. 1241. 923. 1206. 1090. 1839. 902. 906. 823.
      923. 660. 1343. 769. 913. 635. 2068. 1283. 1492. 987. 1180. 758.
      1193. 625. 1986. 954. 1872. 871. 808. 915. 762. 608. 1083. 1122.
      1342. 906. 609. 825. 677. 556. 861. 1198. 929. 809. 941. 872. 925.
      883. 840. 883. 592. 730. 738. 1194. 826. 1002. 771. 808. 539. 605.
      912. 1280. 939. 1236. 635. 1129. 458. 993. 1063. 1477. 1437. 1426.
      501. 854. 500. 868. 685. 702. 959. 1108. 914. 1392. 844. 1288.
      747. 965. 1247. 1109. 1034. 1059. 1118. 1122. 715. 1394. 1210.
      1561. 857. 2928. 740. 2410. 1100. 1814. 1510. 1831. 1171. 2655.
      1095. 3443. 1003. 548. 1024. 643. 1127. 582. 1081. 852. 1813. 867.
      1926. 802. 1664. 944. 2017. 856. 739. 593. 700. 508. 549. 599.
      535. 658. 2258. 1093. 2236. 868. 801. 997. 938. 1132. 1245. 702.
      1160. 1082. 3059. 1050. 2116. 1457. 1410. 824. 1894. 1023. 3438.
      1202. 5313. 1231. 879. 836. 726. 690. 1126. 1142. 945. 1152. 1015.
      1021. 1009. 693. 1535. 1698. 1479. 1490.</_>
    <_>
      1546. 1509. 1676. 1537. 997. 1134. 508. 837. 900. 1486. 950. 1226.
      1010. 1126. 449. 526. 1348. 3301. 1595. 3317. 2419. 2268. 1102.
      1802. 794. 2852. 1050. 3664. 1413. 1748. 663. 1387. 570. 707. 630.
      935. 627. 1127. 476. 1081. 582. 961. 797. 1090. 718. 826. 639.
      814. 705. 1307. 804. 1185. 1143. 1366. 840. 1411. 503. 1137. 819.
      1425. 805. 1060. 865. 1341. 5081. 994. 2737. 872. 2559. 1112.
      1699. 817. 3876. 1185. 4332. 930. 2436. 1004. 1808. 630. 909. 702.
      1303. 1031. 942. 642. 1087. 866. 912. 860. 1543. 1060. 714. 612.
      809. 1027. 1230. 740. 818. 602. 1713. 977. 1227. 977. 1183. 884.
      1259. 687. 1584. 811. 1666. 725. 756. 926. 686. 574. 1197. 770.
      1193. 807. 583. 831. 737. 754. 662. 781. 923. 765. 758. 991. 660.
      1039. 1182. 1075. 513. 859. 583. 1186. 696. 973. 628. 877. 420.
      651. 757. 1710. 891. 1744. 852. 1213. 442. 1114. 868. 1788. 1284.
      1756. 657. 955. 490. 984. 775. 808. 778. 1216. 1038. 1343. 618.
      1133. 573. 880. 984. 1278. 871. 1076. 844. 1008. 875. 1658. 1028.
      1764. 1119. 3380. 720. 2623. 958. 1722. 1395. 2235. 1033. 2697.
      917. 3595. 897. 502. 1033. 636. 1246. 587. 1122. 908. 1532. 743.
      2030. 767. 1298. 789. 1514. 777. 555. 445. 657. 568. 534. 475.
      568. 761. 1806. 901. 1724. 893. 778. 792. 753. 853. 1246. 659.
      1479. 1258. 3401. 1098. 2719. 1563. 1306. 819. 2505. 1279. 3950.
      1344. 6314. 1580. 912. 691. 775. 758. 1297. 994. 984. 1024. 976.
      837. 1044. 887. 1420. 1335. 1625. 1584.</_>
    <_>
      1635. 1710. 1448. 1452. 1029. 1210. 422. 775. 838. 1658. 842.
      1376. 787. 1005. 375. 471. 1410. 3585. 1520. 3450. 2635. 2486.
      1070. 1708. 832. 3049. 1208. 4281. 1278. 1714. 561. 1491. 510.
      698. 511. 825. 527. 1252. 368. 962. 442. 1028. 615. 1025. 598.
      788. 526. 718. 709. 1252. 869. 1242. 1135. 1446. 815. 1384. 448.
      1197. 692. 1638. 756. 1018. 824. 1318. 5668. 1015. 3086. 695.
      2780. 991. 1667. 660. 4589. 1221. 5282. 1039. 2538. 930. 1947.
      552. 926. 629. 1182. 782. 1006. 510. 1055. 660. 893. 873. 1522.
      990. 579. 522. 668. 736. 1127. 725. 820. 491. 2118. 997. 1270.
      793. 1310. 895. 1325. 718. 1736. 801. 1693. 692. 689. 758. 645.
      442. 1196. 653. 981. 627. 489. 784. 687. 664. 610. 716. 814. 663.
      701. 899. 615. 928. 1017. 1085. 424. 833. 496. 1067. 572. 975.
      493. 741. 341. 620. 752. 1686. 931. 1732. 795. 1301. 485. 1156.
      877. 1724. 1305. 1928. 516. 925. 460. 981. 582. 763. 613. 1113.
      965. 1576. 623. 1212. 478. 881. 816. 1412. 643. 1069. 772. 1090.
      752. 1571. 1020. 1793. 1110. 3365. 818. 2689. 868. 1621. 1462.
      2499. 960. 2469. 1022. 3713. 785. 397. 856. 463. 1458. 604. 1146.
      786. 1334. 678. 2042. 788. 1413. 689. 1647. 695. 465. 346. 541.
      475. 528. 416. 600. 654. 1698. 795. 1815. 751. 703. 624. 777. 810.
      1180. 549. 1495. 1026. 4293. 1228. 3175. 1552. 1292. 768. 2942.
      1499. 4406. 1403. 7477. 1887. 712. 588. 712. 623. 1377. 883. 1223.
      1010. 824. 668. 1156. 908. 1425. 1342. 1884. 1644.</_>
    <_>
      14523. 1386. 1010. 904. 831. 909. 392. 550. 565. 969. 551. 689.
      460. 554. 291. 299. 1107. 2686. 968. 1944. 1062. 1319. 587. 956.
      677. 1676. 862. 1974. 563. 667. 378. 757. 988. 733. 559. 668. 546.
      1843. 554. 1612. 429. 682. 548. 635. 500. 744. 565. 775. 567.
      1310. 667. 952. 951. 2039. 717. 1875. 448. 937. 579. 986. 485.
      899. 686. 1298. 5657. 818. 2995. 461. 3350. 1086. 2081. 836. 4192.
      1004. 4992. 611. 2669. 742. 2118. 472. 928. 738. 882. 440. 702.
      343. 715. 372. 978. 796. 1369. 520. 560. 376. 685. 507. 1325. 747.
      843. 460. 2636. 1754. 1942. 1090. 1300. 808. 1254. 528. 2158. 954.
      2178. 850. 587. 487. 546. 288. 1071. 717. 1160. 562. 555. 510.
      641. 396. 810. 685. 985. 754. 601. 491. 1170. 540. 651. 764. 539.
      816. 360. 707. 440. 642. 376. 564. 392. 645. 660. 1180. 633. 934.
      503. 970. 444. 1169. 810. 1404. 1295. 1629. 309. 678. 414. 1228.
      435. 566. 572. 877. 879. 1866. 685. 1691. 475. 1003. 848. 1082.
      769. 1361. 965. 1549. 585. 1603. 1157. 1489. 1170. 3882. 1207.
      3670. 806. 1728. 1567. 2432. 1113. 2847. 1597. 5045. 915. 398.
      898. 310. 1530. 516. 1274. 698. 1739. 652. 2100. 484. 1667. 716.
      1914. 761. 575. 378. 531. 325. 536. 301. 549. 476. 2344. 775.
      2395. 532. 794. 625. 884. 690. 1127. 564. 1226. 750. 4504. 1690.
      3431. 1886. 1556. 845. 2235. 1274. 5203. 1956. 7127. 2239. 659.
      516. 663. 451. 1686. 1271. 1601. 1229. 1205. 766. 1488. 827. 2280.
      1909. 2695. 2161.</_>
    <_>
      17105. 2124. 1760. 1314. 1094. 1115. 572. 662. 1132. 1709. 1271.
      1319. 867. 819. 473. 562. 1713. 3455. 1817. 2958. 1659. 1973. 879.
      1493. 1061. 2249. 1238. 2898. 1048. 1120. 603. 1196. 617. 697.
      529. 695. 619. 1178. 406. 833. 638. 733. 744. 813. 651. 599. 649.
      582. 667. 1356. 650. 1036. 725. 1695. 674. 1441. 540. 982. 664.
      1162. 588. 869. 701. 1242. 6780. 1243. 3656. 1021. 2828. 1112.
      2171. 949. 5067. 1455. 5095. 1154. 2703. 894. 2213. 552. 1404.
      837. 1652. 971. 1074. 692. 1040. 725. 1218. 1001. 1828. 971. 664.
      628. 810. 927. 1352. 658. 890. 545. 1778. 868. 1359. 705. 1262.
      817. 1453. 708. 1743. 671. 1791. 568. 811. 796. 688. 529. 990.
      647. 840. 567. 588. 858. 794. 677. 697. 1205. 801. 853. 927. 725.
      610. 750. 1048. 919. 492. 802. 669. 925. 744. 805. 676. 640. 469.
      604. 754. 1412. 772. 1192. 648. 1115. 463. 1028. 850. 1393. 1100.
      1373. 453. 742. 456. 919. 802. 638. 687. 830. 813. 1016. 759.
      1053. 540. 772. 701. 951. 723. 775. 1069. 875. 636. 1607. 875.
      1679. 831. 3030. 679. 2307. 690. 1439. 1065. 1938. 807. 1827. 874.
      3415. 1221. 572. 1160. 665. 1323. 549. 1211. 745. 1698. 756. 2284.
      807. 1437. 706. 1800. 741. 594. 478. 664. 573. 472. 422. 552. 617.
      1121. 824. 1685. 713. 598. 545. 710. 1446. 994. 496. 1274. 1063.
      3667. 892. 2413. 1264. 1255. 729. 2151. 1134. 3566. 988. 5336.
      1140. 660. 662. 657. 604. 1071. 736. 900. 747. 728. 633. 1059.
      728. 1203. 994. 1386. 1126.</_>
    <_>
      21043. 1407. 1189. 1004. 996. 1016. 486. 634. 862. 1215. 789. 955.
      790. 895. 387. 427. 1316. 2569. 1175. 2171. 1471. 1738. 803. 1388.
      897. 2138. 786. 2413. 867. 1123. 505. 892. 1396. 773. 594. 807.
      619. 1310. 630. 1305. 505. 784. 608. 823. 715. 811. 668. 852. 599.
      1477. 699. 982. 1073. 1754. 774. 1769. 556. 1221. 735. 1197. 728.
      969. 909. 1343. 5064. 866. 3021. 741. 2388. 895. 1654. 650. 3663.
      1110. 4398. 747. 2447. 1198. 1871. 548. 1091. 1134. 1242. 728.
      922. 446. 1018. 564. 1049. 1146. 1527. 850. 710. 514. 867. 553.
      1205. 759. 834. 565. 1749. 1305. 1526. 1047. 1069. 790. 997. 667.
      1658. 804. 1532. 668. 780. 698. 650. 519. 1330. 803. 1416. 732.
      598. 722. 639. 541. 721. 674. 894. 660. 928. 671. 1482. 721. 848.
      966. 499. 794. 575. 790. 563. 804. 609. 874. 423. 666. 723. 1414.
      696. 1242. 662. 1316. 468. 1488. 856. 1432. 1263. 1746. 559. 821.
      460. 1415. 574. 729. 570. 1257. 934. 1426. 611. 1603. 457. 894.
      776. 1263. 852. 1145. 790. 1289. 696. 1615. 1075. 1542. 1111.
      4003. 942. 3252. 979. 1873. 1692. 2170. 1181. 2941. 1208. 4716.
      772. 422. 928. 543. 984. 601. 827. 838. 1777. 772. 1768. 775.
      1280. 925. 1370. 743. 573. 391. 597. 457. 510. 404. 541. 600.
      1773. 812. 2088. 768. 674. 659. 736. 762. 1077. 647. 1285. 1196.
      2549. 1145. 1765. 1508. 1294. 739. 1686. 1292. 3248. 1270. 3775.
      1352. 823. 589. 826. 652. 1265. 1100. 987. 1002. 955. 693. 1094.
      845. 1483. 1538. 1623. 1781.</_>
    <_>
      35738. 1144. 1117. 959. 942. 902. 483. 531. 756. 1155. 718. 855.
      588. 750. 384. 427. 1168. 3222. 1048. 2528. 1409. 1810. 720. 1238.
      933. 2390. 859. 2962. 767. 1030. 479. 802. 1219. 603. 514. 673.
      515. 1034. 522. 1033. 521. 810. 609. 792. 540. 687. 532. 688. 526.
      1158. 649. 928. 1026. 1612. 702. 1821. 534. 1068. 660. 1260. 597.
      939. 736. 1214. 4886. 761. 2853. 674. 2413. 902. 1640. 648. 3905.
      1077. 4373. 710. 2317. 938. 1930. 492. 928. 924. 1069. 634. 727.
      410. 916. 464. 902. 970. 1401. 786. 639. 429. 727. 519. 1228. 698.
      819. 516. 1866. 1271. 1481. 851. 1157. 813. 961. 622. 1684. 815.
      1615. 689. 748. 612. 575. 360. 1100. 693. 1255. 545. 535. 650.
      594. 528. 743. 599. 770. 678. 874. 635. 1183. 625. 834. 876. 567.
      711. 442. 899. 479. 764. 490. 695. 434. 575. 541. 1419. 643. 1192.
      666. 1201. 547. 1182. 605. 1622. 967. 1597. 448. 787. 436. 1197.
      540. 640. 513. 967. 911. 1444. 683. 1384. 457. 835. 755. 1303.
      733. 1123. 645. 1420. 608. 1539. 1229. 1601. 1003. 3981. 793.
      3178. 893. 1825. 1445. 2111. 1057. 2924. 1207. 4530. 853. 456.
      863. 454. 1145. 531. 1015. 675. 1787. 652. 1944. 659. 1148. 862.
      1352. 714. 492. 337. 520. 426. 530. 345. 604. 547. 1477. 715.
      1927. 661. 602. 481. 740. 639. 1033. 586. 1097. 859. 2773. 1194.
      2025. 1432. 1257. 724. 1604. 1271. 3033. 1262. 3960. 1445. 735.
      589. 682. 616. 1116. 1035. 1014. 1121. 895. 673. 1197. 815. 1417.
      1419. 1546. 1641.</_>
    <_>
      2469. 1153. 1193. 947. 1061. 930. 521. 610. 884. 1018. 764. 853.
      850. 863. 515. 520. 1182. 2479. 931. 1992. 1404. 1445. 701. 1412.
      799. 1885. 696. 2262. 978. 984. 547. 970. 1130. 818. 681. 759.
      698. 1390. 639. 1273. 749. 852. 881. 973. 803. 815. 819. 872. 626.
      1552. 741. 971. 1166. 1686. 881. 1937. 682. 1300. 803. 1266. 870.
      1019. 1030. 1530. 5001. 777. 2551. 763. 2721. 937. 1788. 807.
      3659. 945. 4004. 714. 2385. 894. 2076. 613. 957. 934. 1165. 735.
      817. 561. 1024. 708. 940. 1071. 1470. 857. 680. 574. 927. 704.
      1434. 848. 938. 770. 2139. 1477. 1584. 1112. 1227. 912. 1180. 755.
      1920. 951. 1788. 885. 940. 814. 687. 666. 1315. 826. 1540. 863.
      744. 811. 738. 637. 973. 729. 1102. 858. 872. 763. 1352. 750.
      1077. 958. 647. 858. 595. 949. 648. 765. 833. 896. 569. 784. 755.
      1327. 634. 1229. 671. 1260. 518. 1405. 789. 1623. 1184. 1632. 597.
      923. 541. 1497. 752. 730. 753. 1073. 1084. 1470. 827. 1554. 756.
      977. 1096. 1259. 1318. 1352. 1042. 1430. 766. 1569. 1050. 1505.
      1223. 3320. 993. 2882. 1085. 1716. 1519. 1941. 1390. 2607. 1437.
      4501. 975. 496. 1021. 637. 1378. 668. 1293. 1056. 1853. 786. 2306.
      783. 1713. 1011. 1749. 902. 689. 448. 738. 612. 638. 528. 719.
      706. 1574. 788. 1992. 779. 772. 710. 952. 805. 1429. 754. 1499.
      1369. 3001. 1318. 2268. 1826. 1447. 986. 1836. 1533. 3692. 1503.
      4545. 1744. 930. 833. 842. 889. 1466. 1263. 1263. 1379. 1016. 903.
      1329. 957. 1697. 1741. 2040. 1995.</_>
    <_>
      2308. 1909. 1755. 1345. 1289. 1347. 794. 1036. 1173. 1562. 1203.
      1101. 1186. 1111. 623. 606. 1384. 2972. 1687. 2696. 1685. 2008.
      1017. 1852. 885. 1838. 1084. 2208. 970. 1328. 674. 996. 700. 825.
      820. 1061. 683. 1142. 670. 1385. 660. 959. 1042. 966. 843. 827.
      1021. 912. 740. 1495. 887. 1249. 905. 1527. 953. 1942. 465. 1011.
      772. 1094. 733. 965. 1103. 1444. 3856. 1008. 2773. 977. 2150.
      1024. 2011. 938. 2861. 1490. 3879. 1105. 2494. 1124. 2113. 672.
      1055. 990. 1606. 1097. 1005. 709. 1247. 1000. 1282. 1254. 2021.
      1145. 958. 799. 1098. 741. 1294. 852. 1114. 746. 1694. 1099. 1412.
      1072. 1126. 1041. 1269. 729. 1914. 917. 1744. 665. 1061. 1012.
      827. 708. 1123. 853. 1022. 777. 677. 1198. 776. 614. 867. 1152.
      984. 710. 1203. 1058. 973. 1130. 1065. 935. 526. 788. 903. 1189.
      843. 932. 902. 939. 487. 522. 1008. 1803. 1021. 1477. 735. 1125.
      435. 979. 1141. 1890. 1298. 1493. 648. 899. 513. 881. 695. 647.
      757. 1058. 812. 743. 635. 1007. 666. 801. 1202. 1136. 809. 704.
      956. 897. 842. 1467. 944. 1668. 887. 2445. 599. 2030. 1216. 1995.
      1498. 1801. 1072. 1932. 957. 2663. 1090. 495. 1128. 806. 1255.
      645. 1195. 1141. 1600. 956. 2133. 840. 1555. 984. 1764. 781. 683.
      546. 798. 558. 590. 623. 563. 749. 1661. 1205. 2175. 907. 849.
      1006. 942. 1228. 1361. 659. 1297. 1274. 3763. 1003. 2468. 1745.
      1262. 727. 1856. 938. 3789. 999. 4787. 1278. 1052. 825. 697. 653.
      1385. 960. 919. 902. 1094. 977. 973. 623. 1514. 1182. 1430. 1111.</_>
    <_>
      2358. 1458. 1401. 1273. 1213. 868. 619. 785. 1114. 1198. 961.
      1016. 1217. 1063. 539. 574. 1596. 2316. 1238. 2122. 1649. 1210.
      857. 1314. 938. 1667. 911. 2079. 1257. 932. 618. 926. 891. 880.
      775. 868. 724. 1418. 663. 1526. 713. 823. 958. 817. 956. 811. 962.
      1022. 743. 1749. 839. 907. 1177. 2195. 902. 2002. 564. 845. 701.
      871. 922. 887. 999. 1659. 4469. 1065. 3282. 1164. 2472. 1048.
      1972. 1157. 3574. 1177. 4095. 1037. 2142. 975. 2013. 780. 1277.
      950. 1454. 1248. 894. 657. 1098. 1026. 1053. 946. 1738. 1028. 763.
      739. 1046. 925. 1409. 804. 988. 836. 1739. 1053. 1444. 1254. 1094.
      916. 1129. 731. 1494. 823. 1647. 923. 921. 984. 787. 686. 1339.
      948. 1469. 1044. 645. 870. 714. 638. 795. 780. 1028. 946. 1046.
      914. 740. 838. 1095. 825. 570. 898. 867. 1154. 798. 888. 986. 915.
      590. 864. 1100. 1660. 815. 1208. 693. 892. 392. 1044. 1332. 1506.
      1219. 1743. 625. 746. 556. 1427. 736. 708. 814. 1027. 1126. 1178.
      767. 1237. 867. 1023. 1146. 1127. 1382. 1136. 1041. 1337. 845.
      1632. 1006. 1325. 1046. 3368. 807. 2158. 1203. 1666. 1407. 1459.
      1562. 2454. 1170. 3361. 1097. 621. 1141. 808. 1142. 601. 1039.
      1053. 1697. 920. 1976. 922. 1279. 939. 1438. 948. 777. 625. 767.
      709. 510. 503. 588. 752. 1933. 1025. 2118. 894. 776. 878. 909.
      1076. 1267. 683. 1378. 1288. 2675. 1044. 2120. 1769. 1375. 973.
      2127. 1580. 3480. 1324. 3889. 1568. 916. 748. 856. 830. 1254.
      1132. 1089. 1120. 1034. 819. 993. 774. 1636. 1431. 1674. 1628.</_>
    <_>
      2345. 1455. 1264. 1171. 1189. 813. 654. 867. 1073. 1016. 961. 987.
      1246. 1054. 608. 632. 1488. 2216. 1194. 1886. 1530. 1134. 819.
      1289. 954. 1498. 902. 1926. 1358. 990. 714. 1015. 937. 922. 778.
      883. 752. 1316. 652. 1516. 779. 789. 956. 841. 984. 741. 1014.
      1148. 801. 1854. 774. 941. 1168. 2199. 799. 1929. 622. 872. 700.
      921. 932. 888. 1115. 1752. 4334. 1105. 3360. 1177. 2474. 1005.
      2005. 1177. 3497. 989. 3983. 1004. 2067. 895. 2264. 1010. 1184.
      931. 1332. 1186. 902. 678. 1064. 1048. 1063. 986. 1662. 1007. 795.
      749. 1109. 1226. 1454. 865. 995. 822. 1629. 1030. 1506. 1255.
      1190. 923. 1170. 779. 1439. 857. 1667. 1143. 987. 1087. 804. 712.
      1198. 857. 1444. 1020. 735. 936. 708. 707. 887. 832. 1130. 1120.
      1254. 1002. 774. 867. 1125. 893. 643. 935. 882. 1097. 844. 823.
      965. 956. 600. 899. 1218. 1746. 780. 1300. 652. 900. 425. 1085.
      1354. 1468. 1222. 1598. 615. 812. 516. 1469. 1004. 885. 825. 1048.
      1164. 1157. 775. 1178. 865. 940. 1110. 1097. 1390. 1061. 1010.
      1291. 985. 1810. 1015. 1335. 1010. 3280. 721. 2022. 1319. 1691.
      1311. 1391. 1458. 2449. 1145. 3356. 1254. 618. 1048. 857. 1181.
      618. 1107. 1111. 1695. 869. 1920. 897. 1336. 921. 1527. 941. 770.
      655. 730. 713. 515. 493. 547. 823. 2028. 992. 2089. 927. 794. 838.
      940. 1150. 1306. 749. 1432. 1431. 2417. 967. 1977. 1632. 1427.
      921. 2048. 1471. 3313. 1251. 3669. 1523. 1002. 789. 853. 893.
      1145. 1059. 998. 1146. 998. 803. 1034. 741. 1581. 1367. 1448.
      1409.</_>
    <_>
      2635. 1519. 1290. 1247. 1160. 847. 633. 749. 1110. 1068. 970.
      1047. 1240. 907. 608. 625. 1639. 2450. 1051. 1962. 1588. 1181.
      702. 1197. 968. 1707. 867. 2300. 1356. 1008. 722. 989. 817. 976.
      575. 686. 794. 1486. 640. 1452. 739. 790. 852. 887. 946. 765. 943.
      1073. 835. 1911. 796. 1029. 1158. 2340. 760. 1998. 619. 1007. 763.
      1037. 932. 967. 1006. 1657. 4456. 1149. 3163. 1300. 2460. 1021.
      1923. 1203. 3223. 1099. 3631. 1057. 2069. 988. 2055. 938. 1303.
      858. 1367. 1186. 881. 655. 1122. 1029. 1111. 923. 1698. 1033. 876.
      713. 1232. 1094. 1451. 899. 952. 802. 1539. 1022. 1367. 1217.
      1085. 899. 1132. 803. 1503. 772. 1705. 1090. 996. 917. 806. 747.
      1163. 776. 1570. 958. 772. 924. 842. 768. 842. 806. 1192. 1108.
      1205. 932. 693. 807. 1190. 937. 644. 917. 839. 1027. 758. 849.
      962. 903. 596. 917. 1165. 1787. 814. 1277. 657. 1067. 422. 1230.
      1276. 1539. 1255. 1905. 687. 730. 554. 1689. 1005. 916. 706. 1025.
      1133. 1100. 836. 1202. 880. 972. 1055. 1080. 1328. 1028. 1036.
      1247. 939. 1722. 1018. 1422. 1055. 3399. 761. 2185. 1160. 1613.
      1330. 1521. 1349. 2384. 1104. 3543. 1187. 619. 1058. 889. 1212.
      627. 1177. 1121. 1667. 882. 1799. 859. 1408. 904. 1421. 949. 819.
      583. 748. 677. 518. 461. 569. 819. 2104. 857. 2164. 901. 861. 743.
      910. 1030. 1435. 780. 1529. 1427. 2317. 1024. 1948. 1533. 1446.
      953. 2042. 1535. 3175. 1241. 3397. 1513. 1007. 691. 829. 936.
      1195. 1024. 1003. 1049. 1114. 817. 1021. 736. 1508. 1356. 1444.
      1529.</_>
    <_>
      2249. 1618. 1340. 1316. 1155. 880. 627. 779. 1161. 1183. 1000.
      1174. 1191. 929. 581. 627. 1518. 2423. 1221. 2141. 1675. 1305.
      835. 1214. 946. 1929. 937. 2376. 1288. 937. 665. 932. 839. 963.
      654. 837. 790. 1515. 593. 1490. 725. 823. 905. 909. 924. 755. 924.
      1097. 842. 1766. 816. 898. 1186. 2390. 864. 1856. 602. 1056. 728.
      864. 880. 950. 1077. 1689. 4561. 1134. 3128. 1367. 2317. 1034.
      1985. 1214. 3268. 1151. 3547. 1106. 2060. 954. 1849. 907. 1400.
      880. 1336. 1166. 923. 669. 1250. 1043. 1100. 915. 1536. 1004. 788.
      726. 1147. 972. 1495. 891. 865. 785. 1458. 1041. 1305. 1201. 1170.
      879. 1116. 774. 1493. 821. 1599. 1103. 1087. 1035. 740. 665. 1184.
      826. 1533. 994. 733. 950. 798. 751. 894. 779. 1185. 1045. 1070.
      899. 756. 770. 1086. 980. 561. 999. 883. 1172. 866. 902. 997. 849.
      606. 799. 1198. 1587. 765. 1174. 694. 1029. 468. 1217. 1232. 1547.
      1388. 1842. 611. 774. 577. 1751. 926. 825. 681. 1029. 1093. 1161.
      739. 1309. 848. 909. 990. 1061. 1271. 1095. 928. 1333. 903. 1800.
      976. 1427. 1112. 3594. 792. 2423. 1210. 1515. 1364. 1520. 1395.
      2446. 1138. 3872. 1084. 558. 1173. 870. 1062. 695. 1064. 1038.
      1740. 955. 1984. 936. 1359. 916. 1400. 962. 731. 513. 776. 686.
      530. 522. 600. 811. 2221. 912. 2246. 914. 775. 806. 973. 1070.
      1285. 822. 1406. 1288. 2219. 1010. 1858. 1576. 1443. 943. 1911.
      1383. 3055. 1361. 3272. 1580. 986. 747. 860. 812. 1246. 1005.
      1004. 1101. 1049. 786. 1055. 733. 1427. 1417. 1460. 1493.</_>
    <_>
      2392. 1839. 1881. 1379. 1102. 1252. 626. 796. 1220. 1507. 1431.
      1166. 984. 893. 532. 491. 1430. 3114. 1787. 3054. 1509. 1849. 984.
      1429. 936. 2105. 1103. 2619. 1087. 1260. 540. 1077. 641. 762. 707.
      857. 682. 1322. 596. 1100. 635. 875. 1008. 944. 819. 747. 847.
      775. 679. 1179. 844. 1138. 988. 1621. 879. 1670. 474. 947. 761.
      1113. 628. 912. 934. 1260. 5304. 1271. 3179. 843. 2741. 1359.
      1883. 810. 3910. 1526. 3991. 967. 2522. 970. 1674. 568. 1212.
      1051. 1603. 965. 1145. 901. 1018. 879. 1348. 1162. 2061. 1027.
      834. 763. 844. 766. 1269. 808. 832. 633. 1922. 1110. 1411. 732.
      1142. 973. 1274. 708. 1922. 936. 1678. 725. 950. 1036. 660. 582.
      1116. 1023. 977. 829. 658. 987. 773. 682. 732. 919. 902. 850. 911.
      761. 768. 942. 1051. 976. 522. 808. 779. 1103. 954. 1002. 762.
      852. 532. 599. 728. 1408. 945. 1416. 618. 1122. 486. 915. 957.
      1652. 1385. 1549. 593. 912. 500. 851. 774. 731. 811. 1095. 1049.
      1190. 803. 1210. 668. 914. 1198. 1145. 993. 1026. 1011. 1060. 707.
      1364. 1067. 1758. 906. 2843. 947. 2388. 972. 1553. 1650. 2141.
      1021. 2003. 1069. 3064. 983. 447. 945. 552. 1286. 596. 1171. 1015.
      1423. 926. 1992. 754. 1380. 895. 1853. 729. 528. 526. 697. 595.
      514. 657. 590. 770. 1694. 994. 1977. 891. 707. 833. 876. 944.
      1246. 539. 1213. 935. 3514. 1147. 2807. 1586. 1415. 746. 2367.
      1053. 3889. 1270. 5498. 1307. 786. 764. 714. 698. 1327. 1191.
      1141. 1110. 1000. 889. 1226. 847. 1511. 1473. 1641. 1554.</_>
    <_>
      3846. 1888. 1413. 1350. 1022. 1242. 556. 806. 1130. 1537. 1268.
      1165. 804. 880. 500. 570. 1482. 2943. 1753. 2903. 1627. 1900. 994.
      1562. 1119. 2226. 1291. 2834. 969. 1310. 578. 1228. 734. 838. 590.
      817. 642. 1288. 501. 1024. 658. 928. 865. 1030. 721. 746. 737.
      775. 756. 1357. 739. 1113. 928. 1669. 882. 1713. 560. 1041. 775.
      1239. 583. 928. 900. 1481. 5778. 1129. 2879. 794. 2891. 1306.
      1885. 837. 4108. 1486. 3940. 975. 2547. 829. 1821. 624. 1166. 879.
      1375. 750. 1005. 622. 975. 715. 1354. 1007. 1897. 988. 803. 711.
      841. 830. 1455. 789. 1041. 640. 2037. 1173. 1219. 775. 1401. 971.
      1537. 724. 2054. 893. 1852. 768. 979. 917. 647. 490. 1074. 852.
      905. 680. 752. 841. 778. 750. 827. 1024. 1058. 1045. 919. 899.
      759. 911. 1167. 979. 618. 880. 636. 1004. 778. 900. 726. 843. 561.
      673. 841. 1622. 947. 1502. 609. 1224. 524. 1042. 903. 1682. 1346.
      1752. 523. 831. 522. 1055. 829. 744. 710. 1000. 1040. 1153. 757.
      1262. 580. 863. 895. 1135. 776. 817. 958. 1065. 763. 1580. 984.
      1600. 904. 2932. 714. 2630. 933. 1612. 1464. 2217. 1000. 1876.
      1090. 3415. 1167. 443. 1025. 594. 1529. 627. 1384. 1005. 1571.
      778. 2159. 799. 1500. 793. 1938. 895. 558. 463. 675. 465. 569.
      529. 640. 737. 1491. 946. 2052. 897. 621. 745. 888. 1123. 1350.
      604. 1367. 945. 3541. 1080. 2481. 1616. 1474. 735. 2328. 976.
      3316. 1042. 4892. 1426. 899. 755. 715. 632. 1262. 1017. 1000.
      1022. 922. 782. 1154. 767. 1323. 1186. 1766. 1794.</_>
    <_>
      1762. 1359. 1543. 1201. 1172. 881. 653. 818. 1061. 1185. 872.
      1024. 1221. 980. 608. 590. 1500. 2516. 1283. 2088. 1487. 1318.
      778. 1326. 832. 1792. 897. 2347. 1185. 1070. 655. 1070. 952. 937.
      800. 911. 810. 1433. 657. 1565. 790. 837. 1115. 940. 1128. 838.
      1134. 1174. 884. 1799. 749. 983. 1205. 2171. 842. 2016. 584. 1146.
      771. 963. 955. 1013. 1139. 1709. 3980. 1012. 3084. 1046. 2155.
      1054. 1876. 1063. 2884. 1147. 3235. 937. 1850. 976. 1942. 880.
      1290. 985. 1398. 1166. 856. 679. 1140. 1106. 1000. 1011. 1540.
      1084. 777. 823. 1040. 1072. 1336. 965. 951. 859. 1453. 1083. 1188.
      1157. 1066. 931. 1112. 821. 1492. 926. 1406. 963. 1137. 1262. 823.
      784. 1177. 846. 1440. 1077. 791. 1121. 793. 749. 857. 848. 1067.
      1052. 1268. 924. 907. 885. 1219. 979. 686. 1005. 933. 1167. 877.
      932. 1097. 959. 570. 793. 1100. 1577. 823. 1196. 704. 1032. 490.
      1290. 1268. 1472. 1464. 1729. 679. 848. 603. 1623. 952. 795. 844.
      1166. 1182. 1176. 871. 1320. 874. 930. 1140. 1109. 1297. 1014.
      1100. 1419. 928. 1639. 891. 1412. 1043. 3412. 692. 2418. 1226.
      1645. 1457. 1500. 1359. 2337. 1143. 3412. 1070. 602. 1096. 873.
      1128. 633. 954. 1153. 1599. 959. 1813. 938. 1313. 1001. 1359. 972.
      855. 648. 755. 653. 584. 588. 615. 924. 2289. 1075. 2089. 960.
      925. 992. 1025. 1264. 1316. 775. 1368. 1333. 2193. 1045. 1750.
      1726. 1327. 941. 1794. 1352. 2786. 1174. 2906. 1430. 995. 796.
      814. 829. 1197. 1059. 1028. 1152. 1162. 940. 1076. 775. 1625.
      1390. 1458. 1537.</_>
    <_>
      2020. 1429. 1716. 1290. 1176. 1238. 820. 1002. 1071. 1292. 1254.
      1038. 1076. 1071. 723. 577. 1378. 2301. 1556. 2406. 1488. 1626.
      993. 1659. 909. 1732. 982. 2291. 1123. 1404. 710. 1231. 922. 841.
      1053. 989. 773. 1121. 781. 1378. 747. 1017. 1283. 1118. 990. 874.
      1080. 1003. 821. 1245. 878. 1112. 1020. 1341. 919. 1790. 579. 971.
      816. 1272. 915. 977. 1201. 1388. 3184. 1015. 2613. 962. 1968.
      1191. 1745. 1051. 2384. 1237. 3083. 976. 2223. 1143. 1921. 761.
      1091. 936. 1418. 1151. 916. 861. 1102. 1084. 1198. 1273. 1764.
      1133. 949. 968. 1101. 1097. 1465. 969. 1045. 801. 1593. 1105.
      1279. 1147. 1124. 1064. 1290. 757. 1673. 994. 1513. 835. 1197.
      1318. 813. 709. 1169. 1143. 1020. 1059. 881. 1178. 1008. 924.
      1009. 1025. 1083. 1064. 1371. 1029. 1154. 1041. 1356. 1133. 723.
      959. 951. 1252. 982. 892. 938. 1030. 622. 617. 960. 1448. 1038.
      1250. 693. 1222. 543. 1140. 1035. 1517. 1281. 1307. 733. 978. 534.
      997. 1043. 779. 1052. 1196. 1131. 1126. 719. 1183. 805. 908. 1281.
      1140. 1015. 946. 871. 945. 878. 1498. 1048. 1472. 925. 2757. 670.
      2272. 1274. 1700. 1476. 1831. 1251. 1858. 1020. 2584. 1137. 614.
      1148. 818. 1136. 720. 1172. 1257. 1514. 942. 1870. 785. 1506.
      1051. 1582. 890. 737. 619. 728. 675. 613. 719. 716. 891. 1933.
      1397. 2101. 928. 1006. 1243. 1065. 1128. 1447. 703. 1455. 1265.
      2536. 1064. 1898. 1587. 1233. 764. 1821. 1111. 2491. 1021. 2912.
      1140. 1164. 985. 777. 735. 1212. 1132. 873. 1105. 1298. 1234.
      1177. 871. 1379. 1343. 1449. 1447.</_>
    <_>
      3918. 1864. 1575. 1385. 1075. 1226. 574. 751. 1222. 1530. 1251.
      1202. 811. 891. 494. 538. 1553. 2744. 1670. 2880. 1625. 1982. 941.
      1562. 1061. 2194. 1254. 2993. 1040. 1350. 620. 1258. 719. 830.
      628. 801. 622. 1318. 512. 1091. 637. 955. 934. 961. 698. 688. 725.
      722. 739. 1421. 754. 1127. 869. 1690. 790. 1642. 549. 1062. 762.
      1231. 633. 990. 845. 1390. 5849. 1209. 2903. 812. 3016. 1232.
      1927. 911. 4147. 1395. 3736. 1027. 2624. 829. 1809. 625. 1168.
      854. 1408. 789. 999. 651. 900. 722. 1334. 1044. 1990. 1047. 817.
      682. 864. 852. 1372. 817. 963. 598. 2151. 1102. 1396. 752. 1405.
      930. 1509. 760. 1984. 866. 1808. 745. 890. 946. 652. 531. 1011.
      894. 917. 690. 741. 889. 888. 741. 835. 1020. 1049. 986. 965. 850.
      757. 903. 1099. 1006. 648. 882. 651. 990. 826. 787. 659. 822. 569.
      675. 790. 1614. 972. 1538. 658. 1203. 528. 1093. 930. 1580. 1366.
      1691. 500. 891. 485. 1026. 848. 725. 694. 1062. 1131. 1213. 787.
      1284. 627. 925. 952. 1076. 851. 769. 952. 1141. 715. 1467. 921.
      1600. 884. 3155. 740. 2629. 894. 1547. 1469. 2194. 930. 1842.
      1074. 3445. 1156. 476. 1006. 574. 1572. 623. 1381. 1036. 1543.
      800. 2026. 759. 1557. 757. 1925. 856. 599. 452. 630. 487. 567.
      495. 611. 747. 1482. 904. 1932. 879. 671. 792. 846. 1189. 1495.
      601. 1322. 920. 3541. 1045. 2557. 1557. 1455. 722. 2336. 1026.
      3174. 1088. 4863. 1492. 903. 732. 648. 637. 1242. 964. 954. 1005.
      925. 777. 1197. 798. 1370. 1243. 1657. 1748.</_>
    <_>
      2739. 1539. 1508. 1373. 1102. 1030. 588. 793. 1089. 1181. 898.
      1163. 971. 859. 488. 469. 1607. 2827. 1226. 2775. 1596. 1272. 734.
      1460. 931. 2173. 974. 2820. 1099. 976. 572. 856. 846. 828. 658.
      746. 784. 1649. 569. 1603. 595. 785. 767. 875. 795. 846. 784. 977.
      741. 1585. 746. 1030. 1161. 2433. 855. 2119. 528. 1040. 614. 1002.
      769. 1022. 839. 1533. 5020. 1116. 3500. 1123. 2538. 1106. 1816.
      971. 3650. 1272. 3790. 1044. 2108. 971. 1775. 701. 1423. 821.
      1402. 923. 926. 539. 1175. 746. 1209. 936. 1745. 846. 671. 546.
      929. 610. 1312. 871. 839. 727. 1559. 1199. 1276. 1101. 1056. 1012.
      996. 857. 1483. 910. 1395. 903. 1037. 892. 688. 539. 1270. 696.
      1573. 779. 786. 855. 716. 614. 814. 735. 906. 584. 861. 751. 631.
      668. 1064. 910. 451. 823. 745. 1178. 698. 898. 740. 756. 473. 695.
      904. 1296. 774. 1208. 646. 1095. 432. 1122. 1125. 1513. 1501.
      2008. 583. 704. 605. 1715. 654. 691. 619. 1052. 1012. 1237. 674.
      1458. 624. 985. 1015. 1215. 1073. 1190. 932. 1486. 621. 1428.
      1024. 1543. 1225. 3929. 911. 3397. 1087. 1726. 1551. 1943. 1456.
      2887. 1317. 4424. 1024. 522. 1083. 734. 1198. 613. 978. 966. 1833.
      981. 1881. 967. 1339. 925. 1333. 841. 720. 508. 743. 502. 519.
      433. 536. 688. 2161. 843. 2603. 801. 802. 698. 1026. 893. 1286.
      623. 1543. 1279. 2675. 1160. 2084. 1874. 1389. 983. 2096. 1546.
      3221. 1469. 3640. 1642. 893. 567. 831. 649. 1372. 1085. 1142.
      1280. 1142. 758. 1220. 732. 1781. 1589. 1624. 1632.</_>
    <_>
      1857. 1314. 1486. 1197. 1192. 845. 661. 804. 1102. 1184. 966.
      1001. 1235. 1022. 627. 589. 1508. 2504. 1209. 1978. 1542. 1295.
      835. 1320. 812. 1766. 912. 2329. 1209. 1102. 598. 1111. 900. 943.
      725. 849. 830. 1492. 619. 1583. 860. 837. 1065. 987. 1082. 839.
      1133. 1138. 892. 1806. 762. 987. 1216. 2165. 880. 1909. 565. 1118.
      760. 1010. 920. 1025. 1190. 1682. 4120. 977. 3050. 1083. 2110.
      1007. 1824. 1043. 2869. 1149. 3205. 999. 1848. 976. 1856. 863.
      1263. 913. 1452. 1171. 884. 704. 1209. 1146. 1044. 1038. 1533.
      1127. 782. 734. 1052. 1082. 1335. 939. 926. 912. 1423. 1031. 1136.
      1127. 1026. 996. 1026. 794. 1514. 886. 1427. 953. 1167. 1239. 818.
      752. 1163. 886. 1479. 1059. 749. 1151. 819. 699. 914. 810. 1093.
      1032. 1256. 858. 901. 876. 1205. 1009. 645. 1008. 929. 1211. 852.
      889. 1073. 977. 584. 804. 1074. 1571. 855. 1223. 651. 1079. 487.
      1322. 1270. 1440. 1472. 1817. 709. 832. 596. 1572. 955. 738. 815.
      1165. 1133. 1194. 813. 1305. 880. 929. 1148. 1101. 1297. 954.
      1095. 1411. 911. 1650. 876. 1407. 1108. 3477. 732. 2535. 1214.
      1563. 1517. 1601. 1366. 2479. 1164. 3456. 1023. 602. 1170. 860.
      1094. 668. 991. 1116. 1569. 993. 1747. 931. 1362. 1028. 1303.
      1052. 778. 639. 807. 651. 546. 554. 581. 861. 2187. 1060. 2089.
      1023. 891. 967. 1083. 1253. 1290. 802. 1376. 1383. 2257. 1036.
      1794. 1723. 1333. 949. 1768. 1352. 2783. 1181. 3120. 1371. 1022.
      804. 804. 821. 1204. 1102. 1000. 1109. 1164. 951. 1064. 746. 1604.
      1433. 1528. 1536.</_>
    <_>
      1958. 1561. 1705. 1393. 1159. 1333. 806. 1066. 1056. 1404. 1190.
      1130. 879. 1000. 625. 613. 1395. 2405. 1557. 2565. 1609. 1756.
      1006. 1654. 924. 1847. 1043. 2443. 1107. 1390. 643. 1160. 888.
      920. 985. 960. 740. 1307. 785. 1494. 708. 999. 1134. 1017. 852.
      865. 1089. 978. 750. 1240. 992. 1038. 978. 1488. 956. 1837. 518.
      976. 838. 1258. 864. 1027. 1101. 1423. 3347. 980. 2617. 919. 2060.
      1227. 1858. 1133. 2541. 1292. 3196. 1015. 2160. 1065. 1813. 764.
      1109. 915. 1422. 999. 938. 859. 1043. 938. 1285. 1256. 1840. 1002.
      863. 855. 1020. 857. 1448. 967. 1032. 803. 1733. 1257. 1352. 1233.
      1171. 1070. 1260. 757. 1630. 967. 1472. 885. 1177. 1121. 751. 599.
      1252. 1076. 1058. 906. 826. 1110. 960. 822. 995. 959. 1029. 915.
      1267. 1049. 1112. 997. 1192. 1171. 654. 921. 883. 1277. 1042. 903.
      839. 943. 551. 599. 971. 1406. 1083. 1324. 695. 1278. 531. 1118.
      1114. 1566. 1441. 1355. 671. 972. 525. 1057. 866. 726. 935. 1113.
      1067. 1142. 766. 1262. 668. 925. 1140. 1156. 930. 928. 876. 978.
      850. 1507. 1051. 1533. 938. 2803. 708. 2355. 1317. 1828. 1505.
      1869. 1079. 1903. 1056. 2867. 1136. 548. 1143. 731. 1179. 700.
      1273. 1233. 1475. 1043. 1950. 741. 1490. 1080. 1710. 874. 784.
      568. 768. 573. 628. 606. 619. 811. 2129. 1463. 2256. 997. 1070.
      1181. 1035. 1030. 1338. 701. 1367. 1174. 2770. 1097. 1976. 1549.
      1223. 786. 1850. 1138. 2492. 1117. 3090. 1212. 1138. 948. 719.
      633. 1250. 1157. 924. 1055. 1362. 1191. 1195. 900. 1499. 1224.
      1534. 1445.</_>
    <_>
      1944. 1533. 1848. 1358. 1079. 1103. 750. 920. 1184. 1394. 1317.
      1066. 957. 909. 652. 539. 1398. 2639. 1543. 2583. 1510. 1746. 977.
      1527. 924. 1964. 1015. 2499. 1112. 1374. 589. 1144. 866. 938. 979.
      937. 752. 1273. 748. 1352. 818. 977. 1117. 968. 868. 738. 1074.
      957. 773. 1289. 814. 1074. 930. 1615. 796. 1826. 483. 979. 776.
      1091. 775. 968. 1071. 1477. 4332. 1040. 2988. 907. 2301. 1191.
      1792. 1019. 2884. 1351. 3358. 912. 2453. 1033. 1901. 729. 1148.
      943. 1403. 1018. 862. 819. 1017. 907. 1263. 1166. 1911. 1043. 927.
      893. 1066. 944. 1369. 898. 961. 740. 1684. 1143. 1220. 1041. 1141.
      989. 1368. 786. 1754. 1012. 1605. 846. 1065. 1162. 786. 613. 1113.
      1075. 934. 1006. 744. 1051. 891. 745. 898. 1160. 1130. 1051. 1226.
      984. 1035. 1003. 1201. 1014. 675. 889. 856. 1095. 1002. 912. 853.
      899. 597. 622. 875. 1442. 1037. 1349. 623. 1151. 507. 1024. 1038.
      1520. 1323. 1463. 601. 926. 542. 966. 964. 769. 957. 1175. 1190.
      1092. 821. 1173. 714. 973. 1235. 1104. 1034. 1008. 943. 1074. 875.
      1546. 1006. 1677. 896. 2832. 749. 2415. 1128. 1744. 1453. 1936.
      1068. 2096. 1178. 2970. 1196. 524. 1224. 727. 1322. 719. 1331.
      1110. 1606. 841. 1977. 783. 1528. 977. 1740. 857. 716. 614. 700.
      594. 588. 610. 613. 786. 1793. 1226. 1975. 893. 887. 1067. 999.
      1232. 1404. 595. 1368. 1137. 2725. 1000. 1995. 1508. 1256. 802.
      1996. 974. 2694. 1140. 3340. 1283. 1063. 912. 709. 693. 1198.
      1220. 910. 1189. 1200. 1067. 1216. 821. 1463. 1507. 1567. 1750.</_>
    <_>
      2156. 1844. 1181. 1067. 1149. 1268. 502. 690. 986. 1447. 898.
      1053. 764. 944. 451. 492. 1446. 3350. 1219. 2300. 1714. 1872. 835.
      1422. 900. 2282. 1218. 2896. 891. 873. 555. 718. 751. 951. 543.
      666. 712. 1641. 466. 1204. 638. 1012. 744. 1130. 604. 846. 552.
      814. 693. 1737. 728. 1082. 1279. 2441. 878. 2074. 580. 1176. 760.
      1253. 669. 945. 931. 1428. 5681. 1166. 3096. 813. 2681. 953. 1754.
      673. 3920. 1511. 4634. 994. 2047. 853. 1820. 541. 1339. 716. 1255.
      653. 943. 571. 937. 546. 1228. 905. 2028. 870. 611. 523. 791. 527.
      1532. 994. 865. 646. 1862. 1138. 1237. 777. 1454. 1205. 1197. 748.
      1446. 839. 1361. 646. 1068. 767. 632. 468. 1301. 786. 1195. 654.
      805. 805. 736. 514. 688. 658. 781. 622. 827. 786. 564. 664. 979.
      953. 540. 813. 584. 913. 766. 976. 650. 833. 498. 685. 785. 1338.
      811. 1192. 777. 1371. 633. 1537. 846. 1374. 1612. 2303. 512. 635.
      733. 1659. 584. 596. 496. 830. 831. 1456. 700. 1673. 519. 736.
      863. 1389. 826. 1067. 871. 1439. 641. 1303. 828. 1484. 1161. 4720.
      1073. 3847. 1004. 1562. 1722. 2568. 1083. 2676. 1438. 5871. 1031.
      466. 1036. 577. 1433. 703. 1199. 949. 1532. 910. 2183. 904. 1266.
      939. 1532. 964. 563. 404. 754. 475. 640. 503. 630. 706. 1414. 710.
      2393. 823. 652. 592. 1001. 888. 1150. 562. 1191. 1042. 3230. 1316.
      2548. 2057. 1353. 807. 2053. 1436. 3397. 1413. 4399. 1583. 826.
      545. 775. 613. 1470. 1142. 1202. 1202. 942. 718. 1267. 785. 1453.
      1377. 1770. 1480.</_>
    <_>
      1729. 1569. 1563. 1434. 1093. 1112. 618. 901. 1211. 1426. 1043.
      1051. 1110. 1026. 706. 634. 1408. 2942. 1577. 2739. 1811. 1787.
      974. 1612. 1093. 1982. 1032. 2439. 1168. 1277. 613. 1203. 739.
      764. 687. 842. 652. 1258. 614. 1235. 758. 954. 897. 963. 1181.
      853. 989. 866. 848. 1319. 879. 1110. 992. 1421. 881. 1652. 564.
      942. 793. 1157. 923. 877. 1087. 1281. 4677. 1137. 3182. 1256.
      2378. 1074. 1628. 943. 3298. 1346. 3905. 1057. 2520. 911. 1895.
      694. 1060. 1014. 1538. 1376. 936. 639. 1095. 936. 1209. 1044.
      1821. 885. 744. 711. 980. 850. 1243. 873. 904. 708. 1754. 1033.
      1264. 961. 1216. 995. 1199. 717. 1871. 870. 1735. 753. 1107. 1098.
      756. 849. 1156. 902. 1097. 945. 780. 943. 798. 749. 803. 890.
      1060. 939. 992. 937. 769. 966. 1119. 1068. 697. 939. 966. 1305.
      772. 841. 962. 974. 628. 755. 811. 1515. 974. 1437. 694. 1071.
      471. 1061. 1059. 1522. 1253. 1329. 720. 841. 556. 886. 925. 780.
      663. 1074. 952. 1066. 760. 1112. 776. 1008. 1012. 1178. 1241. 996.
      1127. 1192. 910. 1657. 966. 1675. 894. 2907. 720. 2280. 1312.
      1790. 1436. 2047. 1234. 1964. 1194. 2989. 1018. 612. 1050. 842.
      1251. 591. 1130. 1161. 1469. 1006. 1907. 862. 1471. 933. 1689.
      939. 662. 685. 739. 781. 577. 506. 609. 761. 1693. 1044. 1990.
      756. 807. 902. 950. 1109. 1176. 639. 1199. 1241. 3667. 1091. 2511.
      1743. 1206. 774. 1862. 1260. 3625. 1176. 4240. 1290. 936. 884.
      661. 775. 1174. 916. 919. 1070. 936. 873. 1027. 757. 1522. 1173.
      1590. 1490.</_>
    <_>
      1834. 1628. 1509. 1444. 1026. 1088. 574. 895. 1110. 1353. 1051.
      963. 1049. 979. 639. 612. 1500. 2833. 1393. 2759. 1613. 1709. 917.
      1592. 1041. 1886. 1051. 2533. 1095. 1296. 628. 1260. 757. 775.
      646. 853. 617. 1224. 623. 1292. 729. 899. 892. 937. 1177. 874.
      1036. 904. 860. 1529. 775. 1142. 1043. 1557. 865. 1695. 571. 975.
      739. 1239. 878. 969. 996. 1446. 4731. 1077. 3124. 1105. 2213.
      1023. 1683. 910. 3299. 1356. 3850. 993. 2496. 899. 2047. 738.
      1137. 1040. 1445. 1194. 922. 650. 1035. 929. 1217. 1044. 1795.
      951. 732. 651. 921. 935. 1358. 819. 901. 783. 1648. 1109. 1262.
      1068. 1289. 1009. 1200. 723. 1851. 913. 1800. 814. 1063. 1089.
      781. 896. 1030. 819. 1057. 977. 719. 954. 852. 769. 846. 913.
      1051. 932. 1067. 919. 792. 958. 1183. 1052. 779. 909. 923. 1265.
      873. 881. 870. 973. 604. 703. 914. 1598. 880. 1496. 643. 1143.
      510. 1136. 1045. 1629. 1242. 1387. 695. 906. 607. 983. 916. 770.
      667. 1056. 937. 957. 700. 1217. 777. 932. 1016. 1225. 1165. 971.
      1160. 1167. 961. 1748. 944. 1745. 867. 2806. 715. 2473. 1226.
      1880. 1490. 1929. 1303. 2217. 1200. 3312. 1035. 598. 1040. 897.
      1250. 639. 1224. 1186. 1479. 887. 1964. 802. 1551. 925. 1875. 879.
      632. 727. 698. 768. 595. 536. 581. 770. 1664. 1019. 2048. 785.
      849. 878. 973. 1091. 1158. 649. 1191. 1274. 3541. 1079. 2364.
      1746. 1104. 688. 1852. 1070. 3117. 1091. 4064. 1349. 1014. 845.
      678. 808. 1223. 980. 917. 1124. 993. 908. 1054. 751. 1573. 1251.
      1599. 1475.</_>
    <_>
      1866. 1704. 1504. 1441. 1070. 1088. 599. 849. 1134. 1382. 983.
      1042. 1152. 969. 669. 614. 1429. 2885. 1440. 2785. 1745. 1714.
      901. 1672. 990. 1960. 1142. 2613. 1168. 1234. 571. 1210. 698. 862.
      642. 845. 683. 1213. 556. 1329. 724. 859. 875. 944. 1195. 836.
      993. 819. 830. 1488. 824. 1202. 1040. 1628. 873. 1711. 596. 1051.
      748. 1317. 944. 958. 1033. 1368. 4810. 1050. 3031. 1159. 2254.
      1003. 1758. 928. 3386. 1308. 3814. 1051. 2515. 953. 2045. 687.
      1121. 982. 1473. 1282. 940. 670. 1047. 950. 1221. 984. 1715. 921.
      752. 643. 954. 905. 1294. 879. 998. 754. 1723. 1024. 1235. 979.
      1259. 929. 1204. 714. 1901. 835. 1820. 762. 1090. 1029. 798. 933.
      1101. 840. 1084. 962. 711. 862. 834. 750. 845. 895. 983. 912.
      1086. 910. 835. 975. 1156. 1079. 693. 908. 928. 1238. 809. 857.
      986. 951. 613. 718. 847. 1526. 897. 1477. 662. 1162. 484. 1134.
      1039. 1608. 1239. 1365. 647. 907. 615. 1040. 891. 726. 732. 1079.
      905. 946. 636. 1144. 811. 947. 1050. 1162. 1300. 903. 1086. 1165.
      882. 1764. 990. 1892. 878. 2792. 679. 2385. 1213. 1780. 1373.
      1893. 1341. 2217. 1235. 3369. 1047. 579. 1087. 879. 1198. 536.
      1257. 1182. 1523. 954. 1948. 819. 1529. 972. 1762. 822. 618. 710.
      768. 753. 552. 488. 625. 835. 1603. 1003. 2023. 794. 792. 871.
      926. 1086. 1161. 662. 1205. 1326. 3632. 1021. 2429. 1698. 1102.
      725. 1892. 1088. 3298. 1083. 4190. 1235. 933. 850. 668. 860. 1201.
      933. 833. 1093. 966. 846. 1050. 801. 1627. 1205. 1535. 1494.</_>
    <_>
      1740. 1386. 1421. 952. 1216. 971. 795. 852. 897. 1097. 995. 776.
      1084. 1050. 728. 523. 1371. 2763. 1249. 1890. 1361. 1581. 1032.
      1580. 626. 1599. 785. 2138. 855. 963. 653. 819. 941. 833. 911.
      1021. 875. 1429. 789. 1395. 855. 996. 1391. 1078. 1096. 891. 1297.
      1117. 915. 2045. 853. 1078. 1117. 2366. 983. 2126. 609. 1085. 886.
      1185. 827. 948. 1357. 1883. 3750. 882. 2806. 869. 2127. 921. 1762.
      1059. 2660. 1152. 3483. 889. 1944. 998. 1808. 804. 1214. 974.
      1554. 944. 776. 790. 1056. 1159. 908. 1226. 2005. 1120. 722. 890.
      1049. 862. 1394. 1061. 937. 899. 1582. 1062. 1158. 1239. 962.
      1076. 927. 663. 1362. 929. 1288. 746. 1316. 1475. 833. 817. 1336.
      1030. 1298. 1141. 697. 1316. 719. 631. 805. 1016. 892. 783. 1325.
      938. 990. 987. 1122. 1030. 772. 1004. 1003. 1081. 1119. 849. 1054.
      1033. 765. 792. 1201. 1807. 866. 1405. 686. 1259. 610. 1389. 1459.
      1677. 1369. 2009. 716. 867. 542. 1614. 809. 635. 837. 1135. 907.
      1140. 865. 1288. 829. 762. 1519. 1183. 1125. 959. 1173. 1147. 860.
      1947. 759. 1472. 971. 3436. 671. 2419. 1502. 1885. 1590. 1877.
      1292. 2064. 1107. 3391. 935. 576. 1020. 763. 971. 695. 858. 1238.
      1424. 1018. 1831. 886. 1213. 1070. 1312. 981. 821. 659. 774. 722.
      626. 830. 625. 1098. 1794. 1327. 2223. 998. 832. 1206. 888. 1224.
      1124. 681. 1105. 1212. 2136. 946. 1708. 1680. 1159. 810. 1561.
      1035. 3045. 1155. 3336. 1247. 1102. 943. 727. 687. 1222. 1162.
      995. 1242. 1016. 1001. 939. 676. 1446. 1552. 1331. 1406.</_>
    <_>
      1929. 1757. 1457. 1310. 1096. 1131. 677. 833. 1059. 1418. 1078.
      928. 838. 888. 630. 572. 1495. 3432. 1341. 2900. 1573. 2119. 781.
      1633. 1034. 2383. 1092. 3014. 807. 1307. 557. 1060. 707. 907. 631.
      815. 653. 1184. 638. 1328. 626. 882. 832. 865. 895. 754. 953. 928.
      800. 1815. 790. 1262. 954. 1679. 796. 1747. 549. 1321. 778. 1610.
      678. 966. 961. 1424. 4157. 1046. 2946. 1035. 2308. 1005. 1874.
      954. 2901. 1324. 3605. 1011. 2356. 911. 1937. 784. 1188. 957.
      1236. 944. 922. 572. 1020. 727. 1249. 956. 1877. 917. 811. 613.
      885. 592. 1487. 902. 941. 697. 1914. 1178. 1334. 1012. 1239. 1087.
      1340. 772. 2111. 835. 1981. 851. 1102. 904. 655. 662. 1152. 744.
      1050. 756. 840. 912. 870. 667. 877. 835. 1043. 725. 1039. 893.
      815. 847. 1039. 983. 609. 847. 846. 1002. 819. 758. 798. 776. 612.
      705. 853. 1777. 904. 1627. 692. 1553. 552. 1376. 997. 1535. 1193.
      1745. 605. 884. 604. 1240. 586. 709. 587. 894. 864. 1114. 704.
      1312. 650. 912. 889. 1142. 1016. 939. 1052. 1165. 790. 1964. 909.
      1770. 957. 3099. 723. 2711. 1066. 1962. 1336. 2340. 1023. 2145.
      1124. 3187. 1095. 636. 1132. 755. 1440. 639. 1382. 1074. 1475.
      926. 1948. 811. 1448. 942. 1845. 919. 832. 640. 732. 646. 647.
      537. 682. 755. 1818. 914. 2021. 793. 847. 781. 996. 958. 1283.
      666. 1191. 896. 3854. 1183. 2856. 1896. 1360. 748. 2172. 1097.
      3210. 1085. 4221. 1418. 1007. 722. 627. 648. 1341. 985. 984. 1105.
      1127. 834. 1111. 750. 1433. 1275. 1550. 1381.</_>
    <_>
      2134. 1811. 1135. 1005. 1093. 1296. 520. 634. 968. 1444. 804.
      1074. 794. 984. 428. 464. 1501. 3315. 1286. 2264. 1625. 1853. 882.
      1361. 865. 2056. 1106. 2671. 914. 901. 572. 672. 688. 1007. 514.
      782. 675. 1670. 459. 1126. 679. 1018. 798. 994. 683. 941. 577.
      915. 725. 1788. 812. 973. 1143. 2570. 907. 1962. 605. 1194. 803.
      1274. 686. 924. 919. 1409. 5983. 1277. 3227. 900. 2814. 999. 1816.
      850. 4094. 1572. 4474. 1036. 2136. 942. 1796. 550. 1283. 698.
      1261. 724. 973. 634. 1009. 610. 1202. 909. 1913. 866. 679. 499.
      877. 498. 1499. 1069. 943. 644. 1815. 1172. 1262. 878. 1255. 1142.
      1133. 673. 1550. 907. 1361. 691. 1064. 827. 667. 511. 1362. 721.
      1202. 649. 750. 868. 865. 592. 760. 767. 822. 590. 832. 847. 653.
      707. 882. 944. 542. 778. 587. 1053. 790. 955. 629. 751. 501. 723.
      636. 1301. 839. 1212. 763. 1294. 655. 1506. 972. 1400. 1600. 2346.
      512. 748. 636. 1727. 469. 524. 523. 878. 875. 1409. 691. 1564.
      551. 788. 917. 1301. 830. 1083. 932. 1374. 630. 1392. 874. 1467.
      1156. 4513. 1012. 3861. 999. 1584. 1746. 2415. 965. 2520. 1294.
      5488. 1105. 508. 1054. 600. 1329. 705. 1122. 1021. 1661. 953.
      2160. 870. 1336. 922. 1562. 904. 608. 429. 879. 487. 663. 515.
      720. 720. 1568. 797. 2572. 860. 718. 693. 996. 887. 1182. 636.
      1198. 906. 3040. 1312. 2443. 1978. 1208. 801. 1883. 1214. 3195.
      1346. 4167. 1636. 805. 546. 736. 573. 1396. 1089. 1166. 1225. 956.
      616. 1238. 715. 1507. 1405. 1832. 1616.</_>
    <_>
      1906. 1857. 1260. 1129. 1224. 1332. 560. 717. 1028. 1493. 907.
      1093. 953. 1130. 449. 560. 1639. 2989. 1438. 2297. 1888. 1771.
      1021. 1431. 1004. 2143. 1077. 3033. 938. 1069. 535. 862. 659. 931.
      523. 820. 645. 1343. 515. 1072. 636. 1043. 858. 1086. 776. 924.
      738. 902. 785. 1498. 707. 1030. 1205. 2107. 863. 1814. 587. 1021.
      815. 1232. 863. 916. 1162. 1491. 4641. 1122. 2999. 974. 2442.
      1002. 1652. 827. 3590. 1649. 4223. 1161. 2058. 1079. 1635. 654.
      1283. 739. 1588. 828. 982. 551. 1163. 745. 1162. 976. 1982. 972.
      677. 578. 890. 604. 1429. 1070. 1002. 781. 1891. 1277. 1163. 978.
      1177. 1201. 1231. 799. 1438. 898. 1343. 729. 1200. 898. 793. 593.
      1404. 817. 1230. 759. 695. 916. 737. 633. 849. 662. 934. 724. 900.
      866. 740. 736. 1070. 1104. 572. 868. 688. 1102. 752. 916. 728.
      863. 498. 749. 876. 1385. 762. 1220. 842. 1222. 689. 1334. 1018.
      1426. 1456. 2032. 566. 768. 683. 1641. 609. 699. 551. 1073. 908.
      1426. 696. 1592. 602. 767. 1034. 1328. 951. 1069. 823. 1241. 671.
      1437. 916. 1765. 1040. 4438. 852. 3210. 1171. 1677. 1893. 2366.
      1244. 2721. 1245. 4890. 989. 575. 1007. 723. 1340. 735. 1101.
      1113. 1369. 1061. 1728. 1006. 1293. 993. 1361. 899. 740. 425. 816.
      544. 689. 449. 768. 762. 1740. 846. 2343. 906. 680. 715. 1044.
      934. 1212. 769. 1271. 1086. 2910. 1307. 2057. 2016. 1197. 822.
      1864. 1322. 3130. 1265. 3326. 1425. 966. 572. 781. 620. 1347. 904.
      1119. 1076. 948. 711. 1167. 750. 1302. 1217. 1559. 1532.</_>
    <_>
      1782. 1548. 1628. 1291. 1158. 1167. 774. 943. 1195. 1216. 1274.
      940. 1185. 1154. 767. 669. 1201. 2336. 1350. 2382. 1464. 1511.
      980. 1610. 950. 1710. 982. 2216. 971. 1117. 641. 1013. 864. 851.
      871. 938. 799. 1104. 817. 1217. 825. 967. 1396. 969. 1165. 921.
      1341. 971. 812. 1320. 860. 1033. 935. 1559. 979. 1676. 595. 899.
      857. 980. 796. 995. 1229. 1608. 3128. 1035. 2519. 1100. 1887.
      1016. 1742. 1071. 2413. 1188. 3011. 1012. 1968. 1012. 1893. 866.
      1084. 1074. 1423. 1289. 900. 877. 1072. 1263. 1123. 1244. 1925.
      1206. 896. 927. 1061. 1020. 1266. 985. 999. 818. 1767. 1073. 1351.
      1030. 1162. 1049. 1156. 711. 1809. 1006. 1594. 786. 1084. 1444.
      862. 841. 1083. 1057. 1109. 1074. 795. 1229. 835. 881. 937. 932.
      1009. 1058. 1420. 1062. 1085. 1012. 1198. 1072. 681. 931. 1122.
      1142. 1100. 840. 1162. 1071. 776. 758. 938. 1366. 873. 1322. 650.
      1127. 537. 1093. 1178. 1462. 1267. 1313. 777. 909. 604. 1020.
      1019. 707. 844. 1224. 1102. 1019. 743. 1201. 1016. 837. 1352.
      1116. 1275. 980. 1035. 1144. 959. 1557. 1014. 1580. 874. 2737.
      752. 2246. 1403. 1848. 1696. 1907. 1254. 1969. 1071. 2729. 967.
      627. 987. 738. 1258. 762. 1145. 1363. 1388. 1006. 1659. 749. 1504.
      1193. 1654. 913. 789. 772. 880. 720. 671. 751. 726. 1021. 1856.
      1330. 1885. 1044. 921. 1062. 989. 1098. 1263. 680. 1179. 1041.
      2848. 1031. 2057. 1878. 1401. 768. 1737. 880. 2750. 1113. 3403.
      1303. 1265. 1068. 735. 741. 1311. 1107. 847. 1254. 1251. 1194.
      1101. 864. 1413. 1264. 1296. 1340.</_>
    <_>
      1760. 1353. 1723. 1251. 1081. 1094. 732. 883. 1165. 1132. 1174.
      945. 1026. 1068. 744. 619. 1059. 2509. 1296. 2466. 1597. 1564.
      878. 1572. 913. 1861. 929. 2555. 1105. 1298. 593. 1155. 984. 810.
      910. 986. 764. 1127. 713. 1254. 887. 838. 1268. 944. 1072. 962.
      1282. 1021. 813. 1366. 783. 1116. 985. 1441. 837. 1708. 574. 1023.
