<?xml version="1.0"?>
<opencv_storage>
<opencv_ml_svm>
  <format>3</format>
  <svmType>C_SVC</svmType>
  <kernel>
    <type>RBF</type>
    <gamma>1.0000000000000001e-05</gamma></kernel>
  <C>1.0000000000000001e-01</C>
  <term_criteria><epsilon>1.1920928955078125e-07</epsilon>
    <iterations>1000</iterations></term_criteria>
  <var_count>256</var_count>
  <class_count>2</class_count>
  <class_labels type_id="opencv-matrix">
    <rows>2</rows>
    <cols>1</cols>
    <dt>i</dt>
    <data>
      0 1</data></class_labels>
  <sv_total>2000</sv_total>
  <support_vectors>
    <_>
      728. 531. 452. 356. 217. 188. 134. 108. 216. 285. 258. 262. 151.
      148. 129. 112. 353. 1309. 232. 859. 395. 495. 193. 332. 242. 801.
      181. 927. 193. 347. 138. 229. 213. 172. 123. 139. 165. 429. 125.
      290. 141. 156. 169. 140. 149. 158. 173. 176. 128. 337. 150. 242.
      233. 430. 159. 398. 164. 288. 134. 259. 171. 296. 183. 362. 1347.
      198. 764. 173. 639. 203. 456. 236. 979. 218. 1123. 161. 553. 293.
      555. 209. 207. 245. 200. 151. 223. 116. 278. 136. 286. 209. 328.
      211. 204. 127. 278. 188. 343. 112. 206. 134. 613. 224. 451. 225.
      318. 124. 293. 163. 493. 199. 599. 267. 165. 154. 127. 106. 295.
      153. 297. 155. 166. 164. 143. 113. 241. 223. 264. 276. 223. 208.
      382. 194. 235. 195. 136. 179. 112. 148. 131. 207. 105. 130. 127.
      185. 224. 450. 125. 347. 128. 255. 103. 226. 201. 383. 231. 423.
      130. 226. 86. 271. 186. 231. 168. 237. 249. 378. 191. 325. 191.
      212. 185. 223. 261. 281. 211. 281. 221. 504. 246. 662. 263. 1081.
      180. 949. 186. 517. 482. 709. 217. 963. 222. 1462. 266. 117. 227.
      129. 295. 149. 282. 194. 383. 151. 405. 152. 323. 177. 364. 245.
      162. 117. 122. 107. 147. 120. 122. 156. 449. 151. 402. 166. 207.
      154. 191. 289. 384. 157. 402. 246. 1059. 289. 862. 295. 410. 177.
      571. 379. 919. 365. 1340. 466. 186. 156. 134. 181. 382. 231. 270.
      251. 305. 144. 230. 151. 343. 500. 420. 641.</_>
    <_>
      686. 397. 451. 217. 170. 202. 156. 172. 240. 275. 202. 199. 136.
      159. 124. 128. 419. 714. 348. 523. 335. 326. 215. 333. 176. 513.
      149. 509. 138. 230. 96. 175. 229. 238. 192. 205. 168. 413. 147.
      426. 169. 163. 155. 188. 182. 194. 174. 234. 155. 345. 265. 299.
      234. 478. 242. 492. 135. 343. 154. 297. 192. 280. 208. 411. 1280.
      197. 801. 172. 581. 320. 439. 255. 869. 222. 1174. 184. 647. 352.
      532. 190. 215. 252. 252. 197. 228. 168. 271. 167. 252. 233. 344.
      175. 232. 137. 227. 202. 339. 176. 280. 149. 564. 324. 420. 346.
      264. 170. 264. 138. 529. 247. 533. 214. 172. 190. 176. 128. 301.
      241. 294. 233. 143. 168. 168. 109. 244. 188. 233. 231. 237. 245.
      359. 218. 158. 190. 210. 170. 147. 197. 136. 195. 175. 166. 152.
      158. 218. 479. 225. 307. 138. 281. 126. 254. 216. 526. 257. 423.
      111. 229. 121. 245. 183. 232. 205. 258. 237. 333. 155. 342. 159.
      224. 236. 238. 247. 274. 234. 290. 217. 577. 388. 493. 247. 894.
      202. 889. 227. 744. 448. 659. 264. 938. 239. 1437. 232. 116. 266.
      112. 254. 161. 264. 215. 442. 189. 486. 140. 393. 270. 453. 224.
      160. 139. 144. 90. 116. 131. 155. 142. 489. 220. 530. 217. 199.
      227. 258. 204. 332. 195. 408. 276. 872. 245. 597. 334. 336. 182.
      455. 317. 757. 328. 1194. 433. 232. 222. 172. 157. 329. 256. 244.
      269. 339. 254. 264. 170. 393. 508. 427. 623.</_>
    <_>
      347. 239. 371. 227. 246. 205. 148. 100. 266. 280. 295. 281. 254.
      158. 174. 94. 253. 793. 338. 842. 364. 393. 201. 264. 153. 653.
      155. 778. 288. 243. 114. 159. 134. 158. 227. 151. 127. 170. 142.
      145. 126. 152. 244. 191. 224. 162. 238. 142. 149. 310. 249. 261.
      156. 466. 215. 354. 74. 222. 129. 164. 109. 234. 153. 228. 1758.
      260. 1104. 316. 895. 238. 900. 263. 1077. 266. 1025. 326. 920.
      293. 798. 214. 264. 218. 353. 323. 391. 196. 458. 226. 208. 227.
      314. 226. 262. 201. 275. 159. 416. 209. 332. 197. 602. 201. 664.
      225. 409. 193. 474. 136. 779. 143. 986. 149. 212. 199. 172. 147.
      276. 203. 383. 178. 118. 238. 173. 106. 227. 404. 283. 133. 228.
      198. 229. 183. 165. 140. 97. 114. 201. 435. 262. 309. 211. 231.
      84. 116. 134. 468. 206. 407. 95. 318. 98. 210. 155. 464. 196. 276.
      114. 243. 76. 141. 140. 222. 262. 195. 126. 184. 229. 214. 171.
      228. 246. 155. 261. 186. 289. 180. 176. 533. 367. 519. 124. 1100.
      174. 718. 212. 447. 210. 343. 140. 554. 166. 535. 422. 132. 410.
      255. 457. 115. 357. 166. 771. 226. 795. 338. 699. 244. 695. 179.
      147. 159. 158. 105. 118. 139. 72. 150. 419. 255. 422. 126. 200.
      239. 187. 358. 378. 124. 374. 162. 737. 149. 647. 229. 532. 181.
      776. 178. 1216. 232. 1215. 200. 183. 180. 133. 106. 149. 182. 153.
      148. 233. 197. 194. 90. 290. 286. 359. 259.</_>
    <_>
      767. 339. 342. 320. 227. 277. 135. 190. 210. 420. 222. 323. 196.
      199. 91. 127. 327. 1185. 379. 1181. 294. 573. 209. 487. 202. 816.
      258. 1028. 284. 356. 113. 264. 133. 183. 151. 180. 134. 288. 123.
      234. 132. 232. 191. 242. 171. 165. 211. 193. 192. 540. 207. 353.
      212. 481. 281. 451. 112. 322. 150. 357. 133. 202. 207. 326. 1481.
      228. 867. 243. 698. 271. 604. 215. 848. 324. 992. 253. 779. 447.
      536. 167. 242. 189. 316. 235. 260. 143. 456. 174. 210. 213. 374.
      176. 280. 136. 294. 122. 342. 201. 217. 133. 459. 237. 393. 234.
      306. 253. 378. 149. 450. 185. 557. 160. 243. 223. 135. 94. 408.
      165. 451. 149. 125. 227. 131. 111. 197. 475. 230. 148. 215. 243.
      211. 291. 155. 174. 122. 150. 144. 312. 181. 232. 163. 204. 77.
      119. 214. 711. 296. 546. 99. 397. 102. 329. 226. 681. 257. 566.
      113. 256. 71. 261. 113. 128. 131. 239. 146. 161. 162. 310. 132.
      176. 237. 203. 158. 162. 303. 187. 176. 564. 360. 628. 130. 911.
      179. 690. 209. 573. 307. 663. 227. 492. 182. 697. 297. 128. 230.
      128. 395. 126. 307. 170. 504. 316. 687. 260. 404. 305. 432. 175.
      156. 93. 154. 112. 104. 117. 112. 131. 359. 233. 478. 175. 150.
      166. 192. 309. 263. 113. 249. 203. 933. 155. 629. 344. 306. 199.
      661. 320. 757. 226. 1310. 248. 159. 96. 115. 64. 204. 103. 232.
      153. 201. 193. 230. 118. 233. 349. 354. 352.</_>
    <_>
      449. 472. 473. 405. 269. 315. 155. 233. 224. 365. 252. 367. 345.
      234. 100. 150. 392. 884. 364. 811. 530. 415. 237. 338. 276. 708.
      312. 801. 392. 332. 131. 301. 188. 231. 201. 167. 164. 428. 134.
      307. 120. 155. 148. 186. 184. 183. 129. 161. 137. 322. 238. 309.
      252. 519. 206. 426. 103. 188. 142. 206. 151. 247. 164. 325. 1746.
      297. 838. 311. 685. 290. 500. 238. 895. 356. 1209. 284. 688. 261.
      500. 187. 320. 188. 374. 309. 265. 168. 321. 223. 280. 252. 417.
      212. 241. 202. 222. 146. 327. 168. 244. 133. 464. 269. 311. 161.
      316. 169. 320. 216. 455. 193. 385. 151. 179. 119. 174. 174. 261.
      203. 292. 168. 118. 168. 168. 151. 183. 228. 190. 113. 208. 271.
      271. 261. 175. 161. 97. 163. 167. 353. 193. 238. 184. 190. 106.
      136. 193. 346. 204. 343. 140. 205. 102. 213. 316. 368. 322. 418.
      129. 193. 138. 261. 144. 197. 181. 235. 226. 274. 164. 218. 150.
      224. 192. 288. 276. 300. 192. 240. 151. 408. 402. 520. 268. 821.
      180. 553. 160. 417. 260. 448. 237. 562. 224. 815. 262. 137. 256.
      251. 253. 124. 214. 168. 437. 223. 508. 224. 325. 206. 438. 163.
      155. 95. 160. 116. 118. 132. 116. 133. 474. 167. 405. 150. 171.
      182. 203. 228. 234. 126. 355. 273. 1294. 174. 1029. 241. 378. 221.
      927. 458. 1215. 235. 1710. 304. 153. 139. 169. 211. 255. 240. 180.
      244. 210. 185. 201. 175. 349. 321. 412. 347.</_>
    <_>
      286. 402. 377. 381. 285. 227. 159. 147. 205. 310. 252. 261. 365.
      244. 123. 95. 282. 660. 329. 647. 378. 368. 213. 348. 215. 532.
      231. 599. 292. 359. 135. 261. 203. 159. 211. 182. 153. 275. 174.
      267. 166. 254. 205. 220. 204. 197. 213. 242. 163. 319. 251. 316.
      227. 540. 271. 539. 79. 277. 151. 283. 115. 246. 228. 241. 1394.
      247. 793. 190. 681. 244. 516. 200. 745. 265. 956. 299. 568. 299.
      459. 184. 255. 221. 294. 179. 294. 176. 301. 198. 277. 242. 276.
      185. 292. 155. 196. 127. 291. 173. 256. 137. 507. 285. 362. 194.
      281. 251. 361. 187. 451. 242. 493. 173. 169. 207. 206. 81. 305.
      228. 273. 238. 126. 203. 138. 118. 203. 229. 255. 150. 185. 231.
      296. 231. 170. 178. 151. 159. 158. 321. 176. 208. 179. 231. 98.
      118. 194. 386. 208. 404. 164. 277. 102. 288. 265. 477. 237. 457.
      121. 288. 103. 265. 117. 181. 292. 308. 153. 334. 144. 323. 134.
      317. 286. 331. 234. 303. 187. 227. 200. 503. 453. 515. 252. 912.
      185. 795. 251. 508. 337. 502. 287. 809. 269. 791. 282. 115. 304.
      138. 317. 134. 261. 189. 437. 266. 458. 262. 383. 246. 431. 183.
      154. 103. 166. 95. 112. 139. 121. 133. 427. 275. 418. 159. 164.
      242. 213. 152. 282. 151. 395. 258. 1297. 266. 1030. 286. 370. 229.
      820. 439. 1077. 337. 1545. 336. 208. 200. 187. 139. 300. 310. 193.
      291. 285. 251. 235. 163. 454. 393. 481. 327.</_>
    <_>
      282. 344. 359. 376. 286. 217. 153. 137. 226. 276. 248. 266. 375.
      226. 135. 110. 309. 650. 319. 610. 396. 392. 216. 371. 201. 526.
      236. 596. 284. 357. 139. 275. 216. 166. 197. 177. 172. 270. 175.
      258. 156. 233. 241. 219. 198. 196. 190. 213. 167. 348. 245. 322.
      235. 533. 265. 515. 86. 265. 177. 303. 124. 292. 218. 258. 1387.
      225. 786. 208. 665. 239. 512. 209. 750. 288. 931. 269. 582. 305.
      461. 184. 236. 224. 307. 187. 314. 198. 296. 182. 295. 224. 283.
      200. 271. 146. 205. 131. 249. 195. 256. 139. 521. 265. 386. 181.
      291. 237. 335. 202. 431. 227. 491. 170. 168. 206. 185. 109. 276.
      239. 287. 206. 117. 191. 150. 120. 198. 211. 257. 148. 186. 264.
      323. 225. 185. 181. 161. 173. 150. 319. 140. 210. 178. 238. 108.
      119. 214. 405. 218. 387. 159. 274. 114. 315. 241. 475. 239. 468.
      127. 271. 102. 273. 96. 199. 296. 316. 145. 350. 133. 296. 159.
      320. 243. 334. 230. 312. 213. 248. 213. 492. 475. 512. 238. 931.
      176. 798. 238. 549. 349. 470. 294. 804. 275. 841. 296. 107. 299.
      141. 288. 124. 268. 183. 419. 252. 450. 279. 390. 214. 409. 180.
      138. 111. 160. 105. 137. 137. 128. 129. 408. 260. 415. 148. 174.
      226. 201. 151. 273. 147. 428. 272. 1310. 256. 1030. 286. 391. 240.
      814. 470. 1149. 331. 1535. 343. 194. 180. 173. 144. 338. 273. 188.
      272. 298. 248. 243. 169. 441. 381. 473. 329.</_>
    <_>
      298. 340. 336. 347. 278. 224. 157. 151. 222. 276. 246. 261. 371.
      234. 142. 111. 309. 653. 312. 623. 412. 402. 221. 358. 209. 523.
      214. 611. 303. 351. 136. 260. 223. 149. 198. 181. 155. 284. 157.
      263. 152. 230. 233. 203. 193. 195. 200. 223. 152. 364. 257. 323.
      226. 531. 278. 473. 88. 270. 141. 315. 133. 294. 238. 258. 1404.
      241. 812. 198. 636. 250. 498. 219. 757. 260. 930. 276. 565. 293.
      482. 173. 250. 235. 274. 175. 323. 164. 276. 182. 262. 251. 287.
      199. 252. 168. 195. 138. 283. 199. 244. 138. 502. 261. 352. 205.
      290. 244. 369. 162. 473. 222. 498. 194. 153. 222. 213. 94. 287.
      225. 298. 212. 128. 167. 160. 125. 191. 230. 232. 163. 192. 226.
      318. 234. 158. 191. 168. 161. 152. 336. 157. 223. 187. 214. 104.
      121. 201. 362. 223. 398. 162. 280. 121. 297. 234. 487. 239. 451.
      123. 234. 89. 258. 99. 210. 297. 330. 178. 327. 127. 320. 145.
      308. 261. 307. 217. 307. 201. 248. 229. 497. 475. 506. 255. 930.
      183. 766. 240. 541. 353. 467. 264. 842. 279. 831. 301. 126. 325.
      136. 319. 120. 276. 184. 413. 283. 464. 285. 383. 238. 398. 175.
      162. 109. 152. 103. 152. 116. 139. 138. 391. 245. 418. 171. 175.
      235. 216. 161. 308. 127. 408. 269. 1291. 274. 1055. 267. 399. 241.
      799. 473. 1056. 332. 1569. 332. 180. 205. 177. 132. 322. 276. 218.
      298. 295. 254. 247. 193. 410. 384. 505. 322.</_>
    <_>
      282. 295. 306. 357. 238. 223. 135. 153. 244. 354. 271. 364. 301.
      128. 157. 107. 360. 942. 390. 1029. 429. 449. 197. 303. 231. 788.
      240. 830. 244. 323. 134. 192. 116. 119. 160. 152. 157. 362. 127.
      294. 147. 163. 216. 151. 231. 156. 188. 173. 166. 312. 206. 361.
      212. 357. 192. 401. 84. 201. 134. 175. 147. 214. 169. 213. 1271.
      210. 817. 307. 892. 320. 648. 275. 1006. 273. 1191. 263. 682. 270.
      664. 197. 232. 195. 387. 317. 292. 160. 316. 210. 244. 233. 393.
      153. 221. 132. 236. 111. 370. 190. 277. 198. 423. 416. 496. 268.
      428. 177. 435. 183. 445. 219. 593. 178. 214. 215. 157. 123. 280.
      206. 344. 213. 183. 180. 164. 112. 216. 395. 270. 185. 198. 179.
      223. 208. 188. 140. 108. 153. 196. 422. 205. 225. 177. 183. 117.
      142. 152. 410. 208. 438. 107. 252. 107. 234. 214. 558. 218. 344.
      112. 217. 90. 225. 109. 129. 282. 210. 230. 322. 204. 272. 148.
      320. 262. 244. 278. 313. 358. 233. 148. 299. 436. 485. 284. 628.
      229. 519. 196. 394. 279. 312. 226. 537. 227. 529. 423. 165. 357.
      219. 391. 125. 356. 172. 630. 216. 665. 205. 473. 235. 499. 164.
      162. 143. 169. 120. 116. 127. 145. 157. 401. 281. 374. 167. 210.
      219. 212. 260. 311. 140. 395. 247. 843. 239. 690. 273. 413. 154.
      679. 304. 911. 401. 1671. 317. 128. 129. 134. 155. 259. 260. 338.
      243. 333. 187. 276. 235. 467. 391. 486. 318.</_>
    <_>
      291. 282. 619. 331. 196. 215. 150. 195. 246. 251. 298. 279. 256.
      162. 107. 142. 195. 474. 392. 498. 199. 250. 146. 243. 155. 339.
      222. 371. 227. 233. 99. 190. 109. 120. 229. 142. 152. 317. 146.
      277. 106. 138. 136. 108. 170. 139. 137. 167. 108. 284. 260. 320.
      121. 425. 186. 441. 59. 208. 123. 166. 116. 215. 126. 234. 2209.
      224. 1232. 338. 1059. 401. 802. 315. 1432. 326. 1536. 281. 1033.
      414. 724. 186. 243. 139. 366. 215. 368. 250. 366. 211. 347. 197.
      339. 158. 331. 210. 208. 122. 332. 124. 255. 111. 743. 252. 603.
      212. 379. 135. 387. 128. 723. 222. 789. 177. 160. 173. 173. 109.
      310. 161. 424. 173. 129. 138. 125. 67. 237. 203. 298. 157. 158.
      150. 200. 193. 132. 123. 80. 103. 121. 342. 244. 230. 170. 172.
      84. 95. 144. 437. 195. 374. 81. 193. 52. 141. 199. 515. 229. 326.
      85. 254. 79. 189. 142. 211. 249. 178. 156. 325. 151. 286. 133.
      266. 158. 249. 268. 262. 196. 218. 116. 551. 436. 572. 145. 1138.
      208. 578. 219. 463. 286. 372. 192. 603. 232. 471. 369. 117. 312.
      176. 304. 130. 290. 156. 711. 293. 693. 199. 572. 260. 661. 160.
      159. 107. 145. 62. 130. 111. 94. 130. 518. 275. 437. 128. 241.
      239. 210. 223. 261. 132. 474. 167. 817. 229. 878. 260. 451. 227.
      983. 271. 1446. 317. 2063. 255. 119. 139. 156. 132. 194. 189. 158.
      160. 238. 160. 278. 107. 362. 319. 434. 263.</_>
    <_>
      309. 338. 622. 360. 209. 207. 182. 204. 217. 276. 318. 292. 295.
      209. 131. 122. 177. 429. 428. 422. 270. 317. 181. 249. 172. 318.
      205. 336. 210. 316. 108. 195. 134. 153. 243. 209. 167. 391. 211.
      354. 99. 141. 174. 167. 224. 170. 146. 176. 120. 283. 294. 341.
      181. 364. 190. 450. 77. 198. 137. 195. 130. 261. 154. 256. 2074.
      260. 1106. 257. 923. 363. 657. 228. 1239. 325. 1271. 292. 1044.
      366. 521. 168. 206. 213. 377. 225. 337. 239. 452. 200. 269. 234.
      344. 168. 308. 224. 225. 149. 302. 170. 225. 140. 669. 346. 531.
      247. 343. 155. 333. 154. 644. 207. 564. 178. 132. 179. 172. 108.
      343. 222. 508. 195. 117. 176. 137. 88. 197. 197. 231. 136. 162.
      211. 245. 218. 137. 165. 96. 159. 175. 296. 220. 238. 179. 198.
      86. 93. 181. 383. 249. 299. 78. 251. 72. 190. 232. 465. 257. 321.
      119. 290. 73. 241. 132. 180. 238. 281. 194. 355. 155. 329. 112.
      239. 213. 273. 210. 294. 206. 244. 166. 615. 393. 671. 188. 1040.
      209. 549. 220. 613. 349. 591. 238. 685. 260. 594. 249. 101. 272.
      148. 262. 121. 234. 170. 520. 261. 613. 247. 541. 266. 442. 169.
      140. 134. 168. 107. 93. 112. 118. 135. 621. 246. 632. 170. 197.
      259. 186. 192. 210. 144. 403. 223. 828. 258. 721. 295. 467. 192.
      862. 266. 1261. 305. 1737. 273. 123. 132. 146. 114. 213. 245. 226.
      196. 247. 195. 254. 118. 370. 349. 372. 290.</_>
    <_>
      450. 238. 202. 241. 136. 117. 89. 108. 89. 199. 137. 187. 147.
      134. 88. 77. 251. 679. 225. 465. 236. 407. 156. 306. 117. 480.
      115. 522. 135. 260. 102. 156. 304. 113. 216. 151. 112. 192. 234.
      234. 118. 137. 176. 139. 232. 174. 222. 161. 121. 379. 199. 333.
      204. 449. 226. 466. 69. 247. 115. 245. 168. 266. 167. 365. 1138.
      139. 839. 152. 814. 160. 841. 185. 1071. 153. 1354. 115. 1084.
      227. 693. 121. 139. 310. 195. 221. 125. 99. 197. 150. 197. 188.
      267. 155. 182. 158. 180. 128. 341. 128. 263. 150. 618. 365. 595.
      351. 279. 141. 258. 118. 643. 333. 602. 233. 124. 179. 146. 146.
      279. 231. 413. 275. 109. 101. 132. 101. 214. 168. 254. 183. 156.
      168. 379. 199. 177. 139. 143. 126. 87. 201. 145. 209. 145. 156.
      75. 82. 149. 492. 184. 468. 95. 314. 75. 257. 125. 630. 175. 455.
      90. 312. 68. 221. 162. 194. 325. 276. 238. 333. 169. 340. 158.
      341. 313. 340. 396. 394. 328. 275. 206. 762. 409. 710. 222. 1296.
      188. 998. 208. 780. 317. 561. 340. 926. 318. 1009. 246. 64. 244.
      123. 321. 114. 290. 179. 574. 127. 675. 109. 529. 267. 425. 174.
      102. 99. 135. 125. 84. 99. 95. 117. 437. 132. 434. 138. 214. 226.
      172. 148. 310. 156. 312. 222. 867. 394. 673. 387. 455. 201. 517.
      249. 1332. 630. 1437. 483. 198. 192. 186. 186. 357. 354. 329. 369.
      320. 227. 344. 172. 702. 554. 792. 511.</_>
    <_>
      383. 248. 430. 313. 254. 212. 191. 153. 270. 233. 315. 288. 352.
      194. 156. 87. 204. 575. 326. 804. 392. 330. 217. 283. 176. 629.
      256. 875. 228. 219. 108. 127. 74. 127. 177. 150. 124. 236. 131.
      208. 109. 128. 209. 143. 244. 148. 173. 153. 70. 253. 248. 241.
      185. 355. 197. 411. 66. 213. 168. 182. 123. 229. 147. 177. 1644.
      286. 1218. 309. 1059. 281. 705. 281. 1059. 339. 1444. 286. 1134.
      308. 733. 186. 228. 186. 425. 269. 423. 243. 511. 265. 277. 211.
      474. 212. 332. 188. 295. 145. 310. 173. 266. 171. 546. 223. 453.
      222. 286. 168. 337. 156. 633. 172. 452. 143. 161. 164. 172. 120.
      280. 186. 427. 188. 132. 157. 189. 138. 197. 285. 182. 128. 209.
      150. 228. 188. 124. 121. 74. 117. 200. 333. 222. 270. 222. 171.
      89. 85. 132. 353. 184. 338. 97. 228. 89. 222. 156. 477. 200. 328.
      90. 266. 76. 166. 113. 161. 299. 195. 156. 249. 163. 264. 195.
      261. 264. 282. 339. 270. 202. 229. 126. 789. 423. 740. 153. 1156.
      165. 904. 189. 634. 297. 440. 214. 806. 194. 683. 300. 114. 363.
      264. 304. 132. 210. 158. 588. 265. 627. 303. 519. 251. 375. 128.
      148. 105. 147. 126. 100. 135. 110. 135. 445. 220. 460. 125. 218.
      228. 178. 163. 266. 116. 483. 284. 871. 176. 688. 240. 527. 188.
      776. 352. 1225. 314. 1359. 329. 116. 176. 177. 116. 180. 194. 170.
      223. 238. 214. 245. 131. 311. 359. 364. 288.</_>
    <_>
      333. 266. 411. 227. 196. 241. 120. 155. 258. 258. 238. 269. 269.
      144. 87. 116. 255. 1001. 260. 1051. 310. 372. 200. 345. 193. 682.
      215. 989. 243. 282. 132. 194. 87. 142. 165. 142. 117. 204. 141.
      211. 123. 173. 221. 164. 197. 144. 174. 171. 99. 399. 177. 326.
      177. 483. 201. 434. 77. 296. 170. 285. 89. 296. 159. 336. 1375.
      258. 1043. 334. 885. 260. 658. 247. 934. 307. 1144. 214. 862. 238.
      570. 139. 249. 172. 382. 268. 328. 163. 371. 232. 288. 200. 383.
      179. 270. 178. 274. 186. 272. 189. 273. 169. 481. 248. 368. 250.
      300. 177. 361. 180. 605. 191. 442. 166. 140. 165. 150. 118. 225.
      179. 232. 140. 162. 170. 219. 143. 177. 194. 230. 179. 221. 228.
      198. 178. 200. 164. 126. 137. 178. 281. 180. 175. 203. 202. 97.
      111. 126. 528. 162. 415. 103. 291. 98. 258. 160. 465. 163. 346.
      78. 300. 86. 234. 202. 181. 260. 246. 189. 267. 219. 327. 165.
      203. 221. 207. 264. 338. 251. 306. 180. 718. 341. 696. 191. 1378.
      256. 946. 238. 640. 281. 538. 261. 1024. 268. 998. 321. 128. 397.
      186. 315. 115. 272. 192. 562. 194. 613. 229. 487. 214. 389. 171.
      102. 97. 148. 107. 107. 124. 105. 120. 381. 159. 345. 121. 187.
      206. 155. 143. 292. 136. 396. 202. 878. 227. 619. 378. 448. 156.
      696. 208. 1135. 290. 1249. 383. 171. 179. 121. 126. 244. 295. 267.
      295. 227. 219. 252. 124. 407. 459. 424. 435.</_>
    <_>
      439. 228. 270. 248. 246. 165. 121. 125. 194. 312. 220. 244. 313.
      217. 107. 89. 245. 925. 299. 891. 384. 438. 226. 345. 150. 590.
      180. 673. 230. 276. 124. 194. 152. 117. 166. 145. 164. 202. 135.
      180. 149. 189. 235. 218. 227. 169. 255. 176. 142. 443. 211. 361.
      249. 391. 216. 442. 87. 300. 168. 327. 155. 243. 222. 304. 1187.
      143. 917. 234. 687. 161. 491. 187. 835. 220. 920. 232. 644. 256.
      515. 191. 178. 184. 271. 214. 234. 173. 337. 241. 209. 230. 291.
      179. 203. 161. 220. 168. 379. 200. 255. 190. 456. 266. 426. 254.
      334. 198. 285. 187. 537. 243. 529. 154. 217. 206. 152. 145. 288.
      227. 498. 212. 142. 158. 157. 161. 226. 165. 277. 158. 258. 222.
      234. 225. 217. 164. 97. 138. 171. 309. 178. 226. 222. 174. 98.
      131. 204. 673. 177. 619. 138. 305. 109. 311. 180. 639. 219. 543.
      131. 291. 92. 235. 183. 182. 150. 189. 235. 301. 126. 250. 189.
      245. 281. 254. 297. 286. 235. 219. 209. 696. 264. 517. 230. 1736.
      187. 988. 214. 512. 300. 407. 261. 886. 236. 996. 219. 91. 280.
      178. 357. 143. 283. 281. 387. 185. 509. 278. 447. 275. 410. 179.
      119. 91. 112. 127. 128. 149. 135. 152. 326. 224. 366. 171. 173.
      199. 186. 169. 357. 149. 408. 303. 919. 240. 691. 391. 485. 208.
      669. 287. 1234. 374. 1437. 410. 184. 159. 143. 145. 307. 239. 325.
      248. 259. 246. 259. 149. 466. 315. 480. 351.</_>
    <_>
      3184. 318. 308. 312. 187. 210. 130. 126. 171. 237. 180. 259. 190.
      144. 111. 115. 327. 597. 222. 634. 412. 554. 183. 313. 219. 713.
      201. 890. 313. 379. 160. 276. 643. 169. 189. 183. 143. 300. 210.
      225. 187. 174. 111. 156. 134. 165. 137. 158. 165. 360. 212. 254.
      252. 461. 240. 401. 143. 255. 161. 243. 193. 269. 151. 260. 1448.
      211. 833. 271. 991. 254. 655. 234. 998. 230. 1121. 160. 831. 388.
      542. 152. 295. 279. 240. 191. 191. 141. 392. 226. 292. 176. 284.
      188. 267. 164. 272. 255. 255. 141. 248. 114. 343. 231. 590. 180.
      248. 152. 281. 157. 409. 243. 513. 219. 132. 119. 150. 140. 270.
      168. 406. 196. 130. 117. 192. 209. 186. 214. 275. 363. 229. 196.
      570. 220. 209. 216. 146. 172. 124. 241. 138. 272. 145. 161. 111.
      143. 150. 361. 164. 407. 146. 255. 82. 208. 215. 530. 345. 608.
      151. 215. 85. 256. 229. 234. 138. 238. 386. 408. 162. 239. 154.
      247. 187. 300. 242. 318. 193. 271. 201. 389. 388. 479. 278. 1154.
      200. 654. 206. 404. 313. 354. 280. 724. 247. 909. 264. 123. 229.
      173. 317. 149. 231. 206. 506. 144. 491. 163. 273. 284. 318. 168.
      93. 91. 130. 124. 114. 94. 132. 171. 386. 142. 409. 145. 102. 137.
      174. 179. 312. 130. 330. 286. 742. 277. 439. 311. 466. 195. 529.
      408. 711. 359. 1011. 326. 184. 169. 230. 295. 276. 214. 215. 238.
      221. 157. 244. 231. 314. 307. 356. 416.</_>
    <_>
      595. 279. 258. 251. 187. 167. 86. 173. 211. 242. 145. 271. 159.
      134. 100. 125. 295. 778. 237. 902. 437. 635. 182. 373. 206. 762.
      203. 893. 232. 433. 111. 293. 243. 177. 117. 174. 151. 315. 107.
      249. 180. 171. 180. 209. 173. 191. 173. 190. 171. 390. 193. 297.
      298. 546. 242. 420. 166. 265. 144. 364. 219. 329. 204. 388. 1704.
      166. 886. 153. 944. 196. 602. 141. 1258. 189. 1371. 171. 867. 257.
      532. 114. 214. 219. 203. 171. 162. 151. 274. 227. 222. 168. 283.
      177. 183. 112. 221. 152. 303. 129. 238. 164. 448. 245. 353. 168.
      294. 181. 309. 136. 488. 220. 447. 147. 161. 125. 132. 176. 252.
      176. 351. 242. 137. 149. 184. 170. 198. 129. 253. 179. 170. 186.
      294. 224. 185. 192. 125. 147. 129. 234. 149. 238. 122. 161. 107.
      195. 224. 559. 210. 427. 163. 331. 89. 273. 276. 561. 230. 542.
      159. 255. 99. 373. 205. 222. 145. 269. 245. 388. 154. 324. 151.
      232. 226. 299. 282. 338. 219. 355. 212. 560. 207. 468. 371. 1306.
      238. 926. 255. 494. 303. 568. 343. 888. 296. 1200. 180. 109. 230.
      142. 304. 128. 356. 244. 359. 164. 576. 181. 336. 210. 330. 178.
      105. 100. 117. 140. 109. 118. 107. 175. 354. 158. 484. 158. 125.
      126. 154. 223. 287. 155. 336. 284. 825. 263. 545. 335. 348. 194.
      557. 419. 830. 378. 1262. 377. 186. 206. 191. 277. 286. 272. 257.
      302. 210. 186. 218. 196. 312. 329. 493. 421.</_>
    <_>
      417. 384. 485. 327. 291. 264. 159. 208. 199. 332. 257. 321. 207.
      187. 100. 106. 284. 864. 365. 1020. 423. 381. 206. 339. 195. 684.
      238. 799. 198. 354. 130. 212. 177. 237. 223. 159. 127. 401. 144.
      385. 97. 202. 151. 199. 133. 193. 162. 213. 126. 347. 237. 288.
      158. 443. 247. 443. 88. 259. 156. 258. 99. 270. 171. 285. 1816.
      276. 870. 220. 814. 265. 608. 209. 1102. 233. 1107. 257. 755. 192.
      635. 153. 203. 184. 297. 193. 272. 206. 313. 200. 281. 228. 391.
      174. 182. 146. 169. 95. 380. 161. 236. 110. 533. 286. 457. 218.
      352. 211. 299. 127. 568. 245. 502. 150. 163. 151. 124. 80. 253.
      239. 250. 191. 133. 158. 153. 120. 160. 344. 191. 138. 146. 216.
      181. 186. 175. 222. 96. 152. 154. 250. 187. 201. 142. 154. 109.
      138. 133. 423. 207. 370. 115. 317. 94. 272. 257. 467. 309. 429.
      96. 296. 106. 298. 115. 205. 181. 272. 190. 333. 161. 279. 118.
      204. 238. 265. 211. 254. 244. 278. 178. 443. 346. 496. 217. 1091.
      166. 793. 210. 454. 426. 551. 239. 792. 200. 1064. 261. 110. 213.
      108. 322. 133. 290. 174. 449. 194. 598. 233. 474. 177. 468. 161.
      116. 87. 121. 98. 98. 121. 93. 130. 562. 234. 494. 202. 175. 161.
      180. 261. 296. 143. 309. 207. 964. 275. 790. 358. 383. 174. 500.
      189. 1148. 378. 1788. 328. 151. 142. 130. 138. 280. 250. 215. 218.
      330. 232. 266. 168. 421. 419. 421. 436.</_>
    <_>
      495. 527. 401. 443. 301. 319. 138. 189. 242. 409. 321. 313. 254.
      282. 185. 116. 462. 1121. 465. 1089. 460. 518. 254. 481. 197. 777.
      271. 993. 301. 460. 150. 295. 126. 195. 153. 235. 117. 227. 108.
      253. 134. 234. 244. 272. 202. 197. 210. 190. 183. 540. 167. 272.
      226. 447. 203. 386. 115. 305. 175. 346. 163. 278. 227. 303. 1564.
      235. 964. 246. 664. 240. 583. 196. 1031. 335. 1183. 273. 934. 337.
      665. 175. 261. 199. 414. 253. 222. 175. 356. 207. 275. 318. 471.
      249. 244. 194. 203. 162. 323. 220. 223. 180. 487. 211. 389. 193.
      259. 206. 326. 118. 463. 157. 467. 93. 197. 272. 147. 108. 245.
      190. 245. 156. 108. 296. 183. 102. 154. 372. 181. 109. 249. 289.
      216. 283. 154. 229. 88. 192. 178. 228. 216. 189. 152. 188. 72.
      132. 240. 583. 237. 501. 120. 350. 79. 318. 239. 594. 293. 431.
      132. 270. 81. 227. 128. 156. 162. 252. 146. 204. 214. 254. 108.
      148. 214. 216. 166. 168. 264. 208. 176. 428. 223. 495. 172. 921.
      143. 618. 221. 496. 266. 444. 255. 566. 243. 889. 277. 90. 313.
      181. 282. 136. 272. 197. 455. 198. 631. 157. 326. 227. 497. 164.
      161. 124. 154. 133. 105. 95. 93. 218. 336. 209. 519. 154. 187.
      220. 150. 383. 230. 132. 331. 278. 872. 157. 709. 291. 345. 140.
      721. 219. 851. 165. 1188. 208. 181. 170. 95. 139. 205. 186. 167.
      180. 204. 214. 222. 106. 281. 306. 264. 215.</_>
    <_>
      519. 544. 383. 437. 234. 256. 160. 175. 289. 341. 256. 299. 251.
      220. 137. 140. 408. 1166. 424. 1117. 326. 477. 213. 423. 264. 748.
      273. 780. 247. 342. 147. 302. 150. 165. 161. 204. 136. 202. 102.
      189. 121. 190. 194. 232. 208. 171. 202. 200. 185. 488. 240. 327.
      195. 415. 193. 412. 101. 285. 157. 299. 165. 251. 203. 318. 1479.
      248. 1024. 281. 736. 240. 612. 204. 969. 313. 1060. 257. 882. 284.
      613. 185. 237. 217. 295. 217. 271. 152. 328. 209. 303. 263. 410.
      231. 279. 155. 238. 190. 287. 154. 236. 134. 441. 205. 344. 175.
      349. 180. 407. 153. 480. 156. 506. 124. 192. 221. 158. 122. 282.
      154. 250. 153. 110. 202. 238. 133. 211. 354. 211. 118. 272. 301.
      214. 247. 230. 185. 131. 189. 182. 227. 167. 153. 147. 202. 84.
      103. 203. 659. 195. 534. 117. 385. 92. 320. 182. 552. 252. 409.
      127. 244. 70. 209. 179. 175. 186. 238. 176. 209. 163. 239. 128.
      193. 228. 240. 192. 204. 233. 216. 188. 473. 237. 625. 183. 817.
      102. 633. 213. 562. 321. 450. 229. 595. 185. 733. 266. 106. 249.
      180. 319. 137. 300. 216. 423. 203. 572. 179. 427. 230. 433. 130.
      130. 111. 143. 122. 107. 80. 110. 174. 284. 185. 383. 148. 215.
      222. 136. 315. 270. 131. 347. 242. 1192. 178. 944. 367. 339. 190.
      807. 197. 1389. 203. 1658. 298. 178. 133. 154. 97. 245. 172. 164.
      198. 181. 239. 209. 98. 397. 294. 328. 216.</_>
    <_>
      362. 332. 266. 334. 213. 200. 175. 225. 213. 198. 244. 230. 235.
      164. 149. 216. 363. 766. 257. 434. 315. 275. 174. 279. 226. 454.
      235. 624. 207. 216. 131. 275. 199. 223. 163. 176. 184. 433. 203.
      406. 173. 156. 205. 182. 260. 166. 220. 230. 192. 620. 160. 267.
      242. 527. 234. 389. 169. 295. 175. 200. 238. 247. 167. 351. 1446.
      230. 880. 266. 831. 235. 667. 242. 956. 245. 1296. 221. 705. 246.
      525. 204. 245. 192. 264. 220. 227. 148. 273. 204. 266. 130. 350.
      175. 216. 149. 238. 193. 423. 189. 236. 215. 416. 261. 434. 249.
      347. 207. 371. 137. 455. 230. 443. 220. 194. 177. 176. 166. 284.
      160. 498. 204. 180. 205. 210. 136. 220. 236. 284. 243. 229. 210.
      173. 155. 231. 204. 143. 186. 172. 295. 196. 267. 200. 182. 146.
      198. 213. 591. 185. 401. 125. 307. 106. 300. 275. 445. 361. 548.
      142. 198. 150. 435. 216. 204. 191. 218. 254. 322. 170. 284. 162.
      253. 195. 218. 322. 312. 258. 297. 194. 456. 298. 417. 211. 1069.
      225. 703. 217. 334. 315. 363. 258. 561. 234. 875. 337. 185. 326.
      178. 361. 165. 346. 214. 426. 181. 468. 225. 403. 210. 396. 208.
      171. 131. 169. 141. 122. 108. 150. 182. 554. 225. 454. 227. 188.
      230. 210. 277. 340. 169. 386. 260. 750. 280. 584. 334. 458. 224.
      691. 328. 910. 356. 1063. 438. 192. 156. 179. 160. 255. 222. 295.
      234. 305. 209. 316. 181. 319. 439. 460. 434.</_>
    <_>
      378. 328. 492. 317. 246. 236. 192. 187. 292. 350. 306. 370. 204.
      169. 144. 103. 349. 939. 364. 908. 381. 428. 257. 392. 283. 704.
      248. 822. 241. 354. 112. 325. 135. 154. 167. 164. 154. 316. 166.
      230. 135. 156. 197. 191. 188. 159. 203. 219. 165. 397. 192. 326.
      258. 449. 221. 362. 98. 297. 133. 310. 149. 320. 221. 400. 1226.
      241. 910. 290. 696. 294. 599. 210. 852. 252. 977. 240. 722. 239.
      593. 183. 292. 212. 368. 202. 211. 186. 245. 182. 265. 268. 382.
      220. 241. 188. 270. 181. 375. 159. 263. 159. 489. 205. 376. 205.
      340. 162. 391. 154. 528. 165. 522. 157. 210. 224. 145. 147. 245.
      207. 238. 208. 164. 197. 232. 183. 213. 198. 231. 202. 243. 233.
      197. 240. 200. 218. 126. 167. 142. 305. 166. 220. 177. 212. 108.
      142. 174. 444. 179. 467. 154. 325. 103. 291. 195. 438. 228. 455.
      114. 255. 102. 285. 239. 224. 225. 255. 258. 259. 215. 266. 140.
      264. 217. 295. 262. 268. 181. 265. 207. 542. 280. 539. 230. 852.
      173. 780. 213. 503. 304. 493. 272. 721. 255. 862. 349. 144. 295.
      181. 347. 160. 307. 164. 459. 172. 469. 167. 476. 238. 483. 177.
      136. 108. 167. 125. 134. 151. 129. 181. 411. 229. 369. 133. 204.
      256. 210. 248. 316. 133. 390. 301. 808. 198. 700. 319. 399. 166.
      646. 229. 955. 301. 1107. 297. 180. 197. 173. 196. 286. 313. 246.
      289. 243. 229. 281. 227. 321. 442. 412. 373.</_>
    <_>
      367. 349. 484. 364. 232. 256. 193. 180. 276. 324. 303. 359. 198.
      173. 156. 109. 344. 900. 401. 824. 354. 400. 266. 374. 316. 655.
      215. 881. 240. 342. 116. 348. 150. 157. 175. 175. 151. 302. 136.
      229. 160. 177. 238. 224. 180. 149. 196. 213. 180. 389. 211. 350.
      254. 452. 217. 368. 125. 273. 151. 311. 192. 319. 223. 396. 1125.
      250. 859. 296. 699. 299. 546. 230. 812. 238. 868. 247. 776. 265.
      607. 193. 275. 221. 359. 207. 182. 166. 270. 214. 273. 256. 375.
      237. 258. 179. 276. 184. 393. 177. 262. 169. 448. 193. 394. 187.
      336. 157. 392. 168. 494. 170. 524. 189. 219. 222. 151. 152. 246.
      184. 251. 214. 185. 226. 218. 180. 219. 199. 248. 242. 237. 258.
      208. 215. 207. 230. 146. 170. 139. 294. 164. 217. 181. 208. 89.
      144. 191. 481. 205. 483. 169. 286. 115. 283. 196. 474. 217. 457.
      108. 290. 115. 281. 260. 243. 227. 240. 262. 260. 226. 257. 128.
      267. 221. 298. 249. 271. 177. 225. 225. 574. 262. 545. 239. 875.
      160. 728. 210. 468. 298. 459. 271. 702. 260. 817. 378. 141. 303.
      185. 382. 172. 293. 200. 462. 181. 478. 171. 415. 272. 509. 193.
      167. 121. 144. 128. 144. 146. 142. 169. 400. 202. 368. 129. 215.
      300. 204. 238. 363. 148. 411. 287. 796. 209. 691. 304. 395. 189.
      673. 202. 910. 309. 1090. 302. 165. 195. 152. 199. 268. 270. 248.
      268. 253. 242. 265. 237. 298. 414. 400. 360.</_>
    <_>
      430. 263. 247. 197. 193. 226. 137. 250. 182. 227. 213. 261. 191.
      191. 150. 190. 357. 809. 229. 458. 344. 388. 167. 307. 208. 483.
      239. 860. 226. 242. 116. 277. 256. 206. 139. 186. 220. 413. 217.
      440. 158. 139. 192. 167. 177. 190. 213. 255. 192. 546. 190. 217.
      228. 543. 241. 503. 176. 235. 150. 264. 150. 226. 178. 355. 1321.
      184. 858. 210. 847. 249. 646. 235. 910. 205. 1156. 196. 696. 205.
      579. 179. 235. 188. 233. 194. 210. 139. 250. 175. 230. 185. 349.
      173. 190. 138. 192. 177. 446. 170. 265. 159. 366. 275. 376. 278.
      312. 211. 369. 166. 405. 253. 441. 188. 208. 176. 170. 136. 215.
      208. 475. 193. 197. 189. 193. 127. 152. 222. 201. 204. 250. 203.
      179. 157. 227. 179. 145. 208. 179. 299. 153. 211. 166. 227. 110.
      221. 182. 580. 166. 358. 154. 284. 115. 347. 219. 376. 342. 558.
      123. 219. 139. 421. 153. 232. 135. 231. 250. 390. 159. 319. 127.
      241. 197. 279. 286. 294. 201. 290. 179. 464. 268. 482. 300. 1300.
      206. 865. 259. 412. 299. 548. 286. 688. 260. 980. 377. 143. 321.
      183. 408. 135. 331. 217. 492. 203. 554. 184. 382. 215. 378. 156.
      193. 135. 139. 135. 103. 141. 136. 151. 538. 260. 544. 199. 190.
      213. 215. 210. 319. 141. 401. 298. 802. 243. 581. 322. 401. 188.
      695. 413. 943. 387. 1132. 427. 197. 174. 198. 157. 258. 209. 303.
      288. 324. 189. 359. 236. 378. 386. 476. 417.</_>
    <_>
      413. 286. 256. 223. 230. 208. 163. 222. 180. 244. 200. 266. 189.
      176. 143. 198. 351. 814. 248. 464. 312. 425. 160. 309. 213. 526.
      245. 838. 225. 248. 113. 294. 262. 205. 157. 176. 253. 391. 204.
      449. 181. 134. 185. 185. 176. 189. 192. 233. 204. 564. 176. 226.
      258. 552. 240. 524. 156. 207. 150. 242. 148. 229. 171. 359. 1384.
      209. 948. 222. 875. 256. 667. 224. 929. 188. 1152. 194. 686. 207.
      570. 181. 238. 197. 232. 211. 190. 165. 265. 170. 254. 180. 350.
      186. 185. 129. 230. 152. 425. 161. 262. 158. 416. 310. 396. 262.
      351. 173. 372. 176. 421. 250. 434. 165. 198. 173. 166. 142. 199.
      192. 491. 186. 178. 205. 216. 133. 171. 221. 204. 193. 237. 192.
      185. 168. 203. 194. 141. 238. 162. 250. 169. 232. 158. 200. 99.
      223. 185. 621. 174. 370. 142. 261. 117. 326. 259. 382. 335. 562.
      133. 195. 142. 409. 131. 225. 144. 231. 255. 398. 163. 310. 140.
      232. 184. 289. 274. 276. 199. 294. 155. 479. 246. 450. 287. 1313.
      201. 834. 230. 417. 296. 527. 276. 687. 242. 1009. 361. 152. 312.
      167. 413. 122. 327. 206. 529. 221. 559. 185. 360. 221. 403. 168.
      199. 113. 137. 127. 115. 118. 129. 191. 566. 236. 492. 184. 191.
      201. 206. 236. 316. 146. 390. 283. 804. 215. 584. 317. 415. 177.
      701. 392. 910. 372. 1109. 416. 194. 168. 204. 148. 225. 218. 294.
      271. 339. 197. 324. 214. 386. 387. 492. 401.</_>
    <_>
      396. 289. 244. 220. 191. 216. 161. 236. 172. 252. 217. 297. 194.
      143. 137. 180. 374. 838. 260. 512. 344. 431. 146. 289. 198. 499.
      245. 850. 220. 263. 115. 285. 240. 209. 140. 185. 259. 398. 209.
      438. 163. 134. 171. 166. 177. 183. 192. 248. 200. 557. 179. 217.
      246. 547. 241. 483. 142. 231. 155. 246. 146. 202. 159. 331. 1416.
      218. 900. 252. 877. 262. 681. 233. 943. 198. 1087. 200. 701. 191.
      576. 183. 243. 210. 256. 220. 183. 162. 259. 175. 250. 175. 372.
      167. 187. 132. 229. 154. 415. 151. 263. 154. 387. 319. 376. 251.
      318. 179. 366. 171. 424. 266. 411. 185. 202. 165. 170. 150. 225.
      169. 479. 209. 198. 195. 198. 126. 166. 235. 197. 181. 249. 214.
      167. 158. 207. 198. 138. 218. 159. 241. 161. 239. 183. 206. 99.
      212. 182. 587. 152. 342. 158. 254. 100. 330. 264. 371. 320. 554.
      119. 211. 140. 426. 131. 229. 142. 225. 226. 408. 177. 340. 133.
      228. 198. 281. 286. 279. 215. 316. 158. 464. 251. 461. 278. 1245.
      212. 901. 238. 395. 279. 526. 312. 689. 249. 1018. 349. 144. 334.
      164. 401. 131. 348. 191. 562. 228. 557. 185. 347. 206. 391. 167.
      193. 122. 151. 135. 124. 127. 106. 183. 570. 208. 529. 181. 192.
      226. 216. 231. 317. 120. 375. 277. 786. 249. 582. 344. 412. 189.
      714. 418. 931. 408. 1055. 427. 199. 175. 213. 153. 228. 214. 314.
      264. 323. 213. 336. 210. 358. 405. 491. 451.</_>
    <_>
      362. 333. 507. 354. 216. 228. 175. 210. 281. 324. 292. 329. 180.
      156. 148. 131. 375. 968. 406. 916. 374. 412. 262. 376. 263. 661.
      244. 873. 239. 366. 112. 356. 123. 158. 175. 184. 175. 297. 130.
      213. 145. 177. 205. 205. 187. 165. 214. 222. 185. 381. 207. 330.
      254. 453. 216. 370. 115. 272. 147. 328. 180. 322. 227. 360. 1161.
      242. 859. 272. 667. 302. 566. 233. 824. 240. 892. 259. 760. 246.
      591. 215. 260. 214. 316. 189. 190. 191. 288. 184. 278. 259. 370.
      208. 234. 192. 289. 176. 387. 159. 291. 169. 478. 199. 365. 186.
      317. 171. 414. 166. 450. 188. 535. 175. 204. 216. 176. 137. 263.
      195. 241. 218. 183. 224. 213. 184. 213. 185. 279. 234. 264. 237.
      198. 232. 216. 225. 142. 159. 138. 313. 185. 211. 162. 226. 118.
      127. 186. 486. 194. 438. 167. 264. 137. 260. 196. 532. 220. 468.
      108. 281. 98. 275. 260. 222. 227. 251. 258. 265. 216. 235. 114.
      269. 216. 251. 248. 296. 162. 244. 182. 562. 276. 529. 233. 902.
      173. 740. 229. 467. 276. 488. 261. 727. 246. 851. 363. 160. 319.
      188. 355. 168. 313. 178. 456. 196. 434. 157. 467. 247. 456. 211.
      157. 111. 146. 135. 148. 154. 145. 182. 405. 197. 368. 134. 208.
      287. 198. 242. 349. 139. 429. 316. 807. 199. 697. 298. 392. 184.
      655. 232. 952. 327. 1108. 306. 177. 202. 142. 203. 286. 269. 247.
      293. 264. 264. 253. 222. 298. 395. 386. 352.</_>
    <_>
      382. 354. 491. 338. 210. 226. 193. 197. 318. 301. 310. 336. 198.
      164. 146. 148. 335. 970. 376. 912. 396. 438. 261. 372. 275. 696.
      242. 877. 237. 365. 126. 305. 137. 167. 179. 180. 181. 301. 144.
      227. 135. 163. 210. 213. 180. 147. 192. 228. 186. 388. 190. 310.
      247. 482. 214. 360. 109. 281. 164. 310. 178. 327. 225. 390. 1196.
      247. 856. 285. 677. 278. 567. 226. 786. 250. 915. 249. 729. 248.
      579. 202. 265. 239. 316. 187. 180. 177. 300. 175. 264. 240. 364.
      207. 257. 173. 267. 179. 396. 177. 269. 167. 471. 181. 355. 194.
      337. 175. 421. 153. 499. 184. 529. 177. 205. 209. 147. 141. 266.
      174. 246. 215. 182. 233. 212. 187. 216. 190. 274. 241. 252. 234.
      196. 226. 218. 200. 147. 153. 144. 277. 201. 225. 167. 222. 106.
      132. 199. 478. 215. 441. 157. 286. 128. 291. 192. 491. 207. 526.
      111. 294. 85. 275. 245. 230. 216. 236. 239. 284. 189. 250. 105.
      262. 255. 266. 237. 279. 167. 238. 177. 561. 299. 505. 244. 899.
      184. 734. 232. 509. 258. 471. 268. 742. 242. 874. 373. 137. 286.
      178. 377. 164. 322. 180. 461. 186. 444. 176. 459. 246. 479. 211.
      126. 137. 143. 141. 131. 150. 142. 181. 418. 203. 375. 141. 202.
      265. 199. 239. 340. 134. 399. 293. 831. 209. 720. 328. 400. 167.
      625. 231. 945. 356. 1136. 287. 166. 228. 135. 197. 291. 251. 256.
      308. 266. 240. 256. 223. 305. 391. 367. 331.</_>
    <_>
      386. 400. 413. 318. 215. 246. 156. 198. 244. 282. 263. 369. 185.
      188. 129. 123. 346. 1053. 377. 959. 389. 427. 274. 360. 289. 680.
      236. 915. 227. 397. 114. 313. 170. 188. 188. 157. 154. 276. 155.
      232. 134. 155. 176. 197. 184. 156. 175. 233. 191. 394. 216. 289.
      220. 523. 209. 428. 121. 276. 139. 285. 162. 267. 190. 323. 1454.
      286. 917. 226. 836. 264. 530. 180. 845. 284. 979. 243. 710. 232.
      604. 194. 239. 183. 294. 160. 178. 186. 252. 180. 300. 220. 362.
      166. 234. 173. 225. 160. 304. 145. 253. 185. 452. 208. 403. 157.
      338. 171. 383. 160. 539. 179. 633. 187. 199. 202. 144. 142. 244.
      193. 266. 206. 193. 210. 185. 164. 208. 259. 287. 203. 237. 308.
      199. 194. 207. 184. 138. 155. 133. 244. 170. 250. 153. 203. 116.
      170. 225. 474. 202. 407. 127. 300. 111. 290. 212. 467. 219. 434.
      115. 258. 111. 313. 192. 223. 184. 223. 192. 317. 178. 220. 134.
      253. 190. 242. 242. 304. 200. 262. 188. 566. 342. 510. 232. 865.
      177. 772. 180. 523. 247. 508. 321. 723. 260. 953. 336. 144. 299.
      165. 383. 144. 341. 169. 475. 193. 444. 151. 441. 211. 525. 187.
      136. 118. 147. 141. 134. 151. 149. 140. 420. 208. 322. 154. 177.
      246. 191. 272. 314. 146. 437. 254. 903. 204. 716. 365. 442. 189.
      693. 197. 1046. 290. 1227. 320. 153. 173. 106. 167. 284. 263. 271.
      281. 236. 254. 271. 153. 308. 417. 461. 364.</_>
    <_>
      434. 389. 348. 327. 211. 300. 146. 207. 302. 338. 216. 346. 147.
      181. 121. 135. 314. 997. 376. 920. 436. 561. 223. 372. 280. 727.
      220. 910. 273. 461. 127. 413. 183. 179. 172. 176. 165. 263. 150.
      256. 153. 177. 211. 236. 161. 157. 191. 178. 208. 450. 221. 302.
      236. 439. 242. 356. 136. 340. 142. 414. 215. 282. 193. 319. 1607.
      261. 854. 194. 822. 245. 454. 179. 995. 257. 935. 206. 743. 202.
      583. 134. 219. 222. 277. 185. 173. 143. 246. 191. 255. 214. 368.
      239. 183. 147. 181. 155. 343. 146. 229. 141. 428. 181. 341. 150.
      386. 179. 409. 150. 495. 157. 483. 152. 173. 241. 140. 140. 227.
      211. 277. 186. 123. 160. 199. 186. 177. 288. 225. 203. 242. 219.
      234. 221. 254. 222. 161. 210. 129. 231. 192. 223. 136. 168. 109.
      144. 189. 470. 190. 445. 152. 379. 104. 306. 174. 453. 255. 516.
      132. 247. 96. 304. 193. 219. 185. 231. 211. 300. 164. 287. 115.
      261. 217. 259. 221. 267. 253. 245. 181. 548. 320. 538. 216. 890.
      136. 795. 166. 598. 269. 548. 266. 574. 273. 1070. 296. 111. 257.
      159. 373. 129. 270. 207. 445. 163. 551. 150. 471. 197. 482. 201.
      100. 114. 112. 121. 108. 135. 99. 162. 400. 180. 489. 150. 114.
      187. 182. 253. 287. 121. 363. 221. 1097. 215. 837. 357. 384. 174.
      756. 203. 1094. 284. 1239. 313. 144. 201. 111. 181. 286. 265. 170.
      318. 210. 219. 219. 187. 353. 420. 453. 371.</_>
    <_>
      407. 372. 380. 349. 212. 277. 133. 234. 271. 344. 228. 359. 178.
      190. 135. 148. 330. 1016. 374. 1006. 447. 493. 221. 400. 286. 774.
      236. 906. 284. 458. 108. 416. 182. 206. 172. 157. 172. 275. 164.
      239. 144. 174. 227. 227. 159. 168. 179. 181. 205. 471. 211. 278.
      232. 451. 232. 345. 138. 361. 140. 409. 193. 303. 198. 318. 1541.
      230. 795. 179. 856. 243. 424. 198. 983. 270. 872. 207. 755. 214.
      592. 125. 233. 210. 295. 186. 172. 144. 255. 183. 241. 199. 387.
      228. 181. 139. 154. 148. 372. 164. 199. 160. 475. 178. 366. 146.
      345. 162. 408. 153. 529. 145. 503. 142. 157. 214. 161. 150. 236.
      208. 262. 201. 133. 199. 183. 194. 198. 257. 239. 191. 235. 251.
      230. 232. 272. 195. 147. 183. 117. 264. 186. 183. 135. 152. 121.
      142. 175. 484. 204. 454. 144. 409. 105. 298. 190. 451. 254. 487.
      140. 275. 110. 353. 181. 225. 183. 215. 204. 282. 185. 303. 117.
      271. 207. 285. 237. 246. 235. 264. 179. 551. 316. 546. 220. 891.
      137. 746. 166. 562. 239. 540. 281. 579. 272. 1080. 282. 129. 267.
      158. 332. 120. 301. 186. 445. 166. 555. 160. 434. 189. 458. 184.
      102. 121. 121. 116. 98. 152. 96. 180. 421. 193. 486. 151. 127.
      187. 179. 234. 278. 134. 385. 218. 1093. 189. 773. 381. 370. 174.
      771. 195. 1083. 321. 1241. 294. 165. 196. 111. 215. 264. 278. 185.
      292. 201. 203. 235. 190. 313. 397. 419. 431.</_>
    <_>
      409. 383. 370. 361. 221. 279. 148. 228. 273. 347. 233. 343. 169.
      179. 122. 139. 330. 988. 388. 976. 439. 525. 244. 387. 296. 762.
      226. 906. 287. 448. 131. 393. 162. 190. 162. 175. 159. 263. 170.
      223. 169. 189. 189. 231. 153. 168. 193. 164. 211. 459. 213. 305.
      238. 470. 221. 384. 113. 347. 130. 363. 200. 293. 218. 305. 1581.
      245. 806. 202. 862. 245. 476. 178. 965. 255. 867. 209. 780. 214.
      573. 148. 225. 199. 274. 217. 176. 169. 259. 165. 262. 185. 363.
      228. 177. 145. 173. 152. 348. 144. 235. 154. 447. 193. 358. 157.
      340. 173. 383. 174. 496. 142. 485. 123. 182. 222. 144. 166. 234.
      203. 252. 179. 120. 187. 207. 195. 180. 233. 244. 199. 265. 241.
      221. 228. 273. 197. 148. 169. 129. 278. 201. 212. 138. 173. 113.
      141. 155. 498. 197. 430. 144. 394. 90. 329. 176. 422. 270. 492.
      145. 277. 99. 328. 201. 215. 168. 213. 205. 273. 188. 298. 151.
      260. 193. 288. 249. 279. 242. 228. 201. 547. 325. 551. 191. 899.
      146. 700. 162. 614. 243. 581. 274. 557. 269. 1084. 296. 118. 284.
      156. 329. 126. 277. 212. 438. 175. 554. 182. 427. 194. 440. 188.
      102. 110. 122. 131. 101. 144. 115. 164. 391. 215. 500. 145. 129.
      172. 165. 235. 298. 127. 348. 221. 1113. 212. 777. 372. 357. 178.
      764. 204. 1116. 311. 1323. 294. 155. 199. 99. 198. 255. 266. 162.
      326. 190. 195. 240. 168. 310. 407. 482. 394.</_>
    <_>
      384. 327. 373. 290. 252. 204. 167. 254. 231. 253. 243. 217. 248.
      207. 144. 148. 299. 765. 314. 500. 307. 348. 248. 379. 143. 430.
      182. 529. 206. 275. 139. 363. 215. 236. 226. 232. 187. 268. 166.
      334. 178. 204. 300. 221. 265. 209. 294. 222. 171. 753. 168. 365.
      251. 600. 179. 515. 109. 314. 183. 350. 202. 265. 214. 438. 1276.
      225. 841. 235. 703. 228. 651. 236. 839. 261. 1037. 169. 698. 296.
      544. 182. 243. 228. 334. 241. 187. 205. 277. 275. 206. 256. 362.
      221. 204. 239. 243. 198. 347. 247. 292. 169. 401. 241. 331. 272.
      303. 196. 304. 118. 373. 238. 374. 209. 217. 288. 194. 201. 289.
      205. 392. 229. 152. 291. 139. 123. 187. 265. 214. 209. 270. 257.
      269. 281. 212. 226. 119. 193. 237. 291. 228. 187. 223. 202. 151.
      198. 269. 788. 166. 477. 162. 295. 81. 348. 264. 560. 302. 611.
      178. 245. 138. 528. 172. 182. 134. 209. 228. 286. 154. 293. 214.
      164. 266. 185. 253. 247. 271. 263. 175. 620. 203. 414. 262. 1330.
      147. 810. 232. 444. 342. 480. 245. 561. 239. 910. 268. 145. 276.
      185. 263. 131. 249. 229. 451. 223. 563. 178. 361. 246. 301. 203.
      158. 171. 142. 152. 109. 142. 115. 206. 480. 331. 509. 209. 206.
      270. 205. 281. 252. 121. 280. 179. 665. 219. 515. 306. 376. 175.
      581. 257. 827. 298. 1052. 389. 195. 188. 152. 177. 221. 242. 227.
      215. 273. 203. 238. 193. 317. 324. 397. 344.</_>
    <_>
      357. 320. 328. 296. 254. 220. 180. 213. 235. 255. 234. 220. 277.
      214. 147. 144. 344. 694. 318. 438. 304. 353. 240. 384. 148. 387.
      192. 541. 184. 285. 111. 393. 228. 212. 209. 208. 168. 309. 160.
      301. 183. 208. 303. 241. 251. 211. 308. 262. 173. 713. 197. 302.
      269. 601. 218. 522. 136. 328. 155. 300. 198. 254. 218. 402. 1333.
      237. 850. 213. 706. 219. 693. 245. 836. 229. 1040. 184. 707. 252.
      510. 197. 239. 253. 286. 234. 208. 175. 270. 243. 232. 278. 362.
      244. 167. 184. 219. 201. 364. 238. 252. 182. 414. 243. 347. 273.
      288. 206. 318. 119. 417. 227. 365. 192. 227. 288. 180. 207. 283.
      188. 403. 243. 139. 253. 157. 122. 192. 306. 225. 206. 293. 285.
      257. 278. 234. 210. 111. 177. 243. 314. 203. 204. 231. 188. 157.
      209. 242. 803. 218. 442. 175. 313. 107. 333. 273. 499. 306. 610.
      153. 204. 124. 538. 179. 164. 165. 201. 227. 307. 144. 280. 198.
      165. 226. 210. 270. 283. 277. 273. 168. 586. 201. 346. 269. 1375.
      167. 781. 244. 439. 346. 463. 248. 567. 264. 985. 281. 146. 285.
      177. 296. 125. 242. 231. 451. 204. 536. 186. 341. 255. 310. 194.
      171. 177. 153. 168. 107. 153. 111. 226. 478. 297. 502. 203. 184.
      240. 220. 308. 241. 128. 315. 168. 668. 238. 503. 366. 357. 202.
      631. 240. 833. 332. 1026. 423. 206. 193. 177. 152. 257. 210. 229.
      218. 263. 212. 208. 186. 318. 313. 444. 365.</_>
    <_>
      380. 313. 316. 306. 228. 279. 134. 227. 220. 284. 215. 263. 226.
      220. 123. 131. 377. 688. 271. 497. 334. 419. 214. 313. 224. 478.
      217. 635. 165. 266. 111. 240. 192. 233. 126. 193. 189. 355. 148.
      360. 142. 199. 216. 222. 193. 209. 183. 258. 186. 645. 165. 239.
      280. 690. 226. 558. 161. 367. 168. 342. 215. 273. 206. 404. 1635.
      235. 901. 207. 824. 216. 676. 193. 1065. 204. 1181. 234. 762. 216.
      536. 199. 212. 199. 227. 221. 184. 195. 235. 221. 223. 215. 355.
      216. 135. 154. 206. 159. 372. 194. 235. 150. 395. 249. 361. 206.
      347. 204. 384. 140. 377. 219. 379. 184. 207. 236. 147. 143. 310.
      191. 410. 185. 128. 187. 128. 106. 174. 204. 225. 191. 194. 249.
      197. 214. 249. 197. 113. 206. 184. 287. 186. 214. 186. 205. 91.
      254. 194. 597. 161. 327. 151. 374. 95. 407. 249. 449. 369. 614.
      132. 257. 125. 552. 139. 165. 121. 198. 184. 370. 158. 334. 168.
      182. 216. 225. 237. 253. 193. 302. 192. 483. 205. 399. 263. 1439.
      243. 792. 272. 429. 376. 463. 255. 659. 266. 1162. 260. 137. 309.
      175. 381. 156. 286. 170. 447. 205. 553. 200. 381. 190. 312. 161.
      156. 125. 149. 102. 117. 116. 111. 186. 400. 254. 545. 211. 182.
      195. 196. 269. 312. 137. 279. 186. 876. 257. 613. 376. 369. 264.
      701. 287. 780. 314. 1164. 449. 221. 160. 190. 118. 259. 198. 224.
      256. 281. 221. 281. 175. 403. 330. 448. 346.</_>
    <_>
      453. 341. 348. 271. 299. 224. 165. 161. 255. 261. 227. 258. 277.
      210. 167. 158. 374. 640. 272. 463. 452. 456. 219. 308. 183. 519.
      190. 811. 225. 266. 137. 298. 230. 234. 153. 213. 182. 306. 151.
      289. 159. 231. 230. 220. 225. 199. 269. 293. 190. 639. 175. 266.
      225. 630. 206. 438. 138. 326. 179. 329. 219. 263. 255. 406. 1248.
      240. 799. 271. 664. 237. 558. 196. 984. 219. 968. 277. 659. 258.
      409. 206. 223. 199. 300. 230. 190. 172. 300. 220. 221. 249. 319.
      249. 204. 159. 257. 194. 386. 201. 232. 182. 418. 240. 326. 245.
      297. 198. 275. 144. 437. 235. 438. 193. 232. 304. 144. 168. 285.
      225. 396. 199. 155. 272. 169. 136. 206. 241. 225. 186. 276. 245.
      244. 216. 240. 315. 154. 238. 203. 276. 202. 216. 180. 211. 125.
      211. 247. 496. 197. 312. 164. 287. 104. 320. 303. 487. 325. 528.
      134. 214. 114. 513. 172. 213. 161. 246. 219. 411. 167. 315. 187.
      186. 208. 232. 245. 236. 263. 315. 212. 528. 339. 503. 187. 1254.
      169. 776. 287. 434. 435. 478. 251. 632. 301. 1173. 258. 134. 261.
      193. 345. 174. 297. 209. 370. 207. 537. 160. 430. 245. 395. 191.
      178. 157. 151. 119. 110. 151. 133. 182. 422. 240. 542. 216. 210.
      269. 180. 295. 274. 202. 336. 231. 775. 250. 553. 365. 371. 238.
      621. 283. 727. 252. 894. 331. 203. 181. 176. 118. 223. 216. 229.
      223. 286. 174. 247. 169. 300. 357. 413. 364.</_>
    <_>
      451. 375. 358. 301. 320. 211. 167. 204. 261. 227. 254. 261. 334.
      193. 163. 153. 377. 643. 232. 457. 391. 401. 171. 311. 184. 470.
      211. 818. 222. 297. 167. 314. 230. 210. 164. 222. 212. 333. 149.
      258. 176. 191. 236. 198. 288. 191. 303. 230. 201. 581. 159. 238.
      251. 604. 198. 422. 142. 272. 137. 310. 222. 284. 254. 381. 1135.
      279. 757. 258. 661. 234. 571. 235. 846. 229. 931. 258. 680. 247.
      480. 184. 218. 216. 284. 289. 198. 179. 307. 289. 229. 201. 317.
      269. 192. 162. 260. 230. 364. 201. 237. 180. 346. 207. 277. 205.
      346. 179. 292. 128. 395. 259. 400. 233. 241. 275. 169. 200. 277.
      230. 453. 260. 147. 254. 181. 164. 188. 264. 234. 240. 289. 186.
      200. 225. 287. 258. 145. 224. 276. 236. 242. 222. 232. 169. 130.
      230. 257. 487. 143. 318. 150. 330. 100. 314. 319. 502. 340. 480.
      148. 175. 84. 420. 214. 225. 179. 253. 271. 397. 142. 290. 199.
      217. 276. 210. 331. 270. 285. 280. 253. 525. 267. 466. 207. 1331.
      163. 785. 289. 427. 437. 446. 218. 588. 259. 1096. 300. 148. 311.
      214. 311. 137. 294. 282. 368. 223. 578. 152. 449. 261. 349. 181.
      152. 188. 164. 135. 104. 155. 146. 237. 407. 247. 453. 219. 208.
      244. 181. 297. 302. 171. 374. 250. 761. 233. 538. 333. 353. 258.
      572. 278. 717. 292. 889. 346. 204. 201. 189. 176. 205. 231. 224.
      267. 242. 230. 250. 213. 307. 391. 433. 364.</_>
    <_>
      433. 302. 387. 313. 269. 245. 146. 168. 256. 298. 271. 317. 178.
      180. 139. 135. 301. 737. 302. 661. 486. 443. 234. 332. 213. 596.
      233. 794. 258. 353. 134. 268. 182. 168. 175. 156. 147. 380. 201.
      283. 153. 151. 250. 207. 180. 200. 235. 191. 179. 470. 178. 248.
      223. 542. 201. 381. 115. 266. 146. 354. 197. 299. 205. 326. 1277.
      200. 758. 206. 670. 293. 475. 193. 822. 254. 846. 219. 692. 284.
      591. 191. 254. 235. 279. 245. 218. 192. 281. 226. 283. 272. 325.
      199. 233. 233. 239. 181. 388. 187. 214. 153. 476. 175. 404. 191.
      318. 196. 355. 162. 495. 192. 576. 178. 219. 259. 117. 155. 252.
      196. 293. 195. 166. 224. 193. 180. 174. 207. 275. 208. 243. 224.
      323. 230. 256. 229. 135. 192. 179. 202. 219. 206. 145. 168. 132.
      169. 180. 366. 163. 328. 141. 320. 84. 316. 197. 412. 247. 450.
      88. 244. 85. 382. 248. 210. 201. 218. 228. 282. 150. 310. 157.
      213. 233. 277. 260. 268. 204. 264. 218. 495. 298. 496. 299. 1008.
      134. 920. 192. 530. 299. 618. 313. 806. 265. 1157. 285. 123. 280.
      155. 367. 148. 291. 201. 485. 188. 523. 152. 377. 232. 524. 224.
      137. 141. 120. 133. 93. 118. 117. 175. 478. 210. 511. 144. 165.
      229. 205. 206. 358. 124. 432. 263. 1004. 256. 720. 365. 358. 198.
      685. 304. 961. 356. 1064. 346. 210. 204. 141. 277. 287. 269. 224.
      313. 264. 244. 268. 195. 377. 423. 407. 330.</_>
    <_>
      466. 396. 402. 380. 283. 225. 163. 231. 299. 212. 240. 264. 302.
      187. 169. 160. 356. 820. 283. 590. 403. 446. 160. 317. 167. 562.
      227. 918. 240. 257. 128. 370. 219. 249. 173. 187. 197. 330. 151.
      353. 176. 178. 225. 186. 256. 203. 295. 233. 190. 713. 141. 247.
      224. 629. 182. 398. 172. 297. 136. 314. 188. 245. 205. 362. 1050.
      315. 721. 295. 691. 237. 525. 221. 880. 208. 892. 243. 659. 248.
      445. 227. 216. 227. 286. 303. 200. 200. 268. 275. 225. 191. 288.
      264. 182. 202. 261. 245. 392. 194. 253. 157. 360. 246. 329. 256.
      319. 168. 313. 143. 386. 227. 418. 191. 209. 251. 164. 207. 236.
      216. 431. 245. 179. 256. 159. 157. 190. 276. 216. 252. 263. 243.
      217. 188. 292. 272. 142. 228. 271. 255. 224. 199. 263. 161. 132.
      194. 266. 504. 164. 367. 156. 348. 72. 346. 354. 389. 309. 476.
      126. 195. 114. 484. 243. 195. 165. 214. 292. 374. 215. 308. 234.
      197. 264. 224. 350. 288. 284. 272. 224. 528. 235. 428. 220. 1410.
      128. 781. 262. 338. 470. 421. 273. 568. 234. 1037. 255. 133. 259.
      172. 311. 155. 264. 238. 397. 179. 485. 178. 395. 242. 375. 188.
      136. 162. 151. 161. 109. 153. 121. 235. 491. 266. 496. 221. 202.
      247. 155. 291. 247. 146. 384. 261. 679. 197. 512. 358. 338. 238.
      578. 278. 670. 320. 765. 348. 183. 204. 177. 164. 231. 255. 198.
      287. 286. 245. 250. 178. 332. 411. 353. 451.</_>
    <_>
      422. 335. 378. 288. 210. 267. 155. 163. 249. 311. 213. 297. 165.
      189. 153. 143. 260. 735. 353. 750. 442. 502. 192. 344. 205. 602.
      228. 813. 220. 351. 126. 258. 165. 197. 179. 167. 167. 360. 143.
      306. 168. 193. 228. 189. 191. 192. 241. 201. 198. 498. 210. 309.
      223. 448. 224. 418. 127. 298. 118. 326. 180. 331. 210. 381. 1287.
      215. 776. 206. 728. 307. 489. 213. 852. 237. 886. 159. 792. 213.
      590. 181. 237. 194. 258. 222. 216. 151. 197. 202. 283. 274. 344.
      208. 195. 163. 232. 185. 379. 141. 249. 143. 477. 186. 418. 184.
      296. 169. 401. 143. 475. 216. 585. 169. 180. 252. 174. 155. 240.
      210. 224. 196. 135. 243. 185. 198. 186. 250. 253. 211. 238. 255.
      309. 250. 244. 218. 134. 201. 163. 202. 215. 234. 142. 174. 148.
      186. 208. 415. 186. 388. 154. 352. 75. 306. 202. 413. 299. 437.
      130. 291. 96. 345. 197. 224. 245. 274. 224. 287. 167. 337. 200.
      237. 215. 224. 227. 245. 217. 290. 197. 542. 257. 489. 249. 1008.
      175. 846. 180. 508. 311. 608. 277. 645. 279. 1120. 376. 95. 288.
      143. 351. 147. 340. 237. 416. 136. 544. 132. 428. 231. 446. 205.
      135. 94. 127. 144. 90. 127. 109. 172. 461. 208. 548. 173. 192.
      229. 210. 234. 361. 202. 404. 222. 986. 230. 722. 393. 423. 203.
      691. 173. 1064. 329. 1133. 343. 199. 212. 136. 220. 268. 275. 229.
      299. 256. 249. 267. 223. 318. 421. 406. 344.</_>
    <_>
      7220. 319. 230. 328. 182. 193. 135. 99. 262. 296. 229. 312. 130.
      126. 65. 74. 342. 695. 256. 555. 299. 381. 117. 203. 227. 651.
      230. 828. 200. 274. 75. 193. 334. 120. 171. 152. 120. 238. 408.
      188. 167. 103. 117. 144. 97. 138. 109. 112. 130. 296. 284. 430.
      148. 450. 314. 885. 167. 274. 91. 220. 92. 188. 103. 201. 1451.
      238. 975. 271. 848. 244. 633. 264. 1429. 195. 1226. 159. 772. 314.
      434. 84. 304. 286. 236. 210. 147. 382. 227. 128. 302. 232. 273.
      152. 149. 135. 153. 105. 280. 119. 180. 121. 436. 174. 719. 193.
      275. 104. 269. 100. 421. 158. 516. 184. 120. 123. 84. 99. 99. 164.
      502. 141. 109. 168. 135. 112. 155. 171. 147. 171. 217. 181. 631.
      186. 137. 132. 92. 119. 110. 309. 162. 209. 95. 122. 89. 141. 112.
      370. 92. 259. 91. 209. 89. 248. 141. 763. 283. 346. 81. 189. 63.
      300. 114. 164. 339. 326. 197. 294. 161. 253. 99. 376. 330. 255.
      202. 242. 252. 243. 79. 425. 445. 835. 175. 1151. 164. 686. 169.
      376. 273. 434. 229. 589. 219. 861. 191. 103. 190. 133. 317. 104.
      277. 127. 632. 83. 535. 126. 488. 115. 311. 111. 103. 80. 79. 114.
      84. 71. 93. 124. 447. 512. 432. 110. 159. 139. 157. 329. 221. 124.
      250. 117. 563. 251. 491. 262. 445. 138. 503. 251. 985. 324. 1078.
      319. 99. 99. 139. 166. 250. 220. 272. 188. 183. 141. 196. 147.
      342. 423. 420. 368.</_>
    <_>
      8620. 270. 234. 262. 155. 170. 102. 137. 260. 323. 203. 248. 154.
      127. 89. 103. 307. 712. 258. 599. 355. 430. 112. 234. 236. 680.
      204. 1059. 161. 291. 68. 174. 350. 125. 202. 127. 150. 275. 423.
      247. 183. 84. 115. 119. 109. 120. 125. 123. 134. 235. 265. 383.
      174. 382. 264. 839. 140. 211. 82. 271. 117. 147. 86. 169. 1358.
      200. 811. 270. 772. 234. 593. 218. 1104. 211. 1088. 170. 678. 218.
      441. 121. 320. 324. 219. 213. 135. 356. 239. 138. 270. 206. 250.
      158. 163. 209. 178. 162. 315. 93. 215. 140. 341. 200. 628. 217.
      304. 109. 304. 103. 375. 151. 506. 205. 158. 136. 91. 95. 130.
      203. 503. 138. 138. 143. 161. 128. 144. 196. 236. 245. 200. 149.
      693. 179. 166. 135. 100. 127. 99. 335. 176. 208. 62. 105. 98. 104.
      133. 334. 115. 259. 98. 197. 72. 212. 130. 710. 245. 322. 74. 144.
      80. 172. 149. 170. 319. 317. 247. 268. 147. 213. 113. 399. 297.
      244. 256. 218. 262. 227. 107. 308. 470. 780. 203. 915. 125. 566.
      130. 375. 245. 435. 241. 499. 199. 806. 272. 119. 196. 138. 308.
      119. 311. 169. 553. 112. 497. 110. 463. 158. 318. 121. 105. 104.
      87. 92. 88. 77. 102. 159. 440. 529. 462. 89. 158. 167. 169. 316.
      257. 98. 290. 205. 622. 234. 409. 334. 504. 138. 518. 274. 866.
      347. 852. 271. 108. 106. 174. 154. 246. 209. 237. 204. 215. 124.
      270. 161. 310. 423. 471. 387.</_>
    <_>
      9754. 218. 261. 244. 195. 167. 117. 205. 245. 191. 182. 247. 156.
      127. 94. 118. 326. 425. 242. 327. 289. 323. 130. 207. 210. 457.
      182. 797. 210. 202. 106. 191. 350. 160. 190. 122. 150. 385. 424.
      338. 217. 130. 146. 138. 134. 131. 121. 128. 161. 204. 188. 452.
      166. 385. 281. 851. 203. 165. 136. 236. 137. 173. 126. 209. 1024.
      178. 616. 273. 631. 263. 473. 316. 690. 182. 760. 166. 511. 291.
      305. 141. 304. 338. 199. 305. 134. 334. 213. 181. 263. 242. 248.
      158. 189. 147. 189. 172. 260. 98. 151. 99. 307. 219. 753. 214.
      231. 123. 244. 153. 266. 197. 486. 193. 157. 118. 119. 105. 220.
      204. 530. 129. 141. 196. 180. 142. 181. 346. 215. 192. 222. 151.
      741. 132. 206. 167. 107. 161. 132. 403. 178. 203. 115. 97. 105.
      112. 170. 267. 119. 173. 103. 187. 70. 174. 228. 739. 239. 288.
      88. 167. 105. 201. 125. 125. 305. 364. 223. 369. 157. 303. 123.
      409. 302. 201. 298. 213. 303. 222. 137. 352. 393. 786. 187. 1022.
      144. 634. 222. 264. 339. 375. 231. 455. 204. 899. 330. 165. 193.
      150. 235. 128. 212. 149. 596. 105. 492. 102. 379. 167. 323. 136.
      116. 99. 101. 124. 104. 93. 105. 156. 445. 620. 445. 142. 177.
      187. 159. 547. 205. 94. 240. 245. 575. 237. 435. 261. 454. 191.
      579. 398. 822. 354. 921. 270. 135. 125. 136. 154. 209. 188. 267.
      206. 194. 148. 255. 170. 367. 314. 447. 399.</_>
    <_>
      7396. 331. 323. 318. 215. 190. 113. 149. 317. 317. 224. 282. 233.
      173. 92. 114. 351. 521. 290. 343. 350. 290. 139. 223. 259. 376.
      218. 679. 220. 235. 107. 241. 314. 170. 171. 143. 146. 315. 418.
      213. 207. 128. 163. 141. 175. 134. 139. 132. 142. 362. 175. 471.
      218. 440. 342. 899. 131. 181. 133. 218. 149. 125. 109. 228. 1098.
      234. 836. 273. 580. 223. 567. 295. 757. 256. 1046. 192. 514. 432.
      314. 145. 328. 343. 283. 258. 168. 387. 264. 157. 270. 285. 324.
      177. 170. 126. 188. 201. 311. 148. 174. 121. 298. 208. 639. 202.
      273. 143. 279. 97. 269. 168. 493. 169. 156. 151. 132. 128. 205.
      166. 583. 132. 122. 184. 171. 121. 148. 337. 191. 182. 222. 187.
      755. 168. 191. 131. 108. 121. 159. 423. 182. 193. 126. 116. 101.
      120. 160. 259. 130. 262. 100. 217. 84. 245. 205. 744. 226. 374.
      120. 183. 91. 270. 108. 148. 355. 343. 171. 296. 148. 280. 120.
      367. 389. 196. 259. 218. 288. 197. 83. 372. 389. 795. 198. 1223.
      119. 668. 206. 318. 359. 429. 209. 501. 182. 954. 354. 151. 249.
      148. 271. 105. 204. 151. 662. 174. 510. 137. 477. 200. 301. 133.
      120. 102. 120. 108. 70. 85. 104. 132. 410. 655. 391. 140. 159.
      182. 167. 572. 205. 102. 334. 235. 586. 216. 393. 259. 459. 151.
      574. 316. 725. 263. 881. 274. 120. 107. 142. 172. 205. 162. 217.
      188. 201. 129. 217. 201. 315. 262. 380. 351.</_>
    <_>
      1095. 473. 471. 353. 242. 285. 177. 195. 309. 379. 307. 275. 222.
      165. 140. 125. 346. 687. 365. 583. 323. 370. 188. 262. 248. 440.
      255. 664. 218. 287. 99. 179. 157. 190. 177. 162. 148. 395. 439.
      296. 132. 145. 170. 143. 163. 162. 161. 174. 162. 326. 426. 418.
      182. 491. 252. 841. 118. 188. 128. 206. 184. 265. 127. 216. 1193.
      274. 779. 281. 647. 355. 394. 226. 837. 287. 991. 243. 775. 249.
      416. 164. 320. 254. 306. 215. 204. 521. 271. 145. 339. 276. 375.
      229. 245. 274. 229. 123. 327. 162. 229. 148. 378. 221. 660. 200.
      368. 153. 394. 173. 442. 182. 343. 172. 181. 139. 127. 124. 286.
      195. 553. 114. 197. 200. 199. 160. 221. 323. 214. 156. 175. 238.
      150. 146. 195. 171. 204. 177. 178. 372. 199. 264. 144. 123. 128.
      157. 164. 350. 174. 277. 115. 234. 90. 228. 250. 685. 222. 408.
      99. 198. 101. 288. 126. 149. 304. 183. 212. 257. 144. 223. 125.
      359. 328. 252. 212. 265. 222. 266. 131. 387. 430. 741. 155. 1270.
      162. 885. 164. 399. 297. 555. 185. 689. 268. 1259. 350. 123. 296.
      186. 265. 161. 251. 149. 551. 200. 459. 201. 519. 207. 440. 179.
      168. 125. 156. 101. 127. 122. 130. 123. 378. 506. 390. 145. 242.
      216. 194. 209. 269. 138. 456. 244. 846. 221. 675. 310. 449. 173.
      747. 274. 961. 310. 1159. 366. 157. 126. 171. 142. 241. 185. 249.
      214. 217. 153. 274. 175. 420. 354. 373. 525.</_>
    <_>
      1184. 477. 476. 357. 255. 260. 157. 205. 341. 302. 369. 296. 238.
      172. 127. 147. 378. 665. 418. 557. 338. 353. 181. 268. 272. 431.
      247. 612. 282. 256. 103. 229. 144. 133. 154. 178. 131. 422. 435.
      285. 114. 129. 165. 152. 139. 135. 122. 100. 145. 347. 439. 404.
      137. 461. 231. 879. 106. 230. 128. 214. 145. 262. 146. 258. 1358.
      305. 759. 310. 588. 368. 418. 263. 844. 298. 1017. 266. 802. 233.
      398. 144. 351. 263. 333. 232. 269. 427. 254. 168. 319. 296. 355.
      218. 219. 251. 195. 120. 264. 140. 173. 157. 388. 195. 701. 191.
      305. 137. 335. 184. 376. 172. 294. 120. 149. 141. 153. 121. 232.
      247. 437. 91. 134. 159. 208. 169. 273. 653. 214. 161. 189. 210.
      216. 171. 170. 142. 170. 118. 150. 408. 219. 247. 113. 158. 129.
      135. 161. 313. 195. 307. 140. 233. 94. 207. 189. 685. 244. 361.
      114. 182. 128. 332. 123. 160. 291. 250. 188. 278. 193. 285. 111.
      313. 327. 172. 204. 291. 336. 355. 105. 384. 394. 783. 164. 1231.
      153. 896. 135. 421. 266. 493. 185. 652. 256. 1208. 301. 166. 233.
      186. 259. 139. 212. 135. 427. 195. 416. 177. 427. 188. 362. 143.
      170. 137. 176. 101. 139. 116. 120. 134. 388. 507. 324. 143. 246.
      240. 237. 495. 222. 117. 435. 232. 829. 234. 741. 333. 411. 195.
      820. 299. 946. 383. 1236. 347. 122. 101. 171. 158. 215. 186. 225.
      233. 192. 132. 318. 179. 411. 512. 488. 567.</_>
    <_>
      457. 437. 415. 297. 201. 273. 140. 198. 290. 327. 307. 223. 158.
      156. 92. 95. 298. 864. 286. 709. 316. 528. 177. 288. 244. 586.
      271. 818. 196. 341. 98. 205. 116. 179. 162. 141. 103. 363. 136.
      294. 114. 175. 182. 163. 157. 160. 149. 114. 138. 430. 465. 378.
      240. 458. 279. 331. 108. 344. 127. 308. 186. 317. 120. 249. 1436.
      205. 794. 234. 640. 239. 410. 183. 927. 256. 1094. 227. 690. 274.
      512. 123. 241. 201. 287. 149. 138. 562. 260. 107. 295. 315. 325.
      194. 157. 240. 176. 97. 302. 128. 230. 113. 333. 211. 299. 186.
      316. 142. 352. 117. 247. 164. 323. 104. 169. 136. 101. 94. 231.
      173. 580. 129. 160. 237. 173. 95. 140. 179. 155. 138. 188. 240.
      142. 161. 147. 190. 159. 144. 145. 299. 214. 237. 123. 129. 79.
      129. 183. 467. 153. 386. 154. 373. 97. 255. 218. 718. 253. 478.
      104. 218. 86. 286. 101. 140. 365. 182. 191. 398. 194. 398. 98.
      275. 427. 262. 203. 362. 263. 396. 164. 513. 380. 784. 262. 1332.
      203. 1204. 169. 566. 337. 686. 328. 1188. 329. 1752. 319. 72. 294.
      164. 230. 124. 204. 125. 577. 170. 423. 181. 504. 194. 295. 154.
      133. 373. 119. 113. 83. 111. 97. 125. 333. 163. 294. 158. 152.
      187. 134. 207. 200. 113. 306. 204. 857. 281. 759. 380. 287. 156.
      595. 207. 1432. 413. 1359. 429. 150. 135. 118. 121. 308. 311. 263.
      277. 235. 227. 251. 144. 458. 556. 487. 440.</_>
    <_>
      1075. 205. 270. 204. 201. 199. 116. 201. 233. 233. 185. 260. 204.
      173. 85. 103. 328. 382. 277. 410. 452. 324. 232. 287. 247. 466.
      158. 666. 210. 324. 111. 222. 373. 129. 161. 173. 168. 409. 143.
      287. 141. 172. 162. 205. 154. 176. 172. 138. 171. 325. 457. 231.
      257. 571. 494. 304. 131. 241. 148. 245. 218. 288. 200. 276. 1091.
      217. 706. 212. 629. 303. 490. 227. 663. 189. 806. 171. 666. 344.
      424. 170. 304. 340. 243. 326. 195. 413. 188. 165. 313. 255. 297.
      232. 176. 210. 195. 125. 340. 146. 210. 145. 450. 201. 363. 215.
      259. 159. 311. 152. 378. 177. 422. 210. 196. 165. 131. 171. 235.
      174. 543. 188. 152. 211. 192. 191. 228. 338. 254. 161. 153. 179.
      298. 185. 197. 163. 347. 270. 118. 421. 205. 234. 122. 191. 110.
      149. 145. 327. 182. 293. 162. 219. 83. 265. 186. 678. 216. 433.
      104. 246. 81. 365. 133. 209. 438. 337. 255. 348. 222. 394. 130.
      452. 407. 357. 285. 408. 384. 345. 172. 452. 583. 744. 328. 1076.
      210. 783. 202. 490. 303. 502. 402. 782. 334. 991. 299. 115. 248.
      136. 319. 130. 318. 197. 666. 183. 438. 175. 610. 229. 355. 169.
      152. 350. 146. 145. 114. 125. 125. 131. 442. 221. 326. 146. 190.
      184. 199. 143. 272. 120. 381. 298. 832. 249. 718. 425. 378. 221.
      683. 349. 924. 355. 923. 409. 191. 182. 167. 252. 338. 322. 282.
      369. 270. 255. 290. 224. 474. 432. 490. 498.</_>
    <_>
      393. 297. 286. 249. 230. 180. 128. 162. 239. 240. 183. 235. 195.
      173. 107. 110. 292. 535. 241. 426. 404. 412. 206. 284. 215. 464.
      151. 624. 216. 342. 102. 239. 284. 169. 175. 149. 129. 427. 430.
      282. 157. 132. 198. 160. 151. 193. 169. 168. 199. 336. 409. 387.
      246. 477. 289. 862. 132. 213. 129. 253. 212. 320. 199. 318. 1134.
      187. 751. 273. 634. 304. 492. 221. 670. 212. 822. 209. 688. 258.
      413. 149. 276. 284. 256. 237. 167. 462. 191. 162. 287. 306. 301.
      211. 163. 287. 168. 123. 337. 130. 216. 130. 488. 223. 676. 178.
      280. 174. 310. 158. 373. 153. 422. 158. 172. 198. 118. 128. 230.
      174. 500. 186. 133. 184. 218. 153. 204. 312. 200. 160. 147. 212.
      249. 174. 175. 183. 401. 237. 142. 377. 212. 274. 107. 193. 102.
      146. 167. 350. 186. 295. 165. 286. 111. 238. 173. 679. 228. 381.
      122. 272. 84. 334. 160. 212. 398. 301. 260. 300. 244. 389. 131.
      423. 431. 343. 294. 305. 315. 332. 176. 485. 396. 923. 305. 934.
      185. 882. 203. 531. 331. 577. 345. 820. 369. 1091. 269. 85. 260.
      128. 261. 137. 331. 211. 606. 174. 429. 168. 562. 246. 409. 161.
      141. 104. 137. 103. 117. 107. 132. 141. 423. 478. 348. 168. 193.
      177. 186. 166. 269. 129. 373. 294. 882. 257. 729. 388. 362. 181.
      658. 317. 989. 365. 948. 382. 203. 183. 156. 263. 372. 335. 302.
      319. 282. 270. 279. 207. 490. 568. 474. 335.</_>
    <_>
      605. 281. 315. 252. 190. 197. 116. 175. 192. 249. 183. 223. 128.
      152. 85. 120. 286. 546. 232. 612. 367. 368. 217. 284. 255. 555.
      199. 790. 216. 378. 86. 265. 244. 176. 173. 161. 159. 320. 132.
      304. 157. 174. 203. 191. 159. 183. 158. 189. 168. 433. 437. 411.
      260. 533. 429. 363. 142. 377. 118. 300. 177. 327. 173. 291. 1172.
      200. 651. 160. 729. 280. 377. 214. 638. 166. 783. 135. 711. 362.
      438. 128. 240. 284. 203. 187. 185. 443. 185. 127. 261. 300. 267.
      174. 188. 190. 166. 126. 317. 151. 186. 114. 493. 193. 328. 161.
      333. 156. 295. 146. 418. 187. 423. 143. 212. 145. 117. 115. 203.
      158. 519. 169. 146. 195. 183. 125. 204. 225. 195. 167. 156. 229.
      304. 219. 196. 213. 273. 170. 107. 306. 173. 254. 96. 179. 86.
      146. 197. 420. 187. 395. 145. 326. 124. 303. 198. 814. 278. 532.
      103. 294. 102. 353. 140. 243. 440. 305. 244. 399. 177. 407. 82.
      441. 485. 349. 250. 371. 256. 335. 191. 598. 449. 913. 308. 1072.
      231. 1008. 185. 656. 331. 624. 328. 902. 325. 1119. 264. 88. 201.
      119. 274. 142. 309. 169. 674. 129. 404. 164. 682. 179. 382. 144.
      116. 367. 131. 112. 81. 102. 111. 118. 443. 208. 387. 165. 182.
      168. 156. 168. 246. 121. 375. 222. 847. 266. 730. 415. 406. 188.
      684. 252. 1041. 362. 1125. 318. 191. 181. 140. 226. 300. 342. 289.
      378. 269. 267. 317. 202. 390. 465. 511. 420.</_>
    <_>
      7435. 304. 309. 316. 276. 191. 108. 127. 353. 294. 263. 314. 210.
      182. 103. 116. 374. 532. 267. 383. 389. 369. 102. 261. 240. 459.
      216. 828. 229. 211. 107. 201. 370. 159. 173. 146. 144. 302. 378.
      236. 186. 141. 175. 141. 134. 158. 118. 141. 160. 322. 250. 444.
      173. 458. 321. 910. 166. 212. 141. 249. 142. 211. 127. 273. 971.
      269. 564. 234. 595. 209. 463. 271. 815. 207. 601. 186. 523. 373.
      262. 131. 322. 408. 239. 324. 161. 378. 221. 161. 253. 288. 298.
      224. 172. 118. 162. 169. 280. 156. 180. 111. 326. 175. 613. 222.
      290. 126. 313. 113. 307. 140. 515. 187. 157. 143. 129. 96. 195.
      167. 576. 152. 116. 154. 151. 97. 155. 317. 189. 172. 187. 160.
      737. 134. 186. 195. 123. 137. 146. 404. 207. 164. 104. 90. 85.
      158. 165. 357. 105. 266. 120. 222. 66. 231. 206. 766. 268. 387.
      78. 196. 77. 339. 122. 153. 348. 308. 177. 357. 185. 271. 152.
      358. 359. 193. 250. 280. 309. 277. 121. 383. 341. 817. 192. 1361.
      141. 757. 248. 307. 324. 440. 216. 514. 214. 990. 240. 118. 213.
      111. 282. 113. 211. 147. 663. 133. 600. 103. 399. 132. 260. 89.
      108. 73. 86. 114. 78. 91. 81. 141. 403. 545. 507. 141. 143. 172.
      154. 503. 232. 105. 286. 197. 605. 213. 495. 286. 447. 197. 579.
      331. 776. 336. 943. 298. 113. 93. 108. 138. 218. 235. 206. 241.
      188. 169. 188. 167. 290. 356. 435. 322.</_>
    <_>
      8422. 296. 307. 272. 231. 213. 140. 131. 275. 277. 257. 319. 163.
      166. 101. 114. 332. 399. 288. 307. 381. 380. 102. 224. 211. 414.
      262. 835. 218. 249. 90. 232. 345. 168. 186. 117. 174. 321. 393.
      266. 209. 150. 182. 138. 151. 160. 129. 153. 165. 228. 254. 445.
      178. 430. 267. 896. 163. 180. 111. 211. 130. 182. 138. 269. 1091.
      250. 750. 274. 587. 272. 466. 320. 900. 238. 647. 180. 527. 249.
      303. 134. 275. 323. 267. 302. 167. 304. 194. 174. 263. 308. 313.
      218. 183. 166. 180. 165. 291. 134. 178. 108. 287. 214. 614. 224.
      311. 160. 299. 134. 332. 174. 451. 179. 163. 143. 159. 110. 232.
      203. 548. 165. 143. 146. 139. 130. 156. 270. 227. 156. 217. 160.
      748. 168. 210. 172. 144. 155. 150. 399. 198. 188. 115. 122. 85.
      144. 166. 297. 84. 167. 100. 214. 68. 193. 204. 727. 236. 300. 90.
      153. 81. 267. 158. 158. 315. 316. 195. 349. 177. 256. 111. 377.
      312. 182. 225. 251. 284. 239. 119. 321. 348. 724. 159. 1260. 141.
      694. 194. 265. 350. 464. 210. 564. 210. 1022. 256. 95. 182. 101.
      273. 123. 151. 134. 581. 139. 579. 116. 354. 156. 304. 141. 97.
      108. 135. 124. 106. 77. 89. 148. 458. 547. 492. 130. 142. 177.
      143. 530. 233. 101. 265. 188. 625. 199. 446. 305. 485. 182. 583.
      315. 780. 290. 880. 303. 123. 133. 124. 130. 204. 208. 203. 180.
      209. 168. 204. 136. 292. 403. 417. 359.</_>
    <_>
      8115. 306. 297. 259. 200. 165. 116. 128. 265. 263. 233. 308. 137.
      130. 104. 160. 319. 333. 285. 329. 399. 297. 125. 222. 224. 419.
      215. 727. 193. 236. 105. 252. 379. 167. 158. 143. 138. 372. 386.
      262. 190. 119. 142. 127. 113. 163. 93. 135. 203. 351. 113. 467.
      235. 481. 390. 900. 209. 203. 126. 219. 127. 222. 116. 219. 1066.
      219. 597. 223. 673. 246. 519. 310. 744. 185. 660. 165. 603. 421.
      223. 114. 274. 350. 211. 292. 157. 405. 211. 140. 261. 230. 240.
      153. 200. 102. 140. 162. 265. 108. 179. 115. 350. 163. 720. 209.
      245. 103. 255. 164. 236. 143. 463. 189. 126. 127. 122. 102. 200.
      139. 635. 132. 111. 151. 122. 92. 162. 423. 181. 182. 169. 142.
      727. 158. 194. 172. 111. 141. 146. 410. 132. 175. 130. 101. 93.
      155. 145. 272. 116. 225. 96. 213. 70. 242. 210. 818. 258. 455. 85.
      171. 66. 372. 107. 172. 367. 369. 247. 374. 155. 277. 123. 385.
      397. 199. 255. 308. 324. 227. 99. 417. 429. 881. 186. 1364. 142.
      737. 182. 276. 340. 374. 233. 534. 201. 964. 286. 120. 216. 135.
      250. 137. 170. 125. 741. 147. 433. 119. 428. 173. 271. 91. 139.
      84. 106. 118. 97. 83. 101. 113. 482. 619. 469. 131. 169. 163. 120.
      627. 204. 109. 251. 194. 609. 200. 499. 252. 449. 198. 572. 367.
      792. 295. 1035. 306. 112. 88. 137. 155. 219. 205. 206. 183. 197.
      163. 229. 155. 253. 318. 391. 435.</_>
    <_>
      5140. 334. 366. 303. 243. 214. 104. 189. 304. 295. 246. 350. 199.
      183. 108. 153. 335. 456. 285. 356. 385. 370. 145. 267. 219. 451.
      250. 831. 239. 194. 118. 189. 328. 141. 156. 118. 193. 312. 426.
      295. 210. 136. 172. 145. 153. 155. 143. 172. 199. 321. 251. 457.
      175. 408. 311. 937. 173. 190. 136. 244. 139. 198. 120. 260. 1087.
      232. 641. 258. 615. 309. 502. 297. 817. 228. 589. 232. 541. 297.
      281. 152. 305. 368. 232. 343. 176. 354. 286. 190. 292. 289. 314.
      213. 171. 159. 166. 172. 342. 124. 190. 152. 334. 164. 675. 209.
      358. 159. 292. 128. 379. 182. 519. 215. 169. 160. 138. 106. 204.
      209. 569. 177. 136. 177. 144. 128. 158. 372. 210. 178. 217. 161.
      722. 164. 199. 183. 105. 140. 159. 382. 206. 171. 117. 120. 96.
      151. 152. 332. 102. 237. 94. 185. 88. 194. 236. 728. 264. 403. 86.
      191. 78. 280. 132. 158. 341. 283. 225. 349. 165. 279. 139. 429.
      323. 219. 257. 265. 340. 291. 137. 433. 337. 799. 177. 1324. 112.
      703. 198. 343. 339. 442. 253. 485. 201. 913. 269. 96. 217. 131.
      301. 113. 199. 163. 623. 156. 589. 130. 483. 139. 311. 124. 124.
      109. 118. 129. 79. 90. 91. 155. 488. 554. 562. 143. 160. 189. 160.
      624. 249. 124. 303. 213. 660. 216. 513. 280. 537. 207. 617. 354.
      850. 326. 903. 320. 130. 100. 114. 137. 211. 217. 224. 240. 224.
      143. 210. 151. 293. 371. 393. 457.</_>
    <_>
      1908. 282. 335. 250. 210. 222. 110. 171. 244. 236. 184. 214. 173.
      157. 80. 91. 290. 528. 259. 540. 430. 335. 171. 283. 185. 520.
      146. 681. 270. 356. 75. 331. 258. 188. 180. 151. 146. 331. 432.
      301. 210. 183. 233. 171. 154. 154. 192. 174. 158. 356. 271. 487.
      210. 532. 408. 936. 118. 267. 114. 318. 205. 307. 195. 310. 1199.
      236. 600. 216. 559. 272. 369. 165. 633. 183. 611. 160. 679. 372.
      416. 128. 234. 331. 256. 180. 173. 415. 165. 161. 241. 276. 279.
      171. 184. 208. 169. 164. 308. 154. 192. 129. 416. 192. 633. 141.
      289. 141. 273. 167. 389. 142. 373. 135. 153. 162. 136. 114. 202.
      193. 470. 180. 126. 168. 161. 162. 156. 379. 211. 225. 229. 203.
      688. 183. 192. 181. 112. 163. 128. 409. 166. 207. 132. 128. 142.
      161. 163. 327. 177. 358. 127. 285. 77. 222. 156. 730. 223. 493.
      111. 232. 93. 325. 145. 274. 464. 290. 212. 288. 233. 364. 156.
      397. 508. 346. 222. 273. 363. 346. 186. 571. 424. 943. 241. 840.
      152. 645. 171. 626. 293. 586. 251. 670. 332. 1030. 256. 112. 230.
      111. 268. 104. 243. 157. 614. 120. 442. 128. 564. 231. 380. 187.
      109. 105. 102. 111. 85. 117. 69. 172. 469. 507. 405. 152. 176.
      235. 159. 721. 244. 123. 317. 220. 907. 264. 699. 428. 352. 216.
      620. 244. 961. 371. 942. 347. 139. 197. 129. 208. 240. 331. 242.
      329. 263. 289. 274. 221. 456. 496. 429. 502.</_>
    <_>
      8457. 395. 281. 361. 146. 200. 90. 154. 398. 361. 261. 352. 149.
      118. 77. 96. 446. 933. 322. 630. 397. 484. 133. 235. 303. 723.
      259. 1071. 194. 264. 63. 225. 311. 138. 218. 187. 144. 293. 399.
      268. 173. 131. 117. 127. 108. 139. 114. 97. 138. 423. 327. 410.
      160. 499. 279. 891. 132. 247. 103. 333. 101. 236. 97. 231. 1156.
      221. 701. 256. 712. 201. 445. 225. 1064. 216. 882. 186. 602. 261.
      310. 103. 292. 367. 230. 313. 150. 356. 219. 150. 215. 218. 256.
      171. 123. 182. 154. 147. 224. 96. 158. 136. 358. 220. 642. 180.
      266. 98. 212. 108. 386. 137. 502. 159. 90. 126. 92. 72. 130. 161.
      556. 133. 91. 156. 141. 137. 130. 173. 175. 162. 210. 157. 684.
      146. 185. 172. 121. 163. 117. 300. 214. 185. 67. 92. 88. 125. 155.
      405. 133. 323. 111. 254. 73. 284. 175. 733. 263. 427. 73. 122. 99.
      286. 127. 142. 356. 273. 198. 263. 161. 245. 126. 351. 332. 200.
      231. 228. 306. 230. 107. 339. 465. 747. 179. 770. 159. 514. 142.
      350. 239. 426. 202. 408. 157. 847. 178. 91. 169. 90. 304. 108.
      214. 139. 499. 103. 490. 100. 312. 193. 271. 113. 97. 81. 89. 96.
      85. 65. 60. 134. 383. 470. 470. 115. 155. 144. 110. 348. 263. 112.
      243. 155. 699. 237. 505. 289. 467. 152. 564. 316. 959. 311. 932.
      295. 98. 107. 160. 160. 263. 228. 213. 204. 192. 108. 241. 178.
      354. 378. 419. 320.</_>
    <_>
      8981. 285. 316. 299. 218. 216. 115. 161. 304. 269. 218. 277. 206.
      154. 85. 130. 309. 499. 260. 350. 363. 260. 140. 206. 246. 469.
      227. 693. 208. 252. 79. 247. 356. 155. 179. 139. 168. 343. 381.
      302. 213. 122. 155. 126. 158. 159. 115. 125. 153. 427. 180. 471.
      233. 476. 432. 849. 166. 224. 127. 274. 149. 175. 117. 257. 1019.
      248. 604. 268. 551. 224. 513. 277. 649. 200. 625. 197. 458. 449.
      227. 131. 311. 363. 246. 339. 123. 405. 195. 154. 275. 250. 281.
      163. 184. 116. 132. 187. 226. 147. 160. 131. 278. 171. 702. 175.
      262. 132. 262. 111. 245. 156. 419. 189. 125. 147. 132. 117. 203.
      130. 666. 129. 122. 164. 161. 112. 133. 360. 178. 199. 190. 174.
      755. 159. 219. 147. 108. 149. 166. 447. 113. 207. 127. 127. 113.
      178. 166. 333. 125. 282. 104. 239. 71. 256. 224. 792. 265. 451.
      106. 191. 83. 415. 113. 162. 381. 330. 185. 333. 142. 302. 125.
      357. 395. 136. 236. 231. 274. 214. 103. 400. 381. 819. 211. 1161.
      139. 629. 223. 248. 329. 401. 233. 386. 153. 860. 296. 155. 210.
      126. 268. 150. 166. 139. 694. 153. 495. 142. 474. 185. 292. 119.
      125. 96. 106. 109. 97. 122. 76. 128. 379. 619. 390. 170. 169. 178.
      117. 658. 232. 101. 262. 158. 600. 172. 410. 225. 453. 115. 631.
      268. 682. 188. 870. 254. 89. 132. 155. 146. 188. 218. 168. 214.
      212. 147. 198. 200. 278. 260. 303. 438.</_>
    <_>
      1289. 350. 378. 316. 246. 226. 142. 183. 394. 341. 285. 343. 264.
      188. 136. 157. 362. 504. 304. 340. 397. 320. 170. 224. 262. 420.
      218. 834. 277. 266. 118. 312. 338. 209. 195. 173. 162. 415. 420.
      337. 223. 141. 197. 171. 175. 140. 134. 177. 170. 446. 297. 491.
      190. 451. 275. 951. 180. 252. 127. 221. 152. 174. 150. 326. 1142.
      305. 695. 331. 657. 266. 477. 312. 826. 283. 785. 230. 595. 291.
      324. 174. 338. 411. 318. 402. 199. 367. 301. 239. 288. 353. 330.
      250. 190. 234. 196. 248. 318. 138. 222. 119. 305. 212. 628. 221.
      343. 172. 327. 184. 359. 183. 437. 188. 178. 170. 146. 116. 185.
      181. 611. 178. 174. 185. 162. 168. 161. 363. 239. 228. 254. 197.
      763. 169. 307. 206. 135. 217. 202. 417. 243. 232. 154. 118. 121.
      164. 188. 349. 119. 193. 99. 237. 70. 234. 275. 759. 281. 397.
      105. 181. 98. 365. 179. 189. 310. 306. 201. 378. 180. 275. 122.
      357. 303. 204. 285. 246. 336. 270. 149. 329. 410. 743. 171. 1351.
      122. 661. 229. 279. 345. 436. 238. 489. 195. 978. 320. 136. 244.
      168. 352. 135. 232. 147. 576. 214. 552. 150. 444. 194. 354. 142.
      152. 143. 111. 130. 113. 95. 90. 168. 479. 572. 461. 158. 163.
      195. 158. 688. 289. 102. 344. 196. 706. 201. 483. 285. 474. 163.
      675. 306. 822. 283. 897. 338. 123. 135. 174. 153. 214. 246. 186.
      198. 203. 174. 234. 163. 320. 358. 376. 444.</_>
    <_>
      3698. 348. 463. 342. 221. 237. 140. 192. 260. 314. 319. 294. 158.
      124. 120. 89. 235. 686. 328. 605. 410. 435. 179. 251. 245. 581.
      227. 676. 266. 300. 105. 219. 194. 175. 165. 180. 100. 289. 411.
      258. 132. 141. 202. 119. 113. 157. 117. 115. 116. 350. 371. 366.
      194. 363. 336. 853. 109. 238. 103. 280. 143. 247. 93. 242. 1270.
      184. 748. 248. 509. 195. 391. 181. 778. 258. 884. 269. 627. 307.
      460. 137. 272. 188. 296. 193. 185. 490. 239. 153. 282. 251. 323.
      207. 190. 275. 160. 144. 281. 101. 173. 121. 335. 166. 575. 129.
      336. 103. 365. 132. 262. 153. 306. 120. 119. 128. 118. 108. 206.
      142. 525. 104. 173. 191. 173. 129. 132. 686. 117. 144. 274. 258.
      216. 136. 203. 218. 109. 140. 166. 321. 184. 237. 117. 130. 115.
      130. 146. 415. 136. 339. 112. 288. 53. 213. 198. 724. 200. 432.
      106. 179. 80. 242. 112. 164. 386. 178. 196. 312. 256. 357. 155.
      248. 455. 236. 206. 288. 328. 306. 119. 329. 399. 691. 180. 1185.
      156. 997. 189. 437. 270. 598. 280. 980. 258. 1341. 315. 100. 235.
      127. 283. 119. 213. 144. 428. 201. 428. 133. 373. 224. 279. 135.
      106. 122. 131. 108. 91. 137. 65. 197. 283. 454. 308. 117. 133.
      201. 128. 518. 217. 95. 294. 155. 988. 219. 799. 353. 353. 156.
      729. 299. 1197. 403. 1300. 384. 127. 134. 109. 145. 265. 271. 251.
      230. 194. 187. 221. 137. 465. 467. 459. 466.</_>
    <_>
      659. 273. 273. 204. 195. 213. 124. 143. 203. 215. 179. 203. 126.
      133. 99. 97. 238. 550. 185. 439. 463. 301. 167. 251. 198. 482.
      213. 706. 224. 325. 86. 309. 294. 181. 256. 187. 161. 355. 125.
      371. 172. 140. 222. 178. 148. 204. 203. 193. 197. 505. 187. 321.
      282. 596. 455. 430. 136. 311. 106. 319. 199. 381. 201. 372. 1015.
      246. 567. 203. 529. 225. 390. 178. 594. 194. 626. 134. 608. 371.
      418. 143. 249. 317. 228. 184. 177. 431. 196. 176. 289. 285. 276.
      183. 203. 228. 183. 169. 331. 156. 162. 117. 442. 207. 316. 209.
      301. 111. 298. 124. 377. 192. 426. 156. 177. 174. 86. 148. 187.
      202. 543. 207. 150. 184. 215. 170. 163. 279. 186. 269. 190. 201.
      398. 212. 233. 240. 344. 222. 104. 341. 163. 187. 114. 151. 133.
      189. 180. 632. 201. 410. 127. 301. 91. 311. 183. 684. 267. 489.
      125. 303. 86. 402. 187. 303. 513. 325. 221. 412. 229. 355. 156.
      387. 340. 311. 333. 382. 320. 295. 222. 959. 315. 731. 258. 1153.
      157. 943. 246. 734. 324. 760. 370. 1033. 313. 1274. 291. 109. 221.
      123. 248. 113. 268. 204. 737. 103. 397. 106. 624. 180. 379. 158.
      123. 142. 115. 152. 92. 100. 76. 140. 470. 225. 399. 146. 178.
      222. 193. 215. 228. 132. 309. 225. 690. 276. 610. 482. 343. 186.
      519. 278. 950. 440. 926. 446. 167. 252. 140. 276. 290. 375. 289.
      329. 267. 284. 252. 218. 469. 597. 458. 429.</_>
    <_>
      1229. 467. 564. 337. 222. 227. 143. 155. 329. 278. 338. 298. 257.
      141. 119. 111. 271. 713. 338. 560. 363. 369. 134. 259. 260. 505.
      224. 611. 211. 274. 85. 216. 136. 150. 155. 176. 93. 321. 410.
      234. 115. 135. 176. 143. 146. 175. 148. 117. 144. 370. 449. 443.
      184. 530. 197. 901. 102. 200. 118. 208. 188. 221. 114. 277. 1648.
      285. 981. 300. 620. 288. 471. 225. 1115. 294. 1126. 196. 737. 223.
      479. 142. 302. 246. 333. 192. 185. 586. 220. 170. 356. 283. 434.
      226. 203. 279. 214. 120. 291. 133. 260. 124. 338. 151. 576. 144.
      351. 143. 400. 100. 344. 160. 327. 169. 124. 136. 112. 81. 258.
      202. 520. 141. 181. 204. 187. 146. 164. 317. 189. 163. 201. 219.
      202. 170. 214. 149. 143. 166. 171. 394. 205. 274. 129. 135. 128.
      131. 150. 369. 155. 274. 116. 208. 72. 214. 204. 741. 222. 408.
      87. 188. 85. 267. 141. 153. 282. 179. 185. 285. 198. 336. 118.
      288. 362. 196. 207. 275. 325. 341. 163. 369. 396. 683. 187. 1381.
      113. 926. 165. 418. 311. 505. 245. 954. 221. 1589. 286. 117. 242.
      133. 262. 157. 229. 144. 533. 205. 548. 161. 443. 177. 368. 167.
      120. 125. 120. 113. 90. 121. 70. 137. 332. 462. 356. 146. 153.
      180. 132. 236. 231. 96. 353. 188. 940. 214. 749. 321. 343. 149.
      714. 166. 1111. 322. 1242. 341. 128. 151. 116. 120. 214. 236. 172.
      241. 186. 214. 222. 132. 450. 745. 410. 531.</_>
    <_>
      563. 444. 486. 348. 228. 226. 178. 176. 303. 365. 372. 284. 206.
      180. 138. 98. 303. 733. 320. 593. 379. 411. 156. 274. 232. 567.
      290. 643. 193. 302. 105. 214. 130. 161. 151. 157. 102. 306. 125.
      250. 135. 163. 209. 165. 108. 155. 142. 142. 150. 402. 485. 284.
      189. 544. 272. 356. 101. 265. 116. 241. 177. 254. 103. 272. 1420.
      288. 965. 280. 610. 224. 422. 180. 1074. 300. 1133. 271. 657. 297.
      436. 112. 286. 234. 338. 241. 185. 549. 283. 143. 372. 295. 376.
      212. 201. 321. 189. 114. 277. 159. 227. 137. 353. 186. 317. 167.
      302. 115. 399. 127. 314. 172. 338. 150. 161. 150. 95. 81. 229.
      167. 599. 121. 157. 186. 173. 128. 145. 236. 166. 134. 156. 199.
      154. 155. 187. 181. 160. 203. 164. 366. 249. 256. 118. 141. 69.
      108. 161. 441. 158. 314. 114. 260. 63. 256. 199. 710. 210. 423.
      103. 239. 94. 314. 131. 160. 363. 187. 231. 318. 205. 378. 103.
      251. 431. 179. 224. 295. 220. 328. 147. 426. 394. 669. 174. 1411.
      136. 1188. 140. 511. 346. 573. 285. 1178. 282. 1855. 352. 120.
      283. 117. 272. 117. 227. 128. 522. 179. 535. 159. 457. 198. 354.
      122. 115. 349. 105. 117. 85. 105. 97. 133. 352. 193. 361. 145.
      142. 208. 153. 212. 239. 104. 398. 171. 928. 236. 776. 347. 381.
      143. 700. 249. 1205. 415. 1288. 415. 131. 152. 106. 120. 330. 245.
      210. 264. 231. 210. 257. 131. 526. 568. 457. 411.</_>
    <_>
      4271. 274. 373. 249. 182. 201. 120. 177. 281. 241. 248. 294. 145.
      143. 125. 108. 261. 414. 280. 324. 402. 415. 113. 227. 225. 416.
      228. 991. 234. 223. 86. 183. 325. 149. 189. 170. 187. 330. 437.
      316. 212. 118. 144. 176. 152. 153. 145. 145. 145. 213. 255. 457.
      192. 362. 271. 915. 176. 168. 124. 244. 145. 181. 150. 242. 1258.
      232. 779. 293. 616. 333. 540. 335. 909. 240. 1040. 182. 690. 206.
      351. 166. 357. 303. 348. 277. 144. 331. 264. 205. 327. 269. 311.
      203. 236. 251. 194. 189. 332. 154. 190. 127. 383. 200. 708. 268.
      305. 144. 324. 126. 335. 186. 566. 252. 151. 150. 145. 156. 228.
      216. 572. 168. 160. 173. 153. 125. 169. 305. 209. 205. 236. 157.
      747. 153. 221. 159. 128. 162. 184. 485. 202. 261. 171. 135. 107.
      119. 179. 258. 115. 176. 118. 229. 69. 175. 230. 806. 239. 272.
      88. 162. 96. 242. 167. 181. 309. 387. 211. 307. 186. 296. 135.
      421. 260. 195. 290. 226. 325. 266. 126. 287. 339. 810. 182. 1107.
      128. 591. 240. 313. 329. 396. 230. 480. 242. 858. 381. 187. 225.
      148. 306. 113. 228. 179. 641. 166. 580. 138. 400. 163. 372. 153.
      125. 150. 120. 129. 99. 98. 100. 182. 442. 638. 449. 146. 157.
      197. 150. 596. 230. 105. 308. 191. 712. 216. 423. 312. 492. 191.
      740. 379. 675. 245. 1061. 325. 133. 133. 141. 160. 229. 216. 197.
      233. 215. 173. 237. 155. 318. 354. 425. 511.</_>
    <_>
      625. 258. 344. 246. 206. 203. 137. 171. 218. 199. 207. 235. 153.
      167. 114. 104. 316. 573. 294. 459. 370. 302. 153. 267. 216. 505.
      165. 688. 329. 323. 99. 201. 277. 179. 169. 139. 166. 388. 456.
      284. 190. 147. 198. 146. 126. 176. 155. 168. 174. 354. 283. 483.
      211. 426. 375. 914. 107. 211. 108. 243. 167. 270. 177. 307. 1090.
      206. 749. 307. 680. 240. 507. 203. 700. 183. 757. 192. 737. 389.
      527. 147. 239. 335. 273. 238. 160. 435. 213. 148. 294. 259. 271.
      186. 189. 211. 180. 123. 315. 151. 247. 129. 461. 195. 659. 187.
      395. 148. 379. 130. 423. 142. 452. 139. 190. 145. 119. 100. 167.
      186. 540. 161. 126. 190. 169. 125. 193. 385. 287. 180. 165. 189.
      174. 146. 164. 174. 444. 256. 122. 375. 199. 238. 111. 192. 131.
      131. 175. 337. 182. 324. 86. 208. 85. 239. 177. 714. 196. 492. 91.
      219. 112. 300. 163. 177. 426. 320. 267. 324. 252. 335. 152. 363.
      428. 327. 266. 294. 383. 313. 176. 550. 460. 955. 242. 1174. 156.
      905. 160. 474. 243. 579. 320. 723. 345. 1097. 314. 107. 272. 173.
      328. 130. 308. 178. 692. 159. 450. 121. 639. 202. 422. 160. 145.
      112. 112. 103. 97. 115. 88. 138. 434. 495. 366. 152. 199. 197.
      216. 182. 295. 110. 398. 276. 836. 230. 638. 339. 394. 185. 633.
      253. 976. 431. 1093. 381. 159. 173. 135. 216. 295. 302. 269. 355.
      194. 216. 203. 188. 508. 619. 526. 467.</_>
    <_>
      4982. 234. 361. 257. 161. 235. 146. 168. 181. 240. 187. 237. 137.
      168. 99. 119. 332. 468. 265. 460. 345. 341. 166. 258. 221. 506.
      203. 592. 281. 267. 64. 168. 215. 154. 132. 140. 152. 427. 412.
      258. 128. 144. 150. 173. 133. 164. 147. 149. 148. 329. 304. 392.
      190. 462. 343. 903. 108. 225. 127. 240. 138. 260. 163. 274. 1168.
      176. 743. 255. 692. 280. 486. 191. 724. 232. 766. 185. 708. 295.
      475. 142. 219. 225. 274. 190. 179. 393. 212. 133. 296. 249. 299.
      178. 182. 253. 157. 81. 332. 118. 215. 140. 496. 221. 619. 185.
      356. 152. 367. 123. 389. 159. 442. 144. 136. 156. 97. 105. 179.
      184. 495. 150. 118. 173. 146. 109. 165. 326. 219. 148. 188. 141.
      601. 158. 137. 149. 84. 127. 123. 327. 193. 280. 94. 141. 85. 93.
      186. 341. 163. 306. 87. 217. 82. 245. 205. 702. 202. 495. 116.
      233. 96. 287. 106. 157. 368. 282. 214. 266. 186. 327. 131. 324.
      324. 326. 184. 288. 348. 326. 133. 452. 459. 948. 213. 1074. 175.
      768. 157. 489. 227. 566. 302. 722. 285. 1037. 284. 95. 248. 119.
      282. 111. 252. 168. 657. 160. 503. 126. 545. 228. 418. 131. 107.
      116. 118. 106. 87. 87. 96. 160. 405. 497. 355. 135. 202. 226. 181.
      676. 230. 84. 353. 211. 830. 203. 686. 366. 355. 193. 734. 245.
      854. 300. 963. 278. 161. 115. 110. 152. 283. 232. 221. 320. 213.
      199. 210. 176. 400. 446. 346. 467.</_>
    <_>
      1471. 334. 343. 283. 191. 243. 132. 185. 233. 236. 204. 247. 180.
      185. 115. 100. 329. 504. 314. 480. 332. 373. 161. 246. 217. 422.
      198. 603. 252. 278. 109. 198. 226. 183. 130. 159. 191. 487. 125.
      286. 190. 153. 185. 148. 147. 178. 185. 186. 157. 326. 365. 444.
      217. 522. 340. 636. 97. 220. 128. 241. 163. 275. 184. 272. 1203.
      233. 684. 278. 702. 288. 515. 179. 790. 230. 776. 162. 745. 336.
      471. 154. 245. 274. 304. 270. 174. 409. 246. 152. 316. 304. 333.
      216. 217. 258. 216. 133. 377. 132. 209. 103. 454. 230. 324. 168.
      367. 158. 367. 165. 421. 191. 487. 167. 247. 192. 148. 152. 218.
      167. 781. 161. 173. 236. 218. 165. 172. 369. 263. 175. 208. 251.
      653. 146. 171. 149. 99. 163. 134. 434. 207. 229. 131. 168. 135.
      129. 177. 334. 176. 347. 98. 211. 87. 250. 212. 719. 261. 422.
      129. 231. 101. 253. 181. 208. 418. 273. 188. 274. 154. 324. 154.
      376. 352. 267. 255. 245. 309. 309. 159. 430. 445. 973. 216. 817.
      185. 798. 217. 496. 259. 566. 367. 610. 266. 980. 284. 101. 227.
      170. 303. 137. 323. 222. 590. 190. 493. 123. 588. 212. 496. 218.
      129. 127. 125. 111. 98. 115. 99. 166. 472. 502. 379. 153. 214.
      239. 208. 702. 277. 115. 452. 238. 878. 213. 671. 393. 441. 178.
      770. 233. 854. 323. 905. 292. 158. 182. 115. 216. 276. 216. 264.
      335. 230. 210. 231. 149. 345. 431. 363. 430.</_>
    <_>
      2951. 293. 320. 256. 209. 268. 136. 193. 221. 239. 204. 242. 201.
      182. 88. 103. 321. 474. 284. 476. 405. 360. 197. 292. 252. 440.
      217. 627. 282. 293. 101. 185. 240. 145. 159. 141. 149. 410. 415.
      282. 176. 185. 179. 134. 135. 161. 176. 155. 120. 283. 406. 491.
      184. 457. 280. 896. 102. 201. 119. 238. 170. 270. 165. 271. 1125.
      192. 724. 245. 664. 305. 404. 176. 706. 210. 679. 186. 746. 258.
      402. 127. 227. 288. 276. 215. 228. 470. 180. 159. 292. 317. 331.
      188. 208. 222. 184. 118. 335. 135. 232. 99. 500. 243. 635. 185.
      374. 189. 338. 119. 443. 194. 476. 144. 203. 157. 125. 131. 235.
      206. 511. 157. 123. 198. 198. 155. 188. 258. 224. 140. 153. 235.
      324. 181. 145. 179. 225. 201. 117. 418. 201. 283. 106. 159. 93.
      129. 181. 300. 157. 310. 77. 236. 73. 242. 201. 662. 251. 455.
      112. 220. 93. 282. 154. 176. 323. 267. 213. 282. 181. 298. 118.
      406. 433. 307. 246. 303. 335. 344. 110. 425. 360. 1042. 235. 813.
      165. 797. 164. 478. 273. 517. 335. 684. 297. 990. 218. 83. 238.
      143. 309. 113. 291. 194. 591. 161. 469. 126. 609. 209. 499. 161.
      111. 94. 123. 108. 107. 121. 92. 179. 463. 490. 427. 146. 190.
      193. 187. 170. 239. 120. 377. 295. 881. 266. 725. 415. 430. 165.
      749. 245. 872. 359. 1030. 405. 157. 165. 139. 201. 309. 231. 241.
      310. 236. 211. 250. 171. 424. 434. 445. 507.</_>
    <_>
      535. 203. 358. 207. 206. 230. 103. 150. 223. 238. 161. 219. 147.
      161. 97. 128. 277. 348. 271. 481. 362. 349. 190. 245. 230. 411.
      162. 721. 302. 338. 117. 309. 329. 160. 147. 143. 150. 351. 425.
      265. 188. 153. 206. 158. 196. 170. 185. 152. 145. 283. 283. 461.
      203. 478. 399. 877. 136. 225. 125. 250. 164. 284. 194. 276. 1177.
      181. 698. 178. 614. 294. 579. 191. 691. 190. 700. 186. 750. 354.
      450. 140. 251. 337. 292. 298. 170. 428. 230. 165. 333. 227. 342.
      165. 221. 261. 198. 134. 339. 168. 217. 157. 499. 257. 655. 207.
      319. 156. 335. 131. 502. 226. 553. 179. 215. 165. 170. 147. 228.
      175. 584. 196. 138. 225. 158. 159. 199. 436. 302. 223. 139. 180.
      152. 160. 165. 227. 448. 302. 136. 411. 212. 222. 106. 150. 115.
      134. 175. 263. 165. 312. 125. 246. 100. 216. 194. 729. 205. 441.
      114. 229. 111. 331. 200. 205. 445. 370. 284. 358. 174. 284. 145.
      402. 424. 343. 365. 299. 338. 247. 153. 471. 466. 905. 251. 923.
      173. 696. 159. 445. 252. 557. 321. 560. 316. 910. 327. 122. 277.
      152. 349. 171. 259. 248. 697. 153. 453. 169. 630. 211. 461. 195.
      161. 160. 122. 129. 132. 118. 136. 163. 436. 492. 348. 162. 180.
      190. 257. 158. 299. 121. 403. 329. 775. 254. 608. 388. 405. 198.
      701. 263. 895. 341. 1038. 423. 209. 176. 167. 293. 338. 277. 233.
      315. 233. 275. 252. 230. 430. 468. 443. 461.</_>
    <_>
      440. 515. 562. 385. 189. 248. 156. 182. 290. 309. 329. 240. 160.
      207. 142. 90. 319. 887. 405. 764. 271. 339. 168. 283. 245. 540.
      246. 586. 185. 229. 93. 195. 111. 152. 152. 152. 150. 319. 162.
      270. 105. 152. 169. 143. 134. 176. 143. 163. 126. 341. 518. 296.
      210. 527. 324. 406. 102. 212. 91. 201. 149. 230. 109. 202. 1507.
      368. 1092. 293. 636. 266. 459. 203. 1215. 283. 1338. 223. 759.
      306. 494. 133. 281. 258. 306. 151. 166. 572. 277. 140. 382. 316.
      348. 192. 171. 307. 170. 75. 258. 118. 169. 145. 336. 233. 247.
      177. 310. 110. 299. 93. 310. 168. 282. 133. 154. 141. 133. 98.
      242. 153. 589. 111. 130. 229. 169. 75. 126. 219. 131. 105. 151.
      195. 168. 168. 116. 169. 183. 136. 131. 439. 233. 213. 109. 158.
      78. 94. 148. 403. 175. 363. 87. 226. 79. 198. 222. 779. 305. 358.
      95. 205. 94. 209. 67. 144. 345. 224. 206. 276. 187. 304. 94. 285.
      427. 249. 231. 323. 285. 313. 122. 387. 440. 721. 228. 1316. 157.
      1150. 186. 516. 348. 600. 330. 1086. 281. 1420. 269. 114. 301.
      128. 220. 103. 176. 141. 561. 202. 426. 174. 480. 219. 294. 138.
      128. 369. 137. 83. 100. 116. 89. 129. 478. 210. 356. 139. 194.
      214. 157. 169. 189. 74. 315. 200. 984. 203. 898. 312. 350. 184.
      739. 255. 1473. 419. 1544. 475. 138. 105. 111. 148. 335. 253. 292.
      282. 219. 194. 227. 179. 519. 568. 455. 436.</_>
    <_>
      7664. 284. 326. 358. 222. 219. 115. 195. 290. 236. 245. 236. 190.
      150. 120. 101. 268. 636. 342. 446. 257. 310. 142. 267. 211. 394.
      242. 678. 185. 190. 126. 199. 361. 183. 178. 135. 120. 350. 381.
      285. 227. 126. 149. 150. 123. 146. 113. 169. 143. 278. 202. 474.
      176. 509. 325. 886. 154. 222. 139. 229. 137. 182. 132. 262. 930.
      202. 634. 248. 595. 298. 501. 309. 655. 192. 752. 185. 605. 311.
      359. 122. 333. 397. 279. 255. 133. 341. 241. 151. 306. 287. 280.
      205. 186. 135. 154. 157. 254. 131. 205. 146. 325. 195. 648. 244.
      270. 144. 252. 119. 324. 147. 508. 192. 161. 143. 102. 84. 213.
      174. 558. 136. 139. 158. 132. 114. 193. 308. 217. 199. 177. 201.
      707. 153. 190. 184. 91. 143. 182. 388. 214. 200. 128. 124. 93.
      140. 176. 280. 113. 225. 114. 276. 77. 173. 267. 753. 295. 269.
      107. 196. 106. 211. 133. 177. 333. 334. 203. 370. 166. 350. 131.
      423. 325. 257. 276. 269. 319. 265. 135. 335. 400. 838. 217. 880.
      154. 574. 237. 289. 264. 366. 223. 420. 237. 790. 308. 134. 214.
      132. 279. 108. 182. 129. 578. 143. 408. 107. 417. 154. 282. 136.
      111. 125. 128. 127. 88. 89. 112. 159. 410. 598. 405. 129. 168.
      198. 146. 561. 199. 101. 312. 222. 640. 234. 448. 307. 459. 178.
      582. 390. 880. 310. 1028. 371. 138. 115. 178. 155. 246. 230. 237.
      265. 172. 177. 204. 146. 326. 379. 416. 484.</_>
    <_>
      9147. 268. 246. 252. 222. 224. 136. 158. 267. 212. 186. 236. 189.
      110. 87. 100. 273. 445. 256. 344. 262. 260. 145. 212. 251. 413.
      211. 688. 178. 212. 95. 223. 409. 153. 203. 148. 154. 279. 375.
      242. 206. 138. 140. 121. 172. 152. 144. 120. 125. 332. 136. 452.
      167. 487. 399. 943. 150. 234. 98. 195. 149. 246. 128. 216. 992.
      227. 677. 261. 625. 251. 417. 234. 661. 185. 651. 213. 557. 454.
      316. 142. 330. 326. 224. 267. 144. 380. 220. 134. 292. 241. 296.
      184. 155. 102. 188. 177. 223. 146. 187. 144. 306. 175. 687. 210.
      223. 113. 245. 159. 294. 165. 455. 188. 147. 123. 99. 105. 210.
