<?xml version="1.0"?>
<opencv_storage>
<opencv_ml_svm>
  <format>3</format>
  <svmType>C_SVC</svmType>
  <kernel>
    <type>RBF</type>
    <gamma>1.5000000000000001e-04</gamma></kernel>
  <C>2.5000000000000000e+00</C>
  <term_criteria><epsilon>1.1920928955078125e-07</epsilon>
    <iterations>1000</iterations></term_criteria>
  <var_count>256</var_count>
  <class_count>2</class_count>
  <class_labels type_id="opencv-matrix">
    <rows>2</rows>
    <cols>1</cols>
    <dt>i</dt>
    <data>
      0 1</data></class_labels>
  <sv_total>2000</sv_total>
  <support_vectors>
    <_>
      4278. 1130. 963. 1135. 798. 1121. 767. 1028. 1380. 1534. 1359.
      1428. 1010. 1361. 974. 1321. 790. 2209. 1312. 1981. 1094. 1864.
      1327. 1627. 658. 1208. 849. 936. 597. 974. 837. 848. 673. 697.
      1345. 889. 1329. 1201. 1441. 1141. 1234. 1320. 883. 728. 2579.
      2514. 1694. 1338. 722. 1166. 986. 978. 2018. 1907. 2695. 2403.
      599. 1068. 582. 690. 1055. 1163. 963. 798. 763. 1217. 801. 1070.
      507. 679. 484. 535. 1740. 1881. 1272. 1230. 822. 838. 707. 552.
      1553. 2914. 1877. 2531. 781. 1310. 1080. 1201. 1095. 1662. 1092.
      1233. 654. 955. 759. 670. 653. 754. 579. 612. 743. 813. 649. 632.
      1186. 1165. 666. 602. 2578. 1872. 1385. 904. 1331. 1791. 1285.
      1216. 1543. 1816. 2111. 2570. 1356. 1638. 663. 580. 1415. 1170.
      1044. 764. 859. 817. 1303. 1355. 706. 667. 1046. 1170. 2122. 1813.
      1744. 2511. 1112. 1149. 1324. 1660. 837. 1186. 1750. 2524. 625.
      676. 1193. 1191. 812. 1060. 877. 1158. 478. 621. 620. 919. 682.
      512. 1657. 1058. 1205. 812. 1727. 1157. 1057. 943. 1151. 1022.
      2272. 1665. 2089. 1603. 708. 618. 995. 811. 1445. 1161. 2281.
      1913. 790. 772. 634. 635. 802. 829. 786. 765. 1003. 892. 1223.
      1398. 828. 650. 1000. 766. 2328. 2016. 1939. 2670. 1574. 1015.
      1365. 1064. 1546. 1521. 2836. 2799. 735. 846. 1216. 1134. 1439.
      1325. 1340. 1579. 703. 734. 778. 746. 670. 518. 849. 741. 852.
      715. 1095. 645. 1212. 803. 1073. 891. 2274. 979. 1703. 737. 1457.
      913. 1567. 1169. 1320. 1022. 1843. 1387. 1481. 816. 943. 742.
      1174. 724. 859. 528.</_>
    <_>
      10113. 520. 652. 734. 580. 639. 495. 629. 1607. 1019. 1035. 891.
      1231. 1287. 792. 914. 579. 959. 1503. 1893. 701. 998. 1095. 1466.
      455. 494. 715. 662. 544. 679. 672. 754. 579. 340. 1350. 660. 1842.
      1254. 2062. 1374. 1091. 677. 964. 641. 4712. 2889. 2148. 1664.
      567. 406. 1242. 1252. 2877. 2337. 4591. 4324. 396. 282. 659. 639.
      1332. 1088. 1568. 1352. 689. 1075. 488. 767. 508. 773. 244. 399.
      1895. 1923. 851. 1049. 943. 1065. 320. 420. 1790. 3264. 2667.
      4354. 874. 1648. 933. 1411. 977. 1628. 826. 1095. 754. 1173. 452.
      594. 455. 487. 375. 399. 977. 1074. 590. 592. 894. 767. 370. 286.
      2862. 1857. 921. 675. 1095. 1254. 1343. 1432. 2190. 2722. 2787.
      4273. 715. 674. 387. 414. 1547. 1244. 906. 817. 645. 553. 902.
      1088. 582. 512. 506. 688. 3289. 2031. 1660. 2182. 1526. 1454. 890.
      1227. 670. 719. 1615. 2542. 408. 562. 786. 1101. 474. 544. 732.
      982. 381. 499. 505. 759. 655. 386. 1781. 872. 1775. 1128. 2005.
      1259. 1205. 751. 1162. 925. 4228. 2681. 2353. 1648. 562. 401.
      1227. 1028. 1566. 1368. 2984. 2546. 396. 282. 534. 507. 982. 946.
      974. 1056. 898. 902. 638. 1035. 661. 779. 282. 352. 2298. 2383.
      1129. 2302. 1478. 1353. 499. 600. 1621. 1949. 3071. 4357. 655.
      1062. 698. 1270. 995. 1376. 754. 1435. 527. 875. 391. 573. 575.
      493. 554. 625. 1034. 1057. 553. 588. 1116. 817. 908. 983. 2307.
      1408. 914. 590. 1161. 861. 1257. 1391. 1313. 1440. 1481. 2114.
      823. 502. 597. 656. 974. 886. 545. 596.</_>
    <_>
      12176. 737. 1056. 1004. 723. 906. 655. 722. 1353. 1056. 1254.
      1147. 1125. 1199. 928. 929. 671. 1231. 1280. 1515. 861. 1265.
      1195. 1249. 505. 718. 1063. 812. 641. 799. 967. 1000. 787. 486.
      1690. 1011. 1885. 1231. 1885. 1284. 1269. 803. 1432. 843. 3404.
      2344. 2178. 1444. 550. 526. 1143. 1046. 2401. 2037. 3461. 2929.
      438. 445. 867. 604. 1448. 1186. 1733. 1288. 747. 1378. 689. 1077.
      577. 1030. 394. 546. 1624. 1854. 1220. 1406. 983. 1056. 592. 562.
      1388. 2651. 1886. 2785. 837. 1368. 778. 1189. 962. 1663. 845.
      1237. 854. 1250. 739. 807. 552. 672. 531. 619. 998. 1175. 720.
      722. 1121. 840. 630. 565. 2641. 1667. 1170. 925. 905. 1084. 1040.
      1109. 1598. 1872. 1992. 2739. 922. 800. 720. 593. 1541. 1214.
      1301. 995. 800. 662. 879. 1209. 836. 720. 684. 848. 2406. 1877.
      1407. 2302. 1409. 1366. 909. 1331. 761. 912. 1112. 1669. 543. 633.
      702. 840. 679. 870. 684. 1179. 556. 682. 559. 979. 854. 481. 1797.
      1036. 1991. 1355. 2171. 1221. 1404. 870. 1368. 1181. 3247. 2071.
      2105. 1567. 667. 486. 1187. 811. 1599. 1321. 2690. 2121. 908. 589.
      748. 692. 1199. 1036. 1116. 1076. 764. 907. 699. 1126. 879. 959.
      436. 654. 1956. 2176. 1135. 2512. 1856. 1454. 749. 991. 1358.
      1348. 2119. 2698. 592. 980. 638. 1042. 1124. 1509. 755. 1388. 792.
      1117. 528. 730. 635. 498. 715. 721. 1140. 1211. 722. 582. 1322.
      813. 1103. 1158. 2276. 1358. 939. 684. 1065. 693. 1210. 1127.
      1199. 1258. 1272. 1467. 1159. 642. 671. 642. 1081. 863. 639. 627.</_>
    <_>
      3555. 1019. 1290. 1265. 911. 1044. 685. 802. 1508. 1211. 1590.
      1426. 1034. 1016. 872. 871. 840. 1550. 1326. 1656. 1094. 1585.
      1371. 1314. 773. 992. 1239. 1051. 672. 918. 1207. 1111. 778. 644.
      1820. 1018. 1315. 1010. 1616. 1108. 1349. 878. 1479. 957. 2179.
      1630. 1534. 1111. 595. 708. 1118. 907. 1947. 1635. 2897. 2368.
      607. 675. 896. 692. 1012. 962. 1200. 857. 1017. 1464. 941. 1291.
      682. 1066. 467. 606. 1593. 1830. 1197. 1369. 919. 856. 691. 644.
      1488. 2740. 1883. 2817. 795. 1573. 887. 1206. 1141. 1622. 1215.
      1227. 847. 1248. 1067. 891. 658. 799. 752. 852. 785. 885. 630.
      688. 981. 892. 751. 783. 2008. 1422. 1136. 926. 1068. 1357. 1397.
      1354. 1427. 1831. 2170. 2731. 1066. 1053. 947. 798. 1330. 1217.
      1383. 1133. 1021. 804. 1225. 1341. 972. 766. 775. 980. 2251. 1791.
      1862. 2700. 1252. 1223. 872. 1299. 987. 1094. 1295. 1810. 642.
      703. 834. 983. 1033. 1245. 1027. 1444. 493. 820. 624. 1159. 950.
      614. 2097. 1209. 1592. 1050. 1997. 1254. 1505. 1022. 1517. 1325.
      2093. 1481. 1461. 1155. 844. 619. 1220. 880. 1615. 1206. 2741.
      2147. 1031. 861. 894. 898. 820. 846. 770. 879. 1195. 1179. 991.
      1364. 1121. 1031. 634. 882. 2306. 2203. 1651. 2393. 2153. 1521.
      995. 1311. 1620. 1464. 2131. 2634. 789. 901. 784. 955. 1516. 1723.
      1161. 1643. 933. 1071. 715. 1067. 752. 638. 765. 768. 896. 781.
      872. 744. 1042. 754. 784. 715. 1661. 1044. 929. 641. 1143. 858.
      1371. 1205. 1174. 1249. 1539. 1552. 1253. 753. 743. 685. 1029.
      837. 654. 622.</_>
    <_>
      46274. 617. 862. 986. 493. 615. 475. 668. 1248. 946. 1372. 1249.
      578. 700. 641. 691. 571. 1096. 1243. 1908. 801. 1228. 841. 1118.
      505. 667. 1383. 944. 402. 536. 660. 760. 416. 353. 1305. 622.
      1220. 762. 1631. 973. 697. 425. 866. 472. 2116. 1670. 1560. 1014.
      509. 446. 1090. 1151. 2278. 1527. 3471. 3064. 348. 324. 859. 569.
      885. 730. 1365. 924. 912. 1397. 744. 1141. 479. 813. 284. 557.
      2062. 2373. 1418. 1707. 602. 825. 373. 478. 1357. 2864. 1777.
      2968. 697. 1316. 694. 1139. 1021. 1801. 1008. 1638. 548. 1002.
      483. 734. 513. 496. 471. 484. 777. 837. 552. 508. 792. 576. 511.
      420. 1918. 1174. 978. 691. 952. 1151. 1139. 1106. 1809. 1920.
      2143. 2938. 706. 591. 621. 509. 1133. 760. 1005. 715. 909. 812.
      1070. 1310. 535. 522. 448. 595. 2374. 1975. 2019. 2771. 950. 1011.
      730. 968. 832. 964. 1443. 2250. 375. 484. 573. 762. 731. 937. 929.
      1309. 430. 549. 398. 668. 674. 409. 1863. 810. 1441. 825. 1674.
      871. 1054. 631. 1266. 743. 2505. 1490. 1819. 1442. 522. 357. 949.
      676. 1572. 1215. 2302. 1944. 534. 407. 666. 406. 811. 675. 893.
      823. 996. 1237. 822. 1345. 770. 748. 323. 407. 2967. 3073. 2050.
      2831. 1381. 1191. 431. 640. 1384. 1653. 2179. 2534. 591. 951. 527.
      868. 1309. 1726. 1099. 1677. 528. 727. 320. 502. 567. 463. 539.
      430. 801. 841. 531. 375. 1058. 585. 728. 544. 1671. 981. 656. 386.
      902. 568. 1001. 760. 1110. 1187. 1088. 1241. 859. 454. 615. 411.
      786. 681. 429. 435.</_>
    <_>
      2632. 916. 1127. 1256. 773. 934. 686. 761. 1576. 1322. 1702. 1465.
      950. 850. 815. 900. 765. 1505. 1321. 1746. 982. 1528. 1299. 1359.
      688. 870. 1177. 989. 676. 858. 1159. 1106. 656. 517. 1685. 886.
      1463. 1040. 1930. 1159. 1083. 771. 1366. 815. 2486. 1813. 1718.
      1195. 565. 629. 1124. 863. 2334. 1671. 3545. 2763. 456. 525. 831.
      636. 1084. 909. 1513. 1000. 859. 1424. 811. 1424. 575. 978. 341.
      557. 1887. 1961. 1393. 1412. 908. 912. 557. 525. 1490. 3060. 1935.
      3129. 804. 1613. 800. 1293. 1117. 1725. 1144. 1322. 807. 1282.
      914. 868. 610. 741. 594. 697. 903. 922. 656. 663. 1044. 840. 685.
      614. 2198. 1623. 1194. 984. 1104. 1423. 1311. 1339. 1558. 2054.
      2301. 2900. 998. 919. 720. 634. 1359. 1174. 1360. 948. 897. 923.
      1127. 1437. 787. 679. 696. 870. 2591. 2174. 2220. 2843. 1202.
      1167. 931. 1389. 953. 1087. 1320. 2168. 529. 573. 731. 1030. 925.
      1213. 994. 1554. 444. 683. 587. 1067. 849. 597. 2072. 1137. 1624.
      998. 2216. 1307. 1336. 888. 1396. 1116. 2399. 1519. 1713. 1344.
      770. 532. 1290. 869. 1629. 1189. 2759. 2087. 845. 658. 705. 750.
      824. 770. 813. 957. 1044. 1185. 1009. 1437. 1010. 885. 567. 720.
      2873. 2797. 2010. 2913. 1898. 1396. 835. 1058. 1540. 1732. 2218.
      2839. 654. 823. 610. 895. 1585. 1874. 1255. 1859. 807. 1011. 563.
      929. 740. 570. 641. 655. 1070. 871. 817. 573. 1214. 717. 742. 707.
      2034. 1084. 997. 615. 1255. 796. 1334. 1053. 1278. 1186. 1481.
      1557. 1226. 687. 675. 577. 1014. 723. 570. 540.</_>
    <_>
      3158. 856. 1186. 1255. 695. 809. 721. 728. 1499. 1278. 1677. 1499.
      990. 973. 830. 906. 678. 1604. 1337. 2107. 959. 1423. 1375. 1739.
      672. 889. 1048. 923. 564. 801. 956. 982. 672. 459. 1651. 866.
      1475. 911. 1840. 1045. 1029. 780. 1179. 724. 2950. 2120. 1848.
      1280. 553. 684. 1082. 978. 2467. 1913. 4021. 2964. 436. 486. 680.
      501. 1149. 777. 1203. 784. 861. 1281. 739. 1111. 462. 782. 282.
      381. 2144. 2224. 1271. 1297. 975. 886. 491. 439. 1741. 3554. 2057.
      3510. 805. 1674. 927. 1381. 1397. 2074. 1150. 1329. 896. 1464.
      727. 786. 641. 592. 528. 514. 818. 732. 522. 424. 1148. 813. 592.
      479. 2571. 1554. 1065. 615. 1424. 1515. 1268. 1346. 1937. 2001.
      2215. 2620. 1109. 1020. 612. 531. 1499. 1170. 1031. 657. 840. 807.
      1367. 1567. 596. 549. 704. 939. 2458. 2125. 2539. 3048. 1059.
      1141. 1027. 1487. 735. 1070. 1560. 2527. 396. 522. 789. 1102. 793.
      994. 944. 1518. 309. 495. 525. 927. 797. 489. 2135. 1105. 1282.
      762. 2154. 1227. 1250. 848. 1655. 1111. 2660. 1685. 2107. 1387.
      621. 467. 1262. 934. 1332. 1039. 2694. 2136. 568. 472. 614. 592.
      575. 554. 699. 658. 1098. 1140. 1068. 1484. 646. 669. 489. 590.
      3221. 3212. 2233. 3106. 1700. 1481. 824. 970. 1579. 1940. 2486.
      3718. 594. 833. 661. 990. 1753. 2121. 1408. 2175. 720. 989. 523.
      834. 733. 553. 796. 724. 864. 604. 675. 474. 1291. 804. 802. 729.
      2032. 1123. 1015. 584. 1266. 842. 1513. 1273. 1182. 1031. 1371.
      1523. 1119. 676. 665. 639. 909. 561. 526. 431.</_>
    <_>
      36670. 419. 740. 720. 687. 724. 501. 593. 1338. 765. 1079. 986.
      1279. 1005. 721. 815. 698. 1355. 1602. 2492. 867. 1108. 884. 1054.
      469. 524. 1244. 624. 588. 652. 661. 650. 624. 328. 1380. 601.
      1422. 889. 1325. 1096. 1276. 625. 1063. 644. 2351. 2025. 1871.
      1531. 536. 556. 1031. 1386. 2448. 2011. 2699. 2834. 460. 427. 883.
      587. 1125. 976. 1143. 970. 897. 963. 620. 816. 515. 781. 354. 577.
      1706. 1922. 1036. 1258. 871. 874. 481. 481. 1944. 3312. 2600.
      3712. 730. 1151. 697. 965. 773. 1212. 727. 931. 649. 1365. 406.
      450. 456. 549. 430. 470. 948. 1091. 577. 705. 768. 699. 496. 532.
      2680. 1869. 1412. 1332. 1216. 1317. 1190. 1310. 1731. 1959. 1881.
      2752. 758. 636. 460. 480. 1062. 926. 820. 765. 623. 521. 786. 893.
      628. 519. 554. 589. 1473. 1014. 1082. 1550. 1067. 950. 929. 1059.
      1172. 1234. 2283. 3498. 530. 505. 824. 940. 698. 564. 713. 904.
      491. 424. 488. 689. 499. 317. 1604. 749. 1281. 1028. 1502. 1073.
      1105. 618. 1140. 890. 2447. 1745. 2695. 2054. 627. 424. 956. 789.
      1290. 1187. 2372. 2291. 634. 424. 643. 491. 1065. 943. 1038. 951.
      717. 767. 635. 966. 719. 815. 418. 530. 1535. 1663. 914. 2087.
      1570. 1019. 666. 916. 1855. 1907. 3078. 3632. 713. 1071. 756.
      1225. 849. 1027. 567. 1141. 549. 1052. 379. 626. 444. 374. 488.
      718. 891. 1146. 593. 596. 907. 596. 981. 1162. 1924. 1463. 1037.
      723. 1067. 730. 1237. 1445. 1193. 1306. 1370. 1854. 844. 441. 600.
      588. 922. 1256. 523. 661.</_>
    <_>
      67442. 386. 726. 546. 725. 675. 438. 652. 1453. 732. 1004. 779.
      1338. 993. 683. 768. 584. 894. 1515. 2012. 826. 978. 764. 870.
      466. 477. 1208. 585. 580. 675. 568. 534. 634. 356. 1212. 574.
      1344. 806. 1217. 1024. 1193. 576. 1025. 562. 2086. 1932. 1464.
      1380. 546. 585. 1011. 1363. 2151. 1602. 2401. 2441. 422. 404. 937.
      598. 1011. 858. 989. 922. 815. 882. 557. 745. 457. 769. 332. 503.
      1626. 1692. 1008. 1189. 748. 817. 376. 514. 1658. 2523. 2272.
      3014. 715. 999. 640. 925. 769. 1108. 745. 936. 666. 1134. 383.
      449. 431. 472. 378. 383. 686. 934. 511. 623. 700. 679. 433. 445.
      1765. 1465. 928. 1104. 821. 860. 1005. 1263. 1382. 1518. 1716.
      2430. 626. 676. 408. 434. 895. 799. 613. 661. 608. 489. 784. 776.
      551. 485. 438. 483. 1690. 1095. 1058. 1299. 1010. 836. 680. 860.
      963. 875. 1953. 2641. 462. 462. 560. 708. 503. 443. 734. 774. 497.
      412. 397. 517. 511. 351. 1344. 777. 1167. 888. 1292. 1073. 994.
      542. 1016. 745. 2023. 1596. 1868. 1822. 511. 363. 936. 764. 1092.
      1056. 1936. 1898. 452. 301. 639. 440. 967. 935. 1022. 901. 725.
      758. 591. 1029. 613. 853. 393. 468. 1601. 1536. 890. 2008. 1521.
      1028. 488. 747. 1513. 1519. 2726. 2906. 603. 973. 662. 1188. 860.
      984. 666. 1142. 516. 1066. 330. 672. 413. 405. 455. 726. 703.
      1162. 587. 565. 924. 667. 964. 1043. 1409. 1277. 764. 635. 803.
      593. 1026. 1377. 1080. 1219. 1029. 1626. 734. 456. 633. 605. 846.
      1006. 477. 639.</_>
    <_>
      68593. 566. 832. 824. 601. 659. 383. 714. 1264. 1141. 1254. 988.
      794. 1068. 620. 869. 653. 1019. 1156. 1541. 789. 1030. 771. 961.
      587. 658. 1359. 637. 416. 523. 531. 558. 521. 379. 1127. 745. 917.
      540. 929. 882. 911. 878. 788. 589. 1556. 1546. 1055. 1068. 538.
      661. 1016. 1276. 1756. 1341. 2643. 2830. 438. 600. 967. 649. 715.
      659. 724. 690. 1009. 955. 840. 997. 476. 709. 285. 509. 1900.
      1979. 1142. 1282. 524. 599. 387. 431. 1266. 1631. 2150. 2676. 691.
      951. 820. 1102. 1013. 1331. 1033. 1152. 546. 804. 500. 513. 348.
      481. 416. 511. 497. 689. 423. 472. 725. 799. 505. 571. 1234. 999.
      741. 815. 809. 834. 1113. 1219. 1458. 1882. 2522. 3977. 821. 828.
      570. 602. 912. 756. 713. 745. 921. 650. 978. 1084. 556. 571. 589.
      696. 2030. 1420. 1279. 1625. 888. 921. 905. 963. 872. 851. 1378.
      1808. 480. 468. 548. 746. 727. 708. 783. 727. 453. 461. 365. 562.
      612. 443. 1150. 808. 1011. 914. 1191. 919. 916. 646. 890. 739.
      1599. 1295. 1743. 1578. 507. 463. 759. 739. 1263. 1108. 2201.
      2257. 562. 405. 586. 499. 692. 749. 737. 642. 792. 769. 879. 1096.
      727. 794. 462. 472. 1906. 1877. 1406. 1764. 1410. 830. 697. 608.
      1274. 1122. 2391. 2575. 670. 918. 742. 1078. 1105. 1148. 872.
      1082. 578. 766. 447. 570. 400. 447. 454. 608. 546. 1043. 550. 488.
      1035. 736. 823. 766. 1081. 1101. 1057. 470. 781. 672. 1015. 1092.
      1107. 1411. 1322. 1837. 848. 537. 585. 554. 899. 928. 538. 523.</_>
    <_>
      955. 803. 1124. 1105. 763. 954. 518. 756. 1660. 1252. 1416. 1280.
      896. 976. 750. 791. 938. 1899. 1498. 1757. 1038. 1708. 1345. 1446.
      728. 803. 1481. 1028. 528. 643. 1088. 1025. 647. 494. 1709. 1091.
      1448. 1239. 1270. 1138. 1136. 957. 1063. 998. 2264. 2284. 1488.
      1402. 636. 902. 1172. 1063. 1912. 1852. 2389. 2206. 542. 650. 911.
      889. 1152. 1189. 1270. 1073. 1134. 1571. 1261. 1462. 630. 862.
      363. 513. 2023. 1775. 1209. 1243. 917. 763. 670. 566. 1847. 3265.
      2456. 2934. 763. 1348. 1020. 1157. 1136. 1375. 1407. 1273. 656.
      1042. 874. 677. 589. 740. 705. 850. 804. 1092. 616. 785. 934. 900.
      670. 747. 2377. 1939. 1254. 1208. 1243. 1695. 1592. 1898. 1571.
      2244. 2043. 3199. 831. 845. 827. 776. 1299. 1314. 1377. 1049.
      1118. 853. 1069. 1085. 929. 765. 715. 807. 2069. 1436. 1503. 2057.
      1213. 1030. 1037. 1216. 1359. 1141. 1801. 2084. 793. 778. 1036.
      1136. 1119. 1070. 1073. 1401. 513. 543. 601. 1043. 672. 532. 1576.
      968. 1496. 1338. 1724. 1268. 1080. 874. 935. 1027. 2088. 1918.
      1815. 1643. 887. 676. 1166. 965. 1650. 1519. 2832. 2159. 1034.
      757. 897. 866. 950. 980. 934. 1059. 1345. 1212. 1061. 1305. 1093.
      953. 714. 750. 2213. 1992. 1326. 1770. 2003. 1278. 1095. 1213.
      2017. 1568. 2507. 2555. 905. 1093. 1111. 1251. 1524. 1288. 1003.
      1305. 732. 943. 629. 767. 531. 557. 519. 698. 995. 1100. 837. 776.
      979. 764. 664. 631. 2068. 1417. 1091. 814. 1316. 940. 1464. 1433.
      1445. 1764. 1802. 1991. 1039. 569. 708. 614. 889. 779. 611. 603.</_>
    <_>
      22600. 765. 893. 943. 808. 824. 503. 677. 2026. 1506. 1725. 1441.
      1177. 1228. 834. 864. 746. 1334. 1289. 1712. 1082. 1690. 1228.
      1231. 659. 726. 1454. 804. 482. 637. 990. 896. 547. 396. 1153.
      758. 1000. 807. 1008. 811. 1315. 1075. 1219. 953. 1981. 1952.
      1336. 1192. 550. 666. 1068. 1137. 1956. 1498. 2741. 2491. 440.
      524. 882. 643. 785. 760. 1150. 868. 1058. 1399. 909. 1158. 596.
      956. 326. 457. 2137. 2241. 1381. 1453. 911. 847. 618. 546. 1642.
      2856. 2294. 2862. 760. 1265. 849. 1176. 975. 1195. 1158. 1052.
      571. 750. 717. 593. 485. 554. 513. 658. 641. 891. 469. 607. 998.
      970. 678. 748. 2268. 1764. 1147. 1157. 1013. 1240. 1280. 1586.
      1491. 1759. 2144. 3408. 817. 779. 677. 609. 1138. 1088. 1179. 968.
      905. 712. 921. 1008. 774. 616. 593. 712. 2558. 2059. 1756. 2497.
      1396. 1163. 960. 1259. 1051. 947. 1648. 1974. 596. 584. 780. 887.
      1096. 1105. 1037. 1219. 435. 541. 462. 963. 671. 463. 1335. 921.
      1272. 996. 1637. 1045. 1410. 1039. 1162. 1041. 2112. 1675. 1750.
      1457. 780. 494. 1032. 875. 1463. 1261. 2648. 2273. 893. 682. 844.
      711. 690. 702. 809. 714. 1183. 1053. 990. 1251. 1042. 889. 554.
      726. 2635. 2292. 1533. 2051. 2320. 1429. 969. 1181. 1801. 1506.
      2539. 2692. 730. 791. 776. 932. 1439. 1221. 1043. 1118. 614. 706.
      503. 674. 561. 533. 567. 616. 790. 949. 646. 566. 1299. 956. 826.
      774. 1893. 1274. 1046. 687. 1212. 769. 1298. 1226. 1131. 1254.
      1469. 1834. 1075. 544. 580. 499. 754. 520. 464. 466.</_>
    <_>
      18942. 745. 979. 950. 764. 889. 494. 696. 2034. 1604. 1755. 1618.
      1127. 1197. 819. 835. 743. 1402. 1290. 1630. 1076. 1599. 1229.
      1245. 745. 720. 1479. 761. 493. 631. 1037. 914. 512. 417. 1167.
      766. 997. 804. 1025. 877. 1360. 1082. 1227. 966. 2008. 2085. 1256.
      1265. 564. 653. 999. 1232. 2005. 1568. 2714. 2607. 443. 546. 913.
      637. 792. 763. 1115. 939. 979. 1390. 1008. 1149. 585. 933. 329.
      499. 2150. 2243. 1444. 1453. 993. 791. 600. 597. 1737. 2814. 2233.
      2964. 799. 1291. 844. 1191. 984. 1197. 1207. 1033. 552. 723. 732.
      671. 511. 643. 547. 659. 677. 908. 531. 600. 1045. 1048. 736. 843.
      2249. 1804. 1113. 1140. 1006. 1258. 1364. 1533. 1403. 1840. 2236.
      3570. 782. 791. 792. 661. 1053. 1084. 1240. 985. 948. 679. 983.
      1007. 777. 642. 660. 700. 2661. 2000. 1803. 2481. 1448. 1219.
      1072. 1269. 1067. 1016. 1601. 1946. 637. 618. 744. 853. 1099.
      1045. 956. 1269. 445. 564. 497. 978. 677. 495. 1314. 935. 1280.
      1000. 1607. 1065. 1456. 1164. 1072. 1084. 2102. 1713. 1808. 1433.
      736. 545. 1070. 842. 1581. 1241. 2674. 2239. 912. 723. 791. 728.
      691. 728. 818. 802. 1138. 1081. 943. 1266. 1081. 873. 576. 745.
      2769. 2175. 1572. 2084. 2431. 1458. 983. 1219. 1822. 1478. 2504.
      2618. 692. 872. 721. 945. 1459. 1268. 982. 1116. 638. 689. 518.
      702. 512. 549. 568. 650. 745. 966. 666. 589. 1284. 885. 851. 762.
      1913. 1300. 1103. 705. 1151. 773. 1319. 1245. 1130. 1286. 1486.
      1893. 1053. 524. 577. 535. 722. 551. 478. 488.</_>
    <_>
      12058. 590. 1076. 998. 681. 750. 530. 548. 1999. 1084. 1535. 1158.
      1630. 1332. 868. 843. 701. 1005. 1450. 1571. 882. 1170. 1148.
      1121. 561. 477. 915. 672. 610. 674. 985. 867. 631. 437. 1687. 922.
      1331. 970. 1555. 1158. 1471. 918. 1483. 872. 3469. 2764. 1874.
      1612. 528. 466. 1231. 1283. 2185. 1746. 3233. 2782. 402. 314. 785.
      520. 1019. 947. 1641. 1141. 816. 1098. 849. 965. 568. 1050. 253.
      425. 1882. 1842. 1212. 1219. 1080. 1045. 468. 533. 1854. 2732.
      2433. 3304. 776. 1410. 855. 1188. 918. 1325. 929. 1055. 827. 1201.
      698. 744. 440. 540. 558. 614. 825. 990. 553. 710. 899. 715. 565.
      515. 2474. 1981. 1074. 1123. 1025. 1129. 1344. 1666. 1572. 1867.
      1992. 3139. 646. 623. 615. 553. 1383. 1339. 1206. 1151. 707. 558.
      924. 1082. 746. 704. 512. 642. 2660. 1762. 1792. 2321. 1630. 1480.
      914. 1205. 807. 761. 1304. 1625. 564. 556. 633. 788. 751. 768.
      764. 1055. 492. 618. 480. 953. 746. 456. 1742. 983. 1712. 1248.
      2093. 1399. 1803. 1054. 1351. 1177. 3395. 2568. 2288. 1785. 633.
      465. 1150. 1044. 1458. 1380. 3114. 2526. 866. 536. 722. 707. 930.
      844. 1094. 1034. 891. 856. 786. 1221. 1059. 1167. 412. 601. 2297.
      2257. 1275. 2102. 2314. 1691. 676. 922. 1589. 1461. 2450. 2916.
      713. 993. 697. 1084. 1404. 1388. 858. 1282. 862. 1272. 421. 750.
      478. 431. 534. 630. 866. 1365. 572. 679. 1142. 740. 889. 898.
      2129. 1612. 867. 827. 1029. 674. 1172. 1395. 1248. 1527. 1268.
      1897. 1011. 498. 575. 603. 907. 860. 493. 610.</_>
    <_>
      32320. 536. 1052. 1032. 626. 707. 536. 547. 1921. 1175. 1452.
      1015. 1556. 1358. 870. 774. 712. 882. 1448. 1323. 816. 983. 988.
      926. 537. 509. 947. 563. 546. 674. 845. 708. 568. 400. 1654. 919.
      1306. 977. 1501. 1148. 1500. 800. 1280. 792. 3006. 2745. 1755.
      1449. 440. 464. 1102. 1257. 2033. 1783. 2723. 2524. 445. 385. 693.
      535. 933. 967. 1330. 1054. 754. 945. 806. 1054. 475. 797. 290.
      466. 1886. 1750. 1170. 1290. 969. 962. 454. 474. 1691. 2315. 2339.
      2818. 754. 1262. 798. 1056. 939. 1411. 986. 1104. 764. 1201. 652.
      614. 441. 503. 503. 561. 734. 901. 468. 657. 861. 625. 555. 449.
      2055. 1567. 952. 1043. 861. 1018. 1258. 1434. 1466. 1921. 1855.
      2928. 693. 580. 563. 572. 1176. 1084. 1080. 1054. 689. 519. 871.
      1049. 673. 520. 486. 572. 2524. 1776. 1510. 1952. 1647. 1412. 802.
      1039. 704. 613. 1208. 1560. 491. 535. 590. 688. 770. 720. 666.
      896. 551. 551. 397. 775. 674. 429. 1852. 1007. 1502. 1192. 1783.
      1243. 1635. 990. 1149. 1046. 3116. 2503. 2013. 1670. 576. 430.
      1028. 873. 1368. 1289. 2598. 2181. 708. 488. 676. 610. 921. 923.
      903. 1029. 820. 785. 858. 1211. 817. 1013. 393. 536. 2170. 2098.
      1368. 2129. 2057. 1446. 615. 867. 1494. 1321. 2488. 2757. 659.
      1016. 765. 1062. 1328. 1434. 940. 1358. 831. 1175. 438. 718. 416.
      419. 562. 671. 818. 1413. 584. 585. 1073. 764. 914. 861. 1748.
      1450. 796. 672. 897. 695. 1213. 1435. 1055. 1608. 1046. 1845. 830.
      476. 667. 627. 926. 885. 498. 607.</_>
    <_>
      2771. 898. 1175. 1039. 929. 1023. 587. 627. 1860. 1311. 1807.
      1575. 1075. 957. 904. 857. 1129. 1439. 1470. 1437. 1141. 1454.
      1101. 972. 847. 869. 1499. 1108. 654. 778. 1248. 962. 632. 535.
      1316. 962. 1295. 1122. 1164. 1123. 1209. 960. 1436. 1240. 2540.
      2199. 1650. 1486. 596. 684. 951. 759. 1651. 1713. 2241. 2028. 542.
      661. 1160. 981. 988. 1077. 1453. 1213. 1202. 1882. 1075. 1560.
      721. 1168. 426. 709. 1920. 1993. 1306. 1466. 1018. 925. 774. 825.
      1680. 2666. 1974. 2337. 701. 1214. 799. 958. 967. 1116. 1316.
      1143. 646. 875. 895. 709. 595. 955. 681. 984. 842. 1281. 653. 857.
      933. 946. 862. 1048. 2423. 2155. 1572. 1746. 939. 1199. 1231.
      1381. 1270. 1800. 1777. 2605. 724. 749. 874. 862. 1085. 1181.
      1389. 1217. 1145. 768. 918. 953. 976. 716. 645. 677. 2744. 1906.
      1587. 2026. 1440. 1156. 1010. 1183. 1875. 1278. 1514. 1687. 984.
      751. 859. 745. 1345. 1204. 1192. 1411. 596. 750. 669. 1135. 686.
      532. 1289. 835. 1651. 1293. 1587. 1278. 1348. 1085. 1219. 1177.
      2669. 2131. 1688. 1580. 1178. 670. 1201. 851. 1829. 1548. 2545.
      2148. 1188. 988. 1069. 1145. 1035. 1147. 1035. 1290. 1364. 1165.
      942. 1131. 1538. 1297. 707. 913. 2279. 1952. 1484. 1842. 2310.
      1419. 1093. 1336. 1987. 1460. 1927. 1754. 852. 872. 824. 946.
      1352. 1035. 984. 1091. 905. 911. 627. 815. 571. 575. 615. 724.
      1075. 1266. 827. 852. 852. 654. 596. 686. 2192. 1541. 1016. 914.
      1165. 795. 1222. 1019. 1286. 1383. 1348. 1589. 963. 555. 607. 585.
      824. 789. 600. 788.</_>
    <_>
      950. 788. 1088. 1093. 710. 841. 581. 616. 1400. 1018. 1608. 1351.
      888. 834. 715. 794. 1037. 1516. 1617. 1999. 967. 1380. 1453. 1301.
      725. 751. 1684. 1012. 541. 746. 1161. 1110. 582. 475. 1654. 887.
      1217. 967. 1547. 1030. 1065. 832. 1161. 901. 2214. 1804. 1794.
      1394. 559. 574. 1192. 997. 1928. 1897. 3327. 2742. 485. 478. 1021.
      684. 986. 942. 1517. 1150. 1238. 1572. 964. 1307. 665. 1044. 377.
      461. 1650. 1751. 1015. 1033. 980. 896. 590. 543. 2040. 3447. 2680.
      3541. 774. 1350. 966. 1180. 1117. 1536. 1178. 1145. 728. 1042.
      903. 748. 597. 658. 677. 784. 841. 1126. 576. 755. 975. 808. 655.
      555. 2523. 1829. 1146. 1231. 1179. 1414. 1600. 1674. 1559. 2169.
      2294. 3355. 951. 718. 820. 710. 1397. 1309. 1383. 1086. 1151. 743.
      1150. 1294. 912. 768. 662. 721. 2721. 1965. 1847. 2493. 1298.
      1333. 880. 1232. 1178. 1097. 1726. 2314. 626. 661. 846. 921. 1036.
      1066. 1068. 1515. 441. 649. 555. 1082. 814. 589. 1828. 1010. 1578.
      1216. 1745. 1196. 1451. 991. 1226. 1118. 2519. 2087. 2092. 1561.
      832. 619. 1392. 1083. 1550. 1364. 2734. 2207. 915. 676. 785. 823.
      800. 869. 1007. 1016. 1348. 1125. 909. 1288. 1226. 1082. 547. 726.
      2393. 2125. 1292. 1664. 2166. 1771. 929. 1054. 2127. 1788. 2552.
      3034. 711. 879. 762. 1051. 1593. 1430. 1005. 1247. 757. 876. 660.
      752. 602. 539. 665. 725. 1088. 1088. 682. 708. 1093. 713. 535.
      537. 2046. 1441. 852. 718. 1306. 950. 1563. 1388. 1182. 1421.
      1386. 1794. 1099. 603. 617. 534. 892. 771. 512. 544.</_>
    <_>
      1133. 871. 1106. 1153. 747. 926. 608. 644. 1447. 1117. 1514. 1380.
      809. 823. 741. 777. 1056. 1668. 1614. 2004. 998. 1540. 1401. 1372.
      770. 788. 1580. 1022. 562. 776. 1192. 1156. 565. 542. 1593. 862.
      1145. 1003. 1554. 1025. 1061. 890. 1213. 882. 2110. 1745. 1696.
      1397. 551. 681. 1171. 1039. 1919. 1846. 3198. 2628. 518. 515.
      1069. 754. 925. 951. 1393. 1189. 1199. 1611. 954. 1261. 667. 1001.
      357. 440. 1716. 1704. 1032. 1063. 1015. 874. 637. 550. 1995. 3415.
      2668. 3530. 716. 1320. 953. 1211. 1149. 1476. 1124. 1066. 709.
      1046. 958. 755. 616. 752. 672. 759. 778. 1117. 572. 737. 1005.
      843. 630. 609. 2477. 1848. 1191. 1207. 1184. 1535. 1573. 1617.
      1496. 2266. 2285. 3139. 973. 755. 848. 657. 1361. 1298. 1472.
      1115. 1094. 745. 1125. 1318. 953. 772. 675. 756. 2610. 1987. 1800.
      2538. 1310. 1302. 964. 1270. 1210. 1070. 1728. 2344. 612. 585.
      877. 953. 1101. 1157. 1104. 1525. 470. 631. 555. 1119. 760. 577.
      1834. 1010. 1538. 1318. 1821. 1149. 1408. 950. 1267. 1041. 2461.
      1885. 2134. 1631. 870. 651. 1366. 1040. 1450. 1219. 2734. 2111.
      914. 738. 795. 826. 809. 890. 935. 962. 1278. 1161. 974. 1282.
      1347. 1125. 523. 756. 2296. 2116. 1266. 1724. 2199. 1710. 935.
      1116. 2154. 1686. 2584. 2978. 736. 799. 789. 1052. 1516. 1469.
      1053. 1248. 734. 880. 662. 788. 568. 524. 672. 743. 1051. 1028.
      750. 689. 1091. 696. 604. 578. 1992. 1436. 896. 685. 1256. 891.
      1542. 1329. 1259. 1426. 1422. 1781. 1086. 583. 604. 534. 865. 741.
      562. 542.</_>
    <_>
      2536. 668. 1169. 1066. 600. 728. 540. 556. 1335. 804. 1391. 1113.
      887. 742. 696. 771. 795. 1170. 1631. 1989. 799. 1079. 1272. 1173.
      678. 584. 1743. 1117. 531. 551. 1141. 1106. 546. 475. 1588. 997.
      1206. 951. 1543. 1160. 826. 576. 1197. 852. 2208. 1670. 1907.
      1598. 533. 474. 1238. 1026. 1884. 1637. 3609. 2875. 518. 379.
      1153. 748. 981. 763. 1967. 1415. 1180. 1654. 1104. 1516. 795.
      1173. 362. 607. 1798. 1919. 1023. 1184. 881. 921. 479. 551. 1865.
      3242. 2586. 3655. 859. 1445. 899. 1273. 1295. 1459. 1306. 1458.
      692. 856. 740. 824. 610. 756. 676. 800. 996. 1399. 552. 771. 905.
      714. 564. 601. 2391. 1985. 1133. 1269. 1103. 1305. 1548. 1651.
      1759. 2296. 2559. 3608. 811. 642. 799. 680. 1382. 1206. 1419.
      1352. 1156. 844. 1287. 1231. 906. 765. 549. 686. 2628. 1564. 1518.
      2066. 1306. 1282. 835. 1122. 1138. 1008. 1759. 2279. 774. 694.
      813. 913. 1085. 955. 1185. 1652. 581. 584. 616. 1118. 801. 611.
      1593. 990. 1820. 1294. 1786. 1255. 1156. 812. 1131. 1048. 2586.
      2349. 2261. 1813. 837. 590. 1394. 1069. 1654. 1375. 2821. 2116.
      862. 627. 970. 876. 859. 866. 1145. 1106. 1378. 1222. 913. 1394.
      1282. 1218. 423. 618. 2176. 2034. 1165. 1696. 1934. 1728. 519.
      893. 2023. 1873. 2368. 3176. 791. 986. 647. 953. 1449. 1348. 981.
      1381. 773. 1001. 487. 848. 662. 627. 549. 679. 1193. 1312. 570.
      627. 855. 589. 653. 637. 2157. 1584. 804. 730. 1236. 966. 1321.
      1334. 1329. 1556. 1362. 1784. 850. 538. 642. 614. 950. 909. 541.
      686.</_>
    <_>
      14267. 526. 755. 856. 508. 543. 406. 685. 1189. 917. 1341. 1171.
      759. 768. 698. 842. 694. 1692. 1580. 2491. 787. 1177. 1163. 1331.
      555. 594. 1678. 942. 382. 481. 777. 778. 452. 304. 1402. 730. 953.
      714. 1375. 1067. 884. 632. 1006. 785. 1768. 1619. 1522. 1404. 490.
      661. 1297. 1375. 2062. 1893. 3955. 4138. 376. 467. 1188. 728. 739.
      706. 1326. 999. 1044. 1381. 753. 1003. 545. 1008. 274. 475. 1854.
      1987. 960. 1030. 800. 848. 500. 504. 1749. 2974. 2542. 3875. 808.
      1405. 1107. 1426. 1054. 1521. 1077. 1233. 600. 1193. 578. 582.
      409. 608. 415. 519. 832. 1100. 526. 633. 696. 782. 490. 555. 1988.
      1727. 1158. 1143. 1227. 1468. 1550. 1815. 2140. 2720. 3658. 5848.
      903. 851. 567. 580. 1046. 976. 968. 903. 982. 766. 1216. 1189.
      606. 646. 496. 645. 2596. 1858. 1975. 2425. 1226. 1060. 800. 1207.
      1297. 1165. 2321. 3137. 618. 559. 850. 980. 858. 820. 1066. 1330.
      374. 436. 467. 717. 690. 417. 1766. 838. 1192. 982. 1556. 1055.
      1240. 807. 1272. 882. 2030. 1642. 2099. 1898. 703. 468. 1271.
      1000. 1512. 1442. 3166. 2834. 562. 423. 809. 579. 626. 613. 956.
      681. 1434. 1425. 890. 1121. 989. 1185. 426. 454. 2480. 2406. 1368.
      1756. 2043. 1279. 651. 804. 2132. 1721. 3057. 3455. 777. 1058.
      907. 1129. 1339. 1484. 879. 1233. 510. 909. 391. 485. 506. 465.
      446. 499. 832. 917. 670. 562. 823. 608. 524. 457. 1583. 1363. 990.
      462. 1103. 737. 1220. 1187. 1547. 1738. 1975. 2606. 823. 403. 511.
      415. 916. 678. 514. 403.</_>
    <_>
      18839. 460. 857. 779. 586. 636. 497. 567. 1691. 1064. 1332. 977.
      1157. 1042. 803. 752. 625. 1020. 1740. 2375. 761. 1006. 1150.
      1345. 471. 538. 1270. 665. 522. 575. 800. 750. 720. 312. 2074.
      937. 1392. 850. 1683. 1200. 1202. 721. 1259. 657. 2051. 1837.
      1801. 1425. 517. 464. 1328. 1324. 2156. 1709. 3844. 3257. 411.
      331. 1072. 499. 894. 757. 1460. 1045. 786. 956. 574. 720. 585.
      952. 235. 373. 1843. 2015. 802. 824. 894. 892. 374. 379. 1727.
      2984. 2491. 3833. 884. 1750. 981. 1577. 1155. 1805. 883. 1065.
      894. 1454. 633. 639. 413. 490. 429. 478. 866. 1235. 504. 601. 830.
      709. 421. 356. 2364. 1793. 999. 841. 1163. 1286. 1481. 1684. 1958.
      2753. 3042. 4315. 691. 686. 526. 449. 1220. 1202. 979. 976. 794.
      593. 1044. 1105. 604. 574. 457. 550. 2932. 1960. 1671. 2208. 1314.
      1242. 872. 1143. 679. 795. 1950. 2884. 358. 435. 707. 999. 538.
      613. 707. 947. 394. 468. 447. 814. 733. 446. 2398. 1119. 1382.
      1078. 1914. 1341. 1532. 857. 1243. 985. 2013. 1845. 2172. 2016.
      527. 356. 1409. 1195. 1211. 1143. 2831. 2514. 512. 367. 616. 531.
      652. 736. 929. 845. 1009. 915. 608. 1057. 745. 964. 264. 458.
      2303. 2138. 936. 1665. 1964. 1354. 605. 697. 1802. 1931. 2990.
      3776. 701. 1268. 698. 1373. 1261. 1623. 752. 1277. 791. 1359. 416.
      740. 432. 441. 495. 721. 891. 1034. 520. 563. 980. 613. 662. 694.
      1695. 1434. 964. 522. 1012. 762. 1396. 1716. 1373. 2049. 1434.
      2264. 847. 533. 553. 536. 873. 1026. 488. 451.</_>
    <_>
      12247. 612. 1062. 883. 537. 694. 417. 583. 1268. 972. 1488. 1246.
      820. 897. 615. 785. 758. 1424. 1444. 2026. 850. 1015. 956. 1070.
      655. 726. 1600. 982. 488. 663. 772. 815. 498. 334. 1352. 747.
      1031. 882. 1409. 1051. 900. 682. 1119. 915. 1716. 1684. 1318.
      1349. 510. 582. 1160. 1237. 1927. 1993. 3715. 3721. 465. 459.
      1150. 893. 871. 812. 1441. 1098. 1117. 1524. 1006. 1254. 619.
      1206. 321. 569. 1775. 1934. 1286. 1424. 758. 831. 542. 611. 1608.
      2741. 2610. 3886. 740. 1245. 931. 1307. 1117. 1439. 1206. 1300.
      658. 1043. 701. 645. 422. 591. 536. 656. 765. 1089. 547. 751. 715.
      742. 576. 792. 2060. 1660. 1253. 1397. 932. 1120. 1438. 1778.
      1791. 2376. 3534. 5785. 706. 811. 703. 696. 1174. 1112. 1089.
      1154. 1046. 882. 1115. 1156. 853. 729. 536. 615. 2984. 1956. 1924.
      2176. 1348. 1213. 836. 1031. 1636. 1123. 1828. 2398. 689. 570.
      684. 724. 1010. 848. 1130. 1304. 545. 543. 505. 808. 631. 501.
      1479. 820. 1451. 1187. 1567. 1077. 1228. 861. 1045. 868. 2180.
      1784. 1904. 1577. 720. 456. 1166. 975. 1641. 1438. 2983. 2834.
      888. 612. 857. 736. 887. 921. 1052. 955. 1368. 1366. 958. 1104.
      1230. 1300. 448. 624. 2539. 2212. 1623. 1869. 1986. 1269. 727.
      922. 1979. 1475. 2788. 3041. 890. 877. 667. 987. 1403. 1296. 998.
      1144. 600. 923. 423. 606. 508. 461. 479. 580. 846. 1212. 677. 581.
      767. 646. 541. 517. 1697. 1426. 1125. 568. 887. 608. 1054. 1078.
      1385. 1512. 1758. 2489. 808. 434. 530. 451. 841. 862. 567. 541.</_>
    <_>
      21215. 649. 967. 976. 768. 770. 489. 728. 1361. 1021. 1273. 1044.
      891. 950. 750. 910. 757. 1593. 1441. 1865. 1118. 1376. 1020. 1001.
      559. 732. 1480. 778. 548. 635. 788. 757. 629. 412. 1467. 819.
      1286. 844. 1417. 1134. 1027. 758. 1175. 780. 1962. 1938. 1507.
      1276. 530. 710. 1121. 1442. 2068. 1794. 2993. 3166. 524. 670.
      1117. 698. 849. 876. 1202. 1017. 941. 1255. 825. 1065. 596. 984.
      375. 560. 1987. 2042. 1187. 1281. 861. 834. 512. 550. 1477. 2317.
      2555. 3460. 826. 1277. 1015. 1316. 1031. 1372. 1089. 1165. 683.
      955. 623. 591. 502. 569. 457. 579. 757. 951. 564. 675. 814. 852.
      579. 644. 1890. 1553. 1294. 1193. 1007. 1167. 1302. 1569. 1793.
      2114. 2597. 4084. 945. 997. 625. 629. 1148. 1127. 1053. 938. 992.
      698. 1019. 1070. 762. 594. 728. 751. 2086. 1435. 1528. 1932. 1230.
      1112. 951. 1107. 1295. 1072. 1860. 2345. 592. 571. 826. 871. 765.
      885. 940. 1111. 480. 537. 538. 761. 618. 435. 1538. 885. 1351.
      1120. 1523. 932. 1177. 818. 1213. 925. 2336. 1733. 2080. 1733.
      733. 546. 1030. 949. 1613. 1381. 2769. 2648. 758. 501. 785. 549.
      848. 787. 973. 798. 1146. 1052. 849. 1169. 984. 982. 643. 585.
      1987. 1904. 1344. 1995. 1911. 1294. 775. 884. 1714. 1362. 2967.
      3222. 777. 1181. 819. 1220. 1254. 1258. 920. 1155. 710. 1012. 473.
      646. 510. 528. 598. 679. 847. 1000. 783. 578. 928. 764. 780. 836.
      1663. 1388. 1265. 602. 1044. 715. 1197. 1278. 1288. 1593. 1728.
      2246. 1001. 434. 632. 524. 944. 897. 640. 574.</_>
    <_>
      47339. 471. 736. 744. 522. 585. 426. 515. 1284. 847. 1191. 935.
      840. 819. 610. 647. 588. 916. 1732. 2143. 622. 870. 837. 1033.
      509. 511. 1615. 638. 403. 477. 664. 582. 500. 271. 1340. 624.
      1092. 740. 1366. 1034. 865. 543. 1062. 634. 1817. 1795. 1492.
      1297. 454. 414. 1227. 1602. 1943. 1786. 3338. 3377. 385. 337.
      1172. 659. 904. 867. 1012. 948. 880. 964. 644. 838. 507. 867. 277.
      430. 1852. 1858. 1095. 1259. 747. 845. 410. 478. 1767. 2705. 2814.
      4104. 789. 1207. 846. 1209. 848. 1211. 880. 982. 543. 1050. 441.
      524. 364. 467. 380. 407. 740. 1054. 474. 618. 724. 663. 451. 463.
      1794. 1522. 1071. 1255. 892. 988. 1454. 1802. 1695. 2036. 2611.
      4218. 602. 581. 455. 434. 1070. 903. 827. 811. 773. 582. 929.
      1015. 566. 464. 377. 409. 2140. 1440. 1512. 1859. 1069. 1000. 731.
      847. 897. 789. 1806. 2470. 490. 446. 605. 804. 672. 627. 688. 917.
      495. 470. 379. 671. 528. 407. 1720. 735. 1252. 994. 1592. 963.
      1061. 643. 1021. 741. 1935. 1760. 2027. 1943. 530. 386. 1153. 960.
      1162. 1067. 2551. 2262. 567. 347. 707. 456. 966. 882. 1041. 866.
      886. 842. 703. 922. 875. 1142. 271. 438. 2052. 1799. 1094. 1778.
      1774. 1205. 577. 676. 1757. 1614. 3221. 3838. 736. 1081. 668.
      1080. 1064. 1186. 642. 1047. 566. 1028. 338. 477. 421. 375. 421.
      539. 775. 1129. 429. 452. 838. 529. 684. 705. 1443. 1323. 854.
      522. 882. 670. 1221. 1427. 1012. 1470. 1319. 2042. 715. 347. 526.
      439. 850. 1130. 391. 534.</_>
    <_>
      592. 665. 917. 1007. 549. 772. 412. 619. 1059. 674. 1142. 1131.
      687. 587. 618. 702. 1020. 1751. 1877. 2679. 896. 1204. 1201. 1327.
      673. 653. 1957. 1070. 473. 568. 1149. 1031. 458. 430. 1331. 784.
      787. 724. 1092. 811. 785. 636. 1082. 965. 1395. 1338. 1685. 1780.
      566. 854. 1337. 1293. 1770. 1614. 3305. 3135. 465. 534. 1447. 863.
      822. 659. 1803. 1317. 1277. 1857. 949. 1603. 849. 1558. 354. 623.
      1257. 1342. 960. 1201. 714. 736. 551. 717. 2021. 3323. 2835. 4153.
      849. 1514. 986. 1389. 988. 1347. 1165. 1245. 519. 964. 678. 703.
      504. 863. 598. 802. 1015. 1626. 583. 973. 667. 672. 647. 933.
      2176. 2187. 1627. 2669. 1164. 1533. 1697. 2086. 1735. 2423. 2875.
      4574. 787. 860. 776. 743. 1057. 899. 1427. 1237. 1016. 770. 1047.
      1104. 1012. 730. 612. 703. 1695. 1253. 1351. 1785. 1191. 924. 800.
      1039. 2123. 1375. 2417. 2796. 1002. 724. 977. 970. 1223. 1056.
      1284. 1577. 532. 554. 702. 1071. 800. 522. 1764. 847. 1439. 1104.
      1503. 1025. 937. 694. 865. 1009. 2276. 1692. 2109. 1872. 1053.
      668. 1478. 1192. 1888. 1377. 2914. 2406. 1086. 689. 1067. 991.
      1060. 757. 1547. 1143. 1471. 1404. 874. 1266. 1634. 1678. 563.
      652. 1640. 1675. 1091. 1595. 2141. 1183. 761. 1079. 2514. 1794.
      2766. 3351. 955. 984. 792. 1028. 1311. 1371. 906. 1257. 585. 737.
      388. 711. 557. 561. 473. 572. 1281. 1444. 841. 727. 636. 518. 433.
      541. 1913. 1638. 945. 775. 1269. 831. 1321. 1331. 1607. 1666.
      1889. 2137. 929. 410. 542. 500. 793. 568. 536. 499.</_>
    <_>
      1172. 700. 1141. 1007. 729. 796. 534. 661. 1398. 964. 1378. 983.
      843. 812. 665. 595. 854. 1400. 1776. 2214. 993. 1236. 1399. 1281.
      717. 742. 1740. 760. 556. 695. 1107. 900. 759. 492. 2075. 1029.
      1251. 860. 1316. 1119. 940. 835. 1146. 813. 1312. 1188. 1285.
      1197. 687. 770. 1588. 1555. 2308. 2091. 3533. 3469. 424. 535.
      1411. 716. 846. 829. 1485. 1159. 1067. 1204. 1119. 1286. 766.
      1176. 438. 582. 1602. 1617. 1033. 951. 779. 754. 524. 523. 1757.
      2691. 2998. 3885. 1027. 1620. 1188. 1626. 1368. 1824. 1379. 1202.
      828. 1110. 833. 736. 439. 622. 700. 819. 755. 1396. 676. 972. 701.
      710. 616. 694. 1504. 1282. 1068. 1424. 1206. 1442. 1769. 2198.
      2057. 2813. 3212. 4899. 782. 793. 936. 808. 1022. 1066. 1305.
      1291. 965. 740. 1041. 1073. 978. 826. 566. 669. 2089. 1564. 1306.
      1582. 1097. 1094. 748. 895. 1429. 1096. 1859. 2651. 735. 701. 977.
      1155. 907. 861. 841. 932. 555. 670. 585. 963. 829. 519. 2009.
      1077. 1528. 1485. 1535. 1245. 1116. 857. 1017. 909. 1582. 1918.
      1751. 1691. 880. 663. 1504. 1423. 1781. 1657. 2862. 2792. 957.
      695. 850. 848. 941. 1114. 1055. 1084. 1086. 976. 864. 1139. 1419.
      1439. 607. 775. 1611. 1595. 927. 1390. 1868. 1156. 732. 843. 1903.
      1548. 2783. 3777. 1127. 1366. 1027. 1577. 1293. 1269. 843. 1105.
      814. 1000. 558. 845. 487. 444. 586. 821. 903. 1241. 701. 689. 739.
      536. 576. 599. 1132. 1315. 889. 629. 1186. 884. 1550. 1917. 1758.
      2159. 2021. 2822. 1009. 519. 650. 512. 879. 942. 588. 690.</_>
    <_>
      54748. 495. 983. 784. 758. 788. 459. 449. 2041. 1261. 1427. 1017.
      1347. 1190. 767. 708. 576. 735. 1153. 1176. 907. 1143. 998. 888.
      478. 459. 965. 544. 565. 615. 862. 777. 572. 328. 1424. 857. 1242.
      928. 1244. 1057. 1503. 968. 1374. 921. 2159. 1874. 1254. 1061.
      433. 415. 1091. 1039. 1747. 1449. 2458. 2659. 356. 340. 677. 532.
      919. 814. 1280. 1054. 699. 992. 772. 895. 433. 930. 287. 436.
      1720. 1861. 1224. 1259. 950. 896. 483. 474. 1492. 2285. 2292.
      2863. 626. 1102. 756. 985. 818. 1113. 818. 852. 677. 935. 681.
      626. 392. 516. 472. 594. 603. 898. 467. 678. 848. 723. 567. 526.
      1841. 1515. 854. 940. 707. 850. 1158. 1468. 1247. 1524. 1775.
      2857. 586. 509. 540. 479. 1048. 968. 1091. 1030. 656. 497. 712.
      779. 709. 591. 410. 536. 2495. 1710. 1398. 1905. 1625. 1342. 778.
      921. 686. 489. 976. 1239. 471. 473. 539. 702. 761. 722. 663. 854.
      497. 601. 397. 755. 666. 407. 1367. 867. 1625. 1287. 1563. 1189.
      1563. 1044. 1161. 1115. 2330. 1814. 1463. 1151. 540. 341. 956.
      847. 1438. 1225. 2461. 1931. 921. 597. 610. 668. 844. 852. 762.
      920. 753. 744. 602. 911. 935. 1009. 349. 515. 2106. 1808. 1137.
      1801. 2174. 1450. 709. 1042. 1292. 1189. 2140. 2452. 591. 828.
      576. 943. 1147. 1100. 695. 983. 670. 925. 454. 723. 429. 400. 458.
      574. 682. 1448. 465. 559. 1128. 718. 832. 811. 1681. 1258. 678.
      615. 744. 578. 1042. 1185. 994. 1475. 1009. 1649. 888. 500. 538.
      489. 768. 786. 451. 606.</_>
    <_>
      60265. 529. 794. 804. 618. 727. 360. 544. 1438. 1026. 1321. 1186.
      931. 1052. 755. 773. 718. 1000. 1506. 1643. 829. 1278. 876. 1052.
      593. 598. 1279. 789. 345. 420. 897. 701. 502. 335. 950. 549. 914.
      540. 861. 741. 1099. 842. 1087. 757. 1814. 1683. 1332. 1119. 491.
      469. 1122. 1345. 1624. 1057. 2428. 2852. 416. 346. 839. 714. 669.
      619. 986. 861. 1014. 1441. 754. 978. 471. 917. 281. 435. 1697.
      1795. 1028. 1074. 850. 872. 486. 481. 1832. 2559. 2489. 3129. 672.
      1072. 701. 985. 928. 1174. 920. 1026. 398. 604. 504. 463. 468.
      539. 404. 496. 578. 860. 396. 523. 825. 821. 513. 650. 1883. 1502.
      1052. 996. 858. 901. 1161. 1532. 1356. 1595. 1978. 3376. 548. 550.
      578. 516. 803. 731. 888. 814. 702. 583. 734. 855. 584. 583. 409.
      427. 1829. 1371. 1403. 2014. 1165. 1041. 976. 982. 1079. 933.
      1414. 1857. 488. 497. 594. 813. 952. 798. 979. 1144. 402. 438.
      465. 721. 553. 374. 990. 586. 1095. 831. 1133. 661. 1188. 847.
      1066. 1026. 2009. 1666. 1873. 1304. 580. 439. 995. 902. 1277.
      1141. 2404. 2041. 729. 475. 751. 665. 682. 653. 828. 804. 1060.
      1079. 735. 998. 1017. 1191. 311. 464. 1963. 1888. 1254. 1731.
      2122. 1372. 652. 898. 1641. 1478. 2366. 2798. 613. 852. 533. 1022.
      1125. 970. 785. 947. 378. 619. 309. 490. 454. 442. 403. 551. 700.
      1621. 463. 447. 1032. 701. 681. 626. 1617. 1095. 883. 577. 890.
      672. 1038. 1190. 928. 1231. 1152. 1888. 688. 416. 485. 446. 602.
      575. 456. 458.</_>
    <_>
      16354. 633. 1098. 894. 857. 1009. 605. 630. 1983. 1275. 1682.
      1100. 1387. 1255. 945. 856. 692. 841. 1280. 1232. 891. 1028. 997.
      890. 654. 592. 1141. 596. 739. 860. 1096. 838. 658. 535. 1499.
      1002. 1459. 1240. 1584. 1414. 1509. 1077. 1579. 1062. 2411. 2343.
      1483. 1369. 500. 606. 1070. 1180. 1746. 1638. 2902. 2534. 661.
      539. 914. 732. 1090. 1190. 1541. 1344. 799. 1075. 867. 988. 639.
      1036. 449. 675. 1938. 1842. 1192. 1173. 955. 955. 674. 603. 1425.
      2272. 2400. 3080. 782. 1164. 859. 1151. 896. 1120. 988. 1084. 757.
      1095. 819. 693. 476. 577. 583. 689. 809. 1226. 611. 903. 991. 868.
      678. 693. 2035. 1765. 1156. 1285. 731. 927. 1283. 1528. 1318.
      1908. 1957. 3094. 680. 614. 722. 645. 1126. 1333. 1273. 1309. 895.
      601. 903. 847. 1013. 732. 516. 560. 2367. 1548. 1528. 1859. 1685.
      1462. 884. 1086. 776. 703. 1263. 1478. 631. 510. 671. 754. 952.
      795. 726. 848. 684. 775. 537. 984. 771. 550. 1539. 922. 2060.
      1730. 1978. 1577. 1504. 1031. 1234. 1138. 2504. 2412. 1770. 1560.
      684. 448. 1002. 784. 1579. 1497. 2709. 2247. 1120. 825. 833. 779.
      1070. 1399. 993. 1232. 885. 777. 768. 1005. 1143. 1113. 549. 739.
      2083. 1769. 1319. 1833. 2280. 1441. 885. 1122. 1356. 1193. 2582.
      2737. 786. 997. 711. 1068. 1268. 1120. 841. 1110. 912. 1314. 579.
      820. 515. 500. 555. 633. 932. 1321. 726. 855. 1025. 701. 815. 876.
      1865. 1412. 942. 864. 864. 603. 1190. 1173. 1210. 1584. 1396.
      1992. 973. 571. 720. 698. 1117. 1329. 658. 847.</_>
    <_>
      1044. 853. 1112. 1081. 734. 810. 536. 741. 1484. 1127. 1752. 1547.
      871. 966. 851. 995. 864. 1807. 1636. 2134. 946. 1252. 1139. 1295.
      730. 941. 1237. 1134. 573. 659. 1049. 987. 629. 455. 1412. 707.
      1348. 1011. 1419. 1041. 994. 823. 1170. 960. 2192. 1966. 1802.
      1534. 566. 630. 1023. 939. 2273. 1888. 2917. 2911. 459. 572. 888.
      753. 1005. 838. 1384. 1124. 1114. 1659. 916. 1248. 598. 971. 350.
      466. 2036. 2199. 1309. 1532. 886. 830. 599. 698. 1891. 3089. 2478.
      3406. 733. 1313. 908. 1266. 1127. 1499. 1156. 1262. 584. 882. 671.
      693. 565. 761. 560. 732. 821. 1093. 579. 688. 1040. 972. 738. 781.
      2802. 1986. 1456. 1180. 1072. 1271. 1317. 1556. 1496. 2192. 2281.
      3558. 1005. 1123. 792. 669. 1119. 1044. 1121. 1021. 934. 728.
      1067. 1271. 849. 720. 707. 833. 2180. 1538. 1836. 2427. 1234.
      1143. 1147. 1352. 1284. 1182. 1895. 2551. 705. 670. 913. 1049.
      1117. 1058. 1145. 1491. 527. 641. 617. 985. 739. 504. 1524. 886.
      1426. 1076. 1594. 1157. 1147. 802. 1111. 1065. 2638. 1874. 2545.
      1635. 816. 512. 1183. 995. 1811. 1512. 2605. 2429. 895. 649. 828.
      790. 926. 825. 950. 1002. 1309. 1193. 951. 1177. 1107. 1065. 542.
      696. 2353. 2210. 1743. 2260. 1941. 1338. 831. 1104. 2149. 1762.
      2655. 3351. 796. 1055. 845. 1098. 1305. 1221. 1048. 1266. 672.
      903. 437. 745. 605. 593. 548. 699. 930. 1059. 727. 597. 958. 709.
      678. 687. 2084. 1224. 1464. 690. 1265. 874. 1430. 1329. 1313.
      1482. 1640. 2074. 1172. 613. 671. 583. 854. 761. 636. 596.</_>
    <_>
      1643. 856. 1315. 1095. 800. 849. 529. 564. 1824. 1173. 1770. 1323.
      1134. 909. 727. 640. 1015. 1182. 1536. 1320. 1085. 1396. 1251.
      1082. 792. 805. 1367. 900. 687. 838. 1143. 948. 815. 506. 1894.
      1047. 1385. 1062. 1621. 1216. 1240. 790. 1392. 932. 2126. 1750.
      1506. 1257. 613. 584. 1148. 1090. 2199. 2185. 3141. 2974. 568.
      503. 982. 703. 1057. 1048. 1302. 1122. 1136. 1455. 1154. 1365.
      734. 933. 376. 535. 1972. 1995. 1465. 1488. 935. 813. 650. 537.
      1712. 2470. 2603. 3171. 808. 1385. 951. 1338. 1361. 1594. 1282.
      1273. 796. 1318. 941. 839. 491. 685. 695. 937. 748. 1033. 628.
      931. 842. 775. 650. 713. 1861. 1551. 1017. 1046. 863. 1209. 1518.
      1911. 1423. 2282. 2358. 3964. 803. 761. 836. 740. 1163. 1343.
      1322. 1212. 1070. 698. 1041. 1045. 906. 713. 565. 657. 2426. 1568.
      1598. 1998. 1186. 1037. 636. 952. 1144. 867. 1426. 1488. 729. 710.
      848. 901. 1205. 1049. 911. 1260. 544. 694. 516. 974. 802. 487.
      1977. 1129. 1645. 1394. 1790. 1360. 1334. 841. 1236. 1151. 2186.
      1992. 1461. 1481. 814. 639. 1280. 1091. 1684. 1681. 2815. 2430.
      1051. 838. 767. 795. 1011. 1084. 961. 1075. 1246. 1078. 1063.
      1432. 1326. 1004. 558. 838. 2412. 2190. 1682. 2302. 1985. 1376.
      862. 1204. 1848. 1376. 2375. 3030. 806. 1041. 865. 1237. 1562.
      1470. 1080. 1372. 806. 1153. 616. 961. 572. 560. 701. 999. 849.
      1088. 649. 801. 906. 695. 601. 726. 1526. 1278. 744. 738. 1084.
      842. 1415. 1658. 1324. 1647. 1618. 2386. 992. 622. 655. 724. 859.
      870. 574. 745.</_>
    <_>
      2292. 914. 1357. 1158. 853. 907. 597. 663. 1775. 1202. 1725. 1376.
      1169. 985. 717. 645. 984. 1277. 1457. 1328. 1062. 1530. 1257.
      1183. 814. 869. 1279. 877. 758. 889. 1161. 929. 917. 598. 1937.
      1091. 1400. 1123. 1621. 1228. 1317. 898. 1361. 939. 2069. 1831.
      1350. 1152. 668. 724. 1119. 1044. 2200. 2047. 2829. 2773. 549.
      571. 936. 706. 1071. 1063. 1260. 1099. 1073. 1363. 1203. 1402.
      730. 927. 424. 533. 1902. 1918. 1465. 1405. 955. 905. 683. 544.
      1669. 2391. 2515. 2882. 853. 1440. 996. 1342. 1269. 1583. 1273.
      1182. 876. 1349. 1003. 824. 484. 684. 697. 947. 691. 1070. 582.
      850. 904. 802. 748. 711. 1774. 1503. 1032. 1054. 939. 1157. 1539.
      1842. 1347. 2137. 2292. 3616. 891. 846. 844. 785. 1210. 1326.
      1281. 1248. 1062. 668. 1090. 1029. 918. 681. 633. 672. 2279. 1543.
      1451. 1944. 1216. 1040. 652. 986. 1123. 855. 1402. 1410. 783. 729.
      865. 861. 1211. 1067. 846. 1150. 610. 724. 583. 1038. 858. 517.
      2021. 1178. 1586. 1363. 1770. 1413. 1304. 908. 1233. 1215. 1995.
      1803. 1331. 1364. 834. 640. 1190. 1061. 1618. 1587. 2724. 2487.
      1156. 838. 821. 809. 980. 1047. 914. 1062. 1176. 966. 1129. 1350.
      1322. 1009. 633. 869. 2270. 2033. 1687. 2274. 1887. 1456. 874.
      1289. 1812. 1304. 2398. 2930. 840. 1089. 932. 1309. 1622. 1476.
      1143. 1367. 850. 1226. 678. 1004. 585. 586. 741. 1031. 815. 1054.
      694. 888. 882. 690. 674. 777. 1408. 1232. 829. 769. 1034. 846.
      1482. 1758. 1249. 1740. 1557. 2347. 1038. 665. 730. 775. 925. 880.
      570. 805.</_>
    <_>
      848. 854. 1169. 1051. 878. 848. 577. 638. 1523. 1181. 1602. 1262.
      998. 948. 836. 835. 989. 1389. 1609. 1650. 1044. 1329. 1092. 1085.
      861. 871. 1493. 942. 740. 796. 1126. 873. 763. 574. 1739. 946.
      1395. 1102. 1497. 1312. 1126. 874. 1191. 979. 2027. 1802. 1430.
      1224. 598. 744. 1150. 1246. 2098. 2060. 2900. 3055. 543. 637.
      1150. 799. 1045. 1041. 1390. 1182. 1238. 1293. 1065. 1323. 815.
      1041. 473. 588. 1596. 1778. 1425. 1413. 844. 869. 666. 619. 1822.
      2438. 2700. 3312. 855. 1385. 1060. 1453. 1245. 1582. 1284. 1184.
      778. 1252. 851. 797. 558. 720. 668. 864. 794. 1137. 606. 978. 920.
      849. 676. 779. 1857. 1588. 1161. 1286. 963. 1243. 1599. 1971.
      1472. 2224. 2400. 4046. 823. 864. 810. 734. 1102. 1180. 1201.
      1252. 968. 687. 969. 949. 947. 798. 649. 695. 2106. 1574. 1413.
      1752. 1208. 1097. 739. 1056. 1358. 913. 1660. 1784. 843. 710. 867.
      903. 1146. 1002. 1004. 1132. 573. 669. 616. 962. 748. 535. 1902.
      990. 1560. 1390. 1643. 1302. 1238. 911. 1005. 1064. 2100. 1994.
      1824. 1543. 831. 642. 1252. 1147. 1624. 1542. 2511. 2390. 1037.
      804. 892. 888. 1066. 1067. 1069. 1157. 1188. 1016. 1017. 1265.
      1337. 1329. 719. 802. 2125. 1868. 1552. 2039. 1810. 1334. 840.
      1116. 1857. 1351. 2768. 3129. 946. 1050. 958. 1235. 1322. 1339.
      1021. 1332. 750. 1105. 619. 828. 523. 551. 699. 881. 922. 1248.
      751. 817. 1037. 670. 750. 773. 1593. 1398. 885. 812. 1091. 914.
      1533. 1774. 1297. 1808. 1560. 2299. 1016. 586. 766. 704. 926. 951.
      644. 712.</_>
    <_>
      1034. 873. 1265. 1032. 852. 880. 589. 630. 1585. 1078. 1557. 1261.
      998. 917. 789. 760. 1042. 1323. 1628. 1581. 1021. 1255. 1109.
      1067. 855. 818. 1509. 924. 782. 762. 1146. 904. 814. 557. 1882.
      1050. 1399. 1036. 1552. 1275. 1084. 829. 1246. 950. 1983. 1646.
      1436. 1283. 628. 680. 1196. 1124. 2141. 2074. 2892. 3119. 565.
      566. 1220. 780. 1079. 1024. 1423. 1231. 1186. 1327. 1100. 1345.
      771. 1058. 434. 616. 1657. 1860. 1351. 1441. 889. 808. 668. 632.
      1824. 2309. 2667. 3333. 888. 1348. 1055. 1318. 1316. 1625. 1217.
      1242. 845. 1311. 835. 816. 569. 704. 664. 882. 775. 1132. 636.
      961. 902. 869. 688. 739. 1779. 1587. 1106. 1222. 909. 1160. 1555.
      1828. 1472. 2161. 2352. 4036. 866. 844. 881. 762. 1177. 1238.
      1261. 1223. 1010. 727. 1048. 943. 1001. 856. 627. 699. 2216. 1473.
      1441. 1699. 1221. 1109. 701. 1011. 1275. 853. 1539. 1683. 796.
      695. 826. 943. 1160. 1006. 1027. 1139. 626. 742. 622. 1033. 785.
      535. 2005. 1025. 1708. 1434. 1722. 1346. 1280. 886. 1073. 1058.
      2194. 1993. 1721. 1502. 780. 592. 1191. 1118. 1639. 1661. 2502.
      2461. 993. 799. 899. 904. 1029. 1073. 1108. 1135. 1180. 1134. 997.
      1300. 1455. 1297. 591. 761. 2009. 1981. 1460. 2065. 1718. 1414.
      776. 1115. 1796. 1378. 2552. 3214. 867. 1104. 995. 1223. 1368.
      1410. 1021. 1368. 792. 1164. 559. 879. 568. 581. 680. 956. 863.
      1221. 716. 857. 1035. 711. 667. 742. 1519. 1309. 854. 794. 1065.
      796. 1424. 1839. 1248. 1875. 1464. 2391. 1026. 610. 796. 739. 889.
      993. 688. 821.</_>
    <_>
      788. 801. 1061. 1018. 809. 890. 588. 749. 1532. 1371. 1511. 1318.
      1188. 1314. 907. 1088. 889. 1746. 1614. 2207. 899. 1137. 1157.
      1187. 694. 867. 1162. 892. 624. 726. 1089. 902. 599. 443. 1232.
      878. 1241. 950. 1206. 1085. 1114. 1012. 1095. 982. 2410. 2357.
      1897. 1756. 495. 695. 984. 1011. 1778. 1761. 2682. 2795. 510. 741.
      879. 731. 999. 924. 1364. 1119. 1019. 1319. 933. 1283. 647. 890.
      342. 477. 1847. 1985. 1336. 1296. 915. 805. 731. 653. 1756. 2760.
      2727. 3688. 775. 1189. 935. 1116. 1058. 1236. 1189. 1151. 637.
      882. 750. 647. 507. 798. 601. 804. 688. 1015. 567. 740. 1042.
      1156. 754. 775. 2693. 2183. 1546. 1581. 1078. 1339. 1375. 1528.
      1513. 1911. 2389. 3525. 1047. 1256. 752. 660. 1104. 1074. 1115.
      1021. 878. 672. 1075. 1124. 925. 810. 778. 776. 2265. 1577. 1641.
      1960. 1430. 1302. 1247. 1442. 1241. 1114. 1977. 2521. 716. 602.
      823. 882. 1030. 955. 945. 1254. 591. 625. 614. 1040. 730. 471.
      1367. 874. 1573. 1358. 1535. 1232. 1281. 959. 1046. 1059. 2881.
      2265. 2577. 1837. 832. 555. 1124. 979. 1411. 1349. 2314. 2347.
      966. 749. 819. 833. 1110. 1037. 1025. 1123. 1191. 1041. 1028.
      1225. 1160. 1043. 629. 674. 2307. 1952. 1666. 1877. 1870. 1106.
      1177. 1124. 1982. 1628. 3109. 3659. 775. 897. 868. 1135. 1375.
      1169. 1052. 1293. 714. 865. 553. 809. 552. 472. 536. 739. 1034.
      981. 792. 650. 1033. 740. 777. 745. 2180. 1401. 1670. 774. 1155.
      791. 1337. 1364. 1245. 1460. 1547. 2056. 1194. 580. 696. 622. 901.
      839. 692. 681.</_>
    <_>
      801. 713. 931. 918. 645. 840. 527. 570. 1537. 1326. 1530. 1355.
      1092. 1268. 903. 1163. 856. 1629. 1729. 2434. 707. 1075. 1196.
      1338. 678. 781. 1109. 956. 573. 640. 959. 885. 510. 381. 1187.
      786. 1218. 953. 1252. 1104. 1072. 1012. 1027. 848. 2627. 2435.
      2118. 1843. 518. 544. 1034. 977. 1884. 1944. 3031. 3324. 455. 597.
      728. 660. 977. 932. 1367. 1137. 1083. 1250. 904. 1091. 575. 809.
      306. 359. 1837. 1914. 1219. 1298. 962. 837. 681. 618. 1957. 3252.
      3078. 4326. 772. 1159. 981. 1236. 1163. 1442. 1124. 1144. 570.
      895. 654. 579. 498. 625. 511. 610. 758. 1052. 503. 647. 1076.
      1114. 621. 712. 2990. 2266. 1484. 1221. 1203. 1472. 1456. 1656.
      1687. 2069. 2599. 3896. 1047. 1052. 633. 607. 1092. 1105. 1003.
      914. 787. 659. 1108. 1133. 815. 737. 615. 698. 2316. 1721. 1709.
      2206. 1454. 1304. 1345. 1573. 997. 1108. 2208. 3152. 595. 581.
      816. 946. 898. 801. 1042. 1273. 527. 580. 561. 866. 657. 419.
      1271. 805. 1514. 1201. 1566. 1233. 1320. 902. 1060. 1009. 3070.
      2336. 3015. 2090. 658. 494. 1084. 970. 1365. 1314. 2481. 2520.
      773. 591. 702. 730. 951. 949. 901. 1098. 1119. 1065. 990. 1215.
      958. 930. 450. 552. 2440. 2125. 1694. 1944. 1899. 1179. 1028.
      1053. 2071. 1880. 3297. 4276. 646. 829. 790. 1012. 1288. 1154.
      1032. 1268. 630. 744. 458. 631. 567. 519. 561. 659. 932. 967. 554.
      571. 1068. 752. 747. 738. 2414. 1380. 1639. 825. 1179. 811. 1356.
      1434. 1263. 1424. 1588. 2222. 1035. 519. 679. 632. 907. 802. 615.
      614.</_>
    <_>
      15570. 684. 1272. 1119. 533. 579. 458. 541. 1836. 1184. 1581.
      1185. 946. 972. 612. 763. 1055. 1229. 1794. 2096. 897. 1165. 1031.
      1326. 713. 701. 1580. 950. 455. 600. 641. 735. 653. 462. 1708.
      1101. 1140. 781. 1217. 996. 1049. 633. 959. 632. 2118. 1665. 1120.
      1070. 560. 564. 1196. 1192. 2122. 1721. 3120. 3174. 415. 366. 830.
      650. 891. 653. 807. 742. 1179. 1244. 1274. 1392. 489. 609. 330.
      474. 2290. 2437. 1398. 1395. 762. 790. 393. 430. 2184. 3033. 3412.
      4654. 829. 1404. 983. 1566. 1502. 2069. 1547. 1560. 747. 1282.
      624. 686. 478. 569. 579. 729. 559. 606. 405. 515. 819. 834. 544.
      566. 1515. 1183. 638. 509. 1095. 1236. 1685. 2114. 1663. 2323.
      2422. 4091. 704. 765. 586. 655. 1023. 987. 790. 780. 1232. 804.
      1425. 1306. 597. 576. 445. 644. 2637. 1811. 2091. 2221. 975. 962.
      705. 967. 1044. 999. 1940. 2363. 568. 554. 708. 938. 905. 868.
      1015. 1151. 401. 473. 392. 672. 714. 473. 1982. 1056. 1121. 856.
      1360. 1030. 1106. 759. 1164. 892. 1827. 1522. 1295. 1380. 624.
      566. 1033. 1097. 1475. 1343. 2425. 2304. 554. 451. 603. 603. 555.
      717. 553. 693. 1355. 1262. 1261. 1500. 738. 739. 375. 527. 2821.
      2837. 2074. 2540. 1349. 1307. 519. 752. 2143. 2144. 3586. 4160.
      791. 1265. 884. 1327. 1744. 1727. 1336. 1784. 676. 1220. 411. 732.
      532. 550. 576. 779. 607. 664. 447. 499. 964. 746. 708. 817. 1279.
      1052. 747. 486. 1086. 1030. 1522. 1864. 1204. 1614. 1433. 2211.
      819. 621. 650. 718. 794. 822. 404. 502.</_>
    <_>
      17209. 691. 888. 776. 735. 789. 592. 676. 1367. 1162. 1301. 1003.
      1012. 1070. 813. 980. 843. 1263. 1479. 1792. 909. 1101. 1131.
      1230. 602. 646. 1183. 803. 622. 685. 903. 848. 561. 476. 1083.
      647. 1429. 1355. 1373. 1286. 990. 830. 963. 786. 2720. 2419. 1586.
      1585. 641. 784. 1094. 1091. 2449. 2548. 3336. 3414. 472. 556. 813.
      688. 1230. 1179. 1375. 1236. 819. 1059. 788. 936. 583. 798. 430.
      579. 1776. 1712. 1041. 1129. 871. 795. 592. 573. 1823. 2639. 2570.
      3368. 803. 1216. 969. 1264. 890. 1145. 875. 956. 649. 851. 647.
      607. 545. 658. 533. 650. 914. 1144. 626. 827. 886. 955. 543. 522.
      2331. 1688. 1135. 1074. 985. 1168. 1333. 1639. 1895. 2414. 2390.
      3930. 829. 879. 600. 534. 1343. 1176. 1052. 1144. 810. 603. 1069.
      1015. 771. 657. 727. 758. 2072. 1424. 1490. 1779. 1210. 1143. 918.
      1156. 980. 848. 1642. 2148. 761. 666. 941. 991. 750. 677. 745.
      901. 558. 542. 532. 831. 594. 492. 1379. 850. 1541. 1328. 1651.
      1311. 1015. 761. 930. 828. 2316. 2080. 1890. 1737. 765. 556. 1101.
      951. 1696. 1618. 2775. 2536. 774. 625. 729. 692. 973. 1121. 1019.
      1173. 938. 854. 810. 924. 905. 804. 577. 691. 2127. 1926. 1316.
      1920. 1674. 1102. 850. 868. 1781. 1395. 2732. 3177. 785. 942. 962.
      1182. 988. 977. 787. 1146. 608. 850. 503. 683. 509. 542. 575. 695.
      997. 1338. 761. 855. 981. 674. 941. 909. 1902. 1330. 1214. 802.
      1076. 739. 1352. 1531. 1541. 1576. 1604. 2343. 1000. 542. 692.
      711. 1072. 998. 729. 769.</_>
    <_>
      22920. 780. 1099. 1044. 754. 859. 618. 736. 1620. 1281. 1512.
      1304. 1013. 1055. 770. 948. 764. 1356. 1545. 1646. 1105. 1479.
      1036. 1129. 632. 849. 1111. 895. 591. 659. 821. 816. 535. 409.
      1488. 751. 1400. 885. 1523. 994. 1043. 812. 1150. 788. 2426. 1879.
      1489. 1230. 558. 631. 1153. 1282. 2210. 1682. 2919. 2873. 396.
      515. 653. 604. 983. 811. 1125. 924. 908. 1404. 921. 1249. 507.
      914. 348. 483. 1953. 2418. 1235. 1536. 850. 792. 552. 595. 1717.
      2542. 2447. 3010. 788. 1326. 802. 1162. 1091. 1678. 1138. 1192.
      640. 1038. 675. 703. 482. 606. 527. 693. 676. 793. 498. 584. 1127.
      838. 659. 679. 2177. 1553. 1060. 902. 856. 1031. 1286. 1587. 1429.
      2025. 2143. 3509. 901. 900. 708. 623. 1100. 1015. 1106. 839. 891.
      721. 1043. 1141. 715. 603. 639. 674. 2369. 1830. 1842. 2352. 1068.
      1224. 902. 1241. 1156. 1106. 1580. 1959. 575. 625. 738. 814. 949.
      957. 959. 1185. 490. 586. 522. 787. 764. 429. 1799. 845. 1304.
      942. 1667. 950. 1299. 822. 1428. 1002. 2233. 1543. 1868. 1338.
      697. 522. 1032. 865. 1614. 1342. 2434. 2452. 816. 562. 759. 658.
      818. 728. 858. 828. 1057. 1081. 953. 1246. 856. 1093. 468. 568.
      2347. 2654. 1739. 2773. 1797. 1261. 769. 986. 1630. 1418. 2242.
      2409. 684. 926. 737. 939. 1426. 1510. 1101. 1433. 620. 879. 462.
      737. 525. 473. 617. 591. 776. 1285. 625. 518. 1311. 753. 927. 742.
      1733. 979. 1035. 553. 1043. 725. 1216. 1185. 1106. 1409. 1260.
      1985. 1012. 548. 583. 533. 736. 663. 528. 569.</_>
    <_>
      38626. 693. 989. 925. 629. 751. 481. 625. 1535. 1145. 1465. 1181.
      917. 1019. 726. 853. 772. 1240. 1384. 1774. 944. 1330. 1032. 1103.
      575. 727. 1255. 873. 496. 589. 734. 816. 510. 378. 1192. 730.
      1195. 858. 1194. 973. 969. 641. 1004. 697. 2476. 2066. 1545. 1263.
      498. 535. 1064. 1237. 1994. 1570. 2953. 2952. 451. 421. 787. 608.
      917. 739. 1056. 882. 1034. 1247. 846. 1091. 469. 779. 310. 453.
      1912. 2258. 1166. 1311. 749. 789. 451. 447. 1564. 2504. 2266.
      2946. 797. 1149. 850. 1253. 1050. 1581. 1080. 1210. 575. 828. 584.
      542. 478. 533. 450. 590. 645. 739. 459. 501. 981. 828. 603. 570.
      2168. 1503. 970. 723. 918. 1099. 1161. 1464. 1594. 1917. 2094.
      3272. 776. 825. 640. 576. 1064. 923. 906. 776. 808. 685. 1087.
      1203. 578. 485. 513. 598. 2259. 1716. 1825. 2229. 1006. 1111. 995.
      1104. 928. 924. 1512. 2001. 449. 504. 694. 839. 831. 867. 947.
      1148. 466. 472. 431. 701. 670. 449. 1449. 816. 1192. 884. 1446.
      1017. 1050. 752. 1113. 883. 2735. 1797. 2023. 1586. 619. 432.
      1037. 813. 1341. 1289. 2460. 2273. 606. 511. 661. 566. 761. 747.
      720. 773. 965. 1008. 941. 1160. 919. 794. 408. 544. 2508. 2411.
      1774. 2440. 1579. 1105. 662. 868. 1683. 1439. 2218. 2708. 672.
      856. 714. 1044. 1332. 1466. 1065. 1400. 545. 692. 422. 587. 539.
      518. 549. 574. 711. 1066. 540. 541. 1172. 817. 762. 676. 1768.
      1173. 913. 563. 961. 762. 1188. 1196. 1047. 1372. 1250. 1976. 810.
      510. 596. 563. 743. 700. 407. 525.</_>
    <_>
      2653. 879. 1142. 1214. 807. 911. 596. 859. 1621. 1293. 1644. 1430.
      1008. 1121. 839. 1020. 1043. 1593. 1641. 1952. 1167. 1513. 1144.
      1293. 857. 874. 1414. 1069. 645. 762. 1004. 893. 661. 528. 1602.
      894. 1415. 859. 1390. 913. 1184. 830. 1276. 916. 2239. 1615. 1297.
      1194. 766. 828. 1161. 1217. 2113. 1700. 2844. 2677. 587. 604. 964.
      800. 938. 806. 1021. 839. 1149. 1516. 1151. 1493. 661. 983. 466.
      685. 1880. 2234. 1290. 1440. 847. 899. 610. 667. 1777. 2681. 2651.
      3050. 860. 1470. 985. 1376. 1256. 1682. 1343. 1381. 704. 1233.
      737. 661. 611. 768. 657. 852. 606. 818. 482. 640. 1102. 914. 775.
      871. 1908. 1437. 1016. 996. 1040. 1221. 1556. 1755. 1393. 2143.
      2096. 3266. 944. 932. 851. 762. 1073. 1104. 1052. 899. 1038. 877.
      1250. 1270. 754. 636. 666. 754. 2075. 1623. 1788. 2232. 919. 1043.
      922. 1207. 1458. 1117. 1866. 2188. 684. 733. 835. 1001. 1150.
      1100. 1138. 1370. 554. 686. 628. 1011. 803. 525. 1753. 1058. 1314.
      954. 1589. 1019. 1201. 784. 1409. 1146. 1980. 1432. 1705. 1337.
      873. 725. 1246. 1099. 1461. 1382. 2521. 2328. 915. 766. 816. 781.
      791. 888. 756. 847. 1343. 1266. 1236. 1454. 1049. 1031. 662. 825.
      2314. 2397. 1887. 2672. 1729. 1318. 823. 1136. 2085. 1668. 2687.
      2827. 900. 1092. 940. 1150. 1533. 1594. 1337. 1592. 721. 1027.
      563. 789. 663. 706. 743. 905. 808. 868. 712. 734. 1172. 844. 892.
      965. 1594. 1036. 1010. 688. 1280. 977. 1487. 1500. 1145. 1543.
      1486. 2021. 1114. 683. 713. 760. 830. 815. 562. 583.</_>
    <_>
      1547. 876. 1307. 1188. 955. 1089. 713. 704. 1559. 985. 1547. 1249.
      1166. 1005. 844. 833. 962. 1471. 1558. 1525. 1004. 1323. 1307.
      1052. 756. 764. 1166. 803. 720. 840. 1343. 1001. 744. 639. 1650.
      1090. 1311. 1218. 1399. 1252. 1360. 1000. 1434. 1115. 2275. 2051.
      1466. 1413. 656. 713. 1103. 914. 1655. 1801. 2524. 2284. 538. 565.
      916. 712. 1124. 1170. 1516. 1301. 1052. 1412. 1092. 1343. 588.
      1026. 434. 613. 1529. 1459. 1083. 1079. 992. 887. 779. 632. 1987.
      3018. 2712. 3182. 780. 1299. 975. 1122. 916. 1138. 1067. 938. 788.
      1082. 1102. 805. 626. 796. 770. 990. 891. 1256. 622. 965. 912.
      863. 733. 764. 2317. 1942. 1260. 1356. 1088. 1307. 1475. 1844.
      1290. 1801. 1986. 2980. 846. 807. 896. 707. 1436. 1506. 1475.
      1369. 854. 587. 919. 1023. 1138. 813. 748. 766. 2161. 1417. 1291.
      1765. 1360. 1164. 869. 1164. 1192. 972. 1532. 1674. 877. 780. 934.
      945. 1065. 946. 797. 1140. 726. 834. 704. 1195. 832. 550. 1487.
      1040. 1800. 1586. 1999. 1477. 1336. 979. 1070. 1120. 2242. 1850.
      1572. 1444. 997. 712. 1265. 1028. 1616. 1453. 2693. 2356. 1304.
      932. 835. 923. 1128. 1280. 988. 1256. 1006. 838. 969. 1174. 1300.
      1055. 684. 926. 1801. 1538. 1154. 1662. 2457. 1404. 1013. 1352.
      1941. 1572. 2673. 2827. 816. 889. 873. 1062. 1297. 1120. 865.
      1094. 1064. 1154. 717. 1016. 594. 492. 668. 734. 1077. 1366. 837.
      947. 888. 606. 754. 753. 1900. 1361. 1043. 850. 1312. 969. 1520.
      1594. 1314. 1538. 1472. 1943. 1208. 579. 755. 791. 1137. 1022.
      709. 794.</_>
    <_>
      1866. 882. 1206. 1145. 886. 911. 569. 629. 2401. 1104. 1683. 1200.
      1496. 995. 708. 712. 923. 1344. 1561. 2035. 1076. 1349. 1127.
      1057. 975. 787. 1324. 990. 990. 819. 1036. 865. 997. 486. 2009.
      1125. 2025. 945. 1498. 1155. 1796. 656. 1684. 915. 2401. 1388.
      1369. 1202. 691. 672. 1010. 1042. 2094. 1622. 2344. 2174. 702.
      454. 1036. 753. 1162. 871. 1231. 1061. 1122. 1538. 1136. 1717.
      661. 1184. 426. 804. 2117. 2472. 1427. 1773. 1028. 1154. 610. 780.
      1426. 2501. 1937. 2790. 792. 1418. 815. 1244. 1089. 1514. 1171.
      1252. 693. 1671. 737. 837. 620. 788. 875. 1114. 705. 1018. 677.
      1011. 810. 783. 776. 938. 1591. 1539. 1180. 1426. 922. 1056. 1139.
      1476. 1468. 1956. 1847. 2811. 789. 830. 763. 747. 1025. 1062.
      1239. 1107. 960. 747. 975. 1065. 994. 749. 604. 657. 1889. 1237.
      1365. 1561. 958. 997. 729. 911. 1693. 1185. 1766. 2273. 977. 857.
      774. 847. 1214. 1004. 1024. 1233. 732. 871. 596. 1044. 839. 516.
      2413. 988. 1566. 1075. 1701. 1268. 1116. 697. 1338. 1017. 1722.
      1398. 1555. 1399. 1217. 682. 1328. 934. 2197. 1622. 2598. 2192.
      1107. 713. 969. 909. 1100. 1117. 1000. 1135. 1091. 1094. 937.
      1355. 1156. 1123. 565. 918. 1771. 2071. 1171. 2561. 1559. 1236.
      638. 1190. 1948. 1528. 2124. 2452. 989. 1556. 818. 1553. 1369.
      1343. 959. 1534. 794. 1809. 523. 1159. 503. 528. 703. 1090. 765.
      940. 805. 1079. 762. 624. 829. 1277. 1348. 1016. 909. 918. 1103.
      805. 1262. 1584. 1429. 1952. 1511. 2752. 956. 548. 712. 929. 910.
      1094. 657. 945.</_>
    <_>
      1780. 908. 1220. 1153. 1009. 946. 591. 723. 2689. 1162. 1862.
      1185. 1568. 1122. 737. 742. 1046. 1371. 1471. 1920. 1155. 1503.
      1072. 1061. 996. 854. 1191. 834. 1020. 974. 1038. 807. 1113. 557.
      2068. 1202. 1939. 1047. 1496. 1191. 2031. 869. 1810. 1008. 2258.
      1593. 1256. 1174. 782. 781. 984. 1061. 1936. 1656. 2198. 2199.
      776. 611. 982. 758. 1173. 998. 1070. 979. 1045. 1378. 1143. 1490.
      686. 1101. 501. 789. 2207. 2365. 1440. 1663. 1033. 1142. 699. 771.
      1429. 2139. 1877. 2564. 823. 1418. 895. 1180. 1135. 1371. 1084.
      1145. 736. 1753. 831. 719. 524. 762. 850. 1132. 582. 994. 623.
      910. 837. 817. 896. 1020. 1451. 1461. 1157. 1437. 911. 1158. 1130.
      1417. 1486. 1940. 1831. 2719. 755. 997. 699. 725. 969. 1013. 1109.
      1052. 944. 649. 1044. 990. 964. 674. 652. 733. 1803. 1143. 1270.
      1451. 982. 922. 781. 894. 1707. 1164. 1755. 2087. 984. 870. 862.
      846. 1134. 972. 937. 1100. 710. 884. 608. 1006. 803. 448. 2374.
      1116. 1394. 960. 1589. 1275. 1109. 666. 1281. 1057. 1510. 1330.
      1506. 1339. 1163. 749. 1323. 1040. 1940. 1647. 2563. 2265. 1070.
      841. 884. 921. 1018. 1105. 913. 1058. 1079. 887. 978. 1245. 1132.
      1089. 695. 1013. 1698. 1933. 1244. 2426. 1515. 1151. 893. 1237.
      1864. 1396. 2191. 2431. 1156. 1640. 938. 1737. 1383. 1292. 1007.
      1406. 860. 1885. 651. 1324. 525. 502. 831. 1195. 767. 889. 845.
      1155. 742. 599. 849. 1338. 1191. 961. 989. 945. 1133. 826. 1349.
      1710. 1363. 2046. 1738. 3210. 1055. 599. 819. 974. 880. 1166. 701.
      971.</_>
    <_>
      2035. 903. 1209. 1161. 920. 910. 574. 697. 2512. 1257. 1743. 1121.
      1594. 1126. 779. 832. 998. 1559. 1467. 1952. 1170. 1456. 1126.
      1074. 925. 882. 1214. 823. 1052. 988. 961. 829. 1024. 582. 2042.
      1115. 2092. 984. 1662. 1194. 2015. 851. 1775. 918. 2569. 1571.
      1417. 1228. 783. 825. 971. 1100. 2147. 1700. 2258. 1926. 744. 573.
      944. 743. 1128. 933. 1081. 900. 916. 1341. 1102. 1575. 689. 1053.
      510. 768. 2066. 2583. 1415. 1608. 1135. 1226. 626. 770. 1312.
      2123. 1823. 2418. 780. 1437. 872. 1161. 1041. 1563. 1044. 1213.
      818. 1774. 781. 725. 567. 775. 863. 1078. 655. 919. 659. 951. 877.
      881. 852. 940. 1470. 1426. 1127. 1473. 866. 1202. 1136. 1383.
      1375. 1998. 1789. 2639. 827. 957. 707. 685. 1047. 1115. 1062. 945.
      898. 661. 1000. 1078. 819. 640. 703. 767. 1777. 1262. 1317. 1538.
      991. 960. 824. 983. 1649. 1200. 1782. 2134. 977. 874. 799. 905.
      959. 953. 901. 1003. 665. 847. 628. 982. 797. 507. 2336. 1125.
      1309. 1006. 1664. 1244. 1174. 758. 1537. 1042. 1722. 1415. 1706.
      1357. 1173. 736. 1342. 997. 1953. 1671. 2440. 2205. 1026. 683.
      851. 807. 1055. 1078. 891. 1062. 1038. 879. 959. 1316. 1054. 1012.
      734. 1049. 1790. 2141. 1314. 2685. 1416. 1258. 806. 1271. 1884.
      1350. 2178. 2202. 1224. 1532. 946. 1720. 1255. 1387. 921. 1493.
      863. 1769. 633. 1241. 520. 508. 821. 1060. 756. 877. 837. 1088.
      870. 662. 931. 1418. 1172. 947. 1035. 900. 1211. 893. 1375. 1536.
      1559. 1934. 1660. 2879. 1049. 567. 803. 959. 969. 1156. 689. 936.</_>
    <_>
      1465. 889. 1225. 1106. 899. 922. 647. 704. 2364. 1251. 1676. 1228.
      1435. 1067. 770. 775. 1044. 1412. 1416. 1828. 1193. 1453. 1127.
      1015. 946. 917. 1162. 858. 995. 984. 1070. 891. 1000. 617. 2127.
      1191. 2084. 1084. 1668. 1202. 1745. 813. 1667. 938. 2514. 1569.
      1464. 1291. 726. 730. 999. 1054. 2159. 1702. 2173. 2024. 713. 561.
      1043. 723. 1285. 935. 1273. 1042. 1055. 1471. 1132. 1492. 735.
      1076. 467. 727. 2003. 2547. 1392. 1655. 1061. 1181. 678. 769.
      1303. 2159. 1816. 2244. 825. 1356. 908. 1140. 1050. 1553. 1110.
      1278. 841. 1760. 840. 729. 554. 800. 849. 1012. 706. 1040. 608.
      960. 891. 833. 806. 901. 1634. 1413. 1119. 1401. 936. 1042. 1162.
      1356. 1368. 2055. 1711. 2586. 812. 901. 757. 754. 1061. 1172.
      1147. 1054. 894. 712. 1019. 1031. 882. 689. 672. 714. 1902. 1352.
      1358. 1573. 1029. 972. 773. 942. 1607. 1139. 1665. 1961. 1012.
      813. 864. 891. 1025. 1003. 902. 1030. 707. 848. 595. 1080. 823.
      531. 2438. 1072. 1454. 1018. 1712. 1269. 1137. 710. 1501. 1075.
      1917. 1544. 1790. 1364. 1177. 694. 1299. 1008. 1884. 1678. 2455.
      2191. 999. 727. 946. 878. 1003. 1067. 967. 1159. 1119. 955. 1022.
      1298. 1098. 1158. 680. 986. 1934. 2218. 1315. 2809. 1471. 1203.
      771. 1282. 1814. 1336. 1974. 2130. 1141. 1326. 1001. 1664. 1274.
      1459. 955. 1500. 873. 1750. 656. 1151. 588. 517. 777. 980. 813.
      886. 851. 1067. 859. 678. 967. 1271. 1368. 1009. 919. 941. 1171.
      852. 1393. 1493. 1421. 1906. 1623. 2757. 1037. 639. 823. 955. 903.
      1087. 690. 889.</_>
    <_>
      1788. 868. 1102. 979. 899. 921. 692. 646. 1429. 1036. 1405. 1136.
      1052. 1012. 890. 802. 888. 1411. 1809. 1815. 949. 1148. 1294.
      1153. 705. 832. 1552. 826. 722. 773. 1285. 958. 633. 568. 1323.
      830. 1184. 1307. 1419. 1215. 1082. 922. 1180. 912. 2323. 2189.
      1575. 1558. 575. 742. 1010. 1123. 1760. 2088. 2962. 2910. 573.
      583. 1093. 800. 1026. 1218. 1600. 1517. 1214. 1488. 1039. 1189.
      771. 1010. 455. 614. 1718. 1645. 1167. 1075. 893. 792. 606. 500.
      1885. 2700. 2890. 3266. 760. 1135. 986. 1263. 1089. 1346. 1302.
      1201. 693. 832. 848. 729. 577. 796. 576. 795. 848. 1215. 615. 818.
      883. 810. 655. 703. 2079. 1759. 1082. 1195. 1022. 1332. 1382.
      1837. 1634. 2256. 2584. 3762. 938. 1068. 829. 778. 1167. 1164.
      1291. 1177. 1031. 737. 1122. 1072. 1044. 775. 686. 746. 2444.
      1674. 1455. 1891. 1371. 1261. 940. 1191. 1084. 881. 1805. 2246.
      698. 611. 828. 905. 998. 923. 989. 1161. 625. 705. 595. 1045. 758.
      570. 1481. 897. 1691. 1692. 1645. 1371. 1172. 914. 1016. 1040.
      2488. 2213. 1851. 1696. 793. 584. 1149. 1016. 1501. 1505. 2563.
      2351. 999. 807. 858. 923. 990. 1019. 964. 1402. 1321. 1143. 1063.
      1241. 1209. 957. 672. 805. 2150. 1915. 1262. 1580. 1968. 1297.
      956. 1122. 2024. 1513. 3114. 2919. 777. 879. 941. 1116. 1340.
      1073. 1045. 1227. 733. 793. 603. 788. 635. 667. 637. 733. 1073.
      1309. 693. 845. 861. 681. 657. 710. 1732. 1268. 1163. 787. 1126.
      1002. 1482. 1576. 1374. 1667. 1597. 2026. 1089. 637. 783. 729.
      928. 953. 652. 819.</_>
    <_>
      3515. 799. 1084. 909. 943. 1004. 754. 764. 1742. 1288. 1555. 1120.
      1294. 1225. 905. 885. 1090. 1535. 1723. 1674. 1127. 1376. 1383.
      1465. 771. 764. 1248. 761. 737. 803. 1137. 944. 598. 629. 1248.
      783. 1198. 1320. 1431. 1343. 1250. 1243. 1205. 929. 2250. 2462.
      1496. 1558. 621. 901. 1041. 1174. 1790. 2137. 2739. 2789. 547.
      714. 870. 697. 955. 1154. 1270. 1181. 931. 1173. 857. 1007. 633.
      890. 470. 608. 1820. 1717. 1156. 1029. 1035. 881. 632. 553. 1833.
      2769. 2567. 2785. 860. 1296. 1074. 1337. 1141. 1278. 1109. 869.
      742. 898. 805. 636. 606. 700. 570. 709. 731. 1034. 556. 799. 968.
      929. 669. 642. 2023. 1783. 1019. 1116. 1131. 1507. 1403. 1757.
      1746. 2474. 2263. 3750. 1091. 1198. 753. 730. 1317. 1169. 1040.
      955. 857. 617. 1157. 1055. 883. 730. 736. 751. 2163. 1471. 1609.
      1860. 1298. 1273. 997. 1292. 957. 862. 1858. 2007. 649. 652. 882.
      1149. 884. 824. 796. 994. 532. 598. 587. 1069. 680. 630. 1463.
      892. 1394. 1419. 1664. 1573. 1279. 961. 1109. 1122. 2198. 2247.
      1803. 1983. 740. 638. 1175. 1094. 1284. 1447. 2445. 2489. 911.
      778. 720. 756. 801. 990. 752. 1209. 1052. 726. 1284. 1099. 980.
      852. 655. 758. 2224. 1613. 1647. 1673. 1978. 1306. 1020. 1107.
      1869. 1371. 3449. 2732. 748. 906. 1199. 1269. 1384. 977. 1176.
      1130. 699. 783. 625. 824. 619. 633. 727. 812. 950. 1070. 727. 888.
      982. 817. 858. 923. 1777. 1298. 1225. 836. 1327. 1067. 1813. 1733.
      1357. 1780. 1588. 2221. 1187. 720. 869. 781. 945. 1009. 699. 776.</_>
    <_>
      957. 1003. 1256. 1270. 1008. 999. 654. 695. 2385. 1435. 1758.
      1271. 1373. 1069. 839. 861. 1045. 1493. 1354. 1692. 1216. 1566.
      1186. 901. 951. 941. 1225. 844. 950. 1050. 1221. 901. 962. 727.
      1947. 1286. 1939. 1098. 1596. 1221. 1727. 1027. 1525. 1078. 2414.
      1630. 1459. 1294. 705. 793. 910. 966. 1781. 1643. 1921. 1771. 739.
      658. 987. 741. 1215. 999. 1162. 1099. 1038. 1378. 1145. 1721. 701.
      1077. 512. 718. 2119. 2293. 1499. 1725. 1057. 1025. 742. 782.
      1288. 2005. 1731. 2188. 748. 1406. 817. 1107. 1077. 1450. 1065.
      1149. 906. 1748. 905. 795. 586. 874. 847. 1211. 609. 1062. 681.
      1087. 946. 882. 885. 1025. 1527. 1537. 1158. 1416. 823. 1166.
      1214. 1393. 1220. 1759. 1665. 2584. 850. 1005. 841. 769. 1056.
      1175. 1203. 1115. 932. 662. 1020. 1100. 1009. 742. 663. 759. 1909.
      1307. 1312. 1599. 995. 990. 745. 992. 1669. 1029. 1573. 1646.
      1116. 858. 896. 858. 1172. 1102. 929. 1152. 776. 951. 621. 1109.
      851. 570. 2300. 1106. 1551. 1081. 1760. 1324. 1200. 799. 1397.
      1244. 1831. 1434. 1519. 1283. 1172. 775. 1232. 998. 2063. 1549.
      2317. 1930. 1159. 905. 970. 958. 1095. 1049. 875. 1064. 1047. 836.
      1058. 1334. 1233. 1099. 802. 1055. 1791. 1961. 1370. 2535. 1606.
      1239. 965. 1323. 1899. 1271. 2042. 1934. 1139. 1120. 1026. 1389.
      1399. 1370. 975. 1518. 977. 1695. 765. 1193. 557. 502. 804. 1017.
      787. 895. 880. 1070. 1016. 714. 899. 1219. 1328. 1028. 1046. 965.
      1165. 855. 1372. 1381. 1442. 1679. 1761. 2334. 1172. 709. 885.
      954. 1019. 1168. 696. 884.</_>
    <_>
      1272. 990. 1501. 1172. 1155. 1275. 885. 838. 1643. 1279. 1600.
      1170. 1123. 1017. 916. 826. 1087. 1540. 1464. 1363. 1134. 1494.
      1351. 1145. 901. 903. 1479. 812. 856. 993. 1240. 1035. 812. 748.
      1659. 1193. 1133. 1460. 1367. 1373. 1249. 1309. 1302. 1091. 1744.
      2561. 1264. 1431. 623. 851. 972. 1030. 1330. 1633. 1965. 1910.
      635. 864. 1022. 847. 973. 1552. 1194. 1302. 1137. 1222. 1248.
      1338. 761. 1101. 556. 670. 1640. 1445. 1266. 1131. 921. 810. 737.
      686. 1626. 2260. 2077. 1971. 817. 1173. 1041. 1102. 1208. 1205.
      1337. 939. 802. 975. 1165. 810. 614. 825. 809. 1068. 642. 1209.
      638. 1013. 1012. 1080. 855. 858. 1646. 1801. 1104. 1358. 916.
      1343. 1340. 1530. 1172. 1776. 1579. 2641. 1115. 1235. 984. 878.
      1172. 1465. 1399. 1338. 1065. 655. 1210. 1065. 1219. 822. 917.
      931. 1885. 1312. 1279. 1608. 1301. 998. 997. 1276. 1279. 940.
      1588. 1629. 905. 848. 992. 982. 1166. 1010. 957. 1073. 720. 947.
      698. 1224. 870. 686. 1572. 1265. 1515. 1706. 1595. 1512. 1203.
      1007. 977. 1116. 1922. 1910. 1445. 1556. 936. 782. 1108. 975.
      1450. 1530. 2192. 2170. 1347. 1108. 854. 983. 960. 1302. 816.
      1486. 1220. 748. 1282. 1192. 1382. 991. 996. 1027. 1839. 1330.
      1531. 1460. 2108. 1160. 1211. 1323. 1916. 1067. 2594. 1722. 1000.
      874. 1318. 1179. 1631. 984. 1316. 1010. 1039. 1065. 940. 1114.
      646. 575. 819. 949. 931. 1222. 875. 1051. 928. 681. 768. 718.
      1577. 1240. 1251. 1010. 1275. 949. 1678. 1368. 1251. 1568. 1572.
      2133. 1413. 773. 889. 803. 1093. 1103. 743. 975.</_>
    <_>
      3593. 850. 1147. 911. 957. 1046. 753. 790. 1764. 1292. 1565. 1124.
      1264. 1163. 976. 908. 1031. 1482. 1709. 1705. 1037. 1333. 1398.
      1465. 814. 777. 1294. 714. 744. 820. 1082. 911. 621. 632. 1213.
      850. 1165. 1416. 1313. 1317. 1247. 1197. 1170. 860. 2190. 2486.
      1529. 1604. 631. 958. 1019. 1195. 1742. 2221. 2699. 2797. 523.
      738. 835. 733. 1011. 1222. 1263. 1203. 925. 1084. 878. 1042. 655.
      851. 468. 606. 1874. 1754. 1082. 1008. 1022. 824. 663. 563. 1788.
      2558. 2592. 2682. 914. 1278. 1081. 1298. 1267. 1285. 1057. 890.
      759. 856. 783. 611. 595. 708. 550. 706. 760. 1071. 574. 795. 996.
      978. 644. 664. 2077. 1761. 1049. 1175. 1137. 1532. 1442. 1693.
      1715. 2513. 2247. 3791. 1077. 1212. 764. 711. 1280. 1283. 1046.
      952. 865. 591. 1115. 1028. 920. 653. 704. 795. 2221. 1461. 1594.
      1831. 1348. 1226. 995. 1289. 955. 852. 1807. 2045. 653. 651. 906.
      1109. 832. 826. 852. 1003. 520. 656. 549. 1048. 711. 599. 1440.
      937. 1437. 1453. 1680. 1514. 1217. 938. 1030. 1082. 2210. 2274.
      1810. 1942. 764. 631. 1138. 1104. 1310. 1444. 2445. 2426. 898.
      766. 686. 734. 849. 1019. 831. 1204. 1031. 690. 1250. 1097. 963.
      889. 703. 772. 2260. 1657. 1686. 1610. 1907. 1251. 999. 1171.
      1878. 1349. 3280. 2713. 829. 853. 1204. 1235. 1388. 1083. 1227.
      1084. 733. 786. 603. 757. 630. 617. 727. 851. 932. 1055. 765. 916.
      1024. 781. 792. 901. 1703. 1340. 1242. 919. 1408. 1058. 1731.
      1815. 1441. 1772. 1650. 2258. 1195. 693. 858. 848. 948. 998. 701.
      755.</_>
    <_>
      1678. 895. 1261. 1526. 630. 809. 525. 720. 1508. 1477. 1474. 1474.
      1026. 942. 681. 831. 837. 1519. 1443. 2116. 911. 1271. 1078. 1058.
      651. 821. 1225. 878. 703. 830. 955. 844. 592. 572. 1841. 1085.
      2030. 1180. 2015. 1431. 997. 951. 1195. 887. 2133. 2023. 1693.
      1523. 511. 772. 999. 1062. 2274. 1878. 2712. 2142. 480. 574. 920.
      685. 1094. 1004. 1298. 1026. 927. 1503. 1308. 1792. 566. 950. 406.
      683. 2186. 2773. 1627. 1742. 867. 1006. 594. 637. 1338. 2636.
      1955. 2617. 663. 1376. 808. 1161. 1134. 1643. 1209. 1485. 694.
      1640. 802. 733. 498. 748. 750. 838. 654. 983. 761. 914. 892. 901.
      768. 770. 1738. 1516. 1364. 1175. 968. 1227. 1244. 1393. 1533.
      2151. 2121. 2990. 905. 950. 742. 706. 1224. 1364. 1265. 1116. 910.
      850. 1204. 1322. 803. 639. 699. 705. 2365. 1742. 1708. 1923. 1036.
      1086. 754. 980. 1466. 1302. 1730. 2341. 815. 717. 844. 830. 1105.
      1102. 1019. 1221. 620. 886. 566. 926. 792. 487. 2424. 1013. 1559.
      1168. 2128. 1272. 1097. 805. 1502. 1001. 2277. 1754. 2012. 1480.
      896. 651. 1174. 914. 2039. 1845. 2595. 1960. 847. 591. 771. 717.
      1233. 1189. 910. 949. 1050. 1141. 1146. 1246. 1038. 913. 599. 674.
      2341. 2591. 1531. 2779. 1728. 1244. 754. 987. 1880. 1496. 2227.
      2094. 877. 946. 893. 992. 1576. 1531. 1184. 1490. 988. 1530. 708.
      913. 525. 502. 685. 721. 845. 778. 830. 682. 988. 661. 886. 959.
      1594. 954. 1089. 675. 1106. 732. 1220. 1100. 1618. 1634. 1842.
      1749. 991. 573. 716. 614. 1370. 1107. 689. 604.</_>
    <_>
      957. 1045. 1292. 1198. 1009. 1032. 651. 705. 2293. 1351. 1731.
      1242. 1351. 1082. 793. 797. 984. 1502. 1390. 1631. 1221. 1544.
      1172. 945. 982. 963. 1196. 867. 944. 1017. 1165. 970. 940. 686.
      1908. 1292. 1957. 1082. 1664. 1183. 1655. 1029. 1455. 1093. 2434.
      1571. 1370. 1286. 679. 757. 911. 960. 1879. 1616. 1985. 1813. 746.
      663. 1012. 768. 1202. 1063. 1221. 1094. 998. 1457. 1200. 1735.
      752. 1075. 493. 786. 2067. 2403. 1417. 1774. 1030. 1042. 723. 764.
      1290. 2135. 1718. 2239. 777. 1373. 821. 1112. 1060. 1421. 1053.
      1168. 830. 1600. 929. 739. 503. 826. 825. 1179. 681. 1021. 661.
      1119. 881. 909. 902. 1062. 1540. 1566. 1196. 1493. 865. 1116.
      1188. 1386. 1207. 1841. 1704. 2395. 881. 957. 874. 742. 1073.
      1199. 1316. 1146. 955. 638. 1023. 1069. 991. 735. 638. 753. 2041.
      1341. 1300. 1692. 1047. 957. 785. 1011. 1665. 1100. 1510. 1658.
      1170. 823. 907. 859. 1218. 1121. 924. 1146. 753. 890. 628. 1101.
      859. 543. 2264. 1162. 1587. 1089. 1765. 1257. 1216. 840. 1347.
      1184. 1766. 1431. 1553. 1289. 1203. 769. 1283. 988. 2061. 1542.
      2384. 1916. 1151. 910. 922. 980. 1096. 1117. 923. 1080. 1026. 852.
      1098. 1413. 1293. 1091. 819. 1052. 1904. 2000. 1410. 2462. 1650.
      1220. 965. 1351. 1848. 1256. 2078. 2040. 1116. 1125. 980. 1411.
      1392. 1381. 1062. 1447. 965. 1605. 724. 1227. 538. 510. 791. 981.
      802. 923. 867. 1067. 976. 748. 874. 1235. 1358. 1063. 1077. 909.
      1236. 791. 1414. 1413. 1393. 1693. 1679. 2284. 1133. 654. 854.
      872. 971. 1077. 671. 926.</_>
    <_>
      1250. 984. 1573. 1170. 1107. 1202. 909. 811. 1487. 1212. 1669.
      1245. 1126. 1043. 937. 865. 957. 1428. 1485. 1462. 1119. 1400.
      1396. 1169. 842. 858. 1376. 782. 861. 929. 1364. 1041. 795. 693.
      1773. 1151. 1102. 1423. 1436. 1335. 1265. 1115. 1392. 1116. 1779.
      2303. 1316. 1450. 587. 720. 1036. 1043. 1389. 1572. 2128. 1945.
      606. 766. 1075. 740. 991. 1313. 1283. 1287. 1104. 1296. 1099.
      1316. 736. 1066. 541. 635. 1710. 1511. 1220. 1159. 1028. 843. 738.
      650. 1664. 2448. 2108. 2160. 882. 1252. 982. 1193. 1297. 1296.
      1265. 990. 864. 988. 1075. 829. 593. 736. 775. 991. 733. 1124.
      603. 950. 1022. 968. 794. 806. 1898. 1800. 1107. 1288. 937. 1296.
      1414. 1602. 1253. 1778. 1692. 2759. 1124. 1149. 965. 810. 1252.
      1505. 1307. 1257. 1095. 653. 1197. 1164. 1154. 824. 896. 900.
      2061. 1376. 1388. 1674. 1282. 1086. 986. 1284. 1133. 890. 1481.
      1676. 850. 749. 889. 1022. 1137. 919. 947. 1084. 729. 845. 625.
      1198. 989. 613. 1750. 1316. 1570. 1646. 1788. 1645. 1178. 1009.
      1050. 1187. 1997. 2038. 1648. 1620. 881. 654. 1206. 1006. 1433.
      1542. 2363. 2142. 1223. 920. 775. 985. 959. 1210. 818. 1350. 1218.
      806. 1111. 1175. 1293. 1037. 805. 1014. 2009. 1490. 1448. 1577.
      2199. 1292. 1087. 1200. 1867. 1241. 2467. 1843. 939. 907. 1176.
      1135. 1674. 1184. 1226. 1095. 1209. 1188. 832. 1166. 560. 623.
      795. 875. 945. 1166. 792. 977. 947. 723. 717. 773. 1624. 1353.
      1151. 926. 1340. 912. 1573. 1617. 1245. 1611. 1540. 2040. 1319.
      768. 826. 763. 1127. 1194. 677. 869.</_>
    <_>
      1251. 967. 1308. 1082. 1105. 1237. 814. 757. 1744. 1235. 1680.
      1210. 1205. 1123. 921. 904. 1098. 1355. 1469. 1416. 1142. 1431.
      1284. 1146. 967. 849. 1422. 870. 855. 891. 1189. 1081. 816. 822.
      1437. 1022. 1184. 1479. 1320. 1335. 1217. 1325. 1240. 1073. 1754.
      2167. 1295. 1555. 663. 851. 1002. 1008. 1537. 1854. 2224. 2126.
      612. 879. 1013. 814. 962. 1362. 1195. 1326. 1194. 1223. 1216.
      1410. 777. 1034. 498. 637. 1818. 1509. 1203. 1124. 939. 789. 747.
      635. 1572. 2395. 2232. 2246. 807. 1184. 1065. 1178. 1180. 1221.
      1356. 1024. 780. 925. 1067. 807. 608. 833. 724. 964. 780. 1130.
      613. 964. 970. 961. 764. 799. 1773. 1803. 1094. 1304. 1057. 1315.
      1495. 1523. 1367. 1919. 1943. 3038. 1075. 1232. 994. 876. 1245.
      1268. 1279. 1250. 1107. 679. 1170. 1101. 1061. 829. 742. 885.
      2100. 1351. 1463. 1657. 1221. 1115. 958. 1221. 1154. 894. 1577.
      1672. 782. 750. 965. 1037. 1207. 1014. 995. 1034. 733. 913. 682.
      1201. 854. 663. 1522. 1121. 1486. 1610. 1629. 1474. 1166. 1029.
      1014. 1114. 2062. 2005. 1615. 1610. 843. 766. 1063. 1070. 1422.
      1595. 2326. 2347. 1118. 1000. 813. 913. 929. 1177. 856. 1384.
      1241. 792. 1292. 1250. 1240. 1079. 869. 1026. 1986. 1481. 1571.
      1501. 1968. 1285. 1045. 1180. 1622. 1188. 2662. 1950. 909. 821.
      1186. 1162. 1449. 1065. 1325. 1071. 935. 956. 869. 1020. 642. 614.
      824. 932. 875. 1270. 798. 1094. 922. 752. 785. 890. 1585. 1177.
      1146. 883. 1399. 985. 1661. 1490. 1294. 1781. 1610. 2157. 1302.
      749. 943. 852. 1022. 1070. 714. 891.</_>
    <_>
      883. 693. 1038. 921. 736. 834. 718. 775. 1830. 1237. 1538. 1316.
      1152. 1059. 829. 911. 913. 1292. 1539. 2069. 904. 1379. 1432.
      1683. 709. 701. 1060. 893. 695. 726. 1033. 1069. 599. 457. 1112.
      756. 1529. 1112. 1903. 1275. 1174. 791. 1129. 813. 2808. 1962.
      1608. 1365. 610. 600. 997. 1037. 2493. 2202. 3297. 2695. 487. 474.
      857. 659. 1071. 977. 1345. 1052. 944. 1239. 839. 1144. 616. 873.
      362. 485. 2293. 2571. 1182. 1172. 1129. 1187. 549. 546. 1747.
      3227. 2262. 3126. 944. 1408. 973. 1274. 1123. 1471. 1092. 1135.
      844. 1419. 686. 770. 642. 714. 567. 676. 836. 959. 595. 665. 1163.
      903. 609. 628. 2270. 1638. 959. 886. 1238. 1363. 1247. 1364. 1811.
      2409. 2094. 2980. 888. 832. 708. 657. 1441. 1223. 1121. 875. 838.
      746. 1114. 1226. 689. 638. 688. 767. 2793. 1910. 2303. 2703. 1173.
      1097. 881. 1278. 1058. 1010. 1732. 2288. 694. 652. 828. 895. 850.
      886. 1015. 1429. 473. 585. 614. 976. 735. 520. 1851. 1038. 1383.
      1024. 2213. 1448. 1316. 845. 1802. 1267. 2489. 1767. 2097. 1514.
      749. 550. 1189. 969. 1471. 1455. 2906. 2148. 639. 517. 714. 774.
      726. 747. 806. 995. 1064. 1133. 992. 1266. 893. 870. 506. 627.
      3128. 3416. 2003. 2841. 1705. 1440. 742. 1057. 1912. 1758. 2548.
      2821. 741. 929. 787. 1012. 1573. 1499. 1144. 1422. 670. 1001. 508.
      752. 667. 690. 661. 715. 831. 833. 662. 754. 1325. 985. 850. 942.
      1773. 1247. 844. 716. 1237. 890. 1383. 1416. 1177. 1591. 1466.
      2072. 994. 671. 670. 639. 817. 796. 557. 670.</_>
    <_>
      1151. 834. 1196. 1099. 916. 1023. 635. 631. 1640. 1240. 1671.
      1261. 1027. 1138. 820. 1031. 1049. 1387. 1528. 1558. 1048. 1354.
      1203. 1102. 835. 851. 1279. 865. 878. 865. 1157. 1012. 771. 569.
      1492. 904. 1313. 1209. 1469. 1246. 1112. 978. 1537. 1027. 2055.
      2165. 1531. 1516. 750. 717. 1127. 994. 1907. 1835. 2536. 2280.
      549. 591. 1148. 656. 1038. 1042. 1418. 1103. 982. 1257. 1048.
      1369. 774. 1186. 454. 599. 1643. 1782. 1178. 1343. 907. 928. 741.
      910. 1771. 2980. 2527. 2934. 854. 1237. 947. 1167. 1015. 1341.
      1053. 1095. 735. 982. 880. 896. 585. 778. 794. 889. 798. 1043.
      715. 844. 885. 986. 891. 828. 2134. 1779. 1350. 1369. 1057. 1195.
      1309. 1596. 1509. 2025. 2151. 3417. 964. 1046. 751. 667. 1221.
      1174. 1328. 1172. 946. 679. 1152. 1191. 978. 674. 632. 752. 2240.
      1487. 1568. 1901. 1223. 1134. 846. 1183. 1154. 1051. 1662. 2057.
      815. 850. 825. 978. 1096. 958. 935. 1359. 660. 875. 570. 1139.
      880. 550. 1554. 1037. 1791. 1409. 1689. 1265. 1184. 822. 1033.
      1078. 2260. 1967. 1661. 1564. 1073. 687. 1306. 1061. 1796. 1758.
      2608. 2149. 1122. 773. 925. 924. 1083. 1089. 897. 1201. 1048.
      1023. 996. 1268. 1183. 1064. 598. 908. 1885. 1675. 1434. 1945.
      2042. 1268. 967. 1341. 2153. 1561. 2565. 2479. 851. 1040. 879.
      1187. 1341. 1225. 986. 1312. 788. 1026. 588. 952. 630. 554. 726.
      892. 996. 1086. 694. 921. 931. 726. 859. 962. 1740. 1210. 1188.
      886. 1245. 915. 1456. 1493. 1342. 1626. 1527. 2005. 1193. 592.
      738. 750. 982. 902. 682. 773.</_>
    <_>
      935. 833. 1177. 1052. 953. 1063. 684. 673. 1715. 1198. 1765. 1320.
      1154. 1119. 872. 966. 988. 1371. 1471. 1487. 1109. 1446. 1274.
      1168. 882. 811. 1239. 868. 894. 942. 1130. 1014. 789. 617. 1548.
      953. 1437. 1227. 1481. 1317. 1250. 1039. 1574. 1076. 2006. 2017.
      1565. 1503. 811. 724. 1062. 993. 1927. 1786. 2537. 2260. 547. 594.
      978. 689. 1121. 1057. 1339. 1029. 935. 1328. 1103. 1392. 731.
      1084. 390. 605. 1731. 1739. 1338. 1355. 854. 955. 782. 842. 1759.
      2757. 2445. 2690. 788. 1348. 947. 1138. 1012. 1309. 1054. 1047.
      691. 1077. 945. 865. 604. 724. 817. 821. 790. 1079. 715. 819. 959.
      990. 934. 870. 2005. 1763. 1272. 1267. 990. 1280. 1411. 1641.
      1432. 2104. 2108. 3327. 961. 1042. 756. 652. 1229. 1256. 1323.
      1082. 883. 619. 1230. 1142. 882. 676. 677. 752. 2315. 1591. 1548.
      1859. 1262. 1220. 903. 1231. 1148. 1058. 1568. 1838. 773. 858.
      835. 1033. 1107. 1070. 957. 1278. 610. 873. 582. 1155. 854. 594.
      1619. 1009. 1628. 1371. 1604. 1356. 1195. 868. 1011. 1064. 2262.
      1915. 1612. 1473. 1159. 708. 1293. 1058. 1724. 1600. 2560. 2192.
      1074. 829. 854. 903. 1055. 1124. 876. 1149. 1065. 995. 1122. 1377.
      1121. 975. 675. 894. 1977. 1728. 1505. 1952. 1961. 1342. 1043.
      1386. 2052. 1553. 2419. 2509. 795. 1051. 862. 1233. 1420. 1239.
      923. 1312. 861. 1069. 622. 1029. 618. 532. 788. 957. 1016. 1004.
      788. 898. 921. 686. 846. 974. 1733. 1206. 1198. 869. 1248. 889.
      1517. 1568. 1335. 1621. 1555. 2015. 1191. 684. 722. 750. 989. 951.
      683. 770.</_>
    <_>
      963. 830. 1086. 1081. 850. 1009. 628. 701. 1556. 1244. 1620. 1312.
      1167. 1184. 852. 996. 1028. 1401. 1457. 1447. 1100. 1479. 1264.
      1095. 814. 875. 1247. 871. 843. 917. 1105. 1013. 750. 587. 1484.
      923. 1331. 1284. 1444. 1219. 1205. 1082. 1466. 1023. 2017. 2101.
      1528. 1608. 775. 671. 1093. 991. 1920. 1912. 2557. 2337. 560. 680.
      1020. 694. 1165. 1096. 1329. 1135. 909. 1302. 1011. 1366. 672.
      1054. 475. 622. 1648. 1765. 1355. 1384. 967. 1016. 763. 891. 1728.
      2819. 2586. 2840. 784. 1276. 986. 1159. 1021. 1223. 1023. 1033.
      712. 1057. 902. 871. 596. 803. 783. 923. 821. 1028. 734. 825. 875.
      1017. 921. 881. 2059. 1707. 1292. 1358. 923. 1264. 1393. 1730.
      1489. 2163. 2081. 3360. 959. 1084. 779. 663. 1210. 1240. 1332.
      1041. 882. 654. 1172. 1206. 933. 667. 704. 791. 2356. 1620. 1559.
      1871. 1279. 1222. 900. 1230. 1224. 1091. 1558. 1926. 848. 875.
      851. 964. 1074. 1112. 924. 1326. 624. 902. 580. 1102. 857. 570.
      1553. 998. 1549. 1345. 1637. 1239. 1114. 913. 1076. 1071. 2218.
      1942. 1665. 1552. 1170. 743. 1236. 1048. 1694. 1564. 2580. 2074.
      1074. 835. 850. 901. 1022. 1162. 848. 1145. 1047. 937. 1110. 1327.
      1153. 1024. 659. 901. 1905. 1801. 1575. 1959. 1965. 1259. 1085.
      1390. 2014. 1495. 2572. 2417. 834. 976. 927. 1201. 1355. 1203.
      955. 1271. 760. 1021. 582. 981. 672. 557. 755. 919. 925. 1044.
      790. 866. 925. 714. 885. 973. 1723. 1246. 1246. 901. 1292. 994.
      1414. 1621. 1361. 1635. 1636. 1897. 1161. 622. 765. 698. 1034.
      928. 709. 783.</_>
    <_>
      1090. 855. 1221. 1090. 1251. 1295. 738. 713. 1917. 1128. 1685.
      1278. 1491. 1106. 833. 775. 942. 1148. 1366. 1525. 1184. 1570.
      1331. 1033. 772. 790. 1413. 944. 894. 955. 1652. 1234. 874. 668.
      2019. 1210. 1767. 998. 1414. 1022. 1590. 852. 1672. 1167. 2408.
      1616. 1233. 1008. 577. 608. 972. 968. 1733. 1583. 2036. 1814. 663.
      569. 1214. 902. 976. 909. 1408. 1171. 1066. 1571. 1186. 1438. 763.
      1330. 467. 648. 2037. 2397. 1106. 1285. 1097. 1137. 666. 647.
      1397. 2391. 1911. 2283. 796. 1509. 842. 1039. 1020. 1459. 1254.
      1115. 843. 1470. 1088. 885. 728. 968. 810. 1083. 780. 1141. 593.
      825. 1069. 891. 812. 864. 1886. 1603. 972. 1032. 857. 1145. 1166.
      1483. 1204. 1827. 1724. 2573. 896. 872. 1053. 832. 1223. 1207.
      1444. 1268. 989. 667. 942. 1062. 1312. 827. 695. 836. 2031. 1400.
      1374. 1871. 1184. 1146. 761. 1184. 1140. 953. 1383. 1603. 906.
      756. 865. 785. 1117. 1036. 939. 1312. 667. 853. 693. 1487. 1025.
      543. 2276. 1147. 1632. 1226. 1920. 1351. 1335. 857. 1502. 1357.
      1874. 1327. 1628. 1224. 907. 589. 1218. 857. 1454. 1532. 2478.
      1987. 1386. 1012. 1143. 1390. 918. 1003. 799. 1251. 1141. 1140.
      935. 1294. 1446. 1272. 618. 1068. 1936. 2222. 1154. 2478. 2188.
      1523. 809. 1517. 1780. 1330. 1891. 1924. 847. 1060. 721. 1083.
      1414. 1356. 1051. 1368. 936. 1669. 754. 1219. 875. 831. 786. 982.
      987. 1058. 762. 911. 1205. 829. 760. 1290. 1655. 1119. 682. 737.
      1131. 869. 1300. 1225. 1176. 1724. 1422. 1786. 1239. 752. 808.
      950. 951. 1101. 554. 861.</_>
    <_>
      958. 749. 1178. 1100. 858. 883. 681. 735. 1694. 1277. 1596. 1334.
      1439. 1233. 1025. 931. 1011. 1372. 1518. 1700. 1144. 1407. 1291.
      1225. 775. 749. 1202. 881. 937. 910. 1077. 965. 909. 552. 1683.
      1049. 1446. 1158. 1582. 1333. 1281. 874. 1470. 915. 2545. 2247.
      1745. 1393. 769. 665. 1154. 1015. 1934. 1598. 2440. 2030. 538.
      487. 999. 585. 1228. 1044. 1288. 987. 1019. 1184. 1040. 1300. 659.
      869. 438. 565. 1730. 1769. 1104. 1214. 1089. 1125. 658. 734. 1804.
      3089. 2370. 2686. 881. 1382. 930. 1276. 1130. 1436. 1091. 1121.
      762. 1197. 818. 880. 665. 684. 745. 902. 846. 916. 714. 771. 1203.
      924. 839. 723. 2593. 1685. 1142. 962. 1094. 1264. 1340. 1658.
      1663. 2015. 1922. 3058. 841. 825. 709. 656. 1291. 1178. 1139. 963.
      835. 688. 1025. 1208. 816. 695. 688. 815. 2227. 1619. 1681. 2255.
      1410. 1376. 920. 1274. 988. 1009. 1578. 2013. 660. 820. 850. 1113.
      910. 868. 878. 1282. 583. 836. 519. 1041. 875. 528. 1608. 1078.
      1601. 1375. 1792. 1449. 1397. 968. 1271. 1057. 2469. 1963. 1950.
      1558. 1016. 656. 1277. 1136. 1578. 1554. 2495. 2044. 948. 588.
      794. 796. 980. 1028. 805. 1043. 1040. 971. 965. 1295. 915. 827.
      554. 828. 1929. 1881. 1365. 1902. 1862. 1502. 730. 1260. 1930.
      1709. 2548. 2535. 814. 1235. 911. 1362. 1517. 1403. 949. 1316.
      782. 1151. 593. 1054. 635. 608. 776. 893. 853. 953. 657. 948.
      1269. 840. 877. 933. 1969. 1138. 970. 878. 1340. 1026. 1618. 1738.
      1378. 1765. 1540. 2076. 1098. 685. 762. 791. 932. 984. 626. 794.</_>
    <_>
      838. 756. 1007. 990. 802. 860. 723. 787. 1822. 1247. 1438. 1230.
      1206. 1082. 820. 852. 881. 1229. 1554. 1936. 1043. 1345. 1400.
      1474. 638. 738. 1183. 922. 758. 823. 1107. 1112. 617. 488. 1351.
      849. 1503. 1107. 1884. 1218. 1104. 794. 1148. 751. 2862. 1894.
      1566. 1209. 623. 684. 1109. 997. 2496. 2365. 3244. 2875. 504. 463.
      1029. 697. 1059. 997. 1437. 1105. 930. 1172. 1004. 1119. 751. 929.
      389. 474. 2180. 2550. 1187. 1235. 1136. 1182. 534. 594. 1702.
      2884. 2338. 2692. 1018. 1506. 986. 1183. 1174. 1444. 1122. 1153.
      892. 1432. 740. 751. 703. 771. 607. 677. 895. 992. 628. 727. 1137.
      850. 641. 631. 2232. 1585. 919. 905. 1158. 1342. 1252. 1494. 1843.
      2393. 2334. 3166. 883. 732. 692. 691. 1305. 1291. 1156. 953. 987.
      723. 1116. 1180. 738. 615. 648. 773. 2609. 1899. 2079. 2637. 1176.
      1121. 936. 1281. 1030. 895. 1689. 2122. 727. 596. 988. 885. 877.
      869. 984. 1287. 503. 623. 554. 931. 761. 481. 1969. 1028. 1337.
      1085. 2013. 1317. 1335. 854. 1847. 1211. 2378. 1689. 1978. 1529.
      737. 564. 1148. 960. 1431. 1392. 2800. 2276. 714. 519. 806. 816.
      846. 775. 853. 995. 1096. 1131. 1047. 1290. 970. 940. 480. 669.
      2831. 3342. 1803. 2895. 1689. 1426. 682. 1061. 1867. 1666. 2341.
      2563. 785. 915. 805. 1072. 1522. 1465. 1188. 1503. 691. 996. 477.
      774. 708. 732. 691. 770. 845. 994. 627. 769. 1368. 960. 888. 949.
      1760. 1253. 818. 756. 1148. 997. 1332. 1359. 1307. 1646. 1496.
      2109. 974. 639. 719. 716. 805. 800. 526. 635.</_>
    <_>
      800. 782. 1015. 1091. 797. 958. 594. 764. 1670. 1139. 1625. 1433.
      1003. 1001. 722. 850. 943. 1385. 1464. 1795. 893. 1444. 1329.
      1384. 737. 864. 1167. 943. 675. 846. 1173. 1122. 681. 574. 1373.
      902. 1612. 1150. 1842. 1190. 1133. 761. 1278. 835. 2449. 1903.
      1687. 1341. 635. 681. 978. 958. 2112. 2077. 3064. 2314. 591. 542.
      995. 655. 1220. 1122. 1391. 1216. 1026. 1435. 938. 1290. 697.
      1006. 424. 621. 2161. 2545. 1313. 1499. 1035. 1058. 620. 640.
      1600. 2948. 1964. 2684. 781. 1463. 841. 1197. 1084. 1467. 1097.
      1162. 745. 1299. 815. 713. 678. 763. 612. 746. 977. 1107. 652.
      850. 1099. 885. 767. 654. 2433. 1864. 1127. 1058. 1145. 1351.
      1192. 1396. 1658. 2011. 2083. 2727. 952. 870. 747. 610. 1332.
      1244. 1332. 1036. 882. 715. 1043. 1241. 875. 722. 678. 716. 2653.
      1815. 1977. 2532. 1104. 1039. 894. 1261. 1152. 1033. 1564. 2085.
      784. 722. 885. 922. 1051. 1073. 970. 1479. 541. 686. 596. 1076.
      816. 535. 1983. 973. 1628. 1134. 2043. 1245. 1303. 801. 1695.
      1126. 2243. 1444. 2142. 1450. 870. 571. 1121. 923. 1700. 1457.
      2899. 2060. 889. 648. 841. 853. 873. 854. 863. 1197. 1087. 1164.
      987. 1303. 1144. 1047. 572. 772. 2463. 2653. 1657. 2692. 1902.
      1283. 800. 1237. 1797. 1653. 2112. 2278. 816. 954. 767. 1046.
      1626. 1475. 1190. 1403. 740. 1046. 599. 913. 773. 695. 742. 780.
      1033. 1133. 680. 775. 1226. 812. 924. 842. 1948. 1196. 954. 790.
      1149. 922. 1310. 1136. 1244. 1502. 1544. 1820. 1138. 631. 781.
      760. 877. 809. 618. 736.</_>
    <_>
      1292. 1098. 1370. 1274. 1351. 1273. 745. 778. 1800. 1169. 1836.
      1278. 1164. 1037. 770. 758. 1001. 1361. 1481. 1455. 1222. 1340.
      1292. 899. 983. 904. 1468. 885. 1163. 990. 1570. 1146. 947. 743.
      1678. 1095. 1299. 1267. 1332. 1270. 1210. 1028. 1549. 1152. 1774.
      1837. 1347. 1375. 735. 660. 1105. 978. 1480. 1396. 1949. 1801.
      718. 642. 1229. 817. 1121. 1139. 1407. 1254. 1093. 1463. 1214.
      1538. 844. 1225. 490. 710. 1551. 1617. 1211. 1168. 924. 828. 730.
      674. 1461. 2463. 2118. 2271. 818. 1244. 919. 1161. 981. 1318.
      1210. 1054. 769. 921. 1225. 992. 781. 892. 842. 1155. 786. 1116.
      735. 1021. 931. 946. 880. 978. 1839. 1688. 1129. 1192. 951. 1168.
      1403. 1560. 1175. 1605. 1767. 2667. 994. 926. 1042. 949. 1295.
      1364. 1526. 1426. 1008. 768. 1083. 1105. 1151. 902. 805. 805.
      2101. 1385. 1481. 1735. 1176. 1122. 828. 975. 1155. 932. 1448.
