<?xml version="1.0"?>
<opencv_storage>
<opencv_ml_svm>
  <format>3</format>
  <svmType>C_SVC</svmType>
  <kernel>
    <type>RBF</type>
    <gamma>1.5000000000000001e-04</gamma></kernel>
  <C>2.5000000000000000e+00</C>
  <term_criteria><epsilon>1.1920928955078125e-07</epsilon>
    <iterations>1000</iterations></term_criteria>
  <var_count>256</var_count>
  <class_count>2</class_count>
  <class_labels type_id="opencv-matrix">
    <rows>2</rows>
    <cols>1</cols>
    <dt>i</dt>
    <data>
      0 1</data></class_labels>
  <sv_total>2000</sv_total>
  <support_vectors>
    <_>
      1863. 865. 982. 1085. 677. 541. 935. 745. 3602. 1164. 2902. 1105.
      2552. 823. 2227. 900. 873. 3687. 1274. 3320. 671. 2069. 1142.
      1959. 1337. 1361. 1256. 1128. 684. 631. 914. 768. 518. 707. 701.
      560. 606. 517. 1021. 559. 955. 838. 1383. 574. 1193. 732. 1881.
      622. 691. 1572. 897. 1269. 764. 994. 981. 1060. 866. 1166. 989.
      769. 776. 626. 1023. 554. 1035. 1368. 940. 931. 1629. 847. 1079.
      1096. 5014. 2607. 2362. 1411. 3423. 924. 2313. 894. 1098. 5092.
      1302. 3050. 754. 3263. 962. 2148. 1176. 1782. 909. 1040. 745. 934.
      784. 707. 534. 828. 574. 741. 1198. 1154. 1410. 1927. 1062. 1161.
      872. 603. 1431. 696. 1595. 692. 676. 2106. 694. 1507. 572. 1350.
      828. 1317. 725. 1297. 560. 762. 750. 700. 685. 601. 557. 836. 748.
      748. 565. 522. 1095. 821. 1268. 714. 1052. 589. 1072. 621. 1748.
      894. 657. 1767. 664. 1866. 644. 846. 1231. 1578. 1141. 1025. 1081.
      1171. 613. 489. 752. 675. 735. 864. 893. 541. 763. 764. 1396. 842.
      2097. 934. 3032. 569. 2467. 938. 4885. 1007. 806. 2184. 867. 3194.
      1469. 1919. 2175. 4253. 678. 923. 927. 857. 830. 695. 1209. 1009.
      848. 1094. 648. 700. 772. 841. 922. 746. 1392. 894. 795. 632.
      1415. 680. 1312. 670. 985. 2323. 731. 1492. 768. 1408. 760. 1387.
      646. 969. 535. 695. 604. 731. 692. 648. 594. 951. 452. 597. 845.
      1153. 874. 1112. 1363. 1254. 1797. 663. 3227. 986. 3211. 861. 800.
      2023. 661. 2184. 1113. 3295. 1025. 3432. 634. 1023. 703. 998. 781.
      793. 813. 842.</_>
    <_>
      5483. 786. 687. 874. 496. 403. 631. 478. 2349. 604. 2606. 759.
      2424. 421. 1311. 406. 539. 3960. 547. 3126. 378. 1520. 459. 1352.
      862. 1245. 644. 736. 579. 700. 484. 471. 531. 768. 701. 602. 659.
      556. 692. 481. 1065. 534. 1452. 483. 1242. 604. 1802. 484. 434.
      1605. 636. 1581. 480. 1096. 840. 1011. 724. 823. 798. 655. 661.
      577. 718. 548. 724. 1088. 656. 831. 1125. 692. 1025. 931. 3106.
      1106. 1009. 704. 2235. 426. 1216. 500. 635. 6534. 873. 2880. 533.
      3288. 692. 2197. 670. 1095. 579. 603. 786. 762. 761. 573. 572.
      842. 397. 672. 1146. 1288. 1117. 1572. 1340. 1384. 826. 529. 1518.
      598. 1729. 706. 520. 2287. 608. 1458. 857. 2163. 958. 1933. 687.
      1192. 587. 620. 694. 940. 817. 927. 810. 978. 869. 941. 671. 625.
      1036. 827. 1352. 617. 1308. 585. 1332. 686. 1951. 704. 940. 2244.
      802. 2277. 544. 963. 680. 1518. 1110. 944. 1177. 1246. 641. 518.
      893. 728. 1202. 1064. 1402. 834. 1229. 1211. 1630. 1423. 2219.
      848. 3762. 769. 3945. 1453. 5385. 1072. 940. 2564. 1205. 4461.
      1306. 2341. 2373. 5891. 1054. 1047. 1328. 1346. 1139. 884. 1511.
      1255. 744. 752. 665. 587. 798. 758. 662. 681. 1289. 583. 932. 581.
      1334. 612. 1340. 610. 884. 1795. 623. 1579. 612. 1607. 558. 1683.
      638. 816. 519. 715. 756. 807. 719. 780. 605. 788. 787. 670. 1027.
      1399. 1038. 1502. 1305. 682. 1902. 620. 2890. 991. 3588. 1096.
      608. 1954. 801. 3084. 1236. 4296. 1283. 5389. 671. 889. 966. 1020.
      1180. 1202. 1316. 1304.</_>
    <_>
      5568. 681. 698. 954. 617. 379. 760. 554. 2346. 728. 2432. 913.
      2261. 473. 1637. 692. 647. 2789. 885. 2423. 498. 1255. 706. 1312.
      897. 1080. 699. 828. 819. 644. 616. 584. 487. 539. 604. 540. 826.
      504. 1030. 513. 1354. 772. 1506. 638. 1623. 723. 2331. 696. 616.
      1126. 906. 1103. 794. 899. 893. 906. 806. 1008. 1134. 679. 1008.
      782. 839. 498. 738. 1079. 820. 880. 1294. 787. 1230. 989. 4196.
      1876. 1582. 1112. 2046. 580. 1781. 824. 741. 4782. 1086. 2438.
      687. 2517. 801. 1715. 650. 988. 510. 745. 741. 592. 665. 576. 574.
      895. 513. 654. 1059. 1303. 1126. 1349. 1699. 1749. 1064. 860.
      1577. 917. 1949. 1193. 722. 2060. 775. 1382. 919. 1650. 934. 1423.
      806. 1346. 789. 892. 767. 873. 1074. 881. 834. 918. 859. 912. 916.
      542. 964. 949. 1510. 778. 1489. 902. 1677. 821. 2004. 1148. 1091.
      1921. 993. 1656. 791. 818. 964. 1577. 1217. 1166. 1084. 1170. 873.
      698. 910. 952. 886. 870. 1003. 734. 1502. 1166. 1729. 1175. 1955.
      1032. 3109. 763. 3866. 1592. 5561. 1290. 905. 1704. 1021. 2650.
      1484. 1835. 2318. 4942. 900. 941. 1277. 1098. 1141. 920. 1474.
      1083. 867. 766. 766. 709. 812. 737. 808. 867. 1473. 851. 1036.
      910. 1577. 718. 1535. 961. 985. 1678. 896. 1103. 764. 1296. 715.
      1177. 797. 817. 696. 831. 840. 562. 712. 710. 735. 868. 674. 624.
      1071. 1308. 1120. 1302. 1301. 906. 1494. 772. 2256. 1070. 3001.
      1287. 748. 1652. 854. 2465. 1208. 3914. 1302. 3865. 687. 801. 951.
      1013. 1053. 813. 1083. 1120.</_>
    <_>
      1171. 913. 1000. 1039. 977. 547. 998. 805. 2981. 1538. 2337. 1270.
      2293. 884. 1777. 988. 856. 3311. 1252. 3082. 1024. 1680. 1139.
      1489. 1441. 1427. 1169. 1116. 1150. 883. 753. 824. 459. 609. 709.
      476. 784. 641. 919. 590. 1003. 832. 1155. 476. 1428. 743. 2061.
      834. 641. 1409. 755. 1075. 1300. 1165. 925. 797. 760. 1070. 953.
      826. 1123. 752. 953. 643. 1137. 1485. 1088. 1168. 1623. 822. 1388.
      1172. 4119. 2362. 1966. 1806. 3327. 890. 2578. 1374. 1349. 4275.
      1803. 2863. 1050. 2265. 1101. 1684. 1241. 1457. 960. 1070. 859.
      856. 762. 803. 489. 839. 616. 793. 1644. 1453. 1449. 1988. 876.
      1143. 912. 926. 1673. 982. 2204. 1260. 793. 2089. 944. 1598. 925.
      1652. 847. 1470. 656. 1066. 837. 1153. 670. 750. 853. 841. 924.
      862. 871. 861. 894. 750. 936. 981. 1590. 1154. 1133. 852. 1442.
      799. 1386. 1080. 972. 1662. 896. 1793. 1045. 978. 1170. 1505.
      1423. 1434. 1283. 1427. 860. 739. 816. 997. 851. 858. 859. 612.
      1048. 997. 1396. 1030. 1516. 937. 1987. 558. 2010. 1073. 2931.
      927. 882. 1997. 821. 3047. 1720. 2199. 1826. 4103. 840. 972. 943.
      1101. 855. 695. 1095. 834. 933. 1021. 666. 827. 728. 801. 773.
      767. 1420. 1093. 847. 727. 1337. 723. 1215. 804. 1169. 1597. 954.
      1590. 907. 1147. 773. 1142. 827. 860. 779. 988. 675. 639. 682.
      664. 423. 767. 416. 560. 669. 1105. 799. 1092. 900. 899. 1416.
      592. 1939. 876. 1828. 865. 754. 1911. 664. 2418. 1151. 3395. 937.
      3309. 630. 863. 732. 1216. 664. 631. 766. 829.</_>
    <_>
      32254. 763. 879. 1043. 789. 509. 766. 616. 4392. 1431. 2798. 1180.
      2284. 651. 1354. 625. 751. 3308. 1075. 2845. 487. 1662. 581. 1271.
      1460. 1487. 1361. 1081. 715. 705. 609. 491. 486. 522. 533. 483.
      533. 474. 801. 609. 870. 685. 827. 473. 978. 606. 1413. 627. 658.
      1269. 597. 1073. 1221. 1179. 809. 905. 663. 972. 757. 673. 818.
      548. 699. 566. 1120. 1145. 904. 863. 1549. 928. 1100. 1014. 6536.
      2517. 2739. 1592. 3158. 775. 2074. 1005. 929. 3624. 1852. 2499.
      683. 2990. 830. 1951. 1240. 1153. 865. 993. 763. 738. 632. 568.
      489. 704. 486. 713. 1316. 1230. 1339. 1980. 1015. 970. 694. 619.
      1539. 983. 1661. 1201. 609. 1489. 585. 1223. 667. 1375. 908. 1568.
      651. 772. 564. 801. 711. 558. 807. 763. 679. 766. 730. 704. 677.
      604. 909. 698. 1159. 837. 1182. 702. 1113. 718. 1302. 774. 887.
      1682. 767. 1801. 665. 726. 1996. 1689. 1097. 1071. 1304. 1350.
      622. 433. 619. 656. 713. 758. 771. 669. 672. 637. 959. 790. 1399.
      713. 1887. 480. 1763. 1554. 2859. 826. 742. 1823. 644. 3516. 1432.
      2143. 1717. 5584. 524. 913. 698. 894. 642. 643. 883. 609. 684.
      808. 699. 738. 678. 711. 744. 636. 719. 677. 842. 646. 913. 488.
      1037. 589. 958. 2122. 585. 1443. 631. 1001. 549. 929. 479. 678.
      503. 665. 560. 515. 516. 489. 433. 651. 500. 537. 676. 819. 780.
      942. 784. 645. 1175. 431. 2124. 1205. 2132. 721. 536. 1411. 498.
      2068. 1003. 2764. 865. 3306. 483. 707. 608. 733. 692. 552. 817.
      725.</_>
    <_>
      985. 873. 940. 956. 781. 523. 934. 742. 3734. 1590. 2326. 1190.
      2291. 791. 1727. 884. 840. 3323. 1100. 2986. 774. 1795. 993. 1590.
      1422. 1477. 1161. 1045. 1056. 856. 784. 598. 469. 639. 666. 399.
      797. 601. 944. 547. 1004. 710. 1172. 528. 1392. 813. 1865. 695.
      677. 1417. 786. 1100. 1083. 1227. 919. 953. 772. 1131. 898. 668.
      1012. 726. 894. 505. 1295. 1291. 1140. 1056. 1549. 835. 1346.
      1066. 6106. 2577. 2770. 1602. 3474. 924. 2739. 1157. 1154. 4701.
      1198. 2887. 860. 2296. 809. 1631. 1232. 1530. 839. 975. 951. 911.
      724. 680. 572. 788. 521. 777. 1405. 1287. 1575. 1902. 933. 983.
      1038. 808. 1786. 898. 2299. 1087. 638. 1724. 783. 1474. 901. 1763.
      954. 1456. 533. 1010. 699. 907. 743. 699. 730. 632. 697. 784. 666.
      721. 788. 526. 952. 898. 1817. 1048. 1306. 816. 1405. 734. 1458.
      1052. 850. 1852. 910. 2121. 897. 932. 1151. 1717. 1303. 1091.
      1271. 1347. 845. 651. 836. 846. 840. 849. 864. 561. 949. 984.
      1390. 999. 1561. 986. 2319. 667. 2279. 1019. 3469. 1145. 819.
      1999. 912. 3465. 1524. 2306. 2073. 5042. 754. 870. 1005. 976. 801.
      755. 1073. 887. 919. 774. 656. 628. 904. 703. 743. 857. 1326. 996.
      828. 719. 1302. 724. 1118. 822. 981. 1707. 819. 1503. 846. 1217.
      694. 1240. 845. 767. 799. 803. 702. 647. 690. 708. 511. 829. 444.
      612. 794. 1295. 777. 1116. 976. 881. 1276. 630. 2117. 831. 2326.
      940. 684. 2036. 748. 2529. 1125. 3492. 940. 3783. 536. 816. 881.
      1069. 648. 701. 767. 987.</_>
    <_>
      1237. 1039. 1085. 1222. 803. 591. 1055. 752. 3993. 1699. 2683.
      1428. 2232. 798. 1755. 863. 852. 4117. 1068. 3228. 806. 1877.
      1132. 1701. 1561. 1717. 1393. 1266. 983. 863. 728. 773. 501. 659.
      671. 500. 795. 515. 972. 485. 1151. 823. 1248. 556. 1234. 666.
      1728. 651. 731. 1674. 810. 1255. 959. 1150. 913. 996. 847. 1176.
      948. 779. 905. 751. 913. 516. 1262. 1300. 1235. 1336. 1564. 976.
      1411. 1187. 6363. 2589. 2728. 1768. 3815. 899. 2669. 1190. 944.
      4979. 1175. 2760. 1050. 2906. 1022. 1906. 1312. 1588. 910. 1030.
      1049. 995. 905. 824. 548. 745. 510. 744. 1598. 1476. 1624. 1722.
      1113. 1040. 893. 772. 1649. 701. 1885. 967. 607. 1955. 628. 1480.
      801. 1683. 618. 1544. 629. 1075. 744. 838. 656. 800. 817. 629.
      772. 778. 803. 806. 809. 642. 1019. 938. 1411. 913. 1099. 774.
      1154. 666. 1292. 925. 696. 1630. 850. 2248. 761. 822. 1119. 1722.
      1350. 1222. 1323. 1408. 743. 681. 757. 782. 804. 907. 905. 529.
      862. 765. 1315. 853. 1740. 813. 2618. 433. 2184. 721. 3786. 660.
      662. 2010. 733. 3345. 900. 1728. 1538. 4621. 740. 820. 1096. 799.
      676. 511. 1220. 697. 923. 1000. 635. 647. 806. 905. 918. 840.
      1236. 835. 875. 532. 1287. 731. 1251. 657. 851. 1813. 701. 1336.
      767. 1314. 683. 1354. 802. 817. 736. 789. 856. 698. 847. 712. 484.
      812. 450. 407. 845. 1178. 754. 1044. 1016. 859. 1470. 404. 2327.
      847. 2551. 789. 543. 1829. 521. 2002. 751. 3524. 688. 3753. 530.
      845. 786. 909. 647. 756. 991. 912.</_>
    <_>
      19140. 759. 673. 654. 538. 627. 738. 366. 2088. 760. 2706. 930.
      1363. 517. 1208. 477. 489. 5197. 1031. 4404. 437. 2665. 637. 1879.
      552. 888. 574. 445. 485. 939. 437. 472. 402. 493. 634. 417. 441.
      497. 752. 361. 1020. 535. 1114. 436. 1608. 701. 2224. 435. 398.
      1412. 710. 1302. 417. 986. 1080. 1186. 468. 647. 658. 425. 591.
      573. 721. 652. 580. 997. 675. 633. 685. 813. 724. 505. 3226. 1520.
      1413. 1340. 1779. 528. 1440. 660. 855. 6806. 1928. 4544. 586.
      5075. 819. 2958. 565. 837. 612. 552. 627. 908. 630. 701. 333. 643.
      405. 428. 914. 990. 1121. 891. 1475. 1681. 960. 570. 2045. 1124.
      2415. 818. 531. 2058. 593. 1201. 495. 1664. 830. 1600. 659. 991.
      657. 638. 564. 644. 1097. 593. 608. 906. 820. 632. 892. 499. 1319.
      719. 1448. 653. 1572. 492. 1471. 685. 2249. 813. 1001. 2094. 765.
      1536. 401. 876. 855. 1334. 923. 981. 780. 643. 477. 436. 548. 367.
      904. 882. 1275. 790. 1310. 1074. 1202. 880. 1798. 971. 2375. 694.
      2460. 2737. 2695. 984. 1555. 2579. 1015. 4077. 1174. 1932. 1818.
      5033. 763. 1215. 1045. 1061. 1098. 1055. 1165. 911. 638. 913. 734.
      781. 568. 677. 797. 442. 1186. 716. 1199. 1112. 1225. 626. 1139.
      465. 800. 2127. 744. 1066. 379. 1689. 605. 1065. 413. 625. 490.
      350. 619. 564. 561. 436. 604. 694. 1086. 605. 979. 1263. 1203.
      1009. 1432. 656. 2304. 614. 2978. 1709. 2738. 936. 554. 1974. 937.
      2398. 859. 3671. 1095. 3889. 540. 656. 987. 844. 1182. 986. 1156.
      1069.</_>
    <_>
      50711. 555. 717. 601. 433. 536. 618. 258. 2094. 593. 2678. 876.
      1558. 455. 1470. 328. 541. 4186. 970. 3512. 346. 2162. 527. 1343.
      556. 717. 633. 528. 409. 616. 366. 354. 436. 387. 457. 452. 535.
      437. 552. 347. 1175. 540. 1033. 359. 1466. 531. 1932. 518. 451.
      1137. 650. 1139. 521. 812. 1132. 733. 525. 746. 649. 563. 475.
      508. 757. 664. 477. 842. 520. 749. 603. 730. 686. 603. 2894. 1321.
      1388. 1159. 1563. 511. 1574. 535. 785. 5467. 2055. 3889. 536.
      4336. 826. 2558. 537. 912. 699. 608. 526. 866. 537. 580. 356. 523.
      370. 547. 841. 987. 898. 1097. 1609. 1525. 874. 512. 1844. 1107.
      2167. 756. 426. 1623. 617. 1294. 481. 1443. 822. 1189. 639. 970.
      627. 661. 547. 579. 1026. 708. 537. 960. 711. 508. 767. 558. 1473.
      580. 1278. 607. 1420. 460. 1531. 657. 2671. 556. 791. 1698. 722.
      1413. 446. 700. 1040. 1230. 605. 1007. 696. 616. 415. 458. 525.
      439. 704. 948. 1180. 775. 977. 875. 1019. 781. 1493. 884. 1723.
      656. 1978. 2167. 2497. 683. 1215. 2198. 843. 2883. 1197. 1826.
      1746. 4323. 816. 1363. 916. 991. 910. 836. 1049. 824. 506. 791.
      608. 709. 475. 635. 871. 450. 971. 670. 1225. 878. 1155. 580.
      1360. 385. 878. 1934. 634. 938. 386. 1261. 535. 1192. 359. 598.
      370. 311. 482. 496. 511. 462. 437. 715. 823. 659. 793. 1022. 1155.
      868. 1109. 704. 1471. 550. 2123. 1482. 2100. 770. 478. 1687. 637.
      1921. 908. 3195. 853. 3197. 344. 636. 724. 675. 929. 892. 1095.
      878.</_>
    <_>
      53835. 739. 765. 695. 745. 523. 791. 358. 2752. 1001. 3200. 887.
      1626. 627. 1741. 626. 547. 3166. 908. 2480. 693. 1333. 697. 965.
      1085. 1016. 1102. 841. 787. 552. 514. 415. 311. 415. 343. 373.
      664. 372. 547. 342. 1193. 598. 1071. 368. 1293. 452. 2113. 470.
      448. 1108. 672. 1140. 729. 811. 940. 805. 531. 738. 647. 547. 674.
      516. 627. 565. 740. 1352. 979. 907. 1149. 982. 839. 799. 3210.
      1467. 1701. 1246. 2045. 725. 1713. 833. 893. 4883. 1769. 2762.
      672. 2573. 792. 1821. 921. 1030. 860. 1105. 720. 731. 672. 779.
      410. 555. 361. 488. 1108. 1278. 843. 1139. 1757. 920. 844. 442.
      1577. 1242. 1780. 907. 450. 1469. 456. 1272. 563. 1271. 736. 1423.
      558. 674. 466. 615. 685. 439. 1009. 495. 508. 751. 716. 598. 917.
      527. 1234. 562. 1234. 734. 1153. 456. 1340. 538. 2338. 621. 983.
      2130. 556. 1515. 518. 771. 1486. 1126. 1055. 1014. 768. 942. 509.
      366. 476. 338. 334. 582. 412. 453. 728. 634. 585. 524. 1274. 744.
      1314. 444. 1675. 1972. 2349. 437. 953. 3188. 615. 4658. 1550.
      2446. 1195. 4277. 612. 1186. 708. 1152. 694. 624. 537. 487. 493.
      905. 560. 598. 548. 702. 729. 569. 1056. 746. 937. 502. 1046. 552.
      1183. 477. 743. 1790. 491. 1253. 446. 1186. 500. 940. 373. 585.
      378. 534. 325. 380. 426. 369. 418. 627. 556. 528. 604. 1003. 714.
      940. 1075. 783. 1057. 283. 2340. 1068. 1858. 459. 436. 1564. 412.
      3629. 886. 4014. 621. 4655. 342. 611. 420. 741. 584. 413. 354.
      423.</_>
    <_>
      840. 1041. 882. 942. 798. 647. 836. 611. 3071. 1275. 3458. 888.
      1928. 921. 1642. 891. 1095. 3036. 955. 2922. 1069. 1680. 1041.
      1927. 1071. 1365. 924. 992. 1124. 1002. 620. 714. 360. 490. 635.
      432. 654. 492. 838. 462. 952. 807. 995. 445. 1608. 930. 1748. 703.
      601. 1945. 840. 1809. 1133. 1153. 947. 1267. 692. 1093. 736. 655.
      1075. 1059. 859. 552. 975. 1581. 1076. 1546. 1132. 965. 1072.
      1102. 2836. 1730. 1990. 1390. 2095. 754. 1945. 916. 1240. 5786.
      1581. 4314. 1109. 2889. 870. 1992. 874. 1278. 1061. 1558. 941.
      842. 883. 705. 388. 697. 628. 916. 1127. 1293. 1108. 1468. 992.
      902. 1073. 766. 1411. 886. 1823. 746. 486. 1960. 818. 2260. 882.
      1858. 809. 1981. 582. 991. 751. 975. 875. 837. 854. 587. 731. 851.
      929. 647. 692. 675. 1153. 1073. 1228. 1025. 901. 765. 1126. 946.
      1389. 1293. 1022. 2372. 883. 2139. 927. 1090. 1076. 1643. 1027.
      1035. 799. 1258. 674. 651. 603. 1010. 716. 846. 894. 502. 1079.
      1049. 2106. 1121. 1515. 958. 1830. 571. 2842. 1500. 4169. 1444.
      750. 3078. 1149. 3759. 1726. 2567. 2203. 4009. 505. 695. 862. 786.
      891. 895. 1543. 1041. 892. 983. 671. 602. 535. 655. 489. 606.
      1194. 679. 684. 516. 1304. 625. 998. 712. 1327. 2285. 1082. 1740.
      783. 1408. 564. 1462. 846. 659. 826. 912. 750. 579. 603. 847. 465.
      862. 649. 658. 939. 1184. 872. 1023. 972. 607. 1339. 556. 2392.
      1115. 2493. 1021. 588. 2668. 907. 3328. 1065. 3115. 948. 3009.
      446. 694. 1038. 1103. 650. 696. 790. 1023.</_>
    <_>
      12327. 939. 1003. 986. 753. 644. 722. 477. 3999. 1244. 3804. 1048.
      2472. 813. 2169. 718. 753. 2892. 1020. 2239. 742. 1403. 823. 1360.
      1132. 1511. 851. 949. 1202. 955. 553. 495. 419. 574. 582. 504.
      710. 509. 704. 449. 1414. 769. 1408. 389. 1995. 623. 2135. 589.
      489. 1712. 873. 1375. 1103. 1082. 969. 1057. 686. 1078. 849. 637.
      1151. 968. 647. 586. 896. 1583. 1042. 1124. 1119. 778. 1097. 904.
      3702. 1420. 2665. 1518. 2655. 645. 2541. 962. 974. 4649. 1873.
      3052. 914. 3080. 798. 1882. 844. 1267. 895. 1138. 1073. 863. 641.
      539. 463. 741. 551. 712. 1058. 1338. 917. 1005. 1239. 860. 1304.
      699. 1947. 883. 2157. 1018. 475. 1988. 768. 1735. 797. 1925. 955.
      1830. 494. 960. 838. 1046. 838. 696. 830. 776. 882. 1013. 974.
      835. 729. 669. 1064. 990. 1795. 880. 1308. 683. 1456. 767. 1594.
      1019. 753. 2014. 721. 2012. 624. 914. 1684. 2013. 1049. 834. 737.
      921. 751. 744. 562. 979. 577. 832. 778. 644. 1079. 1003. 899. 848.
      2071. 742. 2046. 538. 2401. 1324. 2672. 663. 696. 2604. 1109.
      3925. 1325. 1970. 1649. 4411. 557. 738. 991. 866. 688. 806. 695.
      730. 891. 1017. 706. 688. 550. 611. 681. 692. 1572. 654. 1107.
      697. 1567. 519. 1295. 781. 1085. 1752. 780. 1218. 719. 1207. 664.
      1199. 808. 561. 856. 769. 852. 583. 583. 818. 461. 758. 588. 531.
      726. 1217. 748. 882. 1170. 615. 1469. 499. 2537. 1057. 2182. 772.
      550. 2069. 744. 2932. 880. 3216. 873. 3083. 417. 633. 1137. 1142.
      637. 662. 659. 1016.</_>
    <_>
      9197. 974. 928. 986. 811. 638. 706. 508. 3944. 1198. 3990. 1049.
      2518. 778. 2280. 825. 821. 2865. 1056. 2293. 758. 1466. 881. 1265.
      1116. 1555. 867. 905. 1278. 925. 605. 534. 463. 568. 569. 491.
      844. 458. 698. 444. 1409. 762. 1469. 471. 1961. 643. 2073. 637.
      476. 1686. 929. 1301. 1085. 1095. 911. 1109. 693. 1128. 856. 597.
      1212. 917. 658. 644. 960. 1591. 1085. 1208. 1220. 781. 1205. 839.
      3702. 1675. 2551. 1600. 2561. 608. 2541. 1093. 925. 4703. 1897.
      3025. 866. 3005. 816. 1842. 886. 1337. 862. 1243. 1033. 848. 691.
      599. 434. 754. 584. 698. 1055. 1378. 889. 1131. 1266. 885. 1243.
      796. 2061. 848. 2158. 925. 518. 1890. 746. 1716. 782. 1923. 860.
      1718. 480. 939. 885. 1012. 809. 603. 801. 779. 921. 1035. 956.
      812. 760. 641. 1114. 992. 1795. 827. 1214. 681. 1568. 718. 1592.
      1078. 690. 1998. 769. 1957. 666. 923. 1739. 1971. 1131. 868. 760.
      928. 734. 749. 598. 933. 651. 887. 780. 753. 1063. 1006. 897. 821.
      2152. 744. 2130. 534. 2288. 1234. 2580. 667. 709. 2626. 1064.
      4004. 1406. 2117. 1716. 4442. 515. 774. 986. 913. 691. 819. 691.
      807. 862. 1019. 733. 671. 553. 725. 686. 702. 1618. 716. 1133.
      755. 1559. 522. 1287. 758. 1112. 1658. 710. 1200. 717. 1191. 651.
      1136. 850. 564. 827. 815. 823. 606. 575. 819. 479. 810. 604. 544.
      742. 1179. 820. 820. 1174. 637. 1499. 506. 2460. 1087. 2263. 803.
      614. 2099. 791. 3078. 876. 3414. 790. 3337. 464. 684. 1141. 1142.
      699. 699. 657. 1009.</_>
    <_>
      2458. 829. 712. 791. 555. 392. 572. 405. 2738. 879. 2649. 700.
      2426. 381. 1303. 518. 463. 3879. 907. 3499. 592. 1325. 652. 1459.
      858. 1358. 602. 775. 996. 880. 449. 468. 471. 520. 505. 510. 834.
      477. 789. 452. 1397. 578. 1509. 445. 1967. 514. 2241. 506. 450.
      1426. 894. 1590. 915. 1004. 816. 1035. 674. 1143. 781. 622. 1152.
      722. 749. 499. 763. 1067. 856. 958. 1112. 755. 1267. 940. 3457.
      1730. 1795. 1078. 2554. 481. 2161. 918. 667. 4154. 1157. 2912.
      896. 3854. 782. 2097. 688. 889. 609. 785. 817. 750. 574. 647. 284.
      642. 483. 638. 1081. 1313. 1126. 1356. 1560. 1227. 1278. 784.
      1712. 709. 2685. 1179. 390. 1864. 763. 1626. 903. 2061. 812. 1735.
      678. 1100. 813. 1085. 622. 808. 929. 925. 885. 1238. 870. 1046.
      692. 442. 856. 878. 1659. 878. 1683. 713. 1612. 646. 1958. 1165.
      837. 1934. 949. 1879. 618. 916. 905. 1628. 995. 913. 913. 964.
      888. 692. 612. 925. 843. 1068. 1102. 728. 1292. 1153. 1169. 929.
      2572. 933. 2676. 610. 4276. 1545. 5347. 1013. 1046. 2703. 1215.
      3159. 1676. 2341. 1547. 4450. 831. 933. 1240. 1040. 955. 893. 943.
      862. 921. 1078. 710. 743. 820. 642. 694. 623. 1247. 651. 1212.
      943. 1748. 571. 1342. 846. 1115. 1819. 863. 1221. 819. 1471. 649.
      1206. 778. 620. 810. 878. 857. 563. 724. 946. 589. 723. 822. 688.
      1023. 1474. 891. 1050. 1591. 776. 1916. 667. 3921. 1238. 3899.
      1396. 626. 1851. 933. 2436. 1191. 3472. 961. 3099. 463. 714. 1193.
      1272. 878. 979. 1216. 1245.</_>
    <_>
      19223. 753. 695. 716. 487. 338. 480. 429. 2707. 808. 2788. 835.
      2264. 355. 1650. 567. 563. 4023. 1011. 3456. 520. 1296. 645. 1430.
      821. 1424. 721. 773. 737. 628. 422. 438. 450. 402. 441. 442. 625.
      416. 674. 335. 1269. 483. 1335. 354. 1955. 474. 2131. 531. 393.
      1451. 646. 1389. 723. 971. 925. 894. 604. 906. 709. 551. 949. 494.
      586. 471. 630. 1123. 618. 894. 1028. 758. 1158. 873. 3608. 1947.
      1961. 1316. 2271. 541. 2481. 944. 677. 4796. 1587. 3497. 836.
      3887. 883. 2139. 610. 1026. 544. 760. 694. 717. 434. 543. 360.
      611. 481. 542. 964. 1440. 1002. 1389. 1362. 1582. 1097. 754. 1561.
      720. 2434. 972. 558. 1964. 603. 1440. 714. 1934. 869. 1705. 693.
      1192. 698. 981. 444. 589. 642. 788. 773. 1043. 659. 845. 635. 515.
      809. 740. 1554. 773. 1369. 600. 1658. 521. 1948. 965. 994. 1982.
      979. 1645. 702. 795. 725. 1396. 1177. 1095. 911. 1129. 672. 481.
      620. 771. 696. 882. 1058. 769. 1187. 847. 1078. 743. 2174. 900.
      2589. 520. 4342. 1692. 5302. 1020. 921. 2514. 970. 3485. 1429.
      1843. 1544. 3958. 872. 941. 1225. 1046. 1015. 804. 964. 748. 704.
      818. 624. 707. 723. 731. 635. 566. 1117. 646. 1306. 1046. 1519.
      509. 1265. 720. 1003. 1695. 579. 1048. 703. 1182. 479. 829. 670.
      616. 615. 750. 676. 435. 664. 732. 478. 665. 830. 672. 995. 1379.
      1028. 1128. 1354. 625. 1757. 606. 3873. 1155. 4247. 1258. 567.
      1401. 804. 2266. 1107. 3132. 910. 2682. 353. 594. 876. 973. 831.
      816. 1022. 1097.</_>
    <_>
      1435. 1200. 1159. 1226. 1121. 876. 748. 720. 3144. 1433. 2978.
      1072. 2607. 1345. 1949. 1116. 976. 2820. 1355. 2229. 1053. 1587.
      1063. 1636. 1169. 1201. 850. 965. 1239. 1453. 619. 846. 430. 642.
      672. 500. 662. 508. 588. 433. 866. 856. 994. 524. 1698. 1081.
      1641. 752. 646. 1417. 836. 1168. 961. 978. 759. 802. 534. 874.
      727. 614. 1162. 1257. 816. 518. 1158. 1379. 1762. 1342. 1352. 879.
      1025. 1125. 3590. 1615. 2516. 1402. 2624. 1134. 2444. 1410. 1297.
      3115. 2362. 2638. 1151. 2306. 1202. 1484. 1087. 1234. 1317. 1453.
      1359. 1096. 1185. 945. 354. 610. 742. 828. 927. 850. 1066. 1224.
      1181. 728. 1144. 787. 1827. 842. 2146. 868. 635. 1456. 1080. 1365.
      870. 1199. 934. 856. 437. 847. 848. 909. 867. 967. 911. 672. 879.
      1183. 1081. 789. 706. 703. 828. 823. 1514. 952. 1002. 715. 1094.
      1053. 1181. 1136. 890. 1397. 738. 1303. 716. 1003. 966. 1222.
      1253. 976. 814. 1105. 720. 778. 496. 694. 1030. 1104. 1494. 629.
      1179. 1432. 1448. 931. 1735. 1189. 2473. 671. 3388. 2129. 4516.
      1217. 869. 2003. 1034. 3288. 1438. 2974. 2038. 4856. 577. 761.
      920. 850. 838. 1200. 984. 877. 865. 800. 870. 572. 599. 490. 566.
      516. 1127. 764. 939. 553. 1179. 682. 1089. 847. 1118. 1355. 1214.
      1222. 759. 825. 615. 999. 790. 729. 943. 792. 815. 605. 732. 712.
      537. 813. 728. 536. 767. 939. 775. 854. 1256. 799. 2217. 706.
      2889. 1151. 3595. 1051. 690. 1696. 891. 2532. 1297. 4058. 1118.
      4021. 544. 661. 1122. 865. 939. 878. 877. 862.</_>
    <_>
      798. 847. 1080. 969. 850. 486. 976. 692. 2457. 1460. 2593. 1182.
      1947. 1076. 1737. 853. 787. 4610. 990. 4238. 945. 1929. 801. 1949.
      949. 1434. 906. 1132. 1373. 1197. 600. 757. 422. 567. 715. 568.
      856. 583. 837. 466. 1220. 830. 1290. 507. 1477. 759. 1385. 528.
      505. 1695. 934. 1549. 1051. 1341. 891. 1094. 700. 958. 805. 618.
      1139. 730. 825. 478. 910. 1490. 1194. 1419. 1309. 917. 1307. 1251.
      2544. 1393. 2072. 1331. 2135. 862. 2019. 1095. 1091. 5571. 1392.
      3880. 1222. 3845. 944. 2518. 788. 1044. 951. 1154. 1078. 1053.
      957. 915. 381. 819. 599. 716. 1196. 1393. 1297. 1633. 1010. 880.
      1011. 863. 1816. 927. 1836. 1336. 510. 1733. 819. 1578. 939. 1535.
      880. 1449. 589. 891. 1038. 1124. 718. 859. 1117. 799. 1296. 986.
      1074. 861. 910. 592. 869. 879. 1528. 1085. 1368. 758. 1191. 962.
      1265. 1171. 919. 1376. 805. 1530. 802. 970. 878. 1464. 1027. 742.
      879. 1062. 863. 664. 540. 889. 936. 1180. 1215. 742. 1348. 1109.
      1140. 895. 1510. 1116. 1789. 804. 2383. 1483. 2868. 883. 1084.
      2768. 1131. 3261. 1490. 2114. 1325. 4028. 795. 868. 1153. 1042.
      1092. 871. 1068. 764. 1072. 929. 649. 661. 846. 683. 471. 761.
      1137. 744. 1011. 654. 1272. 657. 1193. 921. 1167. 1541. 890. 1364.
      991. 1250. 598. 1211. 967. 752. 884. 912. 988. 657. 817. 1009.
      463. 735. 965. 779. 1044. 1146. 926. 1230. 1267. 856. 1474. 761.
      2419. 987. 2424. 1223. 597. 1653. 1093. 2217. 968. 3165. 988.
      3088. 497. 800. 1289. 1152. 874. 991. 972. 1173.</_>
    <_>
      818. 891. 999. 994. 893. 552. 976. 685. 2414. 1505. 2664. 1214.
      1967. 993. 1749. 869. 790. 4582. 1067. 4109. 977. 1813. 897. 2006.
      914. 1453. 939. 1123. 1364. 1177. 694. 751. 433. 550. 708. 627.
      807. 604. 804. 549. 1159. 840. 1316. 530. 1444. 862. 1414. 535.
      531. 1649. 995. 1529. 1081. 1319. 998. 1113. 646. 932. 809. 670.
      1190. 760. 823. 520. 978. 1513. 1228. 1323. 1315. 958. 1256. 1241.
      2509. 1367. 2055. 1405. 2093. 895. 2055. 1198. 1077. 5627. 1371.
      3946. 1285. 3782. 1015. 2387. 770. 1136. 1032. 1102. 1066. 1082.
      836. 947. 388. 795. 591. 700. 1166. 1301. 1262. 1569. 1093. 895.
      1089. 892. 1726. 891. 1997. 1321. 530. 1835. 759. 1549. 947. 1588.
      860. 1428. 547. 818. 1022. 1069. 792. 873. 1035. 829. 1187. 963.
      997. 777. 979. 643. 838. 875. 1525. 1109. 1319. 809. 1246. 1051.
      1437. 1181. 869. 1434. 806. 1517. 839. 918. 874. 1544. 1037. 721.
      844. 884. 861. 652. 566. 924. 872. 1097. 1229. 741. 1280. 1052.
      1154. 861. 1503. 1134. 1748. 812. 2263. 1434. 2834. 834. 1061.
      2791. 1150. 3241. 1476. 2041. 1365. 4078. 750. 859. 1098. 1069.
      1037. 824. 1042. 737. 1012. 885. 631. 682. 868. 716. 461. 733.
      1155. 755. 930. 661. 1353. 681. 1215. 940. 1150. 1718. 811. 1403.
      1026. 1270. 639. 1301. 966. 786. 979. 927. 914. 639. 782. 997.
      505. 795. 943. 769. 1037. 1124. 918. 1137. 1369. 855. 1509. 699.
      2405. 1035. 2313. 1102. 607. 1762. 1095. 2170. 952. 3168. 1006.
      3090. 522. 757. 1208. 1110. 855. 1065. 922. 1124.</_>
    <_>
      1183. 1283. 1163. 945. 947. 619. 708. 562. 2149. 1251. 2296. 921.
      1594. 964. 909. 682. 887. 3349. 1107. 2691. 1045. 1565. 921. 1705.
      1237. 1343. 1080. 1120. 1022. 1032. 470. 706. 473. 678. 605. 531.
      655. 587. 629. 483. 948. 702. 1080. 510. 1261. 1050. 1001. 696.
      561. 1601. 1044. 1517. 1102. 1206. 1082. 1430. 609. 973. 781. 724.
      857. 904. 756. 547. 972. 1331. 1197. 1456. 1387. 1144. 1119. 1537.
      2257. 1602. 1442. 1368. 1380. 930. 1302. 1058. 1045. 5127. 1821.
      3309. 1261. 3729. 997. 2187. 926. 1167. 1159. 1295. 966. 938. 799.
      777. 431. 741. 535. 823. 980. 1259. 1005. 1568. 1052. 802. 880.
      801. 1332. 969. 1592. 1051. 578. 2084. 962. 1924. 929. 1851. 1062.
      1905. 595. 949. 850. 1109. 917. 779. 1151. 742. 799. 1072. 986.
      910. 717. 614. 891. 963. 1191. 1000. 907. 672. 1119. 1037. 1213.
      1055. 939. 1944. 759. 1899. 850. 1153. 758. 1613. 1244. 1094. 929.
      1448. 735. 816. 491. 958. 1129. 1227. 1379. 782. 1404. 1260. 1259.
      861. 1638. 1224. 2148. 799. 3370. 2569. 3230. 1305. 923. 2881.
      1230. 3915. 1433. 2005. 1142. 3243. 744. 1066. 1023. 1275. 1202.
      1082. 933. 757. 854. 945. 760. 683. 611. 582. 654. 730. 792. 745.
      708. 655. 882. 591. 922. 767. 1412. 1908. 1324. 1501. 961. 1602.
      850. 1600. 743. 664. 847. 835. 743. 734. 613. 790. 575. 779. 1006.
      675. 1086. 1238. 1140. 1077. 1198. 731. 1603. 838. 2954. 1271.
      3272. 1445. 786. 2317. 1128. 2601. 1196. 3710. 982. 3542. 479.
      707. 1162. 1191. 1001. 879. 1155. 1022.</_>
    <_>
      11092. 1208. 1311. 957. 929. 794. 693. 507. 2362. 994. 2551. 907.
      1865. 1063. 1317. 615. 806. 3361. 965. 2935. 705. 1922. 1143.
      1868. 1146. 1344. 1022. 1089. 997. 1150. 632. 584. 335. 437. 505.
      366. 656. 540. 496. 372. 810. 612. 835. 310. 1495. 1018. 1205.
      493. 366. 1702. 852. 1637. 768. 1193. 1084. 1009. 475. 900. 807.
      580. 686. 705. 595. 446. 841. 1444. 1446. 1262. 1429. 1179. 1174.
      1100. 2352. 1287. 2197. 1259. 2477. 996. 1997. 946. 988. 5594.
      2177. 3391. 888. 3949. 931. 2298. 887. 1271. 1149. 1253. 1075.
      1050. 1232. 839. 332. 507. 441. 724. 1129. 1089. 1011. 1657. 729.
      526. 991. 631. 2140. 1110. 1950. 968. 462. 1411. 822. 1725. 726.
      1675. 736. 1737. 419. 613. 753. 942. 982. 770. 1236. 601. 819.
      1264. 1059. 723. 838. 689. 967. 568. 1338. 764. 1093. 569. 1170.
      922. 1401. 672. 897. 2126. 743. 1635. 711. 850. 699. 1290. 1138.
      1025. 1023. 1162. 698. 545. 499. 491. 748. 890. 717. 553. 1005.
      1134. 610. 584. 1574. 784. 2085. 512. 2479. 1844. 2147. 693. 1019.
      4423. 740. 6170. 1738. 3189. 1259. 5959. 634. 744. 780. 912. 784.
      865. 681. 732. 588. 792. 641. 673. 560. 598. 867. 633. 961. 454.
      781. 454. 1091. 416. 1128. 441. 664. 2282. 907. 1572. 495. 1325.
      710. 1369. 532. 524. 587. 807. 506. 450. 484. 518. 464. 902. 710.
      787. 713. 1014. 666. 862. 1049. 533. 1495. 466. 2212. 985. 2418.
      749. 438. 3443. 683. 4944. 895. 5139. 739. 6010. 388. 747. 755.
      1017. 688. 727. 632. 717.</_>
    <_>
      12886. 799. 787. 770. 632. 411. 554. 440. 2283. 833. 2937. 850.
      2235. 646. 2142. 451. 490. 4071. 721. 3679. 501. 2315. 423. 2018.
      930. 1106. 870. 794. 749. 540. 472. 456. 334. 471. 506. 443. 833.
      415. 722. 413. 1037. 495. 1191. 370. 1457. 480. 1591. 479. 359.
      1283. 618. 1468. 658. 1267. 993. 1024. 662. 773. 680. 511. 813.
      669. 710. 506. 749. 1111. 918. 1017. 1147. 925. 919. 895. 2407.
      1085. 1584. 1013. 2174. 753. 1720. 934. 655. 5045. 1425. 3736.
      845. 5461. 811. 3678. 583. 888. 741. 876. 686. 669. 588. 616. 426.
      670. 490. 726. 1274. 1456. 1160. 2138. 1240. 1046. 816. 659. 1662.
      908. 1825. 851. 407. 2054. 663. 1845. 828. 2184. 943. 2344. 471.
      806. 624. 885. 715. 671. 1235. 594. 825. 1145. 1136. 879. 913.
      592. 810. 507. 1368. 738. 1236. 689. 1350. 628. 1618. 709. 1101.
      2157. 760. 1914. 761. 939. 656. 1146. 1234. 1322. 1114. 1400. 697.
      496. 569. 630. 780. 1237. 958. 865. 1731. 1089. 1201. 832. 1586.
      852. 1736. 687. 2557. 1577. 2727. 844. 1182. 3378. 1202. 3944.
      1822. 2394. 1413. 4658. 1008. 1282. 1075. 1407. 1294. 1072. 876.
      877. 650. 839. 694. 704. 574. 631. 574. 515. 1197. 647. 938. 631.
      1412. 543. 1222. 553. 773. 2437. 793. 1987. 619. 1563. 535. 1320.
      542. 589. 571. 729. 553. 478. 548. 655. 466. 764. 893. 968. 1060.
      1403. 1047. 1338. 1531. 634. 1480. 690. 2241. 1225. 2305. 1055.
      456. 1820. 891. 3166. 998. 3623. 879. 3766. 519. 660. 1027. 1339.
      1189. 1104. 1086. 1087.</_>
    <_>
      6911. 1200. 1279. 1154. 1019. 769. 728. 526. 2863. 1101. 2538.
      918. 1898. 1181. 1023. 713. 655. 3193. 966. 2478. 837. 1844. 929.
      1206. 1427. 1442. 1077. 964. 1155. 1213. 554. 617. 366. 465. 640.
      403. 724. 505. 660. 294. 855. 608. 859. 460. 1594. 937. 1640. 688.
      430. 1120. 744. 1133. 907. 1026. 851. 863. 569. 956. 775. 527.
      968. 806. 784. 406. 915. 1349. 1477. 1350. 1826. 1036. 1457. 1102.
      3062. 1593. 2008. 1598. 2057. 1117. 2055. 1362. 1077. 5761. 2429.
      3230. 1181. 3209. 986. 1965. 862. 1201. 1312. 1200. 1238. 1060.
      991. 983. 380. 480. 550. 605. 1366. 1127. 1249. 1912. 830. 704.
      912. 659. 1570. 990. 1942. 929. 449. 1578. 661. 1613. 723. 1528.
      664. 1627. 513. 804. 844. 866. 877. 571. 888. 565. 930. 1069. 936.
      699. 788. 817. 1048. 632. 1567. 1022. 1358. 621. 1461. 979. 1674.
      946. 900. 2031. 624. 2182. 672. 720. 786. 1117. 1486. 1124. 992.
      1297. 654. 440. 598. 511. 755. 970. 840. 574. 1121. 1030. 993.
      644. 1709. 1051. 1822. 741. 2814. 2157. 2450. 1042. 840. 3285.
      889. 6032. 1562. 3022. 1288. 5315. 650. 878. 987. 1072. 931. 952.
      1045. 885. 803. 789. 724. 612. 584. 623. 666. 480. 947. 819. 794.
      558. 1034. 662. 1007. 604. 861. 1659. 974. 1394. 616. 1004. 540.
      960. 668. 514. 648. 609. 583. 392. 592. 448. 546. 688. 695. 677.
      866. 1080. 868. 1170. 854. 693. 1542. 633. 2351. 1145. 2634. 898.
      558. 2080. 867. 4757. 1090. 4991. 732. 5524. 499. 647. 876. 930.
      789. 706. 785. 868.</_>
    <_>
      7213. 1005. 1114. 799. 788. 770. 911. 585. 2467. 915. 2855. 947.
      1443. 832. 1564. 718. 750. 3467. 1099. 2572. 762. 1559. 1171.
      1345. 1045. 1199. 1098. 839. 1040. 982. 814. 628. 490. 584. 489.
      446. 606. 568. 688. 465. 926. 792. 1041. 478. 1585. 775. 1752.
      711. 619. 1304. 813. 1378. 860. 1071. 863. 1151. 681. 985. 833.
      613. 955. 722. 757. 714. 705. 1431. 1038. 886. 1126. 1065. 1006.
      916. 3241. 1519. 2079. 1507. 1919. 804. 1975. 982. 980. 6090.
      2073. 3106. 913. 2923. 1005. 2020. 757. 1134. 1004. 953. 852.
      1008. 868. 828. 454. 668. 489. 541. 1114. 1065. 1110. 1567. 1252.
      1055. 1041. 624. 2139. 1001. 2309. 845. 612. 1758. 773. 1521. 629.
      1525. 871. 1780. 691. 937. 706. 839. 928. 705. 1092. 742. 736.
      1140. 1018. 753. 930. 695. 1316. 679. 1321. 940. 1362. 680. 1313.
      758. 1665. 985. 886. 2313. 684. 1904. 633. 1024. 1727. 1696. 1071.
      1209. 873. 1155. 609. 596. 579. 601. 695. 784. 807. 638. 1299.
      1191. 1223. 943. 1612. 875. 1815. 663. 3070. 1729. 2709. 955. 871.
      3092. 837. 4946. 1369. 2728. 1623. 5654. 608. 968. 869. 935. 1042.
      905. 919. 764. 746. 1262. 709. 726. 539. 752. 883. 432. 1228. 791.
      1253. 601. 1195. 574. 1043. 671. 892. 2168. 805. 1434. 601. 1225.
      626. 1102. 602. 747. 629. 533. 602. 504. 642. 525. 508. 822. 761.
      562. 749. 950. 1141. 891. 1047. 958. 1498. 667. 2416. 1422. 2481.
      1139. 659. 2362. 844. 3667. 1171. 4557. 975. 4609. 510. 818. 819.
      898. 792. 780. 804. 785.</_>
    <_>
      30796. 674. 827. 619. 682. 524. 601. 378. 2640. 756. 3769. 862.
      2178. 756. 1879. 509. 577. 4691. 783. 4031. 397. 1613. 389. 1307.
      723. 1009. 729. 573. 657. 494. 400. 409. 450. 507. 481. 418. 599.
      432. 503. 302. 1255. 620. 1187. 331. 1293. 670. 1567. 528. 325.
      1215. 583. 1297. 492. 923. 849. 892. 505. 704. 539. 450. 684. 559.
      555. 463. 619. 985. 716. 661. 922. 629. 841. 674. 3147. 1153.
      2171. 1258. 2148. 739. 1836. 885. 703. 6009. 1836. 4162. 736.
      5037. 900. 3180. 592. 760. 742. 611. 638. 754. 626. 749. 337. 480.
      432. 607. 976. 1119. 980. 1390. 1403. 1244. 987. 504. 1697. 1126.
      2064. 1084. 347. 1860. 678. 1574. 723. 1784. 1057. 1845. 575. 765.
      684. 644. 881. 544. 1240. 686. 781. 1356. 968. 781. 832. 619.
      1068. 381. 1316. 758. 1219. 485. 1453. 732. 1702. 605. 980. 2098.
      637. 1567. 418. 768. 713. 1207. 1015. 1177. 715. 1024. 515. 351.
      407. 457. 717. 1099. 911. 977. 1266. 864. 961. 732. 1547. 842.
      1831. 535. 2170. 2225. 2126. 770. 1260. 2833. 1058. 4133. 1081.
      2002. 1312. 4999. 783. 1213. 1003. 1110. 849. 955. 952. 725. 569.
      739. 801. 695. 537. 533. 542. 369. 1150. 747. 1370. 761. 1100.
      494. 1022. 470. 825. 1905. 770. 1528. 459. 1322. 425. 1135. 497.
      509. 554. 534. 553. 456. 490. 478. 428. 493. 772. 698. 866. 1090.
      863. 1010. 1205. 583. 1373. 546. 2242. 1454. 1895. 790. 408. 1906.
      864. 3550. 843. 3770. 863. 4111. 398. 487. 844. 968. 882. 811.
      892. 864.</_>
    <_>
      828. 1184. 1212. 1031. 782. 819. 614. 586. 1744. 1148. 1361. 799.
      1268. 1036. 1038. 606. 744. 3612. 1203. 3134. 885. 2317. 913.
      1995. 1242. 1383. 1065. 1092. 1021. 1294. 537. 647. 314. 564. 674.
      553. 541. 506. 680. 411. 580. 666. 789. 439. 1068. 1314. 1287.
      585. 525. 1784. 1149. 1831. 974. 1486. 1068. 1270. 416. 882. 653.
      600. 964. 1222. 575. 538. 767. 1321. 1640. 1417. 1072. 848. 1015.
      1087. 1810. 1153. 1335. 1232. 1439. 815. 1404. 883. 1020. 6750.
      2901. 4100. 1193. 4397. 1304. 3079. 708. 1050. 1209. 1434. 842.
      1341. 1044. 974. 338. 488. 736. 623. 746. 1299. 797. 1381. 670.
      689. 1079. 702. 1208. 1019. 1719. 926. 491. 1808. 1253. 1941. 991.
      2143. 919. 1738. 475. 832. 1054. 943. 950. 1056. 1485. 636. 911.
      1712. 1384. 888. 644. 926. 869. 771. 930. 920. 697. 616. 998.
      1248. 1050. 1107. 916. 2139. 790. 1860. 786. 1143. 725. 1577. 923.
      957. 613. 1180. 732. 753. 404. 783. 910. 1496. 1190. 705. 1057.
      1319. 844. 564. 1632. 1240. 1820. 614. 2762. 3456. 2225. 1095.
      841. 4349. 1039. 4404. 1483. 2776. 1123. 4137. 555. 924. 611. 850.
      803. 1358. 537. 590. 876. 985. 1285. 608. 516. 470. 534. 541. 905.
      570. 665. 459. 980. 688. 742. 704. 1098. 2043. 1488. 1926. 784.
      1510. 910. 1598. 741. 506. 868. 867. 760. 557. 683. 802. 471. 922.
      1082. 708. 594. 1007. 662. 762. 880. 849. 1830. 638. 2613. 1365.
      2642. 985. 649. 2906. 1593. 4236. 970. 4196. 1123. 4409. 494. 766.
      1182. 942. 906. 1096. 1177. 848.</_>
    <_>
      655. 664. 824. 718. 910. 522. 574. 459. 2278. 861. 2936. 984.
      2156. 567. 1685. 616. 801. 4473. 933. 3687. 781. 2209. 804. 1832.
      1053. 1186. 1278. 938. 824. 604. 583. 490. 306. 403. 480. 476.
      873. 441. 656. 429. 790. 546. 741. 407. 1256. 649. 1470. 551. 515.
      1469. 816. 1694. 1063. 1417. 937. 1459. 565. 791. 653. 638. 897.
      784. 637. 517. 707. 1261. 780. 1271. 1170. 986. 1049. 1183. 1763.
      1251. 1590. 1566. 1839. 637. 1701. 868. 713. 6868. 2004. 4838.
      932. 4802. 1006. 2953. 709. 1022. 956. 1123. 654. 750. 677. 759.
      379. 708. 457. 794. 947. 1244. 1287. 1656. 925. 880. 782. 1015.
      1321. 918. 1626. 1247. 514. 2356. 1070. 2122. 873. 2089. 878.
      2494. 474. 927. 809. 950. 726. 753. 1400. 933. 901. 1346. 1026.
      848. 1045. 717. 820. 597. 1249. 820. 1061. 691. 1268. 756. 1420.
      754. 979. 2499. 908. 2545. 972. 1211. 633. 1476. 1075. 1009. 1086.
      1174. 697. 521. 460. 607. 604. 1210. 729. 882. 1410. 1193. 952.
      711. 1077. 1073. 1109. 811. 1968. 1662. 1948. 837. 1218. 4604.
      1098. 6071. 2085. 3213. 1434. 5737. 890. 1121. 1005. 1282. 1232.
      1131. 841. 702. 625. 1002. 652. 917. 606. 546. 428. 589. 885. 665.
      839. 643. 907. 511. 879. 600. 787. 2713. 1298. 2114. 608. 1607.
      678. 1553. 629. 582. 598. 854. 535. 550. 493. 675. 436. 830. 878.
      1254. 886. 1218. 938. 1185. 970. 726. 1037. 780. 1794. 1261. 1513.
      993. 606. 2910. 1317. 3897. 1155. 3988. 1016. 4534. 523. 718. 838.
      1297. 1031. 1113. 888. 938.</_>
    <_>
      42819. 588. 665. 718. 544. 288. 523. 357. 2671. 753. 2828. 731.
      2604. 549. 1878. 607. 449. 3330. 920. 2883. 510. 1203. 488. 889.
      822. 1029. 649. 747. 956. 695. 439. 380. 373. 446. 512. 382. 698.
      388. 707. 378. 1339. 650. 1410. 355. 2252. 533. 2272. 585. 518.
      1006. 640. 1086. 837. 757. 772. 692. 552. 835. 638. 491. 1066.
      604. 591. 409. 611. 776. 723. 828. 983. 589. 956. 685. 2970. 1620.
      1830. 1246. 2220. 500. 2523. 991. 740. 4060. 1465. 3373. 619.
      2396. 648. 1703. 610. 739. 551. 711. 645. 421. 480. 379. 283. 533.
      412. 553. 908. 1038. 1052. 1339. 1364. 1243. 1178. 805. 1741. 679.
      2592. 1087. 464. 1746. 713. 1364. 705. 1403. 833. 1443. 525. 960.
      753. 980. 442. 492. 590. 705. 695. 803. 747. 704. 730. 483. 1046.
      690. 1638. 897. 1577. 639. 1508. 641. 2000. 948. 938. 1656. 906.
      1562. 699. 748. 1512. 1420. 821. 874. 745. 875. 850. 615. 518.
      679. 736. 907. 732. 538. 1207. 987. 1032. 783. 1777. 933. 1955.
      582. 3450. 1566. 3418. 809. 1117. 2283. 999. 2972. 1614. 1900.
      2005. 4072. 787. 964. 1074. 920. 812. 656. 702. 601. 680. 672.
      527. 693. 704. 560. 379. 501. 1300. 725. 1310. 963. 1486. 417.
      1175. 658. 1024. 1191. 747. 1108. 739. 874. 428. 861. 594. 548.
      656. 601. 617. 419. 520. 681. 397. 536. 440. 510. 862. 1262. 792.
      966. 1041. 582. 1318. 670. 2694. 1117. 2673. 928. 556. 1466. 771.
      2221. 1033. 3386. 937. 2678. 398. 600. 1113. 995. 634. 839. 680.
      891.</_>
    <_>
      48377. 1067. 897. 810. 473. 629. 723. 418. 2083. 1083. 2335. 822.
      1935. 903. 1775. 710. 846. 3157. 1512. 2455. 582. 1316. 573. 1165.
      918. 1374. 797. 822. 946. 962. 427. 531. 434. 401. 539. 354. 542.
      469. 724. 372. 1187. 621. 1113. 348. 2155. 848. 2111. 677. 485.
      1114. 584. 1081. 768. 1043. 687. 917. 412. 807. 624. 407. 953.
      728. 697. 529. 834. 1247. 1174. 762. 1027. 803. 1067. 550. 2585.
      1271. 1615. 1159. 1935. 769. 1912. 1079. 944. 4730. 2283. 2896.
      956. 2502. 1224. 1847. 849. 960. 1018. 1041. 1102. 1036. 717. 762.
      350. 500. 490. 419. 791. 728. 1009. 901. 1157. 844. 1169. 631.
      1841. 912. 2105. 863. 508. 1690. 736. 1265. 696. 1540. 805. 1144.
      565. 813. 740. 856. 611. 690. 737. 722. 926. 1204. 935. 699. 569.
      555. 949. 585. 1411. 962. 1215. 595. 1561. 1087. 1746. 989. 748.
      1655. 968. 1737. 376. 733. 1896. 1849. 646. 584. 594. 645. 542.
      516. 369. 553. 445. 821. 790. 451. 873. 792. 704. 508. 1456. 746.
      1744. 412. 2588. 1885. 2555. 786. 698. 2744. 795. 3469. 1030.
      1815. 1200. 4118. 377. 505. 663. 410. 686. 572. 657. 589. 768.
      733. 727. 495. 488. 500. 482. 403. 1100. 744. 1105. 461. 1253.
      598. 1220. 549. 943. 1505. 872. 1190. 501. 890. 568. 1013. 567.
      555. 715. 608. 693. 552. 555. 566. 359. 473. 582. 398. 612. 784.
      685. 628. 978. 546. 1468. 560. 2470. 953. 2399. 863. 480. 1388.
      673. 2697. 854. 3421. 709. 3458. 399. 474. 856. 741. 559. 676.
      598. 619.</_>
    <_>
      7929. 419. 794. 606. 680. 418. 610. 393. 2551. 907. 2721. 759.
      2209. 515. 1824. 572. 466. 3497. 734. 3139. 465. 1189. 609. 1052.
      699. 994. 752. 598. 799. 526. 444. 405. 471. 442. 552. 405. 820.
      499. 758. 471. 1210. 770. 1470. 552. 2100. 765. 2283. 755. 533.
      1064. 707. 1105. 832. 802. 1047. 840. 615. 820. 752. 513. 1081.
      645. 805. 568. 674. 732. 876. 852. 988. 748. 922. 797. 3369. 1568.
      1898. 1145. 2724. 609. 2524. 901. 541. 4030. 909. 3128. 550. 2905.
      609. 2096. 701. 856. 769. 779. 635. 464. 572. 404. 382. 594. 424.
      656. 958. 1082. 1116. 1354. 1606. 1175. 1295. 944. 1797. 926.
      2399. 1314. 572. 1809. 739. 1650. 728. 1561. 997. 1365. 617. 915.
      780. 927. 616. 576. 959. 726. 781. 786. 847. 652. 968. 590. 884.
      632. 1673. 887. 1404. 751. 1802. 887. 2166. 1132. 828. 1662. 753.
      1527. 701. 824. 814. 1300. 1073. 877. 767. 877. 774. 565. 719.
      732. 858. 1090. 1010. 784. 1663. 1305. 1506. 1279. 2030. 1265.
      2202. 793. 3827. 2160. 4004. 1483. 1515. 2521. 1562. 3421. 2423.
      2453. 2304. 4188. 958. 1196. 1205. 1399. 1332. 1347. 1216. 1240.
      792. 699. 630. 867. 729. 665. 729. 583. 1437. 835. 1297. 775.
      1643. 628. 1423. 762. 890. 1569. 808. 1279. 811. 1311. 779. 1191.
      574. 508. 667. 671. 638. 413. 599. 732. 545. 770. 796. 846. 1076.
      1670. 1097. 1465. 1377. 821. 1854. 721. 3187. 1318. 3240. 1455.
      910. 1991. 1261. 2715. 1718. 3902. 1336. 3456. 561. 872. 1221.
      1286. 930. 1018. 1095. 1421.</_>
    <_>
      856. 1128. 1235. 1007. 703. 801. 990. 730. 3482. 1448. 3402. 1116.
      2111. 1087. 1921. 992. 688. 3559. 1115. 2820. 769. 1699. 1040.
      1628. 1218. 1396. 1176. 922. 1009. 1193. 871. 759. 400. 589. 763.
      467. 682. 610. 887. 408. 1150. 861. 1395. 526. 1377. 964. 1973.
      603. 548. 1724. 792. 1212. 751. 1096. 846. 892. 612. 973. 865.
      517. 847. 848. 697. 501. 1102. 1451. 1226. 981. 1462. 974. 1111.
      927. 4134. 1508. 2629. 1204. 2617. 934. 2076. 1174. 1139. 4943.
      1543. 3303. 1134. 3210. 890. 2138. 1057. 1333. 1058. 1224. 1249.
      1184. 892. 781. 418. 667. 623. 553. 1243. 1185. 1467. 1223. 1423.
      970. 1201. 723. 1698. 888. 1871. 945. 544. 1843. 746. 1307. 689.
      1732. 768. 1310. 663. 881. 765. 789. 830. 825. 883. 658. 820.
      1156. 984. 698. 635. 589. 945. 806. 1449. 957. 1365. 711. 1266.
      860. 1666. 973. 711. 1921. 805. 1909. 574. 908. 1008. 1507. 933.
      858. 874. 809. 651. 730. 650. 712. 752. 963. 1180. 541. 981. 795.
      1252. 777. 1789. 867. 2613. 591. 2823. 1234. 3175. 924. 726. 2616.
      826. 4571. 1213. 2351. 1912. 5548. 667. 825. 837. 776. 736. 726.
      910. 793. 944. 1032. 693. 528. 682. 625. 785. 644. 1434. 856.
      1091. 607. 1432. 743. 1278. 711. 1106. 1812. 839. 1449. 739. 1120.
      672. 1362. 891. 668. 735. 681. 846. 697. 767. 688. 505. 741. 567.
      444. 923. 980. 971. 936. 1408. 1061. 2093. 529. 3134. 915. 3333.
      912. 615. 2114. 635. 3212. 841. 3847. 805. 4800. 535. 709. 836.
      757. 736. 672. 793. 788.</_>
    <_>
      834. 934. 903. 799. 925. 609. 739. 587. 3651. 1483. 3310. 1084.
      2357. 816. 1657. 701. 857. 3849. 1072. 3224. 722. 1488. 900. 1253.
      1182. 1661. 1039. 995. 1242. 1010. 515. 630. 403. 510. 543. 442.
      777. 537. 655. 374. 888. 645. 1114. 443. 1229. 581. 1577. 474.
      467. 1442. 788. 1322. 905. 961. 813. 1010. 710. 915. 890. 708.
      938. 651. 673. 434. 1064. 1758. 1007. 1479. 1708. 932. 1410. 1100.
      3975. 2124. 2654. 1404. 2727. 850. 2309. 1017. 1293. 5295. 1312.
      4138. 995. 3269. 863. 2021. 1071. 1357. 980. 1345. 916. 648. 699.
      717. 415. 686. 450. 772. 1479. 1536. 1400. 2101. 880. 978. 822.
      876. 1458. 704. 1771. 953. 482. 2236. 559. 1966. 937. 1960. 811.
      1807. 589. 1068. 683. 1115. 627. 664. 715. 590. 853. 852. 878.
      619. 752. 542. 718. 715. 1705. 993. 1309. 771. 1153. 829. 1316.
      986. 739. 1966. 931. 2125. 754. 858. 897. 1539. 1238. 874. 1222.
      1100. 723. 703. 658. 836. 796. 933. 1047. 683. 1413. 1037. 1277.
      1085. 1625. 914. 2041. 781. 2777. 1190. 3397. 968. 1063. 2807.
      1260. 4118. 1766. 2413. 1670. 5059. 987. 943. 1217. 1142. 1026.
      987. 1113. 1039. 755. 702. 568. 580. 646. 593. 493. 757. 1361.
      700. 838. 596. 1121. 572. 818. 727. 919. 1706. 763. 1662. 717.
      1102. 500. 1197. 929. 568. 843. 924. 749. 442. 521. 787. 419. 631.
      616. 792. 1073. 1273. 1088. 1357. 1063. 768. 1370. 777. 2636.
      1043. 3077. 1189. 573. 2144. 724. 2833. 1125. 3621. 1022. 3722.
      486. 583. 970. 1145. 786. 754. 1093. 1189.</_>
    <_>
      941. 898. 896. 823. 878. 570. 875. 626. 3501. 1468. 3207. 1085.
      2263. 820. 1808. 704. 736. 3967. 1040. 3255. 772. 1540. 917. 1398.
      1186. 1677. 979. 989. 1144. 1051. 593. 684. 428. 470. 582. 453.
      743. 504. 672. 443. 877. 606. 1171. 544. 1142. 542. 1665. 524.
      550. 1526. 745. 1327. 872. 957. 919. 958. 761. 967. 891. 662. 932.
      654. 754. 391. 1086. 1736. 1033. 1388. 1630. 934. 1402. 1175.
      4085. 2071. 2581. 1324. 2638. 886. 2304. 1016. 1238. 5021. 1413.
      4041. 966. 3287. 824. 2013. 1003. 1275. 909. 1311. 883. 658. 757.
      686. 429. 669. 451. 752. 1511. 1656. 1421. 2104. 835. 1022. 838.
      883. 1433. 721. 1815. 963. 498. 2233. 614. 2034. 888. 2031. 815.
      1879. 632. 1123. 710. 1038. 599. 685. 702. 633. 842. 903. 877.
      626. 756. 567. 730. 689. 1619. 1017. 1318. 785. 1022. 707. 1203.
      1030. 785. 1981. 936. 2014. 758. 955. 947. 1614. 1337. 897. 1251.
      1138. 702. 714. 717. 889. 799. 945. 1036. 641. 1442. 992. 1250.
      1065. 1656. 939. 1884. 733. 2696. 1178. 3404. 929. 975. 2890.
      1203. 4094. 1726. 2513. 1725. 4738. 938. 935. 1258. 1061. 1028.
      916. 1096. 1011. 800. 809. 557. 546. 716. 599. 502. 699. 1374.
      768. 859. 623. 1061. 585. 820. 774. 991. 1773. 724. 1644. 674.
      1096. 456. 1226. 925. 609. 857. 950. 809. 496. 539. 870. 363. 644.
      650. 793. 992. 1290. 999. 1350. 1016. 824. 1367. 786. 2464. 982.
      3140. 1239. 600. 2172. 761. 2758. 1159. 3725. 989. 3586. 489. 628.
      996. 1171. 780. 819. 1008. 1193.</_>
    <_>
      619. 855. 878. 775. 786. 638. 851. 564. 2840. 1130. 2586. 1050.
      2292. 760. 1704. 666. 870. 4367. 887. 3569. 756. 1626. 904. 1536.
      1060. 1494. 1014. 943. 1157. 999. 652. 691. 372. 512. 607. 455.
      799. 453. 568. 400. 1140. 682. 1435. 489. 1297. 825. 1367. 551.
      509. 1523. 771. 1280. 878. 929. 721. 825. 693. 883. 932. 583. 761.
      649. 764. 408. 818. 1585. 1187. 1253. 1376. 955. 1260. 1132. 3976.
      1886. 2274. 1391. 2372. 925. 2080. 940. 1148. 6105. 1834. 4462.
      897. 3814. 1028. 2316. 835. 1315. 887. 1230. 892. 673. 685. 675.
      355. 619. 450. 600. 1331. 1325. 1257. 1870. 1061. 1127. 1022. 734.
      1470. 898. 1615. 1148. 513. 2203. 895. 1881. 788. 1826. 838. 1620.
      606. 942. 633. 850. 729. 698. 803. 600. 1008. 997. 908. 794. 900.
      557. 724. 598. 1520. 832. 1134. 835. 1405. 835. 1195. 875. 765.
      1703. 806. 1797. 826. 907. 753. 1485. 1393. 805. 1387. 1274. 752.
      596. 768. 748. 978. 1123. 1149. 798. 1362. 1148. 1268. 865. 1824.
      1056. 1970. 877. 2882. 1684. 3731. 1115. 946. 2953. 1019. 4540.
      1697. 2214. 1695. 4826. 979. 957. 1257. 1206. 1006. 1019. 1162.
      843. 666. 667. 618. 582. 767. 649. 486. 628. 1232. 615. 795. 859.
      1227. 726. 1028. 779. 796. 1789. 902. 1627. 668. 1256. 555. 1264.
      780. 686. 741. 873. 634. 493. 577. 733. 471. 642. 727. 749. 1068.
      1275. 1142. 1349. 1320. 742. 1638. 770. 2740. 1177. 2850. 1254.
      588. 1951. 947. 2691. 1205. 3472. 1110. 3826. 487. 604. 952. 1041.
      883. 838. 883. 986.</_>
    <_>
      612. 774. 828. 799. 711. 638. 797. 574. 2992. 1161. 2823. 1101.
      2211. 750. 1667. 722. 842. 4239. 932. 3462. 788. 1526. 864. 1473.
      1084. 1484. 1048. 955. 1068. 923. 651. 652. 347. 540. 656. 447.
      789. 499. 589. 379. 1008. 678. 1389. 541. 1340. 839. 1323. 604.
      578. 1470. 750. 1228. 907. 942. 717. 809. 672. 849. 991. 639. 788.
      626. 740. 395. 783. 1438. 1159. 1261. 1439. 903. 1306. 1240. 4066.
      1904. 2287. 1526. 2508. 868. 2068. 1017. 1116. 5964. 1722. 4438.
      1016. 3611. 1029. 2130. 836. 1314. 956. 1209. 931. 648. 691. 705.
      346. 638. 471. 619. 1328. 1374. 1314. 1874. 1117. 1040. 984. 816.
      1557. 860. 1659. 1214. 551. 2211. 830. 1881. 770. 1882. 798. 1771.
      552. 878. 672. 886. 741. 744. 800. 633. 1021. 1059. 884. 769. 905.
      618. 726. 577. 1521. 829. 1265. 825. 1371. 843. 1271. 863. 794.
      1733. 782. 1827. 877. 917. 793. 1551. 1416. 835. 1420. 1340. 734.
      553. 780. 784. 956. 1184. 1050. 804. 1345. 1097. 1267. 921. 1772.
      1071. 2062. 804. 2960. 1607. 3576. 934. 946. 3017. 1005. 4453.
      1616. 2210. 1676. 4885. 964. 977. 1227. 1250. 1038. 1070. 1093.
      868. 717. 660. 585. 613. 796. 667. 473. 639. 1165. 679. 778. 871.
      1163. 638. 1076. 842. 827. 1721. 941. 1561. 711. 1333. 553. 1287.
      745. 610. 755. 859. 679. 454. 490. 723. 439. 626. 658. 720. 1087.
      1379. 1132. 1390. 1269. 752. 1543. 787. 2634. 1131. 2815. 1316.
      609. 1924. 965. 2719. 1249. 3474. 1050. 3901. 469. 596. 975. 937.
      856. 908. 946. 1025.</_>
    <_>
      583. 912. 1025. 918. 761. 536. 943. 640. 3038. 1177. 3479. 932.
      2038. 906. 2062. 734. 615. 3815. 956. 2982. 650. 1894. 879. 1853.
      1004. 1130. 997. 948. 837. 729. 648. 607. 509. 726. 798. 464. 631.
      528. 688. 408. 1185. 832. 1551. 566. 1638. 897. 2213. 554. 475.
      1418. 904. 1314. 687. 1091. 860. 1020. 636. 833. 816. 604. 827.
      621. 846. 583. 778. 1331. 949. 1002. 1224. 914. 980. 891. 3661.
      1307. 2019. 1083. 2266. 796. 1956. 871. 903. 6045. 1214. 3344.
      966. 4171. 984. 2745. 900. 1463. 896. 1167. 942. 1106. 700. 765.
      378. 598. 535. 616. 1026. 994. 945. 1336. 1327. 1159. 1248. 942.
      1483. 622. 1996. 875. 494. 1537. 698. 1312. 803. 1730. 833. 1484.
      706. 879. 707. 737. 732. 658. 789. 727. 669. 962. 942. 632. 708.
      623. 870. 618. 1184. 793. 1022. 543. 1285. 837. 1957. 1032. 667.
      1473. 607. 1362. 640. 800. 761. 1279. 859. 773. 671. 951. 756.
      487. 723. 659. 1018. 1326. 1652. 679. 1398. 831. 1181. 689. 1862.
      1142. 2600. 713. 4310. 1497. 4457. 1110. 824. 3240. 973. 4066.
      1542. 2059. 1315. 4197. 878. 902. 960. 987. 1346. 729. 1092. 769.
      854. 810. 722. 615. 763. 618. 750. 682. 1436. 782. 1026. 672.
      1682. 750. 1544. 826. 889. 1871. 757. 1365. 637. 1378. 751. 1358.
      716. 773. 674. 715. 763. 635. 723. 646. 593. 753. 903. 604. 1008.
      1111. 1008. 1066. 1958. 1324. 2718. 761. 4117. 1397. 4412. 1200.
      538. 1989. 685. 2835. 936. 3657. 872. 4068. 574. 822. 1098. 895.
      877. 804. 970. 779.</_>
    <_>
      653. 857. 1000. 966. 764. 526. 952. 556. 3066. 998. 3339. 1031.
      2096. 751. 1810. 659. 540. 4394. 752. 3355. 502. 1983. 741. 2047.
      1109. 1090. 1057. 955. 962. 739. 672. 572. 512. 667. 831. 504.
      671. 473. 617. 374. 1121. 763. 1530. 511. 1786. 749. 2304. 514.
      382. 1547. 756. 1555. 667. 1054. 825. 955. 646. 827. 819. 541.
      727. 571. 766. 576. 845. 1365. 1083. 1006. 1264. 893. 947. 807.
      3483. 1291. 1969. 933. 2414. 889. 1962. 926. 764. 7172. 1002.
      3973. 763. 5068. 753. 3044. 852. 1402. 863. 953. 1074. 1232. 670.
      688. 386. 556. 490. 569. 1109. 950. 886. 1240. 1358. 1127. 1256.
      852. 1515. 604. 2038. 876. 478. 1599. 497. 1381. 719. 1812. 743.
      1567. 734. 807. 734. 707. 724. 714. 762. 655. 660. 841. 833. 687.
      735. 563. 824. 639. 1208. 731. 1057. 514. 1409. 736. 1908. 1044.
      584. 1752. 597. 1780. 563. 798. 755. 1293. 791. 728. 647. 944.
      756. 445. 758. 626. 1137. 1236. 1699. 782. 1355. 825. 1305. 751.
      2149. 992. 2761. 641. 4120. 1298. 4706. 984. 694. 3072. 917. 4232.
      1413. 1898. 1237. 4203. 793. 721. 1071. 974. 1226. 607. 1072. 718.
      771. 679. 711. 521. 730. 549. 751. 605. 1498. 804. 1011. 591.
      1693. 776. 1621. 710. 791. 1755. 652. 1369. 545. 1387. 643. 1490.
      794. 662. 697. 704. 805. 666. 809. 752. 638. 722. 839. 563. 1137.
      1084. 1132. 991. 2023. 1178. 2774. 770. 4396. 1207. 4472. 1196.
      434. 1958. 541. 2770. 784. 4018. 723. 4204. 611. 751. 989. 850.
      1010. 778. 1055. 835.</_>
    <_>
      11571. 1425. 980. 978. 1036. 610. 668. 452. 3954. 1360. 3655.
      1225. 2091. 828. 1621. 580. 1252. 5979. 1091. 4802. 874. 2048.
      576. 1912. 1763. 1761. 1501. 1497. 995. 950. 508. 579. 447. 503.
      473. 400. 532. 310. 604. 359. 1220. 619. 1155. 436. 1123. 497.
      1293. 407. 474. 1604. 531. 1808. 879. 1081. 743. 894. 602. 790.
      739. 539. 667. 503. 623. 417. 1238. 2014. 1161. 1733. 1929. 1247.
      991. 1408. 4446. 2189. 1953. 1839. 2751. 1063. 2166. 1005. 1477.
      8691. 1653. 6015. 1159. 4418. 1039. 2985. 1230. 1770. 1110. 1645.
      1024. 1088. 819. 829. 351. 539. 382. 669. 1403. 1345. 1338. 1729.
      1511. 871. 733. 668. 2001. 797. 1740. 843. 483. 1887. 414. 2017.
      693. 1951. 714. 1704. 622. 780. 464. 663. 768. 465. 725. 515. 656.
      735. 790. 523. 713. 418. 922. 562. 1371. 854. 1136. 830. 1136.
      485. 1867. 631. 998. 2402. 615. 2151. 706. 633. 988. 1684. 1439.
      1374. 1047. 1315. 685. 436. 561. 644. 448. 551. 547. 336. 743.
      503. 913. 568. 1425. 558. 1734. 437. 1597. 822. 2270. 530. 732.
      2567. 637. 4535. 1049. 2099. 1163. 4942. 697. 733. 753. 992. 657.
      437. 776. 539. 520. 653. 464. 524. 679. 590. 663. 581. 890. 560.
      604. 539. 1207. 466. 1173. 525. 726. 2082. 541. 1736. 619. 1141.
      416. 1279. 485. 521. 461. 643. 524. 390. 532. 580. 374. 526. 392.
      404. 896. 1009. 997. 984. 933. 461. 978. 438. 2282. 670. 2289.
      668. 319. 1836. 313. 3112. 565. 3599. 473. 4337. 373. 518. 511.
      741. 436. 346. 552. 693.</_>
    <_>
      11596. 581. 759. 563. 556. 405. 719. 459. 2717. 966. 3019. 812.
      1792. 622. 1941. 587. 424. 4282. 790. 3775. 539. 1600. 702. 1392.
      706. 991. 787. 690. 623. 646. 536. 499. 392. 457. 581. 388. 517.
      438. 806. 415. 1330. 646. 1642. 396. 1256. 792. 1627. 642. 496.
      1307. 679. 1461. 664. 923. 1116. 1160. 483. 666. 778. 487. 705.
      557. 897. 494. 648. 875. 669. 867. 968. 773. 747. 789. 3977. 1394.
      1585. 1032. 2129. 567. 1659. 743. 724. 5529. 1203. 3955. 626.
      3995. 714. 2340. 617. 757. 630. 655. 557. 584. 474. 556. 445. 519.
      432. 511. 923. 858. 930. 851. 1632. 1591. 876. 512. 1394. 878.
      1639. 939. 623. 1846. 728. 1749. 642. 1867. 754. 1739. 593. 890.
      594. 562. 533. 574. 763. 592. 729. 702. 666. 487. 707. 517. 799.
      615. 1325. 695. 1459. 554. 1258. 846. 1929. 927. 672. 1605. 787.
      1657. 484. 866. 718. 1220. 694. 829. 643. 761. 555. 502. 499. 535.
      791. 1032. 1080. 826. 1435. 1020. 1660. 1173. 1955. 1046. 2687.
      714. 3030. 1676. 4047. 1455. 1358. 3426. 1368. 5450. 1508. 3050.
      2045. 5887. 816. 1128. 1285. 1305. 1114. 884. 1609. 985. 641. 812.
      620. 675. 605. 800. 853. 636. 1136. 699. 904. 643. 1179. 614.
      1348. 710. 926. 1863. 768. 1495. 638. 2050. 703. 1554. 533. 582.
      541. 618. 626. 553. 598. 616. 601. 739. 656. 627. 1085. 1188.
      1105. 1355. 1415. 1142. 1570. 802. 2578. 1251. 3030. 1250. 753.
      2369. 1074. 3918. 1243. 4500. 1237. 5021. 597. 881. 1026. 889.
      856. 975. 1095. 1155.</_>
    <_>
      12528. 969. 952. 887. 1071. 656. 822. 564. 3688. 1170. 4009. 1138.
      1865. 731. 2049. 756. 831. 2787. 1182. 2609. 743. 1572. 826. 1290.
      1160. 1455. 1014. 995. 1144. 921. 728. 601. 576. 465. 675. 509.
      811. 529. 800. 521. 1755. 879. 1694. 549. 1321. 674. 1694. 671.
      502. 1201. 681. 1082. 1107. 965. 866. 790. 714. 961. 996. 586.
      995. 936. 685. 562. 956. 1256. 1131. 1241. 1453. 925. 1171. 1038.
      4142. 2008. 1964. 1399. 2440. 810. 2311. 1238. 1111. 4647. 1991.
      3541. 925. 2846. 927. 1978. 881. 1213. 870. 856. 901. 989. 827.
      721. 416. 623. 520. 701. 1574. 1281. 1357. 1656. 2080. 1087. 1009.
      813. 1885. 902. 1922. 963. 527. 1579. 681. 1575. 818. 1568. 802.
      1464. 683. 1089. 859. 916. 653. 737. 676. 720. 747. 1161. 897.
      874. 644. 634. 982. 883. 1615. 935. 1640. 763. 1139. 779. 2045.
      912. 1112. 1991. 973. 1838. 827. 741. 1880. 1619. 1352. 1211.
      1041. 1406. 869. 588. 648. 786. 604. 780. 721. 436. 827. 777.
      1221. 873. 1519. 799. 1776. 476. 1783. 1096. 2688. 773. 837. 2403.
      758. 3810. 1279. 2229. 1819. 5095. 668. 800. 909. 855. 683. 695.
      750. 767. 864. 770. 777. 531. 809. 809. 616. 670. 1308. 792. 865.
      654. 1359. 717. 1569. 723. 975. 1293. 806. 1429. 679. 927. 641.
      997. 725. 649. 854. 756. 687. 611. 627. 698. 471. 679. 453. 495.
      711. 1054. 853. 972. 1277. 751. 1305. 522. 2563. 808. 2660. 835.
      524. 1471. 512. 2619. 975. 4069. 846. 3733. 490. 685. 772. 891.
      630. 568. 617. 856.</_>
    <_>
      26146. 802. 900. 806. 884. 686. 868. 562. 3657. 1091. 3874. 1005.
      2012. 756. 2080. 773. 812. 2765. 1217. 2563. 749. 1428. 718. 1392.
      1215. 1356. 1227. 1216. 841. 877. 594. 605. 504. 608. 509. 464.
      688. 449. 705. 505. 1560. 794. 1421. 478. 1388. 572. 1675. 575.
      551. 1316. 714. 1282. 875. 1096. 766. 884. 742. 947. 939. 537.
      776. 732. 627. 596. 934. 1302. 870. 959. 1357. 1080. 1078. 1126.
      4209. 1803. 2234. 1277. 2473. 889. 2248. 1072. 927. 4477. 1987.
      3264. 978. 2648. 1026. 1891. 914. 1065. 819. 881. 848. 1100. 805.
      769. 435. 602. 440. 683. 1311. 1408. 916. 1596. 1245. 874. 879.
      615. 1669. 855. 1654. 723. 557. 1522. 600. 1511. 693. 1515. 816.
      1449. 601. 987. 663. 806. 536. 721. 892. 734. 572. 974. 883. 721.
      752. 537. 1085. 764. 1192. 725. 1156. 551. 1189. 548. 1631. 834.
      932. 1884. 847. 2015. 647. 770. 1633. 1856. 917. 1044. 657. 1071.
      698. 689. 523. 760. 453. 661. 697. 482. 639. 680. 943. 697. 1558.
      661. 2333. 385. 2257. 1371. 3322. 740. 704. 2508. 731. 4087. 1104.
      2277. 1587. 4636. 634. 793. 753. 708. 611. 570. 582. 576. 748.
      792. 635. 597. 655. 725. 697. 608. 1145. 693. 898. 503. 1314. 669.
      1427. 655. 1017. 1451. 733. 1247. 680. 1148. 558. 933. 632. 598.
      725. 574. 757. 541. 674. 749. 483. 680. 464. 450. 723. 997. 822.
      891. 1268. 713. 1455. 455. 2757. 830. 3013. 673. 503. 1552. 529.
      2938. 759. 3872. 772. 4092. 463. 662. 703. 886. 554. 601. 582.
      913.</_>
    <_>
      974. 1210. 1034. 1093. 1034. 800. 869. 785. 3080. 1496. 2984.
      1138. 1954. 1032. 1952. 835. 1157. 3765. 1302. 3101. 1139. 1876.
      981. 1754. 1360. 1811. 1147. 1280. 1123. 1089. 725. 911. 491. 544.
      557. 475. 681. 512. 824. 435. 1677. 862. 1413. 491. 1306. 868.
      1979. 635. 627. 1817. 989. 1600. 953. 1212. 902. 981. 651. 1112.
      941. 652. 924. 920. 801. 588. 1211. 1878. 1398. 1666. 1483. 1169.
      1125. 1320. 4221. 1945. 2052. 1353. 2517. 1124. 2133. 1090. 1566.
      5214. 1928. 3929. 1266. 3076. 1141. 2250. 1139. 1588. 1202. 1459.
      955. 1158. 1014. 1016. 445. 687. 505. 642. 1272. 1303. 1219. 1638.
      1752. 990. 1020. 658. 2063. 893. 1988. 849. 670. 2001. 770. 2089.
      805. 1907. 680. 1612. 751. 1100. 731. 978. 671. 804. 932. 616.
      799. 1078. 1035. 696. 694. 565. 1100. 873. 1657. 959. 1512. 730.
      1120. 745. 2202. 867. 980. 2192. 825. 2130. 668. 848. 1283. 2006.
      1293. 1202. 909. 1216. 765. 605. 645. 863. 553. 685. 804. 377.
      853. 693. 1230. 600. 1407. 877. 1843. 521. 1601. 1173. 2371. 671.
      623. 2627. 727. 4102. 1032. 2035. 1470. 4382. 618. 838. 723. 790.
      667. 560. 755. 566. 811. 987. 757. 562. 662. 680. 727. 636. 1255.
      870. 1072. 610. 1481. 675. 1693. 710. 1025. 2207. 797. 1643. 732.
      1270. 714. 1317. 742. 721. 746. 705. 741. 637. 704. 760. 469. 671.
      464. 389. 709. 912. 874. 764. 1316. 798. 1227. 485. 2122. 743.
      2135. 672. 474. 1953. 566. 2841. 683. 3924. 680. 3882. 556. 759.
      653. 780. 619. 610. 515. 632.</_>
    <_>
      444. 718. 875. 846. 509. 374. 815. 536. 2225. 1212. 2368. 831.
      1940. 723. 1385. 705. 544. 4529. 879. 4202. 669. 1657. 785. 1647.
      703. 1303. 634. 911. 917. 1143. 627. 756. 362. 532. 604. 438. 682.
      450. 834. 440. 1084. 852. 1664. 466. 1695. 736. 2029. 707. 562.
      1642. 980. 1392. 886. 988. 856. 1022. 587. 1080. 946. 636. 1062.
      781. 893. 420. 619. 1072. 974. 1020. 1022. 630. 1172. 906. 2572.
      1403. 1635. 1134. 1989. 595. 2043. 1033. 957. 6124. 1169. 4701.
      1060. 3797. 893. 2382. 632. 915. 711. 761. 790. 547. 569. 626.
      474. 656. 598. 669. 989. 1138. 1130. 1065. 1168. 1316. 1149. 911.
      1333. 821. 2077. 1193. 678. 1979. 913. 1685. 909. 1848. 784. 1359.
      628. 1165. 929. 952. 635. 663. 815. 680. 952. 1011. 852. 780. 795.
      561. 895. 898. 1310. 1018. 1211. 649. 1519. 931. 1731. 1194. 747.
      1407. 852. 1494. 713. 877. 927. 1414. 913. 726. 802. 780. 757.
      726. 649. 911. 921. 1206. 1055. 691. 1648. 1075. 1489. 899. 2073.
      1283. 2596. 814. 3576. 1673. 4265. 1363. 1094. 3018. 1343. 3564.
      1977. 2277. 1836. 3945. 902. 929. 1484. 1025. 1177. 946. 1361.
      883. 1005. 977. 664. 643. 763. 754. 608. 642. 1447. 921. 1121.
      679. 1239. 619. 1248. 890. 1283. 1581. 1114. 1351. 961. 1642. 701.
      1324. 869. 635. 858. 875. 792. 584. 780. 883. 647. 893. 709. 850.
      1094. 1503. 1057. 1286. 1470. 1112. 1729. 872. 2567. 1279. 2592.
      1384. 834. 2175. 1179. 3030. 1251. 3520. 983. 2992. 598. 905.
      1137. 1092. 899. 1013. 1048. 1175.</_>
    <_>
      864. 1150. 1077. 972. 889. 782. 821. 638. 3202. 1238. 3197. 858.
      1521. 816. 1456. 740. 811. 2756. 1131. 2695. 812. 2060. 918. 1672.
      1116. 1458. 959. 973. 937. 1100. 656. 705. 498. 657. 573. 539.
      715. 671. 955. 512. 1183. 880. 1168. 540. 1068. 866. 1470. 679.
      673. 1432. 1055. 1387. 969. 1100. 1097. 966. 724. 1032. 949. 640.
      803. 907. 914. 736. 955. 1221. 1118. 1142. 1397. 1175. 1077. 1277.
      3012. 2018. 1807. 1368. 1930. 864. 1414. 988. 1082. 4189. 1565.
      3158. 951. 3263. 1132. 2421. 988. 1289. 949. 1125. 895. 1046. 871.
      798. 497. 715. 613. 749. 1670. 1762. 1640. 2119. 1617. 1350. 846.
      876. 2233. 1067. 2086. 1125. 645. 1776. 1029. 1490. 936. 1700.
      918. 1379. 755. 1130. 886. 964. 749. 838. 987. 815. 770. 1139.
      916. 772. 732. 639. 1040. 886. 1908. 1133. 2068. 874. 1105. 870.
      2094. 1060. 1003. 1689. 901. 1820. 875. 898. 1117. 1631. 1636.
      1274. 1222. 1179. 748. 745. 732. 884. 753. 928. 863. 639. 1071.
      960. 1352. 813. 1297. 942. 1731. 614. 1602. 1411. 2884. 916. 835.
      3298. 1025. 3888. 1219. 2598. 1476. 4112. 826. 1136. 992. 1016.
      1094. 1034. 1064. 837. 849. 933. 839. 664. 832. 694. 837. 741.
      939. 993. 782. 805. 910. 811. 1228. 955. 1299. 1653. 1044. 1182.
      900. 1492. 737. 1477. 811. 729. 840. 784. 730. 662. 632. 834. 491.
      891. 690. 685. 933. 1170. 1159. 1223. 1006. 850. 1094. 671. 2081.
      988. 2230. 865. 729. 1940. 915. 2822. 966. 4137. 982. 3983. 605.
      843. 894. 933. 886. 928. 648. 973.</_>
    <_>
      796. 1144. 1102. 996. 865. 816. 857. 663. 3134. 1156. 3164. 850.
      1601. 756. 1584. 730. 882. 2673. 1133. 2560. 837. 2003. 1007.
      1739. 1065. 1390. 937. 899. 862. 1045. 725. 721. 421. 671. 619.
      570. 668. 619. 995. 505. 1156. 863. 1255. 548. 1058. 892. 1524.
      642. 655. 1546. 1139. 1330. 1004. 1104. 1052. 1125. 746. 1009.
      987. 724. 794. 897. 960. 697. 990. 1167. 1106. 1048. 1394. 1041.
      1015. 1291. 3039. 1896. 1749. 1309. 1935. 771. 1490. 1048. 979.
      4265. 1637. 3015. 894. 3320. 1063. 2405. 990. 1233. 1022. 1178.
      788. 1024. 762. 821. 493. 747. 568. 759. 1643. 1712. 1642. 2086.
      1678. 1370. 877. 830. 2247. 1188. 2121. 1031. 626. 1775. 968.
      1397. 948. 1706. 929. 1401. 799. 1200. 895. 980. 761. 812. 915.
      754. 777. 1148. 932. 749. 741. 655. 1047. 843. 1969. 1082. 2112.
      845. 1127. 870. 2172. 1117. 1044. 1760. 883. 1812. 907. 921. 1121.
      1647. 1682. 1291. 1324. 1325. 778. 791. 716. 884. 708. 1032. 839.
      633. 1078. 886. 1298. 841. 1205. 981. 1690. 618. 1621. 1316. 2818.
      940. 898. 3373. 1035. 4142. 1071. 2596. 1465. 4302. 834. 1098.
      919. 1057. 1004. 915. 1053. 802. 821. 941. 862. 660. 800. 771.
      760. 735. 992. 1136. 850. 819. 975. 772. 1152. 963. 1300. 1782.
      1008. 1289. 865. 1472. 786. 1506. 735. 818. 785. 784. 704. 698.
      645. 746. 494. 927. 696. 661. 971. 1129. 1184. 1249. 999. 963.
      1158. 661. 2001. 946. 2161. 815. 735. 2202. 823. 2779. 1023. 4152.
      992. 3821. 618. 919. 873. 977. 815. 908. 568. 898.</_>
    <_>
      875. 1131. 1099. 961. 939. 850. 855. 648. 3276. 1053. 3263. 888.
      1472. 795. 1667. 731. 861. 2635. 1138. 2505. 898. 2029. 1077.
      1715. 1068. 1393. 1023. 881. 876. 1094. 798. 755. 459. 680. 598.
      583. 717. 602. 1006. 546. 1227. 876. 1261. 574. 1057. 835. 1544.
      651. 680. 1492. 1085. 1382. 876. 1179. 1018. 1139. 738. 1030. 948.
      715. 817. 910. 837. 695. 934. 1236. 1230. 1130. 1306. 1056. 1031.
      1359. 3185. 1840. 1789. 1410. 2015. 750. 1507. 941. 1051. 4230.
      1565. 3000. 904. 3134. 1132. 2377. 929. 1296. 923. 1204. 781. 972.
      841. 919. 461. 763. 579. 711. 1725. 1714. 1646. 2084. 1686. 1289.
      769. 797. 2471. 1088. 2059. 1008. 685. 1636. 969. 1452. 909. 1607.
      909. 1429. 813. 1081. 763. 999. 802. 789. 970. 758. 792. 1196.
      811. 728. 773. 686. 1045. 833. 2035. 1050. 2371. 819. 1230. 960.
      2071. 1030. 1013. 1759. 823. 1737. 817. 984. 1028. 1564. 1613.
      1363. 1236. 1232. 718. 811. 662. 886. 728. 1001. 928. 604. 996.
      984. 1437. 862. 1251. 843. 1769. 591. 1610. 1326. 2791. 866. 845.
      3192. 1026. 4079. 1042. 2615. 1571. 4319. 851. 1078. 917. 1136.
      1046. 968. 1052. 837. 766. 1048. 848. 735. 866. 813. 710. 771.
      939. 1093. 779. 722. 862. 702. 1216. 794. 1253. 1777. 1117. 1371.
      833. 1626. 789. 1464. 763. 872. 760. 752. 721. 686. 614. 824. 511.
      855. 706. 683. 945. 1096. 1197. 1349. 1095. 868. 1179. 599. 2149.
      953. 2361. 854. 653. 2245. 843. 2644. 941. 4045. 1040. 3612. 591.
      874. 822. 1016. 799. 939. 664. 945.</_>
    <_>
      852. 1082. 1222. 997. 885. 760. 835. 660. 3239. 1179. 3390. 941.
      1518. 759. 1528. 679. 754. 2460. 1064. 2317. 876. 1939. 1036.
      1572. 1135. 1432. 1029. 920. 872. 977. 696. 683. 482. 653. 676.
      583. 655. 585. 833. 516. 1282. 818. 1410. 557. 1067. 866. 1620.
      703. 652. 1294. 1047. 1310. 923. 1169. 1042. 1085. 759. 1108.
      1019. 691. 854. 868. 800. 645. 966. 1295. 1169. 1023. 1371. 1142.
      936. 1248. 3297. 1771. 1752. 1127. 2118. 868. 1677. 994. 1048.
      4308. 1480. 3023. 930. 3084. 902. 2279. 987. 1329. 1015. 1164.
      845. 868. 770. 797. 479. 669. 569. 698. 1769. 1679. 1762. 2209.
      1639. 1449. 838. 812. 2170. 1116. 2148. 991. 631. 1547. 1034.
      1416. 989. 1553. 952. 1388. 780. 1118. 833. 907. 789. 822. 952.
      885. 936. 1195. 971. 791. 705. 680. 1038. 815. 2004. 1147. 2398.
      902. 1050. 869. 2410. 1220. 967. 1581. 938. 1561. 766. 909. 1064.
      1615. 1616. 1240. 1263. 1220. 784. 730. 770. 935. 651. 948. 1029.
      608. 1133. 890. 1508. 866. 1230. 1026. 1558. 569. 1592. 1432.
      2757. 1034. 717. 3416. 1184. 3884. 1279. 2898. 1709. 4040. 986.
      1127. 945. 1138. 948. 964. 1041. 857. 824. 984. 783. 628. 751.
      752. 738. 700. 1039. 959. 696. 645. 1110. 716. 1294. 798. 1193.
      1750. 1075. 1255. 808. 1353. 845. 1441. 815. 885. 787. 789. 716.
      666. 768. 722. 538. 931. 649. 694. 958. 1154. 1192. 1173. 1217.
      1049. 1318. 618. 2371. 1031. 2519. 1137. 697. 2006. 1051. 2598.
      940. 3728. 1008. 3511. 579. 947. 857. 923. 772. 910. 814. 935.</_>
    <_>
      732. 960. 799. 888. 816. 568. 854. 626. 2332. 1163. 2469. 902.
      1803. 811. 1698. 818. 810. 3916. 937. 3776. 740. 1831. 912. 1556.
      1046. 1413. 998. 979. 992. 966. 683. 639. 583. 669. 651. 563. 804.
      574. 744. 446. 1093. 867. 1100. 639. 1414. 888. 1545. 644. 592.
      1533. 937. 1505. 838. 993. 1102. 977. 747. 973. 1118. 797. 1054.
      840. 872. 591. 793. 1314. 925. 1032. 1284. 928. 1012. 1026. 2518.
      1266. 1432. 1187. 2067. 810. 2120. 1026. 906. 5740. 1277. 4032.
      1067. 4117. 805. 2956. 727. 963. 775. 1003. 858. 754. 689. 683.
      505. 744. 511. 734. 1206. 1230. 1270. 1553. 1113. 1134. 843. 959.
      1411. 1019. 1889. 1185. 680. 2164. 768. 1731. 966. 1695. 866.
      1469. 687. 1061. 866. 934. 874. 725. 882. 749. 967. 910. 1084.
      766. 863. 569. 936. 913. 1214. 913. 1393. 737. 1106. 1009. 1483.
      1190. 836. 1568. 867. 1790. 688. 846. 963. 1434. 1112. 842. 1022.
      1082. 784. 681. 752. 925. 893. 1040. 1119. 1061. 1621. 897. 1409.
      925. 1565. 1075. 2061. 963. 2826. 1192. 3226. 1166. 984. 3029.
      1029. 4000. 1524. 1967. 1577. 3853. 1015. 1049. 1322. 1212. 1302.
      824. 1177. 787. 855. 966. 620. 567. 730. 818. 721. 698. 1281. 830.
      919. 810. 1382. 708. 1032. 876. 1200. 2047. 732. 1334. 952. 1596.
      775. 1440. 803. 745. 828. 825. 962. 752. 679. 956. 575. 799. 883.
      773. 1240. 1354. 1365. 1406. 1246. 1092. 1595. 886. 2705. 1070.
      3008. 1279. 632. 1571. 750. 2651. 1236. 3135. 1093. 3034. 592.
      837. 1120. 1111. 976. 909. 1085. 1177.</_>
    <_>
      1190. 904. 840. 913. 642. 550. 992. 730. 2473. 1068. 2820. 785.
      1793. 742. 2034. 753. 637. 3803. 894. 3744. 638. 1772. 897. 1808.
      935. 1371. 914. 950. 940. 965. 740. 664. 677. 760. 719. 528. 690.
      481. 795. 490. 1238. 922. 1327. 492. 1387. 586. 1647. 601. 584.
      1691. 888. 1643. 789. 1059. 1059. 1130. 816. 1020. 1099. 788. 951.
      817. 842. 688. 767. 1301. 850. 1033. 1229. 1073. 1104. 999. 2784.
      1461. 1467. 1108. 2179. 703. 1840. 863. 858. 5255. 1058. 3676.
      918. 3971. 813. 2819. 961. 1075. 797. 975. 817. 808. 737. 713.
      504. 782. 442. 687. 1160. 1117. 1095. 1423. 1307. 1301. 847. 839.
      1463. 894. 1865. 913. 638. 2345. 656. 1715. 807. 1517. 797. 1399.
      771. 1337. 862. 905. 849. 672. 940. 734. 867. 987. 990. 658. 781.
      566. 1088. 871. 1380. 836. 1445. 741. 1057. 778. 1711. 1157. 766.
      1601. 817. 1707. 588. 791. 872. 1604. 1087. 812. 1055. 916. 797.
      622. 716. 893. 984. 1106. 1411. 872. 1575. 908. 1514. 957. 1422.
      952. 2045. 760. 2790. 1225. 3734. 948. 983. 3274. 927. 4422. 1313.
      2244. 1498. 3931. 1049. 1178. 1321. 1187. 1211. 775. 1133. 796.
      876. 981. 582. 707. 777. 951. 748. 726. 1392. 778. 923. 719. 1325.
      656. 1089. 788. 1037. 2187. 669. 1352. 888. 1769. 680. 1621. 903.
      782. 809. 850. 844. 781. 724. 937. 630. 752. 817. 851. 1286. 1363.
      1410. 1509. 1513. 1034. 1854. 743. 3234. 1071. 3347. 1083. 578.
      1994. 599. 2712. 1051. 2901. 862. 3076. 584. 873. 1022. 918. 937.
      874. 1004. 1165.</_>
    <_>
      694. 1103. 1219. 897. 778. 738. 810. 674. 3265. 1237. 3533. 1043.
      1506. 795. 1743. 832. 813. 2363. 1185. 2151. 841. 1723. 995. 1587.
      1021. 1392. 1127. 1018. 955. 980. 744. 760. 413. 594. 641. 475.
      769. 577. 864. 550. 1365. 795. 1454. 550. 1340. 818. 1750. 770.
      680. 1347. 1018. 1320. 993. 1222. 1085. 1049. 744. 1195. 927. 763.
      890. 780. 886. 677. 940. 1368. 1177. 1276. 1342. 984. 1171. 1263.
      2918. 1853. 1768. 1337. 1944. 951. 1842. 967. 1104. 4020. 1435.
      2949. 1123. 2812. 1035. 2068. 957. 1321. 999. 1116. 826. 971. 741.
      837. 523. 771. 570. 762. 1712. 1617. 1770. 2082. 1763. 1529. 864.
      940. 2019. 1175. 1960. 1118. 709. 1658. 1099. 1504. 995. 1440.
      1041. 1291. 675. 1162. 863. 1049. 729. 832. 934. 778. 834. 1177.
      844. 741. 798. 742. 1041. 890. 1892. 1145. 2089. 817. 1110. 949.
      2567. 1199. 1089. 1502. 934. 1238. 824. 1034. 1215. 1535. 1575.
      1180. 1180. 1196. 819. 836. 841. 879. 676. 972. 940. 572. 972.
      1064. 1313. 830. 1536. 1012. 1716. 687. 1546. 1585. 2679. 963.
      896. 3188. 1150. 3437. 1388. 2483. 1512. 3667. 1041. 1108. 1005.
      1089. 885. 975. 990. 839. 796. 1023. 709. 655. 710. 733. 651. 822.
      1247. 1158. 846. 715. 1222. 787. 1372. 831. 1318. 1655. 1106.
      1253. 858. 1504. 904. 1358. 845. 955. 846. 963. 749. 693. 647.
      778. 465. 816. 673. 666. 947. 1119. 1127. 1162. 1291. 1022. 1242.
      685. 2483. 1051. 2339. 998. 822. 1926. 1063. 2469. 1051. 3638.
      1104. 3030. 675. 935. 907. 1009. 698. 890. 713. 875.</_>
    <_>
      778. 934. 934. 802. 692. 571. 1098. 690. 2539. 1133. 2602. 998.
      1750. 1063. 2111. 963. 788. 2858. 1181. 2850. 965. 1703. 1201.
      1540. 947. 1216. 984. 888. 968. 1048. 772. 695. 599. 626. 668.
      496. 769. 512. 932. 563. 1101. 974. 1367. 684. 1361. 998. 1785.
      688. 748. 1413. 972. 1320. 1137. 1164. 1219. 1142. 843. 1059.
      1099. 743. 914. 857. 940. 611. 797. 1166. 1110. 1130. 1097. 1054.
      1229. 1100. 2508. 1485. 1603. 1540. 2050. 918. 1997. 1328. 1101.
      4178. 1521. 3156. 1040. 2741. 968. 2180. 750. 1084. 980. 1120.
      784. 759. 905. 734. 421. 842. 519. 812. 1078. 1103. 1111. 1577.
      1271. 1295. 1043. 1066. 1290. 848. 1673. 1006. 744. 2262. 856.
      1739. 1000. 1510. 975. 1374. 706. 1204. 948. 1123. 634. 693. 967.
      781. 904. 942. 831. 779. 727. 561. 973. 998. 1317. 1040. 1111.
      831. 1041. 1087. 1579. 1301. 862. 1465. 976. 1565. 1062. 1060.
      1146. 1734. 961. 817. 989. 892. 857. 747. 721. 941. 995. 975.
      1045. 613. 1540. 1136. 1396. 1052. 1498. 1180. 1890. 805. 2821.
      1537. 3256. 1251. 1110. 2954. 1115. 3060. 1893. 2411. 1709. 2819.
      937. 1026. 1054. 1071. 1051. 980. 1155. 860. 986. 1022. 762. 688.
      740. 849. 752. 771. 1401. 1325. 870. 853. 1297. 958. 1079. 926.
      1449. 1887. 997. 1563. 1091. 1627. 822. 1367. 849. 758. 757. 821.
      865. 727. 739. 823. 595. 968. 711. 871. 1004. 1194. 1160. 1143.
      1425. 1230. 1699. 951. 2896. 1213. 2715. 1178. 860. 2156. 878.
      2583. 1222. 2971. 1078. 2370. 582. 910. 984. 1092. 880. 964. 1059.
      1075.</_>
    <_>
      1521. 919. 843. 866. 667. 537. 1010. 734. 2497. 962. 2832. 869.
      1838. 723. 2025. 753. 650. 3838. 854. 3788. 637. 1767. 869. 1889.
      957. 1393. 975. 1020. 945. 987. 843. 675. 646. 697. 711. 562. 726.
      516. 820. 481. 1154. 881. 1281. 557. 1314. 581. 1604. 587. 522.
      1683. 898. 1602. 770. 1081. 1096. 1123. 813. 999. 1100. 818. 961.
      802. 865. 651. 802. 1274. 855. 933. 1244. 1054. 1125. 1068. 2714.
      1441. 1455. 1141. 2190. 642. 1809. 893. 815. 5191. 1024. 3710.
      885. 4032. 777. 2796. 934. 1099. 757. 922. 831. 752. 721. 718.
      511. 807. 487. 712. 1215. 1094. 1080. 1424. 1338. 1232. 737. 794.
      1609. 858. 1816. 939. 627. 2351. 659. 1764. 788. 1394. 789. 1522.
      847. 1359. 793. 883. 791. 649. 908. 687. 827. 966. 986. 661. 716.
      583. 1058. 867. 1341. 848. 1489. 705. 1085. 719. 1581. 1150. 747.
      1578. 767. 1809. 554. 846. 860. 1605. 1091. 788. 1026. 914. 724.
      647. 779. 903. 1009. 1082. 1351. 877. 1553. 858. 1527. 975. 1423.
      966. 2189. 752. 2946. 1226. 3739. 955. 909. 3303. 926. 4311. 1338.
      2257. 1505. 3865. 1103. 1126. 1301. 1139. 1124. 820. 1167. 766.
      897. 1064. 612. 700. 777. 977. 772. 759. 1390. 832. 859. 690.
      1306. 665. 1094. 768. 1090. 2312. 685. 1318. 907. 1818. 643. 1553.
      812. 746. 793. 771. 866. 807. 817. 870. 628. 752. 790. 865. 1354.
      1316. 1426. 1482. 1515. 1127. 1872. 837. 3234. 1117. 3356. 1084.
      566. 1991. 647. 2721. 1000. 2927. 830. 3060. 627. 846. 1027. 929.
      943. 885. 1045. 1170.</_>
    <_>
      948. 1388. 1262. 1005. 929. 844. 817. 691. 3762. 1320. 3797. 1009.
      1798. 752. 1582. 764. 725. 2718. 1072. 2430. 778. 1976. 890. 1503.
      1376. 1453. 1065. 945. 972. 1008. 714. 629. 383. 599. 573. 478.
      745. 600. 657. 450. 1316. 876. 1340. 446. 1091. 675. 1546. 501.
      594. 1327. 1051. 1377. 799. 1244. 920. 1105. 753. 968. 906. 764.
      858. 787. 657. 581. 1004. 1313. 1273. 1180. 1539. 1054. 1029.
      1279. 3673. 1841. 2076. 1406. 2543. 790. 2014. 907. 1108. 4068.
      1534. 3277. 1153. 3460. 993. 2275. 919. 1442. 1115. 1174. 932.
      1049. 747. 943. 455. 836. 496. 700. 1859. 1764. 1628. 2241. 1616.
      1230. 825. 760. 2278. 1024. 1970. 968. 543. 1481. 867. 1432. 871.
      1594. 962. 1624. 669. 1029. 736. 1036. 665. 730. 890. 765. 831.
      1108. 913. 694. 746. 605. 1035. 941. 2004. 919. 2321. 770. 1018.
      790. 2096. 989. 1095. 1643. 911. 1634. 684. 855. 1145. 1625. 1963.
      1262. 1408. 1499. 701. 695. 672. 805. 643. 1092. 869. 551. 927.
      991. 1470. 959. 1811. 839. 1908. 578. 1818. 1271. 3113. 884. 875.
      2904. 959. 3969. 1074. 2545. 1733. 4261. 921. 976. 1179. 1282.
      693. 853. 924. 908. 688. 778. 612. 611. 721. 790. 675. 877. 1030.
      727. 701. 605. 1051. 535. 1137. 769. 1099. 1640. 931. 1326. 727.
      1301. 701. 1408. 789. 771. 662. 871. 869. 664. 596. 763. 465. 813.
      612. 564. 995. 1284. 1209. 1170. 1221. 839. 1351. 501. 2636. 976.
      2848. 777. 527. 2012. 758. 2933. 1008. 3837. 996. 3488. 532. 780.
      673. 934. 943. 789. 817. 787.</_>
    <_>
      744. 1111. 1214. 904. 800. 770. 836. 675. 3306. 1223. 3532. 1017.
      1539. 816. 1783. 801. 771. 2395. 1207. 2216. 826. 1702. 1007.
      1547. 1095. 1288. 1045. 1024. 948. 1005. 672. 739. 494. 535. 634.
      495. 716. 581. 913. 534. 1406. 817. 1419. 558. 1322. 815. 1678.
      715. 665. 1419. 975. 1289. 1031. 1156. 1105. 1076. 733. 1175. 892.
      750. 826. 832. 887. 661. 938. 1405. 1161. 1311. 1356. 907. 1181.
      1264. 2930. 1880. 1824. 1342. 1966. 966. 1786. 967. 1099. 4039.
      1540. 2916. 1171. 2913. 1010. 1987. 1005. 1274. 1020. 1138. 848.
      1009. 754. 818. 494. 799. 568. 808. 1747. 1656. 1835. 2103. 1779.
      1421. 965. 921. 2132. 1174. 1893. 1063. 717. 1563. 1027. 1460.
      1006. 1471. 1029. 1259. 692. 1152. 903. 976. 705. 818. 951. 819.
      861. 1174. 794. 693. 720. 745. 1080. 873. 1980. 1177. 2239. 835.
      1114. 949. 2620. 1181. 1039. 1451. 958. 1226. 864. 983. 1198.
      1526. 1584. 1176. 1180. 1306. 812. 825. 782. 901. 696. 953. 902.
      549. 972. 1001. 1363. 847. 1521. 1006. 1746. 704. 1629. 1475.
      2678. 987. 819. 3234. 1186. 3388. 1364. 2503. 1530. 3575. 1022.
      1058. 980. 1138. 967. 949. 950. 850. 829. 982. 709. 637. 702. 691.
      637. 804. 1193. 1158. 798. 714. 1171. 809. 1268. 842. 1384. 1632.
      1099. 1321. 899. 1409. 932. 1390. 844. 945. 860. 924. 727. 709.
      653. 761. 521. 829. 698. 695. 935. 1129. 1180. 1145. 1289. 970.
      1271. 651. 2541. 1073. 2368. 958. 803. 1929. 1072. 2412. 1059.
      3618. 1106. 3143. 653. 928. 908. 1007. 658. 897. 716. 924.</_>
    <_>
      786. 1019. 901. 909. 644. 524. 1024. 653. 2769. 1102. 2680. 962.
      1753. 976. 2062. 987. 829. 2855. 1143. 2981. 877. 1644. 1202.
      1531. 904. 1233. 929. 883. 910. 1071. 725. 691. 549. 648. 670.
      475. 763. 526. 883. 527. 1164. 948. 1394. 696. 1402. 910. 1725.
      643. 770. 1425. 983. 1284. 1193. 1128. 1086. 1195. 829. 1038. 974.
      721. 927. 783. 927. 603. 773. 1176. 1006. 1162. 1076. 1037. 1273.
      1116. 2570. 1401. 1753. 1408. 2114. 867. 2177. 1280. 933. 4312.
      1450. 3178. 1012. 2819. 936. 2167. 773. 1125. 924. 1159. 829. 771.
      815. 705. 433. 855. 503. 806. 1134. 1129. 1149. 1551. 1250. 1183.
      1113. 1123. 1422. 836. 1775. 1081. 638. 2330. 830. 1862. 983.
      1558. 983. 1406. 649. 1184. 924. 1119. 669. 767. 991. 753. 888.
      931. 820. 740. 674. 514. 994. 1035. 1378. 1136. 1191. 834. 1047.
      963. 1588. 1272. 897. 1578. 1042. 1622. 1128. 1018. 1126. 1556.
      1013. 806. 978. 902. 810. 742. 688. 971. 1057. 972. 1031. 708.
      1469. 1096. 1410. 1007. 1608. 1160. 2121. 760. 2979. 1479. 3381.
      1318. 1102. 2855. 1156. 3052. 1847. 2525. 1696. 2850. 1000. 1126.
      1082. 1123. 1002. 984. 1107. 814. 1007. 1075. 680. 704. 811. 847.
      673. 737. 1344. 1259. 931. 828. 1265. 907. 1119. 860. 1376. 1803.
      985. 1588. 1050. 1602. 803. 1308. 886. 798. 798. 797. 875. 688.
      648. 804. 613. 870. 675. 801. 1064. 1186. 1163. 1165. 1393. 1133.
      1777. 951. 3060. 1146. 2778. 1249. 851. 2020. 815. 2542. 1258.
      3085. 1081. 2426. 554. 867. 1020. 1098. 907. 903. 1058. 1042.</_>
    <_>
      820. 951. 887. 892. 754. 540. 1052. 708. 2755. 1252. 2711. 966.
      1882. 997. 2071. 862. 848. 2961. 1070. 3126. 830. 1722. 995. 1750.
      881. 1365. 1001. 949. 900. 992. 695. 669. 543. 608. 668. 469. 758.
      546. 866. 472. 1036. 930. 1207. 698. 1243. 814. 1650. 675. 649.
      1486. 905. 1359. 1061. 1147. 1109. 1222. 855. 967. 922. 766. 898.
      816. 931. 641. 774. 1360. 972. 1096. 1111. 1102. 1151. 1154. 2853.
      1516. 1798. 1467. 2463. 864. 2028. 1257. 1056. 4888. 1231. 3469.
      1014. 3128. 898. 2133. 891. 1167. 985. 1137. 828. 642. 770. 848.
      532. 849. 503. 706. 1091. 1135. 1150. 1588. 1319. 1186. 1020.
      1105. 1431. 823. 1807. 993. 685. 2295. 753. 1827. 843. 1543. 854.
      1452. 675. 1155. 846. 984. 728. 679. 892. 709. 825. 890. 869. 726.
      746. 517. 1043. 836. 1362. 1031. 1270. 763. 1098. 983. 1552. 1075.
      849. 1598. 923. 1606. 883. 980. 888. 1512. 1037. 787. 1074. 968.
      713. 755. 688. 923. 969. 915. 1012. 588. 1504. 1014. 1478. 903.
      1662. 1029. 2148. 741. 3085. 1705. 3806. 1153. 1014. 3126. 977.
      3605. 1634. 2285. 1699. 3875. 1041. 1076. 1046. 1151. 1030. 922.
      1183. 856. 872. 993. 739. 754. 751. 834. 704. 712. 1215. 980. 878.
      783. 1261. 825. 1113. 810. 1246. 2053. 960. 1477. 959. 1561. 736.
      1277. 883. 759. 771. 793. 815. 651. 683. 796. 558. 738. 694. 927.
      1062. 1181. 1333. 1273. 1461. 1093. 1752. 941. 3043. 1077. 2931.
      1021. 748. 2095. 744. 2685. 1202. 3155. 981. 2797. 544. 830. 928.
      972. 956. 813. 1016. 1023.</_>
    <_>
      784. 1058. 1121. 1023. 804. 649. 689. 618. 4381. 1413. 4095. 1098.
      1869. 752. 1546. 690. 776. 3403. 999. 2876. 711. 1847. 659. 1657.
      1169. 1506. 1024. 982. 1116. 914. 613. 679. 446. 605. 743. 599.
      745. 541. 882. 608. 1430. 839. 1691. 500. 1136. 776. 1598. 549.
      554. 1320. 835. 1276. 778. 941. 813. 944. 825. 1121. 988. 655.
      940. 822. 834. 562. 980. 1145. 1145. 1196. 1635. 1161. 1293. 1257.
      4435. 1675. 1785. 999. 2707. 927. 1999. 895. 1117. 3873. 1219.
      2827. 993. 3580. 949. 2465. 1012. 1244. 999. 1144. 867. 926. 751.
      887. 476. 655. 650. 666. 1903. 1743. 1697. 1832. 1661. 1104. 786.
      714. 2737. 982. 2079. 1032. 507. 1634. 715. 1376. 895. 1624. 791.
      1355. 635. 1000. 828. 956. 700. 707. 863. 748. 855. 1002. 921.
      793. 694. 613. 962. 915. 2542. 883. 2395. 788. 1250. 730. 2071.
      1218. 823. 1561. 856. 1517. 599. 772. 974. 1724. 1324. 1081. 1133.
      1138. 914. 637. 799. 909. 793. 949. 988. 573. 1054. 958. 1542.
      810. 1707. 854. 2336. 600. 1435. 1110. 2417. 951. 761. 3418. 1017.
      4024. 1132. 2145. 1425. 4148. 982. 1065. 1289. 1133. 892. 714.
      1087. 789. 1012. 846. 697. 580. 717. 688. 732. 736. 1202. 720.
      772. 594. 1364. 531. 1275. 776. 1014. 1360. 725. 1139. 707. 1426.
      699. 1526. 1067. 822. 724. 741. 845. 636. 698. 938. 503. 743. 610.
      534. 982. 1374. 1263. 1076. 1108. 721. 1216. 567. 2434. 994. 2661.
      1091. 596. 1905. 793. 2751. 955. 4079. 963. 4129. 512. 788. 1100.
      1023. 738. 816. 879. 941.</_>
    <_>
      535. 740. 836. 876. 730. 490. 1015. 548. 2592. 1199. 2787. 1013.
      1844. 1071. 1767. 844. 767. 4049. 1082. 3888. 713. 1706. 935.
      1565. 826. 1392. 763. 870. 962. 1013. 589. 581. 448. 557. 698.
      478. 742. 555. 771. 485. 1342. 941. 1643. 648. 1332. 987. 1904.
      750. 702. 1405. 963. 1315. 988. 1015. 919. 976. 672. 939. 1020.
      603. 993. 844. 840. 610. 830. 1293. 1061. 1038. 1239. 771. 1053.
      917. 3070. 1688. 1416. 1361. 2454. 942. 1905. 1120. 1029. 5076.
      1257. 3680. 1036. 3570. 834. 2321. 775. 1063. 834. 938. 898. 662.
      841. 648. 379. 690. 470. 659. 1208. 1347. 1098. 1543. 1382. 1243.
      965. 1023. 1442. 867. 1752. 974. 705. 2118. 755. 1724. 996. 1708.
      946. 1378. 670. 1027. 870. 925. 673. 663. 879. 707. 823. 935. 946.
      671. 753. 598. 824. 896. 1365. 990. 1279. 818. 1256. 984. 1993.
      1235. 858. 1379. 877. 1468. 716. 843. 1037. 1528. 1000. 763. 998.
      891. 744. 659. 767. 843. 887. 912. 1110. 590. 1584. 1056. 1294.
      1025. 1763. 1157. 2502. 672. 2904. 1534. 3349. 1148. 1020. 3043.
      1121. 3894. 1706. 2244. 1644. 3971. 866. 896. 1129. 910. 973. 810.
      1059. 848. 1038. 883. 730. 551. 771. 858. 682. 606. 1390. 1127.
      841. 802. 1398. 921. 1468. 824. 1149. 1664. 907. 1363. 867. 1628.
      845. 1340. 852. 653. 761. 793. 885. 710. 714. 850. 567. 609. 747.
      674. 947. 1284. 1112. 1299. 1767. 1249. 1964. 805. 3067. 1098.
      3039. 1163. 745. 1905. 762. 2913. 1071. 3451. 1115. 3242. 598.
      720. 1058. 1077. 815. 858. 1009. 1162.</_>
    <_>
      584. 795. 966. 913. 692. 509. 1020. 640. 2557. 1370. 2557. 1028.
      1802. 917. 1904. 983. 833. 3801. 1165. 3737. 799. 1702. 1036.
      1523. 843. 1320. 833. 908. 1051. 980. 581. 625. 438. 611. 669.
      377. 701. 519. 755. 416. 1219. 964. 1613. 684. 1545. 899. 1786.
      742. 665. 1518. 1042. 1303. 944. 926. 880. 1044. 707. 929. 1125.
      637. 1027. 827. 765. 530. 921. 1322. 1037. 1270. 1270. 894. 969.
      1031. 3467. 1677. 1592. 1451. 2518. 929. 2219. 1173. 1102. 4867.
      1232. 3822. 973. 3300. 824. 2193. 877. 1199. 850. 1083. 831. 621.
      813. 688. 493. 752. 549. 559. 1221. 1362. 1171. 1416. 1266. 1094.
      1074. 887. 1501. 861. 1746. 927. 681. 2154. 756. 1717. 917. 1700.
      942. 1626. 621. 1089. 818. 999. 638. 672. 758. 585. 856. 894. 977.
      572. 719. 558. 1099. 924. 1280. 993. 1262. 711. 1255. 903. 1886.
      1146. 704. 1432. 845. 1453. 659. 875. 946. 1561. 1092. 673. 1008.
      816. 804. 648. 748. 839. 836. 857. 1033. 634. 1414. 1156. 1366.
      833. 1892. 1083. 2555. 759. 3170. 1485. 3588. 1097. 968. 3099.
      1038. 4040. 1407. 2272. 1688. 4393. 989. 1043. 1187. 893. 1049.
      765. 1135. 887. 922. 956. 653. 576. 769. 786. 553. 590. 1339. 989.
      864. 735. 1522. 920. 1463. 858. 1151. 1859. 795. 1429. 892. 1489.
      750. 1473. 873. 583. 757. 713. 819. 666. 656. 762. 500. 538. 745.
      713. 892. 1250. 1220. 1271. 1788. 1339. 1738. 803. 3112. 1104.
      3003. 1213. 709. 2002. 846. 2624. 1049. 3279. 1121. 3255. 574.
      639. 972. 981. 824. 786. 987. 1064.</_>
    <_>
      514. 749. 916. 980. 759. 505. 1029. 652. 2535. 1304. 2430. 989.
      1738. 941. 1918. 961. 785. 3805. 1029. 3765. 799. 1649. 950. 1678.
      867. 1354. 850. 869. 1024. 1014. 611. 618. 419. 612. 683. 437.
      755. 535. 723. 427. 1268. 984. 1546. 653. 1434. 876. 1775. 706.
      687. 1492. 1071. 1281. 920. 1021. 918. 945. 799. 879. 1026. 566.
      1034. 887. 761. 554. 919. 1303. 1115. 1242. 1189. 933. 928. 988.
      3390. 1660. 1506. 1362. 2444. 951. 2043. 1116. 1029. 5369. 1226.
      3989. 988. 3399. 821. 2214. 856. 1060. 913. 990. 815. 622. 911.
      673. 465. 654. 584. 596. 1246. 1350. 1154. 1451. 1383. 1222. 1039.
      846. 1587. 936. 1702. 990. 679. 2019. 840. 1607. 919. 1715. 928.
      1508. 695. 1077. 876. 966. 665. 703. 770. 641. 877. 939. 971. 612.
      732. 625. 1087. 904. 1383. 952. 1287. 766. 1196. 934. 1935. 1339.
      772. 1446. 859. 1554. 681. 880. 932. 1494. 1049. 706. 1064. 876.
      743. 700. 792. 834. 889. 823. 1105. 624. 1485. 1126. 1331. 877.
      1918. 1178. 2489. 718. 3155. 1546. 3650. 1174. 874. 3236. 1009.
      4113. 1348. 2237. 1605. 4243. 898. 941. 1142. 839. 1064. 839.
      1108. 836. 983. 977. 670. 583. 758. 805. 584. 540. 1390. 1043.
      879. 714. 1392. 934. 1455. 835. 1216. 1683. 889. 1399. 874. 1416.
      785. 1369. 813. 614. 740. 692. 875. 633. 632. 794. 484. 611. 775.
      674. 988. 1233. 1246. 1211. 1841. 1308. 1815. 807. 3110. 1077.
      3097. 1252. 632. 2015. 818. 2702. 978. 3185. 1109. 3140. 567. 620.
      1013. 929. 824. 786. 978. 1030.</_>
    <_>
      519. 919. 1032. 949. 641. 676. 742. 542. 3219. 1177. 3628. 1118.
      1962. 902. 1863. 878. 790. 2586. 1024. 2216. 721. 1621. 810. 1098.
      928. 1371. 827. 756. 1103. 968. 645. 662. 446. 656. 649. 544. 680.
      589. 991. 520. 1276. 925. 1453. 563. 1353. 841. 2301. 814. 658.
      1172. 1055. 1039. 1229. 973. 1080. 931. 721. 1188. 855. 667. 1287.
      1044. 902. 634. 831. 1063. 1252. 1123. 1480. 848. 1289. 1158.
      3606. 1788. 1882. 1301. 2128. 821. 1678. 1026. 1068. 3403. 1420.
      2954. 1041. 2828. 1091. 1943. 836. 1125. 908. 1004. 792. 799. 683.
      755. 430. 875. 671. 824. 1715. 1527. 1780. 1942. 1749. 1404. 1014.
      1158. 2377. 1154. 2439. 1392. 678. 1366. 1044. 1392. 1236. 1543.
      1071. 1357. 657. 1130. 1046. 1120. 716. 797. 924. 831. 909. 1085.
      844. 831. 607. 664. 908. 1031. 2176. 1267. 2215. 877. 1575. 939.
      2609. 1588. 995. 1485. 1023. 1552. 933. 890. 1213. 1470. 1278.
      1249. 821. 892. 1103. 936. 875. 1041. 923. 1030. 759. 597. 1130.
      1172. 1312. 886. 1687. 1081. 1708. 652. 1827. 1351. 3049. 1057.
      1098. 3110. 1152. 3082. 1677. 2341. 1639. 3258. 991. 1029. 1105.
      889. 964. 859. 1012. 772. 1103. 1096. 857. 737. 772. 661. 726.
      775. 1419. 1202. 755. 824. 1431. 643. 1276. 1123. 1724. 1241.
      1261. 1210. 1104. 952. 773. 1034. 1003. 811. 900. 948. 814. 609.
      667. 857. 437. 822. 584. 524. 821. 1366. 714. 1009. 1519. 907.
      1094. 800. 2220. 1082. 1828. 1139. 792. 1778. 975. 2632. 1165.
      3510. 883. 3071. 516. 905. 1152. 1320. 589. 782. 702. 962.</_>
    <_>
      643. 754. 971. 918. 657. 447. 940. 664. 2467. 1304. 2442. 930.
      1874. 749. 2142. 846. 709. 4253. 983. 4090. 715. 1778. 856. 2224.
      856. 1470. 831. 967. 1051. 1023. 622. 670. 564. 661. 741. 530.
      709. 578. 703. 477. 1596. 931. 1742. 590. 1447. 668. 1948. 553.
      642. 1743. 951. 1423. 872. 1038. 787. 1194. 819. 1126. 1025. 672.
      948. 774. 765. 577. 871. 1111. 900. 1063. 1141. 952. 951. 967.
      3030. 1515. 1436. 1153. 2793. 822. 2335. 943. 1017. 5463. 1109.
      4113. 946. 3753. 678. 2551. 833. 1009. 690. 956. 894. 620. 842.
      658. 471. 746. 550. 783. 1215. 1282. 1082. 1562. 1280. 1072. 950.
      760. 1847. 892. 1944. 882. 628. 2187. 701. 1822. 936. 1698. 866.
      1525. 600. 979. 731. 931. 675. 723. 865. 693. 927. 884. 879. 703.
      831. 659. 996. 937. 1433. 877. 1511. 775. 1418. 738. 1976. 1074.
      797. 1451. 869. 1523. 678. 891. 946. 1497. 1017. 833. 927. 871.
      780. 652. 836. 960. 849. 825. 919. 711. 1430. 915. 1304. 909.
      1970. 953. 2334. 701. 2835. 967. 3958. 926. 908. 3156. 1075. 3769.
      1330. 2107. 1614. 3592. 905. 1000. 1211. 982. 1070. 767. 1167.
      851. 881. 926. 527. 617. 664. 964. 552. 666. 1434. 690. 975. 602.
      1975. 775. 1666. 748. 1032. 1866. 773. 1461. 803. 1885. 745. 1475.
      864. 707. 800. 834. 856. 620. 709. 1018. 529. 683. 570. 728. 1003.
      1361. 1271. 1232. 2084. 905. 1643. 796. 3114. 1014. 3281. 1037.
      627. 2285. 719. 2611. 981. 3320. 1012. 2661. 521. 786. 933. 1054.
      743. 821. 907. 1069.</_>
    <_>
      774. 1170. 1157. 1069. 787. 611. 705. 607. 4216. 1288. 4221. 1026.
      1907. 643. 1617. 719. 716. 3287. 894. 2688. 663. 1739. 615. 1578.
      1230. 1531. 1020. 919. 1079. 854. 589. 662. 461. 574. 657. 528.
      725. 560. 809. 544. 1468. 831. 1542. 573. 1222. 717. 1546. 602.
      575. 1348. 916. 1275. 842. 1150. 770. 895. 724. 1057. 919. 739.
      926. 792. 807. 509. 899. 1182. 1034. 1180. 1738. 1117. 1294. 1223.
      3995. 1512. 1983. 1179. 2630. 891. 1842. 888. 821. 3931. 1104.
      3119. 969. 3530. 887. 2395. 1062. 1291. 867. 999. 931. 894. 717.
      845. 467. 599. 579. 646. 1754. 1706. 1615. 1912. 1740. 1117. 848.
      874. 2619. 1033. 2197. 1053. 467. 1513. 811. 1688. 1018. 1626.
      863. 1534. 697. 917. 868. 901. 667. 635. 907. 792. 918. 967. 858.
      754. 698. 601. 881. 910. 2270. 987. 2422. 844. 1262. 646. 1857.
      1165. 860. 1480. 835. 1695. 619. 818. 1035. 1628. 1364. 1136.
      1163. 1175. 819. 796. 770. 987. 841. 904. 923. 602. 1065. 1008.
      1429. 927. 1573. 1072. 2107. 576. 1616. 1307. 2685. 974. 823.
      3665. 1177. 4272. 1113. 2393. 1620. 4206. 969. 988. 1236. 1043.
      924. 809. 977. 808. 927. 899. 751. 550. 812. 645. 744. 757. 1146.
      849. 743. 636. 1377. 651. 1333. 846. 1092. 1431. 849. 1245. 836.
      1281. 715. 1380. 970. 745. 724. 818. 815. 670. 715. 822. 459. 626.
      577. 508. 985. 1217. 1224. 1202. 1191. 665. 1330. 626. 2242. 1009.
      2539. 1016. 694. 1873. 941. 2973. 1004. 3884. 1086. 4015. 540.
      741. 1026. 1043. 794. 871. 906. 971.</_>
    <_>
      731. 855. 936. 899. 910. 625. 834. 677. 3565. 1265. 4127. 924.
      2165. 806. 1946. 636. 701. 2811. 1007. 2506. 742. 1606. 808. 1570.
      1040. 1455. 1099. 814. 1145. 1013. 695. 791. 487. 694. 771. 550.
      711. 555. 930. 521. 1386. 957. 1691. 623. 1161. 705. 1512. 597.
      570. 1410. 980. 1432. 961. 1036. 863. 832. 829. 1090. 1066. 680.
      1055. 971. 848. 649. 1039. 1117. 1125. 984. 1793. 1061. 1270.
      1330. 3880. 1634. 1643. 1270. 2585. 804. 1924. 881. 809. 3415.
      1286. 2846. 992. 2808. 995. 2185. 1012. 1085. 908. 835. 858. 925.
      796. 815. 485. 766. 649. 740. 1704. 1602. 1910. 1892. 1777. 1343.
      957. 847. 2165. 1011. 2121. 1160. 563. 1637. 1000. 1459. 898.
      1562. 881. 1269. 748. 1156. 958. 935. 797. 799. 1025. 794. 880.
      1158. 903. 899. 666. 694. 970. 1055. 1747. 1101. 1989. 881. 1053.
      927. 1864. 1547. 798. 1413. 1062. 1609. 624. 769. 1184. 1550.
      1318. 1033. 1059. 1025. 887. 823. 776. 1086. 876. 1116. 1201. 670.
      1074. 1049. 1392. 989. 1489. 1047. 2372. 716. 1512. 1207. 2484.
      1069. 744. 3056. 1094. 3169. 1274. 2330. 1769. 3579. 840. 809.
      1305. 982. 877. 1020. 1038. 905. 1231. 998. 695. 670. 697. 688.
      800. 721. 1296. 1075. 815. 686. 1342. 687. 1158. 867. 1421. 1539.
      1184. 1207. 774. 1329. 911. 1280. 987. 744. 975. 789. 891. 635.
      766. 984. 493. 818. 594. 549. 981. 1239. 1131. 994. 1202. 1048.
      1271. 741. 2299. 1101. 2567. 1055. 741. 1714. 930. 2618. 868.
      3823. 1081. 3530. 587. 844. 1134. 1026. 745. 1027. 806. 1050.</_>
    <_>
      545. 784. 935. 907. 731. 506. 1088. 698. 2430. 1459. 2356. 1066.
      1880. 1036. 1824. 1048. 737. 3503. 1290. 3437. 881. 1637. 1404.
      1670. 861. 1512. 914. 893. 1187. 1052. 723. 712. 433. 666. 644.
      392. 707. 533. 887. 434. 1153. 1278. 1375. 712. 1297. 943. 1722.
      824. 728. 1525. 1144. 1299. 1227. 971. 1101. 944. 727. 1448. 1092.
      703. 1194. 886. 974. 535. 911. 1060. 1131. 1048. 1286. 929. 1286.
      1145. 2624. 1754. 1679. 1291. 2341. 910. 2359. 1239. 1089. 4649.
      1412. 3547. 1009. 3071. 956. 2228. 859. 985. 845. 888. 896. 584.
      869. 669. 439. 775. 567. 800. 1264. 1240. 1495. 1650. 1130. 1279.
      916. 1231. 1371. 896. 1679. 1130. 825. 2052. 1018. 1881. 1061.
      1453. 987. 1417. 622. 1143. 929. 977. 685. 731. 707. 631. 858.
      1039. 934. 758. 841. 573. 1115. 955. 1378. 1160. 1245. 841. 1101.
      1052. 1576. 1478. 869. 1418. 898. 1514. 1019. 926. 1105. 1572.
      1059. 762. 970. 855. 867. 712. 697. 980. 899. 921. 1063. 666.
      1269. 1099. 1093. 851. 1540. 1055. 2114. 816. 2561. 1344. 2891.
      1206. 1029. 2721. 1198. 3010. 1787. 1910. 1852. 2995. 836. 945.
      1272. 807. 1078. 792. 1039. 866. 1074. 1076. 646. 667. 768. 925.
      647. 815. 1315. 1270. 855. 901. 1222. 875. 1186. 1204. 1441. 1811.
      965. 1403. 1181. 1528. 919. 1258. 881. 790. 864. 916. 867. 681.
      717. 921. 468. 749. 709. 707. 954. 1459. 1144. 1093. 1313. 1165.
      1712. 1106. 2552. 1273. 2397. 1343. 793. 1967. 882. 2273. 1328.
      2998. 1210. 2425. 607. 947. 1150. 1064. 769. 883. 858. 927.</_>
    <_>
      538. 877. 854. 859. 712. 554. 1035. 727. 2838. 1409. 3125. 1058.
      1923. 1127. 2286. 954. 803. 3368. 1267. 3141. 844. 1599. 1227.
      1876. 768. 1310. 860. 833. 1103. 1035. 667. 709. 381. 579. 554.
      448. 697. 523. 871. 440. 1365. 1037. 1607. 553. 1261. 941. 1598.
      731. 678. 1547. 1125. 1218. 1062. 1066. 1118. 1074. 677. 1128.
      1050. 605. 1203. 904. 885. 620. 841. 1258. 1192. 1165. 1299. 971.
      1194. 1041. 2998. 1965. 1665. 1366. 2573. 905. 2158. 1069. 1276.
      4166. 1552. 3241. 1048. 2947. 1047. 2158. 820. 1130. 827. 1033.
      823. 753. 854. 665. 396. 778. 485. 703. 1181. 1430. 1334. 1717.
      1424. 1328. 962. 1157. 1474. 945. 1786. 1041. 880. 2055. 923.
      1754. 1009. 1488. 962. 1516. 574. 1148. 989. 950. 635. 656. 781.
      634. 840. 843. 835. 713. 643. 631. 995. 880. 1335. 1103. 1175.
      814. 1130. 992. 1775. 1398. 941. 1529. 1011. 1457. 967. 987. 1164.
      1578. 1217. 850. 1169. 813. 782. 671. 669. 843. 937. 976. 1103.
      664. 1218. 1065. 1166. 892. 1379. 1171. 2185. 764. 2498. 1528.
