<?xml version="1.0"?>
<opencv_storage>
<opencv_ml_svm>
  <format>3</format>
  <svmType>C_SVC</svmType>
  <kernel>
    <type>RBF</type>
    <gamma>1.5000000000000001e-04</gamma></kernel>
  <C>2.5000000000000000e+00</C>
  <term_criteria><epsilon>1.1920928955078125e-07</epsilon>
    <iterations>1000</iterations></term_criteria>
  <var_count>256</var_count>
  <class_count>2</class_count>
  <class_labels type_id="opencv-matrix">
    <rows>2</rows>
    <cols>1</cols>
    <dt>i</dt>
    <data>
      0 1</data></class_labels>
  <sv_total>2000</sv_total>
  <support_vectors>
    <_>
      1674. 862. 963. 758. 838. 629. 1070. 648. 3946. 953. 3508. 1276.
      1299. 722. 2026. 760. 939. 3975. 1565. 3261. 775. 1155. 1062. 783.
      1001. 616. 1210. 826. 1014. 597. 794. 428. 1042. 651. 776. 675.
      662. 595. 830. 469. 2059. 529. 1920. 728. 958. 670. 1902. 754.
      635. 2505. 785. 2628. 578. 1252. 854. 1004. 675. 529. 572. 764.
      604. 549. 1072. 768. 724. 1052. 778. 816. 850. 971. 752. 484.
      2622. 1274. 3426. 1969. 1179. 822. 1530. 702. 725. 4141. 805.
      1638. 643. 1514. 704. 856. 738. 847. 974. 731. 481. 772. 605. 389.
      715. 849. 894. 734. 559. 933. 640. 695. 1823. 982. 4175. 944.
      1166. 1102. 1671. 862. 707. 2688. 755. 3042. 637. 1988. 800. 1177.
      628. 948. 837. 944. 471. 755. 911. 673. 712. 857. 686. 527. 898.
      802. 983. 652. 1460. 723. 2215. 896. 3303. 857. 2979. 873. 593.
      1548. 669. 1194. 1005. 3436. 1137. 2300. 879. 618. 950. 794. 1503.
      1585. 1104. 954. 735. 571. 791. 541. 1062. 1007. 1126. 1194. 1141.
      648. 1527. 771. 2307. 1392. 3915. 1084. 846. 1178. 687. 1293.
      1606. 3851. 1428. 3363. 678. 853. 768. 624. 993. 1052. 1490. 910.
      691. 901. 516. 558. 793. 897. 743. 772. 1265. 799. 1510. 628.
      2939. 837. 3156. 869. 620. 1896. 619. 834. 823. 2603. 885. 2655.
      648. 721. 665. 511. 529. 1179. 706. 942. 737. 891. 758. 825. 995.
      1106. 1120. 1538. 1695. 1028. 1905. 615. 3378. 1334. 4751. 1180.
      943. 1794. 682. 1214. 1164. 3649. 1116. 3912. 787. 885. 705. 553.
      901. 1049. 1186. 824.</_>
    <_>
      5574. 1397. 1384. 1248. 944. 964. 1041. 765. 5322. 1183. 3913.
      1378. 2114. 818. 2020. 757. 1071. 4152. 1132. 3476. 795. 1614.
      829. 1033. 1425. 855. 1154. 1099. 1137. 765. 857. 587. 1192. 1127.
      1033. 1019. 664. 782. 694. 600. 2703. 937. 2655. 905. 1017. 712.
      1935. 521. 879. 3438. 837. 3197. 603. 1514. 653. 1591. 794. 985.
      646. 1049. 522. 587. 855. 949. 1073. 1235. 1267. 1144. 627. 753.
      916. 708. 3878. 1384. 4898. 1930. 1517. 666. 1929. 751. 1161.
      3065. 1295. 2628. 645. 1219. 770. 965. 1388. 1112. 1490. 1183.
      625. 602. 920. 738. 1019. 955. 1201. 1111. 588. 814. 612. 673.
      2223. 1207. 5822. 1288. 1105. 733. 1739. 627. 706. 2730. 832.
      3294. 558. 1921. 578. 1374. 853. 1150. 974. 1196. 476. 596. 1069.
      896. 610. 896. 857. 724. 659. 808. 698. 458. 1747. 607. 2352. 910.
      4016. 628. 2748. 623. 680. 1416. 611. 1301. 555. 2303. 432. 1120.
      793. 747. 798. 888. 1073. 1201. 804. 595. 674. 635. 712. 645. 481.
      564. 623. 446. 962. 616. 1435. 851. 1657. 952. 3212. 710. 745.
      1230. 621. 1634. 1127. 1908. 696. 2146. 550. 813. 710. 932. 831.
      720. 888. 564. 800. 733. 730. 537. 665. 811. 907. 678. 1625. 544.
      1599. 645. 3075. 549. 2637. 591. 528. 1118. 760. 915. 319. 1981.
      441. 1569. 538. 626. 917. 619. 396. 566. 672. 474. 668. 713. 840.
      950. 537. 513. 939. 781. 1440. 574. 1978. 787. 3144. 589. 4829.
      643. 664. 1645. 659. 1248. 643. 2100. 717. 2661. 710. 775. 836.
      580. 685. 610. 964. 465.</_>
    <_>
      5676. 1187. 975. 1113. 965. 1017. 1033. 680. 4177. 1130. 2880.
      1201. 1570. 1021. 1957. 823. 1337. 3774. 1256. 3389. 1108. 1961.
      1061. 1477. 1269. 1002. 1081. 979. 999. 749. 1031. 659. 1106.
      1016. 930. 971. 773. 895. 829. 734. 2094. 866. 1830. 897. 971.
      785. 1707. 731. 933. 3011. 767. 2787. 849. 1792. 888. 1422. 721.
      932. 562. 857. 622. 531. 902. 731. 948. 1072. 938. 1203. 675. 965.
      1122. 865. 3621. 1419. 3813. 1886. 1277. 1004. 1658. 904. 1147.
      3087. 1316. 2945. 620. 1884. 929. 1234. 1158. 1313. 1033. 1401.
      554. 724. 831. 704. 812. 1113. 1165. 1160. 579. 964. 627. 734.
      1763. 1151. 3801. 1064. 1007. 851. 1196. 742. 1085. 3002. 908.
      3287. 719. 2126. 650. 1204. 826. 1172. 799. 986. 448. 772. 854.
      661. 465. 662. 605. 744. 758. 937. 624. 556. 1315. 731. 1929. 910.
      2952. 721. 2481. 649. 829. 1344. 762. 1755. 1163. 2469. 793. 1614.
      786. 774. 661. 955. 958. 1246. 885. 730. 852. 661. 805. 833. 753.
      663. 739. 511. 1076. 757. 1450. 991. 1503. 954. 2628. 793. 1137.
      1685. 958. 1899. 1360. 2439. 998. 2192. 795. 934. 910. 895. 909.
      866. 1156. 659. 612. 580. 790. 812. 497. 743. 995. 857. 1126. 691.
      1394. 757. 2428. 657. 2310. 840. 649. 1189. 658. 1090. 529. 1976.
      636. 1620. 598. 715. 807. 792. 503. 792. 734. 665. 816. 783. 896.
      1014. 624. 740. 923. 897. 1481. 808. 1468. 809. 2414. 880. 3448.
      580. 1067. 2093. 853. 1844. 913. 3074. 783. 3077. 904. 842. 758.
      703. 713. 679. 854. 439.</_>
    <_>
      1059. 696. 797. 774. 1022. 818. 955. 601. 3659. 916. 2737. 1126.
      1439. 734. 1885. 695. 708. 2346. 1177. 1724. 1063. 1408. 959. 769.
      1173. 670. 850. 756. 1125. 792. 878. 530. 1282. 877. 796. 747.
      1051. 1006. 1068. 618. 2284. 706. 1918. 794. 1102. 908. 1854. 791.
      763. 2522. 642. 1597. 754. 1407. 603. 795. 742. 881. 603. 769.
      562. 812. 951. 552. 552. 733. 796. 842. 757. 945. 866. 845. 2927.
      1171. 3583. 2077. 1246. 927. 1756. 1313. 834. 2296. 1058. 1307.
      787. 1557. 861. 827. 779. 884. 1041. 1059. 605. 759. 783. 576.
      886. 824. 1082. 966. 698. 913. 902. 917. 1888. 1002. 3981. 1102.
      913. 823. 1446. 742. 851. 1822. 996. 2305. 594. 2019. 716. 1183.
      678. 924. 978. 1130. 503. 730. 881. 619. 659. 643. 609. 603. 1053.
      794. 865. 829. 1259. 707. 1359. 1000. 3067. 928. 2641. 1141. 675.
      1368. 926. 1268. 1429. 3941. 1446. 2345. 994. 727. 834. 781. 1590.
      1656. 1054. 1107. 899. 731. 775. 909. 1068. 1046. 1074. 949. 1181.
      981. 1305. 983. 1916. 1601. 4104. 1405. 1081. 1526. 744. 1464.
      2334. 3726. 1556. 2854. 824. 898. 707. 771. 1316. 1152. 1504. 920.
      761. 886. 663. 799. 780. 931. 1018. 1264. 1408. 1004. 1163. 1172.
      1995. 1107. 2949. 1225. 743. 1309. 762. 1033. 777. 2286. 1065.
      2461. 865. 826. 755. 761. 619. 1171. 782. 1104. 1037. 785. 972.
      1112. 832. 984. 1214. 1515. 1614. 1046. 1583. 780. 2559. 1228.
      4084. 981. 1259. 1527. 949. 1433. 1166. 2947. 1391. 3299. 932.
      878. 664. 652. 865. 1045. 1170. 690.</_>
    <_>
      29449. 954. 707. 631. 899. 721. 662. 625. 3923. 911. 3052. 990.
      1494. 686. 1463. 634. 617. 2889. 897. 1683. 912. 1284. 892. 757.
      987. 640. 766. 686. 993. 764. 652. 422. 823. 780. 606. 549. 742.
      1066. 717. 558. 1892. 469. 2104. 536. 819. 600. 1637. 669. 542.
      2188. 572. 1488. 578. 1306. 695. 791. 632. 904. 569. 642. 527.
      682. 881. 637. 471. 788. 697. 615. 1260. 780. 731. 619. 2537. 894.
      3766. 1777. 1600. 893. 1313. 868. 1101. 2771. 1185. 1087. 847.
      1132. 758. 786. 709. 599. 814. 702. 630. 576. 604. 501. 631. 667.
      1004. 676. 633. 684. 739. 615. 1609. 690. 4654. 904. 776. 821.
      1391. 567. 669. 1497. 781. 2246. 589. 1335. 591. 824. 622. 695.
      1209. 879. 464. 551. 951. 548. 538. 610. 539. 483. 979. 625. 614.
      531. 962. 533. 2235. 895. 3645. 866. 1997. 804. 543. 982. 646.
      903. 1214. 3415. 984. 2136. 757. 646. 719. 690. 1497. 1651. 790.
      912. 705. 635. 690. 603. 924. 876. 1000. 1158. 1106. 604. 1396.
      658. 1825. 1516. 3214. 1167. 718. 1010. 661. 940. 1977. 4889.
      1414. 3515. 626. 951. 786. 870. 961. 912. 1240. 897. 539. 647.
      480. 431. 660. 661. 807. 979. 983. 629. 1313. 748. 2534. 629.
      2810. 843. 669. 1386. 679. 704. 614. 2012. 741. 2662. 540. 711.
      706. 616. 661. 1142. 676. 1011. 668. 669. 857. 938. 632. 1026.
      1273. 1712. 1395. 769. 1755. 767. 2327. 853. 3713. 834. 884. 1367.
      900. 1441. 1140. 4022. 1333. 4148. 718. 661. 1477. 655. 741. 908.
      1068. 775.</_>
    <_>
      1237. 866. 796. 690. 857. 713. 919. 573. 4000. 920. 3366. 1010.
      1563. 701. 1924. 638. 834. 3218. 1032. 1998. 1051. 1583. 877. 816.
      1217. 680. 1083. 839. 1174. 796. 891. 552. 1101. 884. 911. 848.
      765. 779. 974. 616. 2334. 776. 2118. 813. 1078. 731. 2057. 686.
      735. 2451. 720. 1840. 724. 1594. 714. 902. 655. 717. 430. 736.
      546. 673. 927. 592. 606. 730. 776. 790. 838. 899. 871. 819. 3316.
      1169. 3911. 1880. 1457. 1000. 1603. 1036. 723. 2417. 991. 1651.
      770. 1369. 830. 1076. 921. 865. 1146. 1062. 647. 788. 743. 596.
      884. 887. 985. 894. 538. 973. 807. 747. 2053. 955. 4510. 1026.
      907. 718. 1544. 643. 894. 2191. 1038. 2724. 652. 1726. 569. 1324.
      709. 1000. 840. 1162. 370. 706. 967. 568. 790. 666. 657. 646. 831.
      801. 720. 758. 1157. 660. 1352. 898. 2922. 946. 2228. 924. 756.
      1285. 964. 1329. 1348. 4248. 1181. 2254. 945. 786. 776. 863. 1358.
      1604. 778. 985. 716. 779. 740. 950. 882. 1041. 1193. 1138. 1193.
      602. 1480. 807. 2003. 1015. 4135. 1184. 890. 1315. 714. 1215.
      2127. 4890. 1412. 3638. 835. 700. 540. 753. 1117. 1250. 1350.
      1090. 777. 807. 662. 637. 737. 1030. 914. 1266. 1381. 973. 1343.
      885. 2153. 952. 2704. 1020. 705. 1142. 605. 1304. 680. 2534. 932.
      2517. 783. 816. 604. 762. 615. 1082. 683. 1021. 938. 747. 904.
      890. 707. 951. 1375. 1392. 1609. 977. 1834. 788. 2621. 1077. 4190.
      903. 1046. 1506. 851. 1466. 1223. 3760. 1363. 3880. 812. 836. 691.
      537. 802. 1054. 1006. 680.</_>
    <_>
      1251. 942. 831. 608. 927. 766. 923. 519. 3967. 560. 3008. 752.
      1737. 626. 2105. 627. 742. 3145. 1068. 2267. 934. 1398. 886. 715.
      1051. 665. 970. 841. 1297. 872. 869. 546. 1014. 899. 746. 758.
      824. 957. 907. 662. 2038. 513. 1885. 650. 1092. 703. 1941. 885.
      558. 2300. 506. 2066. 750. 1167. 754. 991. 488. 622. 446. 705.
      486. 658. 1026. 729. 571. 724. 550. 600. 867. 978. 750. 657. 2750.
      814. 3190. 1094. 1597. 988. 1661. 942. 623. 2471. 701. 1387. 699.
      1425. 688. 914. 764. 796. 968. 917. 541. 789. 669. 660. 746. 842.
      831. 919. 590. 998. 713. 750. 1948. 847. 4173. 833. 915. 896.
      1613. 743. 783. 1770. 713. 2487. 570. 1881. 779. 1440. 743. 963.
      877. 1101. 447. 831. 890. 687. 918. 742. 728. 716. 1193. 968. 820.
      794. 1305. 837. 1742. 819. 3023. 923. 2473. 783. 720. 1217. 867.
      1217. 1282. 4598. 1173. 2586. 917. 776. 1019. 917. 1266. 1604.
      1009. 1152. 658. 813. 759. 1004. 1052. 1132. 1127. 1125. 947. 749.
      1280. 774. 2147. 1160. 4003. 1157. 798. 1232. 770. 1297. 2104.
      4671. 1544. 3534. 729. 766. 634. 726. 1361. 1371. 1518. 1085. 919.
      785. 657. 748. 754. 981. 951. 1183. 1474. 945. 1349. 825. 2460.
      985. 3009. 1125. 759. 1636. 683. 966. 726. 2859. 912. 2551. 788.
      965. 589. 735. 604. 1140. 635. 960. 813. 891. 1052. 1097. 1009.
      1195. 1263. 1518. 1673. 933. 2039. 801. 3033. 1262. 4759. 974.
      1094. 1432. 998. 1306. 1446. 3684. 1506. 3922. 936. 917. 719. 721.
      948. 1182. 1198. 885.</_>
    <_>
      16562. 1421. 718. 715. 693. 1051. 609. 588. 3968. 882. 3535. 855.
      1556. 586. 1690. 543. 962. 3385. 983. 1852. 738. 2332. 963. 1262.
      994. 1078. 1128. 814. 849. 717. 807. 402. 926. 1150. 660. 738.
      531. 1049. 382. 468. 2134. 764. 2835. 898. 828. 622. 2021. 579.
      848. 2744. 832. 2050. 582. 1722. 665. 1346. 755. 1663. 928. 1027.
      302. 557. 1074. 1247. 968. 1694. 1141. 1160. 642. 618. 566. 489.
      2738. 1124. 4436. 1866. 1409. 602. 1425. 495. 1932. 3242. 2369.
      1743. 551. 1716. 715. 1180. 799. 1001. 1069. 1153. 449. 516. 593.
      559. 595. 818. 1311. 1182. 550. 724. 365. 381. 1930. 967. 5309.
      1785. 1123. 1007. 2116. 596. 631. 2742. 977. 2701. 446. 1814. 530.
      1051. 559. 954. 855. 1257. 352. 610. 1229. 857. 1037. 1068. 598.
      468. 1209. 841. 616. 413. 2197. 576. 2432. 651. 5197. 901. 3456.
      559. 543. 1188. 569. 1271. 1090. 2451. 646. 1627. 432. 482. 823.
      737. 781. 795. 807. 486. 335. 536. 359. 444. 486. 675. 485. 405.
      711. 679. 1219. 606. 2351. 1269. 5862. 1042. 784. 1637. 744. 1670.
      1529. 1986. 985. 1992. 501. 599. 779. 1655. 470. 601. 915. 598.
      975. 808. 457. 389. 791. 697. 817. 445. 1359. 524. 1256. 386.
      4298. 676. 3361. 520. 667. 1461. 590. 832. 466. 1544. 384. 1553.
      426. 526. 745. 657. 463. 443. 663. 583. 346. 432. 572. 730. 379.
      547. 720. 510. 1001. 714. 1540. 546. 3772. 853. 6555. 654. 704.
      2069. 507. 1825. 635. 2160. 726. 2530. 543. 837. 591. 684. 422.
      506. 1020. 503.</_>
    <_>
      47613. 1295. 779. 664. 675. 820. 610. 586. 3523. 883. 2944. 1017.
      1434. 643. 1440. 550. 783. 2461. 1002. 1760. 606. 2096. 949. 1359.
      909. 863. 1015. 673. 786. 508. 694. 564. 707. 1046. 588. 638. 582.
      1118. 488. 544. 1629. 639. 2357. 746. 836. 596. 1777. 614. 664.
      2027. 836. 1682. 509. 1631. 589. 1241. 588. 1625. 1009. 877. 327.
      470. 815. 772. 793. 1157. 847. 873. 646. 646. 700. 497. 2232.
      1084. 3607. 1645. 898. 739. 1379. 610. 1795. 2401. 2032. 1251.
      607. 1492. 697. 989. 667. 861. 956. 870. 406. 490. 596. 566. 551.
      694. 1283. 787. 650. 819. 506. 408. 1572. 805. 3941. 1463. 1016.
      1146. 1623. 672. 530. 2338. 926. 1960. 539. 1812. 520. 1029. 534.
      749. 909. 980. 290. 526. 932. 525. 629. 984. 523. 341. 941. 689.
      550. 328. 1712. 535. 2215. 708. 4779. 649. 3012. 587. 362. 1274.
      604. 1085. 781. 2421. 510. 1440. 556. 482. 772. 617. 711. 577.
      585. 364. 387. 477. 410. 390. 580. 574. 449. 567. 702. 555. 1216.
      565. 1856. 1413. 4615. 1161. 643. 1740. 622. 1646. 1518. 1970.
      797. 2007. 552. 721. 818. 1308. 626. 517. 765. 523. 825. 820. 469.
      417. 733. 482. 850. 513. 1059. 483. 1141. 395. 3511. 520. 3451.
      474. 556. 1697. 598. 844. 462. 1425. 466. 1515. 364. 560. 776.
      578. 455. 505. 698. 485. 332. 435. 531. 468. 462. 517. 601. 498.
      988. 605. 1457. 518. 2987. 738. 5343. 497. 493. 2368. 502. 1681.
      545. 2213. 556. 2510. 471. 890. 572. 700. 468. 495. 797. 687.</_>
    <_>
      50419. 739. 486. 388. 473. 487. 558. 479. 5166. 703. 3346. 617.
      1499. 416. 1344. 528. 371. 2375. 619. 1690. 615. 1991. 822. 1370.
      1107. 706. 715. 483. 855. 545. 559. 427. 683. 702. 787. 484. 607.
      844. 739. 582. 3512. 416. 3007. 527. 897. 562. 1327. 577. 342.
      1807. 475. 1089. 424. 1508. 619. 1004. 543. 1579. 650. 350. 426.
      541. 757. 628. 320. 681. 678. 600. 728. 696. 633. 513. 2696. 949.
      4351. 2151. 1419. 589. 1234. 668. 1462. 3158. 1694. 992. 610.
      1396. 616. 967. 707. 672. 800. 619. 444. 670. 551. 548. 414. 480.
      1438. 863. 544. 601. 653. 663. 2183. 536. 5794. 1163. 997. 1082.
      1421. 580. 471. 2200. 612. 1722. 459. 1884. 531. 1063. 347. 528.
      707. 541. 303. 337. 678. 370. 584. 565. 473. 285. 1006. 726. 611.
      528. 991. 504. 2016. 609. 3779. 841. 2070. 546. 400. 981. 642.
      1070. 1196. 2560. 694. 2048. 627. 433. 789. 580. 1121. 1132. 734.
      656. 436. 479. 576. 505. 900. 857. 883. 1031. 771. 508. 1320. 512.
      1673. 1497. 3064. 946. 672. 1281. 482. 1360. 1384. 2248. 890.
      2441. 579. 656. 822. 595. 779. 966. 959. 734. 526. 608. 390. 396.
      715. 709. 712. 946. 1009. 624. 1150. 596. 2493. 677. 2253. 896.
      456. 1757. 481. 880. 542. 1606. 701. 1707. 526. 661. 685. 651.
      649. 777. 710. 950. 337. 629. 622. 675. 621. 796. 1172. 1143. 898.
      611. 1448. 513. 2311. 823. 3897. 618. 559. 2645. 521. 1539. 742.
      2239. 856. 3221. 601. 764. 1011. 710. 565. 600. 914. 687.</_>
    <_>
      991. 770. 923. 845. 684. 841. 776. 546. 3412. 901. 3832. 1202.
      1596. 773. 2000. 487. 1193. 3303. 1289. 2621. 746. 1401. 795. 929.
      946. 849. 1213. 955. 877. 578. 722. 307. 914. 1018. 761. 760. 793.
      933. 832. 544. 2659. 796. 2776. 834. 1523. 885. 2548. 658. 581.
      1984. 487. 1761. 621. 1577. 524. 841. 552. 915. 497. 706. 612.
      700. 1012. 704. 857. 880. 958. 779. 724. 1079. 995. 757. 2721.
      1487. 4024. 1991. 1422. 1013. 1819. 1043. 1233. 3541. 1494. 2574.
      786. 1389. 1126. 929. 821. 1259. 1091. 942. 462. 565. 519. 397.
      746. 671. 897. 623. 543. 740. 684. 637. 2444. 1133. 4744. 1049.
      1711. 971. 2120. 638. 965. 1817. 877. 2017. 639. 1432. 891. 1333.
      604. 1230. 721. 865. 403. 586. 741. 511. 581. 604. 562. 648. 875.
      896. 772. 577. 1585. 576. 2086. 996. 3462. 945. 3400. 872. 575.
      1502. 690. 1212. 1063. 2408. 936. 1754. 958. 571. 847. 618. 1626.
      1210. 1021. 782. 822. 723. 745. 807. 1260. 1095. 1322. 1025. 1297.
      859. 1738. 1231. 3156. 1403. 4227. 1439. 646. 1212. 570. 1052.
      1396. 2988. 1177. 3110. 737. 828. 543. 666. 1351. 1105. 1339. 934.
      774. 659. 601. 662. 640. 955. 1120. 1000. 1520. 781. 1507. 1125.
      2923. 1030. 3173. 1486. 813. 1308. 918. 820. 695. 1784. 960. 1999.
      698. 784. 752. 581. 783. 837. 1031. 978. 937. 665. 918. 854. 702.
      788. 1103. 1020. 1649. 985. 2000. 881. 3434. 1072. 3916. 1156.
      1337. 1350. 760. 1160. 1012. 2724. 1231. 3217. 853. 956. 650. 516.
      682. 675. 1278. 738.</_>
    <_>
      10346. 828. 681. 495. 1025. 713. 726. 498. 3612. 1053. 3076. 1023.
      1732. 641. 2096. 467. 728. 3035. 595. 1544. 918. 1887. 808. 1194.
      916. 779. 1044. 610. 878. 491. 868. 475. 1051. 1037. 637. 809.
      850. 1203. 732. 574. 2222. 784. 2753. 824. 1194. 795. 2240. 616.
      564. 2421. 465. 1705. 566. 2000. 682. 1356. 558. 1003. 666. 609.
      525. 693. 983. 758. 793. 778. 805. 572. 964. 1006. 931. 783. 2641.
      1099. 3322. 1541. 1758. 1155. 1824. 980. 958. 2709. 1160. 1489.
      723. 1624. 755. 1379. 891. 876. 1081. 859. 557. 570. 613. 697.
      635. 615. 1001. 724. 476. 769. 709. 687. 1990. 832. 5304. 954.
      1065. 878. 1753. 563. 632. 2048. 713. 2541. 518. 2095. 787. 1622.
      657. 742. 1065. 955. 389. 610. 766. 534. 670. 612. 611. 829. 802.
      802. 744. 639. 1249. 586. 1841. 991. 3761. 1033. 2580. 695. 581.
      1630. 607. 1557. 1107. 3140. 574. 2014. 686. 563. 753. 726. 1139.
      1148. 802. 749. 791. 747. 683. 942. 966. 949. 1032. 899. 870. 680.
      1369. 929. 2128. 1457. 3446. 1002. 907. 1623. 581. 1663. 1645.
      4405. 1189. 3739. 723. 844. 867. 943. 1109. 1059. 1216. 932. 725.
      709. 642. 739. 678. 1085. 1351. 1222. 1379. 793. 1354. 773. 2329.
      886. 2720. 1101. 647. 1542. 768. 907. 594. 2056. 813. 1967. 807.
      932. 746. 662. 706. 700. 902. 1003. 893. 558. 905. 762. 663. 729.
      1215. 939. 1506. 844. 1888. 649. 2558. 1067. 3011. 794. 1137.
      1882. 936. 1491. 822. 3259. 1188. 4011. 941. 857. 1248. 899. 748.
      759. 1194. 874.</_>
    <_>
      7033. 839. 768. 527. 938. 698. 746. 572. 3845. 992. 3301. 1016.
      1718. 695. 2129. 517. 771. 2958. 730. 1559. 965. 1964. 814. 1172.
      866. 704. 996. 569. 882. 571. 830. 444. 1099. 1058. 644. 752. 852.
      1084. 787. 633. 2268. 804. 2720. 899. 1251. 796. 2215. 619. 489.
      2374. 507. 1742. 666. 1968. 714. 1377. 580. 1013. 686. 590. 561.
      725. 979. 801. 798. 759. 807. 609. 949. 1046. 857. 852. 2749.
      1118. 3479. 1752. 1747. 1106. 1747. 948. 938. 2709. 1090. 1485.
      734. 1596. 807. 1378. 884. 876. 1190. 811. 503. 567. 603. 725.
      656. 655. 1088. 661. 544. 770. 722. 753. 2031. 934. 5250. 985.
      1075. 878. 1767. 555. 645. 2045. 748. 2567. 510. 1989. 830. 1686.
      632. 789. 1092. 952. 375. 603. 821. 558. 624. 584. 639. 804. 904.
      801. 728. 616. 1347. 607. 1741. 975. 3822. 1035. 2514. 675. 552.
      1645. 606. 1594. 1154. 3066. 669. 1937. 740. 585. 809. 819. 1102.
      1123. 880. 772. 900. 668. 672. 939. 912. 941. 1098. 986. 966. 648.
      1314. 974. 2034. 1483. 3271. 1011. 875. 1618. 669. 1557. 1867.
      4350. 1264. 3777. 746. 984. 807. 953. 1141. 1172. 1240. 979. 688.
      747. 664. 757. 663. 1074. 1351. 1316. 1331. 746. 1252. 769. 2389.
      929. 2850. 1039. 647. 1664. 718. 954. 601. 2142. 750. 1918. 742.
      967. 745. 609. 674. 781. 929. 997. 882. 585. 896. 773. 672. 720.
      1283. 1015. 1554. 864. 1927. 634. 2486. 1133. 3044. 866. 1256.
      1936. 949. 1411. 896. 3350. 1090. 4011. 844. 849. 1255. 903. 718.
      722. 1262. 959.</_>
    <_>
      2659. 1234. 740. 728. 952. 787. 858. 543. 3435. 897. 3104. 1047.
      1844. 716. 1640. 497. 1360. 5622. 1046. 3452. 1024. 2087. 789.
      1187. 1009. 890. 1044. 781. 905. 656. 709. 416. 1258. 1219. 859.
      846. 1025. 1161. 849. 637. 2131. 994. 2342. 890. 1196. 894. 2225.
      679. 896. 3117. 567. 2537. 759. 2182. 712. 1581. 659. 1169. 562.
      924. 535. 701. 1254. 814. 828. 1159. 1054. 938. 545. 713. 1127.
      924. 2599. 1280. 4022. 1866. 1481. 848. 1857. 1027. 946. 4251.
      1234. 2488. 408. 1647. 610. 1467. 1044. 1219. 1328. 1062. 464.
      749. 758. 680. 608. 795. 897. 991. 559. 826. 677. 629. 2164. 915.
      4361. 1023. 1299. 826. 1750. 592. 761. 2950. 933. 2995. 497. 2123.
      642. 1609. 675. 1044. 1046. 1191. 416. 652. 810. 563. 922. 854.
      625. 845. 1118. 742. 522. 470. 1736. 605. 2101. 1139. 3399. 852.
      2299. 668. 815. 1704. 698. 1818. 1259. 3363. 602. 1497. 773. 748.
      901. 1020. 1073. 1156. 835. 651. 930. 678. 678. 920. 821. 758.
      646. 531. 1073. 828. 1393. 1020. 1614. 903. 3467. 808. 722. 1495.
      651. 1619. 1199. 2584. 758. 2438. 700. 807. 821. 1289. 905. 884.
      1011. 756. 662. 677. 801. 832. 563. 974. 1146. 1073. 1445. 627.
      1431. 767. 2469. 925. 3123. 857. 639. 1286. 632. 1039. 506. 2146.
      462. 1881. 578. 795. 707. 551. 556. 752. 744. 660. 849. 538. 984.
      919. 524. 514. 1006. 687. 1496. 761. 1644. 653. 3107. 758. 4529.
      533. 1163. 1640. 741. 1815. 736. 2419. 931. 3309. 849. 741. 819.
      647. 568. 493. 1097. 633.</_>
    <_>
      16776. 1147. 643. 735. 780. 616. 770. 465. 3070. 845. 2685. 829.
      1645. 514. 1695. 596. 1140. 5851. 977. 3565. 835. 1582. 932. 1231.
      1202. 984. 908. 782. 957. 573. 685. 412. 1235. 1031. 714. 741.
      878. 904. 684. 470. 2393. 791. 2121. 916. 808. 685. 2075. 589.
      875. 3146. 500. 2436. 692. 2263. 714. 1468. 715. 978. 714. 888.
      440. 563. 1222. 672. 687. 1116. 960. 1020. 465. 832. 740. 837.
      2302. 1151. 3160. 1860. 1173. 740. 1587. 884. 927. 5101. 1555.
      2320. 520. 1400. 675. 1049. 815. 1018. 973. 1074. 457. 609. 516.
      635. 698. 614. 1072. 1056. 581. 701. 503. 524. 1787. 772. 4644.
      1253. 1072. 835. 1632. 602. 618. 2382. 771. 2992. 458. 2071. 512.
      1502. 433. 680. 868. 873. 389. 551. 725. 522. 773. 605. 547. 699.
      917. 656. 588. 470. 1559. 514. 1771. 1026. 3837. 830. 2847. 721.
      643. 1768. 624. 1465. 1234. 3232. 604. 1425. 801. 608. 811. 891.
      951. 997. 749. 525. 794. 570. 601. 737. 705. 554. 605. 512. 1005.
      639. 1195. 902. 2085. 1297. 3507. 1236. 967. 1571. 595. 1655.
      1583. 3268. 919. 2560. 704. 665. 762. 1413. 847. 681. 989. 573.
      514. 547. 667. 706. 447. 883. 1167. 1058. 1205. 644. 1415. 757.
      2681. 886. 3536. 918. 483. 1480. 544. 851. 508. 1944. 435. 1648.
      524. 635. 855. 671. 517. 737. 821. 744. 809. 556. 857. 787. 624.
      721. 1106. 712. 1308. 849. 1337. 619. 3276. 870. 4825. 566. 1069.
      1663. 576. 1487. 864. 2654. 843. 3230. 779. 603. 712. 719. 506.
      565. 1016. 681.</_>
    <_>
      1151. 990. 727. 754. 583. 740. 671. 370. 4246. 1078. 3692. 1144.
      1257. 721. 1235. 571. 1057. 4599. 1263. 2816. 787. 1440. 651. 973.
      916. 764. 1010. 873. 592. 511. 584. 310. 898. 1067. 753. 685. 656.
      880. 773. 528. 2606. 844. 2113. 1044. 1026. 943. 1601. 785. 735.
      2418. 569. 2449. 778. 1396. 717. 1113. 539. 1047. 565. 1167. 582.
      801. 914. 892. 935. 1119. 1151. 870. 779. 886. 1003. 708. 3520.
      1346. 4324. 1845. 993. 866. 1424. 848. 1216. 4532. 1862. 2302.
      742. 1450. 1016. 890. 898. 929. 1340. 1009. 393. 473. 634. 449.
      597. 525. 1076. 747. 455. 761. 725. 672. 1954. 799. 3657. 1118.
      1021. 797. 1543. 710. 674. 2123. 1342. 2913. 576. 1549. 876. 1325.
      470. 945. 1055. 1601. 320. 520. 1134. 860. 768. 978. 593. 642.
      1191. 1440. 977. 733. 1027. 711. 1089. 853. 2189. 1366. 2210.
      1049. 759. 1616. 740. 983. 1664. 3112. 997. 2357. 700. 661. 514.
      612. 1241. 1426. 954. 787. 718. 838. 627. 904. 1181. 1354. 1256.
      1032. 955. 931. 1185. 1031. 1986. 2231. 3660. 1731. 728. 1179.
      526. 1052. 1951. 4085. 1148. 3228. 695. 752. 503. 744. 1442. 1814.
      1479. 1370. 919. 909. 802. 707. 1061. 1248. 1491. 1286. 1335. 860.
      1189. 811. 1851. 1031. 2139. 1241. 1020. 1470. 916. 911. 1039.
      2006. 1444. 2434. 659. 702. 747. 614. 681. 1089. 1181. 981. 715.
      481. 721. 698. 925. 817. 1131. 1168. 1270. 776. 1239. 591. 2498.
      1339. 2588. 1066. 990. 1478. 871. 1047. 1007. 2974. 1569. 3157.
      722. 738. 718. 558. 905. 813. 1440. 1009.</_>
    <_>
      1126. 918. 802. 692. 879. 730. 833. 573. 3368. 955. 2383. 897.
      1437. 642. 1571. 488. 1238. 3010. 961. 2031. 972. 1517. 782. 1302.
      1286. 997. 892. 693. 856. 530. 659. 340. 1126. 1107. 957. 926.
      999. 1496. 932. 665. 2076. 1017. 2089. 1252. 1156. 1017. 2263.
      781. 853. 1869. 837. 1710. 804. 1391. 797. 1367. 740. 1002. 809.
      965. 466. 866. 1171. 1023. 767. 844. 793. 924. 701. 803. 872. 881.
      2675. 1120. 3293. 1743. 1470. 939. 1764. 898. 1011. 2687. 1237.
      1549. 675. 1123. 1075. 1321. 910. 1046. 1214. 1194. 518. 749. 709.
      604. 652. 711. 995. 1012. 416. 757. 732. 726. 1794. 820. 4439.
      1301. 1080. 857. 2052. 801. 807. 2034. 1073. 1954. 528. 1491. 969.
      1318. 628. 953. 1131. 1143. 529. 739. 1286. 784. 1045. 847. 716.
      815. 1130. 948. 803. 783. 1642. 817. 1495. 1165. 3790. 840. 2718.
      982. 1030. 1392. 739. 1232. 1321. 2599. 897. 1624. 913. 768. 793.
      912. 1446. 1281. 1267. 849. 995. 867. 741. 976. 1099. 1137. 1029.
      942. 1195. 773. 1283. 1087. 2325. 1250. 4702. 1065. 995. 1312.
      599. 1156. 1664. 2667. 1303. 2506. 783. 1008. 568. 878. 1344.
      1343. 1244. 977. 1052. 846. 693. 791. 785. 997. 1138. 1176. 1492.
      909. 1407. 969. 3348. 1280. 2697. 1274. 822. 1370. 864. 848. 943.
      1750. 1348. 2146. 785. 816. 710. 652. 600. 905. 644. 943. 974.
      533. 927. 800. 752. 726. 1160. 987. 1478. 767. 1524. 670. 3890.
      925. 5532. 940. 1316. 1335. 988. 1022. 943. 2535. 1383. 2597. 930.
      963. 626. 712. 737. 795. 988. 823.</_>
    <_>
      1097. 901. 838. 715. 907. 690. 806. 580. 3375. 902. 2496. 917.
      1497. 610. 1672. 516. 1121. 2910. 1012. 2026. 928. 1503. 833.
      1290. 1215. 982. 924. 693. 804. 486. 647. 376. 1091. 1102. 923.
      832. 976. 1428. 898. 708. 1988. 935. 2060. 1245. 1189. 959. 2176.
      810. 769. 1906. 772. 1755. 850. 1476. 839. 1364. 697. 1014. 849.
      972. 499. 844. 1215. 974. 761. 855. 871. 885. 723. 805. 830. 946.
      2631. 1051. 3256. 1647. 1458. 955. 1790. 828. 939. 2690. 1148.
      1569. 697. 1185. 1071. 1342. 922. 1058. 1166. 1129. 519. 703. 682.
      630. 633. 756. 979. 1017. 524. 790. 786. 666. 1892. 843. 4435.
      1210. 1182. 932. 1955. 825. 788. 1996. 1076. 1858. 509. 1478. 985.
      1358. 636. 955. 1102. 1196. 593. 702. 1285. 795. 1071. 817. 633.
      814. 1118. 903. 807. 715. 1690. 773. 1534. 1153. 3736. 888. 2732.
      1034. 1027. 1372. 774. 1268. 1414. 2765. 948. 1586. 933. 821. 820.
      990. 1432. 1156. 1217. 845. 976. 875. 747. 987. 1120. 1081. 1005.
      950. 1149. 776. 1204. 1049. 2309. 1212. 4782. 1022. 1057. 1290.
      676. 1136. 1718. 2791. 1277. 2528. 787. 911. 525. 827. 1210. 1432.
      1225. 1024. 1081. 829. 698. 799. 801. 1029. 1129. 1239. 1499. 996.
      1469. 910. 3365. 1290. 2820. 1233. 824. 1358. 832. 883. 846. 1776.
      1318. 2121. 767. 851. 796. 701. 625. 874. 675. 930. 975. 554. 867.
      841. 713. 710. 1166. 978. 1551. 748. 1405. 735. 3944. 972. 5533.
      937. 1353. 1455. 980. 1047. 909. 2632. 1383. 2658. 893. 959. 585.
      706. 710. 752. 1030. 848.</_>
    <_>
      967. 1330. 707. 670. 893. 775. 778. 509. 3425. 843. 2947. 1005.
      1857. 700. 2205. 663. 1309. 4080. 931. 2512. 832. 1153. 780. 962.
      1058. 1050. 934. 796. 686. 432. 714. 410. 1197. 1443. 786. 838.
      1014. 1127. 830. 551. 2873. 1052. 2687. 1197. 1479. 1122. 2105.
      749. 1168. 2930. 706. 1859. 692. 1314. 619. 1184. 721. 1596. 668.
      1138. 580. 730. 958. 926. 853. 1253. 1110. 1055. 672. 610. 754.
      716. 2793. 1218. 3534. 1696. 1727. 1070. 2105. 1164. 1670. 3386.
      2305. 2283. 827. 924. 1177. 961. 998. 1155. 1307. 1157. 544. 580.
      709. 568. 793. 631. 1398. 1048. 636. 643. 832. 704. 2371. 1024.
      4776. 1142. 1419. 1104. 1672. 789. 977. 2044. 1342. 2175. 510.
      1060. 696. 1184. 673. 932. 1244. 1336. 415. 560. 1355. 803. 849.
      815. 748. 620. 997. 752. 611. 533. 1634. 918. 1959. 1261. 4208.
      1096. 2747. 916. 762. 981. 634. 747. 1409. 1884. 815. 1179. 876.
      660. 750. 710. 1676. 1041. 992. 733. 721. 588. 851. 742. 1127.
      1170. 1217. 995. 1294. 1046. 1839. 1302. 2225. 1489. 3385. 1272.
      763. 988. 634. 895. 1427. 1846. 1078. 1876. 883. 929. 688. 735.
      1348. 1188. 1132. 1075. 798. 717. 804. 679. 749. 902. 965. 990.
      1799. 1022. 1612. 1147. 2542. 1157. 2780. 1500. 934. 1136. 963.
      673. 824. 1211. 1056. 1585. 746. 644. 724. 600. 632. 931. 905.
      1043. 779. 419. 947. 854. 767. 795. 1123. 1405. 1665. 792. 1604.
      832. 3114. 1132. 3710. 887. 959. 1206. 904. 960. 944. 1881. 1230.
      2399. 863. 664. 769. 550. 658. 992. 1414. 1030.</_>
    <_>
      10142. 908. 591. 403. 504. 672. 514. 413. 5506. 734. 6126. 626.
      1460. 416. 1945. 411. 643. 2846. 581. 1557. 574. 1438. 630. 846.
      1054. 559. 836. 539. 718. 435. 637. 382. 943. 985. 770. 638. 758.
      1214. 937. 606. 3029. 630. 3493. 675. 1112. 775. 2723. 738. 626.
      2895. 430. 1662. 633. 1361. 565. 1092. 606. 1221. 420. 578. 498.
      660. 1244. 782. 735. 811. 792. 749. 554. 436. 586. 581. 5066.
      1169. 6638. 2581. 1450. 667. 1677. 778. 1294. 2649. 1547. 1704.
      693. 1059. 1043. 1043. 961. 814. 1212. 784. 467. 551. 515. 441.
      476. 415. 943. 713. 592. 741. 721. 674. 2627. 655. 6925. 1143.
      1307. 1331. 2425. 699. 649. 1697. 823. 2315. 360. 1015. 667. 1092.
      425. 576. 828. 907. 325. 453. 1117. 672. 692. 713. 375. 462. 1247.
      1298. 775. 673. 1914. 836. 2265. 543. 4632. 1211. 2784. 652. 495.
      1304. 464. 924. 1237. 2599. 805. 1736. 945. 674. 832. 520. 1515.
      1356. 1032. 757. 601. 574. 610. 530. 1058. 1444. 967. 1007. 1099.
      643. 1462. 589. 2227. 1899. 3640. 1050. 690. 1266. 423. 1038.
      1760. 2937. 918. 1910. 679. 1136. 551. 433. 1141. 1847. 1196.
      1102. 762. 956. 492. 562. 802. 948. 1285. 1311. 1507. 673. 1537.
      789. 3023. 963. 2665. 1073. 705. 1308. 879. 807. 1045. 1845. 1368.
      2041. 525. 747. 728. 685. 685. 1024. 1099. 1310. 541. 516. 707.
      702. 744. 821. 1193. 1189. 1103. 603. 1578. 593. 3597. 1343. 3747.
      839. 701. 1281. 617. 1008. 720. 1880. 1009. 2250. 482. 704. 545.
      476. 700. 740. 1274. 854.</_>
    <_>
      12253. 1302. 750. 819. 738. 714. 653. 468. 3539. 921. 2869. 864.
      2054. 639. 1704. 431. 1092. 2531. 835. 1925. 753. 1657. 649. 1231.
      1385. 1132. 990. 640. 1080. 459. 674. 358. 1475. 1307. 998. 898.
      907. 1166. 828. 598. 3054. 925. 2611. 948. 1161. 878. 2457. 612.
      1003. 2448. 683. 1588. 648. 1347. 723. 1601. 1153. 1687. 896. 723.
      554. 685. 942. 817. 836. 1081. 1174. 1238. 508. 567. 782. 845.
      2730. 1101. 4503. 2534. 1414. 797. 1845. 978. 1366. 2812. 1544.
      1650. 640. 1104. 728. 969. 1058. 1545. 1280. 1216. 509. 708. 674.
      596. 950. 693. 1457. 1094. 489. 715. 699. 738. 2342. 947. 5175.
      1897. 1061. 914. 2334. 639. 804. 2015. 949. 1891. 437. 1760. 626.
      1222. 554. 910. 1167. 784. 361. 483. 1350. 545. 858. 622. 504.
      471. 756. 551. 539. 470. 2617. 592. 2583. 840. 5358. 907. 3717.
      601. 578. 1238. 606. 1221. 1064. 2260. 683. 1415. 939. 545. 833.
      610. 1161. 1207. 1028. 791. 655. 651. 603. 596. 740. 778. 814.
      686. 1219. 539. 1575. 714. 2146. 1096. 3854. 791. 848. 1381. 512.
      1395. 1408. 2432. 949. 2370. 751. 811. 623. 636. 989. 959. 911.
      737. 717. 601. 540. 552. 426. 541. 692. 951. 1914. 611. 1756. 870.
      4019. 710. 3805. 927. 489. 1378. 606. 740. 663. 1791. 719. 1745.
      500. 722. 751. 668. 512. 840. 678. 907. 780. 615. 763. 763. 464.
      568. 956. 884. 1306. 620. 1410. 842. 2923. 714. 5036. 624. 852.
      1649. 521. 1057. 552. 2572. 909. 2437. 541. 604. 527. 524. 522.
      627. 954. 645.</_>
    <_>
      6140. 885. 649. 620. 645. 601. 676. 463. 5604. 709. 4016. 818.
      1576. 541. 1671. 493. 939. 3313. 803. 1632. 708. 1393. 747. 875.
      1135. 833. 892. 629. 767. 556. 634. 407. 924. 914. 714. 879. 769.
      985. 721. 640. 3326. 744. 3276. 707. 948. 801. 2284. 807. 1053.
      2518. 633. 1576. 618. 1533. 680. 911. 613. 899. 580. 879. 441.
      784. 1388. 909. 782. 993. 875. 862. 484. 778. 826. 734. 3753.
      1032. 5917. 2260. 1341. 760. 1741. 887. 1394. 2935. 1833. 2138.
      661. 1249. 974. 1351. 746. 983. 1250. 924. 373. 596. 546. 434.
      538. 642. 1274. 994. 476. 850. 832. 745. 2221. 686. 7554. 1127.
      842. 891. 1660. 693. 806. 1657. 883. 2499. 570. 1451. 791. 986.
      357. 714. 737. 972. 313. 623. 940. 651. 626. 778. 408. 436. 1326.
      1157. 842. 742. 1408. 620. 1740. 731. 4260. 1312. 2314. 710. 697.
      1100. 883. 1048. 1810. 3180. 816. 1516. 967. 879. 719. 692. 1653.
      1740. 705. 780. 637. 652. 526. 673. 1152. 1354. 934. 1136. 867.
      751. 1105. 641. 2090. 2185. 3070. 1243. 777. 1346. 601. 1013.
      2178. 2424. 1213. 2402. 620. 900. 490. 639. 1315. 1591. 1415.
      1127. 645. 873. 505. 524. 988. 955. 1122. 1277. 1254. 777. 1410.
      910. 2700. 1100. 2715. 1052. 806. 1278. 944. 1153. 1075. 1474.
      1261. 2325. 765. 791. 897. 694. 654. 1102. 985. 1267. 515. 532.
      743. 810. 665. 706. 1335. 1576. 840. 613. 1619. 566. 2533. 974.
      4070. 758. 897. 1404. 562. 1299. 811. 1790. 1080. 2742. 712. 868.
      552. 545. 834. 883. 1353. 862.</_>
    <_>
      4865. 1065. 712. 605. 755. 800. 825. 723. 4676. 1175. 4765. 931.
      1642. 717. 1902. 660. 1051. 2928. 822. 1877. 770. 1748. 998. 1200.
      1024. 1026. 859. 582. 894. 683. 608. 422. 869. 1052. 619. 723.
      687. 950. 784. 640. 2845. 722. 3333. 698. 951. 725. 2216. 757.
      1088. 3054. 572. 1612. 584. 1867. 939. 1128. 746. 1492. 762. 689.
      460. 778. 1169. 880. 637. 843. 873. 958. 880. 801. 801. 674. 3453.
      1136. 5633. 1867. 1757. 819. 1715. 937. 1476. 2750. 1493. 2268.
      830. 1440. 831. 1373. 932. 1124. 1072. 976. 559. 529. 659. 589.
      671. 653. 1072. 790. 693. 905. 786. 601. 2615. 679. 6255. 1159.
      1039. 1134. 1672. 803. 830. 2267. 937. 2257. 555. 1721. 615. 1095.
      586. 807. 1020. 907. 405. 598. 940. 599. 624. 656. 679. 541. 1161.
      982. 868. 515. 1327. 678. 2085. 715. 4353. 1160. 2897. 761. 596.
      1306. 768. 1178. 1199. 2767. 875. 1651. 684. 581. 991. 675. 1287.
      925. 960. 666. 539. 613. 568. 645. 984. 1116. 833. 1001. 905. 601.
      1373. 673. 2246. 1859. 3475. 988. 648. 1330. 558. 1329. 1823.
      2633. 1171. 2142. 548. 998. 838. 922. 772. 1127. 1261. 949. 711.
      936. 546. 558. 1121. 942. 1040. 890. 1214. 913. 1415. 683. 2461.
      1056. 2987. 959. 727. 1533. 686. 807. 724. 1539. 974. 1740. 557.
      779. 695. 597. 670. 736. 1122. 1149. 645. 823. 773. 895. 638. 803.
      964. 1083. 1247. 897. 1687. 707. 2662. 1028. 3851. 756. 946. 1847.
      869. 1472. 701. 2219. 848. 2913. 612. 928. 1084. 753. 663. 797.
      1251. 740.</_>
    <_>
      27840. 1117. 553. 583. 667. 877. 460. 475. 3872. 888. 3536. 696.
      1407. 603. 1400. 370. 710. 2260. 640. 1844. 683. 1823. 1009. 1518.
      1100. 862. 647. 601. 840. 499. 487. 373. 1048. 1107. 733. 829.
      603. 1152. 514. 484. 2485. 885. 2757. 904. 738. 905. 2580. 784.
      730. 1888. 478. 1349. 577. 1741. 673. 1643. 743. 1511. 747. 652.
      410. 754. 928. 764. 742. 961. 1066. 781. 493. 619. 758. 538. 2959.
      928. 5299. 1830. 1141. 596. 1786. 514. 1676. 2602. 2111. 1584.
      691. 1180. 860. 1171. 826. 982. 1139. 853. 424. 431. 655. 520.
      583. 561. 1364. 1008. 374. 580. 653. 508. 1913. 721. 5373. 1796.
      806. 828. 2006. 550. 469. 1684. 787. 2318. 437. 1750. 572. 1374.
      558. 671. 1294. 900. 300. 453. 1326. 587. 926. 645. 442. 469. 909.
      736. 497. 438. 2266. 659. 1973. 693. 5139. 966. 3197. 643. 455.
      1074. 661. 1196. 1136. 2560. 590. 1419. 788. 538. 663. 629. 930.
      1086. 630. 559. 473. 517. 475. 517. 585. 782. 672. 616. 824. 617.
      1435. 633. 1911. 1655. 4311. 794. 746. 1417. 586. 1394. 1508.
      3082. 971. 2615. 686. 870. 687. 978. 727. 752. 749. 628. 553. 493.
      427. 443. 632. 631. 528. 736. 1602. 393. 1317. 575. 4307. 665.
      3876. 716. 548. 1924. 651. 880. 690. 1837. 692. 1946. 397. 580.
      808. 584. 461. 534. 713. 619. 508. 451. 735. 617. 478. 406. 811.
      720. 1126. 447. 1453. 566. 3031. 691. 5623. 623. 592. 2172. 538.
      1391. 647. 3086. 654. 3118. 403. 624. 742. 800. 451. 548. 860.
      649.</_>
    <_>
      853. 1263. 778. 431. 774. 747. 750. 450. 4206. 892. 4455. 661.
      1720. 671. 2150. 481. 827. 3275. 806. 1268. 696. 1282. 752. 798.
      738. 638. 1001. 455. 615. 341. 647. 245. 877. 1411. 528. 542. 876.
      1365. 694. 564. 3159. 1272. 3184. 941. 1412. 1220. 2462. 986. 587.
      2770. 452. 1660. 520. 1412. 869. 703. 439. 1494. 644. 974. 506.
      1026. 1388. 990. 1165. 1164. 1116. 656. 513. 616. 1025. 661. 3412.
      1245. 5682. 2022. 1527. 837. 2280. 1041. 1907. 3452. 2798. 1933.
      749. 951. 1404. 838. 743. 717. 1323. 778. 362. 432. 764. 424. 532.
      405. 795. 547. 518. 609. 669. 494. 2455. 981. 6060. 1078. 1633.
      1187. 2324. 879. 727. 1861. 1138. 2472. 471. 956. 1021. 740. 461.
      863. 1268. 1228. 433. 609. 1675. 760. 943. 1045. 524. 651. 1398.
      1150. 818. 466. 2053. 991. 1944. 912. 5784. 1390. 3619. 763. 758.
      964. 589. 831. 1126. 1911. 737. 1108. 815. 519. 706. 635. 1478.
      1116. 904. 674. 775. 671. 653. 633. 1166. 1218. 1161. 1001. 1505.
      1108. 1719. 1045. 2691. 2541. 4266. 1284. 557. 931. 420. 704.
      1349. 1672. 922. 1391. 675. 1035. 664. 741. 1240. 1531. 1467.
      1214. 1302. 867. 720. 673. 1030. 799. 1215. 1142. 1775. 1034.
      1862. 977. 3332. 1084. 3218. 1289. 974. 941. 1152. 713. 788. 1118.
      1088. 1513. 681. 696. 762. 452. 628. 763. 944. 1188. 839. 528.
      844. 643. 724. 662. 1156. 1293. 1634. 745. 1771. 574. 3565. 1180.
      4064. 784. 984. 985. 717. 734. 556. 1200. 885. 1699. 778. 691.
      743. 463. 691. 737. 1525. 835.</_>
    <_>
      813. 1063. 803. 605. 701. 725. 734. 554. 4248. 1144. 4320. 792.
      2211. 663. 2129. 478. 863. 1891. 779. 1385. 739. 1161. 809. 1148.
      1265. 1047. 751. 612. 903. 465. 620. 355. 1223. 1099. 1078. 827.
      862. 1261. 775. 661. 3185. 1296. 3442. 1086. 1330. 942. 2477. 798.
      1066. 1707. 539. 997. 877. 1115. 686. 1148. 1085. 1643. 779. 621.
      530. 690. 1135. 526. 969. 1090. 1246. 1213. 637. 609. 963. 825.
      3400. 1359. 6249. 2665. 1732. 938. 2186. 1076. 1196. 2374. 1976.
      1425. 675. 919. 902. 763. 1028. 1274. 1439. 1133. 490. 585. 626.
      621. 690. 723. 1497. 1111. 540. 636. 791. 629. 2793. 983. 7677.
      1375. 1448. 851. 2289. 684. 820. 1702. 893. 1496. 430. 1072. 734.
      798. 611. 737. 1225. 680. 412. 476. 1105. 372. 858. 639. 508. 566.
      1071. 668. 664. 454. 2408. 869. 2270. 666. 5212. 885. 4192. 696.
      569. 904. 466. 826. 1265. 2286. 845. 1442. 994. 562. 817. 580.
      1463. 1105. 1381. 809. 742. 548. 645. 603. 1097. 999. 943. 867.
      1354. 990. 1878. 769. 2779. 1634. 4778. 1040. 684. 1218. 448. 929.
      1888. 2270. 989. 2346. 758. 806. 743. 563. 1206. 899. 1040. 531.
      712. 499. 608. 501. 544. 714. 736. 937. 1842. 704. 1797. 877.
      4119. 811. 4084. 1134. 735. 998. 784. 782. 615. 1288. 688. 1794.
      626. 691. 777. 835. 625. 743. 759. 1127. 672. 719. 670. 694. 597.
      731. 951. 1077. 1402. 715. 2468. 768. 3047. 807. 6067. 847. 902.
      1484. 536. 1032. 777. 2252. 900. 2383. 549. 782. 630. 555. 559.
      633. 881. 578.</_>
    <_>
      40485. 750. 674. 532. 886. 697. 738. 416. 3091. 1101. 2738. 992.
      1367. 600. 1769. 588. 892. 3867. 700. 1845. 1005. 2156. 766. 1373.
      1046. 700. 911. 738. 721. 510. 502. 359. 1048. 933. 654. 766. 728.
      994. 523. 519. 1939. 806. 2408. 866. 886. 867. 1804. 772. 955.
      2892. 536. 1695. 661. 2267. 617. 1461. 653. 716. 525. 639. 361.
      596. 660. 843. 600. 595. 885. 604. 544. 757. 1118. 765. 2490.
      1159. 3188. 1964. 1153. 823. 1553. 893. 970. 3087. 1312. 1895.
      485. 1604. 825. 1465. 822. 999. 1066. 1193. 453. 571. 568. 487.
      615. 629. 1021. 868. 467. 608. 571. 463. 1520. 956. 3857. 1433.
      805. 735. 1495. 445. 787. 2530. 924. 2510. 486. 2298. 645. 1261.
      472. 759. 766. 945. 326. 535. 795. 424. 432. 489. 456. 558. 575.
      534. 399. 426. 975. 567. 1352. 1116. 2941. 571. 1990. 564. 692.
      1684. 682. 1571. 1137. 3196. 601. 1549. 663. 530. 671. 802. 870.
      951. 586. 480. 675. 602. 453. 729. 594. 645. 684. 549. 1027. 690.
      1064. 789. 1605. 1201. 3660. 1195. 802. 1872. 502. 1899. 1563.
      3450. 953. 2318. 623. 613. 565. 1355. 762. 744. 885. 619. 578.
      529. 653. 733. 440. 751. 957. 1042. 1065. 666. 1217. 891. 1852.
      688. 2691. 697. 575. 1182. 554. 920. 522. 1987. 500. 1940. 531.
      552. 790. 706. 470. 729. 511. 641. 715. 446. 762. 698. 462. 516.
      1017. 737. 1472. 685. 1301. 585. 2084. 757. 4006. 465. 922. 1807.
      732. 1727. 844. 2782. 732. 2828. 623. 717. 1011. 705. 443. 424.
      997. 392.</_>
    <_>
      45528. 569. 547. 502. 728. 600. 648. 544. 3588. 874. 2836. 767.
      1415. 592. 1547. 588. 802. 3161. 613. 1590. 782. 1790. 773. 1204.
      653. 614. 460. 377. 520. 497. 429. 368. 631. 865. 470. 695. 543.
      848. 617. 537. 1791. 625. 2377. 774. 805. 725. 1705. 625. 717.
      2915. 457. 1666. 534. 2081. 663. 1353. 334. 997. 483. 741. 288.
      666. 755. 774. 563. 731. 571. 509. 938. 745. 866. 496. 2608. 740.
      3929. 1401. 1342. 691. 1541. 714. 895. 2723. 1559. 1570. 701.
      1822. 716. 1399. 518. 676. 864. 691. 468. 474. 557. 379. 359. 498.
      465. 426. 419. 675. 550. 327. 1329. 490. 4745. 763. 878. 752.
      1532. 472. 634. 2242. 729. 2188. 487. 1802. 533. 1346. 322. 666.
      958. 861. 324. 622. 855. 499. 679. 638. 484. 579. 1000. 1026. 730.
      663. 1127. 662. 1301. 776. 3191. 1130. 2259. 694. 670. 1391. 719.
      1214. 1301. 2567. 872. 1631. 448. 436. 605. 542. 866. 1127. 695.
      704. 583. 701. 516. 722. 854. 1013. 990. 902. 853. 1026. 1154.
      881. 1804. 2099. 3641. 1893. 690. 1560. 444. 1223. 1433. 2478.
      1092. 2067. 399. 1041. 495. 833. 884. 1185. 1314. 965. 698. 479.
      644. 485. 804. 941. 1381. 1078. 1078. 691. 1413. 427. 2093. 980.
      2673. 745. 804. 1366. 758. 1003. 764. 1654. 940. 1775. 538. 502.
      1123. 395. 585. 592. 997. 674. 608. 503. 583. 504. 602. 563. 1221.
      959. 1533. 758. 1682. 526. 2193. 883. 3286. 758. 846. 1891. 868.
      1418. 591. 1989. 990. 2438. 621. 693. 1540. 752. 526. 633. 1183.
      809.</_>
    <_>
      7535. 979. 1006. 839. 937. 825. 772. 594. 3632. 1260. 3638. 1675.
      1423. 708. 1760. 801. 1548. 3905. 1286. 2883. 1037. 1882. 977.
      1550. 1505. 1062. 1335. 1003. 791. 570. 552. 408. 1479. 1384. 944.
      924. 860. 1250. 487. 517. 2545. 1371. 2631. 1330. 952. 763. 2224.
      705. 1062. 2995. 660. 2073. 871. 2304. 782. 1719. 972. 1031. 654.
      801. 433. 613. 833. 953. 916. 1008. 1613. 1296. 447. 727. 1002.
      855. 3027. 1794. 4207. 3294. 961. 774. 1542. 899. 1309. 4151.
      2130. 2551. 699. 1591. 981. 1398. 1255. 1310. 1666. 1387. 489.
      725. 621. 603. 875. 864. 1496. 1035. 671. 747. 532. 587. 2017.
      1165. 4444. 1832. 911. 991. 1488. 621. 997. 2739. 1207. 2985. 661.
      2335. 716. 1207. 695. 884. 1053. 992. 313. 618. 820. 625. 482.
      590. 511. 509. 696. 634. 401. 450. 1440. 710. 1729. 913. 3663.
      597. 1722. 503. 683. 1508. 806. 1648. 1182. 3473. 490. 1765. 685.
      635. 752. 814. 1093. 983. 522. 592. 768. 657. 581. 753. 816. 819.
      679. 749. 1034. 688. 1137. 840. 1843. 642. 3031. 585. 999. 2009.
      668. 2017. 1584. 2959. 1009. 2271. 714. 939. 615. 762. 695. 884.
      704. 635. 556. 482. 538. 612. 408. 680. 536. 887. 1270. 705. 1315.
      789. 2224. 650. 2243. 599. 687. 1612. 775. 1246. 672. 2164. 505.
      1677. 498. 697. 801. 734. 538. 771. 505. 651. 688. 627. 561. 771.
      458. 545. 927. 718. 1424. 789. 1127. 502. 2279. 569. 4310. 420.
      1060. 2173. 682. 1593. 696. 2447. 974. 2649. 574. 816. 539. 707.
      399. 611. 657. 463.</_>
    <_>
      688. 799. 745. 633. 743. 735. 682. 515. 4879. 744. 3703. 934.
      1433. 662. 1871. 438. 894. 4279. 1045. 2335. 787. 1658. 892. 1324.
      967. 753. 749. 595. 837. 750. 757. 460. 692. 711. 743. 625. 634.
      857. 712. 537. 2352. 541. 2955. 873. 693. 720. 2047. 718. 735.
      2816. 532. 2295. 651. 1428. 961. 1215. 592. 859. 500. 985. 371.
      702. 1002. 1028. 626. 921. 745. 609. 859. 834. 867. 661. 3631.
      944. 4320. 1432. 1573. 797. 1734. 596. 836. 3835. 899. 1890. 770.
      1392. 919. 1193. 767. 1118. 875. 763. 484. 725. 636. 548. 441.
      588. 865. 699. 406. 842. 617. 600. 2035. 804. 6306. 993. 966. 815.
      1742. 703. 761. 2260. 855. 2521. 534. 2153. 812. 1586. 487. 816.
      1056. 1034. 343. 797. 1295. 937. 738. 1038. 742. 740. 949. 1189.
      856. 802. 1576. 706. 1577. 877. 3295. 1065. 2280. 872. 727. 1802.
      773. 1278. 1370. 3174. 1145. 2170. 662. 617. 816. 797. 1247. 1371.
      995. 894. 679. 702. 641. 757. 1093. 1120. 1108. 1038. 1021. 770.
      1529. 889. 1948. 1389. 3795. 1174. 770. 1353. 711. 1362. 1413.
      3800. 1093. 3533. 547. 637. 750. 772. 929. 1227. 1369. 1214. 896.
      953. 803. 677. 922. 1199. 1267. 1114. 1487. 758. 1417. 671. 2446.
      946. 2714. 816. 779. 1741. 879. 858. 789. 1920. 1154. 2380. 645.
      720. 712. 499. 647. 917. 914. 1065. 669. 756. 784. 764. 808. 933.
      1180. 1264. 1331. 852. 1675. 574. 3183. 1240. 3678. 888. 1013.
      1812. 872. 1691. 1058. 3030. 1413. 3701. 704. 837. 816. 626. 915.
      1244. 1135. 940.</_>
    <_>
      1084. 1088. 746. 832. 843. 596. 766. 491. 3909. 864. 2817. 924.
      1958. 597. 2346. 519. 1175. 3592. 1002. 2524. 785. 1228. 840. 829.
      1362. 963. 961. 859. 1131. 572. 669. 448. 1285. 1189. 896. 1074.
      925. 920. 856. 613. 2487. 843. 2628. 1024. 1136. 614. 2083. 615.
      1013. 2025. 730. 1821. 759. 1293. 729. 1074. 921. 1043. 654. 853.
      495. 481. 856. 713. 918. 982. 1117. 944. 547. 740. 777. 763. 2989.
      1247. 3940. 2094. 1373. 892. 1737. 956. 756. 3055. 1188. 1992.
      496. 1115. 734. 870. 1016. 1267. 977. 1254. 532. 673. 633. 566.
      746. 677. 1213. 1125. 516. 815. 678. 798. 2579. 936. 5922. 1307.
      975. 690. 1765. 671. 763. 1846. 1003. 2122. 476. 1600. 688. 1175.
      633. 816. 928. 1046. 349. 551. 826. 870. 592. 554. 491. 763. 747.
      736. 710. 653. 1115. 611. 1503. 804. 4060. 906. 2986. 854. 565.
      1001. 602. 1169. 1342. 3234. 980. 2098. 1213. 705. 682. 786. 1649.
      1858. 1065. 883. 1013. 653. 834. 999. 1048. 1070. 1253. 980. 1202.
      648. 1456. 891. 2495. 1076. 4440. 1137. 999. 1089. 599. 1323.
      1574. 3930. 1105. 3527. 837. 729. 507. 776. 1337. 1069. 1224. 874.
      588. 608. 581. 741. 590. 1083. 901. 1417. 1189. 863. 1445. 730.
      2642. 1071. 3009. 906. 534. 868. 803. 819. 797. 2062. 911. 2628.
      736. 802. 619. 762. 692. 1249. 777. 984. 906. 578. 975. 1042. 820.
      809. 1236. 1091. 1584. 958. 1863. 676. 2878. 1100. 4462. 848. 955.
      1408. 852. 1556. 1102. 3055. 1378. 3787. 801. 652. 631. 642. 733.
      921. 848. 822.</_>
    <_>
      1132. 1064. 803. 830. 811. 617. 851. 509. 3758. 809. 2855. 937.
      2077. 592. 2481. 554. 1170. 3622. 1035. 2445. 817. 1201. 847. 874.
      1354. 891. 957. 807. 1140. 591. 643. 409. 1302. 1205. 843. 1000.
      917. 992. 923. 579. 2509. 830. 2556. 1013. 1203. 649. 2067. 612.
      1040. 1865. 781. 1759. 741. 1342. 692. 1092. 931. 1057. 668. 885.
      467. 540. 826. 717. 897. 950. 1034. 933. 559. 774. 804. 786. 2978.
      1320. 3820. 2112. 1398. 880. 1740. 945. 781. 2997. 1115. 2071.
      510. 1037. 729. 873. 957. 1220. 1009. 1235. 486. 705. 609. 561.
      776. 689. 1163. 1047. 474. 857. 735. 819. 2711. 934. 5753. 1268.
      928. 709. 1769. 705. 742. 1908. 977. 1998. 507. 1716. 683. 1114.
      647. 808. 903. 1072. 397. 578. 839. 822. 601. 592. 540. 809. 731.
      743. 705. 720. 1241. 586. 1630. 774. 3974. 947. 3090. 851. 620.
      890. 669. 1141. 1406. 3125. 993. 2156. 1127. 728. 744. 768. 1621.
      1862. 1064. 913. 1110. 624. 770. 1035. 1020. 1028. 1238. 968.
      1309. 608. 1451. 898. 2469. 1061. 4445. 1051. 980. 1049. 651.
      1229. 1552. 3873. 1063. 3431. 838. 756. 593. 789. 1297. 1072.
      1282. 923. 597. 639. 550. 778. 643. 1012. 887. 1385. 1262. 836.
      1480. 767. 2600. 1044. 3076. 918. 504. 865. 774. 775. 775. 2083.
      968. 2542. 659. 774. 636. 796. 645. 1216. 777. 970. 1038. 635.
      950. 1043. 843. 889. 1208. 1105. 1626. 990. 1790. 744. 2884. 1087.
      4456. 813. 1048. 1400. 855. 1401. 1091. 3171. 1323. 3628. 731.
      698. 639. 679. 758. 940. 923. 798.</_>
    <_>
      912. 1000. 756. 855. 711. 632. 699. 451. 3898. 980. 2817. 1035.
      1682. 624. 2108. 479. 1316. 3475. 1118. 2862. 843. 1530. 769.
      1000. 1393. 967. 980. 902. 1013. 652. 609. 412. 1300. 1124. 887.
      850. 794. 922. 807. 509. 2557. 973. 2368. 1025. 1156. 913. 1986.
      636. 1149. 1953. 850. 1963. 812. 1521. 750. 1430. 956. 1001. 568.
      966. 349. 598. 875. 836. 802. 869. 1108. 847. 491. 568. 792. 711.
      3006. 1367. 3802. 1733. 1158. 683. 1857. 871. 920. 3447. 1529.
      2258. 629. 1207. 907. 1110. 858. 1277. 1064. 1265. 473. 755. 658.
      626. 783. 902. 1278. 1279. 511. 762. 714. 758. 2117. 886. 5794.
      1357. 1041. 673. 1892. 676. 770. 1826. 972. 2115. 461. 1668. 900.
      1411. 607. 742. 1009. 1082. 374. 562. 1127. 911. 693. 690. 526.
      658. 790. 745. 706. 636. 1577. 709. 1603. 741. 4722. 1022. 2948.
      727. 934. 1311. 637. 1238. 1293. 3103. 862. 1665. 1094. 732. 608.
      769. 1256. 1229. 930. 733. 927. 621. 838. 818. 1019. 910. 1014.
      901. 1172. 820. 1328. 811. 2363. 1496. 4915. 1097. 1010. 1219.
      607. 1194. 1286. 3104. 1182. 2853. 716. 801. 589. 803. 1198. 1118.
      1161. 837. 734. 760. 468. 674. 597. 957. 968. 1154. 1316. 903.
      1328. 808. 2738. 1122. 3482. 969. 779. 1067. 733. 1110. 764. 2052.
      883. 2133. 585. 780. 631. 908. 566. 1008. 858. 839. 866. 630. 859.
      1129. 851. 808. 1261. 1090. 1513. 775. 1584. 797. 3298. 1075.
      5109. 881. 959. 1363. 805. 1375. 929. 3029. 1128. 3482. 695. 728.
      612. 631. 771. 827. 923. 656.</_>
    <_>
      955. 963. 681. 881. 686. 658. 660. 480. 3727. 996. 2924. 1002.
      1778. 704. 2111. 518. 1306. 3496. 1110. 2748. 935. 1609. 744.
      1010. 1410. 1003. 1004. 880. 1069. 645. 621. 465. 1323. 1134. 892.
      927. 848. 919. 727. 527. 2680. 928. 2477. 954. 1128. 878. 1977.
      693. 1137. 1940. 819. 1905. 879. 1482. 768. 1327. 1008. 946. 582.
      853. 362. 661. 900. 784. 824. 851. 1104. 878. 489. 608. 859. 708.
      3063. 1353. 3857. 1803. 1250. 747. 1808. 916. 902. 3440. 1471.
      2181. 559. 1295. 935. 1122. 937. 1289. 1200. 1185. 488. 743. 658.
      638. 797. 891. 1335. 1211. 531. 779. 662. 767. 2158. 868. 5911.
      1322. 1077. 718. 1821. 742. 748. 1811. 861. 2129. 495. 1588. 910.
      1368. 640. 787. 915. 1071. 382. 486. 1077. 918. 669. 598. 513.
      607. 823. 805. 734. 656. 1521. 720. 1638. 754. 4452. 1016. 2866.
      785. 914. 1253. 701. 1215. 1337. 3193. 883. 1807. 1069. 710. 610.
      814. 1322. 1339. 902. 740. 911. 622. 776. 906. 1055. 996. 1001.
      811. 1210. 779. 1390. 818. 2282. 1543. 4690. 1019. 1010. 1193.
      657. 1299. 1396. 3329. 1252. 2813. 789. 777. 501. 780. 1186. 1068.
      1065. 694. 769. 702. 492. 680. 580. 844. 1040. 1251. 1180. 930.
      1304. 847. 2573. 1048. 3372. 972. 688. 1126. 757. 1108. 703. 2124.
      866. 2114. 567. 745. 631. 952. 597. 992. 802. 851. 897. 628. 903.
      1130. 785. 752. 1295. 1156. 1582. 789. 1668. 846. 3253. 1119.
      4889. 892. 943. 1324. 719. 1440. 1025. 2958. 1152. 3620. 661. 684.
      565. 620. 730. 798. 885. 620.</_>
    <_>
      802. 1025. 809. 782. 549. 604. 793. 572. 4131. 734. 3347. 739.
      1325. 542. 1783. 472. 1230. 5403. 1257. 3033. 793. 1590. 1150.
      1418. 1007. 902. 981. 784. 618. 510. 620. 390. 926. 986. 830. 804.
      760. 703. 871. 697. 2108. 695. 2446. 753. 982. 769. 1556. 750.
      1054. 3631. 738. 2860. 785. 1872. 1002. 1900. 599. 1042. 533.
      1231. 410. 684. 1283. 1322. 735. 1305. 728. 1168. 556. 787. 692.
      771. 2920. 1128. 4173. 1809. 1348. 749. 1518. 705. 1108. 5408.
      1253. 2822. 509. 1501. 890. 1083. 740. 1144. 824. 1120. 364. 498.
      589. 532. 551. 940. 935. 840. 587. 836. 618. 494. 2111. 783. 5354.
      1072. 1070. 891. 1731. 701. 821. 2987. 822. 2505. 483. 1867. 710.
      1378. 463. 892. 1259. 1281. 401. 643. 1839. 1342. 806. 901. 736.
      744. 1039. 783. 1032. 580. 1797. 758. 1964. 710. 4462. 1079. 3173.
      772. 886. 1711. 794. 1632. 1075. 2877. 729. 1467. 815. 755. 698.
      698. 1250. 1099. 864. 583. 724. 642. 605. 631. 980. 833. 1205.
      957. 1068. 751. 1376. 792. 2244. 1181. 3353. 902. 883. 1402. 514.
      1410. 1262. 3158. 1022. 3066. 704. 554. 548. 738. 923. 867. 1278.
      931. 857. 993. 506. 624. 838. 803. 872. 995. 1421. 837. 1424. 704.
      3473. 789. 2792. 639. 837. 1683. 798. 936. 589. 1872. 690. 2113.
      568. 859. 586. 614. 633. 965. 605. 601. 639. 706. 646. 621. 752.
      810. 934. 967. 1371. 685. 1263. 608. 3538. 1162. 3733. 728. 850.
      1857. 575. 986. 850. 3217. 1061. 3323. 702. 801. 575. 518. 721.
      890. 1178. 683.</_>
    <_>
      832. 1128. 882. 764. 578. 704. 841. 633. 4384. 693. 3133. 621.
      1320. 474. 1813. 430. 1279. 5749. 1150. 3282. 735. 1647. 1122.
      1404. 976. 927. 995. 906. 585. 513. 616. 460. 802. 974. 798. 821.
      638. 760. 798. 696. 1854. 557. 2376. 676. 845. 643. 1792. 597.
      1022. 3435. 684. 2963. 749. 1873. 990. 1964. 596. 1043. 594. 1203.
      423. 684. 1153. 1248. 774. 1186. 576. 988. 530. 735. 647. 767.
      3065. 1018. 3891. 1606. 1334. 679. 1774. 657. 981. 5585. 1092.
      2806. 477. 1390. 831. 1204. 775. 1183. 825. 1123. 374. 475. 593.
      560. 562. 914. 837. 845. 593. 829. 601. 507. 1812. 619. 5802.
      1061. 1187. 828. 2023. 466. 798. 2951. 804. 2736. 494. 1985. 591.
      1363. 597. 846. 1203. 1336. 375. 611. 1790. 1437. 844. 845. 683.
      728. 1028. 973. 859. 609. 2018. 689. 1858. 670. 5390. 1031. 3280.
      665. 786. 1878. 764. 1609. 1116. 2876. 676. 1459. 781. 624. 606.
      709. 1267. 1225. 685. 571. 718. 651. 667. 674. 799. 840. 1091.
      985. 945. 688. 1321. 748. 2372. 985. 3932. 773. 838. 1323. 553.
      1419. 1234. 3018. 1066. 2854. 562. 695. 528. 817. 967. 998. 1186.
      946. 867. 972. 527. 668. 808. 948. 823. 946. 1720. 704. 1477. 635.
      3995. 746. 2900. 606. 695. 1667. 646. 932. 648. 1775. 687. 2148.
      656. 815. 561. 601. 597. 852. 622. 607. 682. 684. 641. 607. 692.
      790. 910. 1036. 1392. 706. 1533. 559. 3981. 856. 4663. 654. 885.
      1765. 583. 1014. 737. 2859. 945. 3437. 660. 795. 491. 506. 777.
      873. 1162. 748.</_>
    <_>
      10611. 707. 438. 452. 716. 599. 527. 524. 4595. 551. 3224. 553.
      1817. 406. 1452. 584. 674. 2869. 481. 2144. 561. 2083. 711. 1330.
      1048. 804. 704. 547. 847. 590. 487. 394. 907. 655. 737. 656. 687.
      686. 535. 571. 2699. 458. 2279. 518. 1216. 378. 1830. 493. 679.
      1590. 420. 1609. 687. 1196. 524. 809. 571. 752. 471. 517. 469.
      528. 684. 613. 309. 552. 468. 750. 819. 658. 440. 472. 2480. 798.
      4268. 1461. 1747. 728. 1530. 749. 708. 2019. 720. 1053. 611. 1533.
      597. 872. 588. 869. 521. 698. 465. 633. 404. 609. 572. 534. 999.
      830. 497. 617. 662. 569. 2106. 617. 5903. 1117. 1234. 643. 2106.
      627. 517. 1346. 718. 1566. 473. 1462. 669. 1131. 358. 564. 700.
      736. 357. 478. 590. 497. 466. 671. 340. 401. 1088. 917. 864. 690.
      1295. 538. 1577. 718. 5306. 1197. 3812. 930. 518. 1290. 430. 917.
      1273. 2898. 962. 2295. 719. 473. 681. 608. 2042. 1593. 980. 994.
      629. 451. 661. 604. 1408. 1100. 1504. 1308. 1145. 490. 1815. 677.
      3866. 1511. 5886. 1390. 817. 1194. 679. 1273. 1991. 3289. 1379.
      2930. 712. 916. 496. 476. 1533. 1169. 1439. 1052. 448. 534. 410.
      529. 909. 948. 1002. 1239. 1266. 443. 1349. 917. 4043. 1099. 4613.
      1576. 607. 1584. 550. 765. 1042. 1993. 1051. 2490. 331. 577. 501.
      616. 886. 1137. 929. 1596. 637. 560. 977. 953. 945. 997. 1658.
      1815. 1570. 603. 2004. 879. 5257. 1175. 7078. 1457. 794. 1787.
      811. 1621. 1099. 3216. 1386. 3725. 520. 600. 617. 586. 868. 838.
      1685. 851.</_>
    <_>
      11370. 1068. 1135. 964. 711. 888. 686. 532. 4220. 1156. 5290.
      1402. 1941. 657. 1779. 581. 1290. 3749. 1612. 3239. 882. 1904.
      976. 1198. 1394. 803. 1315. 1107. 629. 571. 583. 446. 988. 1211.
      909. 886. 521. 910. 525. 454. 2654. 966. 3598. 1146. 1056. 688.
      2182. 620. 1084. 2245. 879. 2302. 548. 1576. 654. 1409. 564. 840.
      855. 911. 370. 586. 850. 604. 827. 1217. 1036. 980. 324. 652. 586.
      535. 3975. 1469. 5954. 2053. 1334. 822. 1578. 654. 1281. 3593.
      1564. 2113. 635. 1297. 918. 999. 978. 1249. 1238. 1284. 394. 524.
      497. 426. 779. 944. 1306. 1062. 502. 845. 490. 405. 2782. 1142.
      6143. 1541. 965. 956. 1858. 574. 874. 2427. 1051. 2497. 541. 2098.
      617. 1440. 719. 895. 909. 1082. 312. 645. 747. 742. 817. 514. 471.
      552. 741. 649. 446. 412. 2428. 556. 2621. 804. 4076. 615. 2496.
      619. 671. 1133. 685. 1032. 969. 2756. 721. 1791. 691. 553. 836.
      575. 899. 966. 579. 495. 457. 446. 538. 581. 542. 706. 464. 579.
      1005. 655. 1297. 795. 2038. 910. 4787. 699. 736. 1193. 535. 1441.
      1288. 2437. 832. 2425. 402. 690. 708. 796. 602. 664. 831. 628.
      678. 792. 479. 540. 529. 624. 650. 666. 1394. 682. 1505. 556.
      3289. 742. 2905. 560. 686. 1404. 690. 742. 584. 1778. 657. 1743.
      402. 654. 616. 528. 490. 680. 432. 492. 539. 516. 475. 513. 482.
      569. 849. 830. 1315. 804. 1480. 501. 3189. 704. 5477. 381. 797.
      1963. 600. 1554. 802. 3191. 976. 3208. 511. 729. 557. 714. 449.
      694. 695. 546.</_>
    <_>
      10489. 711. 634. 628. 941. 756. 872. 604. 4394. 919. 3143. 944.
      1374. 676. 1718. 594. 795. 3251. 754. 2296. 917. 2362. 896. 1647.
      1129. 767. 1020. 636. 857. 767. 694. 474. 1067. 786. 629. 706.
      852. 979. 733. 709. 2385. 585. 2330. 721. 978. 626. 1591. 706.
      716. 1651. 514. 1601. 824. 1439. 794. 1176. 565. 636. 586. 696.
      546. 670. 699. 854. 640. 686. 645. 574. 1013. 953. 1029. 768.
      2928. 993. 3722. 1643. 1381. 967. 1598. 976. 819. 2336. 887. 1230.
      751. 1903. 762. 1108. 718. 943. 769. 843. 547. 843. 628. 667. 601.
      606. 936. 802. 445. 857. 531. 627. 1634. 735. 5295. 1067. 934.
      780. 1377. 655. 646. 1594. 912. 2086. 644. 2397. 737. 1411. 427.
      696. 827. 803. 517. 733. 767. 759. 771. 975. 639. 626. 885. 932.
      828. 729. 1138. 629. 1274. 868. 3741. 917. 2471. 829. 715. 1381.
      809. 1238. 1351. 2905. 1163. 2519. 900. 752. 784. 795. 1181. 1414.
      842. 742. 834. 689. 687. 820. 738. 933. 941. 892. 1060. 770. 1067.
      973. 1855. 1966. 3279. 1584. 967. 1559. 678. 1721. 1691. 3346.
      1218. 2996. 670. 916. 652. 782. 1244. 1350. 1356. 966. 728. 734.
      670. 752. 793. 935. 1446. 1381. 1233. 655. 1375. 988. 2218. 881.
      3080. 970. 686. 1344. 752. 909. 719. 1786. 836. 2206. 728. 908.
      828. 810. 647. 1120. 979. 1113. 763. 716. 1024. 897. 591. 913.
      1271. 1127. 1217. 914. 1723. 776. 2543. 993. 3505. 973. 1034.
      2258. 999. 2188. 1143. 3573. 1196. 3975. 759. 726. 1516. 815. 764.
      920. 1280. 838.</_>
    <_>
      23727. 706. 627. 554. 988. 623. 816. 492. 4219. 826. 3268. 766.
      1445. 554. 1640. 599. 719. 3916. 716. 2569. 613. 1558. 846. 1274.
      1014. 730. 757. 521. 911. 620. 715. 513. 859. 749. 596. 574. 824.
      792. 831. 640. 2648. 551. 2477. 711. 969. 626. 1759. 722. 422.
      1902. 380. 1876. 627. 1205. 784. 1232. 440. 958. 532. 550. 565.
      528. 802. 684. 577. 636. 592. 604. 883. 880. 867. 666. 2786. 920.
      4181. 1412. 1488. 1010. 1628. 756. 963. 3033. 1227. 1211. 720.
      1448. 677. 888. 676. 766. 679. 541. 575. 684. 602. 558. 437. 398.
      941. 617. 539. 759. 540. 599. 1715. 480. 5179. 970. 968. 799.
      1554. 635. 392. 1800. 659. 2319. 533. 2172. 694. 1553. 422. 549.
      929. 713. 570. 637. 807. 634. 680. 968. 546. 569. 924. 844. 844.
      718. 1158. 580. 1643. 761. 3491. 1051. 2316. 662. 628. 1467. 711.
      1090. 1118. 2795. 937. 2081. 892. 603. 849. 745. 1482. 1310. 842.
      814. 676. 638. 634. 736. 820. 875. 1044. 983. 976. 679. 1238. 875.
      2010. 1679. 3015. 1247. 706. 1330. 511. 1196. 1489. 3589. 1208.
      3318. 685. 753. 662. 649. 1044. 1068. 1123. 936. 764. 782. 725.
      618. 911. 889. 1215. 955. 1134. 757. 1328. 910. 2407. 983. 2863.
      1161. 589. 1475. 591. 732. 750. 1838. 673. 2199. 621. 779. 687.
      730. 718. 1011. 785. 1161. 837. 587. 934. 723. 764. 874. 1211.
      1232. 1665. 933. 1706. 722. 2432. 931. 3201. 971. 904. 1931. 819.
      1397. 946. 3886. 1067. 4081. 747. 779. 1311. 647. 771. 839. 1097.
      699.</_>
    <_>
      632. 635. 651. 575. 829. 699. 790. 626. 4290. 709. 3477. 735.
      1780. 564. 1974. 611. 700. 2527. 706. 2002. 854. 2147. 844. 1730.
      861. 658. 671. 497. 931. 680. 695. 448. 864. 803. 560. 585. 826.
      912. 815. 672. 2412. 499. 2204. 652. 1514. 690. 2117. 650. 648.
      1630. 532. 1633. 621. 1338. 557. 1049. 518. 981. 423. 717. 548.
      642. 817. 761. 533. 702. 591. 636. 939. 884. 887. 674. 2581. 777.
      3823. 1187. 1688. 831. 1832. 869. 740. 2140. 932. 1115. 662. 1861.
      869. 1177. 620. 855. 686. 801. 532. 778. 598. 614. 627. 674. 916.
      811. 515. 862. 796. 607. 1891. 677. 5420. 928. 1288. 940. 1925.
      790. 795. 2006. 824. 1805. 556. 2190. 700. 1249. 496. 879. 843.
      940. 403. 628. 718. 572. 694. 881. 699. 628. 1200. 1034. 1072.
      734. 1438. 671. 1806. 739. 3655. 1257. 2943. 1025. 587. 1486. 751.
      1302. 1362. 2780. 1174. 2273. 673. 595. 828. 774. 1826. 1360.
      1193. 985. 748. 759. 662. 790. 1171. 1264. 1418. 1079. 1161. 737.
      1867. 965. 2863. 1688. 4266. 1569. 822. 1551. 750. 1725. 1594.
      2957. 1380. 2989. 703. 1028. 605. 677. 1522. 1380. 1581. 1145.
      838. 870. 571. 612. 884. 1146. 1373. 1313. 1407. 773. 1528. 900.
      2724. 1359. 3448. 1514. 672. 1446. 782. 871. 959. 2266. 1114.
      2068. 541. 610. 645. 646. 906. 1057. 1144. 1259. 945. 666. 1006.
      823. 1006. 981. 1566. 1492. 1798. 799. 2141. 737. 3220. 1433.
      3976. 1312. 900. 2146. 942. 1952. 990. 3368. 1424. 3351. 807. 896.
      868. 792. 1026. 959. 1492. 896.</_>
    <_>
      1140. 969. 1050. 963. 950. 712. 956. 574. 3157. 874. 3581. 1314.
      1558. 749. 1984. 766. 1489. 3488. 1522. 2959. 917. 1289. 1078.
      1257. 1332. 709. 1064. 970. 790. 581. 726. 467. 1225. 1177. 838.
      1006. 926. 1043. 650. 503. 2048. 1116. 2669. 1118. 1125. 927.
      2457. 789. 1186. 2763. 777. 2220. 843. 1871. 693. 1464. 684. 1032.
      757. 941. 519. 680. 1031. 716. 822. 1054. 1014. 945. 520. 867.
      932. 837. 2437. 1429. 3850. 2152. 1215. 870. 1987. 818. 1175.
      3800. 1499. 2428. 529. 1490. 1061. 1224. 978. 1281. 1240. 1637.
      448. 725. 613. 455. 671. 1012. 938. 1220. 472. 930. 692. 555.
      2142. 1046. 4414. 1303. 999. 897. 2020. 646. 1010. 3119. 986.
      2713. 531. 2197. 697. 1466. 624. 986. 999. 1180. 383. 660. 958.
      718. 818. 761. 571. 734. 716. 733. 614. 490. 2114. 662. 2206.
      1126. 3498. 825. 2560. 897. 765. 998. 819. 1564. 1219. 2753. 779.
      1496. 874. 679. 812. 844. 957. 1086. 769. 652. 884. 657. 579. 920.
      733. 748. 704. 595. 967. 838. 1355. 1136. 2563. 914. 5610. 902.
      987. 1363. 637. 1451. 1683. 2747. 731. 2100. 642. 702. 648. 811.
      863. 995. 1319. 739. 920. 855. 732. 677. 582. 919. 1011. 969.
      1395. 886. 1364. 779. 3010. 1021. 3173. 788. 658. 1176. 689. 969.
      541. 1932. 877. 1883. 613. 745. 748. 685. 423. 696. 563. 452. 846.
      550. 729. 570. 635. 686. 1180. 737. 1492. 875. 1343. 580. 3912.
      922. 5499. 641. 1196. 1473. 880. 1407. 838. 2070. 1047. 2490. 898.
      791. 692. 662. 565. 736. 908. 460.</_>
    <_>
      1011. 843. 898. 698. 929. 769. 1050. 741. 3905. 873. 3382. 896.
      1517. 781. 1961. 729. 787. 2461. 962. 1966. 1071. 2419. 1108.
      1518. 1311. 1005. 1126. 671. 1203. 835. 820. 496. 1017. 907. 783.
      624. 879. 1089. 898. 591. 2905. 914. 2420. 1056. 1303. 1097. 2014.
      796. 1054. 1954. 568. 1376. 859. 1224. 612. 895. 875. 793. 603.
      568. 654. 669. 1133. 963. 834. 1098. 1005. 1146. 702. 777. 999.
      772. 3328. 1124. 4115. 1507. 1283. 1067. 1638. 951. 1046. 2615.
      1136. 1422. 830. 1515. 1023. 1018. 813. 1025. 996. 1074. 542. 809.
      696. 676. 813. 981. 1049. 893. 725. 886. 817. 663. 2377. 1083.
      5150. 1070. 1165. 1137. 1573. 827. 874. 2427. 914. 1919. 559.
      1484. 700. 1135. 639. 925. 821. 838. 461. 707. 1337. 834. 767.
      746. 718. 641. 1146. 916. 1044. 688. 1602. 792. 1830. 1127. 3688.
      1118. 2731. 856. 729. 971. 831. 936. 1271. 2100. 1253. 2279. 915.
      723. 903. 864. 1635. 1301. 1004. 1020. 832. 623. 875. 909. 1007.
      965. 1065. 931. 1078. 829. 1519. 1226. 1896. 1374. 3833. 1162.
      907. 1232. 1121. 1645. 1546. 2474. 1274. 2622. 762. 773. 689. 710.
      1021. 966. 1278. 1252. 940. 861. 742. 670. 861. 893. 943. 1000.
      1410. 763. 1202. 957. 2664. 989. 2556. 1077. 750. 1179. 869. 841.
      736. 1416. 989. 2049. 746. 668. 754. 824. 745. 982. 948. 1146.
      878. 820. 969. 1081. 740. 951. 1105. 1065. 1769. 1068. 1567. 858.
      2560. 1131. 2621. 919. 1129. 2038. 869. 2062. 854. 2642. 1138.
      3403. 827. 864. 680. 574. 853. 896. 1456. 902.</_>
    <_>
      954. 711. 897. 676. 945. 816. 1062. 745. 3764. 896. 3469. 929.
      1512. 796. 2070. 691. 795. 2369. 881. 1958. 1067. 2409. 1150.
      1582. 1315. 1021. 1070. 700. 1187. 850. 773. 535. 1006. 931. 822.
      718. 873. 1057. 898. 649. 2842. 789. 2525. 993. 1218. 1096. 2049.
      770. 1064. 1895. 577. 1361. 785. 1218. 625. 927. 983. 808. 635.
      624. 663. 641. 1104. 954. 829. 1116. 1033. 1132. 709. 767. 940.
      709. 3455. 1193. 4282. 1447. 1312. 1000. 1592. 938. 1076. 2652.
      1025. 1509. 761. 1598. 1019. 1043. 769. 1087. 909. 1010. 537. 746.
      739. 587. 752. 974. 1126. 962. 669. 915. 774. 593. 2467. 1094.
      5433. 1062. 1166. 1198. 1673. 847. 888. 2428. 868. 1898. 602.
      1590. 667. 1059. 608. 930. 826. 820. 472. 786. 1281. 873. 750.
      730. 737. 576. 1035. 948. 1069. 728. 1699. 830. 1870. 1063. 3573.
      951. 2776. 917. 723. 945. 890. 953. 1208. 2123. 1280. 2369. 930.
      647. 896. 803. 1572. 1290. 1030. 975. 873. 639. 876. 828. 1032.
      995. 1147. 900. 1183. 836. 1511. 1199. 1959. 1359. 3642. 1159.
      940. 1307. 1116. 1557. 1435. 2469. 1125. 2645. 764. 802. 705. 769.
      1039. 1000. 1264. 1240. 883. 890. 766. 695. 848. 845. 925. 1002.
      1556. 835. 1223. 959. 2592. 971. 2502. 1021. 820. 1180. 874. 745.
      622. 1364. 902. 2141. 751. 703. 791. 795. 687. 1051. 953. 1198.
      875. 801. 954. 1101. 712. 924. 1106. 1072. 1771. 1084. 1567. 800.
      2613. 1176. 2590. 1002. 1083. 2165. 827. 1958. 888. 2713. 1119.
      3502. 768. 785. 756. 594. 842. 877. 1561. 806.</_>
    <_>
      1063. 865. 811. 654. 880. 768. 1014. 742. 3612. 912. 3426. 835.
      1522. 778. 2065. 712. 820. 2649. 856. 2048. 990. 2333. 1129. 1588.
      1427. 957. 1162. 710. 1162. 913. 756. 496. 1043. 881. 834. 647.
      828. 960. 905. 621. 2959. 866. 2519. 936. 1221. 972. 2063. 711.
      1026. 2071. 528. 1438. 746. 1145. 628. 941. 944. 762. 614. 579.
      675. 665. 1125. 946. 938. 1115. 1029. 1188. 662. 652. 966. 678.
      3346. 1104. 4255. 1368. 1367. 1011. 1674. 952. 1024. 2714. 1118.
      1345. 764. 1610. 936. 919. 795. 1079. 1063. 995. 599. 805. 694.
      597. 784. 917. 1215. 957. 705. 974. 718. 669. 2429. 1059. 5372.
      1018. 1237. 1224. 1493. 870. 761. 2350. 854. 1962. 715. 1570. 763.
      1128. 617. 963. 909. 848. 531. 689. 1359. 793. 802. 732. 753. 616.
      1050. 950. 1142. 670. 1777. 781. 2073. 1026. 3547. 999. 2617. 934.
      742. 900. 755. 827. 1154. 2181. 1280. 2460. 947. 645. 1007. 786.
      1628. 1233. 946. 982. 835. 604. 750. 781. 1123. 1037. 1120. 946.
      1113. 837. 1590. 1180. 1886. 1502. 3517. 1207. 800. 1286. 991.
      1565. 1517. 2249. 1235. 2750. 765. 772. 790. 737. 1029. 1051.
      1223. 1248. 955. 844. 716. 673. 861. 834. 927. 993. 1424. 869.
      1323. 960. 2600. 1013. 2483. 1067. 810. 1304. 889. 776. 611. 1302.
      926. 2156. 798. 709. 750. 773. 749. 1002. 938. 1175. 857. 771.
      922. 1003. 739. 955. 1197. 1108. 1757. 1084. 1480. 865. 2585.
      1301. 2573. 1003. 1083. 1966. 968. 2067. 822. 2966. 1102. 3570.
      762. 815. 693. 621. 779. 919. 1532. 878.</_>
    <_>
      948. 805. 838. 734. 867. 827. 1003. 669. 3215. 972. 3482. 901.
      1423. 738. 1653. 726. 1175. 2928. 995. 2283. 1090. 2378. 1239.
      1754. 1349. 1079. 1083. 686. 1087. 935. 816. 590. 1125. 947. 856.
      786. 883. 1051. 823. 532. 2647. 1103. 2654. 961. 1303. 1091. 1855.
      699. 950. 1998. 580. 1469. 701. 1316. 675. 975. 931. 711. 620.
      713. 628. 650. 1041. 965. 965. 961. 1117. 1070. 612. 809. 962.
      845. 3179. 1334. 4569. 1364. 1182. 992. 1554. 885. 1112. 2606.
      1115. 1203. 753. 1772. 908. 1132. 785. 1263. 1058. 943. 547. 706.
      696. 600. 879. 859. 1142. 943. 627. 987. 794. 671. 2450. 1206.
      4897. 1113. 1125. 1089. 1442. 767. 884. 2407. 905. 1952. 503.
      1686. 756. 1120. 556. 937. 988. 962. 489. 644. 1357. 842. 841.
      722. 707. 670. 979. 841. 997. 753. 1640. 729. 1752. 997. 3383.
      946. 2857. 909. 697. 1062. 788. 1054. 1100. 2263. 1187. 2591. 962.
      630. 923. 812. 1702. 1302. 975. 1025. 868. 692. 882. 892. 1041.
      1035. 1087. 833. 1232. 877. 1356. 1171. 1865. 1334. 3561. 1129.
      833. 1246. 856. 1612. 1164. 2261. 1196. 2725. 642. 759. 722. 844.
      1084. 1083. 1150. 1263. 950. 906. 674. 700. 750. 887. 983. 1011.
      1363. 868. 1085. 831. 2621. 1079. 2423. 1200. 701. 1225. 880. 861.
      613. 1347. 957. 2217. 746. 663. 765. 746. 730. 880. 928. 1157.
      829. 845. 1024. 1168. 836. 937. 1125. 1130. 1617. 1020. 1359. 942.
      2548. 1113. 2333. 889. 1123. 2251. 1038. 2290. 855. 2782. 1111.
      3553. 744. 800. 763. 704. 926. 1065. 1596. 961.</_>
    <_>
      1119. 1121. 916. 904. 844. 704. 953. 627. 2797. 998. 2571. 1124.
      1586. 696. 2079. 752. 1429. 3759. 1192. 2294. 1123. 1403. 1145.
      1167. 1424. 1133. 940. 912. 822. 749. 751. 571. 1051. 979. 846.
      977. 934. 1155. 849. 749. 2271. 785. 2304. 1020. 1061. 852. 1937.
      867. 1223. 2446. 944. 1837. 970. 1224. 876. 1421. 1006. 1272. 889.
      967. 597. 589. 968. 930. 815. 1250. 961. 1280. 577. 957. 930. 868.
      2304. 1427. 3487. 1865. 1282. 958. 1498. 849. 1111. 3148. 1071.
      1994. 839. 1209. 1085. 1031. 796. 1435. 908. 1326. 530. 767. 753.
      748. 575. 815. 1144. 1152. 671. 1111. 762. 897. 1722. 1056. 4951.
      1065. 1226. 1001. 1800. 837. 944. 1802. 1032. 2077. 673. 1539.
      961. 1170. 668. 989. 1049. 1175. 513. 679. 1043. 1045. 804. 645.
      806. 860. 855. 857. 713. 616. 1777. 818. 2385. 1185. 4222. 918.
      3246. 707. 754. 1128. 770. 1370. 1449. 2784. 871. 1453. 853. 737.
      937. 761. 1184. 1264. 820. 608. 959. 715. 777. 942. 959. 876. 907.
      731. 979. 801. 1349. 970. 2107. 1111. 4979. 975. 1003. 1093. 633.
      1461. 1407. 2126. 1014. 2388. 644. 880. 684. 735. 1092. 865. 1075.
      835. 778. 719. 704. 774. 727. 877. 902. 1062. 1363. 898. 1352.
      841. 3517. 1000. 3084. 970. 866. 1246. 919. 830. 812. 1624. 971.
      1784. 614. 772. 631. 670. 573. 872. 770. 892. 977. 683. 829. 900.
      665. 759. 1063. 961. 1761. 1047. 1860. 765. 3289. 927. 4589. 858.
      1243. 1519. 894. 1387. 973. 1978. 1009. 2630. 805. 885. 801. 674.
      837. 677. 1024. 684.</_>
    <_>
      1329. 1188. 958. 987. 832. 762. 1023. 667. 2822. 834. 3101. 888.
      1448. 595. 2216. 697. 1184. 4415. 1037. 2471. 996. 1492. 1217.
      1444. 1527. 1223. 1019. 1033. 805. 674. 751. 634. 911. 1004. 844.
      910. 900. 1143. 838. 649. 2054. 752. 2706. 882. 1025. 702. 1987.
      696. 1038. 2606. 869. 1957. 819. 1383. 724. 1328. 924. 1285. 823.
      983. 535. 649. 935. 952. 712. 1163. 956. 1112. 663. 887. 929. 756.
      2439. 1334. 3549. 1628. 1381. 818. 1639. 749. 973. 3698. 1043.
      1995. 707. 1340. 967. 896. 823. 1355. 866. 1153. 505. 714. 705.
      706. 588. 871. 1239. 1226. 767. 975. 660. 792. 1945. 1007. 5066.
      1122. 1421. 1076. 1739. 753. 808. 2211. 1016. 1826. 613. 1861.
      851. 1143. 602. 906. 1195. 1196. 485. 843. 1185. 1033. 743. 771.
      858. 814. 828. 799. 763. 623. 1808. 717. 2614. 1133. 4080. 839.
      3540. 703. 723. 1165. 803. 1347. 1208. 2758. 926. 1561. 781. 650.
      1059. 798. 1174. 1112. 887. 721. 937. 816. 735. 920. 881. 952.
      874. 836. 958. 638. 1387. 942. 2045. 985. 4877. 979. 857. 1017.
      696. 1383. 1337. 1923. 983. 2469. 721. 897. 612. 777. 1022. 790.
      1196. 785. 858. 718. 643. 746. 874. 1026. 998. 1026. 1483. 865.
      1280. 645. 3391. 1001. 2910. 722. 807. 1400. 835. 837. 686. 1950.
      941. 1528. 637. 792. 692. 702. 668. 903. 760. 807. 986. 747. 756.
      901. 769. 806. 1029. 830. 1787. 1011. 1670. 816. 2918. 1015. 4370.
      725. 1288. 1746. 875. 1489. 901. 2405. 1040. 2684. 827. 1175. 777.
      718. 774. 836. 905. 696.</_>
    <_>
      839. 790. 837. 632. 830. 745. 1103. 740. 3041. 995. 3196. 976.
      1273. 793. 1951. 752. 955. 2876. 1124. 2301. 1060. 2286. 1298.
      1985. 1295. 940. 1015. 655. 1097. 790. 846. 494. 1353. 892. 887.
      709. 980. 991. 777. 553. 2635. 1038. 2261. 957. 1282. 1184. 1862.
      825. 1102. 1876. 610. 1481. 930. 1368. 723. 1188. 925. 659. 584.
      538. 704. 652. 1044. 1004. 850. 879. 994. 994. 560. 766. 981. 863.
      2758. 1213. 4174. 1676. 1169. 944. 1608. 1032. 1041. 2494. 1344.
      1319. 763. 1613. 962. 1154. 875. 1035. 1046. 955. 570. 811. 685.
      615. 866. 968. 1134. 1097. 698. 932. 808. 632. 2159. 1185. 4485.
      1291. 1248. 1173. 1423. 756. 879. 2634. 895. 1982. 662. 1835. 729.
      1274. 604. 1042. 859. 888. 426. 684. 1250. 968. 816. 707. 695.
      686. 1026. 876. 999. 760. 1601. 815. 1898. 1098. 2862. 1051. 2582.
      1050. 694. 1154. 903. 1239. 1113. 2253. 1259. 2174. 908. 632. 874.
      870. 1648. 1329. 1106. 934. 938. 739. 903. 956. 1094. 1036. 1045.
      907. 1236. 893. 1309. 1192. 1916. 1355. 3258. 1141. 900. 1159.
      1021. 1576. 1512. 2481. 1229. 2697. 817. 730. 756. 656. 1343.
      1070. 1097. 1041. 957. 696. 735. 658. 804. 884. 944. 1011. 1405.
      965. 1239. 1030. 2398. 1206. 2295. 1157. 819. 1528. 971. 1007.
      733. 1466. 969. 2092. 806. 760. 752. 790. 644. 863. 1038. 1105.
      872. 831. 912. 1019. 944. 1028. 1129. 1069. 1539. 1186. 1144. 938.
      2396. 1181. 2229. 906. 1140. 2257. 1139. 1977. 1049. 2933. 1102.
      3348. 833. 844. 705. 779. 882. 1027. 1363. 864.</_>
    <_>
      1041. 1092. 884. 833. 945. 624. 963. 588. 2278. 947. 2840. 1351.
      1672. 657. 2290. 779. 1202. 3693. 1176. 2502. 940. 1401. 1158.
      1366. 1222. 796. 1152. 924. 863. 602. 807. 461. 992. 1115. 743.
      773. 1005. 1160. 872. 568. 2365. 1095. 2291. 1095. 1262. 964.
      2157. 827. 1142. 2406. 865. 1655. 878. 1490. 1037. 1383. 832.
      1011. 692. 840. 612. 617. 880. 843. 858. 1139. 1105. 994. 642.
      787. 892. 749. 2205. 1485. 3241. 2227. 1403. 1011. 1801. 1084.
      1294. 3530. 1394. 2092. 732. 1371. 1112. 995. 884. 1297. 1190.
      1280. 447. 661. 748. 722. 715. 930. 1075. 1156. 676. 1044. 691.
      861. 2053. 1203. 3714. 1200. 1277. 1033. 1440. 769. 1113. 2170.
      1176. 2010. 709. 1799. 916. 1203. 696. 956. 968. 1095. 468. 706.
      775. 888. 717. 741. 819. 795. 948. 968. 794. 643. 1498. 746. 2354.
      1400. 3064. 863. 2757. 824. 743. 1238. 1124. 1379. 1426. 2557.
      1189. 1753. 1039. 669. 1076. 813. 1183. 1097. 998. 665. 799. 698.
      623. 740. 1173. 1117. 852. 803. 1289. 977. 1372. 1076. 1991. 1194.
      4188. 1132. 913. 1152. 725. 1097. 2039. 2392. 1306. 2468. 744.
      921. 672. 753. 967. 1050. 1361. 871. 796. 684. 691. 833. 706.
      1066. 822. 837. 1276. 1013. 1346. 1019. 2685. 1091. 2453. 1104.
      858. 1505. 1037. 852. 856. 1849. 1078. 1724. 664. 835. 656. 624.
      632. 933. 718. 859. 888. 727. 792. 784. 722. 884. 985. 826. 1824.
      1242. 1592. 831. 2411. 1277. 3254. 868. 1340. 1774. 929. 1168.
      1088. 2515. 1154. 2819. 854. 930. 669. 690. 707. 906. 1098. 842.</_>
    <_>
      1644. 1130. 1011. 987. 866. 782. 1028. 657. 2754. 783. 2972. 949.
      1437. 619. 2115. 673. 1169. 4443. 1122. 2592. 1016. 1509. 1195.
      1455. 1523. 1203. 1007. 1036. 828. 600. 809. 640. 920. 994. 887.
      953. 863. 1082. 895. 645. 2076. 739. 2659. 867. 1036. 742. 2086.
      647. 1013. 2652. 843. 1922. 696. 1350. 819. 1314. 916. 1275. 815.
      998. 558. 644. 925. 941. 774. 1114. 937. 1110. 694. 910. 872. 747.
      2356. 1266. 3520. 1542. 1298. 853. 1636. 738. 897. 3951. 1008.
      2017. 662. 1335. 911. 902. 818. 1366. 893. 1174. 541. 711. 718.
      674. 569. 842. 1090. 1189. 777. 1018. 700. 861. 1981. 959. 5208.
      1017. 1379. 1164. 1817. 717. 896. 2219. 946. 1744. 652. 1821. 877.
      1139. 640. 985. 1208. 1188. 485. 822. 1149. 1052. 773. 814. 821.
      807. 857. 779. 743. 642. 1827. 678. 2668. 1173. 4017. 811. 3596.
      699. 769. 1158. 790. 1327. 1134. 2673. 927. 1485. 834. 680. 1080.
      791. 1186. 1168. 877. 714. 903. 816. 761. 857. 914. 911. 834. 836.
      910. 704. 1402. 856. 2012. 961. 4902. 911. 845. 1053. 701. 1340.
      1380. 1722. 956. 2457. 696. 889. 703. 821. 920. 806. 1198. 746.
      864. 747. 655. 745. 782. 1063. 972. 1044. 1488. 805. 1270. 667.
      3456. 964. 2874. 739. 802. 1358. 765. 839. 690. 1912. 906. 1616.
      670. 838. 670. 693. 651. 932. 745. 768. 1030. 789. 748. 875. 772.
      865. 1078. 930. 1868. 1054. 1748. 759. 2960. 962. 4395. 677. 1227.
      1854. 819. 1442. 955. 2461. 1063. 2726. 861. 1113. 775. 737. 871.
      808. 856. 729.</_>
    <_>
      818. 1052. 752. 664. 794. 692. 919. 645. 3693. 994. 3129. 822.
      1448. 645. 1888. 658. 887. 3502. 978. 2528. 1001. 2229. 1076.
      1629. 1294. 878. 1090. 679. 1339. 832. 782. 552. 1265. 905. 872.
      764. 996. 983. 727. 523. 2833. 795. 2640. 703. 1271. 913. 1836.
      667. 916. 1877. 563. 1698. 750. 1248. 636. 1270. 843. 670. 515.
      556. 577. 584. 1004. 974. 747. 1017. 945. 776. 636. 708. 797. 727.
      3190. 1216. 4152. 1635. 1462. 953. 1711. 933. 1079. 2090. 1186.
      1225. 602. 1538. 967. 1033. 812. 1040. 1103. 932. 555. 846. 737.
      550. 852. 780. 1176. 1146. 582. 805. 834. 716. 2449. 1062. 5234.
      1262. 1266. 969. 1468. 807. 799. 2541. 793. 2254. 516. 1654. 779.
      1395. 622. 860. 758. 951. 371. 582. 1288. 771. 941. 1008. 707.
      680. 1154. 722. 937. 622. 1653. 788. 1721. 843. 3623. 1079. 2501.
      988. 629. 1146. 569. 920. 1128. 2707. 1005. 2563. 1027. 582. 755.
      739. 1693. 1376. 1028. 1006. 812. 543. 877. 829. 1075. 919. 1085.
      1094. 1253. 753. 1545. 1000. 2222. 1428. 3621. 1120. 916. 1076.
      856. 1327. 1597. 2811. 1175. 2888. 722. 666. 579. 593. 1254. 1169.
      1214. 1236. 800. 771. 631. 696. 844. 970. 1047. 1144. 1272. 873.
      1146. 862. 2752. 1005. 2412. 1171. 765. 1610. 714. 846. 631. 1732.
      937. 2508. 748. 807. 690. 960. 763. 1010. 874. 1243. 800. 691.
      881. 1013. 759. 928. 1172. 1346. 1530. 969. 1326. 900. 2441. 1001.
      2576. 904. 1110. 1891. 950. 2344. 924. 3028. 1240. 4078. 865. 826.
      746. 737. 782. 974. 1652. 982.</_>
    <_>
      938. 821. 810. 624. 882. 758. 1058. 684. 3040. 951. 3161. 969.
      1274. 719. 1946. 777. 871. 2893. 1146. 2371. 1102. 2366. 1254.
      2007. 1291. 928. 999. 636. 1164. 811. 883. 531. 1319. 871. 862.
      655. 935. 978. 775. 496. 2634. 1073. 2276. 949. 1314. 1168. 1881.
      764. 1097. 1915. 665. 1471. 899. 1418. 704. 1231. 905. 662. 621.
      546. 665. 630. 1038. 993. 838. 869. 971. 1044. 564. 765. 1047.
      807. 2740. 1277. 4095. 1634. 1176. 993. 1606. 1009. 1038. 2548.
      1217. 1401. 698. 1560. 911. 1210. 807. 1003. 1022. 951. 593. 827.
      689. 649. 863. 884. 1124. 1108. 695. 963. 817. 572. 2097. 1219.
      4490. 1285. 1229. 1092. 1502. 772. 831. 2633. 922. 2068. 725.
      1776. 716. 1250. 574. 1055. 863. 975. 440. 682. 1214. 1002. 811.
      719. 727. 678. 1030. 879. 1029. 773. 1605. 837. 1788. 1079. 2919.
      1085. 2544. 1100. 739. 1125. 848. 1246. 1164. 2298. 1205. 2316.
      872. 634. 806. 805. 1643. 1266. 1127. 955. 913. 716. 935. 920.
      1137. 1083. 1070. 955. 1237. 903. 1326. 1188. 1817. 1402. 3325.
      1155. 881. 1165. 1077. 1574. 1565. 2609. 1241. 2634. 778. 711.
      686. 656. 1262. 1080. 1095. 1085. 950. 726. 675. 704. 835. 858.
      951. 1040. 1444. 974. 1216. 1014. 2353. 1133. 2268. 1143. 792.
      1571. 922. 947. 728. 1479. 1053. 2158. 754. 750. 747. 802. 553.
      904. 1044. 1147. 881. 764. 989. 991. 879. 961. 1141. 1084. 1518.
      1234. 1108. 921. 2453. 1212. 2269. 906. 1107. 2227. 1091. 2075.
      1075. 2960. 1037. 3391. 891. 814. 715. 786. 915. 1038. 1354. 873.</_>
    <_>
      1024. 1092. 809. 823. 906. 696. 964. 601. 2194. 986. 2961. 1307.
      1615. 629. 2259. 790. 1203. 3867. 1203. 2571. 997. 1547. 1138.
      1247. 1222. 802. 1106. 966. 856. 577. 778. 458. 1003. 1134. 725.
      751. 1041. 1112. 794. 543. 2402. 1131. 2348. 1116. 1311. 929.
      2063. 817. 1082. 2542. 847. 1768. 915. 1523. 979. 1418. 772. 973.
      665. 855. 534. 632. 781. 856. 880. 1019. 1057. 963. 593. 771. 808.
      724. 2106. 1525. 3601. 2159. 1378. 1041. 1854. 1057. 1244. 3679.
      1310. 2193. 672. 1339. 1037. 1020. 871. 1241. 1062. 1265. 474.
      658. 780. 742. 754. 955. 1157. 1200. 675. 916. 658. 783. 2190.
      1186. 3670. 1161. 1263. 1016. 1414. 784. 1076. 2301. 1230. 2097.
      725. 1723. 870. 1253. 690. 987. 963. 1079. 471. 724. 845. 904.
      735. 670. 741. 754. 952. 1058. 880. 674. 1484. 681. 2234. 1374.
      3180. 924. 2799. 761. 739. 1271. 1064. 1252. 1347. 2595. 1147.
      1663. 1020. 645. 1051. 929. 1175. 1092. 1016. 678. 772. 736. 628.
      765. 1164. 1117. 800. 844. 1276. 911. 1490. 1052. 1971. 1104.
      4308. 1096. 924. 1278. 764. 1115. 1964. 2553. 1302. 2544. 724.
      816. 671. 722. 990. 1121. 1247. 917. 739. 679. 652. 806. 790.
      1068. 892. 892. 1173. 1075. 1423. 1128. 2714. 1039. 2460. 1023.
      858. 1511. 838. 780. 837. 1911. 1101. 1797. 663. 800. 658. 659.
      606. 886. 763. 915. 914. 661. 787. 812. 655. 788. 945. 832. 1717.
      1193. 1471. 925. 2574. 1164. 3405. 795. 1330. 1790. 874. 1250.
      1098. 2544. 1170. 2974. 874. 870. 714. 671. 764. 927. 1086. 820.</_>
    <_>
      984. 1114. 907. 833. 732. 626. 883. 624. 2631. 874. 3148. 1124.
      1560. 602. 2246. 704. 1101. 3958. 1148. 2968. 998. 1373. 1077.
      1386. 1276. 988. 1093. 855. 913. 683. 671. 536. 975. 1004. 913.
      856. 939. 1004. 758. 623. 2253. 860. 2607. 935. 1060. 814. 2037.
      830. 1066. 2507. 850. 2019. 780. 1376. 940. 1364. 926. 1097. 695.
      913. 520. 580. 766. 846. 856. 1092. 1050. 861. 624. 790. 731. 702.
      2456. 1500. 3447. 1892. 1387. 1030. 1711. 972. 1112. 3854. 1190.
      2088. 714. 1267. 918. 1005. 870. 1225. 962. 1180. 498. 700. 694.
      688. 696. 1033. 1331. 1213. 610. 908. 633. 633. 2328. 1088. 4526.
      1079. 1397. 959. 1619. 769. 963. 2409. 1101. 2184. 811. 1525. 853.
      1185. 541. 988. 900. 1036. 462. 829. 786. 988. 630. 705. 696. 767.
      991. 802. 849. 712. 1565. 669. 2291. 1211. 3272. 876. 3157. 833.
      719. 1222. 848. 1197. 1430. 3102. 1012. 1792. 882. 606. 948. 720.
      1317. 1164. 1041. 780. 757. 658. 694. 829. 1175. 1144. 807. 890.
      1159. 818. 1555. 1013. 2070. 982. 4789. 1145. 1005. 1200. 689.
      1091. 1840. 2615. 1016. 2593. 732. 1041. 747. 753. 985. 872. 1281.
      774. 745. 610. 770. 685. 734. 967. 911. 922. 1362. 800. 1387. 924.
      2858. 1087. 2593. 1020. 770. 1459. 849. 902. 762. 1964. 986. 1893.
      589. 694. 627. 672. 689. 923. 737. 993. 965. 756. 763. 891. 786.
      865. 1010. 760. 1619. 1133. 1588. 812. 2830. 1153. 3696. 833.
      1190. 1757. 969. 1296. 1084. 2538. 1113. 2899. 833. 1027. 658.
      715. 820. 880. 982. 792.</_>
    <_>
      1012. 913. 715. 756. 746. 702. 864. 589. 4121. 797. 2967. 924.
      1573. 673. 1756. 658. 1114. 3051. 1021. 2221. 1160. 2639. 942.
      1864. 1237. 1032. 982. 776. 1322. 1050. 649. 519. 1096. 1048. 867.
      918. 975. 1000. 902. 586. 2411. 942. 2644. 822. 1193. 826. 1702.
      577. 934. 1943. 486. 1748. 751. 1352. 664. 1166. 583. 666. 547.
      652. 587. 745. 1015. 908. 772. 919. 690. 995. 541. 832. 841. 795.
      3095. 1101. 3955. 1320. 1153. 960. 1529. 849. 938. 2009. 1128.
      1198. 737. 1474. 937. 1138. 853. 1154. 822. 1121. 543. 730. 600.
      548. 851. 859. 1278. 1168. 559. 914. 766. 628. 2330. 877. 5557.
      1077. 1129. 807. 1545. 794. 891. 2135. 929. 1928. 559. 1892. 696.
      1397. 694. 956. 859. 1113. 477. 785. 1286. 996. 837. 816. 700.
      820. 1014. 725. 902. 670. 1842. 662. 1706. 923. 3599. 871. 2520.
      947. 591. 1368. 507. 1347. 1235. 2960. 984. 3015. 757. 630. 794.
      1016. 1644. 1711. 804. 879. 837. 631. 869. 1001. 1029. 894. 1063.
      980. 1113. 714. 1217. 981. 1809. 1045. 3179. 958. 875. 1435. 838.
      1881. 1051. 2639. 1089. 3833. 664. 664. 560. 887. 1275. 1088.
      1348. 1209. 904. 844. 558. 785. 629. 1006. 798. 1121. 1616. 885.
      1057. 661. 2729. 991. 2585. 982. 663. 1175. 706. 980. 679. 1838.
      953. 2769. 766. 699. 667. 671. 699. 1049. 684. 1017. 998. 717.
      808. 1040. 844. 1146. 1136. 1167. 1868. 938. 1355. 742. 2655. 952.
      3219. 806. 1201. 2188. 898. 2493. 979. 2939. 1444. 4385. 837. 811.
      658. 613. 785. 852. 1533. 965.</_>
    <_>
      1113. 955. 870. 843. 830. 604. 796. 589. 3363. 935. 2973. 1144.
      1692. 721. 2229. 775. 1217. 3931. 1219. 2703. 993. 1573. 1206.
      1784. 1368. 777. 919. 844. 1085. 627. 614. 416. 1092. 972. 609.
      905. 947. 1097. 609. 598. 2416. 926. 2522. 957. 1077. 793. 2141.
      809. 987. 2464. 756. 2263. 898. 1562. 851. 1667. 657. 892. 660.
      918. 467. 591. 977. 977. 772. 928. 864. 794. 596. 775. 865. 715.
      2743. 1468. 3240. 1700. 1173. 1101. 1596. 965. 1009. 3936. 1151.
      2021. 777. 1332. 1091. 1128. 1036. 1197. 1091. 1340. 468. 703.
      591. 551. 691. 796. 1159. 1126. 510. 964. 623. 604. 2222. 989.
      4854. 1045. 1089. 952. 1794. 767. 883. 2214. 1015. 2340. 670.
      2187. 981. 1455. 548. 1012. 813. 1175. 336. 671. 999. 974. 845.
      821. 721. 773. 904. 765. 672. 539. 1479. 689. 2126. 1184. 3600.
      919. 2938. 765. 741. 1425. 953. 1447. 1348. 3124. 1026. 1533. 959.
      578. 829. 996. 1207. 1451. 861. 699. 708. 680. 547. 754. 849.
      1108. 701. 716. 1116. 909. 1390. 911. 2094. 1151. 4990. 991. 870.
      1363. 846. 1331. 1589. 2072. 1361. 2248. 500. 819. 692. 773. 955.
      1009. 1103. 713. 822. 700. 661. 674. 652. 1165. 840. 1121. 1364.
      765. 1270. 866. 2988. 1142. 2742. 950. 852. 1686. 952. 839. 895.
      2000. 1067. 1726. 637. 818. 752. 614. 558. 860. 487. 704. 851.
      657. 737. 885. 649. 721. 978. 790. 1685. 1069. 1295. 961. 3233.
      1155. 4395. 774. 1209. 1828. 943. 1642. 1054. 2448. 1113. 3173.
      841. 818. 762. 680. 671. 889. 845. 564.</_>
    <_>
      1023. 978. 787. 830. 725. 642. 765. 550. 3377. 944. 3018. 1090.
      1873. 767. 2075. 717. 1242. 4018. 1409. 2872. 962. 1532. 1143.
      1679. 1285. 862. 971. 800. 1035. 621. 585. 473. 955. 1033. 628.
      891. 816. 830. 605. 586. 2408. 870. 2544. 942. 1054. 745. 1932.
      802. 1087. 2346. 793. 2336. 923. 1599. 946. 1575. 761. 1016. 648.
      847. 433. 623. 866. 939. 798. 911. 809. 845. 605. 920. 894. 797.
      2774. 1344. 3387. 1541. 1171. 1084. 1619. 935. 1034. 4074. 1195.
      2213. 788. 1404. 976. 1041. 887. 1171. 1069. 1294. 466. 743. 634.
      588. 698. 755. 1196. 1194. 473. 853. 590. 680. 2321. 873. 5102.
      1036. 1049. 897. 1837. 771. 933. 2279. 1047. 2384. 684. 1929. 916.
      1592. 516. 893. 805. 1047. 308. 668. 948. 973. 691. 740. 643. 812.
      814. 821. 727. 528. 1557. 622. 2157. 1098. 3357. 884. 2925. 806.
      762. 1656. 1070. 1384. 1203. 3332. 939. 1643. 786. 525. 867. 867.
      1285. 1407. 883. 769. 709. 737. 541. 758. 1019. 1054. 809. 801.
      1003. 837. 1357. 953. 2216. 1138. 5140. 1047. 824. 1455. 850.
      1312. 1611. 2173. 1202. 2587. 503. 703. 609. 799. 1100. 1142.
      1072. 807. 688. 580. 609. 745. 668. 1167. 824. 1073. 1384. 669.
      1203. 802. 2919. 1203. 2662. 1085. 797. 1566. 859. 763. 904. 2027.
      1156. 1796. 577. 788. 717. 656. 570. 912. 619. 806. 838. 725. 735.
      850. 662. 721. 1044. 859. 1648. 1183. 1464. 884. 3335. 1211. 4241.
      809. 1311. 1806. 1003. 1393. 1136. 2609. 1195. 2968. 770. 900.
      632. 802. 732. 782. 799. 644.</_>
    <_>
      1022. 995. 743. 798. 770. 603. 800. 579. 3309. 812. 2892. 967.
      1771. 739. 2033. 755. 1248. 4051. 1317. 2859. 967. 1475. 1199.
      1747. 1274. 832. 984. 832. 1032. 631. 575. 459. 949. 1012. 658.
      889. 783. 850. 607. 559. 2338. 847. 2571. 958. 971. 920. 2088.
      774. 1119. 2294. 785. 2288. 892. 1565. 1011. 1569. 750. 1019. 631.
      860. 484. 646. 927. 1002. 810. 967. 836. 954. 582. 1010. 836. 748.
      2765. 1339. 3245. 1527. 1199. 1102. 1852. 938. 1045. 4275. 1214.
      2110. 796. 1275. 1081. 1113. 870. 1226. 1103. 1346. 481. 696. 653.
      600. 680. 785. 1180. 1151. 482. 836. 571. 762. 2273. 856. 5084.
      948. 1043. 970. 1761. 742. 961. 2331. 1043. 2345. 717. 1964. 957.
      1445. 502. 1012. 841. 1137. 350. 698. 1008. 967. 678. 795. 613.
      841. 888. 882. 650. 511. 1591. 669. 2106. 1039. 3395. 950. 2967.
      802. 768. 1681. 1040. 1360. 1258. 3296. 931. 1616. 713. 507. 835.
      855. 1258. 1345. 908. 746. 751. 781. 510. 775. 1033. 1082. 794.
      805. 1062. 893. 1300. 973. 2231. 1151. 5083. 1032. 821. 1397. 810.
      1393. 1589. 2092. 1237. 2607. 453. 725. 618. 812. 1021. 1142.
      1030. 819. 804. 697. 679. 690. 698. 1138. 870. 1047. 1366. 671.
      1226. 770. 2968. 1159. 2729. 926. 788. 1547. 950. 754. 944. 1969.
      1175. 1753. 575. 779. 721. 646. 557. 842. 626. 801. 839. 695. 689.
      940. 624. 723. 986. 944. 1616. 1156. 1456. 868. 3228. 1120. 4363.
      754. 1392. 1797. 998. 1437. 1057. 2496. 1226. 2927. 718. 952. 677.
      792. 693. 810. 811. 553.</_>
    <_>
      883. 593. 776. 662. 1028. 814. 1020. 643. 3205. 804. 2698. 1005.
      1331. 871. 1655. 729. 1103. 2282. 1004. 2039. 1416. 2559. 1168.
      2249. 1190. 700. 899. 653. 1301. 914. 843. 428. 1413. 1160. 850.
      849. 1178. 957. 956. 515. 2367. 1116. 2168. 1123. 1289. 1188.
      1982. 883. 1071. 2105. 675. 1552. 970. 1577. 731. 1377. 660. 694.
      584. 647. 706. 719. 1086. 847. 667. 803. 900. 997. 622. 1001.
      1160. 1084. 2548. 1431. 3812. 1942. 1012. 1222. 1474. 1166. 992.
      2497. 1431. 1529. 713. 1869. 1236. 1073. 944. 1095. 1124. 1213.
      483. 669. 721. 683. 882. 1022. 1097. 1113. 498. 870. 741. 611.
      2105. 1383. 4476. 1202. 908. 855. 1354. 760. 1035. 3117. 998.
      2128. 578. 2002. 827. 1013. 775. 994. 900. 1051. 439. 703. 1089.
      935. 618. 567. 646. 808. 963. 661. 859. 587. 1123. 731. 1318.
      1447. 3372. 1023. 2360. 1097. 725. 1203. 876. 1584. 1260. 2236.
      1052. 2548. 730. 678. 956. 977. 1676. 1594. 781. 709. 937. 717.
      757. 1065. 1058. 931. 969. 874. 1270. 1023. 1245. 1533. 1979.
      1262. 2960. 1196. 1223. 1563. 978. 1785. 1407. 2577. 1306. 3275.
      751. 860. 772. 937. 1092. 1150. 1231. 1020. 739. 675. 783. 990.
      618. 921. 1047. 1115. 1339. 911. 1161. 1021. 2382. 953. 2374. 928.
      850. 1436. 957. 1052. 711. 1589. 981. 2450. 563. 537. 795. 557.
      515. 907. 723. 912. 1065. 693. 1033. 972. 621. 794. 969. 834.
      1392. 1070. 1155. 778. 2025. 1000. 2421. 798. 1623. 2231. 1107.
      2354. 1073. 2974. 1208. 3519. 1031. 781. 621. 542. 722. 856. 1243.
      701.</_>
    <_>
      1026. 947. 902. 797. 801. 700. 775. 547. 2981. 828. 2943. 913.
      1737. 672. 2202. 549. 1142. 4375. 1156. 3110. 885. 1817. 983.
      1795. 1339. 888. 987. 919. 1011. 637. 676. 448. 917. 994. 749.
      850. 831. 969. 819. 552. 2198. 815. 2639. 830. 1157. 671. 2452.
      698. 981. 2457. 740. 2385. 711. 1617. 751. 1911. 792. 815. 796.
      853. 559. 636. 905. 884. 728. 935. 862. 954. 597. 695. 966. 822.
      2356. 1281. 3082. 1590. 1447. 948. 1841. 979. 937. 3332. 925.
      1735. 652. 1498. 863. 1049. 951. 1244. 924. 1235. 523. 699. 656.
      684. 765. 687. 1103. 1098. 660. 884. 734. 733. 2075. 963. 4866.
      1039. 1190. 884. 1778. 734. 740. 2244. 875. 2085. 644. 2048. 894.
      1627. 537. 871. 676. 950. 409. 758. 1061. 1042. 793. 711. 736.
      769. 725. 882. 586. 566. 1880. 665. 2468. 1100. 3678. 824. 3082.
      805. 673. 1950. 757. 1616. 1030. 3442. 806. 1637. 769. 547. 873.
      754. 1101. 1192. 970. 759. 897. 731. 701. 812. 921. 1027. 723.
      737. 1033. 785. 1470. 861. 2188. 806. 5619. 883. 788. 1515. 637.
      1504. 1290. 2256. 1095. 2457. 510. 757. 617. 765. 965. 1048. 1225.
      830. 712. 660. 664. 808. 636. 1109. 923. 1178. 1450. 767. 1217.
      865. 3170. 1072. 2994. 890. 764. 1647. 758. 811. 855. 2147. 952.
      1583. 702. 648. 870. 722. 583. 1029. 547. 693. 1010. 723. 761.
      971. 763. 757. 1078. 860. 1863. 1081. 1410. 928. 3484. 1080. 5013.
      781. 1353. 1925. 912. 1414. 1021. 2671. 1208. 2693. 820. 992. 738.
      809. 752. 886. 770. 582.</_>
    <_>
      918. 968. 811. 758. 891. 688. 815. 593. 3970. 890. 3207. 932.
      1417. 671. 1614. 717. 1177. 2845. 880. 2193. 1286. 2618. 1072.
      1969. 1282. 1053. 808. 692. 1244. 1041. 615. 479. 1209. 1017. 875.
      860. 936. 1043. 758. 588. 2681. 1055. 2751. 974. 1375. 1010. 1716.
      708. 875. 2000. 626. 1598. 815. 1357. 660. 1247. 655. 836. 493.
      738. 503. 712. 799. 886. 643. 828. 825. 967. 517. 790. 821. 812.
      2935. 1189. 4552. 1422. 1271. 927. 1572. 1027. 1082. 2360. 1221.
      1451. 657. 1517. 1013. 1094. 959. 1079. 819. 1066. 501. 683. 583.
      545. 849. 879. 1344. 1110. 566. 761. 670. 604. 2366. 905. 5709.
      1137. 1023. 887. 1524. 729. 919. 2201. 1036. 1917. 547. 1788. 821.
      1355. 709. 839. 830. 1069. 433. 690. 1148. 850. 711. 764. 671.
      766. 920. 742. 869. 705. 1894. 637. 1537. 977. 3781. 816. 2593.
      802. 602. 1188. 736. 1466. 1205. 2747. 793. 2719. 723. 675. 753.
      954. 1718. 1678. 820. 847. 884. 648. 780. 950. 973. 963. 945.
      1069. 1170. 939. 1157. 1063. 1845. 953. 3411. 876. 866. 1446. 880.
      1790. 1353. 2489. 1091. 3640. 648. 740. 607. 792. 1373. 1023.
      1351. 1186. 763. 773. 676. 832. 663. 1007. 916. 1193. 1565. 829.
      1107. 836. 2652. 902. 2647. 980. 731. 1139. 746. 926. 668. 1771.
      910. 2727. 634. 615. 675. 648. 619. 1117. 754. 1028. 938. 731.
      869. 1028. 761. 998. 1101. 1088. 1699. 918. 1363. 732. 2601. 887.
      3046. 706. 1220. 2164. 907. 2467. 957. 3136. 1239. 4311. 856. 751.
      607. 664. 888. 786. 1620. 989.</_>
    <_>
      1013. 782. 923. 696. 965. 869. 1124. 671. 3430. 952. 2466. 995.
      1575. 741. 1836. 618. 1176. 2918. 1192. 2181. 1311. 2375. 1175.
      1569. 1015. 778. 851. 712. 1092. 929. 877. 482. 1090. 1028. 757.
      773. 1084. 1074. 844. 759. 2223. 1033. 2311. 1071. 1311. 1084.
      1922. 934. 951. 1573. 698. 1654. 820. 1470. 837. 1078. 676. 765.
      607. 912. 669. 687. 946. 856. 713. 974. 1134. 928. 656. 901. 1042.
      863. 2851. 1194. 3820. 1555. 1228. 1067. 1432. 770. 1006. 2195.
      1314. 1216. 669. 1540. 1090. 1119. 925. 1078. 1004. 1050. 493.
      836. 680. 541. 823. 970. 991. 1000. 623. 930. 686. 792. 2038.
      1257. 4444. 1136. 990. 926. 1440. 735. 1021. 2044. 1015. 2199.
      646. 1838. 903. 1529. 666. 1087. 1200. 1037. 407. 693. 1433. 942.
      833. 827. 782. 783. 890. 773. 834. 707. 1525. 720. 1430. 1094.
      3064. 965. 2519. 957. 644. 1182. 849. 1248. 1240. 3216. 1047.
      2670. 818. 640. 830. 1000. 1815. 1837. 942. 970. 888. 797. 889.
      1066. 672. 951. 908. 992. 1244. 1060. 1512. 1398. 1699. 1159.
      2975. 1065. 987. 1105. 811. 1553. 1508. 2454. 1200. 3111. 758.
      742. 720. 1007. 1179. 1046. 1247. 1130. 928. 886. 773. 803. 757.
      1110. 932. 1253. 1450. 923. 1041. 689. 2148. 983. 2307. 932. 804.
      1619. 888. 938. 532. 1790. 917. 2388. 709. 788. 752. 594. 665.
      1268. 694. 992. 981. 802. 942. 967. 734. 1015. 1044. 1047. 1486.
      1107. 1470. 764. 2363. 903. 2861. 660. 1470. 2168. 1157. 2144.
      962. 3162. 1219. 4193. 962. 873. 749. 674. 713. 825. 1166. 769.</_>
    <_>
      947. 801. 941. 744. 822. 667. 1071. 632. 2667. 1120. 2541. 1210.
      1831. 864. 2065. 768. 1390. 3242. 1254. 2308. 1168. 1441. 1245.
      1297. 1216. 828. 861. 791. 1088. 709. 760. 418. 1050. 1071. 712.
      889. 919. 1009. 773. 585. 2272. 861. 2256. 1127. 1298. 911. 2129.
      819. 1238. 2105. 824. 1815. 1114. 1370. 1073. 1356. 621. 842. 663.
      837. 603. 619. 977. 1058. 609. 983. 851. 947. 607. 976. 1016.
      1030. 2077. 1440. 2859. 1938. 1210. 1166. 1498. 1119. 1165. 3299.
      1121. 1811. 751. 1399. 1230. 1168. 764. 1281. 951. 1220. 415. 763.
      655. 563. 618. 819. 1097. 1076. 518. 987. 768. 688. 1997. 1254.
      3931. 1207. 1097. 1069. 1632. 860. 1022. 1817. 1002. 2294. 691.
      1843. 1024. 1420. 537. 902. 1046. 1176. 339. 712. 1152. 996. 838.
      678. 734. 760. 565. 849. 764. 597. 1400. 746. 2163. 1348. 3290.
      885. 3024. 864. 1016. 1157. 1079. 1335. 1302. 3135. 1119. 1474.
      950. 641. 1101. 971. 1285. 1436. 988. 881. 945. 752. 683. 890.
      853. 991. 860. 852. 1093. 1019. 1314. 1221. 2034. 1226. 4698.
      1175. 1082. 1073. 759. 1295. 1494. 2446. 1553. 2113. 685. 706.
      666. 703. 994. 1067. 1273. 830. 696. 598. 805. 798. 666. 1250.
      1043. 1276. 1335. 1043. 1256. 1088. 2819. 1221. 2514. 894. 807.
      1290. 821. 894. 860. 1986. 1120. 1816. 687. 971. 750. 858. 455.
      880. 586. 679. 1011. 764. 839. 876. 781. 814. 1053. 818. 1675.
      1353. 1581. 906. 2988. 1299. 4123. 740. 1715. 1706. 997. 1336.
      1221. 2628. 1361. 2545. 1068. 1106. 655. 666. 691. 858. 930. 638.</_>
    <_>
      842. 811. 810. 612. 869. 596. 991. 483. 2824. 926. 2723. 1081.
      1785. 822. 2168. 842. 1060. 3723. 1321. 2466. 997. 1882. 1227.
      1440. 1153. 712. 986. 825. 1072. 676. 834. 431. 1076. 979. 770.
      736. 848. 1079. 746. 549. 2368. 929. 2440. 1098. 1192. 814. 2083.
      804. 939. 2096. 765. 1858. 1116. 1391. 957. 1472. 692. 843. 627.
      834. 523. 484. 860. 916. 713. 1018. 815. 818. 547. 915. 974. 912.
      2247. 1463. 3080. 1756. 1470. 1082. 1652. 1097. 1202. 3610. 1403.
      1520. 793. 1300. 1131. 1047. 790. 1207. 944. 1095. 427. 714. 606.
      539. 680. 852. 1191. 1193. 584. 800. 723. 687. 2228. 1283. 4256.
      1252. 992. 1052. 1622. 821. 952. 2008. 963. 1896. 621. 1932. 832.
      1463. 577. 914. 948. 1180. 339. 709. 1190. 960. 678. 691. 647.
      712. 664. 845. 863. 562. 1249. 807. 2274. 1288. 3238. 999. 3043.
      850. 837. 1439. 1092. 1329. 1291. 3035. 1348. 1608. 989. 500. 992.
      1002. 1325. 1256. 1049. 868. 839. 700. 644. 908. 1028. 868. 1005.
      716. 1126. 1039. 1412. 1159. 1964. 1465. 4286. 1248. 1123. 1247.
      737. 1162. 1544. 2380. 1438. 2668. 707. 765. 593. 693. 1074. 1053.
      1241. 786. 696. 612. 707. 760. 780. 1093. 1030. 1188. 1229. 917.
      1141. 988. 2543. 1161. 2749. 937. 813. 1692. 890. 875. 848. 2103.
      1256. 1991. 726. 810. 657. 666. 478. 992. 595. 835. 925. 798. 719.
      916. 750. 799. 928. 831. 1664. 1365. 1498. 893. 2908. 1430. 3810.
