<?xml version="1.0"?>
<opencv_storage>
<opencv_ml_svm>
  <format>3</format>
  <svmType>C_SVC</svmType>
  <kernel>
    <type>RBF</type>
    <gamma>1.0000000000000001e-05</gamma></kernel>
  <C>1.0000000000000001e-01</C>
  <term_criteria><epsilon>1.1920928955078125e-07</epsilon>
    <iterations>1000</iterations></term_criteria>
  <var_count>256</var_count>
  <class_count>2</class_count>
  <class_labels type_id="opencv-matrix">
    <rows>2</rows>
    <cols>1</cols>
    <dt>i</dt>
    <data>
      0 1</data></class_labels>
  <sv_total>2000</sv_total>
  <support_vectors>
    <_>
      442. 185. 237. 234. 205. 212. 151. 248. 476. 415. 413. 341. 239.
      317. 236. 280. 204. 452. 406. 568. 241. 368. 259. 322. 155. 249.
      246. 210. 127. 232. 145. 141. 194. 151. 467. 249. 312. 285. 331.
      253. 319. 294. 261. 202. 765. 840. 465. 379. 164. 204. 289. 308.
      540. 551. 660. 702. 143. 239. 192. 194. 267. 287. 206. 189. 209.
      287. 208. 236. 126. 157. 115. 143. 510. 525. 438. 383. 201. 191.
      147. 136. 523. 771. 626. 789. 201. 340. 267. 305. 300. 480. 312.
      342. 173. 301. 168. 142. 141. 179. 156. 137. 114. 167. 147. 107.
      245. 226. 167. 180. 624. 507. 290. 180. 283. 345. 416. 356. 316.
      502. 540. 831. 244. 270. 130. 155. 279. 273. 225. 154. 240. 172.
      273. 259. 157. 145. 184. 224. 838. 558. 534. 462. 245. 240. 284.
      333. 249. 329. 488. 654. 113. 124. 217. 270. 142. 171. 207. 212.
      106. 145. 144. 167. 155. 130. 373. 223. 259. 201. 358. 296. 261.
      206. 295. 266. 660. 489. 690. 438. 153. 148. 221. 249. 399. 347.
      615. 577. 173. 163. 179. 153. 192. 271. 196. 173. 280. 208. 274.
      290. 212. 213. 214. 191. 714. 621. 650. 708. 348. 255. 255. 205.
      470. 426. 836. 948. 178. 260. 332. 314. 380. 378. 365. 432. 178.
      249. 175. 168. 162. 135. 196. 156. 203. 232. 200. 140. 228. 184.
      240. 206. 520. 263. 360. 166. 298. 239. 428. 335. 265. 305. 425.
      385. 274. 208. 199. 193. 246. 186. 177. 128.</_>
    <_>
      549. 220. 377. 307. 219. 236. 144. 183. 526. 351. 520. 311. 305.
      247. 199. 267. 213. 347. 328. 492. 238. 298. 280. 320. 194. 220.
      327. 225. 163. 216. 226. 195. 198. 140. 477. 240. 326. 240. 321.
      278. 376. 259. 389. 244. 596. 556. 357. 255. 152. 166. 360. 293.
      571. 510. 708. 601. 140. 154. 267. 146. 259. 233. 261. 216. 257.
      338. 267. 344. 200. 235. 117. 171. 462. 518. 356. 377. 229. 214.
      158. 145. 445. 721. 562. 786. 203. 415. 275. 372. 302. 431. 321.
      321. 211. 319. 196. 191. 125. 158. 184. 203. 164. 166. 107. 141.
      195. 219. 219. 185. 422. 378. 209. 186. 250. 291. 404. 445. 330.
      476. 573. 942. 173. 211. 227. 229. 198. 255. 219. 222. 246. 189.
      263. 302. 205. 215. 128. 176. 722. 520. 537. 480. 329. 362. 244.
      298. 276. 290. 394. 563. 160. 187. 215. 258. 191. 233. 203. 257.
      144. 181. 148. 228. 187. 154. 504. 288. 330. 275. 319. 269. 348.
      289. 330. 305. 478. 383. 449. 303. 203. 211. 333. 246. 402. 359.
      662. 582. 200. 199. 180. 215. 216. 234. 186. 176. 280. 298. 271.
      360. 280. 255. 170. 202. 646. 602. 497. 704. 479. 384. 215. 250.
      444. 420. 607. 813. 210. 264. 250. 308. 418. 470. 269. 428. 226.
      299. 177. 236. 152. 147. 178. 209. 231. 247. 134. 127. 212. 193.
      190. 167. 428. 296. 219. 140. 267. 200. 390. 331. 281. 308. 406.
      421. 226. 154. 172. 209. 225. 203. 161. 188.</_>
    <_>
      268. 148. 234. 221. 208. 179. 114. 134. 495. 286. 350. 205. 330.
      242. 204. 140. 231. 337. 422. 576. 275. 304. 379. 325. 151. 150.
      416. 168. 165. 177. 296. 233. 157. 113. 374. 228. 258. 204. 242.
      214. 263. 211. 280. 216. 707. 593. 420. 378. 227. 231. 502. 534.
      610. 586. 709. 715. 126. 118. 407. 230. 214. 178. 396. 209. 201.
      232. 215. 280. 241. 301. 93. 162. 487. 482. 258. 286. 222. 181.
      129. 122. 452. 616. 604. 950. 283. 408. 360. 478. 174. 281. 227.
      277. 121. 191. 210. 160. 127. 134. 145. 280. 259. 349. 135. 309.
      199. 153. 156. 124. 421. 355. 253. 254. 330. 375. 521. 746. 500.
      725. 726. 1044. 134. 143. 207. 197. 231. 224. 270. 287. 213. 120.
      156. 189. 222. 166. 143. 151. 634. 415. 251. 248. 353. 268. 150.
      204. 290. 220. 448. 717. 278. 204. 272. 318. 165. 162. 151. 179.
      122. 166. 161. 261. 180. 105. 331. 200. 355. 254. 396. 290. 310.
      244. 201. 213. 796. 620. 475. 519. 267. 184. 458. 461. 519. 378.
      720. 593. 247. 173. 246. 231. 200. 222. 333. 311. 251. 200. 132.
      274. 357. 383. 135. 239. 521. 407. 238. 444. 444. 314. 150. 247.
      449. 405. 618. 884. 360. 392. 332. 493. 190. 243. 155. 244. 145.
      162. 145. 189. 104. 107. 121. 160. 231. 350. 166. 217. 217. 137.
      195. 192. 360. 372. 171. 219. 312. 219. 458. 589. 500. 576. 492.
      670. 196. 100. 158. 161. 185. 162. 155. 167.</_>
    <_>
      445. 209. 294. 234. 193. 204. 119. 150. 535. 379. 443. 393. 295.
      267. 207. 214. 279. 362. 401. 447. 230. 292. 209. 286. 177. 238.
      381. 281. 129. 143. 216. 186. 111. 92. 271. 186. 297. 238. 275.
      191. 334. 228. 358. 243. 846. 666. 589. 402. 123. 191. 277. 193.
      640. 533. 738. 769. 140. 128. 261. 225. 259. 202. 235. 218. 286.
      452. 252. 375. 142. 245. 68. 112. 516. 604. 356. 489. 183. 236.
      198. 194. 444. 628. 581. 716. 173. 287. 228. 294. 202. 284. 313.
      335. 153. 251. 186. 164. 116. 173. 176. 210. 191. 266. 103. 160.
      228. 227. 225. 210. 684. 510. 359. 372. 281. 320. 341. 399. 356.
      559. 546. 858. 168. 162. 180. 204. 233. 229. 218. 216. 316. 215.
      233. 238. 222. 160. 109. 110. 856. 627. 501. 480. 303. 286. 232.
      294. 364. 353. 427. 557. 228. 190. 182. 212. 299. 291. 303. 335.
      125. 150. 159. 217. 166. 93. 252. 164. 353. 240. 342. 265. 387.
      243. 349. 246. 915. 612. 538. 503. 208. 151. 300. 191. 554. 444.
      759. 674. 282. 184. 240. 281. 248. 228. 253. 296. 363. 415. 246.
      309. 323. 311. 130. 155. 656. 657. 443. 571. 425. 360. 180. 247.
      492. 405. 497. 562. 227. 239. 220. 263. 306. 304. 245. 291. 173.
      271. 117. 168. 135. 152. 123. 161. 248. 340. 159. 150. 217. 142.
      203. 175. 526. 314. 252. 201. 306. 185. 305. 258. 298. 333. 359.
      341. 165. 94. 135. 115. 198. 124. 119. 137.</_>
    <_>
      194. 180. 240. 212. 166. 211. 125. 162. 406. 274. 370. 259. 266.
      282. 201. 199. 171. 368. 374. 628. 198. 316. 264. 305. 146. 189.
      335. 202. 111. 184. 236. 189. 140. 98. 383. 222. 406. 303. 402.
      311. 251. 214. 273. 175. 638. 630. 481. 471. 127. 204. 284. 288.
      596. 583. 857. 687. 129. 171. 245. 236. 252. 263. 370. 296. 193.
      319. 192. 308. 161. 236. 86. 118. 420. 587. 269. 276. 223. 241.
      153. 161. 511. 874. 657. 1121. 196. 373. 198. 305. 266. 434. 252.
      255. 173. 317. 148. 177. 103. 147. 125. 128. 251. 306. 195. 178.
      173. 206. 166. 188. 556. 518. 326. 389. 274. 271. 390. 361. 417.
      768. 647. 970. 180. 202. 171. 140. 318. 321. 318. 261. 213. 136.
      223. 224. 191. 187. 137. 171. 597. 458. 372. 365. 296. 312. 236.
      261. 365. 319. 556. 1019. 207. 139. 232. 291. 169. 160. 219. 296.
      101. 112. 156. 203. 151. 94. 408. 198. 361. 347. 394. 306. 287.
      211. 304. 224. 768. 571. 663. 507. 201. 133. 302. 251. 463. 301.
      688. 584. 190. 155. 185. 182. 319. 271. 327. 220. 268. 256. 208.
      327. 316. 269. 128. 149. 516. 500. 367. 502. 411. 327. 223. 210.
      501. 489. 858. 1083. 169. 230. 206. 246. 210. 287. 186. 262. 132.
      253. 123. 157. 149. 127. 135. 163. 263. 334. 212. 142. 216. 151.
      230. 201. 484. 329. 312. 173. 258. 155. 354. 358. 399. 392. 415.
      463. 216. 99. 153. 119. 278. 244. 168. 137.</_>
    <_>
      215. 209. 261. 261. 206. 202. 134. 135. 326. 352. 426. 326. 228.
      306. 238. 199. 215. 411. 495. 616. 220. 308. 314. 336. 174. 181.
      440. 238. 143. 139. 296. 225. 164. 128. 417. 217. 294. 203. 341.
      240. 234. 221. 340. 202. 573. 468. 438. 309. 170. 176. 321. 278.
      569. 403. 694. 602. 119. 110. 391. 166. 209. 254. 376. 293. 282.
      374. 226. 344. 160. 245. 100. 100. 411. 626. 303. 342. 261. 253.
      162. 140. 511. 926. 770. 1051. 189. 307. 265. 343. 250. 406. 282.
      248. 154. 204. 228. 173. 150. 188. 141. 185. 223. 251. 169. 176.
      243. 235. 181. 177. 459. 421. 350. 324. 290. 386. 411. 402. 396.
      599. 558. 829. 178. 186. 238. 153. 258. 273. 298. 276. 258. 173.
      208. 299. 201. 159. 148. 179. 580. 529. 374. 490. 344. 308. 233.
      316. 276. 291. 463. 828. 142. 155. 189. 265. 218. 274. 239. 386.
      94. 139. 128. 271. 208. 121. 386. 217. 376. 323. 315. 266. 376.
      278. 317. 280. 655. 516. 544. 392. 205. 152. 352. 318. 362. 298.
      662. 536. 230. 198. 224. 211. 231. 240. 283. 229. 404. 267. 219.
      357. 380. 286. 127. 169. 592. 509. 326. 477. 506. 457. 207. 253.
      585. 468. 743. 1084. 204. 237. 208. 248. 268. 311. 201. 273. 161.
      173. 154. 226. 121. 96. 143. 153. 245. 278. 153. 139. 269. 182.
      175. 129. 398. 379. 301. 140. 310. 208. 377. 315. 366. 437. 332.
      426. 216. 124. 181. 89. 209. 179. 136. 121.</_>
    <_>
      210. 223. 276. 289. 208. 204. 134. 130. 343. 326. 442. 323. 229.
      324. 237. 213. 217. 412. 468. 644. 233. 276. 318. 366. 170. 218.
      454. 225. 119. 149. 274. 227. 169. 121. 411. 200. 291. 201. 322.
      242. 226. 213. 357. 196. 578. 474. 411. 284. 164. 187. 304. 275.
      582. 383. 672. 595. 138. 121. 365. 181. 206. 256. 358. 273. 278.
      387. 234. 334. 176. 240. 90. 103. 415. 600. 302. 377. 246. 247.
      180. 143. 534. 929. 766. 1060. 182. 319. 227. 328. 265. 406. 266.
      267. 145. 172. 232. 173. 130. 170. 144. 180. 227. 268. 157. 186.
      238. 250. 182. 166. 465. 437. 339. 324. 283. 378. 411. 438. 361.
      608. 581. 800. 197. 186. 236. 176. 274. 272. 309. 272. 238. 180.
      222. 317. 233. 169. 146. 193. 563. 526. 399. 458. 331. 317. 226.
      341. 296. 306. 484. 783. 135. 156. 203. 262. 225. 259. 277. 355.
      112. 131. 133. 273. 191. 133. 360. 228. 358. 290. 322. 276. 383.
      261. 326. 293. 625. 512. 569. 396. 212. 158. 348. 288. 378. 306.
      682. 488. 225. 213. 204. 205. 236. 253. 268. 267. 376. 278. 218.
      333. 365. 283. 123. 188. 612. 506. 315. 482. 510. 450. 229. 245.
      581. 466. 759. 1059. 203. 244. 225. 250. 283. 297. 180. 262. 145.
      193. 167. 201. 137. 103. 136. 149. 239. 255. 142. 135. 263. 175.
      193. 139. 400. 387. 304. 163. 286. 203. 390. 359. 373. 440. 316.
      425. 215. 108. 159. 103. 205. 195. 130. 137.</_>
    <_>
      235. 213. 282. 277. 200. 190. 131. 135. 310. 361. 472. 313. 250.
      324. 243. 211. 220. 389. 488. 622. 249. 311. 324. 370. 184. 222.
      461. 230. 126. 135. 260. 236. 167. 125. 385. 222. 306. 186. 343.
      230. 232. 215. 346. 222. 584. 490. 400. 346. 187. 185. 316. 285.
      555. 389. 713. 579. 134. 120. 331. 186. 189. 240. 352. 267. 252.
      401. 209. 339. 178. 227. 79. 118. 422. 579. 287. 358. 238. 240.
      159. 135. 519. 917. 768. 1087. 185. 313. 270. 328. 252. 385. 272.
      265. 153. 191. 215. 175. 137. 179. 148. 157. 210. 258. 163. 181.
      272. 258. 191. 179. 460. 422. 335. 341. 292. 377. 413. 418. 404.
      630. 551. 739. 175. 189. 206. 169. 249. 270. 301. 256. 246. 176.
      211. 324. 200. 189. 149. 187. 569. 517. 383. 460. 323. 339. 269.
      306. 285. 299. 469. 774. 130. 161. 192. 267. 237. 272. 250. 368.
      108. 126. 125. 292. 177. 124. 371. 227. 357. 288. 317. 252. 383.
      279. 318. 288. 636. 464. 537. 388. 216. 163. 355. 301. 380. 300.
      638. 521. 216. 195. 236. 204. 222. 243. 256. 250. 339. 261. 254.
      347. 374. 272. 140. 189. 616. 518. 338. 480. 485. 456. 241. 260.
      569. 488. 757. 1081. 190. 240. 240. 282. 281. 297. 210. 260. 149.
      202. 139. 213. 143. 84. 150. 142. 248. 260. 162. 120. 254. 197.
      199. 151. 441. 368. 281. 166. 315. 199. 386. 335. 372. 447. 349.
      434. 221. 111. 160. 96. 230. 172. 140. 147.</_>
    <_>
      217. 143. 295. 268. 165. 134. 104. 100. 480. 317. 339. 214. 284.
      259. 193. 127. 170. 282. 443. 696. 210. 244. 293. 342. 163. 139.
      520. 198. 133. 107. 197. 161. 211. 91. 451. 225. 261. 191. 275.
      239. 238. 183. 291. 150. 340. 376. 289. 246. 225. 249. 504. 509.
      527. 620. 943. 999. 95. 93. 506. 179. 186. 181. 355. 304. 277.
      248. 260. 341. 217. 245. 121. 172. 438. 523. 215. 278. 161. 147.
      137. 106. 449. 752. 726. 1337. 306. 404. 323. 486. 287. 390. 297.
      318. 159. 255. 165. 171. 104. 140. 149. 186. 196. 290. 183. 300.
      147. 166. 160. 174. 295. 230. 214. 251. 316. 363. 508. 633. 574.
      821. 1023. 1587. 152. 146. 198. 185. 245. 279. 260. 304. 240. 147.
      211. 207. 203. 191. 128. 113. 671. 455. 284. 297. 368. 322. 180.
      182. 316. 252. 551. 881. 176. 147. 233. 245. 142. 135. 167. 176.
      76. 136. 112. 143. 167. 104. 336. 178. 368. 404. 322. 282. 327.
      199. 184. 195. 485. 494. 391. 545. 193. 150. 372. 364. 421. 348.
      825. 775. 153. 127. 199. 188. 261. 250. 347. 313. 263. 217. 163.
      304. 320. 352. 133. 150. 454. 420. 220. 282. 418. 246. 150. 159.
      480. 502. 721. 1322. 258. 304. 302. 445. 252. 324. 173. 293. 163.
      254. 113. 166. 89. 80. 118. 211. 207. 461. 162. 141. 188. 136.
      174. 121. 250. 357. 204. 174. 269. 195. 384. 550. 454. 587. 559.
      836. 176. 102. 148. 105. 199. 216. 135. 176.</_>
    <_>
      190. 143. 281. 216. 161. 169. 109. 112. 512. 341. 434. 291. 249.
      242. 189. 123. 205. 240. 419. 626. 227. 218. 276. 268. 158. 156.
      423. 205. 143. 157. 282. 195. 181. 100. 436. 263. 224. 221. 329.
      229. 267. 202. 307. 196. 349. 370. 333. 233. 130. 140. 428. 441.
      538. 554. 925. 933. 99. 90. 379. 186. 191. 208. 446. 289. 286.
      315. 246. 360. 196. 246. 100. 163. 395. 462. 275. 311. 192. 181.
      145. 143. 468. 787. 696. 1292. 219. 332. 260. 401. 272. 374. 318.
      376. 191. 332. 196. 211. 89. 152. 151. 205. 198. 336. 213. 238.
      198. 178. 191. 152. 321. 313. 262. 283. 251. 290. 495. 665. 572.
      782. 917. 1378. 158. 158. 236. 197. 238. 222. 313. 303. 282. 180.
      196. 246. 206. 193. 94. 151. 720. 515. 368. 427. 398. 292. 192.
      215. 333. 251. 484. 769. 176. 123. 193. 268. 245. 186. 242. 245.
      106. 146. 147. 189. 218. 124. 430. 243. 366. 427. 359. 302. 313.
      201. 243. 256. 494. 475. 428. 411. 239. 160. 406. 339. 417. 363.
      741. 680. 213. 156. 226. 190. 265. 233. 363. 299. 303. 289. 170.
      296. 338. 380. 133. 193. 526. 442. 257. 342. 455. 275. 151. 166.
      504. 463. 600. 1132. 278. 217. 176. 317. 298. 359. 202. 333. 176.
      291. 122. 174. 109. 112. 125. 158. 265. 459. 154. 162. 194. 118.
      165. 130. 281. 359. 185. 171. 273. 164. 365. 381. 417. 513. 362.
      615. 224. 118. 155. 132. 179. 190. 131. 145.</_>
    <_>
      546. 172. 309. 300. 191. 151. 80. 135. 638. 404. 507. 367. 303.
      310. 216. 194. 249. 348. 465. 535. 248. 320. 250. 262. 192. 201.
      625. 259. 123. 137. 175. 169. 122. 114. 371. 219. 183. 122. 191.
      156. 351. 290. 342. 233. 529. 429. 340. 269. 133. 182. 340. 342.
      453. 365. 652. 628. 101. 129. 336. 148. 185. 159. 187. 140. 360.
      412. 385. 447. 126. 219. 81. 130. 587. 615. 396. 407. 197. 180.
      157. 152. 450. 690. 896. 1068. 161. 326. 268. 414. 249. 333. 410.
      451. 133. 194. 170. 173. 86. 163. 164. 225. 112. 184. 92. 125.
      190. 223. 209. 246. 355. 328. 217. 186. 191. 295. 588. 731. 302.
      545. 671. 1312. 140. 199. 222. 207. 170. 164. 193. 199. 301. 230.
      289. 330. 173. 131. 101. 140. 821. 447. 396. 504. 393. 296. 222.
      272. 343. 290. 450. 582. 183. 178. 172. 203. 325. 273. 272. 341.
      115. 164. 121. 199. 173. 111. 356. 187. 274. 263. 251. 203. 405.
      265. 296. 312. 545. 428. 449. 449. 212. 158. 362. 301. 377. 353.
      727. 700. 195. 186. 205. 229. 166. 178. 162. 176. 454. 402. 305.
      383. 302. 355. 144. 155. 714. 574. 414. 610. 456. 317. 225. 264.
      584. 426. 757. 920. 264. 296. 250. 343. 386. 410. 295. 392. 171.
      251. 138. 189. 111. 123. 157. 157. 150. 225. 125. 123. 205. 163.
      172. 172. 371. 314. 169. 160. 266. 216. 390. 411. 318. 524. 409.
      638. 166. 120. 147. 152. 120. 142. 117. 117.</_>
    <_>
      291. 151. 265. 266. 176. 143. 134. 130. 647. 363. 472. 242. 262.
      220. 161. 143. 213. 295. 399. 632. 208. 272. 310. 285. 167. 132.
      516. 212. 105. 156. 259. 185. 124. 101. 334. 228. 204. 228. 274.
      245. 257. 167. 319. 216. 527. 482. 411. 394. 161. 188. 378. 435.
      527. 555. 875. 703. 111. 106. 393. 228. 193. 216. 395. 311. 239.
      297. 231. 347. 230. 280. 96. 178. 489. 475. 288. 325. 169. 176.
      120. 135. 432. 724. 644. 1073. 222. 372. 259. 429. 173. 204. 255.
      308. 131. 195. 175. 151. 115. 139. 109. 244. 253. 357. 170. 321.
      173. 142. 150. 192. 380. 355. 230. 346. 293. 335. 453. 652. 592.
      727. 762. 1170. 138. 121. 204. 204. 270. 260. 325. 353. 231. 170.
      186. 229. 232. 169. 139. 186. 842. 532. 290. 319. 353. 264. 173.
      222. 449. 267. 541. 710. 274. 164. 237. 242. 204. 154. 227. 225.
      123. 163. 156. 206. 176. 117. 229. 206. 382. 287. 348. 300. 379.
      255. 198. 222. 781. 535. 501. 616. 284. 163. 348. 323. 505. 439.
      784. 777. 227. 163. 242. 246. 271. 213. 344. 303. 254. 244. 167.
      261. 375. 306. 136. 210. 574. 485. 245. 440. 487. 274. 141. 161.
      494. 393. 623. 876. 318. 249. 217. 315. 233. 220. 174. 260. 180.
      181. 128. 182. 126. 109. 102. 153. 296. 419. 175. 243. 202. 154.
      158. 160. 341. 366. 180. 193. 308. 161. 324. 354. 486. 506. 482.
      687. 163. 103. 143. 125. 204. 170. 132. 174.</_>
    <_>
      279. 187. 326. 277. 171. 160. 125. 128. 605. 449. 477. 285. 373.
      283. 204. 194. 199. 349. 372. 576. 235. 258. 298. 293. 176. 182.
      463. 184. 127. 166. 236. 198. 136. 112. 310. 235. 200. 176. 223.
      267. 325. 229. 284. 233. 772. 661. 417. 392. 165. 258. 334. 409.
      565. 445. 706. 575. 105. 162. 306. 173. 204. 161. 301. 258. 235.
      311. 261. 335. 187. 216. 89. 187. 569. 612. 397. 414. 222. 181.
      131. 163. 359. 707. 591. 948. 194. 309. 251. 337. 222. 303. 299.
      255. 132. 188. 182. 160. 115. 145. 156. 231. 197. 255. 143. 294.
      219. 229. 198. 199. 461. 399. 221. 284. 270. 298. 402. 521. 465.
      618. 619. 987. 189. 222. 258. 197. 211. 249. 287. 271. 256. 193.
      233. 291. 239. 146. 171. 234. 811. 510. 399. 398. 412. 348. 200.
      253. 316. 260. 440. 664. 226. 155. 226. 249. 227. 210. 198. 248.
      121. 162. 145. 223. 147. 127. 221. 179. 284. 311. 313. 306. 344.
      271. 242. 249. 800. 648. 532. 598. 280. 185. 324. 309. 522. 415.
      696. 642. 212. 175. 183. 201. 219. 204. 224. 236. 267. 244. 249.
      301. 313. 249. 203. 194. 662. 629. 378. 497. 463. 286. 199. 254.
      465. 380. 598. 790. 276. 234. 229. 261. 305. 285. 271. 307. 212.
      181. 163. 192. 109. 119. 125. 141. 258. 309. 218. 178. 244. 195.
      184. 160. 448. 353. 247. 180. 308. 171. 341. 273. 517. 448. 419.
      606. 204. 118. 146. 126. 216. 163. 145. 140.</_>
    <_>
      546. 218. 314. 242. 208. 206. 107. 140. 615. 421. 394. 291. 418.
      259. 249. 212. 242. 396. 462. 548. 260. 361. 288. 317. 176. 208.
      386. 207. 148. 148. 288. 190. 119. 112. 336. 250. 235. 202. 250.
      202. 349. 241. 382. 269. 692. 574. 475. 380. 131. 206. 286. 287.
      431. 388. 640. 558. 94. 146. 299. 173. 209. 159. 337. 201. 224.
      360. 252. 352. 164. 267. 88. 126. 582. 753. 296. 330. 240. 234.
      140. 147. 390. 656. 723. 1138. 181. 291. 218. 303. 251. 363. 294.
      307. 115. 163. 200. 158. 127. 172. 131. 233. 187. 265. 133. 161.
      216. 253. 174. 206. 527. 461. 297. 333. 258. 405. 361. 488. 323.
      510. 552. 953. 147. 182. 176. 149. 217. 243. 273. 251. 195. 129.
      232. 244. 205. 130. 141. 165. 733. 458. 379. 398. 465. 351. 261.
      332. 354. 239. 443. 609. 193. 181. 218. 231. 216. 234. 249. 319.
      111. 156. 154. 257. 143. 95. 347. 218. 308. 262. 343. 251. 427.
      266. 315. 285. 937. 570. 504. 411. 249. 165. 357. 289. 376. 320.
      656. 594. 238. 189. 210. 240. 203. 175. 217. 211. 309. 279. 226.
      336. 336. 287. 168. 210. 744. 683. 408. 500. 561. 386. 236. 292.
      615. 405. 813. 968. 222. 238. 240. 313. 304. 264. 206. 268. 130.
      152. 151. 192. 131. 94. 126. 144. 209. 258. 137. 155. 247. 145.
      163. 158. 410. 357. 215. 194. 323. 222. 443. 349. 306. 403. 331.
      483. 283. 138. 157. 117. 149. 129. 145. 136.</_>
    <_>
      4322. 206. 217. 253. 119. 221. 110. 279. 315. 275. 301. 272. 219.
      348. 221. 300. 181. 399. 390. 588. 164. 385. 222. 387. 144. 233.
      283. 248. 124. 171. 154. 170. 120. 95. 320. 187. 330. 213. 314.
      279. 259. 201. 288. 171. 546. 523. 501. 389. 169. 241. 335. 428.
      768. 456. 670. 671. 136. 214. 184. 307. 304. 219. 234. 269. 232.
      291. 197. 264. 115. 191. 100. 132. 583. 706. 317. 372. 184. 206.
      143. 162. 395. 558. 670. 793. 141. 339. 214. 250. 274. 434. 248.
      351. 126. 177. 105. 105. 102. 140. 124. 133. 125. 185. 118. 134.
      209. 264. 159. 163. 517. 501. 314. 243. 260. 287. 343. 348. 418.
      591. 599. 1024. 229. 317. 160. 162. 237. 202. 165. 172. 250. 169.
      270. 361. 142. 166. 196. 215. 565. 380. 435. 428. 295. 314. 278.
      293. 342. 296. 520. 718. 150. 145. 199. 227. 188. 199. 246. 256.
      107. 146. 124. 168. 138. 100. 370. 207. 271. 207. 312. 231. 300.
      192. 307. 228. 586. 462. 771. 411. 137. 137. 250. 236. 337. 461.
      580. 656. 170. 109. 193. 187. 209. 240. 186. 216. 269. 226. 242.
      303. 254. 258. 176. 108. 517. 572. 435. 517. 318. 313. 210. 179.
      450. 344. 615. 692. 241. 362. 296. 338. 299. 265. 200. 248. 145.
      193. 126. 165. 136. 102. 119. 104. 164. 681. 166. 127. 206. 162.
      196. 163. 401. 255. 381. 165. 282. 171. 304. 255. 361. 432. 366.
      573. 290. 151. 208. 166. 227. 183. 178. 182.</_>
    <_>
      590. 206. 298. 267. 163. 191. 120. 175. 407. 390. 374. 292. 300.
      344. 242. 269. 219. 402. 378. 570. 247. 311. 248. 350. 167. 255.
      259. 222. 121. 190. 174. 178. 149. 114. 342. 172. 307. 207. 288.
      208. 340. 269. 369. 249. 595. 512. 460. 377. 143. 152. 265. 236.
      723. 496. 819. 827. 110. 148. 222. 202. 249. 169. 242. 202. 201.
      330. 180. 303. 121. 240. 72. 102. 560. 719. 341. 431. 260. 246.
      184. 185. 410. 720. 575. 898. 167. 338. 230. 344. 241. 421. 270.
      302. 124. 236. 165. 167. 123. 152. 136. 182. 159. 193. 110. 129.
      235. 281. 199. 247. 631. 516. 311. 253. 267. 303. 320. 432. 347.
      651. 695. 1248. 211. 253. 155. 142. 248. 211. 201. 173. 223. 167.
      277. 327. 151. 155. 150. 173. 610. 464. 523. 527. 355. 319. 335.
      350. 345. 278. 436. 709. 153. 172. 184. 234. 237. 273. 272. 338.
      92. 150. 137. 187. 169. 85. 377. 217. 264. 204. 406. 227. 367.
      222. 360. 276. 782. 495. 718. 399. 190. 140. 310. 249. 370. 297.
      647. 689. 205. 149. 177. 184. 176. 157. 185. 205. 289. 275. 237.
      341. 315. 264. 180. 180. 671. 732. 517. 642. 369. 345. 260. 256.
      487. 340. 561. 954. 161. 311. 220. 330. 318. 328. 262. 356. 145.
      226. 140. 187. 118. 105. 129. 164. 179. 253. 175. 124. 247. 166.
      261. 192. 501. 245. 310. 137. 338. 183. 353. 369. 301. 387. 436.
      505. 242. 141. 164. 160. 200. 132. 146. 158.</_>
    <_>
      370. 172. 293. 280. 145. 165. 135. 114. 421. 340. 413. 259. 279.
      255. 205. 187. 174. 330. 379. 529. 174. 283. 253. 307. 199. 187.
      269. 217. 129. 197. 219. 184. 160. 90. 463. 215. 309. 221. 393.
      345. 249. 187. 321. 217. 712. 569. 494. 354. 119. 169. 337. 316.
      642. 545. 815. 724. 101. 108. 268. 165. 261. 204. 288. 263. 268.
      297. 225. 318. 175. 211. 91. 101. 490. 584. 383. 390. 179. 208.
      154. 111. 513. 797. 727. 1150. 204. 334. 231. 392. 227. 391. 276.
      338. 195. 353. 167. 205. 92. 121. 106. 153. 178. 219. 148. 204.
      256. 256. 186. 151. 511. 373. 289. 281. 243. 280. 424. 556. 409.
      777. 600. 1211. 200. 202. 161. 191. 319. 333. 227. 229. 212. 164.
      255. 255. 172. 163. 147. 143. 687. 508. 436. 455. 363. 344. 219.
      242. 289. 212. 403. 683. 155. 153. 178. 227. 253. 207. 224. 246.
      115. 149. 113. 165. 172. 100. 405. 223. 364. 303. 436. 307. 333.
      236. 271. 254. 785. 556. 582. 491. 176. 128. 328. 287. 350. 317.
      782. 574. 182. 126. 204. 179. 238. 228. 250. 227. 256. 270. 217.
      338. 354. 292. 106. 128. 633. 564. 449. 597. 385. 314. 193. 194.
      458. 389. 672. 1154. 207. 250. 211. 299. 294. 346. 231. 333. 187.
      299. 126. 205. 96. 88. 117. 179. 187. 301. 136. 143. 266. 154.
      205. 214. 467. 350. 227. 182. 288. 176. 399. 475. 306. 484. 334.
      545. 202. 112. 162. 153. 246. 206. 121. 139.</_>
    <_>
      194. 164. 238. 248. 154. 184. 120. 188. 370. 403. 373. 321. 377.
      404. 316. 275. 188. 392. 387. 674. 143. 236. 243. 303. 149. 227.
      236. 158. 122. 194. 186. 182. 134. 90. 324. 183. 258. 144. 264.
      239. 309. 302. 306. 218. 790. 772. 651. 502. 139. 216. 329. 325.
      517. 439. 737. 738. 111. 178. 178. 194. 215. 233. 287. 258. 208.
      301. 215. 266. 151. 218. 84. 101. 519. 636. 299. 339. 225. 228.
      185. 178. 402. 741. 546. 939. 154. 239. 220. 309. 234. 354. 285.
      318. 152. 178. 137. 159. 105. 152. 130. 161. 197. 245. 106. 155.
      244. 331. 194. 213. 626. 602. 408. 402. 289. 299. 335. 360. 400.
      608. 628. 1093. 207. 265. 155. 134. 266. 242. 244. 215. 208. 163.
      257. 260. 188. 185. 171. 170. 631. 396. 414. 455. 387. 364. 416.
      344. 263. 276. 566. 814. 116. 140. 176. 264. 179. 206. 232. 259.
      93. 154. 132. 208. 150. 98. 275. 206. 347. 302. 419. 314. 337.
      219. 278. 242. 1044. 786. 855. 503. 184. 134. 293. 292. 258. 289.
      625. 600. 184. 130. 199. 189. 296. 272. 253. 222. 225. 232. 230.
      264. 323. 237. 133. 126. 542. 541. 445. 529. 429. 336. 309. 273.
      458. 409. 817. 1079. 194. 207. 249. 321. 292. 275. 260. 273. 155.
      171. 123. 163. 130. 107. 129. 129. 231. 257. 178. 120. 260. 178.
      283. 185. 538. 338. 404. 185. 309. 175. 295. 325. 351. 403. 372.
      539. 263. 121. 170. 159. 217. 173. 159. 155.</_>
    <_>
      195. 212. 325. 285. 182. 228. 148. 164. 365. 387. 440. 331. 312.
      326. 227. 215. 205. 371. 374. 525. 263. 317. 288. 287. 172. 195.
      322. 196. 175. 192. 282. 186. 134. 115. 387. 213. 325. 259. 340.
      316. 298. 246. 312. 223. 661. 569. 455. 416. 175. 205. 318. 292.
      519. 408. 627. 523. 126. 157. 271. 146. 228. 217. 306. 308. 210.
      323. 226. 315. 144. 223. 110. 121. 412. 560. 315. 331. 233. 272.
      221. 150. 415. 754. 564. 771. 223. 342. 262. 317. 221. 364. 265.
      296. 159. 261. 205. 148. 117. 178. 159. 201. 196. 224. 164. 179.
      273. 241. 232. 175. 504. 490. 292. 315. 286. 310. 468. 474. 469.
      548. 643. 821. 213. 227. 226. 173. 307. 293. 286. 258. 230. 191.
      259. 313. 196. 176. 174. 191. 628. 437. 389. 411. 358. 328. 295.
      314. 295. 288. 391. 630. 171. 184. 205. 292. 258. 222. 217. 273.
      133. 175. 163. 262. 175. 106. 339. 221. 382. 352. 376. 270. 334.
      200. 278. 282. 862. 575. 658. 426. 221. 128. 304. 266. 412. 424.
      627. 565. 242. 201. 187. 193. 261. 241. 254. 273. 318. 256. 213.
      299. 291. 237. 171. 185. 536. 556. 375. 467. 471. 326. 277. 259.
      511. 419. 652. 700. 200. 251. 230. 315. 264. 273. 183. 314. 182.
      247. 146. 223. 155. 106. 175. 174. 238. 281. 171. 193. 313. 195.
      224. 143. 438. 322. 291. 189. 254. 187. 397. 409. 397. 481. 425.
      540. 262. 149. 188. 151. 293. 238. 155. 173.</_>
    <_>
      217. 216. 301. 251. 201. 245. 147. 152. 387. 402. 437. 324. 317.
      309. 238. 207. 231. 384. 404. 504. 274. 357. 328. 311. 191. 237.
      325. 185. 173. 203. 304. 205. 160. 137. 368. 215. 336. 252. 331.
      302. 291. 302. 304. 246. 622. 627. 442. 460. 142. 227. 319. 277.
      492. 446. 553. 508. 129. 170. 254. 149. 229. 241. 268. 299. 210.
      298. 209. 320. 159. 254. 112. 140. 416. 498. 325. 341. 240. 278.
      207. 158. 434. 643. 573. 740. 229. 313. 260. 330. 220. 343. 263.
      307. 192. 250. 189. 162. 128. 168. 189. 191. 186. 241. 181. 195.
      255. 266. 226. 205. 467. 478. 249. 318. 292. 268. 465. 450. 458.
      526. 590. 823. 240. 251. 243. 178. 278. 293. 281. 227. 220. 192.
      284. 312. 217. 181. 188. 191. 585. 394. 364. 415. 363. 307. 297.
      278. 328. 299. 408. 600. 174. 167. 212. 309. 248. 207. 199. 242.
      143. 200. 175. 234. 169. 119. 339. 224. 369. 333. 354. 288. 321.
      251. 227. 268. 785. 584. 600. 477. 215. 174. 267. 277. 434. 412.
      576. 578. 221. 218. 177. 199. 271. 273. 228. 298. 303. 258. 219.
      254. 305. 226. 176. 200. 545. 514. 387. 439. 482. 297. 325. 307.
      460. 410. 649. 677. 202. 235. 301. 356. 268. 261. 191. 288. 164.
      251. 167. 230. 158. 98. 176. 168. 227. 272. 186. 221. 281. 177.
      241. 148. 445. 300. 315. 190. 314. 219. 424. 448. 370. 480. 403.
      540. 287. 170. 214. 175. 271. 239. 183. 170.</_>
    <_>
      234. 200. 292. 289. 198. 213. 165. 225. 368. 300. 329. 278. 431.
      326. 156. 217. 145. 414. 425. 598. 249. 410. 293. 331. 150. 204.
      288. 218. 164. 210. 215. 167. 181. 97. 534. 274. 458. 218. 408.
      306. 349. 164. 319. 177. 735. 397. 382. 290. 178. 232. 334. 280.
      660. 465. 646. 625. 127. 125. 285. 196. 234. 144. 255. 208. 185.
      369. 195. 331. 122. 224. 74. 145. 683. 768. 297. 390. 223. 310.
      91. 132. 317. 633. 537. 850. 232. 376. 204. 313. 274. 377. 259.
      301. 278. 504. 192. 205. 104. 168. 137. 207. 155. 207. 123. 150.
      269. 251. 177. 183. 415. 373. 230. 223. 267. 352. 341. 410. 467.
      631. 602. 921. 209. 250. 191. 191. 308. 259. 237. 216. 223. 205.
      284. 341. 170. 143. 165. 198. 681. 411. 456. 447. 276. 250. 233.
      321. 333. 288. 458. 777. 160. 150. 238. 268. 188. 229. 206. 268.
      132. 160. 134. 194. 227. 111. 578. 289. 310. 139. 472. 291. 322.
      184. 453. 264. 543. 334. 657. 477. 241. 160. 342. 264. 359. 305.
      763. 613. 197. 148. 171. 160. 180. 152. 204. 170. 256. 344. 237.
      329. 226. 236. 127. 160. 633. 750. 363. 695. 370. 343. 171. 227.
      571. 394. 743. 608. 206. 330. 232. 315. 329. 406. 263. 388. 210.
      520. 136. 274. 120. 105. 170. 209. 217. 185. 181. 137. 288. 192.
      244. 336. 398. 270. 248. 177. 283. 210. 324. 279. 346. 491. 393.
      506. 261. 131. 165. 150. 219. 202. 141. 163.</_>
    <_>
      193. 184. 282. 251. 194. 214. 154. 230. 409. 290. 339. 230. 414.
      337. 151. 198. 172. 395. 395. 610. 231. 371. 305. 317. 125. 200.
      308. 226. 173. 199. 212. 172. 180. 98. 579. 247. 500. 240. 429.
      267. 321. 172. 295. 169. 708. 429. 416. 303. 160. 235. 336. 255.
      635. 501. 740. 625. 106. 126. 276. 189. 239. 147. 256. 185. 187.
      358. 206. 308. 123. 275. 84. 136. 648. 757. 274. 401. 236. 285.
      99. 129. 303. 635. 497. 903. 217. 380. 231. 321. 290. 357. 285.
      334. 246. 507. 188. 219. 106. 183. 146. 195. 162. 197. 157. 177.
      238. 234. 159. 202. 434. 378. 216. 212. 256. 368. 322. 383. 486.
      684. 632. 913. 208. 237. 204. 179. 315. 306. 201. 266. 232. 206.
      307. 312. 176. 151. 156. 205. 714. 397. 443. 405. 250. 257. 198.
      320. 332. 321. 466. 781. 180. 164. 195. 273. 194. 221. 226. 272.
      127. 136. 144. 203. 196. 106. 600. 273. 296. 180. 486. 313. 314.
      172. 417. 272. 531. 335. 670. 456. 258. 148. 325. 256. 404. 325.
      741. 583. 198. 141. 177. 171. 181. 137. 223. 209. 233. 328. 240.
      353. 220. 229. 114. 154. 635. 768. 382. 702. 361. 345. 137. 224.
      552. 385. 688. 607. 221. 314. 245. 341. 364. 401. 236. 396. 235.
      517. 134. 256. 142. 93. 190. 188. 211. 193. 182. 145. 288. 186.
      258. 349. 426. 281. 252. 179. 304. 200. 330. 295. 393. 409. 392.
      470. 255. 139. 159. 138. 234. 229. 128. 167.</_>
    <_>
      211. 186. 334. 299. 212. 242. 158. 149. 407. 384. 421. 319. 290.
      343. 248. 170. 242. 396. 361. 538. 261. 319. 345. 314. 181. 214.
      332. 181. 203. 188. 298. 199. 155. 138. 361. 218. 330. 254. 325.
      288. 308. 257. 334. 215. 671. 648. 493. 424. 195. 220. 299. 291.
      521. 431. 557. 505. 137. 166. 274. 153. 244. 216. 270. 282. 226.
      280. 183. 307. 158. 242. 102. 139. 402. 527. 320. 323. 242. 259.
      199. 129. 424. 722. 562. 746. 241. 332. 265. 311. 212. 344. 266.
      277. 166. 269. 222. 121. 132. 160. 163. 202. 182. 216. 170. 186.
      248. 239. 251. 180. 507. 490. 268. 328. 283. 303. 491. 459. 404.
      522. 608. 800. 231. 251. 238. 170. 282. 296. 281. 223. 211. 182.
      274. 310. 217. 173. 194. 188. 613. 417. 371. 378. 360. 301. 299.
      328. 312. 284. 428. 608. 160. 173. 217. 302. 240. 218. 205. 264.
      125. 198. 160. 252. 174. 107. 345. 233. 380. 301. 360. 308. 325.
      233. 247. 263. 836. 567. 620. 479. 231. 173. 289. 261. 421. 372.
      570. 564. 233. 195. 181. 178. 253. 279. 252. 289. 305. 254. 219.
      285. 317. 209. 166. 198. 575. 514. 383. 473. 466. 305. 321. 262.
      475. 439. 664. 666. 209. 244. 269. 358. 275. 284. 194. 311. 166.
      253. 187. 207. 150. 102. 158. 179. 254. 264. 164. 221. 290. 184.
      245. 143. 432. 324. 320. 182. 315. 224. 436. 389. 406. 448. 399.
      554. 292. 181. 198. 164. 244. 267. 155. 175.</_>
    <_>
      209. 203. 315. 299. 201. 227. 168. 158. 405. 402. 423. 318. 287.
      341. 251. 188. 240. 378. 373. 520. 287. 319. 348. 268. 182. 215.
      339. 187. 206. 209. 267. 188. 151. 129. 359. 203. 347. 237. 324.
      273. 285. 275. 346. 217. 654. 637. 513. 413. 187. 210. 294. 283.
      546. 393. 559. 506. 127. 166. 240. 140. 221. 233. 267. 310. 222.
      290. 200. 296. 140. 240. 101. 139. 425. 510. 300. 339. 270. 260.
      193. 152. 433. 721. 612. 786. 238. 326. 273. 323. 191. 365. 266.
      258. 176. 259. 212. 134. 131. 180. 157. 186. 180. 240. 173. 188.
      252. 248. 241. 196. 516. 505. 287. 317. 296. 281. 496. 451. 433.
      552. 614. 791. 220. 222. 251. 163. 265. 293. 291. 235. 214. 169.
      249. 341. 206. 172. 187. 159. 625. 378. 380. 404. 349. 297. 294.
      293. 288. 281. 425. 602. 172. 174. 223. 303. 233. 190. 190. 269.
      140. 203. 144. 270. 197. 109. 352. 235. 403. 308. 349. 292. 360.
      217. 261. 266. 793. 576. 638. 489. 236. 146. 312. 278. 407. 395.
      620. 570. 231. 191. 185. 191. 241. 302. 223. 296. 330. 235. 199.
      287. 314. 223. 178. 185. 566. 516. 378. 450. 489. 321. 296. 277.
      435. 410. 668. 720. 232. 240. 250. 305. 273. 317. 193. 282. 185.
      253. 180. 203. 149. 110. 177. 154. 257. 284. 167. 214. 291. 172.
      229. 158. 474. 324. 317. 195. 316. 217. 422. 441. 341. 459. 367.
      562. 287. 156. 197. 179. 270. 254. 154. 156.</_>
    <_>
      202. 217. 301. 273. 170. 201. 145. 160. 389. 421. 465. 285. 322.
      353. 233. 202. 243. 373. 367. 534. 194. 316. 270. 340. 185. 198.
      314. 203. 171. 177. 251. 198. 165. 132. 404. 224. 278. 243. 362.
      335. 272. 245. 308. 219. 732. 646. 506. 400. 174. 210. 300. 289.
      577. 511. 625. 559. 123. 152. 225. 149. 228. 252. 266. 264. 211.
      292. 180. 320. 133. 213. 105. 128. 413. 522. 322. 358. 201. 261.
      179. 126. 411. 723. 662. 823. 213. 351. 293. 309. 246. 373. 281.
      272. 171. 276. 202. 154. 118. 143. 152. 186. 174. 209. 179. 180.
      238. 257. 234. 161. 503. 480. 295. 306. 290. 318. 471. 525. 483.
      600. 669. 862. 215. 214. 225. 177. 285. 264. 256. 210. 220. 163.
      260. 330. 196. 164. 167. 192. 615. 410. 423. 395. 376. 291. 261.
      277. 317. 271. 424. 679. 147. 150. 202. 270. 217. 217. 193. 258.
      139. 168. 134. 234. 175. 137. 339. 212. 386. 319. 355. 285. 312.
      213. 274. 253. 867. 612. 597. 488. 215. 179. 299. 284. 369. 353.
      609. 546. 214. 167. 193. 181. 252. 267. 236. 299. 287. 254. 251.
      302. 266. 192. 164. 176. 558. 563. 420. 471. 450. 298. 241. 239.
      499. 417. 678. 865. 213. 220. 265. 367. 268. 293. 197. 350. 150.
      259. 159. 206. 144. 125. 185. 167. 223. 219. 148. 180. 277. 182.
      217. 184. 454. 361. 305. 197. 327. 203. 397. 442. 368. 486. 435.
      524. 240. 158. 205. 191. 233. 258. 167. 162.</_>
    <_>
      242. 202. 250. 213. 190. 211. 109. 158. 375. 377. 437. 330. 368.
      386. 240. 289. 212. 367. 401. 507. 193. 307. 296. 334. 172. 190.
      294. 189. 154. 191. 233. 189. 120. 107. 359. 205. 262. 270. 356.
      301. 313. 302. 337. 211. 749. 699. 517. 424. 158. 193. 324. 284.
      590. 487. 733. 583. 145. 150. 230. 156. 243. 212. 259. 266. 222.
      293. 198. 288. 127. 206. 98. 112. 439. 517. 309. 318. 237. 258.
      165. 143. 525. 846. 690. 893. 174. 280. 222. 339. 215. 345. 238.
      271. 142. 294. 178. 136. 102. 137. 151. 175. 128. 216. 160. 180.
      280. 286. 184. 183. 597. 481. 317. 316. 286. 279. 424. 444. 492.
      664. 591. 978. 211. 226. 175. 162. 280. 270. 249. 231. 225. 175.
      281. 275. 198. 159. 154. 208. 548. 429. 466. 476. 398. 365. 306.
      317. 251. 269. 406. 723. 169. 170. 176. 286. 222. 212. 176. 246.
      160. 165. 141. 252. 164. 125. 387. 265. 360. 313. 400. 289. 351.
      240. 289. 250. 854. 585. 643. 469. 200. 161. 301. 282. 358. 306.
      685. 489. 224. 161. 203. 192. 243. 242. 199. 249. 281. 208. 243.
      292. 254. 245. 165. 164. 548. 541. 444. 594. 431. 320. 297. 281.
      503. 394. 756. 775. 188. 218. 298. 288. 270. 266. 209. 363. 146.
      252. 130. 190. 135. 117. 160. 162. 193. 246. 124. 151. 281. 188.
      254. 163. 485. 322. 365. 231. 293. 194. 389. 395. 311. 480. 391.
      431. 246. 162. 188. 210. 245. 223. 144. 160.</_>
    <_>
      285. 185. 243. 223. 168. 228. 131. 163. 403. 368. 456. 314. 350.
      364. 237. 245. 210. 371. 390. 498. 193. 305. 271. 332. 169. 196.
      280. 171. 159. 217. 252. 190. 119. 99. 351. 218. 283. 271. 349.
      324. 281. 289. 329. 226. 737. 687. 505. 451. 177. 184. 306. 283.
      617. 431. 744. 579. 106. 146. 238. 154. 256. 240. 234. 262. 226.
      302. 218. 289. 137. 220. 87. 124. 386. 505. 291. 324. 245. 254.
      174. 144. 511. 866. 651. 935. 171. 259. 255. 348. 197. 354. 234.
      277. 153. 274. 191. 147. 128. 151. 162. 197. 145. 224. 146. 199.
      287. 300. 181. 186. 595. 507. 323. 293. 267. 282. 425. 440. 487.
      672. 610. 962. 221. 223. 174. 162. 301. 272. 234. 200. 210. 176.
      251. 291. 191. 145. 167. 172. 557. 417. 470. 497. 381. 331. 318.
      287. 228. 262. 399. 720. 177. 166. 192. 277. 206. 215. 222. 261.
      139. 158. 130. 246. 165. 112. 408. 232. 374. 318. 421. 289. 326.
      219. 299. 266. 811. 620. 637. 468. 215. 161. 299. 248. 401. 307.
      676. 514. 241. 195. 206. 190. 261. 204. 236. 286. 292. 214. 235.
      309. 257. 243. 159. 173. 512. 543. 420. 605. 433. 341. 303. 276.
      464. 385. 751. 791. 191. 234. 275. 253. 297. 252. 198. 360. 143.
      244. 124. 174. 141. 110. 142. 155. 209. 225. 145. 143. 276. 202.
      251. 179. 499. 316. 363. 242. 291. 194. 393. 407. 341. 475. 395.
      456. 243. 163. 192. 185. 244. 223. 172. 165.</_>
    <_>
      221. 190. 279. 270. 287. 263. 157. 188. 518. 391. 369. 251. 518.
      455. 224. 192. 201. 265. 386. 466. 241. 369. 259. 270. 159. 208.
      238. 184. 214. 244. 332. 259. 192. 124. 477. 295. 387. 237. 325.
      241. 465. 289. 413. 261. 738. 449. 361. 269. 144. 157. 286. 284.
      518. 408. 558. 567. 150. 148. 251. 183. 229. 240. 309. 254. 179.
      336. 185. 313. 166. 282. 133. 158. 603. 677. 307. 366. 256. 327.
      133. 155. 350. 592. 467. 789. 190. 415. 228. 294. 167. 316. 273.
      273. 154. 334. 257. 149. 110. 190. 187. 251. 142. 251. 130. 209.
      251. 293. 210. 205. 413. 378. 254. 276. 220. 288. 336. 355. 369.
      545. 612. 885. 170. 174. 251. 196. 265. 269. 314. 269. 208. 138.
      237. 240. 261. 138. 146. 166. 606. 414. 343. 441. 363. 368. 243.
      324. 304. 234. 415. 599. 200. 191. 175. 230. 222. 215. 204. 256.
      159. 240. 167. 300. 188. 116. 543. 324. 385. 269. 453. 324. 435.
      231. 391. 362. 445. 355. 444. 314. 214. 160. 326. 276. 376. 361.
      713. 598. 290. 228. 224. 266. 188. 276. 196. 299. 225. 217. 191.
      294. 312. 278. 186. 256. 607. 564. 356. 633. 481. 396. 243. 352.
      483. 404. 597. 540. 208. 280. 216. 282. 318. 320. 231. 317. 243.
      379. 190. 299. 141. 96. 168. 220. 235. 244. 172. 183. 290. 187.
      247. 349. 402. 296. 262. 236. 279. 190. 318. 277. 357. 556. 372.
      471. 277. 161. 192. 153. 236. 279. 158. 212.</_>
    <_>
      176. 175. 274. 283. 258. 267. 168. 184. 527. 353. 406. 284. 505.
      425. 210. 193. 191. 302. 365. 519. 234. 355. 255. 288. 153. 181.
      251. 194. 194. 253. 320. 259. 213. 135. 500. 315. 387. 266. 305.
      229. 462. 263. 387. 270. 710. 434. 326. 280. 137. 174. 315. 282.
      487. 412. 633. 574. 153. 147. 221. 187. 226. 235. 310. 274. 191.
      365. 208. 321. 180. 280. 110. 156. 629. 692. 311. 366. 234. 314.
      132. 150. 367. 587. 479. 793. 210. 354. 235. 301. 206. 329. 255.
      264. 154. 336. 258. 179. 115. 198. 187. 241. 164. 226. 125. 198.
      250. 297. 200. 205. 435. 359. 263. 247. 202. 266. 307. 376. 367.
      582. 606. 910. 173. 197. 247. 201. 251. 299. 308. 266. 231. 151.
      244. 263. 239. 169. 155. 181. 585. 391. 340. 432. 357. 335. 251.
      311. 267. 250. 434. 602. 173. 169. 172. 226. 221. 210. 195. 271.
      171. 227. 177. 280. 195. 103. 522. 302. 378. 284. 409. 296. 337.
      217. 416. 372. 414. 359. 447. 312. 229. 161. 322. 250. 412. 332.
      752. 575. 306. 234. 244. 246. 197. 252. 178. 278. 213. 258. 214.
      296. 313. 261. 171. 251. 577. 709. 384. 623. 441. 412. 222. 352.
      514. 378. 581. 580. 226. 260. 247. 281. 348. 298. 249. 319. 259.
      391. 168. 317. 168. 115. 150. 190. 244. 223. 164. 186. 273. 198.
      237. 350. 369. 295. 287. 227. 297. 203. 316. 253. 368. 514. 412.
      503. 289. 135. 188. 185. 216. 268. 153. 235.</_>
    <_>
      196. 174. 301. 277. 221. 246. 167. 169. 397. 413. 363. 326. 356.
      342. 203. 227. 183. 356. 351. 606. 230. 401. 306. 304. 131. 185.
      244. 239. 180. 251. 289. 253. 174. 119. 473. 276. 432. 232. 377.
      290. 357. 214. 405. 206. 617. 378. 396. 355. 126. 198. 303. 279.
      557. 420. 691. 611. 106. 157. 230. 196. 246. 223. 313. 253. 149.
      323. 205. 287. 170. 257. 79. 136. 580. 775. 277. 331. 245. 309.
      145. 139. 366. 679. 445. 730. 196. 384. 250. 313. 220. 437. 236.
      283. 193. 330. 233. 199. 142. 189. 170. 213. 182. 249. 153. 187.
      294. 250. 180. 185. 609. 467. 249. 281. 297. 331. 363. 395. 399.
      532. 595. 799. 229. 284. 236. 175. 299. 314. 313. 227. 228. 179.
      295. 277. 208. 144. 150. 176. 649. 499. 459. 444. 256. 295. 240.
      348. 266. 278. 405. 619. 151. 144. 214. 271. 232. 233. 188. 272.
      103. 193. 137. 281. 203. 117. 583. 275. 353. 214. 477. 275. 329.
      195. 452. 336. 498. 309. 547. 382. 222. 154. 269. 224. 416. 345.
      784. 603. 228. 198. 195. 229. 228. 249. 237. 247. 262. 226. 201.
      276. 314. 287. 149. 220. 572. 675. 454. 721. 427. 354. 230. 320.
      507. 321. 571. 567. 209. 232. 224. 278. 370. 353. 228. 321. 210.
      300. 149. 279. 145. 141. 156. 175. 219. 241. 168. 161. 307. 201.
      308. 307. 416. 239. 321. 181. 331. 191. 319. 290. 353. 466. 371.
      449. 294. 148. 198. 178. 215. 186. 177. 148.</_>
    <_>
      208. 176. 318. 271. 229. 258. 151. 190. 471. 400. 333. 276. 409.
      334. 174. 225. 189. 374. 390. 565. 241. 378. 292. 290. 141. 243.
      263. 239. 185. 232. 270. 220. 199. 137. 503. 294. 369. 254. 348.
      292. 313. 187. 366. 266. 576. 440. 388. 353. 151. 215. 279. 281.
      528. 414. 658. 571. 150. 168. 236. 218. 277. 241. 302. 246. 175.
      295. 198. 323. 151. 285. 116. 164. 597. 794. 308. 358. 241. 293.
      151. 172. 356. 617. 482. 682. 190. 322. 250. 294. 268. 400. 222.
      275. 193. 348. 263. 180. 133. 207. 198. 228. 187. 274. 147. 223.
      251. 258. 209. 202. 499. 439. 278. 309. 264. 345. 347. 385. 410.
      510. 555. 814. 253. 264. 212. 183. 288. 314. 316. 270. 222. 175.
      268. 281. 227. 143. 156. 175. 610. 480. 417. 418. 258. 241. 238.
      303. 310. 273. 380. 567. 204. 182. 238. 274. 232. 210. 185. 266.
      144. 182. 165. 282. 184. 106. 491. 269. 328. 250. 467. 319. 311.
      172. 402. 299. 422. 321. 533. 407. 264. 191. 309. 235. 427. 331.
      755. 579. 293. 233. 218. 234. 240. 253. 238. 302. 262. 258. 243.
      304. 315. 281. 184. 246. 564. 624. 434. 631. 374. 333. 278. 322.
      512. 323. 585. 567. 242. 211. 235. 287. 325. 284. 235. 315. 203.
      346. 209. 281. 139. 142. 157. 183. 214. 221. 149. 190. 290. 203.
      283. 349. 381. 223. 332. 193. 345. 179. 322. 291. 356. 444. 375.
      439. 311. 128. 185. 183. 228. 221. 167. 185.</_>
    <_>
      248. 228. 310. 275. 196. 253. 184. 176. 418. 483. 449. 306. 341.
      374. 247. 238. 225. 396. 392. 516. 242. 313. 285. 290. 221. 201.
      254. 205. 167. 198. 242. 214. 171. 111. 415. 233. 270. 228. 314.
      293. 316. 291. 316. 208. 555. 543. 418. 403. 176. 217. 327. 264.
      528. 480. 596. 539. 148. 158. 209. 199. 223. 248. 240. 260. 204.
      311. 237. 332. 139. 188. 93. 120. 463. 578. 340. 371. 195. 234.
      177. 126. 485. 763. 645. 758. 216. 326. 265. 328. 258. 344. 272.
      255. 176. 266. 236. 149. 95. 130. 167. 205. 142. 237. 174. 188.
      262. 317. 209. 189. 564. 543. 274. 353. 252. 301. 414. 461. 428.
      557. 558. 856. 209. 216. 214. 181. 298. 317. 237. 239. 227. 167.
      302. 252. 214. 157. 182. 209. 627. 425. 474. 493. 393. 359. 296.
      295. 308. 277. 436. 633. 215. 177. 215. 263. 277. 239. 201. 250.
      122. 177. 149. 253. 160. 123. 406. 265. 339. 298. 410. 295. 346.
      201. 310. 227. 644. 455. 604. 408. 225. 151. 267. 236. 416. 359.
      616. 497. 271. 223. 204. 204. 234. 271. 166. 270. 241. 199. 255.
      320. 272. 250. 154. 221. 576. 501. 440. 560. 447. 268. 281. 271.
      520. 403. 672. 721. 188. 252. 296. 339. 296. 261. 248. 324. 196.
      287. 173. 243. 135. 110. 170. 179. 207. 254. 162. 195. 281. 174.
      252. 194. 413. 257. 302. 174. 333. 225. 445. 439. 354. 451. 391.
      513. 238. 141. 190. 206. 220. 203. 155. 176.</_>
    <_>
      243. 222. 318. 276. 229. 245. 144. 159. 395. 460. 514. 298. 331.
      348. 234. 223. 228. 391. 396. 573. 243. 359. 313. 249. 178. 224.
      289. 201. 166. 198. 279. 208. 179. 126. 446. 232. 313. 213. 316.
      284. 297. 255. 334. 205. 620. 502. 390. 398. 168. 218. 387. 239.
      532. 461. 591. 530. 131. 146. 222. 180. 244. 226. 239. 290. 224.
      337. 241. 358. 135. 210. 97. 124. 506. 578. 364. 371. 195. 243.
      152. 146. 474. 775. 612. 726. 198. 335. 261. 326. 235. 377. 305.
      257. 178. 305. 218. 153. 120. 141. 155. 210. 173. 231. 129. 217.
      251. 323. 211. 187. 502. 483. 262. 310. 288. 334. 403. 417. 374.
      524. 623. 816. 191. 206. 190. 185. 282. 323. 233. 246. 244. 152.
      328. 288. 235. 142. 192. 190. 637. 455. 509. 446. 293. 330. 286.
      314. 354. 256. 446. 637. 189. 150. 212. 234. 260. 245. 190. 270.
      132. 182. 148. 276. 174. 118. 418. 240. 349. 310. 392. 289. 328.
      234. 288. 243. 590. 465. 597. 400. 220. 164. 282. 257. 407. 309.
      671. 479. 251. 212. 198. 208. 230. 263. 223. 304. 277. 204. 249.
      288. 331. 233. 160. 201. 603. 533. 470. 603. 461. 293. 267. 282.
      532. 417. 628. 687. 223. 251. 264. 364. 332. 308. 226. 328. 173.
      261. 177. 200. 119. 110. 178. 159. 184. 325. 157. 207. 274. 186.
      236. 195. 399. 281. 284. 201. 346. 193. 432. 419. 357. 413. 390.
      528. 240. 141. 184. 184. 204. 181. 138. 190.</_>
    <_>
      199. 196. 327. 279. 240. 260. 139. 180. 432. 409. 342. 291. 452.
      438. 177. 210. 201. 356. 357. 501. 247. 354. 306. 304. 175. 198.
      286. 217. 195. 207. 278. 214. 209. 146. 538. 319. 379. 267. 333.
      311. 357. 222. 297. 243. 702. 500. 392. 358. 154. 206. 258. 220.
      455. 412. 586. 526. 169. 184. 258. 225. 266. 274. 256. 276. 173.
      304. 231. 305. 144. 238. 121. 167. 679. 848. 321. 367. 257. 309.
      143. 187. 368. 525. 441. 640. 178. 325. 216. 280. 232. 393. 277.
      295. 193. 341. 241. 179. 122. 202. 167. 235. 148. 284. 153. 238.
      255. 258. 184. 203. 523. 460. 265. 306. 248. 319. 317. 376. 356.
      541. 566. 878. 249. 261. 178. 211. 299. 282. 268. 289. 230. 168.
      306. 315. 194. 146. 168. 194. 646. 421. 476. 355. 285. 265. 248.
      299. 339. 276. 385. 552. 219. 175. 239. 218. 251. 217. 207. 245.
      141. 198. 131. 249. 179. 139. 502. 295. 350. 231. 417. 272. 298.
      187. 319. 317. 523. 427. 551. 438. 247. 171. 280. 210. 421. 330.
      673. 558. 254. 189. 184. 218. 266. 282. 256. 285. 253. 239. 253.
      294. 291. 297. 185. 241. 582. 638. 463. 579. 338. 290. 272. 278.
      497. 334. 516. 462. 263. 220. 229. 271. 307. 299. 268. 352. 226.
      376. 183. 282. 128. 149. 152. 208. 202. 267. 155. 206. 280. 237.
      298. 387. 392. 282. 334. 224. 301. 186. 319. 283. 366. 470. 373.
      434. 287. 150. 189. 236. 256. 250. 163. 207.</_>
    <_>
      213. 231. 301. 266. 213. 227. 160. 158. 395. 456. 451. 320. 327.
      380. 221. 265. 240. 401. 395. 526. 231. 319. 284. 292. 191. 202.
      276. 202. 150. 192. 268. 223. 148. 138. 444. 210. 282. 263. 318.
      300. 319. 300. 317. 225. 590. 530. 397. 372. 165. 220. 311. 285.
      587. 428. 622. 502. 130. 158. 212. 182. 242. 246. 272. 233. 255.
      302. 220. 313. 154. 203. 103. 154. 482. 517. 350. 344. 222. 231.
      163. 129. 494. 738. 670. 761. 191. 331. 279. 302. 242. 343. 267.
      267. 203. 272. 213. 167. 115. 158. 193. 215. 143. 203. 126. 198.
      226. 308. 218. 171. 511. 485. 270. 286. 293. 343. 446. 468. 362.
      555. 613. 865. 194. 222. 202. 173. 307. 325. 265. 246. 237. 173.
      308. 273. 190. 140. 183. 190. 676. 470. 558. 435. 362. 355. 269.
      282. 279. 243. 370. 628. 202. 189. 220. 265. 262. 216. 193. 235.
      123. 167. 165. 286. 165. 132. 401. 270. 358. 323. 391. 298. 279.
      256. 307. 241. 647. 456. 552. 424. 229. 180. 284. 241. 388. 353.
      682. 526. 279. 219. 207. 217. 202. 231. 170. 276. 271. 215. 246.
      341. 324. 255. 140. 206. 631. 564. 472. 488. 444. 318. 237. 277.
      543. 402. 711. 659. 224. 269. 307. 314. 336. 280. 233. 332. 196.
      285. 163. 219. 124. 126. 164. 198. 180. 279. 145. 186. 297. 196.
      246. 210. 439. 269. 272. 204. 337. 192. 337. 439. 313. 433. 398.
      520. 267. 155. 196. 200. 211. 202. 150. 174.</_>
    <_>
      8410. 127. 153. 148. 133. 169. 114. 202. 405. 238. 284. 199. 226.
      262. 158. 225. 185. 278. 272. 523. 213. 313. 181. 328. 121. 147.
      727. 182. 84. 141. 136. 144. 70. 53. 324. 164. 277. 196. 359. 272.
      234. 128. 242. 127. 562. 423. 478. 373. 146. 126. 536. 357. 806.
      446. 881. 1000. 96. 83. 547. 203. 243. 189. 260. 213. 466. 238.
      188. 304. 166. 170. 47. 120. 519. 663. 255. 334. 108. 169. 71. 72.
      499. 468. 485. 789. 170. 289. 168. 300. 194. 376. 268. 333. 111.
      219. 99. 128. 80. 110. 106. 134. 143. 196. 129. 125. 193. 141.
      120. 88. 512. 418. 217. 191. 218. 244. 322. 391. 405. 671. 638.
      1018. 126. 150. 128. 139. 256. 228. 196. 167. 200. 176. 190. 243.
      123. 102. 104. 114. 558. 363. 300. 471. 249. 448. 210. 269. 235.
      290. 424. 584. 105. 115. 137. 220. 128. 165. 150. 252. 97. 127.
      95. 150. 132. 75. 371. 180. 291. 206. 354. 232. 220. 135. 414.
      223. 608. 560. 654. 340. 143. 119. 242. 238. 383. 588. 624. 704.
      146. 102. 143. 133. 238. 230. 189. 248. 542. 249. 193. 273. 288.
      469. 70. 92. 533. 571. 295. 575. 526. 269. 135. 122. 346. 334.
      636. 671. 185. 379. 172. 332. 255. 328. 176. 339. 136. 231. 56.
      143. 91. 87. 96. 121. 175. 727. 123. 97. 250. 134. 241. 164. 397.
      303. 251. 205. 233. 147. 220. 254. 313. 424. 365. 507. 211. 92.
      123. 149. 212. 236. 121. 123.</_>
    <_>
      9758. 133. 183. 220. 140. 143. 120. 230. 355. 179. 336. 203. 218.
      240. 139. 245. 214. 323. 241. 565. 271. 398. 208. 299. 133. 152.
      692. 184. 106. 135. 132. 126. 95. 75. 310. 197. 337. 195. 269.
      281. 238. 143. 238. 124. 559. 453. 410. 338. 150. 188. 464. 372.
      822. 430. 705. 745. 110. 103. 547. 237. 232. 195. 225. 275. 475.
      258. 191. 292. 134. 173. 74. 155. 483. 537. 235. 313. 119. 181.
      42. 90. 475. 495. 425. 680. 164. 283. 183. 291. 140. 321. 250.
      336. 124. 312. 100. 150. 66. 116. 126. 121. 133. 187. 121. 101.
      192. 155. 105. 120. 502. 389. 218. 209. 225. 247. 350. 335. 404.
      515. 593. 816. 180. 183. 120. 151. 206. 170. 200. 155. 193. 172.
      259. 314. 113. 118. 137. 165. 451. 318. 333. 373. 220. 437. 233.
      283. 285. 278. 417. 595. 115. 147. 171. 230. 143. 179. 177. 194.
      115. 130. 107. 147. 133. 97. 354. 199. 275. 161. 410. 195. 218.
      165. 347. 189. 557. 605. 739. 372. 162. 122. 192. 196. 307. 584.
      585. 632. 151. 117. 120. 173. 231. 222. 190. 214. 515. 222. 224.
      257. 274. 476. 116. 120. 486. 524. 281. 510. 538. 271. 98. 131.
      343. 279. 630. 538. 187. 295. 182. 359. 271. 299. 211. 354. 158.
      320. 81. 154. 97. 70. 129. 99. 158. 635. 132. 89. 210. 110. 166.
      150. 457. 275. 259. 260. 261. 168. 248. 227. 329. 390. 351. 480.
      236. 119. 129. 184. 197. 189. 120. 134.</_>
    <_>
      11118. 152. 217. 241. 134. 204. 104. 250. 303. 208. 199. 199. 156.
      198. 124. 209. 193. 275. 271. 586. 235. 363. 199. 298. 92. 159.
      736. 195. 105. 125. 137. 154. 125. 66. 430. 189. 299. 171. 311.
      288. 248. 126. 202. 142. 436. 252. 320. 312. 152. 231. 410. 391.
      846. 306. 542. 538. 146. 125. 619. 275. 244. 147. 210. 245. 487.
      265. 184. 306. 183. 190. 79. 161. 455. 711. 273. 347. 118. 167.
      74. 121. 466. 480. 367. 694. 156. 309. 179. 209. 256. 397. 231.
      381. 158. 316. 104. 168. 92. 149. 134. 142. 128. 184. 117. 144.
      197. 174. 131. 145. 390. 279. 189. 205. 200. 218. 283. 300. 388.
      487. 423. 654. 178. 210. 117. 151. 227. 204. 177. 156. 182. 170.
      299. 285. 150. 128. 137. 173. 493. 315. 319. 359. 153. 412. 205.
      218. 334. 229. 386. 695. 129. 135. 138. 222. 123. 141. 170. 253.
      122. 130. 107. 162. 166. 78. 465. 240. 260. 185. 359. 259. 196.
      142. 416. 157. 442. 449. 581. 270. 165. 119. 211. 178. 302. 613.
      526. 461. 143. 99. 111. 136. 216. 181. 195. 229. 488. 274. 190.
      312. 269. 493. 103. 96. 515. 571. 278. 577. 693. 217. 109. 159.
      337. 328. 658. 526. 198. 337. 200. 281. 307. 322. 161. 361. 185.
      381. 83. 190. 87. 67. 121. 120. 152. 683. 160. 98. 288. 106. 261.
      227. 316. 278. 270. 223. 170. 113. 214. 217. 276. 351. 241. 324.
      244. 118. 140. 205. 258. 292. 152. 157.</_>
    <_>
      8631. 140. 251. 229. 127. 181. 75. 222. 338. 226. 287. 186. 235.
      276. 139. 214. 175. 321. 260. 565. 270. 371. 241. 364. 97. 126.
      714. 164. 123. 148. 166. 176. 109. 66. 382. 212. 397. 243. 351.
      316. 226. 111. 253. 114. 510. 250. 335. 282. 144. 242. 498. 350.
      913. 387. 682. 620. 139. 119. 621. 319. 257. 202. 367. 332. 445.
      280. 144. 282. 262. 197. 78. 170. 557. 783. 287. 303. 129. 215.
      93. 101. 528. 479. 401. 623. 165. 297. 144. 220. 145. 329. 195.
      311. 148. 308. 106. 165. 109. 137. 98. 158. 175. 217. 137. 155.
      190. 189. 153. 142. 400. 324. 236. 241. 213. 246. 259. 276. 377.
      467. 445. 647. 150. 182. 133. 155. 259. 209. 237. 189. 196. 144.
      238. 259. 152. 140. 149. 170. 493. 357. 356. 360. 211. 435. 204.
      202. 273. 277. 398. 651. 122. 142. 164. 192. 122. 166. 170. 239.
      111. 138. 111. 158. 132. 77. 336. 166. 312. 217. 406. 255. 229.
      121. 446. 183. 415. 481. 649. 349. 180. 138. 232. 211. 381. 650.
      621. 537. 145. 87. 175. 122. 261. 230. 215. 293. 473. 235. 177.
      214. 229. 491. 97. 121. 574. 595. 285. 649. 650. 271. 119. 152.
      388. 299. 700. 458. 203. 332. 183. 246. 230. 277. 156. 281. 154.
      324. 80. 181. 104. 89. 113. 93. 170. 858. 145. 106. 351. 140. 299.
      274. 382. 278. 254. 134. 228. 152. 233. 197. 320. 426. 299. 389.
      199. 110. 141. 183. 259. 243. 98. 175.</_>
    <_>
      1468. 144. 219. 239. 134. 184. 144. 210. 426. 320. 373. 238. 200.
      245. 132. 184. 215. 407. 333. 582. 173. 264. 280. 322. 108. 163.
      619. 186. 129. 162. 207. 188. 136. 105. 349. 191. 370. 268. 446.
      306. 244. 150. 286. 152. 638. 418. 426. 373. 166. 209. 539. 375.
      628. 431. 700. 604. 121. 119. 592. 244. 279. 198. 342. 338. 535.
      265. 207. 303. 159. 183. 104. 155. 608. 742. 302. 393. 170. 215.
      126. 145. 671. 749. 591. 775. 185. 266. 183. 270. 233. 365. 244.
      326. 178. 273. 117. 133. 120. 144. 203. 159. 220. 234. 184. 194.
      206. 174. 156. 115. 504. 374. 262. 309. 244. 307. 373. 361. 492.
      550. 654. 750. 191. 159. 163. 181. 352. 290. 280. 272. 188. 181.
      222. 309. 127. 170. 182. 226. 685. 482. 448. 425. 270. 381. 177.
      230. 246. 342. 424. 724. 136. 150. 216. 267. 129. 182. 177. 270.
      131. 150. 139. 200. 171. 132. 371. 229. 449. 283. 468. 253. 234.
      156. 302. 179. 627. 473. 585. 331. 173. 154. 335. 258. 436. 289.
      610. 537. 149. 100. 154. 170. 300. 201. 254. 282. 496. 258. 202.
      307. 413. 544. 119. 158. 653. 629. 486. 682. 471. 362. 161. 173.
      431. 401. 632. 665. 180. 242. 145. 265. 245. 345. 233. 425. 168.
      371. 100. 170. 131. 124. 171. 128. 248. 851. 137. 151. 251. 170.
      302. 163. 385. 280. 236. 449. 248. 170. 316. 316. 376. 328. 331.
      361. 188. 150. 170. 182. 266. 255. 136. 178.</_>
    <_>
      1861. 113. 210. 259. 123. 151. 126. 160. 449. 312. 382. 216. 202.
      233. 134. 198. 196. 393. 355. 610. 199. 236. 225. 273. 105. 143.
      608. 173. 126. 146. 186. 144. 146. 90. 262. 169. 405. 241. 428.
      312. 226. 148. 283. 152. 633. 374. 430. 387. 168. 164. 433. 359.
      610. 435. 746. 590. 98. 102. 605. 216. 316. 230. 412. 390. 515.
      225. 251. 283. 164. 163. 120. 187. 673. 754. 518. 370. 154. 217.
      106. 125. 548. 779. 537. 803. 205. 275. 188. 225. 262. 344. 261.
      324. 168. 305. 100. 137. 104. 136. 167. 133. 256. 239. 191. 212.
      291. 191. 186. 115. 490. 365. 258. 266. 274. 254. 379. 357. 552.
      531. 615. 799. 144. 157. 147. 189. 323. 266. 261. 283. 177. 231.
      258. 298. 148. 147. 157. 169. 655. 464. 450. 441. 282. 384. 221.
      222. 245. 325. 525. 871. 108. 133. 186. 255. 135. 170. 166. 212.
      132. 135. 124. 181. 163. 156. 347. 173. 478. 301. 379. 262. 243.
      153. 306. 167. 618. 498. 584. 375. 140. 130. 239. 220. 396. 334.
      613. 533. 143. 111. 159. 156. 325. 220. 277. 316. 538. 262. 221.
      387. 353. 503. 132. 143. 627. 671. 476. 975. 455. 335. 141. 165.
      483. 384. 582. 664. 154. 216. 147. 249. 284. 329. 183. 361. 166.
      352. 79. 139. 137. 117. 144. 111. 241. 789. 165. 153. 349. 156.
      366. 189. 417. 280. 266. 423. 215. 136. 308. 255. 351. 365. 318.
      359. 291. 111. 203. 173. 279. 274. 149. 208.</_>
    <_>
      138. 163. 245. 228. 130. 180. 129. 162. 486. 385. 532. 398. 292.
      299. 233. 246. 252. 309. 300. 447. 205. 249. 236. 299. 121. 158.
      729. 207. 115. 152. 188. 177. 114. 80. 341. 183. 347. 220. 429.
      329. 300. 193. 325. 135. 701. 490. 438. 350. 121. 136. 550. 336.
      634. 418. 670. 640. 88. 96. 502. 247. 258. 202. 330. 329. 219.
      333. 269. 361. 164. 155. 62. 96. 642. 751. 462. 459. 170. 258.
      127. 147. 666. 860. 768. 1037. 158. 280. 158. 232. 261. 392. 369.
      326. 151. 267. 115. 135. 105. 111. 124. 142. 186. 218. 159. 165.
      284. 235. 195. 152. 556. 444. 314. 235. 201. 222. 289. 313. 463.
      523. 539. 634. 182. 159. 170. 151. 326. 278. 198. 225. 195. 193.
      267. 310. 157. 127. 127. 175. 912. 665. 654. 531. 442. 407. 210.
      293. 276. 255. 354. 643. 94. 149. 191. 242. 207. 242. 204. 306.
      106. 120. 99. 172. 160. 71. 351. 218. 392. 263. 402. 230. 282.
      231. 320. 241. 713. 482. 640. 355. 160. 123. 247. 211. 408. 295.
      665. 526. 173. 115. 144. 180. 264. 181. 225. 275. 273. 281. 244.
      345. 659. 526. 104. 116. 874. 801. 559. 783. 351. 392. 167. 172.
      512. 427. 787. 902. 157. 234. 154. 246. 358. 349. 243. 392. 159.
      331. 89. 177. 108. 78. 101. 120. 215. 575. 137. 145. 261. 168.
      213. 161. 496. 403. 237. 386. 251. 140. 227. 267. 354. 376. 345.
      370. 161. 108. 136. 152. 226. 213. 122. 246.</_>
    <_>
      1015. 192. 291. 294. 143. 200. 120. 192. 364. 258. 345. 298. 183.
      283. 173. 188. 222. 383. 349. 565. 280. 375. 247. 325. 176. 196.
      749. 251. 109. 155. 202. 177. 135. 101. 371. 258. 285. 225. 341.
      280. 252. 152. 344. 177. 435. 376. 431. 325. 157. 161. 580. 304.
      787. 323. 524. 424. 102. 99. 576. 324. 221. 159. 260. 259. 288.
      359. 270. 385. 253. 183. 84. 132. 525. 763. 404. 465. 184. 240.
      146. 156. 729. 737. 526. 788. 176. 313. 203. 293. 306. 487. 323.
      365. 171. 304. 147. 160. 137. 144. 148. 162. 192. 203. 139. 181.
      294. 212. 227. 155. 489. 409. 288. 283. 240. 247. 376. 349. 441.
      467. 497. 630. 192. 172. 161. 186. 233. 266. 237. 209. 212. 202.
      328. 389. 169. 181. 132. 220. 577. 448. 430. 551. 268. 419. 245.
      269. 358. 327. 450. 755. 138. 153. 184. 269. 212. 245. 273. 325.
      125. 148. 138. 204. 154. 95. 342. 213. 305. 252. 352. 204. 304.
      205. 343. 260. 439. 424. 641. 343. 216. 137. 269. 234. 406. 515.
      586. 452. 181. 131. 209. 194. 201. 186. 220. 291. 300. 282. 260.
      345. 605. 478. 147. 128. 564. 592. 383. 754. 659. 324. 198. 191.
      497. 486. 553. 640. 136. 247. 167. 262. 342. 403. 220. 449. 149.
      329. 112. 163. 115. 98. 151. 115. 204. 534. 132. 103. 356. 175.
      386. 321. 442. 300. 235. 284. 324. 186. 342. 305. 321. 528. 278.
      487. 289. 129. 222. 238. 251. 231. 101. 125.</_>
    <_>
      817. 210. 318. 299. 174. 216. 125. 171. 435. 325. 417. 359. 224.
      267. 169. 204. 231. 367. 319. 533. 300. 316. 265. 272. 146. 215.
      776. 242. 129. 153. 212. 166. 139. 102. 366. 243. 298. 189. 311.
      228. 243. 231. 334. 176. 449. 397. 411. 315. 133. 158. 568. 316.
      680. 381. 549. 448. 101. 101. 543. 268. 248. 120. 257. 323. 531.
      344. 281. 394. 180. 188. 95. 137. 465. 672. 356. 442. 157. 227.
      170. 122. 732. 794. 552. 703. 198. 338. 213. 275. 240. 439. 359.
      379. 172. 326. 138. 142. 117. 147. 184. 163. 188. 181. 161. 183.
      258. 219. 210. 164. 496. 380. 291. 233. 230. 222. 397. 383. 383.
      522. 501. 713. 199. 196. 196. 163. 253. 268. 239. 215. 222. 220.
      302. 377. 151. 168. 177. 259. 674. 493. 417. 538. 360. 384. 254.
      272. 296. 302. 376. 679. 146. 158. 183. 252. 229. 277. 209. 358.
      111. 139. 133. 239. 190. 115. 379. 197. 302. 243. 323. 197. 278.
      214. 309. 238. 473. 394. 610. 321. 185. 115. 303. 206. 452. 407.
      585. 472. 202. 145. 172. 198. 206. 185. 206. 293. 565. 301. 220.
      362. 428. 516. 116. 151. 595. 619. 405. 674. 420. 490. 225. 235.
      540. 450. 564. 710. 154. 201. 164. 252. 343. 376. 212. 473. 174.
      317. 121. 159. 133. 98. 146. 166. 214. 755. 126. 136. 339. 150.
      292. 169. 486. 303. 283. 432. 297. 186. 361. 346. 326. 427. 321.
      448. 313. 127. 159. 165. 216. 226. 97. 141.</_>
    <_>
      6283. 110. 168. 200. 124. 142. 100. 169. 332. 203. 281. 251. 213.
      277. 150. 234. 230. 301. 289. 601. 205. 334. 173. 305. 129. 167.
      695. 177. 103. 157. 142. 142. 101. 56. 358. 151. 341. 248. 377.
      321. 237. 152. 253. 112. 680. 583. 540. 373. 118. 122. 514. 352.
      766. 442. 738. 748. 84. 72. 490. 241. 258. 271. 272. 348. 503.
      268. 214. 303. 157. 164. 66. 140. 415. 659. 252. 308. 137. 217.
      84. 107. 533. 576. 474. 812. 160. 293. 174. 309. 199. 414. 193.
      350. 132. 306. 88. 146. 74. 71. 115. 111. 134. 254. 117. 148. 206.
      151. 147. 124. 706. 464. 231. 192. 250. 239. 313. 354. 425. 671.
      577. 929. 145. 169. 107. 138. 227. 229. 193. 182. 202. 157. 235.
      285. 117. 109. 94. 117. 494. 374. 360. 401. 247. 388. 247. 332.
      288. 308. 510. 670. 112. 152. 143. 189. 177. 178. 137. 205. 124.
      115. 95. 141. 150. 65. 461. 184. 387. 229. 444. 264. 220. 175.
      399. 222. 741. 571. 826. 492. 111. 89. 246. 205. 366. 563. 707.
      504. 133. 77. 132. 153. 318. 231. 235. 292. 507. 228. 212. 282.
      334. 478. 71. 99. 443. 624. 309. 622. 475. 308. 113. 156. 410.
      383. 647. 686. 197. 315. 183. 267. 267. 342. 167. 303. 133. 276.
      71. 122. 78. 59. 83. 102. 179. 731. 119. 95. 287. 133. 209. 194.
      529. 406. 247. 273. 214. 145. 274. 198. 302. 395. 282. 419. 207.
      127. 126. 138. 230. 186. 124. 132.</_>
    <_>
      8553. 121. 229. 226. 127. 204. 118. 205. 256. 252. 275. 230. 193.
      245. 138. 216. 225. 276. 289. 598. 241. 388. 167. 349. 121. 161.
      747. 192. 114. 159. 186. 194. 127. 76. 460. 208. 388. 242. 341.
      281. 258. 137. 292. 154. 477. 345. 406. 349. 104. 183. 473. 376.
      834. 342. 626. 559. 94. 129. 544. 252. 289. 211. 279. 306. 493.
      274. 205. 301. 182. 186. 74. 155. 606. 902. 322. 327. 167. 189.
      91. 99. 484. 489. 369. 688. 136. 258. 160. 231. 217. 344. 202.
      352. 127. 293. 128. 134. 99. 112. 96. 125. 147. 242. 136. 167.
      224. 176. 118. 110. 514. 317. 232. 230. 231. 232. 253. 275. 339.
      485. 475. 607. 170. 160. 115. 157. 251. 249. 246. 214. 183. 128.
      241. 216. 127. 147. 128. 172. 589. 365. 361. 390. 270. 395. 225.
      256. 300. 253. 426. 727. 127. 145. 151. 233. 142. 178. 145. 223.
      117. 156. 83. 173. 131. 88. 445. 228. 335. 248. 446. 224. 207.
      113. 402. 241. 457. 441. 592. 367. 143. 116. 201. 161. 360. 591.
      570. 399. 187. 100. 136. 178. 251. 223. 210. 306. 489. 226. 164.
      301. 272. 506. 96. 101. 593. 641. 285. 662. 613. 340. 125. 201.
      446. 355. 540. 538. 192. 245. 203. 241. 260. 281. 178. 321. 174.
      292. 98. 163. 92. 94. 108. 100. 166. 729. 177. 115. 309. 147. 241.
      282. 365. 381. 239. 150. 220. 112. 230. 169. 265. 295. 253. 258.
      256. 113. 157. 173. 268. 202. 139. 158.</_>
    <_>
      9533. 122. 235. 246. 131. 186. 99. 243. 240. 209. 231. 264. 142.
      229. 97. 220. 213. 256. 298. 597. 246. 373. 191. 325. 118. 153.
      711. 205. 88. 161. 175. 178. 126. 67. 475. 223. 315. 200. 338.
      272. 225. 132. 223. 144. 333. 353. 323. 285. 137. 168. 390. 413.
      823. 390. 636. 628. 118. 107. 572. 221. 284. 213. 278. 263. 494.
      279. 189. 239. 157. 199. 82. 176. 542. 773. 292. 343. 131. 157.
      101. 102. 503. 462. 363. 720. 165. 310. 117. 241. 243. 390. 195.
      359. 148. 302. 117. 156. 99. 123. 113. 134. 149. 199. 136. 142.
      214. 161. 106. 117. 473. 334. 240. 237. 229. 203. 254. 289. 351.
      477. 458. 724. 155. 181. 136. 170. 258. 244. 192. 206. 181. 163.
      240. 281. 137. 127. 144. 164. 518. 329. 360. 412. 171. 387. 223.
      239. 298. 251. 421. 626. 117. 146. 142. 226. 127. 154. 134. 202.
      120. 119. 93. 181. 137. 87. 461. 232. 302. 187. 430. 244. 181.
      133. 372. 198. 377. 431. 647. 339. 120. 121. 230. 203. 397. 640.
      631. 397. 161. 110. 139. 177. 258. 186. 225. 271. 452. 229. 212.
      271. 312. 507. 95. 137. 556. 629. 349. 648. 638. 281. 136. 163.
      417. 321. 549. 578. 220. 298. 199. 237. 243. 348. 198. 320. 163.
      308. 103. 194. 106. 95. 119. 124. 168. 700. 152. 132. 294. 133.
      242. 210. 364. 264. 264. 271. 184. 116. 250. 194. 252. 380. 235.
      290. 248. 123. 141. 183. 280. 239. 152. 186.</_>
    <_>
      9584. 100. 239. 183. 130. 188. 98. 252. 288. 218. 220. 214. 194.
      293. 116. 217. 156. 251. 316. 592. 226. 347. 152. 330. 105. 159.
      802. 166. 134. 157. 159. 143. 124. 69. 483. 191. 370. 211. 332.
      262. 186. 80. 255. 125. 323. 307. 393. 331. 148. 181. 526. 362.
      826. 363. 588. 515. 122. 87. 629. 355. 269. 183. 237. 305. 485.
      258. 178. 320. 301. 180. 79. 153. 653. 881. 371. 384. 122. 219.
      71. 110. 529. 514. 333. 711. 157. 292. 152. 233. 225. 437. 241.
      355. 110. 327. 111. 132. 94. 122. 113. 134. 160. 185. 117. 126.
      196. 176. 138. 146. 428. 323. 221. 218. 219. 189. 235. 235. 358.
      491. 460. 675. 157. 198. 122. 176. 241. 191. 186. 175. 224. 150.
      267. 234. 128. 135. 99. 139. 481. 402. 354. 380. 176. 462. 240.
      250. 244. 271. 493. 752. 116. 145. 163. 237. 130. 129. 149. 185.
      127. 141. 78. 174. 139. 85. 452. 228. 267. 202. 341. 278. 187.
      147. 525. 189. 338. 458. 665. 289. 155. 123. 203. 159. 304. 604.
      525. 380. 148. 89. 134. 132. 255. 207. 215. 347. 467. 234. 167.
      242. 200. 451. 109. 103. 562. 630. 311. 692. 682. 248. 123. 108.
      431. 360. 609. 567. 183. 292. 173. 251. 249. 297. 157. 325. 154.
      325. 99. 147. 101. 90. 93. 99. 159. 913. 131. 97. 376. 135. 320.
      304. 328. 269. 263. 102. 210. 149. 191. 153. 229. 381. 241. 273.
      223. 110. 169. 208. 250. 299. 133. 132.</_>
    <_>
      6199. 122. 242. 223. 129. 199. 122. 193. 280. 231. 271. 224. 213.
      276. 108. 182. 233. 289. 302. 621. 254. 386. 217. 384. 139. 156.
      718. 193. 121. 170. 198. 179. 145. 86. 487. 226. 384. 244. 368.
      296. 257. 104. 260. 181. 416. 341. 374. 337. 138. 193. 501. 397.
      801. 400. 632. 584. 116. 132. 574. 257. 317. 194. 295. 296. 493.
      245. 252. 287. 199. 207. 87. 178. 580. 844. 350. 365. 139. 184.
      83. 106. 534. 501. 383. 702. 170. 319. 162. 242. 226. 396. 250.
      319. 164. 369. 141. 158. 92. 118. 119. 137. 158. 259. 136. 147.
      201. 180. 133. 159. 461. 343. 241. 236. 235. 254. 272. 334. 309.
      492. 460. 631. 172. 189. 139. 176. 255. 259. 220. 218. 190. 146.
      266. 254. 139. 130. 136. 169. 578. 324. 329. 385. 264. 409. 196.
      245. 298. 295. 443. 712. 133. 140. 169. 238. 162. 143. 158. 213.
      140. 142. 104. 196. 110. 94. 493. 233. 328. 253. 469. 284. 187.
      134. 388. 220. 435. 433. 655. 408. 176. 127. 246. 206. 398. 585.
      578. 427. 184. 123. 132. 168. 256. 237. 224. 311. 488. 224. 196.
      302. 319. 511. 98. 133. 589. 617. 342. 669. 599. 344. 125. 192.
      462. 336. 512. 575. 231. 315. 217. 256. 259. 336. 208. 342. 171.
      355. 105. 197. 103. 106. 126. 118. 191. 749. 174. 122. 294. 139.
      304. 296. 363. 275. 216. 244. 238. 117. 212. 204. 282. 422. 297.
      234. 245. 116. 166. 190. 256. 216. 167. 168.</_>
    <_>
      189. 231. 327. 264. 176. 217. 114. 168. 796. 352. 457. 361. 256.
      301. 200. 248. 189. 351. 312. 442. 304. 326. 258. 294. 168. 219.
      457. 265. 141. 176. 203. 195. 153. 123. 434. 219. 287. 192. 326.
      269. 293. 215. 341. 151. 511. 398. 434. 333. 135. 137. 549. 244.
      680. 376. 565. 478. 97. 134. 484. 372. 286. 183. 275. 300. 280.
      371. 311. 443. 291. 154. 106. 122. 431. 800. 448. 405. 194. 243.
      137. 153. 720. 782. 533. 692. 191. 293. 188. 313. 311. 456. 362.
      331. 214. 281. 172. 132. 115. 128. 174. 173. 134. 183. 128. 164.
      310. 292. 220. 182. 545. 409. 292. 308. 232. 247. 351. 340. 364.
      458. 507. 741. 210. 202. 197. 171. 283. 289. 250. 218. 256. 183.
      303. 335. 166. 196. 153. 196. 646. 488. 448. 567. 413. 390. 300.
      326. 344. 299. 423. 653. 149. 178. 183. 228. 259. 250. 241. 338.
      132. 180. 118. 227. 164. 110. 433. 224. 316. 271. 309. 238. 296.
      236. 322. 237. 554. 425. 576. 417. 191. 123. 265. 218. 455. 546.
      575. 477. 186. 168. 165. 213. 207. 190. 206. 256. 298. 246. 246.
      383. 362. 400. 122. 139. 558. 614. 422. 839. 377. 415. 262. 194.
      499. 435. 499. 557. 158. 187. 176. 219. 337. 341. 230. 513. 169.
      280. 139. 163. 106. 85. 155. 144. 209. 631. 108. 127. 469. 206.
      376. 228. 448. 397. 289. 295. 253. 161. 251. 260. 300. 431. 353.
      446. 308. 157. 205. 165. 215. 229. 118. 151.</_>
    <_>
      2788. 195. 284. 249. 161. 196. 127. 196. 458. 334. 458. 302. 261.
      327. 204. 234. 224. 360. 304. 464. 295. 325. 213. 301. 180. 220.
      767. 200. 117. 189. 218. 186. 162. 92. 360. 200. 265. 207. 301.
      234. 250. 223. 352. 179. 444. 377. 408. 314. 135. 122. 511. 257.
      723. 374. 507. 430. 107. 121. 547. 385. 200. 200. 212. 273. 517.
      287. 255. 392. 293. 166. 86. 113. 428. 607. 398. 365. 181. 218.
      149. 166. 734. 736. 548. 737. 154. 288. 201. 229. 281. 359. 305.
      311. 148. 273. 154. 133. 100. 133. 148. 163. 126. 204. 137. 148.
      313. 283. 211. 172. 439. 373. 247. 327. 230. 237. 339. 369. 317.
      426. 442. 744. 187. 204. 169. 209. 251. 259. 218. 206. 219. 187.
      285. 311. 207. 154. 158. 193. 622. 435. 423. 507. 348. 422. 307.
      267. 255. 257. 399. 609. 143. 156. 163. 229. 256. 233. 224. 273.
      120. 153. 131. 206. 172. 108. 415. 217. 279. 272. 316. 204. 282.
      231. 317. 235. 547. 450. 598. 372. 185. 105. 239. 223. 371. 569.
      527. 412. 182. 161. 177. 215. 230. 207. 181. 261. 534. 224. 249.
      305. 348. 518. 134. 137. 619. 501. 393. 785. 579. 357. 250. 208.
      493. 391. 575. 607. 170. 197. 178. 243. 373. 333. 202. 431. 153.
      279. 140. 145. 114. 123. 151. 152. 177. 915. 126. 151. 387. 151.
      315. 254. 381. 301. 283. 309. 274. 181. 283. 344. 248. 384. 326.
      414. 322. 156. 195. 173. 215. 218. 136. 126.</_>
    <_>
      208. 192. 287. 262. 171. 190. 127. 154. 710. 458. 602. 358. 300.
      345. 268. 251. 197. 372. 329. 501. 310. 346. 238. 290. 189. 182.
      479. 267. 143. 178. 229. 187. 155. 81. 420. 215. 288. 235. 346.
      277. 243. 201. 498. 197. 584. 446. 487. 381. 116. 147. 589. 269.
      654. 397. 624. 439. 129. 70. 289. 342. 257. 175. 275. 279. 235.
      331. 272. 421. 313. 165. 72. 108. 476. 790. 451. 419. 200. 259.
      156. 169. 755. 842. 559. 776. 164. 283. 203. 277. 305. 481. 356.
      390. 174. 295. 162. 135. 99. 124. 150. 173. 143. 165. 135. 169.
      276. 305. 207. 155. 523. 420. 277. 284. 225. 266. 323. 353. 344.
      464. 499. 798. 195. 194. 202. 169. 304. 257. 246. 234. 229. 182.
      317. 330. 198. 157. 135. 205. 727. 535. 530. 584. 434. 446. 310.
      328. 312. 287. 438. 673. 120. 157. 161. 256. 276. 271. 214. 341.
      120. 168. 145. 227. 195. 88. 431. 224. 311. 253. 302. 292. 301.
      223. 412. 287. 570. 464. 679. 443. 242. 108. 265. 225. 356. 297.
      527. 379. 217. 165. 173. 220. 211. 179. 187. 312. 282. 239. 282.
      364. 331. 226. 117. 119. 653. 684. 471. 748. 379. 276. 221. 213.
      544. 452. 553. 630. 139. 211. 167. 241. 327. 345. 266. 412. 172.
      283. 121. 181. 114. 83. 128. 148. 203. 652. 109. 146. 266. 194.
      248. 262. 462. 388. 298. 165. 269. 180. 291. 341. 306. 354. 306.
      379. 235. 197. 127. 210. 211. 191. 117. 123.</_>
    <_>
      6343. 108. 169. 184. 141. 198. 87. 193. 335. 193. 265. 205. 344.
      287. 164. 235. 176. 335. 279. 634. 204. 304. 167. 293. 127. 182.
      762. 190. 131. 175. 150. 147. 99. 55. 362. 167. 370. 258. 350.
      307. 293. 121. 274. 138. 710. 676. 552. 403. 112. 185. 436. 330.
      774. 449. 697. 772. 124. 124. 537. 270. 304. 263. 244. 320. 495.
      264. 224. 301. 185. 171. 74. 153. 475. 631. 249. 339. 160. 249.
      69. 113. 596. 493. 446. 672. 137. 257. 167. 256. 209. 397. 226.
      323. 146. 260. 110. 157. 105. 103. 115. 107. 151. 234. 121. 134.
      192. 161. 131. 131. 624. 435. 269. 192. 223. 241. 284. 322. 375.
      615. 582. 828. 144. 145. 140. 164. 275. 274. 174. 184. 223. 160.
      194. 251. 129. 140. 139. 140. 540. 377. 343. 404. 237. 378. 208.
      285. 293. 297. 459. 698. 111. 148. 132. 221. 190. 161. 158. 210.
      151. 130. 88. 161. 156. 80. 406. 182. 324. 226. 461. 244. 263.
      167. 455. 264. 710. 667. 802. 492. 113. 106. 180. 198. 347. 580.
      554. 475. 143. 93. 131. 144. 260. 262. 269. 289. 552. 241. 187.
      308. 278. 519. 95. 87. 438. 565. 297. 591. 507. 299. 84. 187. 369.
      332. 653. 517. 187. 298. 192. 265. 269. 294. 177. 293. 135. 291.
      89. 153. 81. 85. 106. 113. 162. 755. 129. 107. 242. 149. 229. 269.
      476. 383. 248. 239. 244. 152. 239. 207. 305. 353. 274. 376. 249.
      97. 152. 179. 210. 235. 119. 126.</_>
    <_>
      9421. 99. 188. 189. 125. 174. 86. 189. 299. 238. 216. 223. 313.
      313. 156. 212. 215. 309. 289. 545. 216. 266. 151. 277. 110. 160.
      706. 186. 129. 155. 148. 135. 112. 64. 338. 164. 355. 241. 298.
      289. 306. 157. 249. 132. 664. 583. 502. 414. 116. 170. 413. 405.
      734. 409. 656. 711. 90. 85. 522. 247. 308. 241. 247. 322. 483.
      236. 202. 297. 145. 172. 70. 134. 408. 556. 193. 257. 153. 213.
      97. 128. 512. 522. 478. 728. 156. 242. 163. 237. 194. 367. 212.
      332. 123. 273. 103. 132. 90. 94. 127. 121. 140. 224. 118. 144.
      200. 212. 88. 99. 607. 438. 240. 224. 218. 250. 280. 321. 383.
      527. 523. 762. 160. 171. 122. 125. 233. 219. 170. 170. 207. 172.
      208. 245. 136. 116. 139. 151. 472. 388. 359. 366. 261. 425. 272.
      285. 289. 278. 435. 653. 124. 141. 156. 187. 182. 161. 138. 193.
      128. 145. 85. 139. 131. 84. 321. 167. 364. 218. 396. 266. 269.
      168. 374. 245. 629. 608. 801. 404. 106. 110. 167. 171. 317. 575.
      565. 513. 127. 90. 108. 156. 299. 245. 234. 265. 496. 241. 155.
      254. 286. 496. 88. 88. 410. 506. 314. 520. 461. 289. 132. 127.
      404. 282. 671. 496. 164. 301. 190. 258. 242. 261. 168. 287. 166.
      286. 77. 118. 79. 74. 113. 120. 146. 688. 122. 115. 273. 153. 223.
      213. 494. 389. 248. 254. 232. 123. 222. 194. 259. 403. 288. 390.
      214. 126. 139. 169. 201. 198. 122. 153.</_>
    <_>
      10420. 127. 211. 230. 137. 209. 89. 248. 248. 284. 183. 204. 266.
      301. 175. 221. 147. 287. 246. 540. 219. 315. 180. 334. 116. 136.
      702. 162. 125. 160. 156. 173. 129. 64. 441. 186. 319. 210. 331.
      302. 245. 109. 211. 123. 491. 345. 379. 299. 157. 229. 488. 357.
      856. 358. 577. 506. 162. 104. 585. 358. 247. 197. 259. 281. 437.
      267. 195. 250. 332. 209. 72. 131. 585. 717. 316. 278. 146. 219.
      84. 129. 592. 431. 343. 592. 147. 258. 140. 223. 180. 383. 169.
      331. 140. 326. 123. 165. 87. 121. 145. 135. 115. 179. 138. 175.
      200. 187. 134. 119. 425. 320. 263. 198. 242. 192. 199. 222. 304.
      415. 397. 584. 161. 214. 101. 175. 290. 234. 209. 210. 141. 162.
      236. 226. 144. 146. 125. 137. 513. 405. 334. 379. 243. 456. 243.
      232. 243. 258. 381. 691. 147. 144. 151. 200. 121. 151. 159. 153.
      118. 141. 105. 153. 140. 81. 443. 198. 296. 233. 423. 261. 208.
      142. 487. 206. 411. 474. 695. 277. 152. 124. 202. 159. 365. 629.
      506. 388. 165. 121. 158. 113. 256. 220. 242. 297. 431. 204. 178.
      216. 242. 473. 108. 98. 491. 571. 309. 666. 650. 283. 138. 150.
      406. 287. 613. 499. 193. 371. 202. 259. 255. 287. 154. 307. 135.
      288. 81. 162. 77. 101. 110. 119. 160. 913. 113. 97. 335. 144. 338.
      307. 346. 256. 313. 113. 185. 98. 172. 184. 277. 401. 229. 235.
      215. 92. 158. 216. 244. 268. 138. 173.</_>
    <_>
      4562. 144. 270. 223. 149. 159. 144. 233. 426. 292. 469. 277. 235.
      260. 178. 229. 273. 264. 318. 551. 185. 238. 217. 321. 119. 143.
      653. 201. 120. 143. 160. 161. 107. 82. 272. 171. 289. 227. 345.
      299. 248. 167. 325. 132. 541. 433. 443. 338. 133. 192. 468. 282.
      563. 375. 603. 528. 118. 104. 499. 300. 291. 207. 293. 304. 561.
      280. 267. 331. 199. 189. 113. 142. 645. 702. 572. 463. 162. 174.
      122. 147. 702. 728. 668. 918. 117. 222. 171. 209. 225. 310. 280.
      330. 148. 213. 122. 134. 118. 99. 122. 123. 143. 210. 153. 196.
      250. 185. 169. 110. 503. 404. 264. 278. 219. 224. 246. 322. 373.
      441. 457. 664. 181. 168. 179. 182. 275. 251. 174. 214. 171. 183.
      237. 239. 157. 173. 155. 169. 732. 521. 493. 423. 383. 375. 206.
      246. 232. 251. 454. 783. 116. 150. 181. 249. 195. 189. 180. 229.
      132. 138. 102. 161. 127. 118. 295. 161. 373. 285. 346. 265. 237.
      161. 242. 181. 626. 489. 614. 362. 128. 118. 230. 183. 381. 331.
      577. 481. 132. 105. 124. 188. 293. 199. 221. 331. 507. 252. 221.
      359. 358. 520. 82. 102. 693. 625. 464. 807. 342. 386. 131. 121.
      519. 447. 626. 798. 142. 199. 157. 232. 251. 232. 201. 387. 173.
      296. 93. 142. 107. 121. 104. 115. 203. 918. 136. 142. 338. 120.
      272. 221. 404. 363. 255. 337. 206. 138. 295. 234. 339. 356. 352.
      368. 258. 107. 184. 171. 210. 216. 141. 236.</_>
    <_>
      204. 214. 309. 285. 188. 199. 128. 189. 552. 440. 445. 350. 321.
      369. 244. 279. 214. 361. 329. 468. 330. 332. 260. 307. 182. 223.
      747. 263. 130. 174. 191. 157. 172. 136. 391. 219. 272. 224. 264.
      247. 298. 251. 344. 211. 460. 392. 389. 369. 169. 156. 545. 268.
      692. 421. 521. 431. 132. 171. 530. 369. 284. 176. 201. 302. 250.
      317. 283. 393. 274. 179. 97. 152. 485. 688. 404. 357. 200. 249.
      161. 184. 733. 714. 508. 619. 178. 312. 203. 247. 297. 383. 332.
      329. 164. 264. 151. 127. 120. 130. 169. 167. 144. 167. 111. 187.
      298. 298. 245. 193. 468. 432. 269. 269. 273. 264. 322. 347. 370.
      436. 471. 669. 235. 245. 208. 189. 276. 276. 206. 205. 198. 187.
      317. 324. 161. 156. 148. 227. 638. 512. 515. 510. 423. 457. 309.
      337. 305. 269. 359. 609. 173. 174. 214. 290. 252. 251. 253. 318.
      99. 176. 137. 210. 164. 116. 388. 241. 317. 251. 274. 208. 314.
      248. 312. 264. 511. 362. 568. 374. 193. 139. 212. 221. 376. 508.
      554. 482. 180. 169. 180. 190. 186. 195. 188. 281. 268. 283. 308.
      315. 622. 502. 138. 149. 569. 551. 489. 753. 400. 480. 234. 242.
      516. 394. 600. 576. 164. 198. 221. 274. 327. 333. 254. 422. 194.
      308. 138. 166. 113. 104. 155. 146. 184. 598. 127. 142. 402. 211.
      301. 298. 398. 355. 348. 326. 322. 178. 318. 309. 274. 447. 360.
      433. 343. 166. 174. 226. 186. 212. 130. 168.</_>
    <_>
      1432. 144. 238. 241. 128. 190. 127. 193. 386. 330. 408. 263. 272.
      248. 148. 186. 263. 291. 328. 536. 197. 282. 255. 311. 165. 165.
      615. 180. 120. 148. 191. 156. 125. 140. 381. 188. 349. 292. 383.
      335. 277. 181. 347. 154. 616. 458. 380. 315. 133. 174. 465. 280.
      726. 582. 785. 687. 120. 118. 544. 259. 317. 271. 342. 324. 472.
      242. 310. 346. 144. 162. 102. 125. 704. 759. 575. 378. 185. 186.
      120. 137. 642. 774. 594. 852. 140. 228. 201. 259. 252. 325. 260.
      340. 155. 236. 135. 167. 122. 140. 170. 154. 170. 195. 157. 205.
      258. 181. 155. 147. 458. 368. 235. 274. 226. 220. 309. 354. 460.
      570. 580. 858. 180. 173. 137. 182. 302. 298. 241. 267. 194. 173.
      255. 258. 160. 171. 150. 198. 693. 535. 501. 384. 322. 351. 170.
      212. 254. 250. 379. 656. 172. 171. 196. 279. 187. 175. 156. 213.
      157. 141. 112. 147. 139. 135. 346. 168. 443. 324. 395. 279. 229.
      189. 275. 205. 513. 481. 533. 361. 160. 126. 253. 245. 492. 402.
      682. 510. 174. 98. 154. 159. 275. 207. 254. 328. 479. 210. 210.
      350. 410. 534. 106. 121. 658. 644. 556. 945. 404. 378. 182. 164.
      480. 372. 634. 776. 161. 214. 219. 240. 286. 281. 208. 358. 177.
      304. 122. 151. 70. 84. 139. 113. 183. 888. 161. 160. 233. 151.
      280. 256. 346. 235. 225. 466. 231. 133. 302. 273. 359. 438. 403.
      453. 252. 129. 148. 203. 220. 190. 158. 240.</_>
    <_>
      172. 175. 322. 306. 147. 179. 148. 167. 596. 382. 498. 294. 319.
      312. 149. 206. 349. 306. 359. 497. 200. 255. 251. 331. 146. 167.
      675. 162. 127. 148. 208. 150. 105. 93. 332. 171. 375. 226. 379.
      316. 268. 178. 312. 174. 690. 462. 416. 343. 123. 176. 504. 332.
      609. 593. 730. 608. 97. 88. 491. 276. 252. 216. 345. 364. 211.
      257. 294. 364. 204. 163. 82. 97. 658. 787. 419. 441. 194. 228.
      138. 149. 661. 779. 657. 916. 125. 259. 169. 275. 256. 393. 310.
      371. 145. 219. 134. 140. 90. 109. 137. 144. 154. 252. 166. 221.
      252. 186. 180. 140. 509. 332. 261. 283. 215. 239. 297. 339. 443.
      533. 574. 750. 181. 184. 161. 173. 320. 298. 249. 248. 184. 191.
      293. 259. 162. 131. 161. 175. 812. 599. 560. 442. 380. 350. 202.
      235. 261. 272. 479. 729. 130. 168. 205. 255. 192. 210. 171. 235.
      159. 156. 131. 188. 145. 104. 341. 190. 391. 294. 405. 303. 273.
      215. 294. 209. 536. 486. 564. 406. 166. 133. 260. 211. 498. 403.
      713. 597. 173. 120. 145. 199. 261. 190. 243. 371. 220. 235. 225.
      325. 646. 532. 85. 148. 831. 719. 546. 797. 360. 380. 179. 156.
      547. 447. 647. 743. 183. 239. 179. 263. 312. 320. 269. 457. 157.
      246. 111. 164. 95. 85. 154. 130. 205. 628. 161. 185. 228. 172.
      238. 173. 368. 318. 227. 454. 242. 144. 294. 265. 340. 356. 392.
      427. 191. 138. 124. 151. 271. 194. 148. 256.</_>
    <_>
      5568. 117. 257. 237. 129. 194. 110. 233. 217. 224. 250. 222. 144.
      149. 126. 205. 218. 257. 327. 582. 251. 365. 177. 317. 112. 191.
      727. 205. 138. 164. 172. 178. 188. 96. 468. 256. 342. 239. 318.
      313. 257. 142. 261. 150. 318. 367. 366. 349. 161. 230. 447. 453.
      850. 442. 704. 656. 163. 169. 650. 232. 241. 203. 286. 269. 494.
      295. 190. 364. 146. 223. 104. 186. 480. 669. 357. 390. 126. 167.
      111. 109. 539. 542. 298. 668. 146. 306. 183. 306. 241. 441. 239.
      348. 168. 318. 141. 157. 87. 159. 147. 180. 131. 206. 132. 167.
      211. 170. 170. 153. 474. 375. 214. 228. 220. 232. 241. 278. 391.
      485. 542. 804. 179. 240. 164. 188. 279. 207. 212. 192. 191. 180.
      264. 271. 173. 160. 143. 210. 499. 276. 331. 364. 187. 423. 241.
      225. 305. 265. 522. 824. 164. 154. 152. 208. 123. 205. 154. 179.
      121. 166. 123. 173. 153. 90. 412. 236. 341. 266. 366. 265. 202.
      135. 426. 174. 383. 494. 625. 356. 177. 111. 264. 215. 432. 597.
      694. 598. 199. 121. 145. 153. 255. 213. 233. 216. 498. 228. 181.
      313. 359. 521. 131. 155. 484. 489. 332. 633. 673. 206. 113. 159.
      449. 335. 709. 578. 241. 336. 253. 279. 289. 328. 190. 402. 216.
      376. 112. 185. 104. 92. 120. 134. 164. 733. 185. 127. 227. 118.
      240. 268. 376. 189. 247. 338. 245. 140. 214. 231. 343. 423. 336.
      405. 310. 103. 151. 210. 287. 288. 176. 141.</_>
    <_>
      1251. 190. 265. 236. 169. 200. 113. 152. 498. 375. 399. 297. 245.
      266. 155. 182. 227. 395. 363. 542. 311. 416. 265. 339. 157. 187.
      731. 231. 155. 168. 202. 140. 176. 120. 378. 215. 302. 224. 299.
      252. 221. 181. 351. 159. 454. 424. 358. 326. 152. 185. 564. 320.
      743. 330. 517. 477. 124. 119. 583. 324. 230. 171. 218. 265. 565.
      308. 293. 403. 261. 147. 100. 167. 510. 740. 392. 411. 162. 221.
      134. 144. 675. 695. 577. 693. 178. 272. 232. 312. 257. 425. 343.
      383. 192. 281. 168. 157. 80. 121. 157. 206. 142. 159. 145. 150.
      204. 205. 184. 167. 396. 365. 307. 302. 257. 281. 396. 374. 400.
      465. 516. 740. 168. 190. 194. 169. 262. 220. 209. 211. 226. 181.
      237. 307. 167. 145. 138. 167. 636. 481. 457. 506. 288. 418. 245.
      273. 295. 312. 409. 701. 156. 174. 194. 315. 241. 246. 222. 293.
      159. 177. 122. 190. 180. 113. 385. 222. 297. 263. 278. 221. 262.
      197. 285. 241. 495. 513. 626. 398. 219. 145. 259. 215. 464. 363.
      534. 480. 180. 135. 175. 181. 228. 186. 210. 255. 530. 266. 263.
      377. 346. 490. 130. 174. 574. 566. 499. 758. 627. 260. 196. 182.
      481. 382. 611. 693. 192. 211. 178. 322. 320. 329. 241. 462. 200.
      251. 141. 170. 138. 116. 163. 162. 217. 836. 105. 127. 299. 170.
      325. 200. 368. 338. 262. 264. 289. 172. 355. 383. 337. 508. 298.
      516. 241. 132. 201. 168. 190. 210. 119. 162.</_>
    <_>
      5872. 182. 234. 205. 123. 149. 117. 126. 424. 360. 363. 285. 216.
      232. 151. 157. 188. 294. 324. 481. 266. 317. 281. 323. 114. 149.
      689. 197. 108. 136. 195. 156. 140. 79. 372. 194. 297. 200. 349.
      258. 219. 119. 311. 134. 462. 302. 392. 265. 130. 106. 538. 326.
      644. 332. 562. 476. 99. 93. 545. 303. 220. 132. 248. 274. 474.
      287. 247. 346. 184. 144. 84. 106. 441. 703. 383. 350. 147. 253.
      117. 133. 669. 729. 464. 706. 168. 300. 209. 288. 196. 426. 286.
      301. 190. 299. 137. 168. 113. 91. 161. 149. 166. 167. 142. 157.
      242. 173. 188. 144. 434. 340. 292. 265. 252. 264. 381. 374. 448.
      535. 541. 766. 163. 132. 186. 158. 262. 237. 234. 236. 187. 160.
      227. 275. 166. 158. 123. 122. 692. 498. 447. 469. 261. 438. 201.
      244. 246. 230. 366. 698. 128. 140. 173. 280. 186. 225. 218. 282.
      124. 125. 105. 191. 159. 104. 359. 210. 283. 290. 352. 208. 253.
      162. 321. 230. 463. 484. 639. 298. 165. 126. 301. 252. 450. 515.
      582. 505. 194. 100. 178. 202. 233. 164. 187. 233. 521. 285. 191.
      289. 357. 463. 87. 141. 612. 602. 428. 721. 596. 284. 135. 191.
      404. 396. 495. 636. 146. 224. 170. 256. 314. 318. 208. 415. 170.
      281. 86. 173. 129. 91. 153. 121. 191. 796. 114. 93. 396. 165. 292.
      216. 378. 292. 192. 313. 252. 126. 305. 333. 312. 448. 295. 424.
      267. 95. 176. 135. 227. 225. 91. 112.</_>
    <_>
      1064. 216. 258. 230. 141. 189. 125. 157. 334. 369. 347. 297. 208.
      299. 166. 209. 244. 446. 386. 515. 281. 394. 283. 324. 168. 200.
      782. 236. 142. 168. 196. 205. 172. 113. 394. 196. 315. 188. 334.
      261. 186. 194. 302. 160. 353. 347. 364. 294. 175. 178. 580. 345.
      872. 410. 523. 523. 133. 143. 625. 302. 207. 189. 248. 265. 551.
      364. 262. 405. 253. 201. 79. 135. 390. 707. 335. 458. 150. 214.
      152. 169. 676. 728. 543. 730. 187. 353. 210. 291. 261. 447. 287.
      388. 171. 294. 184. 177. 135. 127. 166. 177. 179. 154. 142. 150.
      214. 257. 176. 149. 419. 309. 310. 278. 282. 295. 404. 414. 410.
      450. 550. 700. 250. 200. 166. 180. 284. 252. 228. 213. 195. 164.
      254. 321. 160. 172. 152. 218. 588. 440. 433. 469. 211. 411. 287.
      280. 339. 325. 441. 697. 163. 164. 199. 278. 233. 220. 240. 361.
      118. 147. 112. 191. 184. 101. 387. 214. 260. 260. 317. 212. 279.
      182. 339. 217. 440. 552. 654. 323. 224. 152. 350. 272. 401. 294.
      577. 430. 196. 142. 215. 209. 202. 178. 195. 255. 562. 275. 251.
      393. 404. 512. 129. 157. 501. 499. 442. 701. 668. 268. 213. 188.
      509. 411. 582. 671. 183. 257. 206. 309. 255. 318. 258. 434. 184.
      274. 141. 189. 135. 107. 157. 154. 220. 827. 140. 110. 253. 178.
      284. 289. 365. 329. 311. 258. 353. 188. 374. 380. 304. 417. 296.
      428. 277. 151. 195. 248. 199. 210. 145. 136.</_>
    <_>
      117. 135. 314. 212. 150. 183. 115. 157. 481. 304. 507. 302. 248.
      209. 147. 178. 263. 251. 365. 556. 236. 246. 254. 321. 124. 133.
      710. 168. 154. 151. 196. 147. 114. 59. 375. 189. 337. 263. 485.
      333. 249. 154. 340. 171. 662. 416. 443. 356. 103. 134. 546. 272.
      645. 510. 859. 760. 80. 46. 554. 283. 281. 241. 417. 329. 195.
      342. 270. 367. 183. 194. 63. 90. 654. 715. 443. 433. 168. 224.
      114. 140. 721. 806. 761. 1082. 138. 256. 165. 274. 183. 397. 335.
      377. 199. 247. 139. 162. 85. 113. 148. 132. 190. 216. 171. 195.
      216. 208. 164. 137. 452. 397. 241. 284. 192. 217. 319. 342. 521.
      600. 590. 846. 144. 129. 181. 168. 270. 281. 277. 274. 183. 196.
      269. 266. 185. 171. 106. 136. 909. 573. 535. 471. 410. 382. 216.
      233. 274. 263. 460. 717. 109. 138. 180. 216. 201. 216. 218. 307.
      128. 148. 103. 162. 140. 99. 322. 146. 475. 310. 436. 267. 219.
      182. 259. 212. 736. 602. 544. 328. 183. 94. 304. 203. 438. 368.
      667. 688. 164. 108. 153. 218. 311. 272. 242. 340. 226. 310. 213.
      326. 697. 513. 74. 113. 777. 676. 467. 711. 394. 410. 135. 151.
      599. 491. 672. 1017. 153. 211. 138. 220. 272. 326. 234. 422. 154.
      314. 107. 171. 124. 80. 116. 136. 228. 581. 143. 177. 202. 161.
      151. 203. 402. 364. 220. 377. 227. 126. 249. 230. 370. 368. 380.
      465. 172. 105. 99. 137. 255. 198. 130. 242.</_>
    <_>
      3236. 118. 239. 211. 112. 158. 118. 189. 469. 282. 416. 217. 242.
      244. 130. 170. 198. 241. 372. 628. 141. 202. 228. 318. 123. 131.
      687. 156. 105. 126. 164. 134. 113. 51. 338. 182. 353. 262. 430.
      336. 212. 102. 245. 127. 637. 460. 433. 328. 139. 173. 531. 374.
      640. 484. 815. 717. 104. 63. 569. 244. 269. 196. 321. 338. 482.
      240. 244. 304. 175. 150. 87. 135. 631. 843. 423. 330. 154. 236.
      78. 115. 670. 720. 704. 1068. 153. 260. 153. 246. 216. 404. 331.
      408. 194. 266. 102. 153. 84. 117. 125. 126. 181. 206. 166. 175.
      215. 143. 121. 98. 434. 361. 225. 236. 199. 233. 340. 344. 539.
      494. 620. 883. 134. 122. 136. 166. 253. 259. 226. 241. 210. 199.
      261. 267. 136. 153. 110. 132. 843. 571. 536. 377. 341. 334. 171.
      197. 249. 248. 483. 812. 96. 116. 191. 255. 134. 172. 211. 216.
      126. 111. 89. 149. 139. 72. 316. 138. 420. 299. 422. 259. 229.
      131. 288. 138. 735. 577. 652. 285. 140. 101. 258. 191. 455. 361.
      616. 592. 108. 66. 123. 164. 297. 233. 265. 315. 531. 285. 192.
      319. 343. 480. 91. 99. 778. 767. 495. 770. 452. 278. 81. 107. 550.
      430. 658. 909. 157. 244. 167. 277. 248. 325. 229. 474. 136. 326.
      63. 128. 98. 107. 118. 131. 221. 828. 123. 146. 213. 172. 176.
      200. 399. 277. 232. 396. 197. 123. 272. 260. 402. 400. 360. 448.
      104. 92. 104. 141. 252. 260. 131. 179.</_>
    <_>
      4925. 137. 228. 208. 122. 142. 82. 158. 387. 314. 378. 253. 174.
      222. 135. 173. 214. 317. 352. 652. 180. 219. 231. 233. 138. 141.
      676. 205. 92. 144. 147. 126. 111. 76. 331. 175. 319. 232. 377.
      300. 190. 130. 250. 117. 499. 492. 390. 345. 148. 208. 520. 397.
      641. 452. 720. 641. 126. 88. 611. 268. 235. 203. 300. 308. 519.
      287. 255. 335. 164. 152. 85. 133. 514. 728. 357. 403. 149. 190.
      98. 129. 672. 716. 632. 833. 141. 244. 183. 289. 189. 382. 264.
      360. 147. 235. 107. 135. 111. 124. 137. 120. 151. 159. 155. 175.
      224. 186. 165. 128. 435. 324. 262. 280. 222. 224. 421. 410. 454.
      499. 636. 790. 160. 144. 155. 195. 245. 270. 241. 207. 198. 200.
      245. 280. 138. 140. 126. 147. 686. 519. 467. 402. 275. 401. 183.
      202. 295. 274. 475. 830. 125. 141. 203. 232. 174. 185. 153. 247.
      139. 132. 124. 151. 153. 82. 304. 168. 380. 276. 395. 220. 221.
      131. 338. 176. 623. 582. 590. 337. 147. 125. 239. 217. 429. 331.
      638. 583. 140. 96. 151. 149. 280. 222. 252. 274. 517. 255. 197.
      281. 342. 510. 89. 115. 639. 617. 473. 587. 531. 279. 124. 142.
      412. 426. 607. 764. 157. 275. 237. 341. 250. 251. 201. 353. 135.
      291. 88. 125. 131. 82. 145. 112. 180. 782. 122. 139. 223. 159.
      209. 148. 408. 310. 283. 355. 235. 147. 352. 329. 373. 381. 340.
      416. 176. 116. 132. 168. 240. 273. 134. 110.</_>
    <_>
      8864. 146. 271. 239. 150. 177. 101. 197. 248. 216. 248. 181. 201.
      215. 138. 254. 210. 295. 334. 607. 254. 355. 166. 298. 113. 192.
      739. 185. 125. 159. 164. 153. 152. 82. 332. 180. 340. 224. 367.
      305. 284. 155. 270. 128. 503. 293. 332. 258. 139. 203. 435. 412.
      836. 351. 530. 525. 111. 123. 600. 269. 260. 216. 262. 320. 461.
      274. 185. 344. 173. 199. 90. 144. 444. 648. 272. 312. 156. 192.
      87. 116. 508. 522. 401. 667. 155. 278. 170. 208. 211. 447. 245.
      324. 159. 302. 123. 137. 97. 133. 120. 160. 155. 201. 142. 178.
      230. 188. 161. 148. 390. 295. 218. 239. 216. 228. 242. 273. 309.
      437. 475. 645. 182. 216. 138. 174. 277. 235. 207. 197. 192. 153.
      262. 266. 137. 120. 122. 176. 478. 324. 329. 335. 223. 423. 202.
      264. 326. 292. 424. 718. 112. 141. 165. 215. 141. 163. 172. 231.
      130. 151. 97. 155. 151. 72. 443. 207. 379. 221. 377. 242. 197.
      144. 429. 211. 499. 489. 530. 308. 168. 115. 197. 209. 345. 655.
      528. 436. 138. 128. 148. 155. 248. 237. 213. 206. 554. 217. 190.
      293. 332. 511. 89. 139. 476. 499. 333. 637. 671. 285. 112. 143.
      442. 341. 601. 581. 187. 279. 232. 307. 270. 308. 204. 354. 173.
      360. 107. 171. 105. 89. 120. 149. 165. 709. 139. 124. 269. 130.
      235. 249. 341. 290. 215. 271. 220. 145. 239. 238. 313. 379. 285.
      347. 227. 133. 166. 199. 263. 211. 147. 174.</_>
    <_>
      10536. 122. 221. 192. 121. 165. 107. 225. 230. 236. 270. 220. 170.
      219. 122. 214. 193. 292. 302. 531. 266. 337. 176. 313. 94. 146.
      751. 185. 120. 141. 167. 126. 103. 74. 382. 188. 291. 206. 333.
      333. 220. 106. 209. 125. 411. 330. 349. 325. 142. 224. 508. 373.
      810. 366. 561. 551. 113. 115. 610. 315. 209. 165. 251. 305. 474.
      256. 181. 261. 248. 215. 92. 162. 633. 753. 368. 405. 134. 182.
      105. 119. 479. 476. 410. 708. 124. 273. 144. 203. 239. 406. 192.
      307. 120. 263. 122. 126. 77. 126. 112. 128. 134. 201. 141. 153.
      210. 197. 132. 108. 360. 291. 213. 220. 228. 247. 240. 248. 335.
      477. 511. 626. 165. 195. 140. 146. 261. 214. 196. 169. 191. 167.
      263. 266. 107. 113. 120. 148. 496. 349. 318. 371. 197. 433. 224.
      229. 238. 298. 420. 767. 110. 158. 176. 229. 159. 131. 134. 209.
      103. 158. 92. 165. 129. 58. 368. 188. 276. 185. 385. 252. 208.
      128. 431. 228. 412. 507. 600. 271. 155. 128. 241. 200. 320. 599.
      483. 399. 152. 99. 143. 183. 265. 212. 196. 310. 509. 230. 157.
      247. 215. 473. 90. 105. 575. 615. 331. 737. 708. 236. 123. 144.
      374. 358. 680. 617. 171. 306. 192. 227. 262. 258. 156. 336. 144.
      317. 85. 175. 91. 78. 111. 111. 178. 832. 150. 111. 321. 135. 303.
      278. 323. 306. 250. 85. 214. 134. 196. 184. 288. 322. 302. 293.
      204. 96. 146. 162. 230. 206. 134. 129.</_>
    <_>
      5607. 136. 285. 225. 145. 170. 108. 230. 203. 219. 242. 207. 214.
      179. 116. 203. 226. 355. 321. 614. 261. 391. 255. 376. 127. 139.
      700. 223. 103. 153. 176. 162. 158. 80. 438. 212. 370. 187. 398.
      364. 234. 125. 295. 132. 358. 285. 320. 271. 185. 270. 496. 414.
      881. 406. 650. 750. 136. 141. 663. 285. 279. 193. 260. 260. 460.
      271. 206. 297. 187. 234. 95. 180. 527. 730. 340. 367. 149. 152.
      95. 110. 509. 532. 414. 662. 156. 344. 196. 258. 187. 424. 184.
      312. 158. 320. 124. 147. 101. 143. 112. 180. 131. 222. 138. 165.
      208. 199. 147. 147. 432. 339. 197. 260. 246. 290. 272. 319. 471.
      528. 568. 746. 172. 199. 156. 159. 288. 241. 229. 263. 179. 187.
      266. 278. 143. 140. 129. 189. 470. 321. 322. 310. 194. 432. 225.
      244. 302. 309. 435. 759. 159. 166. 181. 257. 165. 154. 153. 218.
      122. 177. 110. 211. 167. 78. 391. 181. 328. 212. 399. 279. 196.
      118. 440. 177. 454. 495. 668. 317. 163. 134. 262. 242. 355. 594.
      632. 593. 177. 112. 165. 146. 259. 199. 216. 239. 511. 242. 171.
      278. 344. 511. 141. 118. 524. 553. 306. 686. 682. 214. 114. 157.
      417. 292. 784. 571. 208. 322. 235. 322. 270. 322. 168. 290. 186.
      300. 95. 186. 102. 73. 134. 127. 169. 737. 176. 129. 289. 122.
      275. 261. 331. 234. 242. 290. 264. 181. 283. 258. 349. 390. 380.
      390. 268. 150. 151. 183. 299. 288. 136. 162.</_>
    <_>
      250. 259. 339. 273. 208. 264. 178. 169. 403. 448. 446. 313. 342.
      347. 232. 226. 243. 371. 423. 471. 255. 351. 305. 283. 184. 255.
      287. 205. 178. 218. 299. 246. 187. 137. 406. 241. 291. 264. 293.
      284. 288. 266. 330. 209. 588. 472. 404. 372. 189. 203. 324. 263.
      453. 426. 610. 525. 142. 184. 233. 181. 262. 254. 252. 289. 225.
      350. 244. 372. 106. 218. 125. 146. 410. 565. 338. 396. 224. 236.
      155. 153. 442. 715. 539. 673. 194. 314. 248. 296. 231. 391. 271.
      283. 191. 297. 259. 158. 133. 143. 186. 222. 165. 214. 167. 203.
      291. 261. 243. 183. 582. 410. 299. 287. 319. 325. 394. 448. 389.
      535. 567. 875. 245. 209. 206. 210. 291. 293. 303. 276. 228. 172.
      276. 299. 251. 181. 203. 213. 686. 454. 463. 440. 293. 280. 271.
      279. 340. 259. 416. 580. 172. 170. 208. 268. 269. 270. 228. 276.
      123. 172. 132. 276. 175. 139. 383. 235. 355. 318. 458. 316. 315.
      217. 268. 221. 594. 433. 624. 446. 228. 173. 287. 254. 395. 385.
      719. 526. 288. 280. 184. 222. 238. 216. 228. 295. 282. 201. 247.
      317. 285. 248. 182. 240. 563. 490. 472. 569. 427. 248. 278. 280.
      495. 361. 536. 641. 194. 242. 280. 350. 322. 320. 235. 288. 186.
      252. 184. 244. 121. 107. 170. 177. 199. 297. 171. 210. 275. 182.
      245. 184. 406. 266. 255. 191. 343. 201. 364. 314. 363. 441. 427.
      494. 326. 169. 166. 181. 239. 228. 151. 183.</_>
    <_>
      228. 233. 332. 275. 220. 233. 121. 161. 453. 442. 429. 293. 360.
      388. 218. 250. 238. 361. 439. 482. 265. 344. 328. 272. 164. 260.
      306. 217. 168. 206. 281. 208. 169. 138. 407. 258. 300. 273. 338.
      276. 293. 245. 310. 224. 695. 507. 390. 377. 185. 163. 286. 284.
      527. 447. 617. 508. 121. 150. 253. 167. 243. 201. 277. 256. 260.
      303. 223. 355. 152. 207. 105. 131. 466. 565. 333. 375. 218. 235.
      138. 142. 515. 748. 541. 732. 183. 305. 268. 308. 264. 375. 220.
      263. 187. 287. 211. 181. 117. 145. 184. 233. 159. 219. 169. 208.
      277. 271. 184. 160. 557. 454. 274. 261. 283. 315. 412. 402. 402.
      526. 583. 866. 238. 218. 231. 179. 310. 281. 286. 275. 210. 154.
      261. 296. 229. 159. 183. 204. 750. 446. 492. 454. 324. 350. 234.
      284. 318. 241. 417. 618. 177. 170. 191. 273. 263. 242. 245. 253.
