<?xml version="1.0"?>
<opencv_storage>
<opencv_ml_svm>
  <format>3</format>
  <svmType>C_SVC</svmType>
  <kernel>
    <type>RBF</type>
    <gamma>1.0000000000000001e-05</gamma></kernel>
  <C>1.0000000000000001e-01</C>
  <term_criteria><epsilon>1.1920928955078125e-07</epsilon>
    <iterations>1000</iterations></term_criteria>
  <var_count>256</var_count>
  <class_count>2</class_count>
  <class_labels type_id="opencv-matrix">
    <rows>2</rows>
    <cols>1</cols>
    <dt>i</dt>
    <data>
      0 1</data></class_labels>
  <sv_total>2000</sv_total>
  <support_vectors>
    <_>
      700. 130. 216. 313. 208. 172. 180. 210. 362. 476. 358. 1026. 243.
      307. 236. 398. 360. 204. 356. 231. 429. 207. 345. 195. 250. 311.
      223. 362. 470. 361. 392. 434. 228. 210. 185. 277. 353. 273. 203.
      216. 172. 204. 184. 423. 280. 466. 249. 515. 367. 179. 189. 179.
      1065. 297. 435. 273. 183. 154. 160. 191. 389. 233. 310. 294. 214.
      155. 383. 248. 233. 158. 193. 181. 278. 239. 615. 828. 136. 176.
      148. 162. 1065. 375. 813. 369. 572. 221. 467. 184. 285. 226. 315.
      268. 207. 145. 226. 130. 213. 182. 159. 253. 305. 249. 140. 155.
      111. 160. 167. 305. 152. 280. 157. 268. 637. 323. 286. 220. 1202.
      349. 424. 174. 165. 153. 200. 275. 241. 156. 190. 157. 117. 160.
      244. 323. 119. 190. 161. 236. 216. 469. 308. 1441. 166. 447. 245.
      586. 190. 137. 203. 117. 186. 189. 173. 187. 136. 202. 99. 242.
      153. 211. 127. 269. 258. 190. 215. 280. 397. 417. 256. 306. 201.
      328. 325. 580. 442. 1205. 496. 1155. 309. 159. 154. 112. 955. 513.
      289. 283. 184. 159. 155. 210. 397. 406. 283. 315. 234. 174. 328.
      261. 212. 247. 206. 197. 200. 341. 309. 723. 150. 253. 186. 278.
      490. 209. 422. 141. 319. 182. 240. 116. 194. 181. 162. 176. 152.
      162. 141. 143. 290. 284. 277. 305. 320. 426. 253. 273. 149. 261.
      246. 478. 216. 560. 324. 602. 494. 265. 237. 130. 801. 387. 383.
      279. 264. 260. 225. 218. 281. 292. 257. 227.</_>
    <_>
      463. 208. 277. 356. 218. 171. 157. 187. 316. 474. 394. 1095. 245.
      418. 250. 433. 475. 258. 467. 361. 350. 208. 386. 238. 304. 346.
      281. 424. 417. 374. 353. 417. 242. 192. 184. 267. 264. 202. 137.
      145. 178. 216. 170. 373. 215. 361. 209. 405. 468. 165. 231. 177.
      813. 253. 421. 208. 189. 153. 160. 215. 259. 180. 242. 214. 297.
      233. 527. 424. 209. 169. 188. 115. 317. 303. 641. 1274. 143. 201.
      170. 163. 1505. 477. 1285. 544. 710. 207. 514. 193. 384. 254. 396.
      378. 217. 121. 223. 115. 222. 167. 199. 261. 208. 200. 109. 142.
      93. 158. 201. 302. 125. 216. 169. 243. 735. 256. 372. 236. 1424.
      231. 404. 184. 174. 129. 184. 206. 166. 78. 184. 124. 125. 141.
      256. 311. 198. 164. 143. 200. 167. 415. 318. 1236. 177. 430. 256.
      516. 200. 144. 196. 159. 161. 183. 174. 164. 152. 213. 121. 250.
      124. 228. 117. 208. 210. 171. 182. 208. 283. 358. 124. 161. 243.
      341. 301. 570. 328. 1094. 301. 1268. 315. 196. 143. 107. 704. 741.
      184. 159. 224. 170. 104. 160. 258. 315. 161. 221. 283. 209. 440.
      328. 220. 232. 265. 202. 227. 370. 355. 726. 138. 281. 178. 242.
      694. 266. 625. 225. 305. 188. 342. 156. 272. 205. 207. 239. 173.
      169. 159. 134. 298. 307. 279. 321. 250. 302. 166. 209. 197. 278.
      305. 498. 189. 495. 251. 520. 457. 232. 272. 156. 597. 282. 335.
      219. 250. 211. 242. 258. 179. 217. 223. 170.</_>
    <_>
      354. 304. 295. 447. 303. 245. 327. 270. 358. 616. 364. 1040. 306.
      449. 350. 580. 356. 246. 303. 279. 288. 218. 322. 217. 231. 320.
      167. 361. 341. 330. 276. 380. 248. 198. 166. 314. 318. 201. 178.
      155. 221. 264. 239. 503. 282. 436. 294. 643. 286. 139. 138. 119.
      600. 202. 298. 175. 172. 92. 114. 153. 206. 161. 236. 187. 218.
      249. 302. 301. 221. 196. 172. 106. 297. 392. 459. 1038. 180. 237.
      177. 149. 1253. 592. 1125. 442. 670. 324. 404. 173. 317. 307. 273.
      295. 207. 116. 126. 100. 149. 174. 93. 200. 212. 246. 90. 127.
      101. 176. 172. 327. 112. 262. 158. 263. 616. 417. 364. 177. 1192.
      292. 439. 159. 176. 178. 148. 167. 184. 94. 144. 88. 114. 118.
      384. 314. 185. 125. 204. 192. 264. 636. 542. 1525. 255. 615. 362.
      969. 126. 109. 235. 137. 116. 133. 167. 136. 97. 188. 173. 239.
      102. 240. 136. 291. 207. 119. 214. 225. 213. 263. 173. 256. 334.
      500. 393. 759. 381. 1064. 602. 1557. 210. 122. 111. 76. 508. 574.
      210. 182. 210. 177. 203. 172. 236. 320. 253. 316. 186. 174. 354.
      237. 128. 186. 179. 127. 268. 594. 453. 1011. 146. 289. 233. 369.
      417. 187. 423. 170. 223. 133. 232. 90. 233. 287. 261. 257. 83.
      119. 133. 119. 203. 198. 201. 252. 179. 313. 145. 190. 230. 416.
      359. 576. 157. 515. 330. 582. 379. 241. 216. 124. 709. 290. 357.
      187. 326. 437. 405. 276. 191. 220. 239. 191.</_>
    <_>
      1631. 194. 209. 290. 325. 265. 280. 233. 271. 554. 393. 1740. 208.
      379. 249. 459. 419. 192. 431. 203. 343. 289. 286. 171. 219. 194.
      215. 279. 412. 264. 260. 401. 199. 146. 150. 226. 440. 332. 246.
      241. 130. 247. 164. 413. 311. 573. 260. 736. 271. 131. 198. 101.
      714. 276. 377. 236. 130. 119. 132. 162. 357. 297. 236. 238. 256.
      208. 218. 220. 165. 132. 130. 168. 214. 230. 604. 913. 110. 155.
      99. 167. 1119. 457. 777. 322. 484. 319. 277. 170. 254. 200. 305.
      248. 240. 128. 146. 61. 192. 121. 91. 140. 254. 211. 116. 103.
      102. 140. 122. 232. 157. 343. 135. 270. 526. 386. 279. 200. 925.
      332. 302. 170. 172. 145. 115. 183. 281. 200. 121. 99. 95. 105.
      205. 223. 109. 118. 172. 199. 188. 560. 346. 2372. 141. 385. 246.
      758. 208. 118. 203. 112. 178. 201. 204. 138. 96. 121. 141. 208.
      84. 181. 127. 274. 168. 115. 153. 189. 290. 326. 273. 361. 237.
      395. 252. 779. 525. 1553. 571. 1646. 200. 104. 165. 91. 577. 446.
      336. 273. 140. 139. 116. 169. 357. 395. 294. 367. 163. 172. 255.
      231. 152. 153. 172. 186. 251. 491. 354. 1225. 113. 242. 172. 375.
      417. 180. 396. 137. 267. 151. 163. 82. 185. 195. 197. 209. 122.
      111. 111. 129. 272. 257. 188. 324. 388. 317. 265. 237. 165. 409.
      237. 499. 243. 606. 312. 608. 401. 203. 267. 168. 677. 316. 436.
      296. 319. 343. 316. 222. 350. 333. 312. 229.</_>
    <_>
      178. 231. 274. 417. 264. 188. 223. 206. 236. 449. 342. 1153. 232.
      347. 211. 451. 479. 249. 466. 314. 421. 204. 314. 223. 219. 274.
      205. 366. 433. 346. 324. 407. 296. 166. 187. 339. 475. 361. 192.
      215. 178. 217. 183. 478. 347. 595. 246. 738. 376. 141. 174. 179.
      931. 308. 409. 214. 162. 120. 110. 183. 360. 230. 250. 234. 285.
      196. 299. 281. 245. 114. 137. 115. 245. 226. 548. 976. 159. 126.
      130. 140. 1137. 351. 934. 340. 668. 271. 358. 147. 356. 245. 291.
      324. 228. 111. 191. 85. 176. 147. 119. 197. 322. 269. 101. 125.
      82. 131. 146. 288. 137. 261. 132. 272. 696. 347. 258. 189. 1305.
      331. 338. 198. 156. 135. 138. 209. 229. 130. 148. 121. 111. 95.
      288. 331. 99. 144. 166. 218. 148. 450. 326. 1446. 176. 508. 228.
      674. 188. 86. 251. 164. 142. 135. 156. 183. 89. 167. 123. 236. 90.
      235. 112. 238. 216. 160. 170. 247. 258. 338. 175. 247. 217. 325.
      265. 643. 473. 1598. 575. 1860. 237. 103. 121. 69. 608. 349. 256.
      216. 164. 159. 122. 155. 280. 389. 252. 353. 210. 188. 401. 281.
      179. 188. 225. 183. 180. 365. 338. 858. 119. 269. 194. 315. 597.
      212. 562. 212. 326. 162. 245. 112. 236. 280. 221. 204. 110. 122.
      108. 117. 243. 182. 204. 252. 290. 430. 209. 239. 150. 253. 212.
      426. 238. 754. 346. 751. 531. 249. 252. 127. 877. 422. 387. 266.
      312. 329. 317. 227. 259. 283. 273. 256.</_>
    <_>
      230. 204. 290. 411. 259. 174. 222. 196. 239. 472. 343. 1113. 266.
      347. 202. 449. 496. 236. 467. 343. 448. 217. 290. 227. 220. 274.
      182. 393. 429. 306. 323. 371. 272. 177. 166. 305. 477. 334. 198.
      206. 156. 194. 205. 460. 311. 628. 262. 704. 367. 151. 171. 170.
      921. 262. 421. 246. 170. 125. 126. 182. 371. 209. 280. 263. 263.
      200. 315. 277. 262. 133. 130. 110. 247. 247. 588. 959. 136. 130.
      147. 123. 1064. 383. 939. 343. 675. 271. 376. 146. 340. 248. 284.
      305. 252. 115. 165. 88. 187. 124. 120. 213. 299. 295. 101. 123.
      85. 117. 145. 259. 147. 261. 161. 270. 653. 328. 255. 213. 1325.
      355. 333. 191. 177. 159. 133. 213. 233. 123. 150. 117. 101. 91.
      311. 345. 107. 156. 182. 219. 167. 409. 281. 1467. 178. 486. 231.
      702. 196. 116. 280. 144. 122. 137. 157. 190. 90. 150. 125. 245.
      78. 207. 117. 233. 219. 135. 197. 232. 226. 345. 169. 244. 220.
      360. 265. 632. 475. 1624. 588. 1913. 260. 85. 116. 83. 625. 377.
      253. 213. 160. 142. 120. 136. 260. 375. 258. 347. 224. 172. 402.
      280. 174. 204. 232. 203. 171. 393. 339. 860. 124. 277. 208. 310.
      593. 209. 566. 198. 314. 159. 232. 116. 228. 263. 209. 189. 123.
      119. 117. 118. 249. 189. 217. 227. 277. 386. 207. 254. 147. 248.
      224. 450. 222. 763. 343. 746. 569. 253. 251. 131. 848. 456. 400.
      242. 310. 308. 296. 219. 273. 313. 250. 277.</_>
    <_>
      273. 201. 286. 399. 246. 198. 239. 206. 232. 458. 323. 1114. 226.
      348. 244. 424. 461. 221. 436. 331. 460. 219. 325. 218. 219. 316.
      192. 389. 406. 284. 320. 398. 301. 179. 175. 320. 506. 314. 188.
      225. 154. 196. 203. 474. 327. 598. 264. 688. 348. 144. 180. 170.
      928. 278. 425. 230. 169. 128. 101. 165. 355. 256. 256. 240. 240.
      215. 310. 275. 246. 148. 141. 113. 238. 250. 588. 958. 168. 139.
      134. 146. 1099. 402. 948. 318. 660. 257. 353. 147. 356. 252. 305.
      269. 231. 106. 156. 81. 185. 146. 115. 212. 314. 300. 101. 114.
      80. 120. 161. 286. 119. 282. 156. 269. 675. 332. 271. 229. 1209.
      328. 355. 184. 162. 136. 142. 211. 255. 137. 170. 142. 113. 93.
      290. 313. 106. 157. 145. 229. 177. 447. 306. 1371. 163. 476. 236.
      635. 191. 88. 289. 164. 135. 141. 173. 170. 90. 168. 132. 242.
      108. 232. 92. 235. 213. 155. 182. 242. 247. 377. 195. 258. 210.
      357. 290. 638. 500. 1571. 585. 1912. 294. 123. 131. 78. 583. 389.
      260. 220. 166. 166. 106. 168. 290. 368. 273. 359. 208. 172. 425.
      286. 181. 191. 220. 179. 215. 392. 328. 893. 120. 287. 191. 307.
      566. 211. 518. 215. 331. 175. 246. 130. 227. 273. 228. 184. 114.
      114. 125. 115. 259. 171. 202. 239. 259. 394. 210. 228. 148. 256.
      232. 426. 224. 730. 338. 737. 528. 267. 266. 133. 834. 424. 416.
      243. 306. 323. 294. 201. 267. 286. 270. 265.</_>
    <_>
      412. 199. 276. 441. 318. 205. 221. 214. 313. 517. 361. 1171. 284.
      363. 246. 422. 555. 244. 473. 349. 391. 218. 289. 210. 266. 292.
      221. 432. 407. 278. 293. 415. 258. 181. 166. 282. 430. 331. 171.
      204. 224. 234. 244. 467. 296. 501. 287. 584. 288. 117. 154. 134.
      647. 251. 326. 211. 165. 128. 131. 164. 391. 238. 276. 274. 246.
      206. 288. 239. 217. 146. 136. 103. 243. 300. 387. 784. 161. 168.
      126. 164. 1333. 646. 973. 477. 564. 305. 286. 140. 373. 315. 322.
      263. 196. 116. 145. 78. 183. 135. 81. 170. 266. 242. 85. 117. 77.
      171. 113. 290. 158. 259. 132. 240. 566. 475. 265. 193. 1103. 304.
      263. 113. 112. 137. 115. 171. 242. 158. 123. 91. 110. 85. 332.
      354. 141. 128. 168. 209. 196. 417. 376. 1702. 207. 466. 292. 720.
      174. 101. 271. 134. 127. 113. 129. 130. 99. 172. 119. 224. 101.
      186. 120. 252. 177. 124. 195. 210. 257. 352. 197. 291. 287. 346.
      310. 626. 509. 1555. 595. 1701. 225. 84. 118. 65. 576. 516. 216.
      204. 171. 154. 155. 148. 310. 416. 291. 446. 218. 161. 419. 275.
      143. 185. 190. 167. 231. 479. 385. 1092. 161. 328. 205. 342. 632.
      221. 564. 177. 275. 129. 192. 109. 229. 264. 261. 220. 136. 141.
      111. 133. 257. 224. 186. 274. 311. 377. 207. 239. 172. 366. 259.
      507. 227. 617. 315. 629. 420. 232. 251. 127. 770. 354. 370. 220.
      283. 318. 333. 268. 275. 312. 276. 220.</_>
    <_>
      234. 255. 261. 371. 358. 198. 244. 229. 337. 614. 437. 1437. 236.
      362. 312. 635. 384. 230. 344. 242. 301. 193. 264. 203. 236. 280.
      220. 333. 372. 333. 358. 389. 184. 132. 131. 209. 299. 164. 157.
      145. 178. 255. 208. 451. 252. 519. 258. 830. 234. 119. 152. 125.
      601. 212. 268. 190. 140. 105. 113. 126. 295. 219. 196. 227. 276.
      184. 250. 232. 226. 132. 133. 94. 284. 361. 526. 1164. 155. 166.
      211. 184. 657. 439. 545. 261. 546. 404. 316. 130. 400. 218. 266.
      226. 275. 103. 182. 84. 215. 137. 122. 166. 268. 178. 96. 97. 111.
      154. 135. 269. 138. 274. 126. 285. 504. 399. 276. 213. 1237. 369.
      388. 200. 198. 114. 120. 124. 249. 104. 125. 80. 102. 110. 297.
      335. 111. 132. 145. 194. 212. 697. 586. 2696. 162. 499. 353. 995.
      181. 120. 264. 139. 115. 157. 131. 133. 115. 180. 156. 371. 82.
      249. 116. 297. 151. 123. 161. 200. 200. 318. 170. 321. 242. 562.
      374. 940. 416. 1568. 639. 2303. 189. 105. 114. 78. 372. 421. 213.
      229. 126. 150. 160. 193. 213. 409. 221. 369. 220. 178. 307. 241.
      138. 154. 174. 151. 244. 671. 430. 1420. 154. 254. 206. 359. 375.
      160. 326. 151. 199. 136. 184. 103. 228. 256. 257. 301. 98. 87. 94.
      117. 246. 189. 289. 322. 298. 272. 311. 231. 171. 371. 288. 517.
      194. 529. 287. 674. 319. 229. 198. 153. 668. 294. 380. 265. 294.
      377. 337. 230. 216. 188. 238. 173.</_>
    <_>
      231. 250. 330. 412. 336. 233. 214. 204. 350. 527. 437. 1396. 250.
      357. 245. 550. 376. 228. 347. 302. 321. 233. 279. 249. 279. 250.
      218. 386. 486. 329. 366. 382. 223. 130. 142. 232. 381. 227. 165.
      190. 142. 174. 169. 424. 241. 521. 243. 661. 297. 139. 134. 148.
      745. 280. 351. 252. 117. 85. 99. 125. 319. 192. 208. 196. 263.
      204. 291. 262. 284. 137. 171. 92. 359. 315. 484. 1169. 139. 152.
      151. 136. 737. 412. 604. 283. 544. 308. 357. 134. 459. 263. 247.
      239. 305. 97. 189. 89. 215. 141. 141. 178. 337. 259. 80. 94. 92.
      135. 149. 250. 122. 285. 103. 204. 505. 391. 263. 201. 1346. 371.
      412. 202. 195. 117. 164. 132. 268. 129. 145. 99. 109. 87. 325.
      373. 98. 145. 152. 226. 159. 518. 491. 2377. 172. 419. 367. 909.
      159. 125. 262. 170. 126. 140. 162. 144. 95. 157. 134. 385. 93.
      247. 110. 262. 169. 118. 158. 242. 267. 325. 200. 350. 182. 387.
      323. 796. 455. 1374. 686. 2086. 215. 109. 135. 94. 425. 382. 254.
      281. 156. 149. 137. 202. 226. 330. 282. 368. 216. 160. 358. 276.
      138. 168. 186. 146. 293. 558. 408. 1263. 98. 209. 141. 266. 408.
      173. 384. 165. 227. 132. 192. 97. 222. 275. 298. 303. 95. 99. 104.
      90. 266. 207. 282. 312. 309. 325. 252. 237. 149. 346. 241. 520.
      163. 595. 298. 621. 382. 220. 231. 156. 712. 345. 352. 277. 317.
      377. 384. 273. 293. 258. 269. 216.</_>
    <_>
      433. 252. 286. 376. 313. 216. 247. 237. 371. 558. 380. 872. 278.
      365. 281. 466. 381. 274. 474. 256. 325. 185. 312. 200. 241. 299.
      207. 332. 308. 243. 288. 317. 272. 179. 182. 274. 372. 228. 198.
      195. 200. 218. 211. 346. 243. 489. 299. 672. 308. 167. 187. 162.
      793. 281. 443. 302. 174. 139. 141. 170. 300. 223. 255. 230. 262.
      219. 304. 288. 228. 188. 163. 119. 322. 393. 399. 807. 187. 252.
      145. 174. 1029. 689. 1066. 525. 588. 372. 420. 201. 356. 278. 281.
      261. 231. 106. 150. 94. 174. 164. 132. 208. 272. 239. 143. 130.
      118. 160. 167. 273. 140. 327. 179. 307. 549. 401. 346. 274. 1181.
      382. 482. 283. 181. 158. 174. 141. 218. 123. 181. 127. 129. 105.
      355. 343. 114. 153. 210. 210. 189. 434. 446. 1318. 183. 401. 313.
      615. 233. 162. 292. 151. 171. 169. 184. 191. 131. 208. 220. 262.
      124. 197. 136. 271. 212. 122. 214. 210. 305. 351. 229. 235. 249.
      339. 363. 518. 449. 1196. 545. 1412. 260. 171. 159. 117. 658. 464.
      322. 266. 192. 167. 177. 165. 339. 356. 329. 337. 226. 191. 357.
      223. 155. 190. 258. 165. 235. 489. 409. 752. 144. 276. 203. 271.
      473. 279. 434. 178. 301. 184. 245. 141. 219. 306. 235. 231. 110.
      110. 120. 108. 218. 193. 181. 199. 266. 322. 181. 226. 158. 311.
      297. 433. 198. 588. 328. 554. 403. 289. 235. 154. 805. 399. 437.
      246. 250. 315. 305. 208. 231. 209. 307. 231.</_>
    <_>
      770. 198. 277. 343. 232. 239. 298. 199. 292. 564. 318. 1020. 251.
      348. 220. 361. 415. 257. 363. 293. 394. 220. 320. 236. 174. 275.
      160. 308. 353. 268. 314. 299. 275. 201. 200. 324. 407. 282. 212.
      199. 178. 223. 213. 434. 287. 454. 255. 526. 346. 177. 209. 151.
      867. 294. 444. 276. 147. 133. 104. 175. 308. 191. 280. 190. 234.
      176. 277. 218. 213. 206. 180. 115. 181. 258. 422. 743. 148. 176.
      121. 141. 1145. 655. 1061. 408. 738. 305. 489. 195. 279. 291. 267.
      231. 175. 122. 151. 101. 150. 207. 93. 180. 230. 326. 95. 135. 87.
      120. 180. 326. 132. 314. 211. 300. 707. 500. 327. 267. 1281. 449.
      443. 183. 147. 181. 155. 196. 171. 134. 149. 117. 115. 99. 372.
      274. 113. 184. 214. 231. 192. 464. 291. 1546. 211. 476. 269. 618.
      196. 142. 270. 149. 139. 149. 216. 139. 101. 182. 108. 165. 106.
      191. 134. 218. 223. 140. 195. 202. 282. 292. 200. 269. 247. 364.
      361. 548. 561. 1524. 629. 1647. 323. 126. 171. 81. 849. 385. 304.
      240. 208. 194. 126. 119. 286. 361. 256. 292. 154. 136. 353. 206.
      156. 247. 229. 167. 169. 353. 313. 792. 148. 308. 217. 292. 554.
      274. 539. 151. 315. 188. 278. 95. 175. 237. 194. 190. 94. 122.
      120. 121. 177. 168. 164. 200. 255. 388. 207. 219. 151. 282. 297.
      435. 218. 611. 398. 567. 485. 274. 264. 106. 1047. 417. 468. 212.
      298. 319. 287. 196. 262. 254. 306. 246.</_>
    <_>
      5782. 160. 220. 226. 162. 157. 160. 125. 265. 445. 299. 906. 138.
      236. 291. 368. 614. 283. 566. 264. 397. 243. 255. 159. 220. 218.
      245. 294. 362. 228. 293. 285. 120. 140. 131. 166. 257. 252. 183.
      195. 150. 198. 192. 376. 222. 636. 298. 628. 332. 161. 223. 171.
      765. 307. 345. 202. 140. 175. 195. 191. 259. 290. 225. 209. 219.
      172. 341. 359. 169. 134. 139. 182. 185. 277. 742. 895. 71. 137.
      165. 188. 1099. 438. 998. 403. 565. 245. 328. 155. 211. 196. 348.
      283. 190. 105. 113. 74. 148. 129. 117. 109. 198. 199. 132. 118.
      97. 162. 133. 260. 121. 367. 232. 356. 489. 293. 355. 235. 1045.
      261. 356. 163. 123. 134. 168. 429. 183. 184. 136. 110. 105. 117.
      173. 183. 113. 141. 132. 143. 295. 458. 365. 1925. 157. 327. 371.
      619. 353. 198. 253. 115. 166. 165. 132. 105. 102. 152. 104. 172.
      91. 146. 83. 158. 126. 127. 136. 146. 286. 287. 201. 234. 189.
      432. 657. 623. 419. 1189. 518. 1318. 227. 116. 145. 78. 880. 427.
      292. 201. 134. 150. 106. 131. 316. 360. 225. 219. 190. 182. 253.
      238. 229. 264. 236. 204. 223. 466. 282. 969. 116. 274. 175. 300.
      551. 241. 541. 171. 247. 186. 234. 126. 149. 148. 130. 139. 108.
      99. 99. 100. 170. 166. 164. 199. 311. 283. 304. 214. 136. 311.
      239. 342. 224. 544. 297. 481. 391. 205. 248. 127. 823. 350. 492.
      279. 221. 275. 209. 129. 233. 231. 257. 193.</_>
    <_>
      819. 150. 240. 320. 193. 213. 202. 213. 267. 471. 355. 1187. 181.
      332. 202. 350. 583. 241. 509. 310. 403. 212. 353. 209. 219. 240.
      217. 334. 361. 249. 282. 266. 193. 169. 163. 254. 382. 311. 200.
      203. 145. 198. 170. 400. 266. 598. 252. 627. 390. 182. 243. 170.
      1005. 379. 429. 268. 152. 142. 152. 198. 339. 247. 264. 213. 217.
      158. 305. 294. 182. 146. 139. 149. 163. 253. 719. 1067. 98. 139.
      141. 130. 1298. 545. 1019. 396. 504. 250. 397. 182. 250. 194. 343.
      244. 170. 111. 169. 103. 162. 152. 117. 166. 242. 268. 132. 136.
      79. 148. 160. 241. 121. 342. 190. 317. 526. 297. 302. 259. 971.
      369. 342. 192. 127. 135. 134. 210. 183. 158. 161. 115. 100. 104.
      231. 235. 100. 141. 143. 168. 189. 458. 340. 2178. 149. 450. 243.
      633. 295. 185. 271. 136. 170. 177. 183. 127. 109. 133. 104. 151.
      104. 181. 101. 198. 176. 117. 186. 171. 322. 339. 195. 257. 193.
      357. 302. 690. 426. 1498. 559. 1570. 291. 116. 152. 81. 1054. 480.
      358. 207. 158. 154. 78. 121. 346. 363. 269. 267. 182. 168. 317.
      224. 170. 218. 224. 175. 160. 373. 319. 983. 119. 285. 186. 304.
      724. 255. 615. 155. 309. 204. 244. 118. 179. 216. 180. 182. 122.
      115. 124. 99. 213. 168. 194. 205. 312. 326. 237. 247. 136. 286.
      233. 374. 211. 719. 332. 620. 498. 259. 278. 130. 1061. 447. 487.
      228. 290. 299. 243. 204. 279. 271. 287. 222.</_>
    <_>
      571. 179. 196. 338. 178. 155. 166. 151. 349. 557. 397. 1050. 280.
      329. 253. 379. 393. 209. 379. 323. 389. 207. 334. 176. 289. 308.
      236. 398. 415. 342. 402. 417. 226. 163. 150. 261. 379. 250. 151.
      167. 169. 205. 200. 390. 289. 372. 244. 498. 301. 165. 152. 136.
      939. 303. 450. 266. 151. 129. 109. 175. 326. 215. 287. 224. 308.
      215. 388. 327. 218. 134. 163. 101. 322. 304. 644. 1098. 142. 165.
      167. 147. 1096. 481. 1023. 461. 506. 215. 426. 173. 345. 232. 376.
      348. 215. 98. 204. 97. 178. 141. 154. 217. 255. 239. 119. 137. 95.
      118. 199. 303. 128. 227. 145. 232. 499. 299. 329. 174. 1197. 301.
      460. 173. 126. 106. 133. 144. 221. 132. 150. 109. 98. 98. 271.
      311. 138. 161. 141. 192. 212. 525. 368. 1821. 194. 458. 285. 844.
      141. 130. 189. 135. 117. 161. 117. 127. 87. 166. 125. 249. 116.
      265. 95. 282. 202. 148. 178. 231. 310. 406. 210. 279. 283. 388.
      327. 745. 531. 1333. 581. 1650. 284. 142. 110. 83. 952. 631. 314.
      231. 198. 160. 91. 142. 389. 448. 270. 342. 212. 171. 412. 272.
      171. 202. 206. 176. 220. 382. 366. 926. 124. 264. 190. 272. 477.
      240. 422. 203. 262. 139. 192. 113. 138. 200. 149. 220. 110. 120.
      100. 116. 262. 254. 277. 319. 286. 394. 220. 192. 141. 316. 267.
      461. 226. 578. 317. 596. 498. 233. 243. 154. 893. 420. 430. 264.
      221. 299. 180. 201. 261. 243. 225. 188.</_>
    <_>
      206. 206. 263. 304. 275. 203. 229. 190. 318. 512. 379. 1110. 216.
      306. 247. 445. 460. 266. 373. 314. 325. 212. 283. 199. 271. 292.
      237. 416. 439. 288. 404. 336. 200. 127. 121. 202. 339. 232. 187.
      168. 131. 198. 186. 380. 257. 451. 273. 591. 301. 163. 154. 135.
      799. 298. 398. 220. 141. 129. 110. 136. 321. 200. 245. 219. 298.
      245. 360. 328. 184. 139. 159. 99. 348. 271. 575. 1186. 123. 156.
      159. 119. 1105. 548. 1056. 490. 586. 244. 325. 162. 356. 249. 345.
      302. 205. 106. 166. 100. 192. 145. 166. 165. 242. 259. 120. 108.
      93. 125. 177. 258. 131. 258. 182. 243. 575. 395. 288. 227. 1151.
      350. 364. 203. 164. 141. 131. 132. 209. 167. 154. 95. 83. 106.
      262. 244. 139. 151. 161. 174. 201. 482. 398. 1994. 201. 498. 330.
      880. 169. 127. 225. 141. 150. 173. 136. 133. 95. 152. 111. 289.
      94. 209. 112. 193. 179. 157. 173. 211. 286. 353. 239. 238. 247.
      390. 357. 770. 524. 1550. 678. 1980. 273. 125. 106. 79. 866. 626.
      282. 201. 162. 124. 123. 157. 338. 389. 310. 276. 191. 177. 355.
      307. 182. 200. 205. 136. 199. 448. 336. 1059. 111. 204. 180. 292.
      543. 251. 504. 203. 301. 158. 203. 110. 156. 231. 216. 259. 109.
      98. 92. 96. 263. 211. 292. 306. 291. 338. 229. 238. 143. 289. 247.
      444. 220. 562. 281. 657. 434. 241. 214. 140. 747. 366. 358. 255.
      313. 356. 258. 239. 243. 243. 219. 229.</_>
    <_>
      372. 207. 244. 416. 211. 169. 180. 234. 418. 573. 460. 1030. 277.
      328. 208. 364. 475. 274. 462. 370. 327. 199. 406. 249. 280. 416.
      265. 470. 357. 285. 284. 320. 291. 201. 164. 319. 361. 219. 150.
      145. 201. 222. 203. 398. 256. 400. 223. 466. 375. 186. 175. 191.
      758. 268. 483. 266. 183. 125. 112. 153. 263. 135. 241. 158. 322.
      239. 442. 375. 259. 196. 194. 107. 389. 331. 516. 847. 181. 180.
      154. 137. 1483. 644. 1264. 613. 529. 240. 412. 172. 407. 357. 402.
      380. 207. 128. 191. 126. 184. 206. 166. 217. 209. 302. 92. 114.
      96. 110. 249. 291. 111. 251. 142. 205. 512. 286. 322. 235. 1055.
      252. 320. 185. 153. 149. 180. 217. 135. 114. 156. 101. 116. 106.
      356. 384. 209. 155. 166. 230. 239. 392. 480. 1516. 209. 427. 322.
      693. 200. 137. 286. 199. 128. 140. 213. 213. 120. 189. 110. 297.
      99. 183. 130. 201. 196. 142. 186. 221. 201. 289. 135. 175. 240.
      272. 376. 562. 388. 1111. 513. 1421. 309. 154. 122. 96. 657. 696.
      185. 224. 218. 141. 131. 155. 233. 307. 238. 289. 261. 227. 539.
      299. 191. 226. 209. 156. 248. 397. 400. 771. 130. 266. 219. 283.
      681. 323. 666. 248. 284. 200. 290. 143. 209. 281. 192. 218. 101.
      127. 118. 103. 243. 216. 254. 243. 205. 348. 166. 175. 163. 259.
      302. 414. 177. 589. 284. 607. 500. 262. 237. 132. 778. 318. 350.
      194. 288. 270. 226. 192. 165. 214. 219. 214.</_>
    <_>
      621. 145. 172. 236. 203. 191. 194. 163. 291. 520. 316. 1081. 206.
      340. 257. 402. 409. 227. 361. 232. 437. 259. 318. 165. 201. 238.
      190. 293. 394. 321. 341. 341. 221. 152. 164. 258. 373. 271. 222.
      209. 155. 212. 191. 421. 302. 596. 337. 637. 421. 201. 275. 170.
      932. 385. 405. 271. 161. 138. 169. 190. 403. 324. 265. 249. 154.
      171. 263. 193. 167. 148. 131. 170. 160. 199. 736. 767. 131. 166.
      139. 157. 816. 324. 921. 316. 537. 246. 405. 203. 182. 168. 328.
      231. 151. 115. 168. 87. 180. 137. 139. 176. 265. 256. 137. 136.
      85. 146. 163. 294. 159. 325. 167. 313. 536. 324. 392. 247. 984.
      320. 416. 192. 119. 122. 135. 240. 203. 173. 145. 97. 122. 103.
      220. 220. 116. 170. 150. 193. 186. 451. 341. 1877. 201. 478. 303.
      839. 213. 135. 194. 126. 222. 217. 149. 133. 90. 172. 103. 146.
      112. 204. 124. 195. 201. 145. 162. 162. 400. 414. 231. 310. 260.
      392. 309. 745. 591. 1482. 698. 1667. 299. 164. 142. 97. 1072. 595.
      367. 257. 165. 196. 131. 138. 471. 441. 358. 360. 173. 152. 317.
      193. 170. 234. 251. 187. 183. 341. 317. 974. 156. 308. 227. 315.
      475. 210. 443. 159. 442. 258. 268. 139. 126. 162. 136. 141. 127.
      124. 119. 102. 254. 261. 209. 293. 324. 426. 256. 242. 160. 318.
      241. 511. 264. 657. 332. 618. 462. 224. 253. 137. 886. 446. 448.
      214. 234. 271. 236. 161. 276. 293. 293. 226.</_>
    <_>
      605. 208. 253. 384. 208. 181. 199. 175. 370. 552. 369. 1001. 254.
      347. 207. 374. 449. 284. 470. 335. 348. 180. 362. 233. 282. 341.
      283. 400. 326. 331. 306. 292. 262. 154. 197. 288. 314. 236. 135.
      126. 189. 216. 216. 441. 297. 487. 245. 554. 332. 185. 174. 192.
      653. 263. 401. 289. 189. 134. 128. 164. 256. 182. 275. 189. 314.
      235. 389. 334. 243. 181. 204. 92. 338. 304. 517. 892. 153. 165.
      146. 183. 1207. 643. 1016. 512. 648. 258. 476. 203. 412. 297. 362.
      289. 209. 102. 189. 100. 212. 165. 169. 178. 193. 254. 87. 137.
      118. 141. 200. 293. 101. 228. 150. 254. 652. 363. 384. 238. 1170.
      300. 386. 178. 165. 140. 159. 157. 156. 116. 145. 114. 118. 110.
      339. 297. 196. 145. 171. 213. 222. 440. 424. 1550. 169. 465. 295.
      715. 227. 157. 297. 183. 137. 146. 176. 184. 128. 182. 127. 286.
      115. 204. 122. 186. 219. 146. 210. 209. 207. 288. 131. 158. 240.
      305. 337. 582. 545. 1608. 631. 1938. 259. 142. 155. 96. 573. 591.
      213. 195. 191. 161. 118. 146. 235. 357. 214. 279. 267. 194. 480.
      328. 180. 202. 212. 160. 251. 439. 416. 765. 136. 277. 220. 327.
      567. 324. 584. 271. 262. 165. 288. 138. 235. 251. 203. 212. 99.
      115. 124. 85. 257. 145. 224. 223. 188. 341. 158. 197. 150. 236.
      236. 428. 196. 686. 320. 710. 485. 248. 276. 168. 624. 271. 329.
      218. 261. 283. 201. 173. 155. 213. 234. 196.</_>
    <_>
      239. 205. 269. 386. 247. 209. 219. 174. 368. 512. 396. 881. 306.
      325. 251. 328. 509. 263. 409. 327. 337. 215. 315. 280. 268. 313.
      234. 375. 413. 283. 345. 360. 295. 193. 173. 282. 369. 277. 159.
      203. 201. 220. 212. 411. 322. 509. 264. 545. 329. 210. 189. 182.
      739. 284. 360. 324. 182. 167. 151. 204. 310. 256. 274. 242. 320.
      231. 358. 311. 261. 173. 151. 105. 321. 338. 536. 652. 180. 166.
      178. 176. 1107. 638. 924. 478. 489. 264. 384. 210. 427. 295. 403.
      333. 246. 110. 168. 104. 244. 170. 166. 216. 233. 279. 127. 129.
      148. 141. 251. 276. 173. 298. 193. 251. 505. 363. 273. 234. 1071.
      336. 395. 219. 171. 136. 163. 192. 157. 135. 152. 104. 124. 111.
      287. 319. 132. 158. 196. 242. 224. 391. 375. 1394. 205. 443. 275.
      663. 284. 167. 265. 168. 151. 156. 173. 228. 117. 184. 130. 296.
      145. 203. 133. 264. 232. 158. 207. 246. 289. 360. 224. 287. 273.
      311. 334. 540. 444. 1067. 576. 1184. 283. 163. 168. 109. 625. 442.
      286. 224. 170. 168. 128. 156. 333. 404. 283. 343. 258. 208. 419.
      296. 197. 225. 255. 185. 239. 472. 395. 831. 178. 275. 215. 326.
      536. 301. 532. 225. 312. 190. 248. 144. 219. 218. 216. 211. 125.
      154. 114. 107. 252. 206. 219. 245. 279. 331. 233. 251. 188. 241.
      288. 383. 239. 617. 363. 592. 416. 307. 275. 190. 780. 372. 386.
      220. 248. 253. 232. 196. 260. 273. 241. 241.</_>
    <_>
      359. 126. 206. 313. 214. 156. 203. 181. 282. 547. 366. 1078. 240.
      316. 242. 395. 489. 213. 452. 232. 539. 267. 327. 165. 262. 309.
      249. 404. 527. 360. 407. 459. 248. 154. 154. 261. 414. 309. 181.
      188. 152. 220. 201. 423. 316. 649. 295. 654. 321. 160. 188. 117.
      923. 341. 428. 203. 155. 155. 152. 187. 426. 273. 272. 277. 197.
      150. 349. 280. 173. 126. 142. 98. 212. 275. 735. 958. 112. 158.
      156. 144. 1081. 404. 1201. 392. 513. 212. 405. 126. 215. 188. 474.
      333. 157. 103. 195. 89. 177. 158. 184. 188. 237. 260. 103. 114.
      113. 142. 179. 303. 111. 364. 150. 317. 556. 352. 373. 168. 1276.
      333. 311. 131. 127. 112. 137. 175. 237. 136. 129. 102. 101. 77.
      244. 254. 122. 141. 137. 197. 186. 437. 262. 1451. 151. 419. 223.
      599. 177. 131. 182. 110. 202. 238. 126. 128. 88. 151. 110. 162.
      130. 182. 109. 239. 223. 168. 174. 213. 335. 400. 248. 261. 190.
      346. 253. 501. 518. 1224. 543. 1385. 227. 119. 159. 78. 950. 705.
      318. 251. 129. 170. 95. 128. 349. 398. 293. 310. 182. 209. 368.
      279. 166. 213. 240. 159. 224. 466. 377. 1035. 113. 297. 189. 313.
      489. 211. 471. 139. 341. 229. 234. 113. 148. 160. 160. 188. 124.
      123. 106. 103. 344. 329. 305. 331. 349. 377. 247. 227. 143. 289.
      219. 427. 238. 696. 358. 618. 529. 240. 312. 138. 1192. 451. 531.
      219. 238. 250. 268. 192. 298. 264. 263. 232.</_>
    <_>
      210. 208. 273. 322. 217. 189. 222. 166. 382. 536. 366. 766. 289.
      330. 233. 327. 485. 294. 445. 297. 355. 203. 333. 246. 267. 353.
      248. 388. 371. 314. 335. 354. 291. 219. 180. 327. 329. 219. 177.
      201. 219. 243. 237. 419. 291. 532. 264. 585. 381. 200. 201. 181.
      696. 268. 403. 273. 206. 215. 149. 209. 324. 254. 278. 238. 313.
      216. 397. 295. 268. 197. 171. 108. 304. 315. 530. 661. 218. 190.
      209. 171. 988. 589. 878. 443. 523. 262. 401. 199. 389. 271. 389.
      329. 245. 119. 173. 109. 220. 167. 177. 232. 250. 271. 145. 149.
      164. 154. 267. 312. 143. 300. 235. 269. 500. 358. 357. 235. 973.
      336. 431. 215. 177. 147. 187. 203. 173. 149. 159. 128. 155. 130.
      283. 325. 141. 171. 206. 261. 218. 427. 330. 1288. 203. 504. 262.
      647. 278. 207. 277. 193. 160. 203. 178. 228. 148. 221. 107. 290.
      107. 256. 141. 276. 238. 164. 202. 264. 246. 311. 232. 258. 260.
      367. 323. 503. 417. 1053. 488. 1083. 323. 166. 157. 137. 580. 445.
      274. 229. 183. 199. 135. 180. 298. 381. 294. 332. 260. 200. 401.
      301. 230. 274. 297. 197. 251. 486. 359. 836. 184. 327. 254. 288.
      568. 297. 528. 221. 328. 204. 271. 152. 224. 220. 179. 220. 135.
      148. 132. 135. 260. 206. 222. 242. 284. 335. 259. 258. 171. 248.
      270. 383. 223. 594. 355. 615. 396. 270. 238. 160. 706. 362. 387.
      216. 250. 279. 231. 189. 246. 245. 226. 238.</_>
    <_>
      486. 157. 186. 298. 197. 195. 219. 188. 321. 554. 390. 1078. 228.
      343. 246. 431. 501. 228. 451. 269. 449. 305. 306. 166. 248. 270.
      279. 365. 516. 398. 445. 448. 216. 185. 128. 249. 322. 247. 179.
      178. 155. 234. 206. 409. 286. 638. 264. 710. 279. 156. 216. 125.
      923. 314. 383. 208. 171. 136. 166. 182. 377. 222. 259. 263. 229.
      160. 361. 278. 161. 113. 159. 100. 248. 315. 710. 1006. 117. 166.
      142. 157. 1044. 407. 1264. 384. 485. 234. 415. 128. 248. 224. 454.
      332. 184. 95. 238. 82. 183. 159. 186. 197. 220. 235. 117. 94. 95.
      128. 231. 296. 112. 368. 157. 313. 553. 314. 352. 186. 1177. 283.
      314. 141. 127. 115. 167. 151. 225. 117. 123. 81. 102. 114. 234.
      284. 121. 146. 164. 206. 169. 445. 303. 1495. 182. 373. 197. 607.
      175. 114. 192. 123. 176. 268. 127. 131. 100. 151. 111. 201. 126.
      212. 92. 258. 203. 172. 171. 199. 318. 385. 230. 255. 223. 368.
      290. 531. 530. 1210. 539. 1340. 262. 143. 135. 67. 864. 833. 302.
      214. 151. 162. 93. 130. 372. 414. 254. 343. 203. 219. 324. 311.
      176. 228. 241. 156. 218. 490. 380. 1065. 127. 301. 237. 314. 462.
      246. 463. 139. 309. 215. 233. 96. 152. 186. 166. 177. 95. 114. 93.
      89. 365. 344. 322. 375. 319. 371. 248. 201. 150. 308. 247. 434.
      221. 674. 333. 554. 453. 211. 361. 151. 1116. 457. 517. 223. 209.
      258. 286. 177. 252. 252. 314. 166.</_>
    <_>
      343. 171. 207. 323. 204. 195. 224. 180. 311. 537. 377. 1094. 230.
      334. 227. 417. 539. 234. 469. 256. 474. 287. 270. 176. 245. 285.
      267. 340. 548. 396. 426. 461. 214. 183. 132. 254. 383. 267. 185.
      161. 160. 201. 213. 392. 299. 653. 239. 695. 291. 152. 188. 140.
      943. 276. 355. 188. 161. 143. 157. 182. 394. 232. 241. 252. 228.
      173. 356. 298. 164. 108. 141. 94. 234. 330. 714. 1012. 115. 160.
      159. 172. 1068. 426. 1271. 399. 500. 232. 403. 130. 232. 216. 479.
      334. 176. 103. 245. 83. 166. 171. 190. 175. 223. 230. 99. 95. 100.
      134. 208. 290. 112. 386. 164. 300. 526. 322. 376. 194. 1198. 324.
      307. 134. 121. 136. 151. 147. 211. 118. 129. 86. 100. 107. 220.
      284. 115. 147. 186. 183. 181. 401. 306. 1469. 155. 385. 221. 590.
      163. 115. 196. 97. 196. 263. 138. 133. 107. 150. 124. 217. 122.
      208. 96. 226. 234. 163. 170. 218. 333. 391. 237. 248. 196. 326.
      265. 514. 535. 1202. 603. 1347. 227. 122. 151. 80. 893. 812. 335.
      242. 141. 145. 126. 119. 383. 382. 245. 329. 182. 223. 374. 303.
      179. 211. 240. 163. 233. 508. 361. 1066. 129. 269. 208. 330. 477.
      205. 484. 139. 308. 203. 214. 108. 156. 174. 194. 202. 116. 117.
      101. 95. 356. 313. 327. 349. 307. 350. 252. 217. 167. 328. 253.
      408. 220. 664. 334. 604. 488. 224. 327. 131. 1156. 434. 499. 207.
      236. 266. 293. 186. 291. 286. 296. 193.</_>
    <_>
      275. 175. 248. 351. 227. 190. 215. 189. 380. 529. 366. 776. 292.
      334. 216. 332. 491. 295. 446. 313. 350. 205. 349. 236. 245. 330.
      250. 399. 403. 324. 313. 367. 304. 209. 170. 325. 319. 243. 189.
      174. 235. 233. 232. 426. 315. 531. 231. 611. 412. 197. 194. 192.
      730. 275. 393. 272. 203. 209. 153. 208. 298. 252. 299. 246. 321.
      242. 349. 296. 255. 194. 189. 92. 327. 323. 525. 650. 200. 168.
      197. 194. 1080. 608. 939. 382. 533. 242. 400. 215. 369. 272. 422.
      317. 243. 117. 197. 121. 202. 188. 189. 234. 239. 277. 140. 136.
      137. 137. 283. 315. 162. 299. 237. 281. 490. 362. 325. 230. 1022.
      322. 439. 213. 166. 143. 201. 194. 172. 111. 161. 117. 137. 128.
      272. 288. 124. 181. 186. 232. 222. 419. 329. 1317. 191. 526. 231.
      654. 275. 191. 256. 180. 169. 182. 167. 227. 122. 201. 119. 287.
      107. 251. 159. 281. 241. 176. 220. 255. 242. 333. 198. 271. 272.
      362. 299. 531. 406. 1056. 443. 1128. 306. 168. 155. 115. 580. 463.
      270. 218. 192. 202. 130. 154. 325. 412. 262. 314. 262. 205. 439.
      308. 238. 252. 302. 179. 251. 450. 357. 772. 172. 313. 242. 306.
      567. 290. 559. 221. 345. 211. 258. 155. 206. 227. 197. 206. 132.
      137. 117. 117. 284. 209. 232. 240. 284. 352. 235. 251. 178. 256.
      264. 396. 233. 604. 362. 619. 422. 266. 236. 163. 756. 359. 416.
      217. 256. 262. 221. 183. 221. 247. 249. 230.</_>
    <_>
      260. 190. 267. 340. 225. 179. 218. 191. 365. 580. 374. 774. 267.
      334. 233. 326. 506. 301. 463. 315. 329. 222. 331. 251. 280. 340.
      256. 397. 421. 295. 360. 369. 288. 170. 192. 297. 314. 250. 180.
      183. 224. 255. 217. 422. 281. 532. 242. 587. 416. 207. 202. 182.
      755. 266. 407. 269. 189. 186. 156. 195. 338. 261. 281. 249. 326.
      240. 349. 303. 239. 167. 191. 110. 321. 335. 515. 636. 221. 188.
      187. 178. 1124. 585. 942. 417. 523. 212. 393. 187. 378. 273. 387.
      324. 262. 117. 191. 109. 204. 180. 184. 238. 238. 249. 129. 130.
      154. 122. 262. 330. 148. 278. 212. 249. 520. 354. 329. 208. 972.
      363. 438. 250. 178. 148. 185. 176. 168. 122. 156. 112. 131. 102.
      287. 319. 120. 181. 185. 230. 222. 456. 299. 1300. 195. 487. 218.
      691. 258. 188. 248. 178. 168. 181. 176. 223. 125. 177. 120. 291.
      129. 245. 125. 270. 234. 177. 196. 256. 235. 313. 202. 258. 266.
      349. 307. 540. 417. 1134. 457. 1196. 293. 185. 167. 114. 617. 481.
      289. 211. 183. 207. 124. 162. 272. 414. 245. 361. 258. 223. 418.
      289. 228. 276. 282. 189. 262. 473. 377. 765. 166. 301. 223. 315.
      603. 306. 541. 235. 341. 189. 264. 180. 207. 226. 177. 195. 133.
      123. 126. 122. 281. 219. 220. 258. 292. 354. 254. 244. 166. 245.
      265. 464. 210. 593. 345. 635. 449. 269. 250. 173. 714. 370. 395.
      218. 227. 240. 232. 196. 254. 238. 238. 224.</_>
    <_>
      232. 170. 259. 371. 222. 168. 243. 182. 322. 566. 394. 1069. 217.
      302. 197. 338. 492. 249. 497. 300. 309. 182. 312. 212. 247. 313.
      242. 386. 340. 277. 316. 318. 252. 173. 173. 271. 369. 272. 189.
      175. 184. 265. 211. 442. 253. 519. 217. 583. 381. 160. 223. 175.
      818. 281. 417. 244. 188. 187. 142. 163. 288. 281. 257. 212. 281.
      271. 391. 326. 243. 195. 163. 110. 294. 347. 529. 906. 163. 175.
      158. 164. 1122. 611. 1089. 495. 537. 272. 372. 190. 384. 309. 362.
      298. 228. 146. 160. 118. 181. 180. 162. 191. 236. 256. 134. 128.
      106. 145. 182. 255. 105. 274. 166. 216. 538. 337. 382. 263. 1093.
      334. 462. 198. 148. 151. 185. 190. 175. 145. 165. 93. 132. 140.
      282. 288. 159. 170. 172. 203. 161. 379. 339. 1654. 172. 475. 213.
      671. 280. 177. 247. 173. 137. 180. 181. 178. 108. 172. 135. 256.
      146. 189. 127. 222. 203. 135. 205. 190. 243. 353. 190. 255. 200.
      337. 293. 637. 505. 1390. 540. 1759. 283. 162. 147. 84. 719. 571.
      299. 188. 187. 187. 151. 120. 313. 387. 272. 300. 234. 173. 381.
      268. 206. 250. 262. 180. 225. 472. 365. 956. 144. 289. 232. 296.
      591. 322. 577. 187. 315. 216. 274. 139. 174. 212. 186. 202. 127.
      131. 136. 123. 240. 182. 258. 223. 226. 323. 205. 206. 131. 225.
      257. 339. 187. 681. 312. 718. 429. 292. 235. 168. 742. 353. 358.
      203. 257. 272. 210. 174. 222. 219. 201. 190.</_>
    <_>
      333. 181. 275. 324. 203. 181. 220. 182. 274. 559. 355. 1082. 199.
      299. 203. 360. 514. 280. 480. 277. 321. 215. 315. 198. 265. 289.
      243. 366. 355. 284. 323. 306. 222. 165. 181. 264. 337. 257. 181.
      173. 164. 243. 176. 452. 274. 516. 225. 541. 342. 178. 218. 164.
      795. 294. 454. 230. 179. 220. 152. 135. 339. 267. 240. 216. 276.
      237. 423. 329. 218. 186. 176. 103. 252. 340. 540. 954. 146. 193.
      146. 174. 1147. 621. 1136. 462. 602. 262. 392. 195. 351. 247. 397.
      303. 190. 143. 145. 110. 190. 172. 168. 228. 262. 271. 160. 129.
      123. 146. 175. 304. 116. 246. 165. 238. 579. 337. 425. 244. 1116.
      309. 429. 203. 149. 160. 183. 185. 167. 129. 183. 124. 115. 130.
      273. 259. 149. 181. 195. 198. 164. 429. 322. 1674. 182. 475. 222.
      740. 283. 179. 261. 148. 173. 181. 189. 172. 94. 148. 136. 244.
      155. 186. 135. 188. 188. 137. 202. 198. 269. 336. 219. 243. 221.
      396. 305. 668. 470. 1297. 510. 1680. 308. 153. 178. 83. 836. 582.
      310. 191. 179. 171. 139. 119. 351. 382. 285. 312. 227. 185. 378.
      255. 198. 241. 270. 179. 237. 413. 320. 984. 137. 271. 226. 310.
      584. 308. 570. 202. 305. 232. 298. 154. 166. 197. 179. 206. 121.
      149. 143. 110. 219. 181. 222. 214. 213. 323. 202. 208. 138. 250.
      227. 358. 194. 648. 321. 652. 423. 279. 310. 136. 755. 357. 380.
      177. 230. 243. 207. 147. 215. 224. 227. 201.</_>
    <_>
      389. 201. 236. 331. 220. 184. 213. 173. 272. 549. 343. 1096. 183.
      319. 196. 357. 531. 245. 486. 296. 323. 211. 345. 203. 243. 303.
      235. 352. 351. 283. 335. 310. 226. 178. 170. 267. 347. 234. 171.
      184. 167. 239. 188. 428. 282. 484. 200. 552. 391. 204. 213. 149.
      799. 289. 412. 227. 166. 159. 150. 164. 322. 271. 251. 208. 284.
      280. 454. 307. 226. 173. 164. 115. 252. 340. 536. 991. 147. 195.
      159. 166. 1152. 602. 1139. 457. 573. 244. 397. 190. 391. 244. 372.
      331. 240. 146. 155. 111. 183. 155. 161. 199. 245. 281. 140. 143.
      103. 170. 188. 300. 121. 252. 193. 215. 565. 347. 422. 243. 1090.
      329. 429. 188. 145. 182. 185. 180. 169. 133. 143. 124. 115. 119.
      306. 248. 144. 168. 183. 186. 191. 413. 303. 1662. 174. 483. 231.
      759. 277. 189. 248. 165. 170. 188. 192. 157. 103. 142. 135. 236.
      138. 194. 109. 191. 194. 128. 210. 183. 265. 320. 204. 235. 231.
      386. 340. 687. 467. 1353. 512. 1696. 317. 157. 166. 91. 807. 609.
      324. 190. 182. 182. 132. 136. 312. 389. 270. 311. 216. 199. 393.
      272. 198. 248. 283. 182. 225. 389. 358. 1007. 147. 291. 218. 287.
      578. 292. 572. 231. 319. 200. 298. 149. 174. 210. 191. 200. 125.
      131. 120. 106. 235. 170. 221. 221. 225. 316. 201. 210. 120. 222.
      255. 357. 200. 640. 298. 619. 445. 273. 273. 143. 744. 346. 361.
      204. 241. 248. 218. 157. 202. 246. 207. 206.</_>
    <_>
      191. 167. 221. 362. 229. 247. 270. 201. 369. 545. 370. 909. 279.
      291. 238. 329. 418. 256. 315. 272. 429. 313. 393. 263. 272. 371.
      212. 360. 491. 388. 414. 384. 329. 215. 182. 331. 385. 242. 184.
      168. 204. 165. 227. 338. 287. 412. 264. 450. 351. 195. 194. 186.
      832. 296. 458. 244. 161. 137. 177. 172. 313. 218. 273. 210. 257.
      217. 357. 249. 262. 222. 198. 117. 281. 270. 536. 750. 185. 184.
      169. 140. 856. 392. 904. 340. 579. 268. 574. 200. 321. 298. 347.
      298. 209. 146. 262. 147. 230. 252. 165. 289. 239. 292. 130. 136.
      140. 175. 248. 298. 134. 264. 145. 221. 604. 345. 500. 295. 1052.
      323. 520. 228. 155. 150. 218. 225. 158. 159. 154. 117. 153. 152.
      374. 316. 166. 177. 199. 209. 199. 416. 348. 1404. 211. 355. 260.
      513. 184. 152. 199. 192. 175. 279. 182. 232. 126. 187. 104. 179.
      114. 217. 156. 228. 283. 176. 232. 220. 257. 341. 234. 250. 265.
      295. 324. 413. 469. 1047. 548. 1312. 346. 207. 124. 109. 638. 717.
      279. 252. 226. 189. 162. 135. 277. 327. 310. 314. 218. 218. 433.
      248. 188. 261. 279. 180. 230. 459. 349. 752. 146. 263. 194. 237.
      525. 253. 348. 204. 342. 233. 291. 164. 197. 250. 182. 152. 128.
      141. 145. 126. 288. 293. 236. 287. 257. 377. 213. 206. 163. 264.
      303. 399. 220. 573. 341. 484. 509. 319. 331. 174. 927. 396. 474.
      248. 259. 283. 266. 228. 191. 195. 241. 218.</_>
    <_>
      166. 150. 245. 366. 249. 205. 217. 197. 359. 526. 400. 921. 295.
      300. 272. 336. 411. 244. 289. 275. 439. 312. 417. 233. 254. 375.
      202. 328. 483. 352. 414. 388. 310. 206. 212. 330. 392. 249. 191.
      162. 198. 172. 216. 341. 328. 430. 240. 477. 373. 195. 200. 179.
      799. 314. 442. 244. 174. 137. 177. 170. 331. 222. 284. 217. 239.
      220. 311. 269. 236. 232. 195. 122. 266. 260. 584. 727. 175. 157.
      178. 138. 769. 386. 971. 345. 545. 268. 589. 195. 303. 279. 371.
      285. 212. 162. 290. 113. 184. 230. 176. 247. 231. 283. 114. 140.
      124. 146. 247. 290. 135. 247. 137. 216. 578. 342. 573. 286. 1059.
      292. 490. 196. 168. 161. 206. 215. 165. 129. 156. 123. 154. 133.
      380. 296. 152. 183. 204. 243. 211. 458. 343. 1391. 220. 350. 266.
      556. 162. 173. 185. 186. 149. 313. 148. 215. 120. 187. 123. 187.
      142. 195. 131. 247. 265. 160. 228. 197. 289. 333. 250. 243. 274.
      280. 324. 510. 475. 1055. 556. 1319. 326. 220. 114. 112. 668. 794.
      249. 259. 240. 192. 146. 151. 305. 332. 303. 311. 239. 235. 394.
      235. 218. 256. 258. 164. 223. 482. 333. 828. 171. 251. 215. 264.
      518. 281. 379. 185. 331. 271. 275. 170. 185. 248. 152. 161. 127.
      140. 142. 130. 269. 308. 261. 284. 225. 376. 203. 232. 195. 268.
      296. 422. 196. 602. 326. 504. 539. 334. 333. 165. 875. 395. 498.
      233. 257. 295. 263. 190. 230. 237. 247. 188.</_>
    <_>
      149. 200. 257. 352. 206. 223. 280. 211. 306. 609. 383. 1059. 242.
      327. 242. 334. 492. 257. 445. 289. 419. 258. 312. 211. 211. 323.
      229. 338. 440. 354. 429. 367. 282. 212. 199. 320. 355. 242. 216.
      177. 188. 206. 202. 381. 292. 458. 228. 567. 336. 213. 220. 182.
      827. 301. 436. 237. 188. 114. 163. 199. 338. 268. 293. 231. 232.
      214. 375. 281. 205. 213. 175. 119. 252. 375. 548. 779. 163. 208.
      148. 164. 854. 382. 1014. 369. 459. 215. 413. 149. 247. 327. 406.
      286. 167. 142. 241. 140. 194. 217. 160. 223. 251. 304. 149. 136.
      84. 160. 247. 369. 132. 326. 195. 279. 490. 256. 412. 214. 1051.
      316. 374. 191. 162. 169. 180. 205. 200. 139. 152. 131. 120. 126.
      403. 316. 145. 203. 244. 205. 205. 423. 333. 1344. 186. 352. 250.
      460. 241. 171. 264. 157. 228. 254. 208. 173. 120. 198. 152. 177.
      130. 188. 167. 221. 243. 170. 231. 182. 290. 361. 217. 229. 238.
      306. 310. 456. 492. 957. 506. 1174. 349. 184. 160. 93. 805. 684.
      336. 245. 231. 216. 175. 142. 320. 377. 298. 272. 189. 238. 420.
      274. 207. 254. 297. 163. 206. 458. 380. 741. 173. 274. 236. 307.
      522. 242. 509. 190. 360. 243. 283. 133. 212. 235. 200. 186. 137.
      137. 152. 140. 281. 296. 230. 291. 266. 392. 222. 212. 144. 294.
      248. 426. 214. 592. 359. 555. 431. 305. 311. 154. 1042. 408. 425.
      246. 264. 310. 289. 191. 222. 229. 279. 206.</_>
    <_>
      169. 181. 220. 311. 189. 178. 250. 176. 335. 473. 388. 776. 241.
      293. 239. 338. 478. 295. 467. 272. 322. 211. 308. 234. 248. 332.
      249. 363. 383. 315. 359. 342. 276. 183. 183. 320. 369. 257. 197.
      168. 228. 224. 252. 383. 275. 544. 269. 582. 358. 231. 195. 230.
      819. 321. 449. 251. 211. 196. 154. 174. 345. 270. 312. 257. 252.
      193. 394. 235. 235. 184. 180. 132. 349. 309. 575. 771. 192. 166.
      190. 200. 1014. 489. 928. 441. 522. 219. 427. 186. 337. 292. 364.
      269. 211. 136. 183. 123. 203. 183. 164. 228. 240. 275. 174. 132.
      148. 156. 232. 264. 146. 301. 222. 256. 515. 293. 367. 275. 1132.
      297. 409. 229. 197. 150. 202. 201. 203. 132. 204. 126. 131. 124.
      264. 311. 145. 222. 184. 264. 216. 420. 337. 1351. 227. 463. 273.
      590. 267. 218. 206. 187. 185. 213. 186. 218. 117. 178. 122. 282.
      151. 246. 143. 219. 260. 175. 222. 240. 272. 322. 199. 254. 271.
      374. 329. 586. 511. 1092. 536. 1230. 317. 206. 129. 137. 640. 576.
      336. 273. 194. 199. 125. 147. 328. 374. 309. 269. 238. 217. 407.
      256. 225. 267. 309. 206. 244. 477. 378. 713. 164. 309. 233. 287.
      530. 277. 498. 216. 313. 215. 258. 180. 178. 201. 178. 224. 117.
      132. 114. 119. 264. 218. 238. 239. 281. 389. 256. 232. 158. 267.
      251. 408. 221. 608. 362. 585. 420. 258. 274. 168. 689. 361. 426.
      260. 255. 277. 211. 192. 218. 220. 237. 213.</_>
    <_>
      184. 180. 229. 310. 207. 186. 223. 274. 345. 476. 382. 737. 294.
      281. 279. 302. 466. 255. 433. 261. 296. 203. 333. 231. 251. 340.
      237. 327. 388. 340. 374. 363. 311. 192. 194. 306. 378. 235. 194.
      198. 202. 216. 261. 424. 311. 514. 265. 577. 367. 203. 197. 193.
      859. 322. 472. 250. 200. 200. 143. 187. 340. 273. 298. 258. 255.
      192. 407. 297. 259. 163. 169. 138. 330. 357. 561. 710. 200. 163.
      183. 168. 976. 552. 937. 464. 450. 257. 416. 190. 318. 288. 340.
      302. 203. 136. 163. 121. 177. 170. 159. 237. 234. 291. 144. 142.
      130. 158. 230. 322. 149. 285. 218. 253. 498. 316. 346. 248. 1182.
      375. 421. 211. 154. 153. 195. 190. 183. 144. 164. 135. 123. 126.
      286. 308. 124. 190. 213. 249. 217. 431. 366. 1328. 212. 453. 291.
      567. 242. 191. 243. 201. 187. 190. 155. 221. 112. 178. 115. 281.
      162. 241. 138. 215. 242. 166. 208. 241. 326. 352. 202. 253. 268.
      360. 375. 549. 491. 1076. 586. 1163. 320. 190. 135. 112. 722. 545.
      324. 273. 185. 200. 128. 148. 318. 379. 320. 342. 236. 199. 419.
      261. 193. 261. 257. 176. 231. 439. 344. 715. 172. 305. 242. 292.
      529. 276. 477. 202. 321. 269. 269. 154. 196. 195. 189. 212. 111.
      137. 107. 147. 266. 192. 220. 231. 270. 396. 260. 236. 183. 272.
      283. 395. 237. 626. 377. 602. 433. 269. 257. 154. 738. 406. 414.
      221. 230. 272. 225. 203. 223. 260. 242. 213.</_>
    <_>
      184. 202. 268. 352. 194. 200. 299. 204. 335. 590. 349. 916. 250.
      287. 253. 301. 496. 306. 451. 314. 380. 243. 332. 206. 209. 329.
      238. 327. 436. 385. 433. 422. 295. 178. 210. 284. 307. 254. 196.
      173. 179. 226. 222. 352. 256. 479. 260. 525. 345. 228. 223. 186.
      772. 293. 423. 222. 204. 155. 186. 172. 344. 232. 287. 249. 236.
      230. 387. 277. 203. 228. 218. 118. 282. 320. 520. 648. 161. 202.
      163. 179. 860. 470. 1059. 480. 482. 220. 441. 177. 290. 304. 428.
      300. 174. 136. 253. 104. 191. 207. 177. 233. 228. 278. 174. 148.
      130. 188. 236. 346. 155. 350. 206. 284. 490. 292. 459. 282. 1037.
      344. 386. 199. 161. 173. 204. 210. 175. 141. 151. 126. 126. 159.
      340. 299. 178. 193. 260. 206. 210. 422. 325. 1309. 186. 319. 254.
      473. 270. 178. 284. 180. 210. 280. 193. 173. 112. 161. 139. 197.
      126. 213. 157. 265. 267. 199. 210. 195. 311. 380. 232. 240. 284.
      251. 313. 416. 448. 827. 502. 1070. 311. 196. 174. 102. 735. 729.
      302. 252. 242. 213. 200. 138. 314. 352. 281. 290. 229. 256. 397.
      285. 231. 277. 269. 200. 218. 468. 350. 736. 183. 267. 228. 258.
      456. 300. 481. 171. 357. 266. 306. 167. 218. 217. 223. 191. 155.
      144. 149. 128. 281. 318. 248. 277. 298. 343. 265. 184. 184. 295.
      248. 370. 225. 545. 338. 473. 408. 273. 348. 177. 960. 441. 493.
      277. 276. 292. 265. 177. 203. 198. 270. 177.</_>
    <_>
      10064. 131. 213. 294. 528. 98. 153. 139. 248. 431. 352. 1311. 156.
      212. 202. 351. 482. 221. 417. 227. 320. 162. 256. 105. 203. 199.
      224. 354. 407. 196. 265. 316. 155. 98. 109. 164. 320. 180. 146.
      157. 126. 175. 106. 310. 240. 553. 215. 549. 255. 99. 148. 102.
      798. 232. 325. 148. 99. 120. 123. 144. 258. 221. 159. 152. 229.
      163. 368. 258. 144. 117. 100. 202. 233. 272. 782. 906. 78. 131.
      104. 138. 1136. 448. 1018. 476. 454. 670. 283. 103. 259. 212. 360.
      425. 130. 73. 74. 68. 149. 129. 79. 109. 196. 176. 61. 66. 79.
      131. 114. 201. 106. 230. 85. 174. 488. 759. 209. 158. 1522. 289.
      245. 126. 115. 93. 93. 231. 178. 133. 80. 65. 64. 83. 177. 209.
      202. 82. 98. 133. 172. 389. 400. 2044. 143. 287. 592. 640. 130.
      65. 143. 79. 114. 121. 112. 82. 63. 110. 90. 198. 70. 125. 88.
      170. 115. 87. 111. 140. 318. 356. 220. 258. 187. 311. 514. 542.
      414. 1036. 547. 1199. 125. 73. 74. 48. 777. 530. 227. 185. 91.
      104. 79. 160. 311. 348. 216. 279. 154. 154. 304. 252. 131. 137.
      143. 128. 231. 429. 309. 1057. 101. 223. 124. 245. 511. 176. 494.
      166. 217. 120. 129. 79. 148. 162. 171. 184. 60. 80. 70. 72. 181.
      190. 177. 246. 269. 307. 193. 175. 129. 304. 187. 391. 208. 437.
      257. 432. 299. 148. 180. 112. 864. 327. 349. 223. 386. 500. 205.
      406. 221. 231. 184. 158.</_>
    <_>
      11341. 128. 184. 259. 544. 128. 127. 136. 240. 447. 315. 1086.
      165. 236. 245. 300. 466. 227. 461. 233. 256. 171. 215. 120. 173.
      237. 219. 303. 365. 230. 278. 274. 152. 123. 90. 140. 275. 214.
      178. 161. 149. 158. 151. 312. 272. 567. 262. 547. 222. 115. 198.
      96. 610. 250. 353. 165. 111. 147. 153. 178. 288. 259. 178. 175.
      212. 177. 328. 236. 147. 112. 93. 262. 197. 259. 846. 788. 108.
      129. 129. 140. 1166. 404. 1091. 414. 380. 668. 288. 120. 235. 224.
      351. 376. 145. 82. 109. 68. 126. 104. 98. 137. 200. 187. 87. 86.
      102. 133. 144. 244. 109. 302. 113. 238. 402. 790. 251. 155. 1295.
      295. 259. 130. 101. 90. 101. 195. 178. 153. 73. 82. 74. 83. 178.
      199. 210. 110. 98. 125. 183. 360. 358. 1677. 138. 281. 611. 551.
      128. 86. 143. 76. 123. 124. 109. 93. 78. 112. 93. 169. 89. 135.
      89. 210. 113. 115. 115. 153. 289. 335. 250. 234. 200. 332. 505.
      474. 448. 792. 572. 978. 121. 82. 75. 81. 606. 596. 296. 175. 103.
      120. 99. 169. 276. 344. 221. 272. 153. 161. 253. 218. 122. 176.
      136. 134. 259. 399. 344. 911. 124. 204. 170. 247. 509. 181. 466.
      152. 229. 142. 145. 72. 125. 149. 147. 162. 65. 93. 75. 89. 203.
      263. 218. 278. 225. 256. 213. 159. 138. 286. 225. 320. 208. 489.
      235. 399. 250. 176. 200. 117. 670. 350. 365. 209. 378. 495. 223.
      397. 231. 199. 214. 163.</_>
    <_>
      10456. 173. 224. 331. 589. 120. 152. 165. 224. 446. 363. 939. 158.
      230. 228. 342. 427. 234. 443. 235. 343. 212. 252. 120. 224. 246.
      256. 330. 341. 247. 293. 328. 142. 103. 106. 187. 299. 242. 147.
      143. 115. 164. 168. 322. 231. 585. 256. 551. 200. 92. 155. 94.
      752. 234. 299. 127. 118. 132. 148. 195. 285. 220. 179. 182. 232.
      204. 385. 288. 137. 138. 81. 219. 258. 317. 831. 838. 99. 136.
      146. 146. 851. 388. 884. 383. 369. 675. 258. 103. 242. 253. 406.
      451. 141. 93. 118. 79. 138. 108. 112. 139. 171. 167. 59. 80. 81.
      132. 125. 234. 87. 276. 98. 215. 450. 779. 294. 166. 1609. 227.
      255. 110. 116. 110. 90. 180. 141. 121. 61. 64. 70. 93. 184. 231.
      368. 94. 106. 146. 144. 280. 320. 1379. 137. 237. 718. 435. 170.
      96. 184. 99. 118. 152. 142. 95. 86. 118. 132. 193. 87. 138. 88.
      179. 131. 95. 117. 131. 268. 307. 189. 223. 212. 249. 518. 377.
      435. 980. 523. 1015. 144. 97. 93. 64. 725. 701. 252. 180. 137.
      129. 122. 126. 313. 276. 222. 231. 189. 210. 283. 270. 126. 155.
      133. 150. 256. 450. 319. 763. 82. 214. 150. 232. 407. 160. 432.
      166. 261. 148. 142. 82. 160. 184. 189. 193. 79. 91. 80. 73. 233.
      244. 212. 295. 232. 247. 185. 149. 134. 317. 185. 336. 183. 493.
      262. 429. 305. 188. 251. 131. 956. 372. 383. 231. 364. 500. 342.
      443. 198. 202. 219. 161.</_>
    <_>
      194. 178. 270. 354. 460. 133. 165. 202. 326. 414. 353. 959. 223.
      275. 213. 325. 471. 235. 469. 310. 349. 238. 303. 181. 236. 237.
      259. 426. 306. 299. 239. 331. 187. 128. 130. 189. 433. 284. 186.
      213. 141. 172. 188. 348. 333. 537. 207. 500. 336. 153. 173. 144.
      1244. 375. 416. 289. 106. 97. 121. 162. 417. 238. 217. 240. 312.
      199. 387. 317. 173. 118. 99. 71. 257. 301. 568. 808. 121. 126.
      100. 146. 1191. 616. 968. 467. 546. 631. 328. 129. 348. 222. 395.
      353. 162. 82. 133. 103. 153. 132. 102. 165. 253. 228. 93. 96. 82.
      99. 146. 204. 122. 263. 84. 141. 590. 922. 257. 182. 1782. 428.
      337. 160. 142. 99. 112. 117. 240. 128. 133. 97. 70. 78. 225. 245.
      96. 115. 111. 175. 146. 278. 337. 1443. 162. 329. 764. 582. 155.
      73. 251. 163. 134. 136. 151. 150. 74. 103. 100. 224. 90. 154. 110.
      184. 165. 127. 141. 194. 364. 370. 263. 316. 138. 201. 583. 464.
      695. 1415. 712. 1618. 206. 102. 134. 84. 1178. 715. 337. 283. 115.
      99. 97. 136. 382. 460. 297. 391. 201. 206. 359. 332. 137. 139.
      185. 149. 204. 385. 402. 761. 128. 205. 173. 237. 595. 197. 571.
      211. 314. 157. 243. 118. 178. 178. 209. 243. 84. 110. 84. 102.
      316. 238. 197. 225. 306. 390. 216. 223. 120. 232. 205. 348. 248.
      738. 278. 675. 427. 222. 246. 122. 1292. 454. 473. 245. 461. 577.
      197. 423. 287. 282. 215. 232.</_>
    <_>
      1499. 162. 230. 296. 481. 151. 222. 152. 307. 469. 327. 728. 224.
      319. 219. 316. 481. 254. 436. 256. 371. 228. 283. 195. 245. 262.
      262. 343. 416. 284. 289. 362. 208. 137. 121. 246. 412. 310. 194.
      204. 146. 183. 178. 337. 329. 612. 263. 633. 303. 167. 167. 178.
      890. 312. 357. 211. 148. 130. 131. 164. 395. 259. 256. 275. 240.
      190. 345. 239. 199. 108. 109. 233. 330. 292. 741. 692. 126. 149.
      126. 124. 833. 463. 789. 420. 428. 687. 252. 132. 302. 220. 342.
      410. 218. 107. 143. 95. 178. 141. 125. 145. 242. 209. 87. 86. 126.
      89. 191. 217. 134. 337. 131. 228. 543. 862. 278. 191. 1429. 336.
      265. 114. 126. 126. 133. 213. 219. 133. 118. 91. 79. 80. 204. 244.
      442. 140. 160. 154. 155. 312. 270. 1414. 193. 345. 749. 591. 181.
      105. 247. 139. 184. 193. 186. 183. 78. 123. 118. 260. 102. 195.
      122. 245. 176. 147. 162. 240. 355. 434. 287. 325. 205. 303. 514.
      502. 518. 1161. 631. 1158. 213. 118. 139. 105. 901. 752. 312. 267.
      132. 132. 124. 179. 451. 420. 293. 388. 190. 181. 362. 288. 171.
      166. 185. 173. 227. 397. 303. 793. 140. 256. 140. 266. 537. 214.
      498. 188. 287. 163. 214. 125. 170. 190. 168. 199. 98. 115. 93.
      118. 300. 249. 240. 293. 343. 372. 296. 252. 140. 246. 256. 399.
      245. 686. 360. 647. 378. 211. 240. 163. 957. 363. 440. 264. 458.
      513. 258. 446. 301. 274. 264. 242.</_>
    <_>
      1440. 140. 232. 296. 525. 159. 191. 145. 296. 442. 342. 713. 272.
      298. 192. 308. 459. 248. 419. 256. 352. 244. 305. 190. 231. 263.
      227. 369. 403. 307. 304. 381. 237. 166. 132. 249. 467. 297. 220.
      230. 187. 169. 193. 327. 328. 564. 265. 575. 325. 173. 168. 159.
      907. 315. 405. 230. 191. 142. 133. 198. 395. 248. 260. 284. 254.
      175. 334. 405. 190. 146. 122. 107. 323. 313. 704. 660. 161. 145.
      117. 139. 834. 449. 783. 330. 404. 695. 312. 133. 315. 232. 346.
      290. 199. 97. 151. 72. 175. 125. 131. 138. 270. 264. 97. 115. 87.
      115. 191. 225. 151. 295. 132. 231. 465. 894. 235. 191. 1329. 414.
      349. 164. 132. 161. 132. 183. 229. 131. 135. 117. 98. 78. 212.
      289. 217. 127. 139. 177. 152. 284. 316. 1467. 160. 389. 725. 645.
      203. 116. 229. 163. 184. 171. 132. 183. 94. 116. 111. 269. 120.
      193. 125. 272. 198. 140. 150. 234. 394. 430. 237. 367. 193. 258.
      554. 502. 530. 1106. 593. 1181. 230. 124. 128. 105. 928. 608. 303.
      304. 144. 130. 114. 164. 405. 418. 320. 372. 234. 168. 365. 315.
      153. 187. 207. 261. 218. 366. 318. 765. 132. 245. 144. 241. 568.
      246. 497. 181. 307. 146. 221. 122. 169. 180. 186. 198. 92. 104.
      106. 116. 296. 246. 229. 297. 343. 387. 232. 274. 159. 239. 248.
      373. 258. 698. 338. 630. 419. 221. 203. 152. 1000. 395. 419. 191.
      485. 526. 212. 435. 276. 308. 257. 248.</_>
    <_>
      666. 164. 234. 285. 516. 160. 167. 156. 296. 416. 299. 786. 195.
      254. 179. 337. 491. 244. 443. 262. 371. 278. 266. 167. 227. 239.
      236. 374. 396. 299. 259. 372. 236. 146. 143. 247. 463. 311. 208.
      238. 149. 162. 198. 387. 320. 565. 256. 600. 319. 146. 191. 159.
      1048. 338. 416. 288. 156. 139. 134. 185. 400. 268. 282. 256. 247.
      173. 294. 244. 200. 109. 118. 86. 257. 273. 688. 773. 112. 120.
      113. 111. 1150. 488. 894. 404. 577. 724. 312. 157. 325. 217. 377.
      297. 212. 88. 154. 64. 176. 111. 139. 147. 271. 231. 94. 120. 95.
      75. 153. 215. 119. 257. 143. 174. 592. 950. 272. 210. 1734. 456.
      335. 196. 143. 114. 137. 152. 261. 150. 137. 117. 83. 85. 189.
      241. 95. 142. 139. 168. 137. 335. 269. 1623. 164. 391. 816. 640.
      174. 94. 200. 132. 148. 180. 147. 144. 82. 126. 95. 251. 110. 182.
      90. 198. 169. 141. 162. 203. 343. 383. 260. 315. 197. 294. 564.
      532. 604. 1205. 597. 1261. 221. 133. 119. 97. 849. 560. 357. 288.
      142. 125. 86. 148. 362. 458. 291. 400. 192. 171. 351. 299. 124.
      191. 218. 209. 193. 382. 324. 753. 140. 280. 174. 260. 561. 189.
      521. 177. 323. 193. 237. 152. 169. 171. 146. 211. 105. 115. 109.
      109. 298. 209. 188. 276. 349. 393. 260. 261. 129. 217. 199. 338.
      272. 708. 325. 702. 450. 226. 250. 160. 1013. 502. 461. 284. 448.
      499. 235. 438. 270. 277. 235. 221.</_>
    <_>
      7799. 158. 245. 286. 498. 109. 209. 135. 270. 434. 371. 1130. 185.
      196. 204. 328. 458. 192. 453. 262. 361. 202. 255. 136. 168. 237.
      238. 342. 392. 239. 280. 319. 153. 102. 103. 161. 311. 202. 203.
      160. 134. 153. 144. 299. 283. 588. 260. 537. 263. 94. 175. 121.
      681. 248. 310. 180. 113. 95. 139. 122. 317. 249. 136. 158. 231.
      214. 393. 282. 148. 108. 90. 222. 263. 292. 783. 825. 107. 108.
      93. 123. 1459. 548. 1402. 629. 345. 699. 265. 107. 246. 273. 394.
      428. 140. 84. 125. 80. 114. 132. 99. 146. 186. 193. 88. 74. 105.
      131. 128. 223. 117. 263. 83. 163. 448. 819. 255. 175. 1260. 317.
      226. 120. 110. 103. 112. 205. 164. 129. 70. 71. 73. 81. 184. 185.
      213. 101. 129. 118. 143. 295. 319. 1827. 155. 290. 603. 535. 137.
      85. 155. 118. 147. 120. 138. 94. 85. 97. 117. 168. 78. 113. 93.
      179. 102. 101. 135. 159. 295. 324. 215. 281. 208. 325. 494. 550.
      495. 951. 600. 1220. 142. 97. 107. 91. 912. 518. 244. 236. 103.
      113. 97. 154. 320. 330. 231. 299. 163. 159. 288. 248. 152. 149.
      110. 138. 224. 401. 337. 1042. 90. 201. 136. 290. 578. 194. 592.
      215. 259. 128. 171. 103. 176. 181. 162. 181. 91. 91. 83. 79. 198.
      238. 202. 235. 278. 268. 190. 184. 140. 269. 171. 339. 246. 496.
      254. 472. 321. 172. 206. 108. 880. 293. 357. 229. 411. 520. 257.
      458. 205. 185. 179. 183.</_>
    <_>
      10187. 169. 243. 329. 568. 98. 138. 147. 283. 394. 388. 903. 194.
      194. 228. 296. 422. 226. 405. 300. 321. 211. 245. 177. 204. 239.
      243. 341. 349. 234. 314. 313. 174. 116. 137. 191. 311. 214. 191.
      157. 153. 154. 157. 303. 282. 541. 238. 559. 235. 103. 151. 142.
      779. 264. 309. 191. 125. 129. 155. 154. 300. 233. 191. 181. 191.
      179. 394. 280. 175. 135. 103. 256. 221. 239. 865. 725. 104. 110.
      96. 117. 910. 390. 993. 436. 288. 636. 289. 122. 262. 211. 362.
      420. 129. 109. 152. 105. 148. 150. 106. 162. 192. 166. 79. 81. 84.
      113. 129. 237. 141. 239. 104. 191. 414. 816. 246. 184. 1450. 286.
      200. 108. 120. 99. 122. 201. 168. 124. 87. 93. 73. 87. 196. 216.
      338. 81. 137. 131. 128. 245. 279. 1320. 139. 221. 595. 489. 132.
      109. 153. 133. 137. 170. 119. 102. 74. 96. 119. 166. 111. 137.
      102. 168. 130. 126. 134. 144. 291. 339. 226. 220. 189. 239. 495.
      343. 494. 837. 553. 987. 153. 111. 95. 86. 833. 676. 221. 291.
      134. 108. 107. 137. 381. 338. 209. 269. 184. 173. 308. 208. 137.
      191. 147. 141. 234. 346. 306. 718. 114. 177. 139. 210. 427. 200.
      459. 188. 246. 146. 180. 105. 185. 186. 169. 165. 103. 89. 87.
      114. 226. 245. 203. 237. 255. 251. 220. 197. 141. 279. 215. 329.
      207. 502. 267. 439. 319. 198. 229. 140. 1089. 361. 392. 246. 379.
      494. 274. 451. 195. 196. 203. 173.</_>
    <_>
      11136. 171. 206. 322. 562. 103. 140. 136. 265. 477. 373. 850. 181.
      231. 232. 295. 410. 223. 386. 264. 287. 171. 229. 131. 212. 214.
      243. 332. 321. 221. 308. 328. 171. 98. 133. 177. 268. 197. 162.
      143. 145. 153. 155. 274. 265. 486. 239. 579. 237. 111. 142. 119.
      763. 250. 368. 207. 148. 122. 165. 158. 302. 248. 192. 186. 230.
      186. 354. 272. 173. 140. 118. 239. 277. 282. 877. 802. 104. 117.
      114. 137. 796. 331. 834. 381. 249. 666. 244. 107. 259. 211. 335.
      378. 129. 100. 145. 105. 133. 124. 146. 141. 195. 174. 113. 67.
      123. 149. 135. 205. 139. 256. 123. 197. 360. 769. 238. 150. 1255.
      227. 202. 146. 115. 115. 122. 185. 167. 140. 100. 72. 101. 106.
      172. 240. 330. 106. 112. 147. 144. 294. 323. 1326. 154. 257. 456.
      462. 149. 114. 175. 136. 124. 138. 118. 109. 79. 112. 127. 156.
      92. 130. 106. 187. 130. 130. 109. 157. 313. 333. 248. 275. 199.
      280. 479. 400. 478. 846. 529. 980. 156. 113. 94. 123. 825. 755.
      252. 290. 139. 139. 116. 159. 382. 361. 258. 276. 194. 160. 295.
      226. 136. 166. 172. 141. 231. 419. 329. 726. 107. 184. 153. 219.
      409. 205. 446. 182. 238. 137. 163. 117. 133. 153. 161. 173. 121.
      90. 95. 108. 224. 247. 215. 249. 294. 263. 216. 181. 132. 294.
      161. 348. 228. 454. 264. 387. 274. 131. 197. 117. 977. 309. 353.
      287. 407. 496. 259. 426. 184. 163. 215. 155.</_>
    <_>
      11530. 129. 197. 245. 624. 138. 147. 149. 219. 350. 355. 782. 165.
      177. 231. 294. 428. 245. 419. 230. 308. 222. 199. 134. 193. 187.
      249. 316. 359. 247. 346. 334. 137. 104. 103. 141. 238. 192. 138.
      165. 116. 140. 159. 238. 262. 532. 257. 536. 245. 148. 160. 136.
      679. 254. 257. 158. 134. 130. 148. 154. 292. 279. 163. 179. 221.
      199. 330. 271. 134. 104. 88. 258. 216. 214. 807. 737. 97. 126.
      124. 160. 769. 390. 844. 355. 337. 688. 247. 112. 225. 199. 354.
      442. 140. 99. 153. 95. 133. 142. 112. 143. 154. 143. 66. 82. 84.
      135. 118. 186. 102. 253. 108. 186. 399. 770. 285. 204. 1551. 310.
      208. 131. 130. 125. 106. 227. 169. 152. 75. 69. 89. 86. 180. 185.
      423. 100. 124. 107. 134. 267. 296. 1410. 147. 204. 764. 386. 146.
      121. 154. 106. 141. 177. 106. 106. 90. 95. 135. 177. 85. 108. 113.
      162. 115. 104. 128. 150. 290. 337. 250. 247. 222. 251. 511. 366.
      552. 955. 592. 1073. 137. 108. 96. 83. 746. 727. 224. 232. 145.
      106. 120. 151. 399. 290. 174. 252. 144. 174. 240. 209. 144. 153.
      123. 120. 283. 427. 297. 740. 117. 159. 132. 167. 383. 200. 436.
      162. 274. 153. 178. 117. 145. 150. 153. 157. 98. 103. 94. 98. 206.
      241. 215. 265. 305. 226. 248. 173. 138. 342. 176. 300. 217. 441.
      262. 373. 288. 176. 198. 144. 1002. 383. 482. 329. 346. 481. 335.
      421. 233. 199. 196. 157.</_>
    <_>
      7832. 183. 264. 307. 574. 131. 149. 169. 265. 458. 417. 866. 206.
      213. 246. 317. 370. 243. 389. 314. 294. 233. 252. 166. 223. 274.
      258. 350. 414. 284. 333. 383. 171. 128. 121. 181. 316. 192. 178.
      147. 161. 154. 187. 266. 304. 534. 286. 555. 241. 136. 159. 138.
      740. 294. 326. 195. 118. 147. 159. 147. 323. 236. 184. 173. 234.
      199. 361. 287. 184. 152. 102. 243. 260. 256. 888. 709. 107. 128.
      139. 137. 857. 421. 895. 452. 239. 675. 294. 135. 247. 250. 362.
      417. 149. 98. 171. 100. 141. 160. 122. 169. 195. 184. 78. 112.
      112. 108. 149. 223. 126. 297. 120. 183. 356. 823. 260. 162. 1355.
      321. 225. 122. 117. 123. 120. 187. 155. 140. 86. 80. 113. 84. 212.
      213. 406. 104. 155. 115. 166. 260. 335. 1251. 164. 242. 622. 480.
      148. 112. 184. 131. 135. 201. 123. 133. 94. 112. 136. 189. 96.
      128. 131. 208. 137. 111. 163. 165. 305. 309. 271. 249. 242. 227.
      560. 358. 521. 822. 596. 966. 167. 140. 98. 135. 754. 770. 216.
      279. 176. 128. 134. 132. 395. 292. 236. 298. 174. 183. 276. 233.
      148. 178. 160. 152. 237. 451. 340. 724. 135. 190. 167. 208. 405.
      208. 459. 171. 234. 166. 152. 107. 175. 201. 185. 166. 100. 91.
      100. 100. 249. 285. 257. 300. 299. 279. 225. 192. 139. 348. 198.
      320. 243. 467. 313. 445. 274. 196. 197. 145. 1056. 388. 412. 294.
      436. 559. 300. 466. 217. 176. 214. 167.</_>
    <_>
      453. 155. 212. 296. 445. 147. 212. 147. 302. 403. 384. 681. 262.
      297. 204. 285. 513. 260. 487. 228. 322. 213. 281. 204. 238. 231.
      246. 304. 357. 281. 304. 339. 250. 135. 158. 248. 467. 299. 236.
      244. 169. 188. 189. 278. 303. 564. 254. 551. 316. 165. 209. 167.
      991. 340. 452. 271. 176. 140. 155. 209. 372. 253. 270. 247. 273.
      215. 323. 404. 199. 163. 152. 240. 313. 324. 728. 714. 153. 160.
      156. 115. 910. 491. 785. 406. 472. 768. 288. 173. 284. 285. 391.
      300. 197. 150. 137. 133. 193. 155. 130. 182. 274. 261. 135. 114.
      132. 147. 185. 233. 153. 318. 151. 211. 540. 427. 275. 220. 1288.
      453. 307. 162. 153. 139. 137. 207. 229. 160. 131. 122. 96. 99.
      257. 225. 421. 134. 173. 195. 184. 266. 299. 1445. 197. 310. 799.
      496. 229. 136. 256. 178. 176. 179. 177. 210. 105. 131. 109. 267.
      140. 183. 137. 261. 189. 182. 174. 220. 444. 430. 262. 316. 220.
      285. 282. 464. 486. 964. 625. 1003. 187. 122. 148. 128. 967. 741.
      382. 298. 148. 128. 139. 164. 396. 411. 367. 410. 227. 202. 354.
      262. 178. 224. 232. 227. 217. 344. 324. 626. 151. 209. 172. 209.
      547. 230. 464. 177. 312. 192. 263. 151. 184. 202. 159. 198. 129.
      131. 106. 118. 269. 198. 221. 271. 312. 415. 279. 237. 135. 224.
      237. 312. 259. 673. 360. 599. 419. 224. 244. 174. 962. 418. 501.
      242. 450. 1099. 257. 171. 272. 301. 254. 253.</_>
    <_>
      3868. 162. 190. 236. 533. 164. 206. 141. 286. 407. 325. 687. 215.
      285. 219. 263. 439. 221. 381. 230. 289. 247. 240. 207. 225. 268.
      246. 277. 346. 288. 266. 316. 219. 158. 150. 217. 370. 232. 202.
      203. 184. 182. 171. 277. 300. 489. 243. 512. 298. 186. 205. 166.
      752. 317. 367. 245. 150. 145. 147. 177. 338. 270. 265. 219. 253.
      229. 321. 382. 212. 168. 116. 206. 346. 308. 724. 635. 125. 149.
      149. 154. 792. 517. 703. 396. 473. 706. 299. 188. 319. 230. 322.
      241. 220. 133. 163. 109. 205. 144. 136. 170. 268. 260. 121. 140.
      109. 139. 187. 228. 162. 264. 158. 221. 532. 954. 317. 253. 1309.
      421. 309. 176. 148. 141. 154. 206. 206. 158. 153. 117. 98. 94.
      213. 238. 401. 148. 159. 183. 130. 309. 330. 1421. 186. 348. 859.
      460. 218. 140. 224. 149. 198. 169. 192. 192. 81. 142. 108. 252.
      145. 182. 136. 236. 175. 145. 176. 217. 409. 392. 269. 283. 212.
      294. 571. 409. 526. 963. 590. 1101. 218. 141. 169. 117. 789. 754.
      358. 305. 188. 147. 129. 197. 373. 387. 347. 338. 198. 179. 327.
      225. 204. 168. 216. 172. 179. 357. 279. 566. 143. 245. 179. 230.
      479. 218. 464. 150. 269. 161. 233. 156. 162. 193. 149. 161. 101.
      120. 103. 103. 256. 195. 201. 226. 233. 336. 264. 246. 139. 262.
      214. 314. 240. 612. 305. 545. 349. 200. 225. 172. 738. 386. 388.
      237. 407. 579. 298. 434. 227. 222. 255. 193.</_>
    <_>
      10918. 142. 220. 291. 472. 111. 206. 153. 258. 407. 335. 916. 171.
      208. 192. 297. 449. 258. 486. 271. 291. 189. 218. 112. 195. 230.
      227. 319. 329. 197. 274. 277. 128. 101. 100. 133. 235. 201. 178.
      161. 103. 179. 154. 237. 249. 504. 251. 558. 266. 143. 148. 119.
      619. 263. 270. 174. 144. 138. 159. 131. 247. 240. 143. 182. 246.
      246. 431. 293. 135. 112. 111. 224. 225. 274. 776. 718. 85. 116.
      101. 147. 1317. 631. 1232. 589. 449. 682. 337. 121. 278. 209. 426.
      371. 156. 103. 123. 86. 154. 137. 100. 146. 177. 186. 73. 87. 87.
      173. 138. 198. 133. 281. 87. 175. 455. 834. 319. 213. 1213. 285.
      245. 107. 105. 104. 122. 170. 190. 152. 80. 50. 76. 86. 211. 163.
      248. 111. 108. 105. 140. 346. 320. 1552. 129. 249. 623. 502. 128.
      105. 170. 110. 141. 125. 89. 99. 97. 89. 128. 167. 97. 101. 79.
      187. 134. 82. 125. 150. 260. 309. 250. 243. 195. 292. 521. 444.
      468. 848. 546. 1028. 140. 105. 99. 83. 713. 585. 250. 209. 120.
      109. 109. 142. 249. 264. 243. 261. 161. 169. 262. 225. 149. 182.
      142. 144. 200. 392. 293. 811. 109. 195. 150. 275. 500. 209. 530.
      204. 263. 137. 145. 113. 137. 160. 190. 187. 98. 102. 81. 112.
      164. 244. 157. 221. 252. 256. 259. 177. 139. 288. 182. 342. 202.
      414. 255. 414. 286. 157. 205. 115. 624. 315. 373. 195. 357. 478.
      318. 394. 200. 186. 198. 146.</_>
    <_>
      5675. 170. 205. 300. 456. 137. 243. 196. 296. 426. 404. 735. 212.
      217. 223. 271. 404. 256. 387. 291. 308. 225. 262. 173. 252. 250.
      288. 354. 270. 199. 252. 248. 166. 114. 97. 153. 296. 190. 184.
      177. 197. 183. 186. 281. 331. 559. 267. 581. 230. 143. 147. 134.
      898. 315. 407. 270. 170. 112. 148. 140. 311. 240. 212. 234. 369.
      257. 399. 308. 142. 113. 113. 109. 314. 283. 539. 719. 121. 108.
      111. 163. 1000. 511. 855. 454. 438. 624. 221. 144. 350. 269. 325.
      337. 155. 120. 105. 112. 192. 129. 102. 106. 221. 189. 80. 100.
      122. 134. 135. 193. 125. 218. 103. 175. 491. 887. 246. 176. 1563.
      395. 310. 169. 136. 131. 107. 172. 186. 157. 98. 80. 89. 83. 176.
      211. 352. 111. 149. 184. 143. 281. 336. 1341. 180. 327. 694. 473.
      152. 85. 170. 151. 167. 118. 137. 132. 111. 116. 135. 257. 106.
      113. 124. 162. 98. 104. 159. 177. 347. 359. 261. 296. 181. 249.
      652. 440. 582. 1297. 650. 1523. 150. 90. 115. 133. 894. 819. 308.
      307. 185. 98. 129. 147. 395. 375. 272. 329. 221. 217. 336. 309.
      184. 127. 158. 163. 187. 346. 316. 608. 118. 176. 160. 268. 447.
      209. 439. 201. 251. 138. 181. 133. 143. 171. 170. 202. 128. 113.
      113. 130. 270. 194. 190. 228. 235. 293. 231. 202. 139. 215. 182.
      292. 226. 595. 292. 534. 303. 189. 214. 143. 1002. 405. 440. 210.
      461. 583. 244. 432. 230. 219. 209. 174.</_>
    <_>
      1733. 172. 187. 230. 485. 156. 194. 160. 286. 388. 308. 615. 227.
      235. 196. 254. 438. 241. 386. 242. 319. 268. 286. 204. 203. 269.
      221. 278. 400. 289. 288. 322. 236. 175. 142. 243. 440. 316. 289.
      199. 178. 191. 216. 305. 290. 508. 295. 568. 311. 171. 186. 181.
      866. 321. 450. 293. 177. 147. 163. 184. 370. 246. 280. 264. 244.
      196. 332. 416. 199. 139. 139. 212. 304. 292. 761. 627. 158. 138.
      138. 125. 831. 484. 737. 392. 555. 813. 307. 181. 292. 243. 322.
      285. 218. 108. 132. 129. 192. 138. 148. 192. 296. 285. 132. 132.
      118. 152. 159. 216. 171. 317. 166. 213. 490. 970. 289. 229. 1405.
      523. 429. 226. 162. 138. 118. 194. 200. 177. 165. 108. 107. 108.
      230. 236. 395. 153. 167. 234. 160. 296. 293. 1410. 198. 356. 785.
      492. 185. 127. 213. 163. 167. 191. 154. 197. 93. 140. 119. 254.
      145. 184. 143. 230. 217. 157. 188. 216. 484. 377. 266. 325. 217.
      271. 574. 410. 497. 956. 583. 1022. 262. 144. 139. 132. 817. 757.
      396. 306. 174. 133. 126. 158. 343. 421. 347. 361. 203. 163. 312.
      280. 185. 180. 247. 191. 190. 315. 261. 584. 152. 238. 159. 231.
      483. 205. 437. 164. 308. 193. 191. 158. 144. 194. 161. 159. 104.
      124. 103. 115. 236. 196. 209. 213. 278. 383. 282. 261. 162. 231.
      207. 336. 250. 538. 341. 571. 401. 257. 276. 155. 881. 437. 446.
      309. 420. 553. 284. 466. 254. 296. 237. 219.</_>
    <_>
      455. 138. 213. 224. 474. 179. 219. 152. 286. 466. 316. 656. 218.
      270. 203. 282. 498. 266. 463. 235. 324. 258. 284. 200. 216. 242.
      224. 297. 359. 287. 251. 291. 221. 149. 152. 224. 377. 263. 233.
      210. 193. 220. 198. 329. 293. 506. 275. 538. 356. 191. 191. 193.
      868. 328. 428. 310. 208. 143. 184. 227. 370. 276. 287. 254. 231.
      190. 351. 422. 201. 152. 160. 241. 337. 298. 813. 682. 177. 144.
      159. 151. 845. 438. 819. 372. 497. 709. 330. 187. 299. 244. 353.
      296. 183. 136. 168. 124. 202. 154. 158. 172. 273. 230. 151. 134.
      127. 139. 179. 229. 173. 345. 222. 229. 601. 921. 404. 242. 1325.
      382. 411. 205. 175. 153. 173. 227. 206. 163. 133. 130. 124. 119.
      210. 236. 400. 161. 154. 213. 164. 317. 260. 1383. 178. 370. 821.
      485. 241. 190. 254. 163. 213. 220. 171. 197. 122. 134. 125. 254.
      157. 197. 135. 224. 192. 158. 174. 224. 414. 415. 231. 303. 202.
      300. 559. 431. 515. 991. 561. 958. 239. 187. 176. 148. 841. 749.
      353. 312. 157. 157. 141. 197. 350. 451. 314. 353. 214. 203. 326.
      261. 244. 209. 263. 235. 217. 374. 296. 621. 160. 264. 185. 260.
      469. 233. 451. 180. 314. 199. 256. 184. 149. 156. 159. 176. 137.
      130. 109. 121. 270. 203. 193. 260. 277. 374. 293. 238. 174. 244.
      210. 328. 235. 601. 380. 537. 340. 217. 261. 138. 823. 399. 450.
      275. 444. 555. 273. 433. 257. 240. 230. 230.</_>
    <_>
      196. 208. 239. 348. 443. 165. 181. 221. 335. 454. 427. 976. 228.
      254. 225. 309. 404. 273. 384. 276. 319. 233. 285. 199. 272. 298.
      313. 373. 321. 284. 259. 326. 182. 122. 123. 174. 339. 220. 187.
      137. 166. 206. 215. 335. 315. 560. 283. 575. 290. 187. 170. 136.
      1104. 335. 428. 246. 153. 122. 158. 148. 337. 252. 272. 266. 335.
      261. 415. 326. 180. 129. 121. 109. 335. 343. 643. 801. 132. 145.
      139. 130. 894. 542. 877. 536. 488. 642. 311. 179. 358. 288. 367.
      378. 173. 120. 129. 102. 203. 157. 144. 171. 240. 225. 111. 105.
      111. 120. 159. 222. 115. 248. 143. 232. 567. 896. 296. 182. 1652.
      417. 385. 179. 117. 168. 139. 139. 219. 157. 125. 75. 101. 110.
      222. 296. 114. 89. 162. 158. 164. 326. 419. 1444. 153. 353. 778.
      591. 202. 121. 231. 153. 165. 138. 122. 181. 95. 155. 157. 245.
      121. 163. 129. 227. 159. 123. 153. 199. 366. 381. 279. 335. 196.
      282. 667. 482. 569. 1163. 747. 1406. 194. 130. 130. 101. 1058.
      747. 357. 275. 119. 114. 129. 157. 357. 382. 302. 363. 242. 198.
      399. 326. 156. 170. 233. 166. 220. 344. 350. 636. 130. 194. 202.
      254. 445. 209. 443. 229. 255. 199. 195. 132. 190. 186. 186. 207.
      106. 95. 88. 112. 255. 199. 200. 232. 304. 353. 225. 236. 146.
      226. 229. 323. 243. 659. 326. 574. 352. 229. 247. 150. 1153. 507.
      477. 227. 506. 614. 186. 451. 219. 213. 201. 216.</_>
    <_>
      7266. 206. 215. 318. 609. 139. 168. 157. 262. 561. 377. 898. 174.
      258. 268. 342. 409. 233. 366. 240. 247. 196. 231. 150. 170. 232.
      224. 317. 375. 286. 339. 371. 158. 119. 114. 187. 243. 201. 160.
      147. 130. 178. 180. 255. 246. 518. 280. 554. 216. 104. 167. 106.
      620. 256. 278. 179. 145. 137. 200. 156. 295. 273. 233. 190. 214.
      267. 359. 289. 136. 153. 118. 266. 268. 333. 871. 840. 113. 154.
      163. 197. 873. 430. 943. 373. 293. 669. 277. 102. 252. 256. 301.
      402. 154. 141. 173. 127. 180. 153. 134. 169. 197. 229. 115. 124.
      128. 187. 152. 252. 138. 338. 171. 206. 303. 778. 210. 155. 1362.
      188. 189. 115. 123. 179. 126. 155. 175. 170. 110. 94. 113. 113.
      260. 210. 373. 123. 151. 151. 175. 366. 352. 1435. 173. 290. 501.
      465. 186. 139. 241. 104. 140. 158. 165. 113. 117. 145. 178. 186.
      113. 162. 130. 210. 136. 135. 157. 150. 306. 363. 308. 276. 267.
      306. 541. 392. 518. 942. 610. 1061. 172. 119. 150. 101. 678. 718.
      311. 285. 175. 175. 162. 188. 372. 355. 307. 315. 175. 186. 257.
      271. 170. 184. 173. 169. 320. 488. 331. 780. 143. 180. 167. 219.
      373. 182. 417. 151. 168. 122. 162. 105. 149. 186. 158. 201. 97.
      114. 94. 107. 233. 287. 216. 269. 286. 281. 245. 202. 154. 320.
      222. 365. 206. 467. 271. 385. 208. 158. 239. 127. 738. 261. 447.
      232. 444. 543. 308. 447. 239. 177. 230. 164.</_>
    <_>
      13289. 152. 167. 216. 491. 115. 181. 145. 250. 398. 294. 868. 186.
      241. 238. 273. 462. 215. 420. 264. 243. 160. 198. 124. 163. 216.
      225. 263. 307. 226. 216. 274. 133. 101. 102. 142. 231. 175. 185.
      150. 130. 189. 155. 290. 241. 481. 259. 497. 217. 107. 170. 126.
      457. 228. 280. 176. 131. 141. 158. 139. 245. 235. 188. 188. 184.
      214. 315. 238. 146. 136. 104. 244. 230. 271. 724. 696. 105. 159.
      138. 170. 977. 494. 989. 452. 309. 626. 282. 132. 194. 178. 347.
      347. 143. 103. 150. 88. 114. 125. 125. 125. 191. 168. 106. 98.
      157. 169. 136. 215. 150. 283. 145. 243. 300. 794. 263. 169. 1048.
      280. 213. 106. 120. 111. 114. 201. 170. 145. 83. 96. 98. 107. 165.
      179. 199. 116. 133. 139. 179. 346. 301. 1569. 158. 278. 635. 499.
      197. 146. 203. 95. 130. 181. 130. 92. 102. 136. 133. 161. 91. 133.
      109. 205. 103. 117. 152. 142. 269. 283. 260. 252. 199. 350. 505.
      473. 483. 903. 509. 897. 144. 124. 124. 99. 584. 582. 231. 196.
      152. 151. 126. 167. 296. 315. 252. 298. 151. 172. 236. 195. 143.
      184. 146. 155. 270. 408. 307. 828. 127. 229. 178. 231. 437. 198.
      443. 128. 205. 133. 139. 94. 114. 153. 167. 148. 89. 90. 100. 107.
      187. 212. 174. 227. 256. 213. 271. 173. 163. 298. 182. 296. 197.
      413. 294. 439. 213. 179. 197. 108. 590. 241. 343. 192. 419. 496.
      221. 383. 171. 163. 183. 143.</_>
    <_>
      1983. 177. 231. 293. 514. 156. 237. 159. 304. 444. 366. 732. 211.
      284. 227. 334. 502. 261. 414. 258. 356. 237. 251. 194. 213. 235.
      218. 300. 368. 301. 273. 369. 224. 142. 116. 211. 395. 267. 201.
      176. 159. 202. 186. 391. 345. 589. 289. 593. 284. 150. 166. 142.
      791. 324. 392. 255. 183. 164. 134. 197. 284. 260. 264. 212. 271.
      184. 282. 444. 194. 151. 118. 91. 282. 334. 783. 668. 165. 170.
      153. 162. 770. 416. 689. 306. 425. 700. 296. 122. 312. 219. 364.
      306. 197. 126. 167. 101. 193. 144. 141. 161. 231. 247. 133. 117.
      115. 133. 166. 280. 149. 308. 160. 218. 554. 875. 246. 185. 1424.
      307. 363. 190. 146. 129. 150. 201. 222. 159. 163. 102. 98. 103.
      199. 245. 289. 156. 179. 188. 199. 361. 339. 1409. 168. 367. 756.
      530. 188. 115. 268. 139. 213. 183. 162. 175. 99. 138. 126. 256.
      130. 195. 109. 242. 202. 158. 166. 221. 408. 423. 239. 298. 233.
      281. 536. 407. 495. 1047. 570. 1118. 226. 132. 143. 125. 879. 745.
      346. 328. 181. 173. 138. 201. 362. 469. 299. 393. 237. 180. 307.
      286. 148. 169. 191. 305. 223. 396. 335. 722. 145. 251. 196. 272.
      514. 212. 482. 176. 270. 160. 172. 112. 176. 178. 155. 193. 101.
      108. 87. 105. 253. 206. 240. 253. 289. 371. 275. 276. 167. 254.
      251. 388. 254. 599. 312. 609. 362. 222. 242. 139. 856. 374. 509.
      272. 424. 533. 224. 447. 252. 277. 236. 234.</_>
    <_>
      1916. 145. 201. 268. 573. 163. 195. 163. 296. 470. 388. 779. 253.
      287. 244. 345. 538. 241. 479. 240. 363. 202. 237. 165. 217. 217.
      254. 332. 374. 288. 338. 375. 183. 148. 140. 242. 351. 294. 205.
      198. 177. 184. 181. 345. 331. 635. 278. 593. 291. 168. 214. 145.
      858. 313. 394. 209. 152. 173. 159. 195. 357. 277. 263. 218. 235.
      199. 306. 274. 183. 122. 105. 121. 265. 301. 826. 804. 152. 156.
      141. 153. 735. 370. 696. 351. 388. 684. 254. 146. 284. 212. 313.
      360. 208. 89. 153. 86. 159. 113. 132. 142. 202. 230. 131. 121.
      132. 129. 176. 250. 160. 322. 178. 267. 532. 826. 255. 159. 1395.
      343. 317. 133. 161. 133. 131. 175. 194. 124. 121. 103. 93. 95.
      225. 266. 284. 146. 167. 213. 183. 329. 329. 1436. 176. 361. 736.
      578. 249. 150. 246. 139. 170. 159. 137. 163. 103. 153. 118. 265.
      121. 208. 116. 255. 193. 138. 179. 200. 331. 453. 234. 283. 221.
      285. 525. 499. 496. 1104. 527. 1148. 225. 140. 160. 102. 781. 779.
      297. 240. 169. 156. 131. 182. 427. 434. 300. 328. 204. 181. 337.
      292. 165. 162. 214. 310. 264. 459. 309. 765. 136. 266. 203. 280.
      493. 206. 498. 164. 295. 173. 198. 113. 174. 191. 162. 237. 115.
      134. 95. 123. 262. 219. 258. 260. 317. 373. 294. 236. 177. 311.
      226. 387. 246. 672. 359. 623. 388. 204. 202. 166. 856. 348. 427.
      255. 465. 541. 242. 468. 252. 297. 257. 223.</_>
    <_>
      4750. 201. 212. 330. 482. 161. 148. 137. 285. 487. 383. 943. 212.
      257. 219. 398. 418. 240. 412. 270. 318. 203. 303. 162. 227. 253.
      286. 411. 299. 247. 216. 340. 162. 124. 105. 141. 251. 190. 147.
      155. 152. 186. 151. 342. 260. 604. 231. 707. 218. 128. 136. 107.
      797. 242. 341. 199. 191. 134. 139. 135. 272. 250. 216. 188. 310.
      207. 356. 364. 169. 117. 97. 95. 356. 329. 586. 871. 110. 115.
      111. 142. 940. 503. 876. 484. 435. 624. 263. 148. 331. 245. 393.
      339. 191. 95. 120. 94. 147. 120. 125. 130. 188. 154. 89. 57. 116.
      122. 152. 179. 103. 235. 98. 174. 489. 846. 248. 152. 1429. 305.
      278. 141. 137. 114. 104. 114. 209. 127. 87. 73. 79. 87. 208. 285.
      367. 109. 98. 151. 183. 357. 408. 1687. 158. 332. 691. 623. 184.
      87. 230. 158. 186. 133. 181. 136. 84. 101. 113. 240. 128. 160. 98.
      196. 129. 116. 137. 179. 363. 390. 238. 250. 230. 259. 582. 504.
      528. 1306. 534. 1508. 177. 94. 133. 84. 972. 797. 274. 266. 155.
      123. 121. 180. 420. 421. 255. 354. 221. 193. 337. 334. 144. 127.
      164. 130. 300. 397. 393. 848. 115. 211. 185. 283. 420. 188. 455.
      220. 249. 114. 157. 102. 170. 172. 156. 227. 88. 90. 98. 105. 291.
      201. 245. 246. 275. 267. 246. 195. 124. 220. 222. 329. 217. 686.
      272. 598. 326. 193. 227. 142. 978. 284. 419. 270. 467. 491. 182.
      430. 202. 226. 179. 171.</_>
    <_>
      10436. 169. 241. 315. 586. 116. 168. 161. 219. 398. 318. 758. 161.
      211. 226. 307. 438. 232. 439. 233. 322. 189. 235. 147. 237. 251.
      224. 343. 390. 309. 310. 312. 136. 106. 119. 176. 263. 220. 179.
      129. 136. 160. 173. 283. 240. 536. 298. 599. 233. 138. 181. 121.
      655. 244. 293. 158. 132. 139. 144. 157. 311. 226. 224. 212. 192.
      222. 369. 278. 150. 128. 100. 253. 235. 277. 814. 666. 111. 135.
      137. 162. 775. 365. 860. 349. 349. 691. 270. 120. 250. 235. 350.
      441. 132. 85. 166. 75. 146. 128. 135. 154. 176. 189. 101. 88. 109.
      133. 124. 232. 119. 280. 129. 215. 398. 778. 252. 156. 1377. 241.
      214. 129. 112. 97. 121. 200. 169. 129. 98. 81. 78. 95. 198. 215.
      367. 94. 125. 111. 183. 303. 309. 1275. 135. 245. 544. 471. 165.
      124. 199. 99. 162. 157. 154. 110. 81. 139. 117. 208. 105. 129.
      110. 185. 124. 125. 144. 154. 305. 357. 240. 267. 245. 281. 505.
      378. 428. 926. 556. 1018. 155. 109. 123. 73. 749. 695. 249. 236.
      138. 138. 125. 149. 378. 336. 254. 255. 196. 171. 280. 239. 152.
      179. 161. 153. 227. 435. 313. 718. 104. 217. 182. 204. 361. 189.
      365. 155. 209. 153. 177. 116. 159. 189. 170. 178. 86. 89. 93. 88.
      259. 294. 238. 271. 267. 271. 231. 206. 122. 337. 186. 349. 214.
      473. 278. 422. 289. 151. 226. 106. 767. 279. 412. 210. 441. 532.
      285. 411. 220. 246. 249. 169.</_>
    <_>
      7430. 194. 220. 316. 621. 137. 137. 132. 280. 420. 582. 878. 217.
      238. 315. 333. 408. 284. 405. 272. 262. 188. 231. 174. 206. 245.
      282. 361. 327. 258. 317. 343. 158. 122. 112. 157. 242. 198. 150.
      142. 167. 187. 241. 323. 279. 563. 299. 630. 236. 160. 170. 114.
      573. 257. 297. 200. 114. 133. 182. 161. 296. 225. 195. 205. 206.
      216. 348. 310. 129. 144. 97. 223. 253. 272. 899. 753. 119. 146.
      173. 158. 785. 529. 781. 487. 263. 700. 210. 135. 208. 267. 338.
      409. 150. 89. 141. 108. 138. 145. 114. 149. 169. 193. 82. 76. 108.
      140. 143. 238. 117. 324. 162. 243. 315. 802. 212. 167. 1534. 260.
      209. 126. 109. 126. 108. 178. 150. 162. 79. 71. 84. 100. 240. 244.
      378. 100. 155. 138. 220. 309. 494. 1381. 169. 282. 616. 491. 146.
      143. 176. 105. 123. 153. 128. 98. 106. 133. 141. 205. 90. 143.
      108. 179. 159. 106. 160. 124. 282. 319. 218. 233. 287. 315. 542.
      432. 564. 867. 704. 1020. 179. 111. 99. 77. 741. 828. 246. 238.
      146. 128. 102. 159. 374. 326. 212. 311. 184. 220. 303. 250. 168.
      205. 161. 169. 327. 455. 426. 865. 139. 213. 197. 235. 342. 230.
      385. 198. 215. 169. 160. 92. 137. 188. 175. 214. 77. 96. 82. 78.
      206. 227. 204. 245. 251. 275. 206. 163. 172. 366. 227. 356. 251.
      464. 306. 427. 231. 186. 217. 137. 819. 384. 430. 272. 442. 519.
      298. 460. 213. 216. 214. 178.</_>
    <_>
      196. 198. 229. 340. 213. 193. 205. 221. 391. 509. 367. 768. 290.
      302. 218. 313. 501. 269. 402. 287. 299. 191. 323. 226. 261. 372.
      255. 346. 379. 324. 321. 368. 305. 183. 188. 327. 382. 243. 226.
      209. 218. 214. 235. 383. 304. 489. 254. 515. 339. 175. 205. 188.
      793. 308. 477. 285. 206. 191. 155. 207. 378. 261. 305. 247. 288.
      188. 382. 263. 283. 176. 166. 107. 358. 312. 553. 708. 221. 171.
      183. 149. 996. 482. 978. 381. 557. 220. 363. 171. 305. 333. 347.
      283. 234. 132. 186. 139. 187. 149. 158. 263. 264. 300. 133. 145.
      163. 155. 230. 317. 177. 297. 219. 278. 504. 263. 319. 242. 1091.
      302. 387. 204. 179. 169. 186. 192. 221. 138. 218. 147. 141. 151.
      326. 339. 114. 212. 193. 288. 225. 460. 347. 1351. 175. 427. 247.
      590. 244. 191. 258. 194. 184. 193. 158. 256. 152. 201. 142. 297.
      162. 211. 149. 251. 241. 159. 230. 270. 241. 312. 218. 237. 244.
      314. 288. 545. 404. 993. 545. 1107. 340. 189. 155. 142. 734. 520.
      304. 292. 201. 211. 154. 188. 327. 342. 292. 331. 232. 218. 436.
      276. 215. 256. 295. 216. 266. 388. 357. 675. 200. 288. 204. 260.
      511. 297. 506. 195. 314. 232. 257. 169. 210. 234. 201. 215. 119.
      146. 137. 172. 257. 214. 234. 258. 264. 422. 250. 261. 191. 265.
      302. 399. 227. 613. 374. 620. 393. 282. 233. 140. 782. 414. 412.
      243. 226. 265. 206. 210. 223. 235. 263. 242.</_>
    <_>
      184. 187. 221. 333. 223. 194. 191. 212. 367. 492. 370. 816. 244.
      314. 225. 321. 433. 241. 415. 274. 311. 181. 317. 221. 282. 351.
      272. 321. 380. 314. 300. 378. 284. 193. 173. 294. 381. 267. 189.
      188. 224. 217. 221. 395. 315. 488. 268. 530. 351. 170. 188. 205.
      868. 320. 455. 264. 199. 177. 162. 216. 310. 290. 301. 238. 267.
      206. 397. 261. 242. 186. 176. 108. 348. 362. 565. 809. 208. 164.
      189. 161. 1057. 489. 1028. 451. 510. 208. 418. 174. 331. 290. 414.
      301. 246. 130. 155. 131. 194. 172. 152. 230. 215. 304. 153. 136.
      150. 121. 249. 302. 171. 248. 251. 262. 572. 276. 341. 217. 1212.
      319. 433. 181. 183. 133. 196. 172. 198. 137. 188. 128. 134. 138.
      283. 355. 111. 211. 163. 259. 203. 465. 321. 1349. 205. 481. 263.
      622. 238. 188. 224. 158. 183. 197. 169. 226. 128. 174. 103. 298.
      174. 237. 141. 230. 240. 164. 195. 237. 263. 332. 202. 261. 230.
      348. 285. 580. 450. 1019. 556. 1092. 319. 189. 126. 151. 760. 574.
      346. 295. 207. 216. 115. 183. 329. 388. 324. 344. 251. 198. 426.
      272. 218. 267. 262. 223. 248. 436. 309. 734. 182. 298. 219. 280.
      510. 268. 471. 204. 338. 227. 238. 157. 197. 214. 189. 209. 133.
      130. 122. 142. 256. 224. 239. 247. 292. 400. 279. 250. 180. 232.
      270. 432. 259. 643. 368. 596. 391. 264. 250. 154. 799. 392. 427.
      239. 247. 258. 203. 172. 223. 251. 208. 228.</_>
    <_>
      153. 183. 252. 417. 194. 226. 200. 173. 314. 548. 377. 1080. 257.
      317. 219. 374. 452. 232. 445. 258. 461. 215. 347. 200. 223. 342.
      245. 362. 372. 295. 341. 356. 294. 179. 203. 354. 355. 258. 181.
      191. 176. 193. 209. 466. 253. 523. 268. 583. 365. 193. 224. 169.
      1072. 338. 484. 215. 192. 139. 170. 203. 324. 243. 257. 225. 212.
      199. 356. 277. 212. 187. 154. 111. 244. 312. 621. 826. 138. 154.
      148. 157. 1026. 356. 1235. 392. 505. 173. 443. 133. 239. 303. 390.
      324. 168. 114. 218. 98. 197. 164. 158. 229. 236. 262. 124. 139.
      82. 151. 197. 369. 109. 282. 161. 236. 521. 264. 349. 192. 1252.
      286. 399. 156. 143. 135. 171. 183. 184. 139. 147. 113. 122. 122.
      349. 317. 136. 157. 178. 245. 184. 383. 314. 1288. 188. 407. 235.
      550. 193. 148. 213. 148. 185. 185. 159. 169. 134. 186. 93. 190.
      120. 188. 138. 208. 216. 163. 201. 190. 337. 434. 200. 222. 177.
      310. 259. 550. 483. 1217. 516. 1355. 324. 157. 121. 77. 1089. 672.
      293. 211. 228. 154. 147. 144. 364. 372. 280. 283. 218. 176. 420.
      268. 189. 245. 285. 195. 224. 459. 339. 817. 135. 292. 183. 315.
      588. 252. 589. 176. 393. 229. 269. 136. 210. 216. 201. 192. 132.
      134. 131. 130. 251. 251. 220. 263. 242. 426. 208. 230. 159. 290.
      247. 438. 200. 611. 350. 624. 462. 242. 277. 116. 1157. 389. 521.
      213. 256. 266. 245. 189. 259. 279. 281. 238.</_>
    <_>
      163. 211. 258. 377. 188. 224. 222. 163. 313. 598. 352. 1066. 238.
      313. 220. 355. 439. 235. 453. 258. 485. 204. 346. 193. 226. 350.
      256. 354. 385. 307. 374. 384. 282. 194. 181. 311. 355. 267. 192.
      193. 160. 237. 198. 477. 248. 506. 237. 599. 376. 202. 241. 172.
      1042. 328. 459. 204. 203. 134. 158. 187. 348. 245. 250. 259. 209.
      188. 384. 271. 226. 182. 183. 123. 235. 281. 639. 832. 139. 171.
      153. 156. 980. 367. 1196. 415. 537. 196. 445. 130. 268. 288. 428.
      324. 150. 111. 190. 118. 181. 175. 156. 223. 235. 260. 119. 147.
      92. 161. 210. 357. 122. 286. 181. 264. 547. 248. 374. 209. 1207.
      273. 402. 149. 149. 134. 168. 205. 158. 135. 155. 104. 128. 121.
      357. 293. 123. 193. 179. 212. 147. 375. 294. 1304. 192. 411. 248.
      564. 210. 140. 204. 156. 208. 175. 167. 162. 132. 187. 113. 181.
      138. 217. 128. 202. 249. 164. 192. 177. 362. 396. 220. 233. 209.
      334. 287. 523. 481. 1162. 488. 1340. 328. 150. 156. 91. 1130. 663.
      311. 213. 211. 172. 142. 142. 353. 352. 268. 283. 203. 206. 459.
      268. 183. 259. 288. 192. 199. 447. 313. 824. 138. 297. 217. 329.
      582. 254. 553. 185. 373. 233. 282. 122. 196. 210. 189. 202. 135.
      134. 126. 154. 245. 253. 200. 268. 264. 380. 211. 193. 142. 267.
      249. 440. 195. 595. 328. 550. 486. 248. 283. 119. 1116. 413. 537.
      215. 243. 277. 268. 181. 223. 257. 285. 218.</_>
    <_>
      177. 189. 260. 320. 252. 165. 179. 214. 363. 535. 357. 830. 275.
      312. 223. 321. 471. 243. 416. 276. 299. 195. 336. 227. 289. 375.
      254. 348. 418. 314. 345. 371. 305. 201. 208. 319. 395. 257. 184.
      186. 219. 208. 210. 408. 298. 441. 276. 468. 339. 171. 209. 212.
      808. 307. 445. 271. 204. 169. 151. 181. 327. 258. 340. 239. 276.
      224. 408. 278. 257. 212. 184. 126. 362. 305. 549. 780. 219. 186.
      203. 166. 991. 560. 922. 447. 493. 276. 389. 176. 320. 306. 366.
      283. 254. 142. 202. 127. 191. 167. 172. 236. 289. 302. 143. 146.
      154. 139. 262. 331. 184. 253. 221. 283. 513. 281. 351. 217. 1058.
      341. 362. 199. 174. 160. 200. 189. 196. 142. 185. 137. 125. 155.
      326. 354. 145. 182. 212. 252. 194. 442. 318. 1412. 217. 452. 251.
      633. 247. 218. 236. 208. 155. 204. 156. 213. 124. 179. 137. 271.
      141. 247. 147. 263. 253. 150. 225. 254. 242. 333. 226. 244. 260.
      383. 310. 606. 447. 1057. 478. 1241. 339. 201. 123. 138. 689. 559.
      298. 278. 194. 225. 137. 170. 270. 381. 281. 326. 248. 183. 439.
      280. 174. 267. 278. 190. 237. 420. 355. 694. 180. 311. 214. 280.
      516. 272. 531. 190. 279. 214. 251. 170. 194. 217. 189. 205. 144.
      126. 147. 140. 243. 213. 235. 258. 254. 424. 236. 226. 163. 258.
      305. 425. 210. 559. 363. 629. 420. 312. 231. 177. 716. 383. 402.
      237. 249. 253. 182. 186. 201. 205. 221. 225.</_>
    <_>
      190. 186. 241. 322. 205. 164. 210. 187. 397. 503. 369. 796. 303.
      323. 196. 306. 466. 267. 400. 274. 274. 203. 336. 238. 264. 364.
      245. 348. 404. 329. 327. 381. 285. 194. 188. 319. 372. 255. 196.
      185. 210. 220. 241. 371. 289. 457. 248. 528. 336. 184. 206. 203.
      816. 302. 493. 253. 200. 203. 147. 225. 335. 255. 312. 238. 285.
      230. 393. 270. 277. 204. 200. 123. 335. 304. 566. 755. 221. 166.
      207. 171. 1027. 512. 957. 453. 467. 243. 415. 173. 339. 293. 360.
      301. 253. 126. 184. 140. 175. 192. 193. 245. 276. 312. 142. 146.
      155. 123. 242. 288. 161. 251. 226. 267. 489. 285. 317. 243. 1062.
      340. 379. 208. 190. 147. 213. 190. 192. 135. 189. 145. 132. 148.
      340. 327. 151. 196. 214. 292. 230. 459. 327. 1406. 200. 482. 250.
      593. 242. 225. 245. 212. 176. 232. 159. 251. 113. 217. 113. 276.
      154. 233. 155. 265. 258. 149. 241. 235. 253. 315. 225. 230. 256.
      372. 311. 575. 475. 1034. 498. 1203. 359. 197. 128. 121. 684. 563.
      304. 258. 233. 193. 103. 184. 289. 391. 299. 314. 236. 200. 441.
      264. 205. 275. 280. 182. 231. 428. 344. 738. 177. 285. 213. 296.
      493. 293. 548. 201. 290. 227. 243. 153. 202. 217. 195. 203. 138.
      143. 124. 161. 282. 213. 242. 273. 278. 412. 254. 255. 156. 244.
      279. 399. 237. 547. 363. 636. 436. 266. 224. 163. 688. 367. 377.
      228. 234. 273. 169. 205. 186. 213. 238. 220.</_>
    <_>
      164. 207. 218. 313. 204. 243. 260. 211. 310. 607. 345. 1002. 223.
      325. 225. 313. 416. 243. 392. 247. 370. 231. 327. 195. 223. 279.
      239. 321. 412. 339. 389. 355. 285. 174. 186. 300. 353. 270. 215.
      193. 175. 249. 212. 358. 263. 550. 271. 536. 344. 193. 222. 169.
      777. 317. 431. 221. 152. 156. 186. 185. 339. 243. 304. 226. 230.
      258. 328. 286. 247. 207. 190. 130. 293. 370. 698. 783. 155. 231.
      206. 173. 833. 395. 986. 388. 452. 210. 473. 149. 278. 297. 417.
      332. 190. 128. 243. 103. 173. 237. 193. 238. 254. 300. 179. 160.
      130. 223. 237. 351. 127. 353. 197. 303. 534. 257. 384. 253. 1006.
      320. 399. 197. 140. 189. 203. 201. 200. 162. 168. 128. 124. 150.
      345. 289. 161. 189. 207. 214. 229. 503. 358. 1363. 172. 359. 251.
      519. 235. 179. 207. 144. 185. 275. 229. 196. 135. 179. 159. 172.
      128. 235. 133. 256. 258. 169. 215. 196. 343. 380. 260. 274. 234.
      358. 306. 429. 475. 1036. 555. 1295. 307. 209. 198. 96. 805. 731.
      390. 258. 232. 211. 171. 135. 389. 322. 321. 303. 207. 209. 376.
      246. 196. 251. 270. 178. 243. 476. 346. 811. 166. 295. 211. 317.
      419. 238. 474. 147. 340. 271. 270. 133. 188. 226. 160. 149. 125.
      135. 133. 112. 243. 251. 248. 264. 295. 364. 234. 217. 164. 296.
      271. 363. 229. 515. 377. 488. 392. 286. 286. 139. 873. 430. 437.
      206. 222. 316. 280. 182. 241. 261. 298. 215.</_>
    <_>
      176. 169. 204. 295. 201. 165. 194. 192. 338. 595. 323. 919. 272.
      341. 207. 348. 409. 244. 386. 302. 310. 197. 348. 227. 322. 303.
      245. 364. 394. 317. 344. 354. 278. 195. 183. 290. 396. 233. 178.
      160. 203. 200. 210. 389. 332. 488. 251. 565. 383. 166. 201. 175.
      825. 257. 448. 302. 150. 142. 139. 200. 312. 216. 305. 262. 300.
      207. 389. 326. 235. 166. 163. 106. 350. 336. 552. 792. 198. 177.
      151. 164. 1142. 487. 938. 422. 634. 213. 419. 176. 408. 251. 375.
      292. 233. 136. 187. 123. 214. 167. 167. 214. 235. 268. 148. 150.
      165. 171. 192. 275. 170. 243. 187. 248. 668. 321. 391. 225. 1159.
      274. 458. 222. 148. 122. 198. 184. 199. 149. 177. 119. 126. 155.
      275. 284. 125. 201. 154. 247. 212. 442. 358. 1542. 196. 499. 254.
      675. 243. 160. 201. 197. 157. 193. 163. 217. 103. 167. 97. 280.
      124. 245. 125. 245. 215. 183. 212. 241. 250. 369. 148. 221. 262.
      373. 286. 649. 471. 1241. 526. 1433. 284. 194. 163. 150. 635. 492.
      289. 299. 205. 209. 120. 187. 291. 415. 250. 367. 239. 201. 395.
      303. 207. 242. 278. 172. 242. 469. 356. 850. 187. 286. 206. 284.
      501. 253. 470. 195. 375. 224. 289. 174. 187. 200. 146. 223. 126.
      140. 123. 134. 282. 217. 226. 286. 256. 367. 255. 253. 176. 243.
      263. 421. 189. 596. 321. 657. 385. 288. 266. 189. 680. 375. 403.
      272. 228. 234. 169. 193. 199. 219. 206. 202.</_>
    <_>
      175. 184. 233. 278. 183. 200. 215. 144. 333. 557. 347. 973. 236.
      316. 221. 344. 461. 291. 411. 285. 297. 184. 310. 221. 259. 344.
      221. 398. 365. 288. 288. 325. 268. 182. 156. 272. 354. 237. 162.
      162. 177. 207. 208. 408. 248. 495. 266. 559. 386. 202. 239. 207.
      816. 294. 423. 284. 157. 154. 136. 173. 293. 233. 278. 229. 307.
      205. 375. 314. 252. 173. 162. 118. 328. 357. 563. 916. 203. 197.
      184. 171. 923. 493. 883. 419. 571. 239. 384. 175. 355. 255. 340.
      264. 219. 137. 191. 97. 210. 151. 192. 205. 245. 276. 197. 134.
      135. 142. 227. 316. 159. 276. 187. 243. 547. 332. 442. 296. 1177.
      324. 485. 227. 188. 150. 197. 194. 186. 136. 193. 131. 120. 165.
      289. 292. 129. 189. 180. 176. 225. 513. 350. 1625. 174. 485. 221.
      674. 269. 227. 247. 210. 177. 212. 180. 210. 142. 197. 127. 253.
      117. 232. 141. 238. 205. 147. 203. 209. 255. 357. 165. 205. 234.
      406. 295. 645. 512. 1325. 528. 1547. 312. 173. 180. 149. 718. 490.
      305. 254. 195. 213. 108. 141. 279. 430. 269. 304. 234. 216. 383.
      253. 213. 237. 289. 205. 256. 471. 377. 873. 165. 311. 227. 318.
      507. 260. 483. 233. 392. 260. 269. 165. 184. 194. 150. 215. 133.
      126. 112. 111. 236. 198. 183. 250. 256. 358. 216. 211. 172. 247.
      238. 381. 170. 576. 325. 654. 392. 272. 245. 139. 749. 393. 426.
      256. 238. 256. 194. 172. 199. 204. 212. 194.</_>
    <_>
      332. 163. 260. 353. 205. 157. 231. 172. 308. 534. 458. 1095. 238.
      305. 239. 366. 477. 283. 429. 316. 362. 229. 286. 178. 255. 349.
      277. 408. 486. 364. 376. 389. 253. 181. 170. 251. 368. 219. 170.
      201. 159. 221. 243. 441. 304. 582. 282. 609. 427. 212. 238. 190.
      886. 379. 443. 285. 179. 156. 184. 207. 380. 252. 303. 229. 191.
      171. 359. 311. 188. 146. 148. 92. 201. 234. 713. 812. 111. 129.
      161. 172. 1079. 506. 1157. 482. 440. 218. 439. 164. 219. 258. 434.
      323. 197. 112. 203. 105. 165. 166. 137. 194. 262. 216. 125. 124.
      82. 117. 199. 329. 135. 318. 157. 282. 460. 326. 358. 215. 1096.
