<?xml version="1.0"?>
<opencv_storage>
<opencv_ml_svm>
  <format>3</format>
  <svmType>C_SVC</svmType>
  <kernel>
    <type>RBF</type>
    <gamma>1.0000000000000001e-05</gamma></kernel>
  <C>5.0000000000000000e-01</C>
  <term_criteria><epsilon>1.1920928955078125e-07</epsilon>
    <iterations>1000</iterations></term_criteria>
  <var_count>256</var_count>
  <class_count>2</class_count>
  <class_labels type_id="opencv-matrix">
    <rows>2</rows>
    <cols>1</cols>
    <dt>i</dt>
    <data>
      0 1</data></class_labels>
  <sv_total>2000</sv_total>
  <support_vectors>
    <_>
      1504. 559. 425. 432. 266. 268. 263. 175. 264. 311. 343. 278. 185.
      182. 202. 145. 363. 1627. 440. 1637. 279. 607. 226. 524. 189. 617.
      274. 704. 165. 272. 151. 291. 238. 249. 198. 232. 198. 233. 210.
      240. 186. 144. 199. 200. 204. 128. 213. 199. 187. 626. 274. 615.
      274. 448. 166. 405. 169. 320. 172. 473. 149. 216. 147. 331. 1327.
      229. 552. 228. 486. 181. 300. 189. 1263. 188. 1107. 195. 709. 364.
      496. 136. 206. 279. 298. 383. 152. 174. 235. 145. 236. 224. 369.
      188. 245. 215. 240. 163. 378. 172. 185. 130. 427. 183. 528. 277.
      407. 155. 275. 132. 495. 181. 419. 161. 204. 218. 167. 159. 240.
      148. 241. 147. 226. 348. 172. 157. 217. 285. 190. 182. 188. 214.
      187. 234. 207. 219. 166. 177. 262. 244. 273. 167. 146. 169. 164.
      117. 195. 620. 272. 705. 125. 407. 109. 455. 194. 430. 243. 388.
      110. 203. 140. 260. 151. 158. 161. 199. 165. 150. 135. 257. 207.
      139. 177. 143. 206. 127. 304. 337. 164. 434. 233. 997. 133. 731.
      90. 739. 269. 380. 260. 453. 166. 372. 149. 707. 190. 114. 189.
      140. 337. 162. 249. 186. 507. 190. 635. 166. 443. 271. 481. 218.
      136. 155. 135. 135. 136. 142. 120. 196. 331. 238. 295. 180. 171.
      259. 207. 658. 211. 120. 213. 125. 599. 132. 614. 190. 469. 149.
      534. 135. 1264. 226. 1224. 211. 142. 179. 105. 113. 200. 149. 124.
      129. 223. 211. 165. 140. 259. 384. 240. 447.</_>
    <_>
      771. 489. 600. 412. 267. 244. 274. 208. 363. 291. 343. 318. 270.
      227. 228. 147. 388. 1317. 336. 1482. 302. 823. 192. 562. 190. 603.
      227. 881. 170. 386. 167. 294. 247. 184. 175. 200. 184. 220. 193.
      210. 174. 164. 192. 216. 272. 127. 189. 155. 179. 503. 232. 602.
      283. 360. 223. 401. 132. 300. 211. 367. 147. 212. 189. 332. 1818.
      203. 799. 274. 466. 232. 343. 199. 1340. 254. 1262. 192. 945. 371.
      669. 241. 213. 195. 247. 351. 133. 175. 250. 262. 263. 171. 424.
      240. 288. 184. 262. 260. 402. 172. 204. 142. 427. 201. 345. 205.
      378. 138. 291. 138. 529. 140. 475. 144. 187. 224. 175. 172. 329.
      158. 272. 166. 153. 190. 172. 204. 168. 267. 174. 234. 259. 217.
      286. 285. 169. 202. 157. 168. 218. 205. 209. 169. 173. 140. 149.
      82. 237. 658. 191. 698. 128. 348. 89. 323. 226. 441. 192. 311.
      101. 185. 105. 195. 180. 153. 140. 220. 157. 139. 158. 263. 171.
      177. 195. 176. 294. 149. 303. 221. 226. 489. 205. 957. 136. 571.
      121. 663. 147. 397. 208. 471. 180. 393. 192. 925. 352. 126. 263.
      154. 152. 117. 175. 182. 601. 147. 644. 131. 506. 264. 457. 156.
      155. 207. 176. 206. 109. 153. 115. 182. 334. 173. 339. 163. 187.
      218. 160. 543. 243. 150. 292. 182. 538. 158. 475. 215. 464. 150.
      443. 126. 1195. 257. 1036. 210. 147. 206. 139. 145. 131. 164. 138.
      197. 235. 173. 121. 153. 216. 344. 267. 501.</_>
    <_>
      474. 187. 497. 210. 273. 193. 177. 108. 352. 238. 316. 275. 399.
      159. 194. 90. 179. 804. 323. 1276. 304. 455. 149. 360. 142. 574.
      128. 763. 221. 313. 67. 128. 196. 153. 225. 148. 233. 124. 170.
      90. 169. 123. 231. 136. 315. 112. 255. 85. 140. 328. 356. 429.
      174. 476. 238. 348. 88. 173. 88. 159. 78. 197. 124. 171. 1821.
      193. 924. 281. 921. 181. 732. 203. 1243. 244. 1033. 293. 1156.
      289. 826. 168. 209. 230. 291. 340. 270. 189. 271. 229. 224. 380.
      243. 211. 221. 212. 231. 136. 417. 134. 307. 124. 661. 159. 629.
      157. 534. 161. 502. 96. 902. 136. 956. 100. 174. 227. 177. 260.
      222. 197. 219. 267. 148. 279. 128. 82. 194. 364. 199. 166. 228.
      239. 308. 340. 182. 155. 100. 129. 237. 301. 237. 276. 253. 167.
      128. 92. 112. 401. 199. 547. 72. 268. 82. 217. 133. 366. 198. 274.
      89. 169. 67. 112. 167. 193. 228. 224. 152. 138. 207. 252. 157.
      136. 190. 90. 325. 142. 279. 244. 140. 413. 330. 796. 132. 1042.
      154. 833. 152. 245. 141. 328. 169. 430. 197. 592. 491. 130. 351.
      216. 431. 94. 240. 109. 990. 247. 749. 316. 1069. 181. 766. 161.
      123. 153. 109. 146. 96. 107. 61. 152. 333. 231. 303. 144. 187.
      266. 143. 530. 352. 120. 334. 113. 719. 100. 582. 124. 761. 180.
      800. 100. 2040. 198. 1340. 155. 133. 165. 112. 125. 83. 225. 98.
      167. 166. 212. 112. 104. 219. 391. 252. 364.</_>
    <_>
      692. 353. 396. 304. 200. 229. 151. 180. 258. 294. 308. 242. 250.
      165. 154. 95. 266. 1234. 361. 1804. 263. 623. 177. 639. 163. 744.
      256. 991. 249. 324. 88. 265. 178. 156. 192. 227. 157. 249. 175.
      193. 124. 166. 182. 234. 295. 158. 249. 175. 229. 589. 262. 605.
      267. 538. 391. 508. 118. 267. 138. 418. 162. 159. 183. 317. 1484.
      209. 690. 242. 715. 251. 559. 174. 964. 268. 815. 189. 1076. 357.
      496. 150. 184. 218. 269. 322. 133. 149. 244. 170. 263. 226. 253.
      211. 243. 183. 215. 161. 394. 168. 175. 130. 499. 208. 349. 190.
      405. 186. 340. 136. 541. 180. 609. 131. 187. 269. 119. 131. 381.
      156. 379. 176. 182. 212. 147. 123. 274. 167. 201. 204. 229. 187.
      231. 299. 143. 171. 135. 131. 188. 271. 247. 235. 199. 175. 117.
      105. 142. 617. 226. 864. 102. 329. 77. 303. 197. 610. 221. 500.
      131. 230. 62. 224. 158. 117. 105. 230. 152. 122. 145. 248. 196.
      173. 151. 167. 263. 177. 301. 232. 142. 515. 272. 860. 129. 754.
      177. 767. 148. 371. 168. 568. 153. 331. 187. 710. 299. 105. 211.
      141. 404. 101. 246. 167. 613. 333. 614. 254. 573. 285. 507. 166.
      135. 114. 133. 134. 86. 168. 93. 154. 347. 230. 354. 167. 156.
      301. 163. 445. 276. 88. 227. 184. 837. 126. 544. 236. 549. 231.
      848. 171. 1264. 212. 1199. 261. 120. 128. 84. 97. 171. 107. 199.
      131. 181. 210. 213. 128. 205. 549. 233. 494.</_>
    <_>
      716. 175. 379. 244. 138. 126. 118. 113. 147. 91. 209. 140. 159.
      110. 120. 103. 203. 634. 242. 1295. 210. 375. 122. 269. 141. 476.
      125. 652. 142. 279. 67. 155. 320. 159. 171. 168. 169. 229. 219.
      236. 170. 117. 120. 136. 283. 151. 202. 144. 145. 370. 302. 468.
      298. 271. 275. 305. 165. 216. 85. 253. 193. 198. 128. 255. 1569.
      130. 764. 130. 1150. 139. 643. 136. 1899. 97. 1724. 87. 1218. 143.
      525. 146. 190. 318. 177. 367. 96. 176. 141. 199. 186. 192. 191.
      169. 169. 140. 118. 166. 344. 106. 260. 107. 663. 322. 681. 285.
      364. 100. 272. 92. 718. 200. 660. 157. 86. 190. 131. 249. 238.
      205. 391. 337. 75. 137. 67. 116. 195. 209. 200. 211. 185. 178.
      314. 416. 106. 143. 159. 151. 245. 227. 178. 237. 218. 120. 154.
      156. 114. 435. 182. 584. 99. 257. 74. 295. 196. 459. 223. 378.
      150. 203. 132. 324. 156. 153. 227. 300. 252. 374. 239. 313. 232.
      166. 182. 229. 581. 415. 332. 312. 149. 477. 389. 552. 245. 557.
      259. 680. 159. 334. 230. 402. 333. 522. 342. 727. 264. 88. 202.
      135. 387. 121. 250. 146. 603. 160. 724. 141. 600. 220. 458. 174.
      103. 154. 98. 244. 66. 155. 80. 129. 419. 280. 376. 221. 204. 227.
      203. 232. 276. 139. 318. 210. 900. 247. 632. 291. 611. 225. 703.
      215. 1429. 498. 1375. 339. 133. 226. 175. 273. 192. 309. 243. 406.
      241. 251. 223. 253. 445. 561. 511. 715.</_>
    <_>
      1315. 430. 525. 639. 252. 294. 197. 239. 428. 322. 340. 319. 287.
      249. 146. 181. 365. 921. 520. 1172. 368. 539. 224. 435. 326. 577.
      274. 660. 288. 376. 133. 303. 163. 158. 198. 206. 128. 211. 137.
      223. 163. 121. 146. 158. 193. 115. 135. 86. 190. 600. 327. 507.
      199. 584. 239. 563. 183. 244. 152. 217. 154. 209. 117. 205. 1348.
      281. 611. 356. 702. 278. 505. 214. 959. 274. 1091. 288. 819. 236.
      417. 137. 228. 389. 297. 560. 218. 216. 297. 205. 286. 380. 294.
      278. 235. 204. 159. 134. 208. 93. 224. 98. 405. 146. 524. 148.
      344. 111. 255. 79. 527. 101. 530. 69. 100. 169. 126. 220. 194.
      155. 167. 270. 97. 161. 118. 95. 176. 233. 169. 160. 256. 218.
      210. 348. 175. 145. 85. 101. 304. 249. 177. 259. 182. 152. 77. 90.
      171. 533. 256. 458. 107. 305. 70. 264. 276. 514. 246. 417. 95.
      208. 47. 248. 105. 115. 127. 253. 146. 195. 142. 188. 211. 150.
      127. 146. 297. 215. 162. 228. 140. 503. 342. 454. 127. 927. 151.
      667. 120. 286. 207. 352. 158. 428. 128. 861. 271. 124. 227. 132.
      366. 83. 216. 109. 503. 200. 396. 265. 556. 129. 397. 91. 99. 142.
      107. 189. 85. 114. 57. 143. 299. 284. 228. 113. 114. 258. 107.
      334. 204. 55. 310. 80. 1523. 116. 888. 133. 651. 177. 1142. 240.
      2807. 210. 2185. 226. 82. 134. 86. 168. 145. 169. 103. 230. 153.
      185. 160. 96. 203. 347. 284. 426.</_>
    <_>
      548. 414. 543. 422. 308. 270. 216. 222. 272. 346. 312. 282. 334.
      267. 117. 149. 391. 1017. 363. 1126. 389. 389. 203. 341. 285. 565.
      283. 736. 329. 329. 138. 301. 243. 215. 166. 232. 180. 371. 146.
      352. 139. 148. 180. 157. 260. 159. 143. 162. 171. 330. 261. 473.
      275. 484. 219. 431. 131. 159. 139. 208. 190. 198. 135. 255. 1610.
      288. 721. 284. 612. 221. 420. 223. 986. 289. 1140. 275. 814. 247.
      483. 191. 238. 286. 303. 425. 253. 206. 282. 252. 339. 315. 305.
      207. 247. 240. 192. 177. 412. 167. 229. 124. 489. 282. 294. 126.
      320. 135. 289. 169. 488. 188. 374. 124. 158. 154. 158. 215. 228.
      259. 280. 228. 95. 178. 149. 135. 154. 199. 190. 159. 184. 251.
      236. 262. 155. 149. 131. 168. 225. 275. 207. 235. 181. 159. 152.
      130. 225. 385. 229. 432. 92. 207. 77. 269. 312. 328. 323. 380.
      117. 147. 136. 241. 135. 171. 144. 199. 240. 197. 164. 204. 218.
      204. 167. 234. 317. 236. 239. 268. 153. 348. 322. 716. 206. 712.
      176. 703. 164. 340. 188. 378. 237. 502. 208. 908. 256. 159. 262.
      259. 238. 104. 166. 214. 474. 241. 467. 243. 455. 212. 442. 154.
      140. 119. 151. 149. 101. 119. 92. 142. 388. 211. 276. 168. 209.
      235. 186. 321. 244. 111. 397. 193. 1191. 137. 882. 145. 607. 195.
      1003. 345. 1848. 262. 1530. 281. 131. 130. 156. 230. 206. 266.
      195. 258. 165. 222. 145. 192. 315. 378. 308. 442.</_>
    <_>
      322. 280. 415. 370. 316. 204. 183. 111. 259. 201. 302. 245. 362.
      232. 172. 98. 238. 826. 273. 902. 283. 345. 189. 346. 197. 442.
      253. 585. 253. 312. 127. 267. 327. 148. 254. 174. 180. 244. 171.
      238. 185. 163. 229. 177. 346. 153. 246. 151. 130. 399. 318. 476.
      226. 503. 295. 484. 84. 190. 157. 302. 145. 237. 175. 269. 1355.
      249. 585. 193. 712. 207. 455. 212. 768. 216. 872. 195. 727. 332.
      384. 169. 229. 214. 226. 223. 224. 193. 262. 292. 301. 254. 254.
      206. 222. 200. 186. 152. 299. 196. 281. 110. 520. 261. 311. 178.
      346. 202. 264. 143. 509. 203. 463. 124. 170. 206. 188. 209. 310.
      221. 312. 373. 126. 210. 132. 129. 199. 172. 237. 157. 184. 241.
      335. 357. 170. 172. 188. 153. 190. 264. 207. 223. 183. 207. 147.
      117. 146. 456. 262. 593. 111. 271. 91. 337. 171. 508. 199. 406.
      110. 238. 99. 273. 126. 134. 206. 363. 177. 197. 148. 237. 210.
      228. 195. 255. 287. 224. 257. 240. 174. 453. 419. 753. 216. 909.
      168. 865. 174. 413. 224. 419. 206. 712. 229. 890. 298. 116. 271.
      158. 305. 135. 248. 184. 502. 283. 517. 234. 602. 239. 489. 160.
      110. 167. 112. 122. 114. 113. 75. 164. 454. 289. 312. 131. 179.
      303. 190. 180. 255. 139. 417. 176. 1298. 182. 865. 195. 586. 279.
      970. 368. 1816. 258. 1633. 289. 159. 253. 153. 200. 216. 260. 119.
      361. 244. 276. 185. 140. 348. 495. 389. 487.</_>
    <_>
      334. 251. 382. 344. 316. 220. 175. 107. 267. 190. 294. 233. 388.
      260. 180. 94. 226. 821. 275. 902. 316. 336. 189. 364. 206. 463.
      243. 587. 257. 329. 118. 283. 323. 148. 263. 170. 169. 248. 153.
      216. 204. 169. 224. 164. 324. 153. 223. 163. 123. 414. 312. 503.
      230. 518. 287. 462. 81. 197. 182. 315. 155. 248. 172. 255. 1337.
      242. 604. 191. 701. 213. 455. 212. 746. 213. 870. 215. 724. 310.
      395. 150. 237. 192. 257. 217. 230. 186. 256. 319. 302. 241. 235.
      177. 214. 234. 174. 145. 324. 191. 251. 113. 518. 251. 328. 176.
      323. 175. 284. 123. 516. 191. 444. 128. 171. 209. 211. 200. 306.
      218. 307. 358. 136. 205. 156. 136. 192. 168. 233. 159. 174. 260.
      352. 351. 180. 177. 192. 150. 173. 270. 185. 251. 193. 182. 137.
      128. 152. 457. 246. 587. 120. 272. 86. 333. 160. 472. 202. 423.
      111. 235. 102. 275. 106. 152. 206. 368. 181. 177. 134. 273. 211.
      203. 230. 251. 273. 248. 253. 244. 177. 449. 442. 775. 193. 905.
      168. 866. 166. 412. 209. 422. 208. 738. 233. 915. 282. 123. 269.
      161. 310. 120. 230. 189. 506. 280. 518. 249. 608. 232. 477. 156.
      104. 151. 116. 133. 121. 124. 71. 161. 452. 287. 322. 121. 183.
      259. 164. 195. 265. 135. 425. 190. 1274. 183. 929. 191. 631. 299.
      960. 398. 1824. 265. 1634. 263. 160. 238. 150. 213. 226. 284. 138.
      343. 222. 283. 171. 142. 325. 517. 396. 463.</_>
    <_>
      314. 239. 381. 348. 299. 205. 179. 121. 237. 174. 279. 241. 388.
      238. 178. 107. 219. 844. 277. 840. 319. 340. 184. 355. 195. 452.
      248. 587. 226. 298. 128. 277. 328. 138. 261. 177. 175. 248. 156.
      210. 196. 190. 238. 162. 326. 149. 240. 156. 104. 432. 310. 479.
      236. 504. 287. 466. 98. 184. 140. 313. 162. 278. 161. 264. 1376.
      250. 616. 198. 730. 211. 449. 206. 761. 222. 846. 221. 721. 299.
      416. 179. 237. 197. 253. 193. 225. 185. 271. 295. 295. 254. 248.
      154. 219. 232. 179. 149. 291. 179. 286. 100. 545. 262. 293. 165.
      356. 191. 316. 125. 537. 220. 428. 137. 165. 194. 209. 188. 304.
      232. 296. 372. 141. 205. 157. 139. 176. 192. 228. 163. 185. 255.
      355. 342. 196. 178. 178. 160. 159. 265. 175. 243. 188. 210. 127.
      115. 161. 436. 255. 606. 127. 292. 95. 333. 185. 476. 205. 420.
      109. 232. 92. 274. 108. 152. 237. 367. 173. 195. 137. 247. 220.
      199. 215. 260. 252. 246. 218. 227. 185. 469. 444. 783. 198. 879.
      167. 840. 171. 419. 213. 441. 205. 767. 227. 952. 307. 125. 283.
      147. 306. 139. 257. 181. 500. 281. 527. 263. 593. 237. 477. 168.
      106. 164. 134. 120. 102. 116. 91. 151. 414. 265. 295. 131. 199.
      259. 187. 183. 273. 144. 416. 179. 1304. 175. 876. 196. 636. 292.
      916. 359. 1797. 272. 1653. 254. 151. 258. 146. 231. 230. 283. 137.
      357. 253. 278. 185. 161. 314. 490. 403. 467.</_>
    <_>
      328. 196. 315. 381. 217. 158. 112. 123. 301. 263. 263. 237. 283.
      135. 157. 91. 290. 1229. 375. 1689. 327. 468. 218. 327. 213. 776.
      182. 859. 185. 276. 91. 224. 202. 121. 191. 116. 232. 288. 186.
      307. 222. 126. 240. 124. 269. 104. 213. 127. 197. 319. 249. 713.
      235. 293. 200. 369. 66. 171. 87. 130. 167. 163. 132. 184. 1286.
      136. 735. 259. 929. 213. 648. 159. 1178. 221. 1132. 190. 883. 208.
      744. 199. 167. 294. 293. 488. 191. 150. 268. 236. 224. 326. 286.
      198. 218. 134. 203. 101. 400. 152. 328. 130. 559. 407. 519. 245.
      501. 146. 449. 164. 565. 191. 602. 200. 162. 179. 162. 262. 244.
      170. 291. 258. 164. 189. 122. 108. 222. 278. 212. 214. 234. 224.
      230. 389. 206. 139. 126. 121. 215. 234. 207. 218. 216. 140. 158.
      112. 123. 367. 196. 511. 84. 224. 103. 212. 188. 411. 208. 303.
      107. 167. 91. 227. 147. 118. 189. 224. 255. 235. 191. 246. 209.
      132. 277. 160. 362. 248. 365. 297. 116. 284. 313. 636. 215. 603.
      198. 545. 139. 271. 189. 266. 250. 491. 232. 643. 422. 140. 373.
      163. 414. 136. 314. 200. 761. 185. 715. 217. 717. 220. 562. 176.
      109. 202. 144. 141. 85. 117. 116. 169. 294. 316. 275. 158. 188.
      301. 147. 374. 287. 111. 376. 193. 727. 238. 593. 215. 686. 178.
      677. 227. 1373. 405. 1608. 233. 115. 135. 114. 180. 200. 209. 254.
      252. 293. 215. 219. 233. 485. 536. 428. 493.</_>
    <_>
      360. 240. 760. 330. 232. 229. 204. 210. 343. 239. 297. 241. 342.
      167. 119. 109. 196. 503. 408. 846. 215. 249. 138. 226. 155. 373.
      223. 408. 172. 202. 79. 193. 134. 105. 207. 95. 195. 267. 191.
      244. 155. 109. 122. 97. 334. 86. 137. 96. 94. 293. 349. 424. 132.
      439. 212. 337. 60. 168. 95. 189. 115. 161. 85. 180. 2123. 177.
      972. 284. 1010. 303. 729. 231. 1636. 260. 1270. 234. 1211. 359.
      579. 133. 195. 185. 317. 249. 263. 216. 251. 189. 377. 353. 260.
      154. 378. 257. 170. 119. 374. 126. 229. 108. 765. 229. 628. 200.
      491. 96. 357. 74. 910. 232. 699. 138. 128. 176. 153. 161. 245.
      201. 316. 225. 120. 136. 127. 92. 269. 154. 224. 150. 148. 207.
      247. 351. 152. 94. 102. 83. 203. 224. 256. 216. 251. 127. 114. 77.
      128. 372. 182. 491. 76. 185. 51. 175. 211. 367. 190. 311. 87. 151.
      76. 167. 135. 154. 152. 279. 210. 272. 220. 247. 210. 131. 136.
      123. 482. 167. 283. 185. 83. 423. 362. 844. 124. 1099. 179. 779.
      182. 303. 182. 375. 201. 417. 205. 505. 380. 100. 303. 172. 347.
      130. 247. 164. 917. 270. 616. 186. 1005. 215. 688. 136. 134. 98.
      88. 95. 101. 90. 62. 112. 430. 375. 299. 144. 244. 243. 200. 276.
      249. 145. 446. 91. 831. 222. 759. 260. 767. 174. 931. 127. 2495.
      313. 1910. 232. 122. 142. 127. 132. 173. 238. 112. 159. 262. 160.
      225. 115. 323. 372. 381. 325.</_>
    <_>
      476. 298. 737. 367. 262. 230. 197. 181. 257. 232. 316. 228. 331.
      193. 153. 142. 185. 406. 399. 590. 198. 246. 159. 307. 167. 296.
      227. 337. 194. 269. 99. 208. 151. 146. 206. 212. 242. 263. 213.
      306. 125. 105. 165. 132. 377. 106. 182. 118. 134. 294. 360. 513.
      174. 336. 194. 316. 87. 151. 125. 198. 136. 215. 130. 236. 2111.
      246. 839. 234. 855. 256. 605. 199. 1313. 296. 1033. 222. 1239.
      319. 483. 144. 204. 249. 297. 267. 259. 202. 270. 211. 270. 334.
      286. 200. 363. 226. 223. 173. 302. 145. 211. 121. 667. 312. 607.
      244. 393. 117. 281. 93. 716. 219. 539. 136. 134. 191. 155. 209.
      242. 246. 384. 297. 103. 183. 133. 122. 237. 168. 189. 169. 150.
      231. 281. 364. 137. 151. 104. 144. 229. 181. 274. 211. 246. 124.
      117. 82. 161. 481. 264. 519. 64. 206. 51. 223. 204. 337. 296. 294.
      105. 218. 84. 198. 130. 140. 184. 303. 174. 259. 153. 271. 144.
      144. 151. 180. 486. 255. 268. 258. 145. 550. 335. 989. 148. 1068.
      187. 742. 176. 478. 243. 548. 222. 569. 216. 626. 230. 103. 304.
      149. 250. 106. 215. 159. 779. 250. 595. 283. 768. 245. 422. 180.
      139. 148. 129. 101. 75. 113. 67. 129. 581. 287. 531. 137. 233.
      257. 196. 190. 256. 121. 399. 167. 868. 250. 658. 295. 758. 187.
      773. 145. 2240. 317. 1569. 260. 81. 156. 120. 161. 194. 250. 160.
      234. 234. 187. 161. 161. 344. 392. 341. 309.</_>
    <_>
      413. 194. 300. 193. 152. 110. 121. 86. 106. 119. 168. 135. 135.
      100. 110. 82. 166. 736. 212. 807. 176. 456. 151. 398. 86. 493.
      106. 596. 72. 234. 73. 178. 454. 104. 218. 107. 162. 159. 216.
      180. 108. 68. 172. 121. 254. 114. 199. 155. 124. 336. 259. 511.
      203. 364. 260. 509. 48. 184. 97. 236. 152. 219. 135. 272. 1160.
      156. 590. 141. 749. 79. 497. 129. 1354. 121. 1159. 100. 1518. 150.
      636. 116. 167. 374. 164. 277. 77. 95. 168. 185. 162. 187. 187.
      141. 110. 98. 118. 118. 356. 88. 230. 125. 699. 277. 576. 272.
      323. 117. 238. 98. 767. 251. 693. 212. 96. 186. 118. 242. 188.
      187. 336. 327. 92. 98. 81. 92. 246. 167. 222. 193. 172. 163. 290.
      320. 174. 125. 236. 87. 141. 101. 166. 166. 182. 120. 110. 77. 80.
      613. 213. 810. 76. 274. 40. 226. 129. 519. 216. 556. 91. 210. 58.
      247. 170. 139. 236. 311. 297. 298. 265. 279. 205. 144. 305. 186.
      600. 318. 409. 267. 142. 693. 425. 989. 183. 1233. 176. 1335. 173.
      453. 260. 506. 322. 761. 256. 1244. 196. 60. 187. 97. 311. 90.
      252. 160. 754. 116. 714. 104. 859. 275. 514. 161. 84. 125. 98.
      178. 55. 63. 57. 133. 415. 217. 361. 184. 253. 182. 164. 169. 288.
      127. 349. 188. 908. 347. 792. 360. 462. 142. 500. 238. 1932. 665.
      1729. 507. 160. 197. 140. 188. 251. 330. 247. 370. 270. 267. 226.
      192. 753. 563. 730. 586.</_>
    <_>
      2095. 263. 441. 245. 175. 175. 160. 121. 219. 172. 229. 193. 194.
      144. 151. 100. 271. 745. 223. 934. 244. 605. 177. 377. 177. 661.
      183. 910. 288. 378. 133. 258. 868. 189. 202. 153. 156. 276. 359.
      204. 185. 140. 109. 163. 200. 146. 246. 136. 198. 387. 228. 380.
      230. 442. 294. 332. 129. 223. 136. 222. 178. 237. 134. 199. 1615.
      213. 576. 229. 899. 150. 573. 193. 1126. 176. 935. 104. 1118. 270.
      462. 154. 337. 270. 164. 270. 117. 109. 231. 308. 207. 191. 221.
      253. 222. 169. 251. 270. 326. 102. 179. 128. 425. 202. 536. 160.
      272. 125. 233. 116. 583. 223. 560. 190. 109. 144. 143. 153. 187.
      142. 360. 301. 158. 116. 170. 177. 313. 204. 272. 308. 268. 171.
      458. 217. 181. 241. 183. 163. 301. 221. 187. 273. 202. 195. 151.
      132. 179. 370. 164. 596. 101. 284. 69. 241. 252. 409. 352. 513.
      139. 260. 91. 297. 207. 204. 160. 214. 342. 397. 330. 232. 285.
      216. 155. 245. 423. 323. 248. 274. 190. 354. 362. 580. 256. 1161.
      203. 892. 214. 278. 262. 362. 292. 562. 227. 945. 222. 115. 195.
      171. 303. 157. 213. 248. 454. 167. 475. 135. 490. 324. 299. 223.
      74. 141. 104. 208. 85. 106. 95. 175. 421. 157. 357. 219. 101. 197.
      172. 247. 330. 163. 319. 222. 718. 277. 414. 269. 508. 209. 605.
      282. 987. 323. 864. 306. 169. 194. 230. 320. 224. 305. 207. 301.
      213. 187. 243. 260. 257. 369. 373. 524.</_>
    <_>
      526. 214. 314. 177. 192. 134. 116. 93. 194. 191. 184. 208. 118.
      101. 105. 110. 233. 854. 214. 1353. 273. 691. 180. 470. 180. 657.
      180. 885. 129. 436. 80. 272. 386. 159. 159. 136. 133. 225. 149.
      227. 215. 132. 205. 161. 211. 155. 202. 199. 177. 392. 217. 415.
      261. 458. 281. 487. 149. 267. 134. 343. 231. 266. 174. 334. 1804.
      144. 622. 142. 949. 159. 569. 138. 1379. 173. 1123. 150. 1125.
      188. 509. 133. 203. 216. 185. 264. 110. 126. 212. 311. 219. 139.
      178. 218. 171. 113. 136. 183. 363. 137. 189. 142. 492. 229. 370.
      201. 330. 113. 304. 133. 536. 217. 427. 168. 112. 144. 186. 206.
      170. 182. 321. 322. 116. 122. 151. 148. 208. 141. 214. 242. 161.
      148. 255. 211. 151. 192. 154. 151. 174. 219. 161. 190. 149. 170.
      143. 182. 181. 520. 208. 585. 134. 352. 75. 302. 232. 552. 247.
      545. 139. 217. 109. 411. 191. 159. 141. 188. 256. 367. 199. 304.
      228. 253. 207. 253. 330. 266. 298. 369. 199. 642. 165. 565. 317.
      1339. 201. 1237. 194. 450. 229. 522. 308. 741. 236. 1210. 143. 74.
      197. 198. 309. 117. 289. 219. 444. 192. 597. 187. 465. 233. 375.
      201. 94. 146. 91. 195. 80. 143. 80. 208. 377. 150. 387. 188. 141.
      170. 144. 274. 305. 140. 356. 221. 760. 216. 484. 291. 496. 202.
      552. 287. 1265. 411. 1123. 337. 175. 197. 179. 357. 193. 316. 264.
      435. 193. 224. 201. 267. 299. 394. 455. 582.</_>
    <_>
      414. 399. 489. 385. 236. 214. 171. 134. 239. 323. 218. 304. 234.
      129. 140. 95. 388. 860. 363. 1159. 283. 382. 138. 284. 201. 590.
      199. 781. 143. 257. 103. 155. 205. 174. 193. 188. 209. 339. 198.
      285. 121. 161. 180. 188. 177. 183. 175. 207. 115. 339. 274. 356.
      234. 473. 233. 383. 64. 172. 148. 264. 87. 182. 140. 290. 1693.
      245. 829. 281. 818. 240. 460. 214. 1139. 280. 1018. 235. 1025.
      249. 604. 141. 268. 195. 197. 283. 236. 143. 250. 206. 291. 211.
      306. 143. 211. 126. 149. 128. 459. 187. 218. 126. 604. 307. 386.
      198. 369. 242. 287. 112. 641. 244. 447. 140. 117. 163. 140. 161.
      217. 188. 269. 282. 183. 131. 105. 106. 170. 181. 148. 161. 160.
      158. 235. 269. 193. 217. 120. 171. 155. 138. 201. 172. 171. 114.
      144. 134. 169. 425. 267. 442. 87. 299. 78. 219. 277. 395. 336.
      315. 84. 180. 104. 260. 115. 125. 131. 221. 192. 259. 120. 260.
      141. 123. 239. 189. 201. 272. 303. 315. 122. 451. 356. 651. 139.
      1315. 163. 1247. 245. 333. 318. 421. 234. 801. 261. 1351. 229. 96.
      199. 106. 304. 147. 230. 199. 638. 151. 613. 167. 702. 261. 588.
      226. 144. 113. 123. 131. 90. 125. 117. 151. 492. 230. 352. 137.
      271. 233. 203. 301. 262. 135. 238. 154. 890. 190. 624. 300. 523.
      140. 511. 146. 1758. 370. 1627. 331. 128. 132. 101. 181. 168. 226.
      172. 329. 310. 186. 157. 181. 467. 560. 423. 658.</_>
    <_>
      524. 500. 428. 469. 239. 300. 161. 174. 347. 269. 279. 304. 275.
      195. 175. 118. 371. 1339. 392. 1801. 279. 556. 220. 401. 251. 641.
      252. 755. 216. 336. 101. 293. 200. 144. 178. 193. 190. 151. 147.
      168. 169. 157. 216. 208. 289. 144. 223. 147. 174. 564. 233. 473.
      231. 563. 242. 366. 98. 238. 172. 331. 170. 157. 153. 268. 1405.
      237. 787. 219. 800. 167. 534. 178. 1072. 233. 1004. 222. 1165.
      233. 554. 169. 214. 305. 232. 333. 161. 126. 279. 265. 259. 289.
      304. 233. 301. 145. 187. 181. 363. 149. 237. 123. 450. 172. 275.
      153. 393. 166. 452. 117. 562. 167. 397. 96. 153. 218. 143. 201.
      261. 124. 231. 259. 118. 215. 182. 128. 214. 269. 198. 144. 208.
      243. 208. 277. 172. 163. 146. 124. 217. 159. 191. 163. 191. 186.
      109. 82. 166. 653. 253. 701. 84. 285. 67. 316. 190. 489. 221. 339.
      96. 255. 91. 206. 177. 128. 159. 240. 161. 164. 140. 230. 127.
      144. 201. 188. 267. 196. 254. 234. 181. 405. 253. 756. 168. 716.
      136. 728. 150. 391. 238. 419. 185. 513. 152. 904. 281. 100. 243.
      170. 407. 121. 270. 166. 548. 184. 534. 165. 640. 199. 415. 142.
      137. 111. 99. 160. 69. 81. 102. 167. 224. 183. 233. 119. 163. 262.
      137. 443. 270. 124. 383. 227. 1106. 129. 776. 265. 576. 156. 856.
      171. 2232. 202. 1558. 266. 181. 119. 109. 117. 153. 200. 107. 242.
      168. 259. 181. 91. 342. 434. 203. 325.</_>
    <_>
      505. 326. 521. 315. 244. 197. 219. 170. 354. 300. 318. 289. 203.
      140. 132. 84. 304. 1112. 352. 1264. 276. 527. 253. 387. 245. 629.
      222. 905. 187. 345. 97. 352. 193. 135. 149. 158. 198. 206. 149.
      219. 192. 109. 250. 160. 208. 151. 183. 157. 143. 407. 161. 446.
      274. 476. 225. 336. 133. 237. 124. 341. 202. 246. 180. 329. 1254.
      199. 758. 242. 723. 216. 467. 160. 947. 238. 1001. 224. 933. 235.
      631. 162. 258. 270. 330. 324. 165. 188. 279. 269. 258. 342. 276.
      240. 218. 207. 179. 162. 398. 147. 218. 141. 495. 178. 305. 179.
      413. 164. 378. 109. 573. 164. 524. 160. 172. 185. 150. 233. 173.
      170. 260. 262. 182. 164. 175. 168. 208. 187. 190. 209. 197. 267.
      193. 243. 185. 184. 147. 139. 163. 197. 214. 166. 151. 166. 129.
      134. 132. 460. 177. 572. 121. 276. 96. 293. 191. 388. 226. 497.
      92. 191. 96. 304. 227. 181. 204. 287. 274. 254. 209. 241. 148.
      208. 214. 196. 332. 292. 234. 246. 170. 597. 247. 725. 177. 931.
      159. 893. 191. 377. 233. 508. 273. 672. 225. 1044. 335. 112. 285.
      178. 421. 164. 244. 175. 479. 157. 400. 146. 656. 241. 475. 217.
      133. 147. 110. 136. 105. 139. 136. 184. 362. 213. 245. 153. 177.
      261. 176. 271. 344. 130. 367. 249. 880. 184. 653. 270. 572. 173.
      652. 218. 1362. 273. 1190. 276. 137. 217. 144. 289. 189. 329. 220.
      356. 229. 229. 224. 279. 299. 484. 331. 422.</_>
    <_>
      430. 202. 241. 211. 242. 179. 173. 156. 209. 168. 184. 211. 205.
      158. 153. 114. 290. 855. 173. 583. 190. 454. 146. 473. 136. 400.
      212. 848. 175. 273. 99. 313. 430. 190. 208. 206. 275. 340. 224.
      351. 172. 155. 239. 144. 205. 198. 254. 240. 189. 577. 172. 454.
      273. 471. 215. 506. 128. 233. 167. 272. 169. 209. 157. 304. 1328.
      212. 655. 177. 713. 213. 592. 206. 1017. 208. 1062. 175. 839. 228.
      589. 149. 205. 175. 198. 198. 155. 145. 235. 181. 236. 222. 267.
      169. 157. 152. 194. 145. 468. 153. 289. 150. 355. 267. 490. 272.
      385. 197. 331. 116. 528. 232. 473. 151. 167. 178. 144. 137. 190.
      223. 463. 260. 162. 174. 191. 147. 140. 173. 175. 192. 249. 191.
      215. 251. 250. 189. 165. 189. 198. 219. 200. 207. 158. 192. 157.
      167. 203. 497. 179. 464. 113. 277. 99. 389. 290. 349. 366. 482.
      144. 242. 189. 399. 175. 154. 142. 233. 287. 296. 145. 287. 196.
      161. 259. 222. 384. 266. 195. 242. 144. 485. 199. 687. 239. 1308.
      209. 1149. 247. 334. 278. 487. 326. 630. 241. 1101. 298. 157. 311.
      217. 399. 135. 329. 225. 460. 190. 505. 234. 493. 228. 408. 184.
      155. 149. 114. 140. 87. 172. 129. 203. 514. 240. 438. 217. 209.
      260. 188. 278. 293. 132. 386. 265. 723. 202. 509. 289. 608. 222.
      683. 232. 1213. 432. 1081. 337. 198. 220. 206. 194. 225. 272. 259.
      301. 318. 239. 281. 243. 342. 490. 415. 584.</_>
    <_>
      493. 358. 572. 295. 246. 181. 235. 152. 352. 267. 326. 291. 213.
      132. 161. 105. 260. 1111. 351. 1235. 229. 493. 231. 373. 255. 632.
      208. 920. 187. 353. 99. 347. 207. 133. 186. 150. 179. 203. 153.
      229. 201. 128. 257. 172. 206. 146. 202. 148. 159. 432. 187. 432.
      295. 466. 242. 363. 145. 237. 120. 332. 199. 260. 167. 327. 1193.
      223. 746. 257. 734. 216. 450. 206. 854. 229. 968. 234. 951. 250.
      617. 155. 247. 262. 321. 355. 152. 210. 282. 257. 289. 348. 261.
      234. 227. 228. 200. 170. 395. 164. 214. 148. 457. 179. 303. 161.
      449. 174. 375. 126. 589. 157. 534. 163. 177. 194. 170. 237. 188.
      166. 277. 281. 168. 195. 194. 190. 231. 168. 189. 231. 216. 248.
      198. 232. 195. 186. 187. 144. 178. 194. 209. 180. 146. 168. 127.
      130. 152. 468. 189. 580. 132. 270. 102. 260. 189. 366. 205. 471.
      88. 209. 90. 312. 250. 163. 190. 257. 282. 224. 205. 215. 161.
      210. 236. 195. 306. 257. 218. 214. 180. 597. 250. 705. 187. 908.
      143. 873. 177. 355. 234. 476. 298. 710. 223. 1049. 353. 103. 302.
      166. 422. 156. 243. 206. 453. 162. 449. 169. 621. 244. 453. 198.
      138. 171. 100. 152. 122. 164. 138. 182. 372. 195. 225. 159. 174.
      267. 188. 263. 351. 129. 388. 273. 843. 182. 667. 278. 587. 171.
      636. 182. 1347. 308. 1163. 292. 141. 211. 137. 312. 173. 314. 202.
      340. 197. 244. 225. 289. 270. 432. 328. 413.</_>
    <_>
      447. 242. 293. 222. 249. 196. 159. 174. 249. 132. 260. 218. 225.
      153. 193. 133. 284. 924. 205. 647. 211. 403. 140. 487. 144. 440.
      265. 901. 197. 242. 110. 331. 359. 197. 206. 188. 271. 334. 261.
      306. 221. 135. 209. 140. 225. 138. 235. 234. 173. 683. 160. 450.
      263. 458. 212. 523. 149. 177. 118. 249. 159. 201. 145. 297. 1352.
      223. 720. 203. 839. 234. 639. 234. 1086. 163. 1072. 199. 857. 193.
      632. 179. 204. 189. 227. 252. 166. 144. 239. 191. 226. 184. 294.
      211. 188. 142. 179. 155. 478. 139. 271. 147. 370. 277. 476. 242.
      446. 172. 389. 130. 523. 220. 458. 136. 154. 193. 182. 124. 176.
      206. 449. 237. 176. 175. 196. 113. 127. 185. 194. 197. 241. 225.
      196. 226. 183. 175. 143. 185. 222. 219. 171. 193. 173. 192. 135.
      175. 218. 603. 167. 465. 103. 251. 107. 347. 300. 351. 364. 457.
      137. 228. 142. 440. 162. 138. 154. 225. 277. 279. 170. 295. 200.
      146. 251. 226. 381. 258. 211. 273. 152. 492. 168. 578. 231. 1318.
      188. 993. 223. 274. 228. 471. 312. 645. 218. 1006. 302. 144. 315.
      201. 428. 110. 318. 203. 503. 224. 518. 186. 522. 227. 427. 217.
      165. 163. 105. 129. 121. 133. 116. 245. 484. 248. 398. 193. 218.
      249. 180. 300. 316. 145. 410. 248. 760. 195. 536. 271. 607. 219.
      730. 270. 1173. 366. 1066. 331. 168. 196. 187. 175. 213. 252. 256.
      278. 284. 221. 232. 230. 309. 502. 442. 517.</_>
    <_>
      448. 239. 299. 215. 254. 202. 139. 190. 252. 173. 274. 235. 229.
      159. 153. 140. 297. 949. 214. 667. 185. 414. 143. 505. 139. 435.
      275. 875. 185. 250. 96. 313. 332. 195. 201. 174. 293. 339. 239.
      308. 219. 118. 201. 139. 198. 143. 216. 258. 179. 681. 156. 429.
      270. 451. 213. 483. 147. 194. 119. 221. 166. 210. 127. 307. 1410.
      230. 710. 201. 834. 206. 652. 238. 1050. 174. 1109. 188. 888. 186.
      643. 170. 219. 195. 231. 269. 153. 162. 230. 194. 215. 208. 309.
      207. 194. 166. 186. 153. 469. 143. 291. 161. 364. 267. 471. 225.
      447. 155. 396. 129. 538. 230. 472. 124. 144. 202. 181. 128. 193.
      215. 452. 246. 170. 182. 154. 107. 124. 202. 169. 198. 230. 217.
      204. 215. 186. 197. 139. 169. 232. 223. 172. 204. 180. 182. 139.
      181. 228. 571. 142. 451. 117. 261. 120. 359. 303. 329. 363. 481.
      124. 231. 165. 404. 169. 166. 138. 213. 261. 287. 180. 319. 185.
      161. 267. 243. 388. 268. 238. 269. 148. 481. 179. 581. 228. 1238.
      201. 1033. 225. 271. 224. 454. 311. 626. 212. 1001. 298. 151. 317.
      196. 387. 127. 330. 193. 499. 226. 485. 191. 514. 210. 439. 195.
      162. 156. 99. 125. 118. 142. 124. 221. 505. 244. 434. 179. 225.
      243. 172. 310. 327. 119. 386. 250. 730. 214. 498. 270. 597. 215.
      718. 259. 1147. 381. 1028. 350. 175. 192. 196. 180. 242. 273. 261.
      287. 295. 221. 231. 244. 324. 466. 437. 588.</_>
    <_>
      523. 326. 524. 324. 242. 180. 209. 171. 349. 276. 312. 288. 221.
      130. 166. 107. 253. 1166. 358. 1289. 269. 496. 224. 381. 245. 650.
      209. 950. 191. 338. 95. 346. 217. 125. 186. 163. 189. 206. 135.
      219. 182. 140. 249. 166. 191. 140. 190. 153. 156. 419. 185. 445.
      302. 472. 238. 349. 147. 234. 118. 335. 189. 275. 182. 334. 1216.
      198. 725. 248. 742. 220. 452. 194. 857. 230. 923. 237. 943. 249.
      640. 151. 231. 271. 296. 331. 152. 196. 283. 281. 268. 321. 262.
      228. 254. 236. 199. 164. 410. 170. 231. 133. 443. 187. 302. 175.
      439. 160. 372. 125. 562. 170. 513. 146. 179. 196. 170. 230. 181.
      165. 282. 262. 168. 184. 170. 170. 215. 173. 205. 257. 205. 241.
      223. 231. 213. 179. 170. 144. 172. 197. 210. 179. 136. 187. 124.
      134. 141. 468. 184. 567. 130. 265. 101. 283. 174. 417. 225. 505.
      91. 208. 83. 288. 230. 162. 180. 283. 289. 258. 189. 223. 166.
      183. 218. 193. 296. 276. 223. 222. 172. 550. 244. 720. 173. 927.
      161. 917. 196. 376. 212. 490. 259. 661. 228. 1051. 339. 109. 291.
      170. 443. 149. 245. 182. 460. 152. 412. 169. 610. 241. 473. 210.
      112. 160. 113. 152. 114. 145. 133. 160. 383. 223. 233. 154. 187.
      278. 189. 265. 367. 138. 403. 289. 844. 157. 695. 269. 592. 160.
      657. 194. 1370. 334. 1141. 288. 146. 219. 149. 289. 194. 306. 203.
      355. 212. 250. 216. 257. 266. 462. 332. 405.</_>
    <_>
      498. 328. 539. 327. 257. 205. 221. 168. 357. 283. 312. 263. 219.
      157. 164. 94. 255. 1164. 357. 1287. 288. 537. 231. 380. 268. 670.
      205. 989. 181. 380. 97. 315. 218. 131. 157. 171. 198. 203. 156.
      225. 199. 134. 245. 169. 192. 154. 189. 154. 139. 441. 191. 403.
      294. 490. 231. 378. 137. 240. 120. 331. 197. 245. 184. 309. 1187.
      178. 724. 240. 699. 217. 443. 168. 837. 246. 896. 224. 958. 241.
      620. 162. 241. 296. 285. 329. 164. 182. 283. 277. 271. 301. 263.
      218. 245. 226. 198. 163. 410. 172. 221. 137. 471. 188. 302. 174.
      450. 162. 394. 137. 563. 171. 522. 144. 179. 182. 142. 209. 186.
      150. 294. 266. 161. 196. 179. 175. 204. 161. 206. 253. 195. 242.
      210. 241. 205. 170. 175. 134. 160. 193. 215. 184. 146. 184. 129.
      140. 143. 484. 184. 568. 120. 253. 99. 278. 184. 401. 206. 542.
      79. 211. 83. 305. 232. 167. 185. 277. 252. 245. 179. 217. 158.
      192. 220. 205. 313. 278. 226. 244. 171. 578. 228. 722. 196. 947.
      157. 867. 173. 386. 220. 524. 267. 674. 223. 1043. 355. 118. 270.
      177. 427. 159. 265. 199. 497. 155. 425. 162. 626. 237. 488. 223.
      124. 154. 99. 147. 109. 140. 148. 177. 394. 231. 217. 161. 171.
      272. 185. 279. 346. 149. 370. 257. 886. 162. 690. 249. 541. 153.
      640. 196. 1380. 320. 1175. 319. 135. 224. 147. 290. 171. 302. 232.
      348. 191. 265. 211. 245. 273. 430. 316. 403.</_>
    <_>
      472. 306. 452. 286. 267. 196. 191. 193. 283. 243. 269. 341. 166.
      186. 151. 100. 262. 1296. 379. 1395. 258. 495. 222. 451. 249. 653.
      207. 966. 160. 330. 90. 298. 206. 128. 175. 160. 204. 201. 175.
      216. 189. 109. 194. 175. 193. 129. 175. 148. 168. 446. 250. 441.
      272. 507. 225. 364. 129. 255. 125. 285. 181. 202. 117. 269. 1527.
      236. 713. 205. 759. 198. 446. 168. 874. 240. 921. 239. 945. 241.
      592. 157. 204. 220. 239. 321. 175. 197. 266. 253. 268. 261. 263.
      193. 194. 188. 154. 158. 389. 142. 229. 147. 435. 175. 351. 154.
      388. 142. 369. 148. 584. 142. 603. 121. 151. 160. 137. 193. 205.
      190. 250. 300. 170. 212. 198. 146. 190. 167. 225. 238. 203. 275.
      189. 189. 228. 150. 143. 134. 162. 175. 197. 173. 149. 166. 142.
      147. 164. 501. 184. 589. 108. 290. 85. 296. 202. 373. 194. 498.
      90. 225. 117. 323. 229. 188. 143. 232. 236. 250. 178. 225. 168.
      169. 193. 175. 309. 296. 278. 304. 111. 574. 242. 720. 158. 918.
      152. 904. 135. 404. 203. 467. 302. 697. 257. 1105. 296. 116. 267.
      169. 449. 149. 298. 169. 504. 152. 523. 137. 630. 191. 468. 198.
      106. 166. 105. 147. 112. 148. 112. 168. 368. 234. 206. 178. 165.
      277. 135. 317. 305. 159. 417. 231. 918. 198. 670. 273. 638. 156.
      683. 157. 1665. 306. 1233. 361. 115. 205. 110. 242. 204. 274. 236.
      334. 191. 282. 217. 216. 292. 463. 407. 507.</_>
    <_>
      446. 329. 391. 282. 193. 260. 170. 222. 280. 277. 219. 305. 129.
      171. 108. 118. 269. 1216. 342. 1263. 266. 716. 256. 497. 240. 742.
      241. 989. 178. 452. 93. 400. 242. 170. 188. 177. 168. 198. 167.
      200. 209. 134. 225. 186. 185. 122. 186. 113. 167. 501. 218. 435.
      288. 561. 271. 354. 112. 323. 135. 444. 167. 274. 146. 281. 1636.
      227. 638. 169. 818. 193. 349. 185. 1082. 219. 770. 192. 932. 193.
      544. 154. 160. 284. 220. 322. 149. 161. 251. 237. 241. 259. 244.
      216. 177. 145. 127. 167. 406. 156. 236. 123. 414. 155. 311. 163.
      452. 135. 382. 152. 544. 163. 438. 129. 169. 196. 136. 212. 207.
      199. 290. 297. 116. 182. 191. 171. 189. 201. 195. 211. 145. 181.
      204. 259. 211. 221. 168. 167. 113. 199. 231. 174. 134. 123. 138.
      114. 172. 433. 197. 571. 126. 338. 88. 364. 210. 377. 239. 522.
      78. 196. 74. 314. 161. 184. 156. 264. 230. 250. 168. 303. 143.
      156. 183. 213. 264. 259. 331. 261. 137. 539. 273. 764. 168. 844.
      110. 782. 155. 425. 217. 562. 233. 534. 207. 1214. 269. 100. 190.
      161. 378. 113. 294. 184. 492. 148. 490. 133. 725. 202. 500. 200.
      90. 128. 89. 169. 71. 144. 89. 175. 430. 179. 389. 140. 139. 195.
      155. 317. 281. 127. 374. 204. 1124. 193. 792. 252. 625. 164. 823.
      160. 1694. 243. 1232. 258. 107. 205. 104. 259. 200. 354. 148. 389.
      182. 245. 200. 208. 293. 503. 307. 512.</_>
    <_>
      426. 311. 408. 300. 220. 263. 185. 221. 279. 266. 244. 323. 121.
      182. 113. 128. 260. 1225. 327. 1364. 286. 683. 253. 534. 244. 767.
      229. 1003. 172. 484. 98. 427. 239. 189. 180. 177. 155. 196. 162.
      193. 196. 125. 216. 189. 196. 137. 187. 114. 157. 547. 249. 416.
      295. 537. 251. 354. 108. 331. 122. 442. 183. 259. 127. 275. 1620.
      233. 618. 174. 811. 198. 382. 183. 1067. 206. 751. 193. 964. 209.
      559. 149. 168. 270. 203. 327. 141. 144. 250. 242. 243. 244. 287.
      199. 175. 175. 122. 166. 398. 135. 209. 124. 417. 161. 326. 152.
      403. 139. 352. 146. 544. 166. 446. 110. 152. 209. 140. 224. 189.
      217. 311. 270. 117. 183. 189. 183. 187. 154. 195. 193. 166. 184.
      188. 249. 219. 201. 147. 152. 135. 198. 229. 163. 119. 100. 153.
      125. 145. 452. 180. 592. 127. 355. 83. 355. 205. 396. 252. 498.
      67. 218. 80. 333. 163. 169. 135. 255. 253. 243. 166. 278. 135.
      167. 183. 230. 291. 271. 292. 261. 137. 589. 275. 772. 164. 818.
      137. 750. 162. 437. 216. 561. 230. 590. 224. 1161. 250. 106. 203.
      168. 346. 125. 305. 182. 518. 153. 528. 135. 700. 160. 469. 169.
      102. 132. 103. 159. 87. 142. 92. 186. 413. 202. 366. 145. 120.
      198. 137. 337. 272. 139. 385. 209. 1095. 174. 762. 282. 624. 168.
      791. 167. 1668. 304. 1202. 280. 117. 183. 96. 292. 182. 334. 141.
      393. 168. 233. 200. 221. 309. 445. 336. 545.</_>
    <_>
      427. 307. 399. 295. 259. 254. 166. 227. 266. 299. 231. 319. 118.
      179. 116. 110. 291. 1170. 342. 1350. 275. 689. 259. 482. 239. 735.
      253. 956. 172. 453. 106. 394. 215. 187. 211. 175. 177. 198. 147.
      185. 206. 144. 202. 185. 179. 131. 153. 117. 172. 524. 239. 442.
      290. 552. 255. 329. 98. 336. 133. 424. 202. 271. 146. 290. 1622.
      229. 648. 168. 784. 200. 405. 174. 1039. 205. 757. 201. 928. 199.
      564. 166. 152. 251. 206. 369. 153. 166. 253. 259. 248. 247. 252.
      231. 165. 165. 138. 179. 375. 149. 223. 116. 416. 171. 324. 162.
      389. 137. 355. 132. 527. 161. 448. 109. 152. 210. 146. 230. 209.
      211. 267. 295. 127. 195. 223. 198. 182. 141. 214. 196. 167. 204.
      186. 240. 227. 184. 143. 163. 155. 206. 217. 187. 117. 116. 154.
      125. 169. 465. 176. 617. 130. 336. 79. 377. 202. 374. 253. 488.
      87. 233. 69. 351. 158. 162. 125. 270. 266. 234. 166. 288. 146.
      148. 178. 209. 265. 293. 305. 267. 125. 555. 261. 758. 165. 860.
      130. 752. 158. 413. 208. 625. 233. 562. 239. 1169. 253. 101. 196.
      160. 353. 117. 287. 191. 503. 164. 506. 123. 695. 160. 465. 176.
      101. 146. 93. 173. 101. 137. 88. 177. 436. 196. 375. 132. 127.
      192. 155. 319. 279. 147. 392. 210. 1109. 188. 734. 288. 624. 173.
      797. 170. 1689. 302. 1223. 275. 97. 197. 90. 277. 172. 343. 157.
      374. 164. 208. 206. 213. 315. 474. 349. 510.</_>
    <_>
      530. 313. 425. 288. 330. 265. 193. 167. 317. 230. 262. 228. 276.
      218. 187. 150. 328. 666. 216. 590. 252. 567. 183. 365. 180. 509.
      199. 755. 152. 270. 121. 293. 290. 244. 215. 214. 249. 203. 199.
      231. 189. 183. 258. 197. 214. 167. 294. 249. 168. 757. 200. 397.
      251. 531. 218. 446. 148. 255. 169. 348. 244. 251. 218. 363. 1225.
      218. 659. 279. 649. 180. 490. 159. 1023. 256. 853. 240. 785. 291.
      438. 185. 208. 224. 258. 351. 143. 148. 290. 247. 217. 245. 286.
      236. 185. 202. 194. 215. 492. 223. 247. 192. 375. 219. 392. 240.
      292. 172. 219. 133. 544. 202. 468. 192. 195. 268. 134. 191. 237.
      203. 400. 244. 132. 206. 149. 163. 201. 234. 235. 238. 225. 232.
      258. 271. 193. 215. 160. 210. 175. 203. 221. 189. 219. 199. 129.
      179. 292. 609. 195. 417. 141. 342. 114. 362. 300. 380. 396. 463.
      158. 243. 124. 554. 194. 204. 184. 223. 252. 306. 186. 242. 222.
      144. 207. 207. 329. 215. 267. 294. 177. 535. 278. 667. 150. 1328.
      165. 904. 238. 303. 335. 479. 226. 539. 218. 1176. 209. 119. 204.
      195. 366. 139. 242. 210. 449. 186. 554. 173. 514. 229. 383. 246.
      167. 162. 146. 150. 68. 166. 95. 211. 472. 265. 444. 202. 183.
      312. 157. 376. 259. 159. 303. 211. 748. 235. 533. 276. 617. 226.
      578. 226. 1005. 299. 860. 294. 140. 199. 159. 140. 167. 297. 176.
      264. 298. 184. 176. 204. 306. 448. 345. 516.</_>
    <_>
      519. 306. 431. 294. 342. 255. 209. 166. 338. 178. 313. 261. 347.
      201. 227. 128. 320. 777. 199. 624. 228. 475. 151. 363. 188. 496.
      245. 772. 170. 277. 127. 340. 313. 186. 188. 196. 224. 168. 214.
      228. 230. 152. 258. 191. 289. 144. 329. 214. 196. 660. 158. 412.
      242. 551. 197. 448. 130. 260. 139. 301. 231. 247. 227. 330. 1121.
      220. 649. 276. 636. 171. 537. 179. 959. 219. 855. 271. 774. 264.
      467. 190. 227. 303. 222. 369. 155. 151. 230. 283. 212. 249. 261.
      258. 178. 186. 225. 224. 448. 209. 296. 191. 329. 207. 411. 173.
      285. 168. 279. 119. 501. 235. 491. 196. 185. 280. 147. 212. 228.
      216. 417. 308. 157. 165. 157. 169. 180. 212. 249. 286. 260. 210.
      264. 268. 250. 184. 136. 162. 259. 204. 221. 198. 267. 183. 129.
      137. 217. 504. 127. 422. 101. 346. 87. 379. 352. 386. 361. 414.
      132. 222. 98. 460. 235. 182. 167. 220. 326. 302. 192. 268. 255.
      179. 244. 160. 414. 254. 312. 265. 137. 544. 260. 585. 227. 1455.
      190. 940. 235. 337. 287. 458. 235. 501. 239. 1114. 277. 97. 241.
      235. 361. 141. 250. 247. 407. 189. 533. 165. 595. 239. 379. 211.
      126. 191. 125. 189. 90. 143. 103. 236. 473. 259. 377. 215. 195.
      285. 142. 368. 255. 162. 323. 211. 721. 210. 550. 271. 601. 206.
      574. 190. 924. 314. 795. 314. 160. 205. 156. 217. 175. 303. 170.
      280. 258. 280. 176. 275. 297. 461. 378. 498.</_>
    <_>
      547. 345. 454. 377. 279. 238. 198. 191. 314. 191. 325. 241. 312.
      198. 234. 128. 367. 1051. 320. 833. 227. 501. 147. 407. 153. 533.
      217. 868. 173. 266. 109. 353. 320. 219. 196. 189. 227. 233. 195.
      231. 219. 127. 228. 175. 256. 151. 285. 200. 200. 798. 155. 427.
      218. 541. 206. 445. 158. 279. 151. 283. 225. 219. 172. 254. 1068.
      262. 610. 297. 629. 171. 494. 199. 927. 189. 778. 265. 750. 240.
      473. 209. 237. 302. 230. 365. 151. 155. 221. 270. 231. 230. 239.
      288. 170. 209. 215. 264. 381. 208. 279. 144. 371. 186. 441. 232.
      283. 135. 302. 127. 469. 216. 490. 224. 148. 252. 156. 199. 182.
      190. 393. 230. 157. 212. 126. 176. 219. 252. 223. 294. 227. 229.
      194. 210. 229. 218. 136. 148. 259. 231. 189. 190. 282. 165. 152.
      115. 229. 543. 152. 404. 112. 371. 86. 401. 322. 350. 407. 391.
      119. 175. 100. 510. 245. 151. 142. 211. 265. 297. 215. 298. 251.
      180. 226. 170. 427. 322. 310. 282. 179. 526. 198. 487. 238. 1495.
      176. 1024. 266. 255. 329. 476. 301. 473. 250. 1084. 244. 97. 235.
      215. 338. 168. 251. 216. 455. 173. 489. 206. 513. 239. 373. 226.
      136. 183. 148. 167. 89. 145. 101. 228. 561. 244. 329. 216. 192.
      287. 152. 413. 278. 126. 338. 203. 639. 196. 487. 245. 604. 201.
      547. 204. 897. 306. 725. 310. 178. 200. 154. 193. 162. 278. 208.
      300. 245. 280. 153. 238. 280. 559. 332. 596.</_>
    <_>
      7312. 221. 574. 249. 154. 146. 113. 120. 319. 245. 207. 191. 112.
      110. 83. 99. 235. 811. 240. 704. 204. 568. 118. 355. 227. 584.
      186. 1006. 132. 263. 69. 193. 678. 122. 270. 125. 151. 218. 432.
      178. 201. 80. 158. 86. 150. 96. 177. 102. 167. 266. 121. 961. 196.
      464. 331. 295. 157. 151. 78. 258. 130. 147. 80. 130. 1449. 188.
      675. 247. 760. 186. 494. 172. 1230. 156. 848. 141. 825. 111. 441.
      118. 337. 334. 195. 287. 119. 85. 164. 146. 196. 622. 160. 200.
      234. 327. 118. 133. 377. 113. 249. 138. 376. 182. 546. 192. 272.
      72. 245. 87. 503. 158. 569. 126. 123. 121. 102. 280. 162. 185.
      403. 727. 106. 140. 112. 119. 184. 225. 189. 190. 255. 220. 545.
      480. 149. 122. 149. 95. 321. 205. 173. 139. 180. 96. 156. 91. 121.
      489. 140. 430. 108. 178. 60. 248. 180. 360. 285. 275. 90. 104.
      100. 189. 146. 106. 349. 173. 236. 230. 744. 190. 255. 118. 145.
      161. 586. 247. 278. 240. 88. 236. 160. 929. 142. 770. 89. 662.
      134. 262. 218. 430. 215. 363. 182. 925. 192. 111. 168. 131. 325.
      103. 221. 181. 489. 94. 478. 103. 578. 303. 378. 134. 82. 130. 75.
      174. 87. 100. 85. 128. 438. 539. 361. 89. 144. 185. 130. 421. 255.
      107. 251. 142. 596. 222. 373. 297. 588. 111. 530. 203. 1066. 340.
      965. 273. 113. 118. 174. 194. 170. 229. 227. 240. 219. 159. 230.
      188. 366. 483. 443. 452.</_>
    <_>
      611. 443. 525. 331. 227. 191. 198. 170. 325. 283. 367. 222. 252.
      157. 164. 112. 383. 840. 357. 743. 233. 439. 176. 299. 246. 492.
      226. 622. 159. 280. 76. 199. 239. 141. 231. 154. 137. 325. 466.
      292. 226. 119. 205. 135. 303. 128. 191. 143. 167. 384. 253. 955.
      174. 392. 397. 273. 121. 138. 134. 198. 167. 200. 157. 191. 1267.
      247. 639. 243. 574. 258. 437. 187. 797. 251. 871. 199. 852. 223.
      495. 161. 261. 284. 231. 311. 152. 193. 223. 142. 362. 611. 330.
      221. 295. 385. 186. 108. 390. 155. 276. 148. 397. 233. 374. 180.
      372. 156. 382. 149. 446. 157. 341. 139. 179. 136. 134. 235. 296.
      193. 474. 691. 179. 184. 149. 144. 302. 252. 170. 174. 233. 393.
      269. 270. 202. 171. 212. 163. 332. 165. 227. 175. 275. 150. 186.
      141. 214. 381. 167. 403. 120. 247. 74. 234. 193. 463. 193. 339.
      102. 227. 77. 334. 155. 122. 484. 133. 227. 244. 643. 204. 236.
      132. 180. 132. 491. 210. 255. 285. 115. 312. 236. 938. 154. 950.
      125. 1130. 184. 274. 229. 452. 184. 494. 222. 1506. 341. 126. 310.
      190. 209. 165. 194. 164. 491. 166. 440. 175. 646. 392. 484. 179.
      168. 156. 139. 122. 125. 133. 98. 143. 298. 569. 210. 155. 191.
      300. 143. 446. 248. 98. 447. 165. 784. 176. 719. 212. 634. 140.
      823. 162. 1360. 304. 1046. 347. 136. 136. 150. 116. 169. 225. 197.
      179. 193. 168. 234. 195. 374. 548. 305. 505.</_>
    <_>
      684. 385. 580. 367. 251. 246. 218. 180. 396. 251. 363. 239. 231.
      166. 144. 132. 385. 730. 349. 760. 253. 378. 153. 342. 276. 481.
      195. 550. 207. 273. 74. 199. 221. 150. 188. 148. 165. 335. 455.
      297. 194. 99. 175. 129. 279. 137. 171. 120. 139. 349. 244. 956.
      164. 421. 343. 315. 131. 197. 128. 193. 163. 179. 152. 231. 1407.
      237. 664. 290. 569. 265. 389. 222. 784. 292. 902. 203. 835. 216.
      423. 135. 315. 284. 278. 299. 168. 175. 221. 178. 347. 625. 309.
      215. 285. 325. 139. 144. 325. 119. 211. 147. 368. 210. 430. 229.
      285. 142. 335. 117. 400. 185. 292. 121. 151. 148. 133. 259. 269.
      187. 385. 718. 152. 176. 177. 157. 306. 270. 181. 161. 221. 335.
      266. 326. 179. 139. 197. 119. 313. 215. 244. 160. 236. 153. 181.
      135. 165. 441. 175. 375. 132. 254. 108. 224. 190. 430. 231. 306.
      94. 230. 135. 397. 155. 124. 485. 137. 209. 202. 684. 254. 222.
      101. 160. 118. 355. 258. 334. 395. 104. 361. 247. 931. 123. 1004.
      117. 1066. 127. 252. 213. 453. 176. 458. 275. 1486. 252. 157. 245.
      195. 259. 143. 172. 149. 402. 191. 354. 149. 550. 322. 388. 154.
      145. 183. 140. 136. 150. 139. 94. 159. 268. 552. 226. 177. 204.
      276. 166. 644. 221. 101. 446. 133. 792. 202. 765. 214. 630. 166.
      820. 183. 1360. 357. 1138. 317. 134. 137. 148. 116. 145. 228. 147.
      186. 195. 172. 239. 176. 448. 855. 401. 703.</_>
    <_>
      623. 379. 374. 319. 265. 185. 147. 150. 362. 272. 338. 189. 219.
      161. 121. 95. 294. 1048. 293. 1030. 198. 620. 175. 456. 247. 526.
      267. 751. 111. 320. 84. 243. 189. 184. 135. 156. 126. 288. 122.
      258. 192. 135. 143. 112. 216. 144. 156. 114. 185. 507. 285. 608.
      263. 402. 409. 396. 117. 268. 92. 322. 161. 209. 81. 195. 1501.
      196. 691. 188. 580. 196. 429. 156. 912. 223. 1148. 165. 725. 176.
      507. 106. 199. 517. 266. 263. 102. 131. 192. 142. 271. 363. 232.
      222. 268. 448. 118. 104. 401. 96. 220. 103. 292. 191. 277. 156.
      350. 127. 356. 84. 283. 138. 288. 86. 110. 186. 98. 141. 295. 151.
      480. 199. 143. 203. 158. 115. 238. 153. 177. 138. 191. 190. 128.
      156. 162. 162. 168. 145. 359. 132. 190. 168. 250. 105. 91. 126.
      168. 608. 142. 788. 107. 342. 66. 327. 199. 449. 195. 498. 82.
      221. 101. 319. 102. 98. 449. 178. 185. 261. 498. 341. 155. 154.
      158. 175. 397. 293. 293. 398. 126. 413. 257. 940. 237. 1170. 189.
      1446. 158. 437. 282. 742. 281. 952. 286. 1952. 295. 101. 258. 167.
      220. 103. 142. 127. 431. 172. 353. 146. 514. 505. 260. 129. 100.
      106. 88. 121. 94. 100. 80. 165. 285. 243. 204. 158. 151. 210. 133.
      266. 202. 89. 296. 132. 753. 239. 730. 345. 419. 137. 632. 147.
      1829. 505. 1203. 492. 127. 136. 79. 181. 220. 345. 243. 316. 199.
      283. 206. 225. 377. 660. 394. 692.</_>
    <_>
      969. 192. 460. 182. 178. 134. 137. 125. 241. 178. 179. 199. 199.
      123. 138. 136. 210. 534. 192. 824. 267. 464. 157. 308. 184. 527.
      118. 658. 151. 394. 77. 235. 521. 129. 219. 142. 143. 330. 177.
      331. 289. 96. 188. 121. 172. 165. 197. 145. 202. 400. 178. 546.
      201. 492. 461. 310. 111. 187. 141. 235. 199. 262. 161. 260. 1216.
      216. 522. 240. 709. 226. 455. 219. 634. 149. 690. 160. 858. 146.
      427. 140. 295. 343. 307. 347. 169. 75. 172. 200. 276. 386. 222.
      177. 320. 469. 144. 172. 361. 130. 218. 129. 464. 243. 375. 161.
      345. 121. 333. 101. 464. 177. 555. 127. 131. 159. 140. 156. 199.
      150. 409. 202. 159. 149. 198. 153. 252. 273. 331. 186. 153. 159.
      164. 339. 172. 167. 422. 298. 435. 198. 221. 153. 208. 176. 134.
      177. 147. 552. 220. 562. 115. 267. 67. 308. 188. 479. 272. 408.
      98. 224. 96. 424. 164. 128. 211. 253. 256. 262. 250. 337. 231.
      168. 193. 202. 491. 365. 343. 462. 173. 474. 241. 1070. 272. 1006.
      428. 923. 158. 370. 214. 494. 368. 769. 347. 1409. 292. 98. 243.
      173. 348. 116. 228. 175. 383. 136. 459. 130. 705. 484. 346. 149.
      90. 131. 105. 228. 110. 113. 107. 162. 414. 293. 230. 172. 222.
      188. 179. 252. 229. 111. 397. 269. 840. 219. 678. 353. 471. 171.
      738. 247. 1224. 407. 1018. 331. 139. 210. 166. 333. 267. 345. 269.
      373. 282. 293. 216. 256. 401. 736. 384. 518.</_>
    <_>
      438. 252. 337. 206. 188. 156. 109. 124. 230. 210. 205. 197. 207.
      173. 104. 109. 234. 468. 175. 521. 255. 502. 162. 324. 198. 510.
      152. 554. 112. 331. 87. 300. 452. 155. 198. 159. 149. 293. 124.
      327. 227. 107. 193. 151. 224. 193. 131. 144. 178. 428. 225. 1017.
      231. 488. 672. 368. 160. 218. 131. 206. 215. 264. 179. 300. 1204.
      210. 571. 220. 618. 222. 419. 155. 690. 167. 779. 180. 777. 173.
      444. 146. 294. 386. 280. 354. 166. 118. 174. 238. 277. 586. 225.
      204. 289. 424. 145. 176. 341. 133. 200. 145. 479. 230. 343. 148.
      355. 121. 343. 98. 446. 143. 453. 125. 143. 182. 125. 250. 218.
      142. 422. 499. 131. 161. 220. 144. 275. 197. 219. 174. 140. 345.
      216. 409. 174. 166. 428. 222. 346. 180. 229. 150. 275. 168. 137.
      140. 160. 486. 183. 541. 129. 303. 83. 295. 187. 434. 239. 385.
      115. 238. 82. 357. 174. 113. 465. 226. 229. 220. 597. 328. 223.
      191. 243. 193. 538. 359. 291. 336. 174. 440. 236. 1032. 285. 860.
      166. 972. 182. 367. 249. 635. 329. 705. 330. 1292. 275. 81. 229.
      137. 295. 138. 273. 185. 406. 145. 425. 126. 695. 462. 417. 153.
      99. 151. 101. 152. 118. 124. 117. 189. 415. 548. 237. 171. 197.
      194. 155. 224. 265. 125. 344. 247. 873. 179. 728. 302. 449. 143.
      667. 227. 1340. 373. 982. 347. 154. 183. 134. 344. 244. 363. 247.
      366. 249. 309. 243. 241. 429. 700. 340. 554.</_>
    <_>
      630. 235. 320. 221. 237. 183. 109. 153. 255. 168. 245. 173. 131.
      130. 101. 103. 253. 610. 166. 742. 255. 435. 164. 357. 221. 535.
      147. 834. 109. 440. 90. 316. 383. 179. 178. 152. 146. 273. 120.
      301. 229. 127. 211. 123. 207. 186. 129. 148. 184. 540. 347. 635.
      197. 560. 332. 447. 120. 292. 124. 300. 151. 316. 130. 277. 1128.
      202. 573. 160. 692. 210. 385. 181. 596. 148. 705. 119. 806. 119.
      428. 112. 222. 606. 212. 288. 148. 118. 200. 188. 245. 385. 220.
      236. 338. 451. 113. 155. 378. 146. 168. 121. 448. 177. 308. 147.
      340. 134. 304. 88. 508. 168. 439. 116. 133. 235. 137. 228. 148.
      144. 434. 185. 119. 182. 182. 148. 279. 176. 309. 155. 122. 233.
      252. 293. 164. 203. 295. 156. 383. 143. 207. 171. 201. 139. 112.
      133. 170. 555. 198. 937. 105. 353. 80. 435. 195. 452. 290. 513.
      83. 261. 106. 372. 141. 130. 268. 258. 237. 282. 680. 364. 194.
      162. 212. 228. 478. 325. 282. 293. 150. 553. 327. 1143. 264. 1051.
      174. 1060. 156. 454. 273. 673. 262. 665. 302. 1265. 212. 95. 181.
      129. 304. 113. 250. 166. 394. 87. 424. 143. 850. 470. 350. 121.
      118. 147. 116. 187. 112. 114. 91. 158. 433. 315. 240. 195. 203.
      200. 137. 212. 223. 124. 358. 186. 794. 252. 676. 341. 521. 165.
      707. 207. 1350. 370. 1158. 322. 144. 240. 115. 276. 229. 346. 234.
      521. 256. 338. 251. 270. 345. 586. 429. 596.</_>
    <_>
      4639. 385. 489. 354. 181. 175. 87. 139. 440. 308. 280. 267. 161.
      123. 58. 96. 386. 1059. 343. 978. 294. 656. 118. 362. 303. 703.
      280. 1101. 126. 257. 61. 217. 605. 155. 203. 147. 166. 269. 129.
      206. 241. 90. 114. 118. 160. 93. 146. 102. 140. 430. 128. 1007.
      162. 468. 617. 343. 149. 216. 97. 249. 104. 138. 87. 234. 1359.
      217. 632. 268. 799. 180. 475. 147. 1146. 180. 851. 136. 761. 130.
      295. 85. 367. 389. 245. 452. 164. 110. 191. 127. 206. 609. 197.
      210. 240. 390. 94. 139. 343. 125. 144. 100. 422. 243. 504. 218.
      320. 98. 211. 76. 467. 125. 488. 164. 85. 113. 73. 237. 200. 158.
      436. 418. 85. 110. 99. 110. 174. 184. 201. 136. 197. 151. 416.
      451. 154. 127. 93. 117. 337. 187. 143. 141. 176. 100. 140. 106.
      94. 548. 177. 448. 62. 197. 56. 352. 206. 447. 309. 447. 79. 127.
      83. 289. 114. 122. 362. 178. 238. 207. 490. 183. 238. 121. 163.
      156. 606. 200. 301. 231. 77. 337. 162. 1017. 159. 907. 87. 742.
      92. 254. 197. 411. 205. 315. 192. 1010. 175. 73. 137. 89. 296.
      107. 210. 143. 538. 121. 504. 103. 603. 282. 371. 111. 85. 100.
      92. 148. 70. 79. 56. 155. 465. 489. 405. 95. 182. 191. 93. 455.
      266. 75. 247. 130. 749. 225. 600. 280. 673. 122. 688. 230. 1380.
      312. 1178. 333. 104. 115. 129. 138. 177. 242. 216. 193. 176. 186.
      218. 171. 349. 427. 399. 421.</_>
    <_>
      6705. 316. 646. 331. 263. 218. 109. 100. 321. 206. 269. 241. 216.
      171. 127. 89. 352. 573. 208. 476. 258. 383. 99. 234. 189. 366.
      215. 757. 170. 223. 105. 215. 722. 177. 214. 174. 187. 236. 163.
      233. 265. 140. 176. 113. 168. 143. 132. 190. 223. 398. 160. 1130.
      199. 390. 556. 313. 185. 166. 119. 269. 185. 166. 121. 231. 1019.
      247. 464. 261. 526. 177. 412. 199. 745. 175. 495. 136. 603. 165.
      289. 150. 424. 419. 221. 311. 126. 93. 151. 157. 233. 726. 253.
      271. 316. 387. 150. 164. 301. 138. 194. 126. 356. 167. 484. 266.
      285. 124. 286. 84. 347. 146. 507. 142. 123. 128. 133. 282. 264.
      151. 476. 444. 117. 136. 92. 95. 212. 328. 183. 151. 237. 177.
      538. 548. 161. 129. 110. 128. 388. 207. 195. 114. 168. 83. 103.
      147. 153. 559. 113. 326. 76. 248. 73. 288. 248. 463. 300. 366.
      106. 213. 92. 342. 113. 103. 254. 173. 205. 268. 542. 232. 250.
      177. 148. 170. 459. 216. 293. 350. 117. 378. 142. 833. 202. 1362.
      100. 901. 201. 209. 230. 481. 205. 361. 182. 1113. 260. 109. 126.
      128. 303. 127. 194. 141. 590. 127. 550. 121. 498. 295. 325. 105.
      87. 130. 91. 120. 72. 88. 58. 134. 478. 539. 318. 148. 137. 219.
      125. 744. 224. 72. 320. 137. 577. 198. 484. 225. 609. 184. 604.
      225. 948. 280. 961. 263. 76. 132. 105. 130. 179. 273. 199. 215.
      176. 209. 182. 197. 232. 442. 313. 445.</_>
    <_>
      7074. 235. 615. 230. 202. 190. 126. 102. 286. 208. 200. 217. 184.
      138. 91. 142. 300. 425. 257. 413. 261. 334. 104. 204. 191. 359.
      207. 610. 152. 243. 108. 272. 728. 134. 164. 135. 152. 288. 130.
      239. 241. 124. 164. 128. 135. 136. 130. 159. 224. 479. 137. 1067.
      216. 481. 473. 315. 247. 153. 116. 173. 177. 180. 110. 198. 1067.
      226. 477. 246. 639. 224. 457. 199. 747. 149. 503. 122. 737. 130.
      252. 139. 399. 338. 220. 260. 131. 88. 191. 155. 220. 697. 204.
      240. 423. 405. 115. 163. 336. 110. 203. 125. 319. 165. 703. 198.
      241. 128. 199. 121. 290. 136. 499. 131. 133. 129. 132. 375. 188.
      166. 517. 438. 104. 160. 84. 109. 233. 353. 346. 140. 272. 130.
      533. 635. 138. 142. 101. 134. 445. 206. 125. 153. 241. 111. 110.
      135. 132. 539. 137. 315. 86. 224. 83. 287. 286. 495. 308. 366. 76.
      147. 85. 374. 125. 124. 87. 139. 249. 275. 696. 246. 284. 150.
      118. 144. 514. 243. 283. 310. 110. 387. 169. 984. 166. 1389. 105.
      957. 154. 164. 278. 414. 223. 352. 176. 1104. 280. 125. 193. 126.
      245. 127. 173. 105. 533. 111. 386. 131. 463. 371. 324. 110. 112.
      139. 99. 144. 80. 92. 78. 116. 456. 626. 345. 164. 188. 212. 116.
      877. 162. 90. 307. 135. 595. 232. 468. 179. 561. 183. 638. 225.
      915. 290. 959. 293. 110. 114. 154. 149. 165. 255. 196. 208. 169.
      187. 243. 192. 195. 484. 323. 420.</_>
    <_>
      3981. 303. 639. 289. 280. 247. 123. 136. 319. 229. 261. 269. 215.
      185. 136. 111. 334. 508. 263. 448. 257. 412. 148. 247. 183. 402.
      215. 731. 158. 259. 136. 239. 616. 150. 196. 145. 193. 219. 477.
      240. 246. 133. 201. 140. 180. 127. 172. 182. 207. 349. 161. 1120.
      174. 349. 286. 331. 175. 185. 157. 216. 184. 149. 122. 234. 1172.
      234. 541. 274. 588. 200. 448. 210. 681. 207. 554. 171. 634. 187.
      317. 159. 380. 411. 262. 323. 149. 127. 202. 184. 266. 704. 253.
      238. 312. 349. 174. 157. 409. 141. 211. 129. 357. 180. 456. 265.
      312. 128. 266. 108. 416. 161. 593. 169. 131. 145. 152. 282. 233.
      166. 498. 746. 120. 187. 104. 125. 221. 303. 175. 145. 257. 210.
      546. 516. 149. 163. 105. 123. 375. 191. 168. 135. 214. 87. 155.
      124. 144. 556. 91. 297. 74. 205. 77. 267. 303. 459. 347. 351. 83.
      147. 85. 280. 140. 119. 315. 128. 269. 285. 769. 237. 320. 165.
      155. 180. 481. 233. 286. 381. 125. 408. 92. 846. 162. 1433. 81.
      856. 165. 216. 248. 484. 255. 388. 179. 1008. 238. 90. 189. 139.
      355. 139. 249. 136. 605. 129. 506. 111. 565. 300. 354. 140. 103.
      164. 112. 120. 63. 75. 92. 126. 502. 586. 392. 130. 162. 224. 111.
      878. 237. 69. 331. 144. 619. 221. 564. 187. 710. 166. 635. 231.
      976. 315. 941. 305. 90. 131. 124. 100. 171. 269. 191. 199. 176.
      233. 202. 167. 222. 548. 302. 465.</_>
    <_>
      1218. 262. 481. 200. 198. 222. 112. 143. 243. 201. 226. 188. 107.
      144. 69. 76. 198. 686. 234. 653. 286. 382. 185. 318. 176. 548.
      182. 769. 119. 428. 89. 300. 424. 146. 189. 164. 120. 278. 105.
      275. 206. 164. 161. 144. 164. 180. 118. 137. 181. 493. 363. 591.
      221. 511. 302. 351. 117. 238. 116. 355. 133. 240. 140. 281. 1107.
      237. 538. 177. 619. 172. 324. 171. 607. 195. 555. 125. 710. 137.
      357. 75. 289. 658. 249. 267. 111. 125. 177. 178. 261. 385. 226.
      183. 387. 417. 104. 121. 337. 153. 149. 120. 456. 199. 258. 159.
      246. 137. 247. 83. 470. 152. 313. 108. 132. 232. 101. 220. 151.
      187. 484. 228. 101. 163. 137. 110. 229. 233. 340. 150. 188. 163.
      646. 244. 136. 153. 107. 141. 407. 142. 176. 176. 125. 79. 96.
      108. 116. 518. 158. 966. 78. 317. 45. 346. 201. 480. 287. 517. 72.
      259. 97. 388. 105. 110. 288. 247. 205. 247. 715. 387. 189. 187.
      189. 261. 457. 317. 355. 510. 142. 606. 304. 1358. 210. 1010. 106.
      970. 209. 454. 268. 751. 357. 769. 312. 1550. 192. 63. 144. 104.
      244. 106. 196. 183. 434. 94. 390. 123. 719. 392. 273. 132. 80.
      148. 72. 178. 79. 106. 42. 179. 444. 321. 334. 174. 160. 297. 149.
      973. 199. 80. 310. 156. 822. 275. 651. 410. 450. 149. 662. 194.
      1364. 450. 1128. 466. 109. 234. 85. 271. 158. 376. 184. 482. 197.
      354. 247. 235. 430. 838. 388. 564.</_>
    <_>
      1159. 220. 519. 180. 166. 199. 109. 171. 181. 212. 209. 195. 156.
      172. 91. 81. 268. 573. 205. 647. 284. 389. 184. 312. 173. 527.
      152. 636. 155. 394. 47. 323. 417. 163. 241. 174. 125. 224. 396.
      283. 252. 147. 193. 128. 184. 181. 162. 151. 168. 435. 253. 955.
      251. 546. 293. 386. 99. 222. 114. 260. 180. 288. 143. 303. 1168.
      211. 576. 167. 597. 217. 364. 154. 681. 171. 564. 121. 766. 123.
      391. 96. 273. 328. 238. 358. 144. 94. 143. 194. 302. 581. 212.
      179. 358. 426. 118. 146. 349. 139. 190. 115. 379. 213. 272. 140.
      309. 130. 303. 86. 450. 162. 376. 157. 136. 206. 118. 318. 182.
      194. 491. 850. 119. 188. 186. 141. 254. 226. 300. 204. 166. 289.
      466. 477. 146. 178. 280. 121. 272. 218. 186. 219. 249. 143. 124.
      148. 135. 480. 168. 559. 77. 308. 64. 270. 194. 471. 284. 475. 87.
      211. 90. 402. 139. 126. 280. 248. 242. 248. 1026. 332. 240. 215.
      173. 262. 384. 239. 326. 411. 169. 473. 301. 1197. 223. 829. 109.
      677. 156. 472. 247. 619. 251. 618. 304. 1249. 239. 86. 162. 127.
      289. 114. 221. 173. 381. 99. 402. 132. 692. 424. 360. 162. 96.
      139. 80. 164. 73. 102. 68. 165. 419. 540. 312. 147. 153. 264. 176.
      884. 238. 132. 364. 192. 787. 226. 632. 354. 464. 183. 695. 203.
      1234. 323. 1042. 372. 95. 193. 103. 322. 163. 345. 199. 359. 212.
      313. 239. 270. 446. 680. 364. 519.</_>
    <_>
      508. 305. 469. 240. 214. 179. 160. 146. 249. 186. 248. 209. 167.
      152. 107. 100. 268. 676. 238. 651. 344. 498. 196. 305. 205. 630.
      184. 755. 140. 492. 89. 380. 467. 169. 218. 197. 137. 260. 121.
      275. 220. 142. 179. 156. 185. 176. 136. 139. 174. 520. 205. 404.
      224. 601. 551. 365. 102. 252. 107. 349. 180. 291. 158. 296. 1145.
      199. 565. 187. 624. 250. 398. 166. 719. 175. 591. 137. 735. 130.
      409. 111. 231. 469. 245. 326. 155. 128. 197. 196. 276. 378. 228.
      163. 393. 439. 109. 113. 359. 126. 177. 115. 454. 200. 259. 169.
      311. 124. 296. 97. 418. 150. 340. 116. 136. 172. 124. 155. 136.
      202. 627. 230. 107. 176. 168. 149. 234. 229. 167. 207. 112. 207.
      196. 268. 139. 185. 531. 153. 335. 206. 199. 173. 192. 125. 97.
      128. 144. 730. 202. 740. 75. 312. 54. 333. 223. 455. 290. 565. 96.
      213. 83. 464. 133. 139. 295. 242. 226. 271. 270. 299. 187. 179.
      203. 274. 477. 327. 286. 354. 167. 633. 391. 887. 278. 1194. 185.
      986. 165. 489. 274. 667. 311. 748. 301. 1517. 221. 79. 193. 139.
      293. 119. 192. 189. 490. 119. 416. 139. 760. 445. 334. 127. 112.
      172. 82. 140. 76. 135. 70. 176. 498. 317. 354. 202. 167. 181. 151.
      209. 193. 100. 332. 206. 803. 246. 694. 371. 464. 177. 669. 213.
      1277. 508. 999. 444. 94. 206. 110. 403. 182. 319. 264. 455. 189.
      268. 236. 262. 425. 670. 395. 586.</_>
    <_>
      3932. 403. 577. 402. 151. 176. 121. 125. 386. 260. 237. 298. 144.
      101. 99. 98. 382. 1188. 288. 927. 248. 633. 140. 333. 304. 765.
      228. 1034. 123. 249. 71. 201. 530. 150. 181. 171. 139. 255. 445.
      225. 233. 97. 115. 114. 184. 122. 120. 102. 156. 542. 129. 1025.
      245. 617. 377. 368. 169. 233. 65. 340. 119. 196. 97. 217. 1473.
      220. 636. 322. 776. 163. 410. 204. 1069. 151. 626. 141. 638. 90.
      249. 101. 374. 361. 231. 394. 128. 133. 159. 151. 233. 599. 174.
      248. 306. 350. 109. 129. 285. 93. 203. 129. 370. 219. 542. 177.
      195. 77. 153. 89. 426. 103. 528. 134. 104. 169. 119. 290. 153.
      182. 485. 734. 87. 116. 123. 107. 212. 207. 250. 156. 200. 180.
      419. 559. 126. 94. 104. 132. 328. 161. 111. 165. 186. 106. 138.
      126. 149. 630. 153. 453. 67. 195. 80. 423. 189. 451. 384. 444. 78.
      137. 72. 372. 145. 125. 320. 191. 224. 209. 829. 209. 266. 119.
      134. 160. 691. 256. 256. 240. 67. 309. 240. 1001. 149. 757. 154.
      717. 98. 208. 162. 407. 249. 352. 208. 874. 177. 77. 126. 137.
      252. 91. 164. 190. 547. 96. 471. 86. 542. 359. 335. 79. 72. 134.
      53. 199. 60. 97. 56. 142. 482. 515. 420. 130. 165. 259. 102. 565.
      238. 89. 279. 154. 646. 166. 499. 284. 530. 161. 588. 253. 1292.
      328. 1138. 261. 85. 136. 167. 199. 210. 288. 198. 218. 164. 196.
      220. 161. 309. 435. 360. 363.</_>
    <_>
      7254. 374. 554. 331. 148. 160. 93. 124. 462. 296. 236. 270. 132.
      88. 80. 111. 344. 1062. 277. 850. 245. 611. 135. 340. 292. 688.
      217. 973. 123. 274. 55. 255. 531. 148. 259. 165. 128. 248. 429.
      178. 208. 98. 116. 93. 148. 126. 111. 78. 163. 543. 178. 1031.
      196. 510. 373. 364. 143. 197. 84. 304. 98. 191. 74. 247. 1254.
      229. 551. 279. 652. 160. 348. 189. 1138. 143. 799. 124. 671. 123.
      268. 136. 359. 378. 195. 425. 130. 110. 154. 133. 150. 576. 182.
      241. 219. 393. 120. 157. 274. 84. 176. 117. 338. 199. 457. 177.
      205. 87. 163. 77. 428. 114. 491. 134. 81. 113. 80. 241. 155. 180.
      426. 707. 70. 186. 144. 126. 190. 219. 184. 163. 232. 149. 463.
      454. 165. 90. 139. 145. 308. 219. 145. 144. 204. 86. 114. 113.
      153. 587. 159. 466. 81. 213. 65. 334. 174. 460. 300. 413. 75. 92.
      74. 330. 116. 124. 335. 173. 230. 230. 787. 231. 255. 106. 150.
      153. 511. 245. 252. 247. 87. 283. 229. 898. 137. 677. 158. 613.
      103. 206. 193. 456. 192. 283. 178. 877. 136. 68. 132. 96. 302.
      114. 151. 141. 466. 102. 420. 79. 488. 297. 322. 115. 113. 117.
      51. 178. 83. 103. 45. 136. 408. 471. 367. 119. 152. 126. 87. 494.
      257. 114. 278. 119. 679. 184. 492. 267. 560. 114. 614. 256. 1255.
      285. 1127. 225. 113. 143. 137. 178. 174. 275. 175. 199. 193. 176.
      195. 158. 378. 452. 368. 334.</_>
    <_>
      7432. 255. 658. 280. 201. 209. 146. 139. 331. 236. 246. 201. 188.
      148. 111. 109. 360. 564. 233. 432. 242. 294. 120. 248. 202. 494.
      195. 574. 166. 241. 85. 228. 711. 131. 206. 140. 160. 260. 423.
      283. 269. 84. 149. 109. 187. 141. 132. 121. 203. 473. 133. 1147.
      252. 472. 242. 316. 188. 157. 100. 215. 168. 169. 107. 250. 1157.
      216. 533. 243. 478. 162. 514. 186. 701. 161. 461. 138. 559. 164.
      252. 152. 384. 381. 264. 312. 116. 72. 156. 184. 235. 684. 206.
      276. 397. 451. 149. 195. 267. 138. 197. 133. 240. 153. 605. 185.
      278. 102. 283. 76. 292. 150. 516. 160. 99. 151. 131. 338. 173.
      161. 612. 755. 105. 176. 116. 118. 191. 367. 377. 184. 259. 128.
      556. 616. 177. 157. 106. 113. 438. 206. 137. 185. 228. 95. 129.
      141. 165. 556. 113. 345. 76. 261. 85. 313. 279. 503. 265. 411.
      121. 171. 114. 414. 146. 125. 127. 118. 194. 229. 936. 263. 293.
      126. 135. 128. 417. 201. 216. 298. 79. 404. 122. 879. 173. 1097.
      168. 780. 196. 172. 281. 451. 193. 281. 128. 946. 256. 139. 175.
      150. 307. 131. 171. 176. 523. 119. 474. 145. 538. 387. 273. 109.
      93. 129. 114. 169. 82. 96. 73. 118. 331. 593. 316. 200. 177. 212.
      85. 883. 218. 91. 294. 99. 508. 190. 409. 162. 624. 122. 638. 175.
      780. 179. 754. 213. 103. 160. 153. 143. 154. 263. 155. 166. 219.
      141. 206. 225. 200. 464. 217. 432.</_>
    <_>
      520. 244. 448. 217. 190. 235. 126. 159. 235. 193. 217. 187. 127.
      136. 102. 80. 212. 514. 188. 587. 349. 405. 124. 231. 193. 516.
      149. 679. 112. 376. 78. 301. 418. 172. 223. 153. 116. 284. 105.
      336. 263. 124. 214. 118. 163. 163. 146. 140. 168. 475. 353. 615.
      254. 537. 399. 347. 158. 250. 140. 301. 139. 250. 172. 220. 1169.
      232. 508. 151. 499. 198. 340. 144. 637. 147. 534. 129. 775. 124.
      470. 102. 277. 703. 248. 303. 107. 87. 178. 190. 258. 391. 197.
      201. 377. 441. 117. 173. 336. 143. 152. 134. 431. 204. 233. 186.
      284. 125. 263. 112. 355. 162. 362. 105. 119. 238. 140. 224. 137.
      164. 471. 258. 133. 192. 188. 157. 258. 245. 351. 183. 204. 172.
      521. 245. 173. 190. 262. 150. 368. 117. 199. 174. 147. 114. 136.
      122. 148. 574. 233. 899. 89. 331. 49. 404. 234. 511. 372. 561. 64.
      230. 96. 381. 158. 120. 290. 239. 235. 262. 712. 370. 212. 171.
      180. 248. 571. 318. 409. 451. 202. 568. 312. 1206. 192. 1132. 131.
      1095. 152. 390. 240. 691. 329. 772. 312. 1539. 203. 73. 171. 128.
      301. 151. 199. 163. 435. 80. 364. 128. 671. 440. 305. 166. 109.
      186. 106. 133. 74. 96. 76. 139. 453. 376. 322. 153. 180. 295. 167.
      871. 223. 101. 324. 209. 699. 272. 629. 358. 445. 161. 593. 182.
      1299. 475. 1039. 449. 88. 246. 100. 351. 221. 304. 189. 524. 184.
      306. 249. 271. 454. 710. 382. 572.</_>
    <_>
      767. 417. 532. 287. 277. 217. 192. 153. 409. 281. 434. 217. 267.
      156. 147. 89. 300. 926. 319. 967. 268. 446. 141. 297. 259. 506.
      267. 597. 123. 297. 78. 200. 205. 153. 135. 152. 127. 282. 128.
      204. 191. 120. 154. 133. 180. 109. 136. 107. 131. 519. 323. 535.
      217. 511. 404. 348. 96. 213. 113. 238. 207. 195. 102. 229. 1671.
      263. 893. 294. 622. 201. 385. 146. 1149. 267. 984. 202. 736. 207.
      445. 83. 256. 478. 294. 321. 156. 148. 172. 150. 332. 361. 280.
      192. 293. 508. 122. 139. 380. 137. 207. 111. 330. 158. 268. 141.
      384. 116. 346. 87. 321. 140. 347. 107. 127. 201. 107. 111. 240.
      151. 588. 135. 141. 196. 117. 102. 207. 171. 129. 160. 139. 163.
      126. 195. 180. 173. 144. 180. 342. 185. 185. 190. 264. 143. 97.
      113. 169. 439. 133. 689. 85. 269. 76. 310. 235. 444. 214. 371. 73.
      201. 92. 387. 151. 125. 511. 131. 238. 257. 450. 299. 171. 101.
      174. 129. 411. 249. 256. 295. 126. 343. 264. 753. 172. 1195. 112.
      1665. 187. 335. 257. 590. 231. 862. 212. 2152. 279. 84. 231. 99.
      258. 105. 158. 105. 412. 173. 522. 182. 475. 451. 347. 123. 96.
      124. 82. 124. 70. 118. 89. 187. 321. 348. 196. 158. 120. 185. 112.
      314. 221. 98. 373. 127. 826. 224. 757. 287. 561. 139. 769. 226.
      1696. 406. 1302. 426. 82. 126. 70. 106. 234. 327. 186. 326. 214.
      284. 180. 184. 486. 612. 354. 590.</_>
    <_>
      2930. 264. 641. 231. 191. 183. 171. 148. 338. 205. 255. 232. 155.
      152. 123. 89. 212. 316. 241. 377. 262. 514. 105. 293. 245. 440.
      198. 858. 146. 270. 124. 196. 635. 147. 253. 153. 182. 223. 434.
      289. 358. 92. 138. 148. 209. 126. 182. 213. 181. 256. 149. 1051.
      278. 337. 308. 274. 238. 138. 128. 189. 174. 180. 108. 206. 1359.
      213. 674. 244. 575. 221. 491. 251. 983. 183. 814. 149. 831. 189.
      358. 156. 449. 322. 309. 238. 126. 122. 181. 172. 256. 696. 260.
      212. 279. 295. 213. 145. 415. 174. 219. 167. 376. 182. 657. 227.
      291. 123. 271. 121. 363. 162. 701. 194. 147. 159. 163. 373. 241.
      193. 528. 716. 127. 171. 147. 116. 215. 295. 200. 150. 395. 241.
      580. 471. 208. 177. 146. 121. 362. 232. 207. 166. 234. 108. 165.
      115. 118. 549. 127. 239. 93. 238. 91. 218. 283. 577. 310. 275. 89.
      131. 116. 291. 166. 111. 357. 155. 263. 254. 666. 260. 301. 148.
      134. 156. 511. 252. 273. 291. 136. 311. 128. 857. 187. 1187. 120.
      773. 203. 227. 240. 437. 221. 438. 211. 937. 319. 170. 168. 157.
      354. 152. 223. 174. 624. 159. 547. 129. 501. 251. 382. 160. 100.
      148. 109. 127. 89. 101. 99. 150. 465. 666. 352. 162. 141. 206.
      159. 808. 200. 94. 324. 131. 665. 213. 405. 258. 628. 147. 711.
      271. 887. 235. 977. 271. 122. 136. 133. 170. 168. 268. 194. 220.
      185. 179. 188. 187. 251. 435. 410. 569.</_>
    <_>
      678. 182. 380. 225. 135. 155. 143. 147. 229. 178. 248. 185. 160.
      126. 131. 77. 248. 513. 229. 652. 185. 396. 140. 321. 188. 555.
      159. 632. 185. 344. 76. 243. 457. 146. 173. 144. 124. 268. 136.
      316. 235. 128. 208. 130. 198. 130. 138. 166. 176. 413. 188. 971.
      236. 419. 646. 346. 138. 211. 149. 233. 197. 217. 125. 268. 1158.
      178. 592. 193. 649. 202. 440. 177. 715. 155. 658. 154. 832. 166.
      581. 111. 256. 423. 264. 342. 113. 96. 192. 229. 302. 633. 210.
      223. 308. 519. 141. 156. 378. 148. 183. 119. 421. 211. 368. 149.
      473. 141. 352. 124. 494. 133. 529. 114. 150. 163. 122. 283. 159.
      136. 448. 494. 131. 148. 161. 130. 240. 279. 327. 190. 143. 300.
      193. 492. 167. 196. 451. 198. 341. 192. 195. 162. 240. 116. 140.
      131. 187. 419. 187. 495. 100. 250. 77. 240. 135. 467. 190. 412.
      86. 193. 92. 327. 181. 136. 274. 212. 294. 252. 786. 294. 228.
      149. 177. 203. 463. 251. 330. 324. 158. 407. 213. 1210. 185. 1199.
      143. 1057. 151. 339. 216. 603. 300. 656. 331. 1341. 308. 62. 264.
      136. 346. 138. 293. 190. 485. 129. 444. 121. 786. 446. 417. 156.
      100. 136. 92. 112. 72. 108. 96. 191. 395. 577. 234. 148. 194. 270.
      175. 236. 262. 95. 375. 214. 757. 209. 659. 293. 495. 160. 669.
      175. 1388. 396. 1106. 342. 153. 158. 107. 250. 202. 282. 257. 433.
      185. 289. 198. 214. 445. 787. 482. 588.</_>
    <_>
      4039. 184. 445. 190. 154. 193. 128. 171. 199. 195. 218. 181. 143.
      144. 126. 74. 286. 552. 248. 591. 216. 412. 158. 268. 193. 523.
      185. 602. 177. 293. 52. 212. 333. 132. 162. 146. 139. 263. 390.
      320. 200. 119. 180. 133. 195. 150. 146. 124. 168. 354. 178. 909.
      183. 456. 364. 368. 85. 182. 119. 221. 167. 182. 135. 246. 1181.
      167. 644. 150. 676. 204. 460. 154. 742. 182. 672. 167. 814. 163.
      513. 99. 212. 268. 248. 315. 134. 103. 189. 169. 298. 634. 272.
      185. 290. 410. 99. 110. 339. 104. 168. 115. 466. 222. 379. 195.
      455. 127. 316. 97. 501. 141. 455. 111. 110. 159. 120. 298. 166.
      167. 445. 804. 106. 176. 144. 123. 260. 245. 212. 182. 159. 323.
      573. 406. 148. 154. 110. 112. 305. 164. 214. 150. 251. 109. 111.
      117. 111. 462. 160. 516. 85. 261. 81. 269. 155. 421. 177. 456.
      114. 223. 91. 351. 178. 82. 296. 181. 247. 182. 846. 323. 183.
      131. 171. 194. 446. 267. 261. 377. 154. 406. 206. 1154. 188. 955.
      136. 881. 131. 361. 195. 494. 277. 638. 268. 1260. 258. 63. 269.
      122. 301. 90. 224. 166. 523. 142. 506. 121. 729. 417. 385. 139.
      88. 127. 89. 136. 88. 125. 85. 161. 320. 506. 255. 131. 173. 340.
      159. 984. 232. 106. 379. 153. 771. 186. 618. 242. 498. 191. 757.
      132. 1134. 288. 962. 269. 116. 134. 110. 194. 202. 259. 211. 346.
      209. 272. 204. 210. 381. 598. 262. 511.</_>
    <_>
      1108. 268. 540. 207. 185. 189. 159. 162. 225. 200. 259. 215. 169.
      167. 165. 90. 249. 494. 292. 629. 192. 450. 120. 331. 219. 471.
      159. 600. 152. 323. 102. 218. 351. 205. 163. 155. 203. 316. 127.
      340. 320. 115. 222. 144. 228. 171. 191. 129. 135. 282. 244. 921.
      228. 481. 540. 366. 101. 162. 140. 218. 179. 205. 166. 266. 1220.
      191. 630. 189. 685. 228. 438. 158. 716. 187. 693. 165. 872. 176.
      505. 130. 277. 556. 301. 352. 135. 79. 163. 197. 348. 378. 239.
      208. 295. 470. 202. 143. 433. 128. 160. 122. 439. 248. 364. 190.
      452. 133. 388. 121. 411. 174. 540. 162. 151. 191. 145. 139. 202.
      169. 541. 158. 178. 217. 198. 171. 243. 268. 251. 167. 229. 400.
      609. 393. 217. 199. 124. 132. 315. 254. 180. 171. 261. 103. 130.
      138. 140. 434. 180. 563. 78. 244. 66. 265. 204. 475. 258. 394.
      112. 275. 90. 333. 234. 145. 333. 176. 225. 222. 523. 280. 206.
      174. 184. 253. 420. 249. 274. 380. 157. 380. 218. 1064. 181. 848.
      146. 818. 161. 374. 208. 491. 332. 526. 293. 1190. 280. 68. 281.
      145. 350. 122. 293. 219. 472. 119. 493. 131. 711. 438. 541. 203.
      99. 124. 96. 161. 81. 140. 93. 159. 398. 543. 244. 117. 186. 342.
      191. 1002. 297. 108. 439. 194. 824. 201. 642. 276. 598. 161. 752.
      169. 1244. 282. 896. 266. 137. 165. 116. 282. 190. 252. 219. 341.
      208. 259. 176. 175. 356. 559. 328. 512.</_>
    <_>
      2396. 222. 412. 215. 202. 217. 155. 163. 233. 199. 236. 205. 191.
      162. 114. 100. 313. 502. 270. 588. 213. 396. 157. 351. 227. 468.
      222. 584. 174. 361. 100. 218. 349. 138. 174. 114. 145. 275. 421.
      336. 264. 123. 197. 133. 212. 132. 192. 140. 157. 305. 200. 973.
      198. 422. 395. 306. 109. 167. 113. 234. 173. 237. 142. 216. 1119.
      203. 659. 210. 665. 228. 417. 142. 651. 197. 643. 155. 828. 179.
      460. 118. 232. 327. 277. 327. 163. 110. 158. 188. 322. 618. 259.
      196. 289. 422. 163. 126. 373. 108. 193. 100. 437. 240. 353. 159.
      399. 164. 330. 116. 509. 187. 483. 135. 149. 131. 119. 282. 236.
      206. 374. 791. 127. 186. 187. 153. 209. 198. 219. 190. 128. 428.
      180. 353. 156. 186. 314. 256. 335. 147. 216. 166. 242. 137. 128.
      138. 150. 391. 190. 555. 84. 254. 62. 278. 178. 420. 266. 358.
      118. 214. 88. 326. 178. 114. 464. 156. 278. 199. 728. 275. 257.
      129. 216. 206. 470. 257. 335. 359. 139. 421. 230. 1065. 164. 867.
      151. 794. 131. 389. 166. 529. 313. 619. 278. 1264. 204. 79. 264.
      156. 322. 106. 272. 226. 447. 108. 489. 136. 739. 411. 492. 154.
      85. 139. 105. 127. 70. 139. 87. 180. 387. 559. 277. 140. 184. 237.
      175. 193. 272. 99. 387. 215. 825. 213. 677. 339. 613. 181. 711.
      151. 1241. 321. 1089. 331. 148. 156. 118. 269. 215. 230. 185. 336.
      216. 277. 202. 228. 444. 563. 350. 574.</_>
    <_>
      537. 165. 376. 211. 159. 199. 125. 162. 241. 187. 173. 206. 174.
      163. 115. 116. 223. 340. 242. 492. 207. 373. 141. 296. 219. 436.
      125. 651. 164. 395. 68. 323. 539. 157. 203. 142. 153. 229. 146.
      291. 271. 117. 241. 137. 200. 160. 191. 150. 154. 286. 169. 968.
      195. 430. 659. 295. 137. 176. 124. 235. 196. 271. 153. 219. 1133.
      150. 563. 182. 576. 233. 492. 132. 687. 122. 651. 167. 763. 162.
      478. 120. 262. 389. 241. 306. 142. 133. 189. 211. 286. 677. 220.
      225. 364. 474. 156. 198. 397. 157. 209. 135. 499. 244. 412. 197.
      354. 120. 341. 102. 568. 201. 577. 148. 160. 141. 140. 355. 197.
      173. 476. 518. 141. 219. 155. 162. 275. 303. 325. 265. 171. 296.
      166. 522. 149. 208. 485. 188. 379. 176. 239. 198. 253. 123. 152.
      134. 161. 443. 168. 481. 96. 298. 95. 255. 167. 459. 212. 388.
      103. 190. 100. 358. 206. 156. 311. 166. 318. 261. 685. 270. 229.
      166. 237. 191. 556. 343. 319. 272. 167. 420. 214. 1167. 233. 973.
      174. 794. 153. 364. 189. 541. 326. 471. 287. 1027. 349. 87. 250.
      131. 346. 152. 291. 263. 482. 143. 413. 180. 804. 444. 490. 208.
      127. 150. 116. 174. 110. 138. 108. 172. 371. 593. 241. 177. 176.
      221. 197. 198. 302. 123. 434. 243. 727. 217. 579. 304. 523. 173.
      714. 190. 1172. 346. 1133. 375. 176. 208. 138. 330. 248. 307. 243.
      348. 229. 288. 200. 278. 390. 755. 447. 611.</_>
    <_>
      645. 544. 570. 347. 228. 225. 194. 149. 413. 182. 380. 195. 190.
      164. 152. 83. 305. 1100. 368. 1159. 179. 399. 162. 300. 192. 537.
      213. 620. 121. 212. 79. 205. 156. 138. 143. 174. 142. 257. 126.
      258. 156. 115. 135. 124. 182. 145. 119. 138. 129. 411. 347. 528.
      224. 544. 445. 423. 87. 167. 72. 222. 146. 190. 89. 187. 1722.
      277. 975. 250. 614. 197. 429. 148. 1422. 235. 1208. 193. 823. 214.
      472. 82. 232. 610. 266. 299. 122. 144. 195. 149. 379. 424. 259.
      204. 285. 484. 126. 78. 329. 123. 171. 134. 312. 202. 266. 145.
      334. 118. 310. 94. 259. 143. 271. 119. 128. 206. 116. 134. 257.
      177. 579. 156. 99. 187. 139. 107. 203. 166. 131. 128. 131. 161.
      164. 186. 124. 185. 157. 117. 287. 206. 199. 179. 229. 122. 91.
      98. 135. 433. 167. 746. 71. 242. 93. 217. 290. 445. 216. 375. 100.
      199. 86. 220. 122. 86. 429. 147. 232. 224. 489. 260. 178. 125.
      139. 148. 479. 281. 268. 323. 122. 338. 299. 844. 172. 1198. 147.
      1433. 149. 265. 255. 609. 372. 775. 234. 1665. 228. 83. 244. 129.
      176. 123. 148. 127. 467. 192. 413. 202. 611. 410. 270. 136. 93.
      105. 110. 118. 98. 129. 82. 136. 357. 371. 187. 156. 166. 231.
      109. 237. 183. 72. 267. 187. 846. 185. 837. 247. 555. 138. 740.
      220. 2081. 389. 1575. 457. 107. 102. 81. 135. 221. 254. 285. 336.
      201. 240. 158. 227. 502. 601. 354. 604.</_>
    <_>
      2055. 441. 605. 374. 204. 205. 198. 138. 368. 211. 339. 198. 192.
      123. 149. 78. 365. 1007. 325. 1011. 165. 360. 144. 293. 205. 508.
      195. 623. 128. 222. 60. 182. 193. 130. 143. 105. 134. 290. 461.
      268. 235. 82. 121. 85. 192. 134. 114. 80. 132. 472. 209. 926. 197.
      435. 433. 392. 104. 161. 66. 177. 167. 162. 89. 148. 1626. 242.
      797. 258. 675. 225. 447. 161. 1246. 192. 1114. 176. 839. 139. 501.
      84. 231. 290. 233. 251. 150. 133. 157. 107. 312. 704. 243. 195.
      277. 469. 101. 110. 324. 95. 200. 114. 330. 236. 386. 149. 347.
      93. 350. 82. 331. 131. 328. 100. 89. 151. 109. 227. 226. 144. 470.
      701. 111. 139. 130. 125. 255. 134. 131. 140. 167. 316. 149. 356.
      135. 134. 138. 149. 349. 138. 187. 187. 205. 113. 112. 114. 166.
      369. 123. 409. 63. 237. 81. 266. 257. 405. 190. 428. 82. 152. 89.
      309. 125. 82. 437. 99. 222. 254. 768. 228. 178. 69. 181. 128. 455.
      272. 263. 304. 95. 343. 241. 791. 142. 1261. 145. 1459. 132. 228.
      210. 484. 195. 737. 211. 1813. 261. 105. 231. 108. 253. 135. 186.
      89. 483. 137. 371. 109. 601. 356. 308. 135. 97. 114. 128. 107. 72.
      150. 80. 101. 285. 577. 155. 156. 199. 193. 126. 213. 165. 36.
      293. 69. 808. 128. 859. 183. 711. 104. 904. 149. 1839. 407. 1461.
      384. 88. 111. 88. 115. 186. 212. 213. 321. 163. 203. 180. 204.
      442. 643. 340. 772.</_>
    <_>
      3428. 340. 512. 289. 184. 188. 158. 134. 256. 247. 228. 196. 145.
      118. 122. 111. 292. 695. 270. 846. 200. 414. 162. 268. 249. 611.
      205. 679. 109. 337. 93. 220. 211. 140. 130. 118. 130. 277. 415.
      206. 188. 86. 144. 129. 227. 139. 137. 123. 139. 404. 175. 1075.
      127. 414. 424. 274. 147. 164. 105. 214. 165. 193. 115. 186. 1449.
      134. 703. 248. 670. 207. 462. 163. 1131. 198. 1124. 145. 810. 135.
      499. 51. 187. 259. 250. 299. 134. 133. 175. 135. 302. 684. 228.
      175. 326. 403. 147. 88. 330. 110. 211. 127. 335. 186. 447. 135.
      392. 91. 379. 109. 442. 156. 480. 93. 101. 139. 125. 334. 177.
      114. 431. 665. 128. 150. 112. 143. 256. 219. 183. 122. 187. 315.
      136. 449. 146. 157. 133. 122. 280. 136. 211. 152. 202. 145. 123.
      126. 128. 412. 118. 426. 91. 194. 57. 231. 200. 472. 171. 355. 77.
      183. 85. 272. 109. 99. 384. 112. 250. 265. 764. 202. 214. 117.
      139. 106. 540. 277. 276. 293. 110. 268. 264. 996. 177. 997. 139.
      1130. 113. 239. 169. 564. 242. 783. 237. 1562. 323. 101. 258. 96.
      306. 108. 193. 107. 509. 133. 396. 120. 740. 376. 457. 142. 104.
      115. 93. 198. 89. 101. 98. 151. 259. 573. 186. 153. 168. 192. 187.
      268. 229. 48. 433. 75. 828. 175. 644. 218. 692. 122. 956. 136.
      1674. 322. 1126. 341. 92. 142. 128. 183. 127. 228. 207. 340. 182.
      168. 180. 150. 374. 512. 366. 570.</_>
    <_>
      7552. 292. 518. 259. 194. 180. 143. 147. 273. 166. 184. 194. 217.
      110. 145. 74. 261. 429. 245. 434. 168. 287. 110. 184. 228. 400.
      205. 560. 144. 211. 88. 223. 811. 176. 202. 136. 160. 216. 415.
      223. 247. 93. 190. 111. 205. 146. 165. 90. 150. 386. 143. 1040.
      180. 509. 249. 308. 198. 191. 89. 134. 201. 210. 110. 211. 1056.
      196. 609. 221. 577. 185. 340. 183. 756. 141. 521. 127. 650. 150.
      336. 165. 439. 330. 213. 267. 120. 111. 137. 136. 257. 675. 244.
      229. 336. 462. 155. 188. 317. 154. 205. 137. 286. 195. 593. 188.
      226. 100. 212. 98. 339. 201. 472. 157. 133. 128. 101. 371. 213.
      137. 543. 743. 101. 150. 94. 108. 205. 333. 314. 141. 310. 149.
      542. 628. 167. 89. 81. 94. 467. 196. 188. 137. 241. 103. 110. 125.
      149. 537. 113. 278. 95. 206. 75. 283. 214. 452. 250. 324. 69. 149.
      87. 372. 137. 111. 161. 162. 247. 224. 908. 222. 246. 143. 127.
      149. 430. 305. 273. 340. 122. 313. 201. 960. 166. 1324. 146. 878.
      143. 152. 252. 329. 217. 373. 192. 1108. 230. 114. 141. 148. 316.
      127. 154. 137. 520. 160. 437. 127. 492. 376. 313. 121. 103. 129.
      120. 151. 83. 75. 93. 102. 475. 598. 249. 113. 183. 170. 114. 788.
      219. 99. 305. 152. 482. 180. 426. 209. 533. 154. 605. 224. 1110.
      292. 1020. 269. 70. 125. 170. 191. 156. 258. 240. 180. 207. 168.
      193. 202. 282. 512. 330. 510.</_>
    <_>
      3279. 251. 610. 266. 257. 193. 211. 154. 369. 162. 207. 188. 203.
      172. 111. 116. 257. 397. 209. 341. 229. 320. 112. 206. 256. 378.
      212. 563. 188. 208. 104. 206. 672. 155. 245. 131. 180. 218. 159.
      247. 275. 125. 205. 141. 241. 160. 184. 149. 153. 290. 178. 1073.
      275. 480. 591. 272. 221. 165. 147. 178. 185. 186. 130. 221. 1317.
      267. 710. 258. 648. 231. 556. 253. 882. 225. 697. 170. 760. 250.
      538. 181. 399. 310. 296. 256. 124. 98. 198. 138. 257. 771. 248.
      205. 293. 399. 233. 162. 390. 148. 232. 160. 293. 204. 669. 188.
      365. 160. 282. 133. 351. 182. 573. 156. 175. 109. 160. 351. 243.
      162. 579. 473. 162. 193. 163. 126. 227. 369. 226. 145. 366. 226.
      518. 550. 223. 152. 139. 156. 447. 168. 185. 182. 258. 139. 177.
      107. 176. 498. 121. 283. 119. 231. 88. 213. 280. 501. 302. 309.
      74. 138. 107. 251. 147. 138. 352. 149. 240. 261. 417. 231. 272.
      156. 157. 194. 451. 245. 253. 262. 105. 245. 170. 890. 180. 1140.
      176. 703. 198. 162. 268. 335. 265. 407. 178. 983. 383. 137. 237.
      171. 332. 138. 234. 203. 564. 176. 390. 190. 542. 315. 433. 195.
      146. 97. 135. 124. 77. 84. 88. 146. 513. 627. 312. 117. 170. 207.
      168. 761. 305. 110. 412. 172. 570. 229. 398. 255. 714. 171. 660.
      245. 1060. 253. 959. 242. 128. 125. 205. 177. 167. 265. 171. 187.
      238. 154. 227. 155. 329. 453. 397. 395.</_>
    <_>
      527. 304. 410. 291. 310. 268. 209. 157. 290. 214. 320. 255. 223.
      187. 195. 124. 245. 599. 260. 912. 318. 585. 200. 279. 209. 658.
      181. 846. 230. 367. 125. 300. 284. 180. 205. 159. 167. 295. 195.
      289. 273. 109. 278. 165. 235. 162. 245. 184. 190. 441. 166. 374.
      214. 539. 213. 360. 139. 220. 147. 305. 151. 259. 169. 355. 1194.
      203. 745. 183. 700. 259. 435. 192. 969. 237. 793. 157. 1041. 284.
      588. 142. 217. 263. 280. 395. 198. 128. 213. 214. 288. 297. 260.
      221. 249. 209. 193. 231. 326. 190. 271. 150. 435. 236. 255. 232.
      401. 151. 388. 95. 467. 206. 485. 147. 154. 255. 156. 174. 198.
      207. 245. 276. 131. 175. 177. 188. 202. 231. 225. 275. 217. 150.
      323. 217. 210. 183. 199. 166. 213. 150. 291. 191. 203. 150. 124.
      157. 150. 402. 160. 467. 89. 319. 67. 350. 288. 390. 312. 427. 85.
      251. 72. 379. 247. 111. 214. 223. 282. 244. 181. 254. 196. 167.
      249. 160. 437. 216. 291. 253. 173. 538. 163. 701. 207. 972. 143.
      1036. 184. 439. 274. 629. 316. 642. 304. 1097. 267. 97. 236. 234.
      424. 155. 257. 255. 570. 171. 528. 165. 579. 240. 384. 160. 121.
      143. 109. 233. 83. 116. 73. 188. 509. 190. 381. 208. 189. 260.
      190. 337. 276. 114. 384. 206. 931. 223. 636. 276. 502. 187. 736.
      136. 1166. 341. 966. 381. 166. 244. 130. 294. 197. 247. 182. 378.
      209. 274. 187. 280. 352. 481. 349. 475.</_>
    <_>
      481. 265. 412. 279. 271. 249. 203. 174. 272. 213. 279. 273. 203.
      183. 139. 109. 295. 661. 260. 974. 311. 572. 178. 327. 182. 634.
      190. 811. 204. 371. 109. 349. 263. 168. 198. 162. 158. 273. 212.
      333. 256. 122. 242. 187. 259. 179. 242. 185. 150. 580. 167. 413.
      216. 515. 221. 401. 136. 230. 173. 302. 125. 267. 170. 272. 1332.
      208. 680. 226. 712. 268. 420. 188. 917. 197. 855. 173. 1005. 287.
      524. 120. 214. 280. 256. 350. 194. 124. 219. 208. 287. 241. 274.
      194. 233. 221. 175. 198. 403. 180. 244. 155. 440. 235. 306. 156.
      392. 210. 376. 101. 503. 186. 449. 137. 172. 242. 135. 169. 172.
      168. 236. 279. 176. 222. 203. 159. 207. 225. 231. 234. 173. 169.
      272. 283. 214. 195. 152. 156. 202. 175. 275. 252. 171. 145. 164.
      116. 174. 408. 174. 470. 80. 382. 62. 383. 281. 383. 304. 445.
      107. 242. 100. 417. 245. 110. 183. 186. 266. 270. 188. 213. 193.
      159. 213. 223. 370. 234. 230. 234. 173. 529. 206. 694. 217. 956.
      138. 1039. 161. 376. 245. 601. 281. 570. 262. 1203. 239. 122. 248.
      187. 472. 143. 322. 230. 514. 130. 540. 206. 595. 214. 432. 163.
      139. 130. 90. 180. 89. 129. 89. 186. 514. 172. 365. 191. 232. 240.
      169. 349. 300. 131. 411. 217. 924. 217. 762. 278. 541. 183. 751.
      236. 1367. 272. 1155. 339. 140. 187. 106. 251. 210. 250. 196. 396.
      233. 271. 174. 241. 398. 376. 367. 512.</_>
    <_>
      595. 295. 410. 296. 295. 292. 149. 173. 310. 181. 362. 239. 268.
      224. 186. 129. 358. 698. 284. 618. 288. 439. 156. 347. 204. 466.
      240. 691. 202. 256. 119. 298. 355. 232. 193. 202. 272. 280. 212.
      250. 259. 164. 182. 184. 216. 170. 242. 191. 206. 601. 128. 420.
      261. 545. 218. 441. 125. 265. 144. 308. 235. 233. 159. 350. 1146.
      253. 568. 251. 623. 209. 476. 146. 885. 237. 773. 231. 744. 283.
      431. 198. 307. 333. 308. 313. 175. 156. 270. 239. 204. 239. 291.
      293. 215. 215. 239. 245. 437. 198. 248. 168. 358. 176. 438. 186.
      402. 174. 275. 164. 438. 190. 493. 197. 197. 269. 126. 184. 220.
      187. 393. 248. 141. 191. 151. 145. 239. 176. 252. 219. 276. 176.
      240. 217. 252. 196. 151. 219. 232. 186. 202. 196. 245. 170. 150.
      164. 184. 485. 138. 393. 85. 324. 94. 505. 311. 354. 358. 485.
      124. 232. 92. 481. 175. 137. 159. 215. 244. 265. 227. 269. 261.
      220. 194. 194. 369. 257. 344. 250. 153. 506. 222. 654. 208. 1479.
      182. 1121. 249. 300. 282. 558. 259. 463. 233. 1284. 273. 114. 219.
      207. 366. 164. 325. 233. 459. 189. 538. 214. 516. 244. 510. 173.
      106. 142. 112. 131. 101. 117. 122. 179. 396. 261. 316. 207. 207.
      266. 161. 333. 236. 137. 306. 234. 771. 236. 579. 227. 643. 253.
      626. 224. 1094. 326. 995. 334. 131. 189. 215. 164. 205. 252. 202.
      282. 251. 200. 193. 201. 315. 457. 296. 588.</_>
    <_>
      634. 308. 426. 279. 308. 301. 160. 164. 343. 192. 341. 245. 275.
      224. 172. 127. 373. 731. 288. 591. 290. 465. 151. 360. 215. 469.
      254. 709. 221. 278. 115. 291. 362. 227. 180. 199. 246. 257. 206.
      226. 260. 172. 214. 185. 203. 164. 249. 206. 215. 576. 126. 460.
      288. 559. 227. 420. 122. 263. 145. 298. 226. 227. 157. 328. 1124.
      250. 563. 269. 625. 189. 483. 140. 903. 236. 805. 243. 737. 303.
      385. 175. 305. 315. 304. 313. 156. 170. 289. 214. 215. 237. 305.
      302. 210. 225. 233. 235. 441. 198. 262. 164. 350. 156. 442. 207.
      387. 180. 306. 142. 462. 211. 480. 190. 204. 251. 150. 192. 205.
      194. 369. 272. 145. 200. 135. 151. 230. 171. 273. 227. 277. 169.
      250. 235. 216. 187. 160. 224. 222. 194. 214. 205. 264. 152. 151.
      167. 181. 479. 133. 373. 101. 334. 82. 505. 322. 371. 371. 454.
      125. 207. 91. 471. 167. 147. 148. 211. 242. 278. 222. 263. 249.
      204. 165. 191. 355. 258. 332. 246. 178. 531. 202. 659. 221. 1474.
      192. 1097. 259. 289. 329. 556. 253. 464. 204. 1277. 247. 129. 198.
      190. 392. 156. 295. 235. 446. 197. 524. 218. 515. 240. 479. 199.
      114. 156. 117. 152. 102. 123. 107. 199. 385. 250. 319. 221. 193.
      240. 161. 336. 266. 148. 305. 224. 765. 226. 570. 211. 639. 258.
      640. 233. 1097. 315. 976. 327. 131. 173. 204. 181. 209. 286. 196.
      265. 255. 218. 189. 182. 344. 427. 278. 579.</_>
    <_>
      453. 346. 420. 316. 260. 262. 217. 167. 278. 249. 266. 307. 196.
      174. 158. 132. 241. 672. 301. 935. 355. 567. 181. 305. 212. 665.
      175. 826. 230. 386. 115. 327. 295. 162. 204. 151. 164. 234. 187.
      322. 235. 105. 279. 183. 258. 170. 232. 183. 162. 528. 207. 404.
      210. 525. 235. 373. 132. 195. 139. 278. 146. 305. 171. 312. 1300.
      191. 630. 205. 652. 228. 388. 179. 882. 225. 748. 202. 962. 298.
      548. 120. 229. 258. 249. 374. 190. 134. 268. 217. 297. 254. 278.
      228. 221. 233. 201. 223. 372. 194. 228. 131. 496. 227. 308. 203.
      339. 178. 354. 124. 554. 183. 474. 174. 162. 268. 152. 198. 184.
      191. 260. 273. 157. 193. 209. 167. 217. 236. 240. 215. 186. 168.
      311. 257. 194. 175. 168. 126. 175. 157. 288. 209. 183. 144. 113.
      119. 145. 356. 224. 514. 95. 311. 81. 298. 229. 396. 318. 439. 97.
      227. 116. 341. 227. 110. 226. 185. 268. 217. 153. 252. 232. 149.
      239. 153. 379. 197. 264. 247. 170. 625. 166. 728. 194. 986. 127.
      980. 182. 436. 237. 588. 228. 599. 245. 1089. 301. 109. 257. 189.
      479. 156. 275. 227. 562. 135. 592. 177. 532. 202. 418. 192. 113.
      139. 101. 211. 100. 116. 83. 194. 514. 199. 394. 202. 189. 209.
      190. 341. 336. 106. 422. 205. 926. 203. 740. 267. 587. 200. 832.
      164. 1546. 296. 1184. 386. 157. 207. 103. 245. 204. 248. 205. 353.
      256. 257. 193. 224. 305. 403. 369. 482.</_>
    <_>
      560. 345. 373. 324. 281. 226. 161. 188. 313. 183. 292. 234. 284.
      194. 187. 151. 357. 683. 265. 618. 245. 489. 136. 363. 215. 493.
      239. 823. 210. 289. 119. 313. 382. 235. 197. 203. 208. 308. 263.
      276. 253. 139. 205. 157. 251. 168. 298. 186. 224. 584. 190. 402.
      267. 560. 222. 443. 129. 239. 129. 247. 242. 210. 187. 299. 1067.
      219. 505. 230. 588. 215. 452. 180. 830. 179. 626. 225. 688. 263.
      401. 180. 263. 347. 262. 381. 153. 221. 202. 299. 176. 262. 272.
      276. 164. 251. 191. 300. 399. 207. 212. 162. 354. 182. 495. 213.
      347. 168. 267. 147. 429. 211. 506. 190. 159. 262. 131. 162. 215.
      214. 387. 279. 155. 190. 138. 169. 202. 249. 268. 284. 286. 192.
      269. 202. 288. 255. 176. 191. 259. 237. 191. 199. 283. 165. 137.
      178. 188. 480. 123. 373. 82. 284. 94. 447. 375. 354. 394. 497.
      130. 156. 106. 392. 192. 175. 173. 139. 298. 359. 243. 235. 270.
      214. 197. 190. 425. 305. 314. 303. 166. 464. 223. 589. 221. 1484.
      176. 1001. 228. 235. 334. 478. 270. 438. 239. 1053. 237. 110. 167.
      196. 376. 196. 285. 208. 418. 143. 528. 214. 534. 237. 491. 214.
      124. 182. 123. 178. 96. 149. 79. 188. 521. 282. 402. 180. 201.
      242. 176. 325. 274. 158. 317. 236. 787. 248. 575. 230. 691. 250.
      582. 250. 1117. 370. 1009. 353. 154. 213. 202. 230. 217. 324. 215.
      257. 262. 201. 175. 244. 377. 453. 312. 624.</_>
    <_>
      409. 321. 398. 356. 266. 274. 205. 165. 256. 240. 262. 256. 218.
      155. 173. 131. 239. 777. 303. 1012. 346. 561. 193. 282. 176. 688.
      168. 903. 222. 428. 111. 279. 266. 173. 206. 169. 190. 281. 190.
      336. 236. 131. 271. 172. 260. 174. 238. 205. 146. 417. 204. 450.
      252. 491. 225. 341. 117. 224. 143. 314. 156. 246. 161. 295. 1217.
      183. 665. 167. 704. 234. 422. 150. 942. 186. 783. 195. 977. 327.
      602. 130. 196. 245. 279. 355. 175. 133. 224. 238. 240. 241. 273.
      220. 222. 214. 200. 198. 357. 217. 238. 147. 498. 251. 314. 190.
      400. 175. 386. 127. 501. 201. 506. 174. 175. 261. 177. 246. 171.
      192. 270. 269. 165. 216. 178. 140. 177. 264. 243. 220. 184. 192.
      314. 256. 198. 184. 137. 161. 183. 158. 281. 197. 191. 156. 148.
      132. 129. 383. 206. 575. 110. 316. 83. 313. 267. 385. 338. 427.
      81. 282. 113. 362. 206. 137. 202. 240. 275. 208. 170. 231. 258.
      134. 238. 150. 393. 191. 267. 264. 200. 543. 184. 715. 161. 870.
      135. 890. 200. 437. 272. 589. 264. 533. 232. 1039. 290. 103. 242.
      193. 435. 147. 308. 249. 563. 173. 625. 175. 571. 213. 448. 189.
      132. 167. 125. 187. 92. 150. 107. 199. 550. 215. 403. 192. 205.
      260. 180. 317. 321. 136. 397. 189. 966. 198. 685. 243. 592. 185.
      801. 164. 1397. 258. 1066. 342. 144. 246. 102. 216. 218. 226. 182.
      344. 243. 245. 166. 202. 330. 438. 373. 474.</_>
    <_>
      450. 328. 396. 345. 250. 260. 215. 175. 238. 234. 254. 261. 236.
      157. 160. 128. 206. 795. 268. 1023. 348. 571. 186. 295. 168. 700.
      164. 947. 225. 423. 109. 284. 269. 180. 207. 176. 197. 269. 185.
      344. 252. 142. 237. 169. 248. 169. 214. 192. 150. 426. 211. 448.
      231. 501. 222. 356. 124. 230. 158. 305. 149. 257. 161. 274. 1245.
      167. 605. 154. 689. 231. 429. 152. 912. 202. 792. 194. 956. 297.
      594. 131. 209. 259. 285. 369. 175. 142. 234. 253. 270. 245. 268.
      220. 195. 210. 185. 199. 335. 195. 240. 131. 470. 234. 346. 201.
      456. 156. 416. 124. 488. 201. 487. 168. 174. 272. 155. 225. 163.
      204. 264. 250. 150. 207. 206. 151. 201. 263. 250. 244. 213. 142.
      299. 271. 219. 187. 149. 163. 177. 150. 267. 186. 196. 147. 175.
      128. 150. 386. 192. 546. 101. 339. 74. 321. 281. 393. 348. 432.
      114. 283. 95. 362. 232. 133. 200. 230. 250. 199. 166. 239. 241.
      169. 247. 172. 386. 201. 279. 268. 160. 557. 175. 718. 185. 919.
      106. 885. 190. 451. 247. 583. 260. 528. 242. 1073. 286. 103. 241.
      194. 486. 151. 306. 244. 552. 163. 609. 168. 612. 211. 441. 189.
      140. 150. 122. 191. 102. 118. 87. 211. 547. 205. 400. 187. 174.
      305. 173. 322. 322. 136. 398. 193. 995. 175. 700. 254. 629. 168.
      793. 138. 1428. 265. 1022. 355. 163. 241. 108. 217. 210. 230. 155.
      316. 246. 265. 171. 209. 294. 474. 348. 468.</_>
    <_>
      674. 339. 498. 318. 296. 283. 213. 159. 395. 233. 420. 222. 282.
      263. 196. 130. 366. 670. 254. 649. 228. 380. 165. 333. 196. 399.
      222. 632. 158. 244. 112. 266. 412. 210. 230. 212. 217. 266. 216.
      178. 236. 182. 276. 188. 233. 184. 260. 175. 201. 494. 154. 369.
      255. 443. 210. 397. 132. 258. 147. 258. 240. 208. 195. 246. 1182.
      299. 657. 278. 701. 181. 528. 135. 987. 391. 934. 220. 728. 301.
      450. 208. 377. 326. 390. 307. 171. 120. 271. 227. 250. 314. 284.
      247. 205. 254. 221. 238. 427. 223. 265. 176. 435. 220. 469. 179.
      386. 210. 262. 154. 498. 196. 578. 266. 223. 262. 209. 164. 268.
      200. 325. 282. 141. 213. 155. 136. 241. 180. 265. 254. 240. 142.
      278. 199. 228. 192. 187. 186. 260. 152. 255. 147. 219. 165. 209.
      151. 184. 498. 147. 432. 102. 281. 71. 415. 288. 391. 319. 440.
