<?xml version="1.0"?>
<opencv_storage>
<opencv_ml_svm>
  <format>3</format>
  <svmType>C_SVC</svmType>
  <kernel>
    <type>RBF</type>
    <gamma>1.0000000000000001e-05</gamma></kernel>
  <C>5.0000000000000000e-01</C>
  <term_criteria><epsilon>1.1920928955078125e-07</epsilon>
    <iterations>1000</iterations></term_criteria>
  <var_count>256</var_count>
  <class_count>2</class_count>
  <class_labels type_id="opencv-matrix">
    <rows>2</rows>
    <cols>1</cols>
    <dt>i</dt>
    <data>
      0 1</data></class_labels>
  <sv_total>2000</sv_total>
  <support_vectors>
    <_>
      1727. 176. 365. 413. 525. 270. 202. 255. 1245. 227. 273. 287. 491.
      341. 122. 191. 194. 240. 309. 1543. 189. 156. 365. 599. 184. 243.
      305. 1373. 145. 194. 243. 423. 483. 143. 251. 193. 489. 246. 124.
      212. 367. 161. 142. 118. 474. 202. 157. 106. 186. 168. 237. 672.
      296. 117. 182. 518. 267. 219. 154. 450. 152. 225. 148. 271. 598.
      216. 320. 372. 454. 210. 215. 162. 1324. 253. 275. 290. 557. 189.
      181. 146. 321. 285. 388. 1162. 284. 142. 224. 405. 366. 252. 329.
      1211. 217. 171. 192. 389. 274. 120. 186. 183. 678. 227. 251. 298.
      344. 102. 142. 163. 417. 167. 175. 183. 190. 148. 227. 392. 301.
      120. 131. 378. 168. 163. 220. 494. 169. 154. 170. 342. 233. 103.
      202. 187. 354. 176. 165. 218. 455. 155. 313. 219. 311. 239. 123.
      158. 137. 151. 236. 569. 120. 130. 153. 459. 287. 291. 199. 550.
      169. 166. 99. 246. 252. 125. 145. 126. 741. 155. 199. 139. 422.
      136. 164. 162. 782. 261. 213. 132. 163. 145. 189. 429. 165. 160.
      133. 1044. 257. 230. 257. 481. 215. 335. 130. 420. 255. 139. 165.
      249. 343. 149. 147. 179. 840. 147. 237. 174. 469. 278. 144. 163.
      128. 180. 290. 476. 75. 269. 80. 426. 303. 194. 243. 493. 176.
      589. 112. 357. 295. 133. 136. 130. 1031. 207. 152. 463. 638. 169.
      186. 144. 1316. 219. 118. 155. 79. 117. 266. 660. 120. 137. 103.
      889. 173. 147. 410. 526. 168. 221. 111. 510.</_>
    <_>
      1743. 262. 492. 371. 545. 353. 245. 281. 1473. 348. 329. 320. 685.
      430. 144. 208. 185. 138. 339. 1290. 232. 160. 468. 811. 237. 176.
      227. 1199. 186. 125. 280. 587. 415. 191. 205. 174. 614. 267. 137.
      245. 338. 147. 124. 143. 476. 168. 170. 132. 174. 130. 192. 445.
      321. 128. 174. 421. 128. 141. 101. 447. 102. 155. 171. 204. 795.
      210. 477. 318. 429. 225. 264. 170. 1705. 262. 332. 288. 634. 305.
      167. 176. 334. 194. 359. 1082. 276. 165. 242. 417. 440. 248. 245.
      1307. 203. 235. 162. 437. 223. 129. 129. 136. 459. 187. 154. 177.
      346. 153. 189. 178. 432. 173. 133. 157. 176. 173. 210. 428. 308.
      170. 168. 308. 217. 225. 232. 480. 127. 177. 162. 327. 360. 131.
      192. 197. 173. 136. 116. 178. 626. 183. 169. 197. 332. 179. 144.
      121. 145. 157. 238. 732. 100. 127. 132. 397. 296. 242. 195. 572.
      135. 139. 107. 267. 293. 140. 151. 155. 764. 229. 219. 194. 409.
      163. 159. 193. 804. 307. 242. 143. 127. 193. 202. 431. 171. 205.
      135. 822. 213. 191. 140. 517. 210. 212. 155. 424. 263. 103. 239.
      254. 211. 206. 129. 201. 785. 147. 161. 151. 345. 214. 132. 88.
      182. 146. 261. 658. 95. 208. 76. 344. 390. 157. 199. 446. 117.
      438. 71. 281. 359. 133. 152. 182. 904. 212. 185. 403. 564. 157.
      162. 162. 1104. 212. 172. 129. 106. 148. 243. 585. 183. 140. 94.
      820. 154. 144. 340. 648. 218. 302. 146. 716.</_>
    <_>
      1490. 164. 426. 221. 1076. 204. 172. 178. 1476. 207. 308. 228.
      781. 209. 144. 99. 158. 217. 446. 1145. 155. 132. 162. 318. 236.
      364. 287. 1017. 114. 117. 148. 309. 397. 111. 184. 117. 820. 387.
      177. 448. 483. 89. 143. 76. 622. 169. 244. 143. 91. 152. 151. 217.
      225. 216. 132. 586. 82. 111. 147. 258. 104. 108. 147. 181. 900.
      199. 413. 222. 771. 173. 166. 108. 1277. 192. 305. 213. 655. 126.
      109. 61. 201. 359. 364. 812. 153. 176. 100. 316. 262. 291. 318.
      965. 148. 137. 60. 98. 253. 91. 154. 98. 840. 207. 241. 182. 360.
      82. 110. 86. 721. 161. 164. 106. 140. 172. 226. 317. 200. 247.
      106. 299. 100. 88. 99. 262. 148. 106. 100. 223. 301. 99. 168. 134.
      747. 101. 124. 93. 621. 68. 126. 185. 576. 212. 162. 107. 115.
      167. 111. 461. 58. 102. 83. 202. 391. 116. 178. 633. 146. 116.
      121. 242. 419. 169. 200. 136. 1329. 315. 288. 322. 475. 160. 169.
      144. 1545. 502. 400. 273. 165. 174. 167. 400. 255. 264. 247. 1314.
      223. 174. 168. 583. 314. 345. 199. 595. 190. 106. 208. 188. 447.
      155. 168. 148. 575. 141. 155. 248. 381. 157. 156. 138. 99. 189.
      172. 670. 63. 169. 47. 212. 362. 93. 216. 696. 146. 206. 78. 242.
      406. 125. 116. 132. 1093. 335. 241. 279. 675. 145. 173. 126. 1672.
      387. 320. 203. 123. 145. 329. 605. 237. 254. 182. 1046. 267. 130.
      276. 683. 289. 338. 178. 1005.</_>
    <_>
      1936. 244. 355. 155. 1162. 248. 209. 149. 1231. 245. 295. 215.
      938. 226. 336. 161. 190. 192. 247. 669. 268. 169. 249. 444. 184.
      334. 213. 972. 223. 206. 323. 433. 466. 137. 158. 98. 792. 177.
      183. 132. 491. 140. 141. 148. 736. 108. 204. 117. 171. 218. 152.
      288. 178. 168. 122. 571. 131. 232. 68. 255. 147. 208. 106. 325.
      1106. 486. 440. 175. 979. 268. 209. 99. 1105. 353. 232. 319. 680.
      219. 163. 92. 339. 356. 271. 626. 269. 190. 170. 284. 174. 185.
      188. 1343. 162. 143. 94. 180. 378. 117. 165. 107. 1001. 143. 149.
      94. 630. 135. 230. 109. 936. 105. 219. 47. 176. 243. 248. 304.
      176. 174. 134. 277. 129. 103. 117. 188. 162. 124. 114. 158. 574.
      117. 271. 152. 524. 86. 121. 131. 941. 150. 241. 454. 698. 164.
      168. 186. 121. 131. 129. 389. 114. 63. 98. 321. 303. 213. 171.
      634. 115. 166. 65. 313. 445. 116. 158. 92. 1032. 127. 192. 143.
      539. 187. 162. 156. 1831. 167. 153. 165. 98. 181. 168. 355. 125.
      216. 171. 1290. 152. 238. 167. 331. 191. 343. 125. 540. 385. 213.
      211. 188. 380. 158. 87. 89. 794. 267. 265. 383. 643. 245. 132.
      112. 143. 122. 190. 423. 91. 151. 93. 246. 294. 136. 222. 448. 88.
      453. 54. 133. 559. 109. 125. 100. 1050. 132. 166. 296. 755. 194.
      135. 90. 1460. 155. 150. 135. 79. 136. 316. 543. 120. 208. 130.
      882. 112. 106. 208. 407. 178. 233. 172. 560.</_>
    <_>
      2006. 270. 327. 180. 784. 354. 223. 165. 1189. 222. 255. 158. 805.
      252. 158. 190. 173. 195. 154. 511. 123. 144. 160. 434. 457. 200.
      194. 624. 126. 105. 173. 337. 455. 165. 943. 107. 557. 154. 224.
      228. 383. 143. 157. 136. 438. 177. 286. 176. 127. 200. 193. 422.
      308. 197. 212. 694. 112. 249. 181. 235. 131. 206. 169. 280. 807.
      227. 392. 130. 581. 183. 189. 133. 992. 268. 335. 193. 616. 127.
      145. 109. 191. 307. 201. 680. 201. 228. 141. 395. 293. 254. 169.
      604. 142. 115. 87. 163. 280. 140. 153. 90. 725. 194. 213. 244.
      423. 111. 169. 142. 512. 167. 201. 142. 159. 182. 206. 326. 353.
      271. 161. 347. 146. 117. 76. 429. 151. 232. 180. 294. 300. 132.
      205. 135. 429. 125. 190. 138. 521. 143. 157. 254. 520. 261. 193.
      229. 119. 127. 141. 605. 74. 99. 66. 370. 284. 214. 223. 726. 169.
      168. 114. 385. 267. 151. 220. 131. 915. 236. 326. 241. 377. 165.
      154. 182. 926. 354. 422. 247. 162. 213. 209. 562. 256. 196. 244.
      1849. 157. 245. 212. 605. 216. 329. 178. 749. 301. 164. 307. 234.
      496. 206. 161. 148. 675. 157. 194. 218. 420. 284. 150. 164. 118.
      156. 213. 680. 84. 229. 108. 290. 357. 102. 312. 762. 172. 208.
      108. 284. 370. 168. 135. 175. 902. 299. 111. 190. 528. 264. 217.
      194. 1350. 325. 180. 164. 115. 159. 300. 540. 180. 258. 209. 1178.
      170. 133. 273. 569. 333. 278. 185. 947.</_>
    <_>
      1533. 266. 319. 169. 808. 344. 221. 167. 1234. 230. 261. 144. 800.
      283. 147. 169. 194. 212. 134. 523. 107. 144. 199. 416. 467. 197.
      172. 635. 109. 87. 169. 341. 448. 163. 921. 117. 541. 186. 230.
      233. 365. 140. 169. 156. 452. 180. 283. 175. 129. 214. 198. 411.
      299. 200. 215. 670. 117. 233. 167. 289. 127. 200. 184. 246. 829.
      236. 375. 144. 575. 177. 194. 124. 989. 242. 330. 201. 602. 127.
      130. 102. 234. 288. 179. 701. 201. 231. 147. 405. 282. 216. 148.
      640. 136. 113. 86. 170. 264. 151. 150. 104. 747. 203. 198. 217.
      420. 117. 175. 148. 541. 167. 206. 152. 149. 190. 209. 306. 386.
      237. 166. 373. 143. 132. 104. 426. 161. 213. 175. 309. 301. 127.
      224. 109. 443. 121. 207. 130. 514. 180. 181. 228. 562. 267. 185.
      224. 111. 139. 151. 595. 67. 109. 60. 364. 290. 187. 181. 762.
      178. 165. 127. 419. 294. 173. 211. 132. 891. 261. 299. 304. 388.
      157. 178. 209. 908. 367. 355. 301. 173. 198. 218. 537. 228. 205.
      246. 1890. 187. 229. 209. 582. 234. 304. 202. 745. 344. 172. 292.
      200. 472. 241. 150. 145. 708. 150. 264. 231. 446. 295. 157. 183.
      131. 169. 185. 743. 81. 206. 109. 289. 357. 104. 270. 760. 164.
      219. 124. 292. 328. 172. 123. 192. 857. 312. 152. 194. 531. 232.
      225. 193. 1233. 333. 193. 175. 139. 138. 339. 539. 162. 271. 255.
      1177. 172. 124. 293. 575. 335. 270. 196. 942.</_>
    <_>
      1800. 98. 236. 122. 1236. 205. 115. 117. 1634. 118. 126. 107. 926.
      120. 98. 99. 144. 225. 143. 617. 133. 119. 288. 324. 181. 157.
      237. 769. 101. 117. 176. 349. 434. 97. 253. 108. 861. 348. 212.
      324. 358. 81. 129. 127. 694. 208. 195. 129. 80. 120. 190. 396.
      244. 149. 225. 284. 96. 114. 212. 290. 144. 150. 217. 246. 963.
      144. 284. 221. 806. 138. 118. 94. 2141. 86. 170. 132. 489. 168.
      98. 70. 151. 431. 194. 757. 181. 198. 126. 243. 180. 173. 181.
      1071. 100. 126. 78. 222. 236. 149. 132. 102. 897. 289. 282. 268.
      311. 75. 90. 96. 695. 191. 141. 115. 125. 231. 182. 340. 316. 303.
      219. 317. 73. 95. 115. 331. 135. 175. 147. 258. 283. 110. 171.
      131. 439. 126. 114. 154. 580. 120. 201. 315. 482. 190. 164. 144.
      95. 166. 128. 458. 66. 122. 87. 304. 324. 277. 211. 654. 127. 179.
      154. 214. 321. 126. 194. 102. 1162. 337. 276. 319. 512. 158. 193.
      200. 1296. 501. 542. 441. 120. 188. 163. 504. 230. 326. 271. 717.
      187. 296. 277. 396. 359. 431. 322. 518. 247. 161. 195. 206. 380.
      161. 201. 145. 909. 118. 180. 343. 419. 147. 117. 151. 101. 212.
      211. 460. 74. 126. 70. 238. 356. 185. 243. 623. 148. 233. 85. 382.
      379. 174. 181. 188. 997. 347. 238. 306. 774. 262. 202. 226. 1290.
      338. 275. 316. 181. 244. 300. 404. 288. 427. 299. 763. 266. 238.
      371. 457. 420. 544. 363. 723.</_>
    <_>
      1577. 292. 350. 310. 674. 276. 285. 269. 982. 332. 241. 342. 540.
      275. 297. 262. 224. 195. 367. 875. 304. 218. 420. 318. 413. 396.
      341. 890. 194. 204. 423. 364. 402. 181. 195. 171. 538. 203. 182.
      424. 262. 126. 160. 135. 447. 189. 200. 165. 169. 172. 258. 332.
      229. 211. 225. 517. 106. 157. 143. 199. 158. 165. 187. 224. 737.
      293. 402. 305. 499. 255. 179. 198. 1311. 303. 311. 372. 441. 224.
      122. 237. 275. 387. 389. 879. 275. 303. 177. 334. 356. 302. 369.
      939. 189. 237. 129. 337. 214. 165. 134. 167. 358. 141. 160. 263.
      301. 182. 191. 161. 396. 133. 155. 147. 146. 189. 223. 305. 281.
      211. 210. 383. 172. 128. 176. 236. 213. 186. 149. 271. 257. 154.
      145. 249. 254. 129. 161. 146. 436. 260. 221. 281. 293. 196. 202.
      171. 149. 95. 243. 386. 129. 102. 127. 221. 387. 263. 299. 397.
      103. 158. 124. 171. 273. 104. 155. 128. 1869. 194. 201. 217. 451.
      195. 219. 227. 1037. 271. 283. 215. 127. 101. 183. 356. 223. 243.
      303. 907. 178. 212. 167. 410. 222. 250. 192. 556. 295. 241. 196.
      220. 218. 199. 131. 177. 561. 289. 274. 280. 361. 236. 134. 141.
      169. 151. 213. 324. 91. 151. 88. 280. 321. 199. 342. 395. 175.
      231. 138. 247. 573. 257. 130. 142. 1474. 218. 159. 202. 923. 463.
      182. 274. 1224. 254. 201. 200. 165. 193. 311. 445. 167. 235. 180.
      716. 171. 166. 303. 412. 338. 273. 195. 913.</_>
    <_>
      1293. 253. 240. 176. 785. 238. 253. 193. 893. 210. 158. 173. 590.
      245. 321. 221. 184. 164. 217. 591. 250. 200. 358. 317. 290. 272.
      228. 795. 195. 171. 303. 367. 410. 193. 283. 137. 703. 248. 191.
      281. 314. 165. 243. 146. 532. 191. 286. 143. 158. 202. 119. 325.
      306. 163. 171. 503. 129. 166. 96. 265. 177. 144. 224. 262. 692.
      252. 321. 243. 558. 262. 166. 140. 1004. 242. 232. 249. 432. 169.
      174. 96. 247. 249. 228. 562. 320. 352. 142. 285. 280. 200. 281.
      873. 126. 175. 122. 280. 267. 103. 210. 142. 411. 150. 179. 199.
      325. 157. 238. 139. 540. 128. 210. 146. 208. 223. 235. 350. 292.
      306. 227. 389. 154. 159. 188. 329. 222. 212. 182. 276. 337. 116.
      185. 225. 390. 113. 141. 176. 567. 244. 190. 355. 432. 275. 179.
      226. 82. 141. 177. 373. 110. 98. 115. 321. 330. 265. 225. 625.
      141. 239. 128. 244. 310. 154. 142. 106. 1803. 180. 170. 150. 510.
      266. 221. 275. 1116. 264. 299. 216. 158. 223. 171. 575. 221. 302.
      194. 1203. 186. 318. 181. 448. 220. 384. 234. 867. 285. 162. 300.
      230. 334. 160. 189. 156. 558. 195. 223. 248. 459. 149. 101. 143.
      137. 128. 288. 494. 84. 127. 90. 288. 302. 139. 208. 539. 126.
      190. 84. 319. 601. 247. 180. 135. 1542. 207. 215. 249. 959. 540.
      201. 301. 1351. 296. 192. 223. 169. 135. 355. 546. 143. 329. 210.
      909. 159. 155. 322. 441. 252. 348. 211. 940.</_>
    <_>
      1292. 238. 226. 187. 785. 241. 248. 195. 884. 198. 158. 171. 587.
      283. 335. 220. 176. 163. 227. 585. 253. 210. 377. 304. 296. 269.
      192. 811. 176. 180. 313. 335. 395. 192. 290. 147. 674. 246. 198.
      264. 333. 154. 225. 149. 532. 177. 278. 177. 160. 170. 134. 345.
      281. 158. 173. 511. 134. 164. 104. 272. 169. 141. 212. 293. 713.
      243. 336. 240. 569. 282. 161. 123. 979. 220. 227. 257. 433. 168.
      170. 107. 240. 220. 216. 565. 317. 361. 136. 293. 291. 209. 290.
      911. 113. 186. 115. 276. 297. 107. 208. 151. 454. 142. 162. 182.
      300. 153. 253. 134. 545. 130. 216. 135. 214. 213. 222. 343. 280.
      291. 229. 413. 162. 150. 182. 327. 233. 217. 180. 314. 330. 105.
      183. 231. 373. 126. 164. 168. 548. 225. 173. 348. 444. 266. 172.
      217. 95. 137. 160. 419. 120. 91. 120. 312. 328. 285. 215. 626.
      147. 223. 116. 230. 335. 167. 132. 124. 1853. 175. 166. 167. 515.
      283. 230. 267. 1093. 270. 285. 242. 130. 248. 177. 544. 221. 281.
      188. 1203. 145. 309. 196. 455. 240. 382. 240. 869. 282. 173. 293.
      229. 342. 143. 172. 165. 558. 195. 217. 246. 408. 161. 96. 153.
      128. 115. 288. 484. 79. 115. 87. 312. 316. 132. 213. 527. 132.
      191. 89. 322. 627. 256. 183. 127. 1518. 178. 200. 288. 933. 550.
      201. 308. 1339. 284. 181. 220. 163. 151. 376. 578. 161. 318. 238.
      861. 185. 175. 342. 445. 273. 314. 190. 972.</_>
    <_>
      1316. 236. 206. 190. 799. 241. 260. 212. 896. 202. 171. 153. 621.
      247. 319. 214. 182. 160. 200. 577. 258. 203. 371. 290. 316. 283.
      212. 825. 168. 192. 290. 322. 388. 191. 305. 134. 666. 268. 208.
      265. 321. 161. 232. 134. 547. 187. 290. 159. 147. 182. 144. 356.
      272. 158. 179. 494. 133. 177. 98. 285. 164. 160. 218. 295. 706.
      241. 328. 266. 576. 255. 157. 143. 934. 220. 255. 271. 457. 176.
      168. 96. 231. 199. 221. 508. 318. 357. 152. 303. 273. 189. 267.
      862. 99. 169. 117. 284. 305. 110. 217. 139. 465. 152. 174. 187.
      333. 158. 241. 132. 498. 136. 208. 140. 199. 192. 232. 359. 286.
      273. 212. 404. 145. 146. 159. 343. 239. 194. 186. 320. 351. 118.
      180. 242. 369. 127. 161. 169. 532. 214. 167. 344. 438. 272. 160.
      220. 82. 168. 168. 419. 112. 106. 118. 287. 346. 252. 194. 567.
      148. 228. 117. 248. 335. 175. 136. 130. 1815. 191. 173. 163. 511.
      265. 252. 271. 1064. 280. 276. 241. 130. 201. 189. 535. 221. 256.
      169. 1224. 162. 309. 215. 494. 227. 393. 231. 892. 262. 162. 298.
      218. 380. 145. 181. 160. 588. 234. 207. 221. 439. 150. 105. 147.
      141. 104. 280. 497. 85. 113. 110. 316. 305. 134. 212. 555. 144.
      173. 83. 343. 597. 266. 174. 137. 1515. 201. 193. 272. 935. 551.
      190. 300. 1342. 294. 171. 232. 175. 168. 403. 561. 170. 335. 247.
      866. 181. 183. 329. 466. 242. 329. 175. 1026.</_>
    <_>
      1266. 160. 177. 96. 1039. 294. 175. 190. 1172. 220. 199. 281. 647.
      170. 235. 117. 166. 245. 310. 934. 223. 113. 388. 328. 191. 296.
      321. 1411. 169. 115. 269. 345. 469. 117. 191. 114. 598. 329. 256.
      352. 521. 161. 188. 143. 588. 159. 248. 102. 189. 181. 180. 287.
      223. 154. 139. 354. 117. 130. 116. 219. 167. 138. 155. 197. 888.
      265. 251. 223. 837. 198. 105. 102. 1228. 234. 222. 253. 738. 196.
      106. 90. 306. 646. 411. 1268. 265. 271. 176. 213. 207. 198. 237.
      1452. 154. 112. 108. 271. 461. 162. 206. 87. 697. 210. 252. 353.
      501. 131. 181. 99. 772. 249. 187. 129. 130. 224. 229. 363. 309.
      173. 118. 336. 99. 107. 94. 189. 128. 179. 95. 178. 508. 139. 212.
      152. 433. 152. 170. 118. 752. 162. 201. 406. 608. 209. 165. 151.
      123. 169. 181. 366. 79. 99. 88. 252. 205. 332. 215. 711. 111. 197.
      95. 183. 337. 129. 115. 107. 1070. 259. 284. 304. 620. 159. 175.
      139. 1021. 536. 274. 237. 110. 70. 145. 266. 235. 206. 262. 854.
      259. 226. 166. 277. 381. 416. 296. 479. 432. 196. 205. 140. 407.
      253. 140. 133. 741. 233. 154. 262. 553. 295. 123. 97. 129. 138.
      238. 300. 108. 164. 91. 210. 298. 113. 288. 563. 129. 269. 69.
      276. 460. 173. 165. 112. 958. 247. 223. 275. 862. 265. 190. 137.
      1496. 198. 279. 171. 166. 144. 287. 457. 259. 269. 196. 655. 212.
      222. 268. 331. 317. 329. 211. 558.</_>
    <_>
      1924. 243. 225. 149. 1149. 373. 268. 252. 1513. 250. 298. 234.
      793. 390. 246. 194. 193. 256. 202. 396. 241. 236. 207. 237. 294.
      344. 208. 628. 225. 248. 200. 273. 440. 137. 151. 96. 1013. 222.
      154. 274. 429. 99. 127. 101. 939. 197. 174. 93. 119. 120. 92. 186.
      236. 141. 97. 489. 114. 98. 101. 209. 185. 140. 83. 260. 1208.
      283. 761. 294. 966. 305. 239. 191. 1411. 258. 374. 266. 488. 128.
      130. 95. 327. 324. 333. 604. 274. 202. 101. 203. 255. 206. 228.
      532. 129. 113. 66. 235. 371. 112. 194. 85. 843. 242. 230. 167.
      424. 130. 122. 91. 672. 129. 113. 96. 167. 195. 322. 246. 372.
      157. 152. 251. 110. 111. 102. 155. 177. 118. 81. 105. 432. 100.
      157. 141. 452. 124. 150. 80. 760. 226. 207. 489. 689. 220. 173.
      137. 128. 129. 146. 246. 113. 84. 57. 199. 412. 318. 216. 623.
      165. 185. 103. 197. 360. 106. 122. 89. 1298. 268. 237. 346. 608.
      174. 150. 173. 1889. 305. 371. 155. 83. 129. 104. 387. 201. 233.
      150. 1307. 282. 208. 131. 369. 312. 342. 150. 611. 315. 146. 165.
      129. 329. 200. 112. 89. 764. 201. 227. 287. 604. 206. 80. 87. 115.
      90. 166. 298. 66. 97. 56. 130. 349. 163. 215. 447. 116. 173. 70.
      236. 679. 147. 131. 107. 1407. 248. 270. 277. 848. 203. 136. 158.
      2067. 231. 168. 140. 102. 107. 333. 565. 147. 189. 194. 733. 251.
      129. 362. 409. 323. 254. 197. 476.</_>
    <_>
      1835. 303. 347. 244. 998. 377. 245. 244. 1230. 276. 339. 263. 946.
      356. 260. 190. 207. 194. 235. 454. 252. 196. 219. 220. 224. 299.
      218. 367. 280. 217. 204. 319. 369. 122. 146. 129. 874. 255. 206.
      258. 332. 125. 124. 111. 734. 214. 242. 128. 128. 165. 94. 296.
      253. 181. 134. 354. 118. 141. 93. 172. 174. 152. 108. 275. 1120.
      296. 674. 300. 846. 303. 221. 199. 1118. 250. 328. 295. 424. 148.
      124. 146. 291. 290. 299. 445. 342. 216. 149. 231. 289. 257. 268.
      372. 221. 159. 125. 213. 356. 134. 247. 108. 937. 233. 176. 241.
      297. 90. 170. 105. 490. 116. 141. 111. 161. 181. 259. 313. 329.
      269. 144. 278. 149. 116. 143. 210. 160. 118. 134. 217. 287. 89.
      162. 151. 299. 121. 118. 139. 660. 249. 227. 335. 461. 254. 219.
      146. 104. 150. 160. 412. 86. 83. 70. 283. 452. 310. 199. 578. 149.
      204. 84. 286. 335. 149. 121. 112. 1242. 313. 210. 281. 616. 225.
      114. 130. 1772. 287. 359. 291. 101. 111. 147. 496. 216. 214. 191.
      1211. 256. 233. 230. 499. 293. 405. 226. 799. 344. 165. 227. 148.
      278. 145. 84. 150. 761. 257. 271. 300. 293. 195. 93. 99. 150. 114.
      217. 416. 64. 88. 40. 220. 527. 153. 293. 447. 129. 156. 77. 268.
      654. 190. 137. 153. 1180. 349. 176. 293. 682. 193. 144. 156. 1636.
      301. 198. 215. 109. 150. 310. 757. 164. 227. 210. 831. 195. 156.
      349. 585. 264. 209. 229. 660.</_>
    <_>
      1270. 139. 190. 152. 1254. 84. 139. 105. 1325. 141. 117. 119. 882.
      114. 77. 73. 72. 149. 154. 686. 77. 88. 212. 487. 264. 174. 193.
      797. 47. 50. 184. 411. 386. 114. 330. 73. 924. 317. 230. 195. 290.
      95. 111. 74. 564. 182. 145. 106. 74. 149. 228. 263. 226. 202. 176.
      415. 86. 111. 118. 259. 136. 105. 167. 189. 660. 140. 158. 140.
      718. 144. 119. 69. 1391. 144. 146. 169. 539. 120. 80. 60. 136.
      236. 165. 580. 198. 204. 135. 329. 189. 159. 177. 762. 67. 98. 92.
      179. 300. 109. 126. 90. 980. 360. 295. 200. 202. 105. 153. 108.
      692. 199. 184. 157. 140. 201. 184. 294. 321. 303. 139. 371. 57.
      87. 116. 314. 134. 155. 122. 267. 213. 81. 127. 120. 363. 114.
      155. 127. 768. 95. 88. 262. 563. 224. 119. 129. 49. 148. 129. 485.
      64. 81. 106. 250. 337. 182. 125. 975. 106. 104. 65. 274. 312. 114.
      161. 90. 1388. 453. 400. 295. 424. 113. 176. 154. 1816. 676. 527.
      348. 137. 154. 186. 651. 305. 275. 216. 1566. 235. 251. 200. 590.
      415. 513. 231. 991. 229. 113. 190. 184. 332. 186. 295. 137. 839.
      94. 120. 237. 425. 144. 100. 81. 107. 146. 194. 605. 62. 82. 37.
      179. 340. 129. 231. 827. 79. 122. 53. 233. 387. 204. 190. 152.
      1443. 412. 405. 281. 507. 245. 275. 154. 2016. 516. 405. 220. 127.
      95. 336. 640. 272. 318. 181. 1442. 247. 94. 337. 602. 550. 414.
      194. 1382.</_>
    <_>
      1673. 258. 327. 117. 1362. 276. 260. 139. 1327. 305. 283. 169.
      1230. 276. 260. 137. 182. 210. 171. 547. 351. 202. 269. 254. 153.
      286. 196. 984. 271. 176. 328. 316. 349. 141. 123. 90. 628. 236.
      187. 190. 451. 170. 117. 96. 791. 241. 312. 97. 92. 149. 80. 151.
      178. 134. 102. 369. 93. 127. 48. 180. 170. 135. 117. 212. 1350.
      352. 488. 195. 998. 301. 210. 138. 1674. 282. 331. 250. 712. 177.
      155. 77. 319. 362. 211. 781. 288. 277. 151. 188. 292. 179. 154.
      1429. 162. 98. 80. 133. 332. 138. 228. 85. 542. 191. 207. 169.
      406. 145. 248. 85. 366. 155. 191. 92. 158. 198. 261. 226. 313.
      240. 162. 263. 225. 120. 153. 169. 187. 156. 111. 162. 385. 108.
      203. 92. 352. 119. 128. 126. 728. 164. 222. 340. 634. 242. 160.
      182. 136. 103. 144. 371. 83. 82. 71. 219. 331. 207. 118. 552. 178.
      175. 102. 262. 306. 107. 131. 106. 1037. 191. 176. 177. 785. 177.
      208. 170. 1494. 364. 394. 204. 104. 90. 118. 678. 131. 174. 112.
      1387. 197. 228. 140. 519. 248. 408. 159. 893. 449. 246. 272. 123.
      277. 175. 131. 107. 621. 206. 265. 206. 313. 164. 114. 103. 165.
      129. 207. 344. 111. 124. 68. 227. 292. 105. 224. 553. 150. 186.
      66. 232. 599. 231. 184. 131. 1069. 218. 155. 247. 837. 273. 226.
      91. 1161. 249. 179. 187. 119. 137. 323. 715. 174. 224. 179. 1074.
      215. 102. 261. 582. 182. 271. 150. 839.</_>
    <_>
      1388. 206. 224. 144. 1004. 235. 223. 168. 1340. 228. 264. 261.
      984. 194. 176. 154. 138. 212. 142. 792. 260. 135. 309. 427. 158.
      216. 215. 1210. 196. 165. 296. 373. 335. 158. 131. 98. 532. 237.
      157. 167. 462. 189. 189. 117. 642. 140. 149. 137. 87. 162. 99.
      325. 142. 179. 126. 630. 147. 135. 78. 240. 142. 185. 99. 332.
      1206. 315. 420. 146. 875. 222. 209. 101. 1282. 196. 241. 159. 630.
      202. 113. 83. 251. 283. 190. 1148. 166. 203. 107. 246. 226. 175.
      183. 1694. 149. 146. 63. 200. 338. 103. 178. 90. 458. 209. 164.
      156. 432. 143. 291. 112. 545. 143. 131. 96. 130. 147. 187. 282.
      146. 176. 102. 386. 280. 154. 120. 319. 140. 141. 85. 218. 394.
      147. 224. 192. 409. 104. 172. 131. 604. 136. 192. 237. 575. 198.
      168. 182. 75. 117. 133. 444. 79. 78. 96. 334. 256. 193. 114. 581.
      140. 138. 75. 293. 309. 144. 176. 100. 1142. 275. 276. 187. 768.
      140. 113. 105. 1385. 309. 266. 221. 136. 191. 235. 521. 218. 340.
      263. 1554. 177. 180. 119. 600. 288. 355. 136. 1265. 339. 135. 188.
      127. 342. 190. 129. 132. 563. 139. 165. 204. 359. 173. 100. 109.
      120. 103. 211. 462. 121. 127. 65. 355. 337. 134. 210. 437. 114.
      201. 89. 228. 504. 104. 160. 187. 1025. 327. 231. 283. 850. 183.
      150. 117. 1097. 311. 227. 263. 99. 108. 350. 696. 148. 346. 257.
      1263. 181. 109. 259. 625. 209. 412. 186. 1303.</_>
    <_>
      2138. 179. 248. 194. 1066. 280. 119. 142. 1243. 255. 186. 214.
      762. 262. 151. 118. 181. 140. 287. 602. 141. 98. 292. 585. 370.
      153. 201. 885. 152. 96. 326. 504. 361. 158. 792. 129. 547. 348.
      193. 303. 338. 113. 184. 130. 440. 277. 178. 153. 145. 126. 297.
      434. 229. 133. 192. 576. 153. 78. 195. 286. 173. 146. 193. 231.
      669. 235. 307. 203. 753. 287. 225. 123. 1165. 206. 229. 193. 435.
      257. 134. 90. 191. 283. 261. 593. 259. 334. 175. 358. 248. 238.
      226. 1173. 190. 229. 88. 319. 218. 112. 149. 93. 796. 234. 387.
      169. 318. 115. 112. 151. 586. 203. 265. 123. 188. 160. 230. 222.
      444. 254. 211. 331. 169. 147. 164. 298. 201. 159. 131. 251. 201.
      141. 209. 185. 326. 179. 198. 222. 514. 159. 202. 245. 292. 296.
      191. 209. 81. 119. 196. 328. 86. 91. 138. 346. 437. 172. 231. 647.
      109. 150. 181. 250. 321. 130. 236. 197. 833. 276. 343. 373. 434.
      188. 214. 217. 715. 339. 538. 318. 139. 162. 285. 389. 237. 295.
      308. 1431. 207. 192. 213. 302. 278. 272. 305. 659. 207. 160. 246.
      222. 314. 301. 321. 223. 614. 142. 149. 296. 338. 238. 146. 133.
      112. 189. 195. 442. 72. 154. 89. 228. 400. 175. 270. 764. 128.
      299. 76. 403. 398. 216. 147. 179. 614. 297. 123. 273. 680. 374.
      168. 265. 971. 339. 244. 220. 196. 206. 372. 460. 186. 345. 216.
      900. 220. 202. 307. 358. 211. 300. 238. 784.</_>
    <_>
      1815. 157. 200. 98. 1130. 203. 176. 138. 1399. 169. 181. 197. 753.
      166. 89. 113. 154. 148. 249. 609. 131. 126. 369. 602. 232. 134.
      190. 986. 77. 111. 270. 551. 386. 132. 374. 145. 634. 356. 169.
      264. 369. 86. 208. 152. 451. 200. 179. 163. 140. 136. 220. 388.
      198. 182. 203. 523. 153. 99. 181. 278. 148. 113. 257. 315. 689.
      161. 238. 131. 792. 191. 147. 100. 1279. 165. 165. 199. 493. 150.
      71. 101. 194. 299. 184. 787. 212. 355. 189. 438. 209. 259. 184.
      1267. 106. 182. 95. 274. 227. 88. 118. 121. 611. 251. 163. 243.
      268. 147. 133. 117. 439. 177. 182. 155. 159. 208. 152. 352. 281.
      224. 188. 459. 136. 168. 162. 379. 180. 205. 172. 355. 167. 81.
      128. 134. 328. 109. 161. 156. 583. 152. 147. 272. 194. 162. 146.
      154. 70. 118. 228. 519. 97. 113. 162. 393. 357. 133. 196. 701.
      115. 124. 156. 257. 346. 165. 189. 159. 954. 296. 241. 350. 359.
      202. 224. 282. 799. 305. 322. 304. 154. 185. 258. 608. 244. 311.
      327. 1847. 164. 213. 222. 514. 271. 256. 326. 848. 266. 184. 227.
      183. 380. 249. 164. 169. 698. 165. 131. 235. 336. 203. 127. 179.
      102. 182. 188. 522. 72. 154. 88. 275. 430. 160. 229. 690. 129.
      219. 87. 451. 445. 198. 125. 204. 917. 315. 207. 280. 564. 341.
      168. 252. 1209. 367. 228. 374. 120. 206. 201. 490. 273. 378. 276.
      1247. 171. 203. 278. 564. 255. 363. 281. 1117.</_>
    <_>
      1577. 233. 303. 284. 994. 261. 267. 274. 1043. 325. 261. 292. 754.
      240. 186. 142. 208. 190. 277. 541. 238. 158. 268. 356. 209. 199.
      344. 983. 159. 104. 290. 311. 384. 197. 183. 196. 717. 296. 246.
      394. 291. 221. 135. 179. 540. 208. 138. 210. 133. 142. 149. 330.
      172. 194. 209. 454. 171. 140. 98. 275. 135. 110. 117. 223. 887.
      231. 419. 250. 647. 219. 146. 188. 1086. 302. 217. 338. 461. 196.
      111. 140. 228. 245. 304. 727. 234. 256. 123. 289. 305. 249. 213.
      1242. 128. 157. 96. 185. 248. 113. 192. 145. 550. 183. 183. 317.
      321. 150. 176. 170. 431. 109. 178. 183. 117. 167. 249. 233. 252.
      261. 196. 396. 157. 101. 183. 269. 174. 141. 129. 246. 248. 100.
      154. 146. 343. 143. 170. 239. 581. 177. 161. 158. 426. 285. 129.
      127. 145. 131. 189. 333. 67. 91. 106. 367. 500. 284. 229. 481.
      183. 188. 77. 222. 312. 113. 116. 142. 1094. 250. 240. 218. 558.
      143. 145. 116. 1257. 374. 172. 263. 154. 157. 128. 395. 182. 319.
      153. 1740. 368. 246. 220. 267. 286. 489. 214. 1084. 225. 100. 226.
      196. 322. 197. 92. 190. 798. 162. 126. 204. 506. 279. 91. 150.
      121. 99. 287. 329. 125. 164. 93. 246. 385. 164. 291. 420. 180.
      182. 105. 293. 402. 144. 137. 179. 1129. 345. 182. 314. 634. 130.
      238. 136. 1513. 264. 245. 238. 111. 183. 329. 386. 175. 288. 188.
      1361. 240. 118. 473. 426. 336. 443. 234. 1239.</_>
    <_>
      1739. 254. 365. 259. 701. 271. 252. 270. 1052. 310. 331. 345. 840.
      372. 252. 216. 252. 271. 462. 1364. 191. 148. 345. 618. 257. 379.
      382. 1235. 174. 172. 355. 570. 344. 160. 194. 149. 521. 209. 146.
      230. 335. 135. 136. 125. 450. 145. 182. 155. 149. 223. 173. 493.
      235. 155. 201. 653. 89. 231. 149. 388. 143. 250. 173. 375. 907.
      220. 497. 304. 579. 204. 194. 226. 1334. 288. 405. 309. 565. 186.
      154. 116. 321. 396. 419. 1227. 349. 183. 186. 355. 311. 314. 328.
      1460. 171. 151. 126. 366. 258. 127. 178. 157. 482. 177. 145. 227.
      502. 136. 234. 225. 430. 78. 184. 137. 114. 125. 148. 293. 279.
      158. 162. 341. 166. 119. 175. 373. 179. 133. 180. 261. 281. 63.
      164. 142. 330. 117. 104. 144. 472. 187. 228. 201. 361. 205. 105.
      128. 126. 116. 226. 495. 71. 58. 105. 314. 302. 313. 236. 755.
      119. 196. 119. 283. 242. 122. 161. 86. 1168. 113. 180. 178. 507.
      149. 131. 116. 1027. 142. 188. 139. 140. 201. 133. 445. 158. 257.
      201. 965. 212. 285. 162. 394. 194. 272. 172. 499. 278. 128. 204.
      237. 292. 150. 80. 140. 666. 151. 201. 179. 404. 180. 90. 85. 117.
      125. 243. 550. 87. 181. 69. 376. 318. 157. 216. 458. 127. 548. 80.
      351. 581. 229. 143. 166. 1046. 209. 109. 386. 716. 146. 164. 132.
      1005. 178. 154. 148. 93. 112. 189. 434. 123. 179. 127. 830. 203.
      128. 238. 435. 173. 252. 235. 930.</_>
    <_>
      1357. 259. 323. 352. 867. 222. 186. 227. 1087. 267. 311. 298. 858.
      280. 238. 168. 207. 245. 319. 1486. 202. 102. 391. 515. 223. 296.
      367. 1184. 136. 127. 271. 474. 380. 176. 156. 121. 564. 202. 150.
      112. 361. 132. 182. 170. 539. 138. 202. 128. 146. 166. 154. 496.
      318. 158. 197. 645. 113. 142. 149. 357. 163. 107. 172. 269. 937.
      250. 392. 339. 714. 237. 162. 160. 1070. 265. 272. 352. 597. 262.
      166. 131. 226. 252. 343. 1313. 358. 181. 177. 297. 338. 320. 308.
      1225. 150. 167. 117. 381. 275. 129. 179. 145. 457. 187. 108. 160.
      624. 136. 219. 165. 406. 99. 183. 103. 154. 150. 161. 302. 213.
      254. 155. 365. 194. 139. 170. 390. 202. 147. 120. 205. 350. 97.
      174. 125. 421. 75. 155. 147. 478. 186. 189. 219. 369. 195. 131.
      190. 157. 104. 180. 614. 75. 46. 94. 304. 277. 228. 153. 668. 132.
      196. 82. 285. 317. 166. 135. 114. 1569. 175. 182. 168. 477. 177.
      98. 183. 1549. 274. 205. 222. 162. 139. 206. 314. 236. 198. 209.
      893. 186. 250. 161. 454. 250. 294. 215. 535. 264. 136. 230. 183.
      352. 147. 108. 105. 565. 156. 166. 167. 376. 229. 94. 76. 103.
      102. 281. 610. 91. 135. 71. 323. 209. 141. 208. 509. 115. 358. 71.
      338. 557. 222. 164. 137. 1448. 260. 171. 290. 849. 237. 207. 160.
      1276. 277. 147. 148. 129. 110. 210. 523. 86. 196. 155. 884. 215.
      88. 257. 501. 123. 224. 125. 931.</_>
    <_>
      1286. 211. 320. 209. 838. 223. 253. 193. 1073. 234. 211. 189. 716.
      231. 242. 154. 209. 212. 298. 790. 126. 130. 196. 360. 219. 213.
      189. 636. 165. 133. 160. 328. 546. 186. 224. 174. 529. 241. 208.
      250. 389. 187. 218. 156. 519. 157. 275. 140. 122. 156. 219. 577.
      228. 133. 229. 538. 112. 107. 206. 385. 227. 107. 189. 265. 884.
      296. 348. 217. 822. 238. 171. 139. 1356. 230. 178. 186. 561. 278.
      163. 164. 199. 333. 244. 546. 235. 275. 153. 320. 234. 244. 204.
      1058. 191. 191. 120. 312. 274. 196. 154. 173. 646. 202. 201. 239.
      329. 125. 211. 119. 539. 206. 205. 168. 174. 286. 194. 243. 406.
      274. 206. 405. 196. 121. 148. 290. 185. 233. 125. 396. 378. 105.
      251. 154. 449. 161. 199. 130. 493. 155. 183. 231. 386. 222. 213.
      152. 158. 199. 242. 548. 82. 135. 158. 293. 547. 313. 249. 554.
      145. 185. 97. 254. 375. 138. 205. 164. 997. 283. 256. 254. 561.
      227. 227. 169. 946. 374. 438. 328. 181. 190. 169. 504. 229. 295.
      306. 1363. 314. 212. 166. 334. 306. 266. 222. 517. 290. 240. 227.
      160. 427. 187. 133. 137. 514. 183. 234. 200. 340. 186. 140. 179.
      125. 162. 168. 324. 117. 146. 102. 306. 356. 202. 258. 651. 140.
      313. 103. 544. 441. 165. 173. 152. 894. 292. 228. 271. 644. 219.
      204. 190. 1193. 383. 212. 222. 166. 214. 280. 329. 186. 264. 233.
      943. 271. 175. 340. 351. 300. 393. 216. 820.</_>
    <_>
      1280. 226. 351. 243. 802. 249. 239. 163. 1007. 292. 336. 305. 708.
      242. 158. 130. 222. 248. 251. 864. 170. 213. 486. 478. 244. 373.
      284. 1070. 142. 149. 294. 385. 440. 154. 175. 150. 614. 182. 149.
      205. 439. 157. 184. 113. 515. 194. 148. 137. 151. 214. 169. 363.
      206. 177. 229. 513. 152. 95. 151. 262. 186. 137. 196. 291. 867.
      217. 433. 189. 539. 168. 224. 186. 1078. 247. 304. 250. 581. 145.
      113. 104. 298. 349. 302. 873. 280. 297. 253. 307. 296. 368. 317.
      1290. 123. 183. 105. 390. 242. 126. 155. 111. 457. 184. 151. 177.
      496. 124. 200. 120. 545. 169. 161. 120. 138. 196. 165. 329. 235.
      214. 157. 321. 175. 150. 150. 332. 199. 137. 125. 319. 342. 107.
      168. 187. 509. 141. 226. 140. 469. 129. 162. 236. 432. 183. 148.
      126. 120. 135. 193. 433. 103. 107. 139. 284. 325. 203. 206. 623.
      118. 135. 78. 186. 320. 157. 207. 127. 1121. 216. 293. 233. 498.
      178. 169. 216. 977. 313. 310. 317. 157. 173. 165. 569. 182. 251.
      234. 1197. 245. 200. 165. 423. 262. 420. 279. 824. 293. 154. 158.
      134. 301. 200. 140. 144. 501. 190. 217. 187. 372. 223. 142. 156.
      94. 115. 158. 387. 140. 150. 111. 235. 284. 188. 182. 688. 144.
      241. 100. 373. 514. 269. 196. 151. 1153. 318. 191. 265. 715. 222.
      214. 192. 1067. 387. 228. 210. 92. 245. 253. 565. 251. 362. 211.
      1054. 187. 216. 317. 653. 235. 327. 242. 1097.</_>
    <_>
      1277. 182. 311. 179. 748. 245. 239. 191. 883. 263. 166. 190. 632.
      240. 206. 122. 167. 129. 257. 649. 147. 164. 249. 430. 243. 172.
      186. 661. 126. 137. 115. 362. 516. 165. 340. 144. 428. 249. 231.
      353. 347. 220. 185. 154. 465. 222. 225. 172. 145. 155. 283. 581.
      201. 201. 243. 689. 147. 134. 206. 274. 144. 97. 271. 223. 798.
      220. 244. 147. 719. 204. 182. 166. 1194. 197. 167. 217. 560. 244.
      148. 126. 190. 219. 170. 387. 204. 211. 148. 348. 266. 190. 178.
      1160. 174. 164. 94. 384. 375. 118. 220. 178. 581. 261. 242. 288.
      401. 130. 184. 139. 512. 134. 249. 163. 150. 126. 171. 275. 420.
      261. 188. 492. 173. 127. 145. 283. 232. 227. 144. 325. 292. 161.
      243. 187. 467. 181. 221. 171. 505. 183. 167. 275. 406. 217. 146.
      192. 149. 132. 222. 511. 94. 118. 115. 400. 513. 217. 176. 461.
      161. 256. 122. 256. 307. 138. 173. 122. 934. 283. 272. 264. 507.
      263. 178. 187. 842. 456. 410. 245. 200. 233. 207. 508. 267. 294.
      318. 1565. 349. 295. 208. 344. 353. 383. 281. 643. 279. 261. 198.
      169. 448. 218. 160. 185. 558. 223. 179. 209. 368. 210. 121. 177.
      107. 137. 154. 378. 115. 176. 126. 407. 448. 196. 280. 617. 189.
      254. 128. 518. 433. 213. 191. 243. 807. 280. 162. 265. 714. 302.
      239. 231. 997. 331. 160. 217. 198. 203. 247. 473. 214. 308. 278.
      1210. 289. 190. 368. 452. 305. 370. 208. 951.</_>
    <_>
      1257. 241. 380. 258. 755. 236. 257. 161. 1008. 264. 301. 291. 704.
      242. 159. 139. 196. 255. 266. 822. 147. 230. 485. 498. 234. 355.
      261. 1151. 148. 177. 287. 393. 452. 166. 187. 134. 578. 184. 146.
      193. 450. 165. 177. 123. 521. 191. 143. 134. 149. 202. 164. 389.
      214. 147. 226. 518. 159. 118. 139. 296. 202. 137. 209. 282. 850.
      194. 451. 220. 516. 188. 226. 171. 1120. 277. 312. 258. 610. 178.
      117. 89. 287. 367. 282. 849. 270. 309. 233. 308. 310. 353. 332.
      1196. 128. 205. 90. 390. 229. 135. 126. 129. 457. 173. 145. 191.
      494. 128. 207. 124. 567. 167. 175. 119. 157. 209. 161. 325. 240.
      233. 153. 328. 178. 152. 142. 353. 209. 141. 141. 308. 375. 121.
      194. 196. 534. 168. 183. 142. 442. 125. 165. 234. 391. 207. 152.
      121. 114. 141. 189. 403. 110. 113. 148. 300. 309. 211. 198. 588.
      114. 161. 62. 200. 355. 149. 199. 129. 1076. 184. 289. 235. 507.
      183. 187. 191. 1005. 297. 307. 295. 153. 181. 187. 558. 175. 247.
      246. 1178. 228. 246. 165. 415. 255. 366. 296. 836. 308. 152. 176.
      136. 312. 222. 171. 135. 482. 194. 193. 212. 366. 226. 141. 163.
      88. 98. 177. 407. 125. 166. 108. 219. 274. 184. 187. 713. 147.
      222. 101. 395. 532. 271. 213. 157. 1120. 310. 187. 242. 730. 199.
      216. 212. 1081. 356. 207. 184. 107. 243. 259. 555. 216. 371. 202.
      1063. 178. 212. 321. 576. 215. 343. 227. 1129.</_>
    <_>
      1331. 181. 326. 172. 871. 259. 278. 194. 1014. 194. 179. 145. 732.
      235. 215. 125. 166. 105. 328. 789. 143. 167. 215. 449. 212. 168.
      138. 723. 160. 120. 126. 352. 519. 170. 265. 151. 495. 242. 252.
      362. 451. 164. 178. 120. 548. 198. 195. 140. 141. 144. 268. 661.
      203. 203. 216. 668. 184. 124. 180. 221. 134. 99. 272. 246. 845.
      215. 293. 185. 806. 241. 176. 171. 1206. 215. 213. 201. 611. 259.
      160. 117. 226. 261. 171. 496. 212. 217. 156. 354. 336. 217. 211.
      1184. 166. 152. 74. 395. 365. 124. 170. 157. 567. 217. 242. 242.
      490. 157. 161. 150. 484. 146. 202. 154. 149. 132. 150. 336. 425.
      255. 210. 458. 190. 111. 126. 281. 223. 175. 141. 374. 296. 150.
      194. 211. 505. 160. 194. 136. 471. 224. 167. 285. 413. 216. 180.
      182. 127. 142. 189. 502. 119. 104. 108. 353. 515. 216. 226. 485.
      173. 203. 133. 225. 330. 136. 167. 124. 936. 275. 278. 245. 528.
      250. 170. 199. 783. 378. 397. 258. 178. 153. 231. 473. 248. 261.
      298. 1567. 332. 248. 214. 303. 310. 348. 292. 619. 316. 265. 152.
      150. 414. 200. 146. 145. 554. 206. 152. 236. 355. 257. 132. 187.
      104. 115. 144. 391. 141. 199. 116. 389. 408. 189. 279. 650. 177.
      281. 122. 506. 470. 229. 146. 207. 840. 277. 196. 293. 753. 377.
      241. 230. 1047. 313. 127. 210. 192. 192. 231. 390. 247. 277. 247.
      1073. 220. 166. 283. 438. 284. 320. 210. 931.</_>
    <_>
      1350. 210. 319. 165. 865. 265. 279. 198. 1042. 215. 201. 148. 738.
      225. 216. 133. 185. 125. 339. 780. 140. 162. 218. 458. 212. 169.
      147. 740. 147. 135. 128. 345. 487. 153. 225. 153. 487. 258. 260.
      339. 439. 175. 176. 137. 480. 201. 188. 140. 128. 132. 272. 677.
      202. 198. 227. 656. 170. 143. 194. 234. 138. 105. 271. 255. 863.
      227. 289. 170. 775. 240. 185. 171. 1185. 208. 259. 216. 635. 251.
      142. 106. 221. 259. 157. 497. 241. 215. 131. 379. 335. 234. 217.
      1200. 162. 147. 81. 378. 393. 128. 162. 160. 531. 230. 257. 232.
      468. 132. 166. 146. 467. 142. 179. 157. 146. 135. 132. 337. 423.
      248. 208. 423. 182. 109. 115. 249. 221. 156. 138. 368. 300. 123.
      177. 211. 483. 182. 205. 146. 453. 224. 157. 271. 422. 208. 181.
      169. 132. 149. 199. 493. 120. 118. 103. 376. 540. 178. 207. 479.
      166. 200. 111. 235. 330. 150. 156. 130. 927. 283. 277. 248. 516.
      254. 168. 205. 786. 366. 420. 258. 189. 164. 218. 466. 262. 280.
      286. 1548. 332. 228. 226. 278. 332. 326. 292. 621. 340. 234. 177.
      139. 422. 231. 137. 159. 566. 215. 157. 248. 342. 264. 119. 196.
      115. 120. 150. 387. 130. 196. 126. 357. 437. 165. 278. 635. 171.
      298. 124. 507. 466. 249. 159. 219. 860. 272. 191. 298. 765. 345.
      238. 235. 1001. 343. 165. 212. 163. 197. 244. 420. 240. 291. 244.
      1113. 243. 182. 276. 454. 272. 359. 200. 887.</_>
    <_>
      1282. 221. 352. 251. 772. 250. 247. 147. 922. 255. 314. 327. 709.
      248. 158. 145. 206. 231. 239. 843. 197. 226. 496. 478. 236. 368.
      276. 1115. 150. 181. 294. 389. 460. 166. 194. 113. 598. 174. 146.
      217. 431. 150. 192. 129. 510. 192. 133. 130. 159. 202. 180. 399.
      204. 141. 218. 535. 157. 96. 141. 257. 184. 128. 222. 277. 814.
      200. 439. 209. 511. 177. 225. 167. 1089. 263. 300. 267. 611. 191.
      120. 89. 288. 343. 290. 852. 287. 308. 253. 315. 269. 338. 343.
      1333. 133. 170. 105. 375. 248. 129. 133. 125. 457. 190. 153. 179.
      500. 128. 209. 137. 571. 170. 181. 113. 139. 208. 147. 337. 236.
      227. 152. 327. 162. 164. 152. 338. 200. 145. 162. 297. 365. 129.
      181. 176. 530. 163. 208. 146. 462. 116. 170. 267. 404. 211. 145.
      136. 117. 139. 174. 395. 114. 107. 151. 283. 291. 207. 199. 632.
      100. 165. 73. 205. 368. 144. 213. 137. 1067. 186. 292. 219. 494.
      172. 180. 204. 1008. 334. 318. 314. 145. 191. 184. 544. 197. 210.
      214. 1179. 239. 245. 185. 404. 242. 392. 278. 831. 290. 160. 194.
      132. 315. 215. 179. 147. 479. 183. 206. 181. 396. 224. 145. 159.
      94. 119. 175. 413. 142. 162. 112. 240. 267. 172. 168. 724. 154.
      226. 98. 363. 543. 272. 194. 154. 1144. 281. 210. 234. 713. 235.
      205. 198. 1065. 335. 178. 196. 102. 246. 257. 558. 208. 402. 223.
      1063. 190. 222. 304. 576. 213. 364. 207. 1133.</_>
    <_>
      1242. 219. 365. 258. 785. 253. 258. 165. 902. 252. 304. 323. 673.
      263. 182. 133. 208. 237. 246. 871. 181. 232. 542. 513. 241. 380.
      278. 1109. 153. 169. 318. 388. 436. 190. 210. 118. 622. 165. 154.
      224. 457. 149. 194. 142. 518. 198. 119. 145. 169. 187. 147. 399.
      214. 129. 205. 528. 145. 111. 134. 281. 184. 126. 207. 288. 799.
      205. 425. 215. 512. 176. 219. 161. 1015. 266. 288. 274. 618. 191.
      122. 92. 272. 342. 294. 899. 304. 287. 232. 314. 265. 310. 350.
      1320. 125. 162. 105. 358. 222. 135. 117. 121. 457. 175. 145. 177.
      529. 130. 233. 129. 581. 159. 188. 122. 138. 205. 155. 309. 270.
      237. 158. 336. 176. 140. 151. 348. 196. 135. 144. 276. 378. 101.
      176. 191. 526. 156. 187. 157. 481. 125. 161. 231. 402. 214. 142.
      131. 137. 140. 191. 376. 108. 100. 135. 261. 300. 212. 196. 671.
      91. 161. 69. 219. 351. 147. 210. 139. 1123. 179. 279. 220. 495.
      172. 173. 168. 981. 324. 311. 323. 132. 184. 176. 543. 196. 226.
      236. 1208. 229. 234. 195. 411. 242. 365. 260. 824. 302. 153. 187.
      124. 343. 220. 163. 154. 518. 199. 211. 216. 390. 228. 148. 161.
      83. 126. 168. 405. 140. 168. 126. 223. 251. 186. 177. 748. 160.
      232. 94. 378. 546. 260. 192. 156. 1127. 303. 195. 250. 712. 210.
      191. 209. 1074. 367. 190. 203. 91. 276. 253. 570. 219. 358. 223.
      1044. 172. 194. 272. 601. 216. 381. 223. 1109.</_>
    <_>
      1618. 242. 263. 240. 871. 242. 177. 203. 1050. 217. 201. 239. 740.
      189. 106. 170. 162. 214. 271. 1035. 135. 189. 399. 674. 239. 289.
      267. 1170. 127. 164. 354. 628. 444. 165. 191. 155. 508. 179. 140.
      213. 455. 122. 232. 124. 473. 176. 126. 132. 146. 160. 191. 450.
      265. 190. 238. 658. 111. 143. 185. 393. 150. 102. 224. 296. 759.
      148. 295. 179. 417. 136. 180. 212. 832. 240. 217. 297. 581. 169.
      112. 105. 223. 261. 301. 992. 230. 258. 277. 438. 269. 300. 347.
      1385. 87. 158. 134. 439. 269. 91. 154. 146. 491. 139. 121. 164.
      544. 142. 159. 151. 441. 171. 134. 101. 150. 154. 146. 267. 283.
      278. 195. 352. 169. 142. 142. 469. 179. 126. 114. 290. 257. 96.
      136. 170. 404. 110. 187. 176. 494. 157. 109. 212. 423. 183. 132.
      137. 100. 126. 181. 377. 72. 150. 185. 374. 385. 210. 163. 587.
      87. 105. 92. 268. 339. 130. 171. 164. 1290. 210. 255. 235. 486.
      158. 126. 185. 1213. 268. 249. 246. 103. 168. 142. 581. 203. 379.
      227. 1077. 205. 232. 216. 526. 211. 363. 207. 597. 170. 119. 173.
      194. 406. 185. 146. 197. 662. 164. 182. 174. 444. 235. 126. 138.
      87. 109. 212. 461. 77. 118. 59. 330. 391. 149. 192. 699. 139. 273.
      58. 419. 578. 169. 132. 189. 1251. 278. 206. 377. 941. 225. 153.
      221. 1095. 278. 217. 182. 84. 147. 262. 551. 138. 351. 157. 1079.
      198. 189. 357. 685. 167. 349. 237. 1188.</_>
    <_>
      1621. 211. 295. 256. 834. 264. 188. 206. 1065. 190. 221. 220. 726.
      207. 128. 174. 153. 215. 269. 1039. 174. 166. 423. 674. 239. 278.
      254. 1189. 110. 183. 367. 654. 419. 163. 212. 134. 527. 186. 134.
      210. 379. 135. 217. 131. 492. 159. 119. 132. 132. 169. 151. 471.
      233. 180. 235. 680. 122. 138. 178. 421. 150. 95. 231. 276. 722.
      145. 332. 189. 440. 162. 186. 206. 805. 246. 216. 267. 619. 209.
      121. 99. 221. 273. 298. 1022. 252. 272. 281. 453. 258. 312. 308.
      1447. 85. 176. 121. 458. 275. 90. 158. 135. 499. 127. 124. 156.
      519. 144. 137. 157. 421. 164. 129. 106. 165. 168. 173. 274. 294.
      262. 175. 308. 184. 153. 145. 444. 176. 137. 110. 295. 260. 107.
      154. 143. 419. 95. 163. 169. 500. 179. 113. 209. 399. 160. 96.
      126. 99. 123. 169. 416. 85. 134. 150. 357. 367. 241. 152. 599. 81.
      121. 94. 270. 341. 137. 154. 154. 1246. 209. 271. 255. 463. 127.
      147. 188. 1230. 293. 267. 260. 109. 160. 142. 638. 218. 339. 240.
      1037. 209. 217. 203. 514. 187. 322. 215. 629. 195. 118. 157. 197.
      381. 156. 137. 187. 688. 155. 167. 174. 426. 194. 123. 132. 87.
      129. 231. 456. 71. 144. 64. 332. 380. 138. 198. 690. 127. 256. 58.
      420. 566. 201. 122. 193. 1205. 289. 208. 386. 919. 240. 150. 254.
      1092. 327. 210. 178. 79. 173. 246. 553. 140. 359. 164. 1043. 223.
      205. 330. 697. 180. 370. 231. 1219.</_>
    <_>
      1621. 235. 252. 247. 844. 252. 191. 208. 1015. 182. 222. 232. 720.
      201. 141. 172. 138. 217. 277. 1036. 152. 184. 407. 648. 246. 284.
      263. 1124. 115. 180. 365. 639. 406. 153. 195. 140. 538. 173. 133.
      231. 405. 128. 227. 141. 476. 173. 123. 124. 136. 190. 179. 469.
      255. 192. 242. 681. 124. 113. 162. 413. 150. 90. 231. 293. 757.
      138. 302. 185. 456. 174. 184. 212. 781. 239. 213. 282. 641. 189.
      121. 113. 221. 287. 304. 1047. 239. 274. 304. 462. 285. 308. 327.
      1400. 84. 175. 139. 425. 274. 107. 159. 145. 480. 124. 126. 159.
      520. 143. 152. 157. 411. 162. 131. 101. 140. 177. 170. 266. 287.
      262. 177. 336. 170. 160. 138. 431. 162. 150. 111. 267. 249. 107.
      148. 159. 418. 93. 185. 151. 483. 176. 118. 224. 387. 162. 101.
      112. 96. 126. 181. 393. 87. 137. 155. 375. 402. 212. 166. 645. 78.
      123. 106. 290. 313. 144. 167. 163. 1198. 214. 287. 236. 457. 153.
      159. 179. 1301. 287. 244. 239. 115. 155. 145. 606. 205. 330. 216.
      1032. 187. 220. 196. 489. 202. 378. 235. 581. 208. 122. 154. 186.
      404. 173. 134. 174. 646. 177. 180. 173. 385. 207. 124. 121. 74.
      116. 207. 486. 68. 174. 70. 336. 374. 152. 205. 695. 109. 267. 58.
      449. 568. 187. 124. 207. 1219. 290. 203. 375. 935. 237. 161. 249.
      1168. 289. 197. 183. 94. 167. 240. 567. 153. 370. 184. 1031. 219.
      196. 352. 680. 170. 363. 229. 1188.</_>
    <_>
      1123. 236. 390. 278. 777. 246. 201. 201. 907. 337. 302. 255. 659.
      244. 328. 207. 239. 300. 372. 897. 202. 201. 280. 357. 192. 352.
      184. 689. 182. 168. 204. 321. 434. 259. 253. 226. 486. 293. 201.
      279. 378. 148. 242. 144. 404. 239. 250. 145. 213. 229. 199. 707.
      303. 204. 211. 672. 96. 189. 111. 379. 159. 196. 259. 243. 777.
      205. 482. 313. 739. 214. 152. 195. 957. 228. 296. 181. 581. 241.
      166. 140. 305. 300. 250. 651. 255. 249. 131. 298. 290. 333. 205.
      874. 143. 260. 89. 465. 286. 133. 210. 191. 539. 248. 167. 215.
      289. 134. 253. 162. 464. 160. 222. 161. 183. 148. 128. 370. 376.
      226. 143. 456. 174. 174. 193. 507. 221. 244. 196. 400. 246. 148.
      212. 191. 385. 99. 158. 171. 535. 213. 221. 187. 333. 201. 304.
      182. 145. 154. 252. 735. 54. 94. 107. 263. 548. 304. 248. 551.
      153. 199. 137. 215. 257. 138. 161. 127. 760. 233. 265. 234. 527.
      156. 228. 108. 828. 346. 401. 272. 156. 160. 158. 485. 180. 197.
      260. 1723. 289. 223. 201. 352. 232. 305. 221. 460. 299. 157. 237.
      179. 355. 219. 122. 166. 628. 190. 184. 148. 294. 182. 190. 141.
      115. 149. 155. 420. 91. 247. 78. 359. 408. 212. 293. 671. 116.
      417. 105. 588. 408. 103. 153. 154. 758. 240. 183. 309. 595. 288.
      204. 156. 1034. 363. 207. 183. 149. 193. 191. 508. 152. 213. 148.
      1032. 222. 167. 334. 462. 232. 240. 188. 808.</_>
    <_>
      1200. 230. 386. 300. 788. 228. 233. 223. 879. 330. 321. 242. 684.
      258. 297. 215. 221. 320. 372. 763. 189. 193. 271. 347. 194. 336.
      206. 654. 136. 133. 197. 319. 452. 218. 261. 204. 477. 319. 252.
      315. 374. 158. 204. 173. 358. 249. 207. 160. 193. 275. 218. 599.
      287. 239. 238. 623. 108. 196. 180. 410. 160. 162. 266. 306. 720.
      215. 432. 278. 733. 206. 143. 184. 926. 234. 287. 200. 514. 202.
      171. 167. 325. 344. 233. 570. 255. 262. 128. 307. 288. 356. 207.
      880. 156. 236. 102. 404. 279. 134. 187. 175. 598. 216. 179. 214.
      287. 140. 284. 164. 475. 159. 229. 148. 175. 195. 163. 367. 364.
      250. 141. 507. 180. 134. 162. 470. 209. 212. 195. 446. 253. 162.
      207. 195. 412. 118. 158. 166. 517. 179. 214. 197. 346. 189. 318.
      170. 153. 153. 239. 714. 69. 107. 132. 314. 582. 301. 256. 542.
      137. 202. 122. 215. 299. 130. 139. 121. 771. 256. 263. 246. 489.
      182. 256. 111. 893. 333. 397. 275. 141. 156. 145. 472. 187. 223.
      301. 1729. 251. 178. 199. 370. 219. 258. 202. 423. 281. 173. 230.
      194. 334. 217. 113. 159. 621. 177. 200. 185. 310. 207. 166. 160.
      104. 123. 191. 383. 106. 224. 81. 329. 426. 209. 314. 689. 143.
      419. 99. 577. 406. 134. 164. 186. 823. 259. 187. 292. 649. 284.
      211. 146. 1025. 343. 208. 186. 153. 197. 188. 451. 181. 228. 172.
      960. 254. 183. 329. 481. 228. 234. 188. 863.</_>
    <_>
      1248. 253. 405. 251. 727. 215. 291. 183. 884. 299. 303. 251. 639.
      240. 302. 184. 239. 240. 360. 689. 196. 151. 305. 544. 185. 240.
      201. 674. 141. 156. 201. 381. 441. 274. 206. 242. 506. 241. 227.
      249. 297. 180. 215. 167. 451. 161. 225. 179. 152. 231. 191. 750.
      229. 262. 184. 617. 116. 151. 174. 354. 174. 207. 246. 333. 618.
      229. 387. 301. 532. 154. 162. 140. 938. 246. 289. 208. 512. 232.
      136. 159. 264. 346. 235. 487. 214. 263. 144. 399. 255. 331. 192.
      1001. 123. 241. 122. 398. 288. 224. 211. 179. 549. 203. 193. 198.
      301. 129. 266. 134. 584. 157. 232. 167. 125. 184. 172. 302. 393.
      267. 184. 415. 161. 168. 194. 389. 241. 202. 185. 399. 257. 113.
      194. 162. 388. 118. 146. 116. 457. 205. 231. 191. 362. 200. 189.
      183. 167. 139. 257. 496. 93. 125. 165. 397. 578. 277. 232. 526.
      135. 236. 132. 262. 314. 143. 197. 164. 852. 261. 317. 304. 498.
      181. 220. 164. 784. 353. 332. 287. 120. 210. 168. 622. 164. 310.
      197. 1642. 328. 214. 195. 322. 268. 334. 241. 560. 234. 154. 197.
      226. 330. 223. 151. 209. 572. 170. 196. 208. 328. 251. 119. 185.
      138. 138. 227. 345. 89. 198. 119. 369. 448. 224. 255. 605. 155.
      344. 132. 562. 412. 174. 183. 184. 745. 245. 196. 307. 653. 281.
      238. 160. 868. 339. 219. 210. 152. 132. 339. 419. 188. 269. 169.
      1053. 263. 176. 425. 495. 245. 328. 175. 998.</_>
    <_>
      1174. 273. 410. 232. 694. 232. 330. 178. 885. 237. 298. 140. 612.
      238. 290. 162. 274. 241. 338. 693. 200. 152. 286. 485. 214. 235.
      214. 784. 149. 142. 191. 372. 443. 231. 238. 152. 499. 220. 199.
      226. 261. 147. 205. 116. 487. 210. 270. 135. 161. 243. 215. 693.
      230. 213. 189. 571. 136. 144. 169. 317. 177. 174. 240. 290. 701.
      208. 411. 269. 552. 188. 163. 140. 1002. 295. 310. 251. 531. 258.
      167. 111. 200. 366. 225. 533. 242. 243. 132. 379. 241. 338. 239.
      1087. 154. 209. 130. 397. 316. 196. 184. 138. 573. 191. 202. 173.
      352. 123. 233. 128. 547. 163. 274. 183. 131. 213. 132. 323. 409.
      300. 190. 469. 129. 179. 129. 383. 247. 222. 201. 353. 250. 138.
      229. 159. 424. 170. 185. 152. 458. 206. 215. 228. 416. 197. 209.
      158. 134. 121. 195. 496. 88. 121. 125. 364. 533. 301. 231. 422.
      129. 221. 110. 250. 310. 131. 222. 129. 751. 256. 320. 305. 485.
      230. 266. 184. 814. 322. 424. 306. 131. 209. 148. 586. 190. 314.
      222. 1837. 308. 246. 217. 395. 243. 304. 285. 587. 249. 179. 161.
      236. 370. 256. 117. 182. 601. 191. 177. 203. 344. 215. 119. 141.
      129. 144. 161. 370. 109. 176. 101. 347. 401. 240. 239. 521. 94.
      341. 90. 497. 435. 181. 165. 193. 715. 344. 243. 314. 696. 283.
      260. 169. 881. 269. 250. 237. 162. 172. 299. 466. 225. 238. 221.
      1003. 290. 209. 398. 413. 235. 375. 186. 1046.</_>
    <_>
      1468. 200. 354. 200. 852. 324. 221. 222. 899. 227. 288. 193. 710.
      262. 161. 190. 182. 217. 246. 811. 199. 137. 481. 481. 248. 305.
      315. 917. 108. 138. 351. 433. 420. 180. 186. 123. 553. 178. 149.
      292. 369. 157. 196. 102. 420. 198. 181. 165. 108. 189. 168. 527.
      195. 206. 164. 551. 119. 125. 186. 315. 168. 148. 223. 299. 708.
      188. 364. 242. 517. 178. 157. 202. 783. 206. 241. 247. 600. 178.
      102. 106. 219. 255. 289. 773. 300. 256. 211. 365. 237. 254. 286.
      1192. 103. 150. 122. 395. 241. 138. 175. 115. 391. 166. 148. 219.
      536. 114. 229. 156. 510. 66. 188. 162. 137. 158. 200. 281. 313.
      226. 177. 427. 204. 167. 122. 434. 195. 160. 149. 310. 319. 80.
      170. 121. 481. 127. 208. 150. 641. 150. 163. 144. 355. 199. 136.
      148. 104. 120. 176. 363. 78. 110. 158. 424. 490. 220. 195. 556.
      127. 131. 100. 292. 352. 200. 203. 147. 1270. 271. 301. 264. 472.
      144. 166. 157. 1139. 328. 333. 290. 140. 154. 201. 639. 193. 284.
      216. 1257. 238. 266. 139. 469. 245. 411. 248. 699. 209. 113. 208.
      198. 343. 164. 129. 150. 660. 164. 189. 178. 363. 221. 116. 175.
      112. 106. 179. 441. 56. 149. 58. 299. 487. 182. 234. 653. 108.
      251. 66. 543. 535. 191. 190. 204. 1084. 343. 198. 262. 872. 223.
      195. 203. 1071. 319. 223. 237. 120. 161. 208. 446. 184. 469. 206.
      1192. 296. 162. 272. 525. 284. 367. 243. 1199.</_>
    <_>
      1390. 227. 386. 189. 734. 282. 215. 227. 1005. 240. 358. 188. 666.
      307. 190. 152. 172. 212. 275. 859. 206. 183. 419. 414. 263. 274.
      278. 845. 148. 146. 271. 478. 403. 146. 200. 142. 624. 222. 198.
      339. 380. 134. 219. 103. 431. 184. 180. 148. 140. 158. 136. 464.
      247. 210. 235. 590. 143. 117. 196. 314. 142. 182. 231. 240. 727.
      163. 454. 242. 547. 159. 172. 192. 873. 239. 307. 240. 537. 185.
      142. 102. 237. 302. 203. 755. 259. 217. 187. 287. 228. 305. 262.
      1101. 102. 170. 95. 372. 221. 112. 165. 125. 432. 147. 187. 244.
      519. 121. 190. 109. 527. 92. 198. 133. 145. 139. 146. 184. 345.
      230. 195. 421. 181. 165. 130. 361. 169. 163. 167. 234. 293. 88.
      145. 126. 567. 132. 196. 142. 578. 173. 181. 135. 350. 195. 159.
      131. 100. 126. 157. 330. 96. 98. 143. 420. 500. 205. 151. 481.
      100. 153. 95. 234. 371. 167. 188. 136. 1269. 296. 246. 272. 475.
      203. 193. 151. 1151. 369. 395. 374. 134. 143. 139. 531. 205. 299.
      250. 1330. 243. 219. 172. 407. 227. 388. 355. 844. 203. 99. 212.
      201. 305. 176. 138. 121. 557. 184. 200. 174. 351. 187. 96. 175.
      97. 120. 151. 362. 62. 129. 61. 283. 504. 142. 218. 618. 146. 235.
      57. 516. 582. 238. 164. 178. 1106. 370. 191. 321. 807. 259. 184.
      202. 1080. 310. 247. 246. 105. 256. 249. 542. 258. 377. 205. 1302.
      262. 152. 307. 633. 289. 384. 216. 1319.</_>
    <_>
      1064. 242. 439. 322. 718. 226. 281. 146. 826. 277. 315. 199. 626.
      216. 262. 129. 193. 266. 375. 1052. 203. 136. 281. 530. 263. 278.
      235. 931. 142. 157. 185. 333. 435. 204. 233. 149. 481. 252. 174.
      251. 255. 124. 186. 142. 421. 194. 240. 133. 133. 187. 200. 789.
      244. 171. 164. 698. 120. 154. 149. 378. 177. 191. 252. 280. 640.
      216. 439. 337. 555. 185. 157. 130. 873. 280. 295. 267. 575. 295.
      159. 130. 236. 345. 304. 641. 218. 246. 133. 378. 297. 328. 217.
      1256. 146. 248. 99. 477. 346. 171. 177. 131. 579. 204. 214. 197.
      333. 151. 198. 134. 601. 191. 228. 171. 133. 197. 148. 226. 403.
      244. 174. 421. 121. 204. 168. 309. 195. 183. 172. 307. 227. 128.
      234. 192. 431. 162. 226. 164. 442. 166. 212. 238. 352. 229. 246.
      138. 128. 129. 230. 507. 85. 121. 109. 424. 634. 237. 232. 464.
      117. 196. 94. 195. 307. 138. 201. 115. 731. 265. 273. 341. 496.
      193. 269. 166. 802. 348. 458. 306. 137. 170. 154. 518. 182. 267.
      279. 1869. 298. 204. 256. 311. 283. 442. 304. 520. 242. 192. 129.
      178. 360. 234. 110. 168. 582. 172. 126. 219. 285. 234. 106. 152.
      142. 131. 177. 258. 105. 219. 83. 360. 375. 225. 248. 521. 93.
      343. 83. 631. 406. 215. 166. 185. 700. 293. 272. 322. 633. 316.
      219. 161. 675. 269. 254. 244. 144. 183. 210. 368. 227. 298. 240.
      1099. 237. 208. 432. 414. 306. 366. 223. 998.</_>
    <_>
      6230. 191. 336. 199. 844. 221. 127. 149. 1321. 232. 423. 221. 480.
      254. 103. 121. 202. 233. 353. 679. 97. 219. 247. 462. 333. 272.
      303. 971. 70. 82. 220. 357. 421. 113. 473. 95. 462. 225. 201. 265.
      319. 91. 205. 94. 478. 169. 124. 100. 131. 142. 185. 282. 158.
      224. 145. 651. 131. 110. 266. 290. 174. 135. 156. 160. 786. 284.
      385. 262. 584. 216. 133. 80. 1279. 162. 268. 203. 322. 139. 83.
      73. 214. 637. 271. 607. 202. 286. 93. 204. 272. 258. 253. 1058.
      90. 140. 86. 277. 300. 144. 184. 134. 483. 184. 371. 197. 288. 97.
      112. 87. 489. 172. 150. 79. 112. 472. 237. 384. 878. 375. 90. 362.
      64. 97. 122. 323. 114. 101. 89. 213. 165. 104. 199. 105. 378. 117.
      140. 133. 529. 103. 248. 366. 331. 266. 288. 144. 108. 128. 131.
      295. 60. 94. 118. 247. 367. 861. 112. 1096. 122. 98. 105. 196.
      252. 100. 129. 136. 983. 256. 306. 213. 554. 111. 236. 145. 1165.
      261. 552. 225. 111. 98. 122. 254. 215. 270. 218. 989. 220. 174.
      144. 305. 257. 328. 153. 307. 236. 120. 378. 134. 271. 208. 340.
      141. 519. 105. 210. 174. 303. 176. 206. 104. 96. 110. 144. 369.
      88. 104. 73. 312. 409. 91. 227. 474. 89. 411. 56. 326. 292. 167.
      206. 87. 767. 317. 389. 345. 599. 297. 100. 179. 1128. 191. 278.
      126. 144. 164. 460. 406. 246. 200. 132. 781. 201. 122. 529. 568.
      247. 207. 174. 766.</_>
    <_>
      7292. 174. 380. 170. 898. 246. 118. 176. 1273. 215. 372. 207. 468.
      220. 52. 104. 187. 197. 326. 599. 97. 182. 260. 466. 347. 204.
      308. 961. 90. 67. 193. 384. 452. 114. 509. 120. 540. 230. 181.
      323. 283. 99. 211. 99. 498. 168. 108. 101. 130. 122. 199. 289.
      147. 213. 149. 646. 140. 90. 249. 253. 130. 122. 143. 202. 726.
      222. 354. 233. 573. 223. 128. 100. 1146. 179. 199. 186. 322. 130.
      80. 86. 199. 568. 288. 671. 192. 276. 95. 239. 237. 240. 271.
      1082. 79. 141. 58. 283. 270. 147. 158. 129. 565. 176. 357. 173.
      289. 101. 133. 105. 594. 164. 144. 91. 140. 492. 246. 336. 882.
      327. 96. 352. 95. 95. 107. 270. 111. 107. 86. 144. 192. 104. 202.
      114. 359. 114. 163. 118. 537. 90. 234. 291. 323. 262. 283. 74. 82.
      126. 145. 303. 80. 84. 113. 204. 383. 867. 118. 1211. 132. 104.
      97. 159. 253. 88. 129. 109. 898. 266. 332. 188. 553. 107. 223.
      132. 1189. 313. 562. 224. 116. 102. 112. 226. 178. 271. 194. 949.
      191. 179. 143. 311. 244. 332. 160. 314. 203. 121. 369. 143. 274.
      215. 371. 138. 664. 99. 216. 136. 331. 196. 269. 110. 80. 114.
      186. 364. 84. 112. 53. 271. 413. 71. 217. 421. 93. 364. 57. 287.
      290. 155. 215. 115. 710. 323. 337. 326. 584. 266. 89. 171. 1188.
      238. 291. 113. 130. 162. 413. 366. 218. 229. 136. 748. 196. 148.
      521. 538. 291. 268. 197. 749.</_>
    <_>
      3893. 144. 362. 254. 855. 243. 165. 178. 1035. 195. 357. 208. 614.
      257. 145. 103. 189. 204. 368. 839. 89. 174. 275. 528. 434. 255.
      395. 1087. 126. 88. 155. 431. 431. 149. 405. 122. 570. 239. 150.
      265. 261. 128. 249. 99. 463. 179. 133. 162. 136. 162. 214. 345.
      178. 208. 155. 530. 169. 117. 242. 307. 138. 118. 149. 221. 640.
      203. 363. 271. 528. 269. 195. 134. 1112. 117. 241. 170. 350. 139.
      108. 66. 216. 255. 312. 766. 186. 258. 115. 323. 308. 243. 235.
      1412. 154. 189. 102. 317. 240. 136. 197. 146. 761. 204. 221. 263.
      307. 145. 133. 106. 564. 185. 131. 121. 137. 90. 253. 213. 622.
      282. 364. 337. 148. 76. 109. 383. 95. 115. 90. 207. 242. 103. 199.
      120. 343. 140. 208. 139. 603. 110. 238. 355. 309. 317. 385. 85.
      86. 77. 130. 370. 78. 83. 119. 283. 384. 373. 166. 987. 144. 139.
      97. 175. 259. 102. 132. 132. 1168. 278. 273. 222. 498. 120. 188.
      142. 1450. 301. 471. 162. 143. 95. 154. 276. 240. 283. 237. 825.
      224. 159. 145. 396. 302. 345. 201. 426. 210. 112. 350. 195. 319.
      180. 336. 142. 853. 116. 148. 151. 359. 152. 133. 86. 121. 122.
      148. 625. 84. 149. 94. 339. 292. 105. 233. 610. 96. 310. 71. 304.
      352. 181. 134. 138. 1109. 351. 197. 317. 745. 287. 108. 260. 1490.
      205. 164. 196. 126. 128. 397. 365. 215. 230. 205. 841. 214. 144.
      299. 593. 226. 288. 225. 872.</_>
    <_>
      5490. 193. 367. 265. 629. 189. 182. 161. 1053. 289. 379. 219. 436.
      384. 193. 151. 228. 240. 368. 560. 105. 290. 261. 292. 393. 435.
      309. 481. 135. 119. 197. 265. 403. 140. 491. 154. 306. 204. 206.
      278. 344. 123. 259. 116. 365. 152. 145. 161. 135. 134. 192. 435.
      242. 275. 182. 660. 134. 187. 207. 200. 225. 212. 174. 180. 613.
      274. 557. 270. 536. 229. 232. 118. 1199. 193. 338. 242. 324. 154.
      121. 130. 235. 645. 319. 327. 192. 240. 107. 190. 273. 298. 252.
      661. 175. 147. 75. 265. 240. 112. 176. 102. 529. 218. 467. 194.
      309. 86. 173. 86. 554. 123. 156. 92. 140. 516. 377. 403. 987. 363.
      119. 301. 106. 108. 126. 200. 159. 132. 120. 230. 272. 102. 391.
      134. 321. 102. 166. 109. 432. 165. 297. 447. 331. 323. 366. 174.
      124. 130. 192. 268. 94. 92. 124. 263. 408. 1123. 178. 1266. 122.
      156. 111. 176. 242. 77. 105. 97. 697. 270. 296. 227. 558. 168.
      216. 157. 825. 209. 547. 166. 99. 68. 105. 273. 158. 219. 162.
      1456. 255. 214. 174. 187. 206. 332. 155. 391. 234. 150. 432. 125.
      276. 200. 377. 93. 526. 144. 148. 172. 276. 162. 169. 99. 127.
      129. 152. 258. 122. 121. 90. 324. 336. 155. 196. 470. 104. 768.
      82. 367. 381. 156. 134. 112. 579. 208. 378. 402. 612. 267. 149.
      150. 881. 216. 332. 136. 122. 148. 403. 363. 146. 164. 130. 965.
      248. 177. 565. 452. 181. 235. 109. 831.</_>
    <_>
      1342. 245. 396. 278. 586. 392. 191. 186. 828. 267. 337. 324. 685.
      332. 171. 114. 205. 303. 335. 830. 116. 236. 319. 396. 383. 311.
      336. 772. 137. 115. 201. 357. 399. 160. 177. 152. 471. 189. 157.
      380. 345. 158. 227. 120. 499. 130. 186. 135. 147. 134. 249. 475.
      268. 198. 140. 516. 193. 140. 166. 246. 184. 152. 162. 226. 689.
      240. 482. 231. 428. 167. 218. 169. 1124. 204. 338. 261. 556. 197.
      132. 103. 234. 612. 443. 766. 269. 285. 196. 226. 371. 286. 246.
      783. 134. 143. 87. 211. 280. 159. 173. 105. 449. 144. 221. 232.
      485. 136. 155. 107. 372. 130. 169. 109. 224. 400. 403. 379. 854.
      294. 224. 301. 145. 76. 120. 219. 164. 134. 137. 207. 328. 124.
      243. 140. 246. 138. 217. 158. 411. 188. 268. 235. 360. 399. 282.
      137. 156. 160. 240. 311. 111. 124. 144. 260. 259. 913. 173. 964.
      119. 177. 83. 274. 282. 93. 140. 103. 1112. 252. 268. 260. 531.
      153. 235. 128. 1199. 345. 503. 180. 125. 114. 167. 275. 192. 215.
      196. 1186. 213. 179. 165. 304. 300. 402. 166. 612. 314. 169. 201.
      116. 274. 166. 163. 163. 467. 187. 374. 230. 489. 249. 248. 138.
      100. 134. 195. 211. 112. 181. 90. 249. 230. 188. 194. 492. 134.
      403. 90. 412. 660. 194. 225. 125. 949. 355. 339. 283. 759. 176.
      215. 103. 1121. 296. 375. 203. 109. 114. 381. 392. 168. 196. 139.
      1237. 205. 161. 323. 598. 187. 312. 187. 1368.</_>
    <_>
      1462. 257. 432. 226. 594. 371. 249. 219. 986. 305. 328. 297. 625.
      266. 152. 138. 251. 306. 313. 655. 129. 196. 300. 301. 350. 331.
      356. 822. 157. 167. 264. 319. 314. 119. 177. 151. 444. 200. 186.
      377. 287. 142. 185. 107. 481. 211. 205. 149. 133. 157. 165. 360.
      258. 193. 143. 535. 150. 143. 180. 228. 216. 182. 142. 211. 721.
      273. 423. 262. 458. 177. 254. 180. 1090. 226. 354. 305. 383. 170.
      161. 120. 266. 565. 431. 651. 275. 287. 162. 241. 376. 318. 324.
      706. 114. 133. 90. 245. 252. 102. 193. 125. 469. 196. 239. 245.
      414. 144. 156. 100. 311. 147. 145. 108. 179. 405. 386. 365. 725.
      281. 221. 320. 188. 121. 144. 210. 194. 112. 138. 222. 216. 189.
      233. 148. 267. 167. 171. 125. 367. 223. 298. 276. 314. 281. 248.
      178. 142. 152. 208. 360. 109. 145. 177. 272. 205. 903. 195. 1044.
      151. 201. 79. 218. 281. 110. 187. 97. 988. 268. 324. 198. 507.
      165. 169. 136. 1165. 350. 415. 238. 149. 139. 159. 320. 219. 265.
      217. 1322. 201. 164. 123. 341. 342. 697. 135. 536. 256. 211. 185.
      133. 260. 176. 175. 158. 457. 221. 420. 157. 336. 250. 243. 131.
      130. 130. 200. 229. 84. 208. 101. 270. 207. 198. 171. 435. 122.
      343. 95. 416. 585. 126. 226. 82. 1006. 358. 340. 435. 749. 179.
      183. 99. 1271. 375. 336. 225. 114. 131. 442. 416. 122. 218. 156.
      1229. 207. 175. 310. 600. 268. 534. 181. 1272.</_>
    <_>
      1581. 237. 377. 244. 574. 309. 196. 172. 1146. 267. 242. 343. 671.
      284. 181. 124. 162. 317. 298. 1063. 78. 313. 312. 609. 290. 312.
      240. 943. 90. 113. 205. 464. 412. 96. 174. 132. 283. 206. 139.
      310. 350. 122. 167. 112. 288. 150. 145. 147. 131. 123. 166. 532.
      233. 165. 185. 537. 156. 139. 158. 388. 97. 103. 177. 259. 881.
      222. 354. 220. 472. 126. 126. 162. 1315. 181. 303. 211. 539. 119.
      101. 82. 270. 303. 317. 849. 206. 286. 165. 311. 319. 312. 256.
      941. 125. 105. 107. 315. 232. 83. 121. 110. 311. 104. 248. 265.
      444. 73. 115. 81. 248. 77. 102. 110. 126. 77. 211. 353. 750. 435.
      204. 430. 150. 87. 115. 347. 88. 114. 96. 200. 315. 79. 167. 80.
      236. 83. 145. 128. 412. 207. 280. 261. 267. 383. 300. 102. 95.
      120. 185. 488. 72. 108. 146. 365. 210. 243. 159. 755. 85. 144. 66.
      218. 182. 88. 95. 92. 1290. 399. 220. 399. 380. 136. 112. 128.
      1191. 527. 493. 358. 112. 146. 160. 394. 251. 315. 275. 1550. 259.
      243. 189. 517. 289. 369. 370. 948. 214. 104. 133. 109. 220. 106.
      127. 162. 409. 170. 249. 158. 200. 170. 123. 135. 79. 112. 177.
      403. 102. 134. 75. 269. 157. 197. 198. 615. 116. 258. 86. 474.
      476. 131. 171. 126. 1165. 443. 587. 414. 740. 154. 132. 207. 918.
      409. 222. 343. 60. 130. 333. 530. 245. 291. 307. 1636. 199. 165.
      371. 972. 302. 417. 284. 1651.</_>
    <_>
      1518. 167. 228. 135. 688. 344. 163. 183. 762. 177. 207. 164. 643.
      320. 152. 135. 157. 333. 233. 280. 177. 285. 315. 336. 448. 309.
      270. 603. 92. 97. 299. 366. 425. 123. 443. 122. 495. 231. 152.
      218. 357. 122. 286. 106. 383. 173. 183. 139. 130. 183. 274. 432.
      215. 184. 172. 648. 167. 170. 206. 277. 179. 136. 186. 332. 578.
      230. 328. 191. 428. 173. 142. 146. 863. 289. 217. 184. 438. 180.
      102. 113. 228. 449. 211. 607. 207. 310. 171. 304. 244. 255. 168.
      736. 109. 177. 113. 246. 192. 123. 199. 89. 439. 151. 418. 277.
      362. 117. 130. 114. 561. 104. 100. 123. 103. 169. 244. 271. 768.
      430. 130. 338. 187. 115. 119. 206. 210. 170. 170. 267. 271. 105.
      136. 129. 374. 150. 186. 128. 388. 98. 183. 334. 343. 475. 344.
      151. 106. 179. 170. 354. 112. 106. 121. 295. 342. 280. 155. 1014.
      183. 153. 105. 222. 299. 106. 178. 141. 1209. 300. 308. 293. 399.
      171. 198. 175. 1049. 422. 770. 412. 139. 156. 157. 548. 262. 432.
      363. 1377. 258. 243. 176. 399. 305. 490. 342. 819. 243. 125. 184.
      186. 342. 246. 298. 511. 406. 149. 185. 174. 384. 310. 130. 155.
      95. 110. 322. 423. 107. 130. 99. 277. 266. 182. 183. 582. 158.
      172. 81. 495. 496. 236. 177. 202. 1041. 361. 565. 410. 697. 173.
      183. 168. 944. 326. 293. 325. 159. 270. 398. 600. 242. 387. 379.
      1005. 221. 173. 311. 629. 305. 459. 343. 1056.</_>
    <_>
      1117. 185. 290. 181. 649. 410. 160. 136. 757. 196. 223. 182. 596.
      313. 169. 130. 171. 513. 213. 462. 131. 212. 308. 407. 332. 318.
      252. 669. 132. 96. 222. 410. 410. 109. 342. 109. 596. 232. 140.
      325. 474. 105. 261. 111. 375. 145. 163. 148. 113. 151. 264. 386.
      204. 169. 209. 571. 150. 137. 198. 349. 132. 135. 201. 329. 611.
      208. 325. 187. 493. 144. 121. 147. 789. 240. 213. 210. 477. 186.
      79. 94. 253. 368. 239. 555. 179. 296. 173. 307. 231. 284. 178.
      618. 84. 146. 90. 314. 217. 129. 190. 127. 438. 109. 241. 259.
      395. 104. 122. 131. 504. 124. 132. 127. 337. 278. 393. 399. 685.
      390. 272. 391. 174. 122. 147. 242. 169. 164. 161. 240. 284. 70.
      103. 73. 386. 158. 168. 152. 405. 155. 188. 280. 376. 412. 302.
      133. 75. 160. 178. 383. 112. 97. 135. 340. 370. 526. 166. 1245.
      178. 153. 119. 188. 294. 119. 184. 115. 1252. 267. 288. 280. 429.
      147. 208. 128. 1143. 382. 661. 379. 116. 148. 181. 443. 310. 343.
      317. 1219. 308. 272. 228. 449. 283. 436. 293. 860. 197. 95. 207.
      178. 327. 195. 402. 285. 481. 156. 333. 155. 405. 233. 224. 132.
      101. 117. 231. 407. 106. 142. 92. 267. 274. 169. 187. 563. 157.
      198. 94. 433. 510. 270. 250. 187. 994. 385. 532. 385. 683. 181.
      222. 159. 887. 303. 467. 282. 103. 212. 428. 534. 236. 371. 193.
      1101. 243. 230. 387. 752. 245. 430. 300. 1206.</_>
    <_>
      1190. 171. 295. 196. 782. 324. 183. 191. 737. 153. 194. 191. 539.
      313. 116. 95. 170. 293. 209. 580. 128. 313. 325. 390. 325. 312.
      252. 788. 88. 127. 280. 473. 382. 124. 284. 138. 494. 186. 126.
      269. 335. 113. 162. 110. 455. 226. 144. 172. 108. 162. 227. 551.
      164. 158. 177. 656. 112. 131. 251. 391. 134. 102. 163. 418. 674.
      172. 302. 219. 490. 154. 118. 164. 873. 152. 186. 161. 389. 112.
      91. 93. 169. 292. 206. 798. 218. 264. 142. 255. 234. 280. 165.
      989. 95. 125. 67. 410. 199. 75. 176. 118. 511. 138. 381. 245. 344.
      91. 135. 79. 424. 93. 114. 130. 136. 153. 248. 377. 744. 454. 202.
      407. 170. 113. 159. 307. 159. 100. 154. 243. 195. 61. 93. 84. 360.
      129. 151. 166. 399. 105. 137. 299. 413. 466. 372. 124. 107. 162.
      169. 403. 101. 99. 135. 439. 409. 270. 212. 1118. 147. 154. 106.
      287. 255. 133. 161. 123. 1132. 290. 252. 324. 407. 168. 178. 149.
      1063. 415. 718. 337. 142. 174. 199. 600. 225. 386. 304. 1270. 269.
      292. 145. 626. 265. 527. 271. 721. 209. 112. 168. 153. 340. 120.
      288. 184. 484. 126. 192. 154. 298. 143. 105. 137. 100. 160. 241.
      488. 81. 124. 107. 371. 246. 164. 303. 828. 130. 170. 89. 575.
      513. 221. 144. 175. 1079. 349. 603. 477. 799. 210. 178. 180. 886.
      355. 269. 275. 106. 174. 377. 552. 247. 422. 406. 1234. 288. 189.
      394. 953. 293. 376. 272. 1235.</_>
    <_>
      4509. 205. 318. 254. 861. 266. 121. 158. 1184. 228. 446. 326. 583.
      245. 131. 109. 204. 505. 398. 878. 122. 203. 385. 504. 429. 329.
      417. 1175. 84. 94. 201. 416. 433. 114. 429. 142. 478. 276. 219.
      354. 316. 87. 252. 106. 375. 130. 126. 120. 78. 120. 176. 471.
      182. 234. 137. 626. 107. 102. 204. 310. 119. 99. 128. 165. 611.
      219. 300. 305. 526. 165. 81. 113. 1126. 211. 239. 259. 240. 80.
      43. 104. 214. 391. 361. 861. 281. 210. 99. 266. 306. 315. 374.
      1334. 63. 137. 52. 380. 193. 101. 153. 128. 520. 215. 348. 226.
      249. 76. 119. 108. 488. 126. 113. 84. 241. 292. 310. 353. 672.
      280. 131. 378. 92. 96. 95. 334. 93. 115. 69. 229. 164. 84. 117.
      101. 331. 128. 122. 162. 593. 96. 260. 365. 325. 252. 280. 93. 79.
      92. 123. 364. 79. 72. 94. 267. 508. 524. 173. 1111. 136. 113. 82.
      147. 300. 63. 165. 93. 987. 288. 300. 236. 575. 138. 214. 102.
      1298. 291. 567. 168. 102. 81. 123. 311. 190. 253. 199. 988. 216.
      113. 137. 300. 249. 281. 180. 328. 172. 79. 295. 145. 286. 215.
      285. 151. 629. 102. 171. 147. 354. 179. 211. 112. 83. 94. 191.
      393. 62. 130. 86. 354. 463. 57. 266. 531. 91. 442. 72. 407. 352.
      178. 179. 94. 933. 357. 361. 282. 719. 259. 125. 189. 1277. 288.
      340. 162. 109. 105. 420. 363. 231. 182. 146. 845. 199. 122. 480.
      670. 279. 267. 179. 784.</_>
    <_>
      6151. 229. 372. 259. 565. 228. 231. 181. 802. 292. 328. 237. 567.
      278. 184. 137. 225. 498. 412. 467. 156. 237. 332. 325. 431. 395.
      274. 640. 107. 104. 175. 247. 366. 127. 515. 134. 411. 228. 154.
      296. 325. 139. 297. 129. 285. 142. 169. 163. 118. 153. 273. 403.
      236. 279. 175. 558. 142. 143. 294. 262. 169. 181. 224. 161. 448.
      221. 493. 338. 420. 161. 121. 104. 844. 198. 311. 250. 329. 163.
      82. 106. 198. 389. 299. 449. 192. 219. 67. 231. 307. 324. 237.
      817. 146. 175. 48. 302. 225. 114. 138. 136. 550. 254. 407. 220.
      308. 93. 122. 111. 518. 126. 133. 126. 237. 398. 364. 477. 728.
      275. 87. 336. 115. 90. 154. 267. 113. 114. 131. 256. 260. 82. 191.
      122. 337. 143. 129. 100. 613. 154. 229. 365. 329. 215. 286. 77.
      82. 89. 145. 345. 59. 70. 103. 280. 536. 687. 163. 1248. 121. 135.
      101. 157. 245. 76. 102. 73. 723. 239. 272. 316. 529. 187. 264.
      189. 868. 256. 522. 230. 90. 114. 133. 427. 184. 207. 265. 1667.
      241. 160. 176. 254. 223. 349. 185. 370. 187. 121. 410. 154. 206.
      206. 328. 159. 605. 131. 184. 166. 289. 193. 145. 115. 89. 80.
      134. 264. 76. 117. 69. 357. 348. 126. 227. 416. 109. 775. 86. 402.
      387. 174. 154. 113. 662. 276. 338. 391. 644. 341. 148. 142. 981.
      258. 377. 196. 102. 88. 401. 338. 198. 152. 103. 1078. 255. 162.
      502. 493. 218. 223. 193. 920.</_>
    <_>
      6189. 200. 404. 221. 652. 283. 208. 179. 919. 305. 405. 219. 477.
      248. 191. 138. 193. 289. 388. 416. 143. 186. 325. 333. 391. 353.
      238. 446. 129. 139. 210. 281. 418. 168. 465. 143. 398. 237. 164.
      268. 388. 128. 254. 120. 310. 140. 178. 149. 125. 140. 241. 296.
      205. 270. 165. 430. 135. 143. 224. 272. 167. 162. 174. 215. 471.
      195. 489. 298. 441. 207. 191. 95. 962. 169. 293. 242. 264. 161.
      115. 103. 226. 928. 272. 381. 165. 224. 77. 214. 262. 340. 251.
      754. 155. 202. 98. 309. 250. 156. 136. 147. 580. 248. 854. 251.
      255. 137. 157. 103. 574. 124. 163. 133. 160. 514. 377. 408. 640.
      262. 128. 282. 111. 87. 150. 167. 128. 161. 121. 243. 258. 90.
      238. 106. 303. 140. 129. 143. 629. 159. 266. 296. 327. 208. 234.
      70. 95. 119. 173. 339. 78. 75. 134. 272. 503. 985. 192. 1269. 117.
      128. 82. 176. 244. 83. 167. 114. 672. 251. 368. 339. 574. 165.
      279. 161. 835. 280. 533. 182. 116. 102. 133. 361. 198. 272. 222.
      1579. 204. 148. 161. 205. 162. 379. 228. 354. 188. 133. 432. 160.
      269. 225. 371. 127. 603. 146. 213. 122. 309. 210. 192. 113. 117.
      116. 158. 239. 87. 111. 77. 292. 369. 118. 182. 301. 64. 730. 77.
      355. 345. 175. 190. 87. 567. 246. 306. 400. 688. 302. 159. 112.
      956. 233. 313. 164. 81. 83. 361. 257. 179. 184. 103. 1002. 298.
      180. 484. 447. 193. 226. 198. 920.</_>
    <_>
      6452. 189. 304. 169. 711. 297. 183. 184. 866. 192. 247. 143. 593.
      353. 164. 122. 196. 408. 322. 374. 128. 317. 286. 244. 444. 286.
      281. 500. 139. 119. 184. 226. 417. 123. 532. 113. 330. 222. 163.
      314. 325. 144. 261. 105. 279. 139. 151. 170. 130. 142. 271. 467.
      203. 205. 156. 737. 176. 183. 300. 282. 173. 243. 202. 186. 465.
      200. 426. 274. 488. 180. 164. 119. 848. 143. 242. 197. 280. 126.
      78. 142. 187. 310. 265. 373. 163. 185. 88. 176. 265. 338. 238.
      681. 144. 206. 83. 305. 230. 126. 111. 110. 679. 186. 531. 256.
      245. 101. 107. 129. 404. 148. 97. 102. 162. 550. 437. 428. 843.
      357. 102. 349. 92. 92. 140. 143. 148. 117. 99. 249. 256. 137. 307.
      129. 273. 125. 115. 126. 570. 128. 244. 498. 300. 320. 356. 123.
      105. 102. 155. 318. 69. 94. 128. 266. 550. 779. 210. 1367. 146.
      166. 101. 145. 180. 75. 120. 103. 624. 251. 270. 303. 535. 140.
      243. 145. 856. 293. 586. 270. 98. 109. 142. 388. 185. 293. 236.
      1597. 207. 170. 179. 170. 248. 370. 236. 327. 200. 127. 371. 162.
      236. 181. 344. 114. 448. 130. 116. 154. 314. 115. 116. 117. 79.
      159. 190. 262. 87. 153. 104. 323. 356. 123. 211. 458. 103. 918.
      78. 506. 393. 185. 88. 100. 599. 220. 425. 474. 739. 280. 118.
      152. 1013. 288. 429. 159. 130. 115. 473. 328. 188. 195. 155. 1050.
      276. 177. 571. 395. 186. 235. 150. 786.</_>
    <_>
      3082. 154. 387. 236. 687. 241. 232. 211. 826. 310. 310. 194. 554.
      272. 227. 161. 220. 237. 409. 455. 162. 204. 313. 345. 400. 339.
      262. 575. 124. 123. 175. 286. 498. 134. 438. 124. 438. 234. 164.
      256. 316. 145. 297. 120. 392. 181. 140. 143. 131. 163. 242. 383.
      212. 246. 156. 465. 160. 151. 267. 262. 199. 198. 189. 175. 491.
      249. 508. 312. 518. 186. 138. 141. 871. 243. 284. 260. 330. 181.
      102. 115. 268. 972. 332. 457. 201. 255. 99. 237. 277. 369. 249.
      827. 137. 185. 111. 329. 258. 138. 143. 117. 568. 218. 896. 238.
      313. 113. 150. 134. 635. 141. 155. 125. 210. 517. 346. 438. 673.
      309. 91. 360. 108. 91. 143. 246. 132. 122. 126. 234. 271. 117.
      210. 118. 408. 139. 136. 146. 554. 170. 244. 309. 384. 233. 292.
      78. 72. 110. 157. 412. 73. 59. 103. 268. 594. 977. 192. 1308. 126.
      145. 79. 176. 271. 73. 144. 102. 783. 267. 304. 331. 645. 203.
      248. 160. 900. 322. 560. 239. 102. 89. 137. 396. 192. 247. 241.
      1771. 214. 208. 197. 225. 220. 423. 258. 314. 205. 117. 406. 167.
      276. 200. 316. 113. 606. 121. 213. 116. 288. 186. 205. 97. 85.
      104. 125. 226. 105. 153. 73. 282. 406. 121. 230. 341. 94. 908. 71.
      363. 422. 164. 199. 101. 706. 310. 325. 480. 670. 314. 145. 180.
      1035. 292. 321. 174. 103. 61. 365. 297. 183. 163. 125. 1050. 224.
      179. 542. 530. 152. 244. 169. 756.</_>
    <_>
      1294. 207. 339. 218. 630. 296. 154. 205. 715. 229. 230. 201. 519.
      365. 87. 119. 201. 342. 231. 552. 134. 314. 350. 288. 367. 354.
      234. 901. 93. 136. 351. 416. 344. 132. 304. 114. 578. 182. 135.
      249. 288. 109. 258. 133. 311. 182. 120. 168. 124. 160. 277. 436.
      156. 202. 129. 745. 128. 120. 209. 370. 128. 162. 164. 322. 640.
      128. 521. 163. 384. 165. 126. 147. 693. 166. 205. 183. 338. 96.
      89. 87. 214. 305. 235. 613. 213. 235. 184. 275. 208. 267. 242.
      820. 84. 132. 98. 406. 137. 81. 165. 134. 409. 122. 339. 214. 314.
      96. 152. 124. 350. 86. 126. 126. 112. 147. 209. 291. 723. 440.
      152. 389. 146. 76. 119. 322. 146. 93. 92. 267. 223. 52. 92. 73.
      326. 135. 118. 156. 465. 113. 130. 221. 288. 383. 316. 86. 80.
      168. 160. 373. 62. 65. 83. 350. 413. 338. 139. 1304. 117. 200. 81.
      343. 238. 97. 132. 133. 1052. 361. 323. 319. 371. 179. 167. 159.
      967. 383. 738. 306. 82. 160. 134. 650. 300. 436. 326. 1347. 251.
      262. 186. 665. 316. 705. 325. 973. 157. 68. 339. 106. 260. 171.
      383. 138. 488. 160. 168. 162. 264. 170. 104. 98. 68. 129. 253.
      611. 29. 136. 50. 327. 374. 139. 185. 723. 123. 836. 65. 411. 422.
      167. 136. 131. 1004. 563. 646. 640. 694. 213. 190. 281. 780. 333.
      300. 340. 86. 212. 447. 655. 189. 329. 326. 1471. 282. 156. 392.
      956. 257. 389. 334. 1416.</_>
    <_>
      1026. 178. 353. 183. 657. 351. 136. 193. 791. 180. 176. 153. 552.
      319. 91. 137. 190. 225. 247. 446. 170. 307. 331. 336. 368. 302.
      254. 797. 115. 137. 373. 346. 413. 132. 277. 130. 538. 185. 113.
      216. 332. 121. 310. 118. 394. 194. 140. 218. 152. 148. 277. 392.
      177. 223. 166. 691. 108. 160. 206. 308. 98. 152. 210. 335. 687.
      164. 519. 152. 410. 126. 124. 167. 692. 178. 206. 190. 370. 115.
      95. 85. 217. 984. 294. 530. 212. 262. 183. 243. 252. 236. 171.
      732. 92. 120. 87. 367. 196. 57. 201. 150. 366. 111. 922. 247. 391.
      77. 131. 103. 436. 136. 145. 132. 121. 446. 406. 434. 732. 474.
      131. 429. 148. 129. 143. 273. 127. 148. 105. 331. 258. 56. 95.
      102. 324. 120. 117. 173. 416. 138. 192. 489. 385. 418. 244. 183.
      64. 156. 152. 335. 74. 95. 125. 347. 401. 831. 161. 1157. 120.
      147. 77. 218. 286. 115. 152. 124. 1002. 341. 353. 271. 379. 155.
      235. 232. 1011. 268. 520. 286. 83. 180. 169. 512. 235. 416. 325.
      1045. 263. 285. 201. 558. 345. 505. 298. 760. 192. 94. 249. 129.
      304. 236. 277. 143. 498. 134. 164. 213. 303. 185. 142. 131. 66.
      158. 246. 389. 68. 222. 81. 263. 344. 130. 206. 663. 119. 563. 59.
      420. 502. 200. 147. 154. 882. 421. 597. 561. 727. 230. 188. 193.
      912. 275. 513. 241. 100. 232. 499. 621. 185. 262. 124. 1136. 263.
      194. 390. 810. 262. 327. 260. 1227.</_>
    <_>
      1090. 211. 361. 214. 688. 372. 159. 175. 724. 238. 224. 172. 575.
      377. 97. 130. 212. 247. 239. 607. 182. 321. 351. 401. 324. 420.
      324. 839. 117. 122. 360. 488. 414. 102. 281. 101. 581. 199. 132.
      278. 380. 97. 273. 120. 326. 164. 159. 153. 122. 132. 289. 534.
      159. 197. 176. 632. 122. 124. 209. 379. 139. 161. 212. 419. 663.
      151. 438. 164. 466. 152. 166. 156. 644. 227. 218. 190. 391. 127.
      80. 109. 242. 329. 226. 588. 213. 265. 186. 280. 220. 307. 209.
      854. 97. 93. 113. 409. 190. 86. 171. 155. 356. 132. 154. 264. 328.
      122. 130. 141. 407. 99. 106. 118. 114. 174. 190. 211. 723. 505.
      449. 371. 157. 113. 139. 362. 116. 121. 95. 270. 249. 65. 101.
      109. 346. 133. 128. 165. 566. 125. 175. 296. 332. 428. 301. 133.
      102. 118. 161. 388. 71. 99. 122. 356. 490. 293. 175. 1385. 92.
      177. 85. 212. 260. 95. 171. 130. 1069. 370. 295. 302. 394. 140.
      164. 192. 992. 420. 651. 332. 59. 180. 153. 605. 266. 352. 343.
      1437. 233. 271. 143. 579. 322. 472. 369. 901. 157. 85. 137. 153.
      252. 171. 415. 270. 548. 169. 200. 143. 277. 200. 92. 152. 63.
      107. 198. 446. 53. 98. 68. 283. 389. 139. 227. 858. 137. 198. 46.
      496. 518. 196. 146. 173. 951. 509. 283. 410. 661. 213. 236. 219.
      874. 343. 230. 322. 91. 255. 377. 661. 227. 319. 387. 1325. 268.
      172. 336. 687. 244. 408. 306. 1417.</_>
    <_>
      3756. 204. 377. 233. 853. 199. 123. 190. 1180. 230. 427. 284. 445.
      275. 101. 93. 210. 276. 415. 988. 128. 265. 329. 500. 401. 257.
      409. 1292. 79. 70. 215. 392. 311. 88. 425. 142. 460. 207. 199.
      306. 208. 66. 211. 92. 367. 108. 131. 74. 91. 147. 180. 512. 162.
      236. 212. 781. 123. 111. 207. 336. 126. 111. 178. 230. 614. 264.
      313. 271. 396. 213. 123. 113. 959. 167. 244. 299. 233. 102. 80.
      102. 193. 591. 356. 761. 169. 270. 115. 293. 307. 352. 282. 1361.
      49. 151. 58. 334. 213. 100. 152. 129. 595. 178. 373. 191. 224. 98.
      98. 92. 510. 135. 127. 97. 134. 472. 285. 452. 1032. 370. 154.
      412. 100. 106. 83. 404. 108. 128. 93. 264. 159. 73. 154. 83. 283.
      98. 104. 122. 563. 102. 229. 432. 326. 281. 274. 108. 61. 71. 183.
      483. 58. 92. 54. 225. 489. 845. 177. 1214. 129. 128. 81. 189. 267.
      119. 148. 93. 934. 222. 312. 222. 491. 137. 220. 116. 1492. 296.
      561. 285. 78. 131. 123. 374. 210. 257. 170. 792. 134. 160. 116.
      273. 217. 350. 220. 337. 130. 94. 321. 160. 234. 234. 294. 185.
      605. 89. 116. 192. 255. 167. 196. 127. 53. 120. 174. 438. 41. 142.
      94. 388. 507. 105. 288. 588. 85. 576. 58. 521. 357. 166. 165. 98.
      915. 305. 404. 275. 648. 288. 122. 206. 1219. 273. 305. 146. 122.
      167. 472. 413. 223. 222. 176. 752. 156. 134. 489. 570. 236. 209.
      182. 703.</_>
    <_>
      6963. 215. 370. 207. 788. 208. 137. 157. 1179. 240. 480. 297. 451.
      236. 105. 78. 184. 191. 427. 973. 107. 240. 321. 430. 359. 244.
      457. 1214. 74. 85. 187. 427. 297. 99. 432. 114. 424. 208. 150.
      311. 233. 62. 213. 104. 365. 123. 117. 139. 81. 112. 212. 460.
      111. 242. 189. 663. 118. 125. 174. 318. 83. 100. 123. 231. 518.
      241. 349. 225. 375. 222. 84. 119. 1073. 173. 184. 257. 232. 140.
      72. 85. 201. 662. 395. 865. 167. 259. 71. 273. 238. 383. 268.
      1252. 66. 135. 53. 401. 204. 115. 204. 104. 554. 172. 377. 141.
      202. 100. 92. 69. 439. 143. 128. 52. 115. 433. 323. 376. 967. 288.
      108. 357. 110. 101. 86. 372. 100. 128. 76. 271. 182. 83. 136. 100.
      301. 106. 145. 116. 495. 100. 238. 376. 289. 269. 271. 54. 100.
      91. 158. 468. 64. 95. 87. 225. 410. 793. 149. 1127. 141. 92. 78.
      141. 246. 102. 153. 113. 973. 233. 291. 244. 466. 120. 226. 90.
      1364. 319. 428. 189. 106. 106. 133. 329. 202. 295. 187. 828. 194.
      178. 117. 258. 261. 295. 161. 265. 143. 96. 320. 112. 232. 183.
      312. 141. 549. 91. 156. 179. 288. 174. 232. 96. 49. 97. 208. 390.
      38. 96. 75. 363. 436. 107. 240. 530. 56. 466. 58. 440. 375. 158.
      197. 97. 866. 261. 365. 300. 596. 295. 134. 167. 1268. 248. 326.
      150. 133. 138. 353. 389. 173. 195. 164. 712. 207. 139. 435. 649.
      220. 198. 164. 714.</_>
    <_>
      6195. 153. 383. 173. 583. 204. 154. 144. 904. 203. 313. 211. 459.
      388. 165. 138. 213. 237. 412. 461. 132. 321. 264. 221. 401. 370.
      291. 700. 108. 131. 219. 268. 367. 126. 505. 113. 287. 139. 138.
      285. 385. 95. 223. 76. 299. 160. 155. 128. 99. 180. 234. 550. 168.
      232. 185. 622. 131. 208. 235. 256. 151. 222. 185. 176. 510. 227.
      486. 246. 526. 200. 192. 138. 846. 155. 260. 244. 300. 194. 81.
      101. 220. 964. 312. 421. 177. 216. 110. 193. 239. 352. 242. 610.
      144. 190. 96. 329. 195. 91. 133. 134. 597. 174. 1076. 210. 286.
      81. 97. 104. 528. 174. 118. 105. 137. 580. 403. 391. 919. 405.
      136. 345. 98. 100. 119. 226. 148. 139. 119. 300. 263. 133. 307.
      105. 310. 152. 178. 153. 493. 139. 262. 541. 267. 358. 314. 124.
      91. 134. 178. 320. 79. 70. 83. 271. 317. 1082. 222. 1403. 136.
      151. 101. 181. 203. 66. 148. 97. 592. 211. 287. 282. 563. 133.
      244. 143. 717. 180. 503. 177. 118. 108. 147. 452. 147. 255. 242.
      1427. 234. 170. 175. 177. 213. 338. 190. 405. 201. 99. 389. 159.
      212. 187. 344. 142. 580. 128. 128. 180. 281. 153. 102. 113. 74.
      183. 140. 287. 66. 126. 89. 303. 314. 177. 212. 506. 81. 910. 81.
      509. 416. 110. 87. 87. 505. 142. 428. 454. 749. 244. 95. 128. 743.
      201. 381. 163. 128. 135. 353. 383. 177. 175. 148. 927. 231. 201.
      552. 429. 166. 253. 150. 718.</_>
    <_>
      1051. 191. 341. 237. 574. 402. 184. 214. 764. 179. 209. 152. 567.
      352. 102. 114. 167. 350. 211. 502. 170. 251. 374. 298. 346. 328.
      248. 765. 121. 141. 311. 394. 354. 93. 339. 161. 444. 187. 117.
      254. 306. 105. 254. 134. 292. 157. 131. 124. 108. 167. 269. 547.
      126. 202. 183. 708. 157. 136. 262. 383. 138. 175. 200. 307. 666.
      135. 471. 188. 378. 127. 110. 194. 692. 203. 227. 153. 365. 142.
      71. 95. 211. 292. 210. 578. 227. 278. 164. 201. 192. 280. 162.
      794. 110. 157. 86. 362. 139. 75. 198. 130. 329. 156. 365. 281.
      308. 128. 163. 91. 403. 94. 138. 130. 107. 187. 245. 284. 803.
      481. 152. 352. 179. 135. 152. 316. 159. 126. 155. 220. 257. 58.
      101. 97. 345. 129. 125. 143. 435. 109. 152. 184. 289. 423. 303.
      84. 83. 190. 165. 401. 85. 85. 109. 402. 468. 345. 192. 1368. 137.
      168. 89. 297. 265. 116. 171. 94. 1040. 396. 348. 316. 370. 162.
      194. 164. 1002. 426. 716. 332. 70. 143. 185. 649. 257. 424. 288.
      1397. 257. 239. 143. 565. 330. 588. 351. 885. 155. 108. 292. 167.
      247. 174. 294. 169. 406. 114. 210. 197. 256. 196. 119. 133. 107.
      127. 233. 405. 47. 175. 71. 312. 374. 178. 259. 785. 141. 559. 72.
      516. 417. 207. 125. 204. 973. 452. 716. 578. 620. 218. 201. 233.
      815. 344. 379. 301. 69. 223. 402. 708. 199. 477. 285. 1429. 273.
      156. 377. 877. 279. 415. 280. 1437.</_>
    <_>
      1700. 303. 415. 226. 707. 421. 210. 235. 1333. 289. 369. 272. 691.
      232. 200. 128. 218. 259. 240. 742. 135. 247. 281. 376. 398. 323.
      319. 868. 138. 102. 234. 401. 438. 121. 204. 129. 362. 189. 110.
      340. 410. 106. 186. 117. 360. 151. 196. 128. 96. 127. 162. 462.
      259. 177. 161. 622. 172. 115. 141. 192. 168. 138. 171. 202. 923.
      236. 460. 230. 557. 159. 163. 166. 1317. 229. 339. 285. 504. 168.
      92. 88. 232. 596. 483. 808. 173. 269. 109. 239. 337. 363. 354.
      737. 117. 159. 74. 242. 229. 143. 155. 107. 383. 126. 116. 145.
      506. 89. 139. 125. 285. 89. 142. 93. 128. 318. 357. 385. 868. 319.
      279. 339. 155. 101. 156. 208. 114. 91. 85. 155. 260. 85. 165. 83.
      275. 146. 156. 155. 425. 161. 309. 150. 259. 339. 343. 98. 136.
      110. 187. 265. 79. 110. 83. 307. 313. 842. 192. 1061. 80. 118. 58.
      170. 290. 84. 115. 78. 1141. 299. 317. 317. 419. 198. 190. 155.
      1168. 370. 478. 244. 97. 119. 127. 323. 202. 316. 229. 1630. 197.
      199. 175. 405. 339. 395. 153. 932. 262. 69. 131. 132. 211. 134.
      125. 208. 591. 161. 371. 153. 327. 196. 175. 151. 90. 139. 184.
      249. 85. 148. 82. 197. 212. 120. 186. 453. 84. 319. 89. 360. 491.
      139. 249. 114. 1043. 346. 353. 383. 800. 209. 209. 126. 1113. 306.
      324. 232. 76. 95. 326. 387. 146. 312. 144. 1570. 158. 131. 319.
      605. 225. 407. 156. 1629.</_>
    <_>
      1634. 279. 491. 202. 632. 344. 201. 195. 1375. 335. 378. 302. 652.
      277. 165. 145. 212. 317. 221. 929. 164. 257. 282. 372. 394. 376.
      273. 950. 134. 119. 258. 322. 416. 110. 124. 134. 378. 235. 108.
      255. 365. 121. 171. 96. 325. 135. 141. 115. 107. 145. 138. 522.
      202. 168. 162. 642. 136. 110. 155. 247. 108. 111. 176. 232. 1029.
      264. 381. 242. 473. 113. 138. 155. 1344. 250. 386. 244. 482. 123.
      115. 85. 305. 365. 401. 878. 191. 280. 149. 282. 332. 277. 315.
      904. 117. 126. 80. 224. 214. 100. 134. 95. 312. 145. 209. 162.
      474. 95. 140. 110. 312. 113. 96. 89. 147. 68. 187. 324. 773. 346.
      169. 468. 118. 83. 132. 251. 103. 119. 77. 246. 280. 88. 121. 62.
      309. 113. 170. 126. 409. 171. 257. 280. 257. 319. 294. 111. 99.
      129. 158. 329. 33. 97. 112. 345. 319. 241. 185. 821. 57. 117. 71.
      217. 281. 120. 136. 74. 1239. 373. 317. 335. 494. 170. 178. 118.
      1418. 389. 455. 252. 81. 87. 123. 319. 238. 351. 243. 1611. 274.
      247. 152. 440. 313. 392. 236. 1059. 285. 83. 123. 99. 176. 94. 95.
      141. 556. 157. 231. 203. 279. 181. 129. 124. 58. 144. 201. 320.
      90. 143. 64. 395. 218. 113. 159. 448. 109. 242. 108. 490. 530.
      220. 238. 115. 1146. 410. 500. 351. 667. 245. 144. 160. 1167. 366.
      183. 229. 65. 85. 322. 372. 231. 228. 249. 1911. 201. 156. 335.
      722. 220. 309. 179. 1836.</_>
    <_>
      1293. 147. 285. 138. 735. 324. 126. 188. 820. 202. 214. 161. 660.
      346. 108. 117. 171. 532. 268. 423. 139. 286. 233. 356. 377. 423.
      273. 753. 89. 113. 258. 380. 497. 127. 340. 123. 455. 204. 130.
      323. 445. 116. 285. 95. 458. 165. 141. 143. 160. 123. 243. 467.
      186. 198. 155. 516. 77. 125. 227. 309. 184. 152. 186. 236. 679.
      136. 310. 196. 557. 153. 145. 183. 726. 215. 227. 188. 527. 126.
      73. 74. 227. 298. 240. 564. 235. 262. 168. 282. 254. 306. 199.
      737. 113. 153. 92. 301. 199. 104. 161. 95. 499. 128. 320. 262.
      422. 139. 164. 122. 590. 113. 118. 166. 244. 335. 437. 394. 798.
      389. 138. 340. 170. 114. 139. 271. 194. 130. 116. 249. 296. 66.
      143. 107. 381. 162. 128. 175. 461. 137. 163. 581. 461. 392. 312.
      91. 95. 120. 165. 275. 91. 83. 119. 300. 319. 521. 171. 1049. 129.
      207. 87. 236. 285. 103. 188. 140. 1137. 312. 392. 292. 410. 144.
      180. 109. 1146. 408. 654. 294. 142. 178. 184. 441. 296. 326. 282.
      1468. 216. 266. 142. 425. 332. 553. 256. 704. 280. 106. 162. 131.
      320. 196. 387. 288. 513. 189. 221. 182. 358. 299. 198. 147. 95.
      91. 198. 347. 101. 130. 89. 287. 259. 127. 158. 583. 123. 213. 93.
      402. 498. 209. 172. 156. 978. 324. 534. 339. 677. 185. 165. 169.
      1061. 326. 511. 260. 85. 129. 484. 562. 287. 342. 173. 1290. 185.
      186. 415. 717. 274. 397. 300. 1174.</_>
    <_>
      3630. 157. 238. 180. 729. 353. 132. 221. 827. 203. 190. 181. 609.
      264. 110. 155. 169. 212. 225. 434. 167. 224. 260. 343. 297. 381.
      293. 678. 91. 110. 250. 353. 423. 133. 259. 110. 514. 193. 171.
      275. 488. 101. 169. 93. 474. 148. 173. 147. 99. 139. 158. 397.
      169. 185. 128. 547. 90. 103. 197. 275. 180. 169. 158. 248. 693.
      126. 394. 208. 568. 163. 122. 188. 869. 162. 220. 200. 508. 106.
      75. 65. 221. 931. 280. 546. 215. 292. 165. 277. 275. 228. 218.
      686. 75. 89. 72. 273. 245. 101. 135. 122. 470. 163. 806. 280. 401.
      91. 112. 110. 494. 98. 139. 120. 117. 470. 411. 411. 684. 395.
      136. 385. 141. 104. 151. 239. 167. 155. 104. 262. 279. 90. 122.
      78. 314. 99. 153. 142. 467. 176. 186. 410. 427. 360. 284. 100. 68.
      109. 127. 285. 99. 88. 92. 340. 256. 793. 170. 1119. 147. 213.
      114. 253. 297. 113. 174. 86. 1019. 246. 305. 243. 374. 196. 144.
      116. 1010. 312. 577. 254. 107. 149. 173. 471. 281. 275. 223. 1245.
      271. 247. 148. 452. 246. 456. 285. 597. 302. 110. 301. 115. 288.
      200. 328. 110. 610. 177. 288. 162. 319. 222. 195. 115. 82. 79.
      189. 380. 66. 174. 68. 288. 247. 92. 141. 621. 102. 919. 97. 441.
      520. 170. 148. 132. 900. 355. 438. 476. 764. 159. 189. 145. 821.
      222. 478. 215. 117. 160. 455. 487. 183. 289. 127. 1258. 185. 174.
      359. 604. 189. 362. 245. 1086.</_>
    <_>
      1406. 164. 328. 172. 741. 384. 168. 239. 838. 186. 197. 201. 607.
      273. 120. 138. 191. 434. 217. 470. 144. 219. 261. 367. 321. 398.
      279. 716. 109. 115. 212. 381. 524. 149. 320. 150. 477. 263. 165.
      317. 519. 147. 260. 108. 451. 149. 170. 155. 152. 190. 226. 317.
      223. 180. 174. 586. 161. 187. 179. 237. 190. 200. 191. 217. 646.
      159. 482. 154. 514. 159. 131. 171. 912. 210. 249. 215. 551. 131.
      117. 89. 255. 458. 297. 598. 181. 259. 164. 331. 247. 258. 205.
      734. 123. 112. 67. 251. 249. 111. 177. 83. 477. 152. 275. 303.
      448. 125. 152. 135. 632. 178. 160. 144. 143. 160. 616. 181. 647.
      392. 248. 362. 157. 137. 125. 282. 183. 117. 164. 261. 279. 66.
      183. 143. 398. 132. 196. 202. 508. 142. 149. 340. 464. 447. 317.
      128. 97. 190. 155. 479. 100. 106. 92. 290. 349. 321. 218. 982.
      135. 240. 96. 273. 359. 158. 224. 139. 1220. 248. 295. 298. 438.
      160. 175. 137. 973. 191. 488. 261. 154. 152. 154. 412. 259. 267.
      251. 1044. 241. 282. 179. 453. 348. 430. 312. 565. 301. 102. 377.
      159. 323. 215. 350. 119. 575. 150. 241. 179. 475. 282. 218. 157.
      96. 63. 236. 384. 91. 176. 85. 314. 274. 107. 194. 602. 116. 962.
      90. 385. 571. 181. 178. 171. 985. 328. 421. 435. 764. 213. 176.
      213. 849. 234. 447. 242. 104. 142. 462. 469. 203. 368. 172. 1121.
      178. 160. 351. 613. 227. 353. 234. 1017.</_>
    <_>
      1158. 173. 279. 152. 613. 358. 160. 212. 826. 170. 195. 164. 551.
      302. 153. 155. 189. 483. 227. 297. 138. 266. 277. 310. 387. 406.
      252. 583. 102. 132. 239. 433. 521. 166. 464. 111. 562. 207. 172.
      244. 365. 89. 278. 110. 521. 205. 197. 124. 152. 149. 192. 265.
      212. 196. 160. 541. 113. 159. 225. 219. 228. 188. 193. 292. 544.
      168. 334. 210. 553. 132. 139. 188. 734. 206. 194. 208. 489. 158.
      70. 135. 254. 266. 207. 473. 236. 237. 181. 237. 213. 299. 163.
      744. 95. 182. 81. 384. 271. 117. 173. 141. 536. 165. 340. 261.
      371. 96. 176. 142. 617. 169. 156. 144. 238. 432. 415. 394. 767.
      453. 208. 250. 171. 143. 152. 234. 194. 172. 110. 243. 325. 94.
      164. 95. 379. 168. 192. 182. 438. 140. 205. 511. 409. 406. 311.
      105. 101. 137. 164. 275. 108. 97. 143. 320. 303. 592. 148. 1194.
      155. 153. 114. 201. 305. 129. 220. 120. 1044. 325. 408. 301. 457.
      188. 190. 163. 1119. 396. 690. 342. 151. 204. 198. 567. 286. 385.
      268. 1161. 236. 208. 168. 396. 334. 542. 287. 521. 247. 143. 167.
      120. 318. 233. 399. 319. 486. 212. 321. 197. 403. 324. 232. 143.
      109. 152. 211. 386. 88. 127. 105. 221. 231. 146. 161. 532. 167.
      161. 86. 400. 544. 232. 200. 156. 857. 341. 519. 328. 681. 190.
      178. 148. 1233. 382. 486. 240. 101. 223. 537. 534. 287. 331. 235.
      969. 166. 231. 358. 678. 323. 437. 268. 895.</_>
    <_>
      1648. 310. 357. 358. 560. 408. 215. 222. 1524. 305. 309. 321. 641.
      290. 129. 173. 202. 375. 299. 997. 110. 222. 228. 444. 362. 435.
      295. 1045. 134. 121. 185. 295. 283. 97. 159. 146. 309. 167. 133.
      321. 358. 153. 142. 108. 221. 145. 107. 150. 102. 136. 131. 433.
      193. 210. 141. 707. 119. 143. 106. 222. 90. 107. 172. 257. 1118.
      240. 448. 280. 509. 161. 161. 136. 1638. 249. 330. 230. 464. 88.
      122. 81. 295. 367. 399. 954. 210. 278. 166. 216. 297. 251. 284.
      893. 117. 77. 76. 261. 178. 106. 119. 131. 355. 107. 257. 257.
      466. 67. 120. 114. 270. 98. 112. 97. 122. 106. 209. 331. 824. 346.
      198. 413. 112. 80. 81. 273. 126. 91. 79. 184. 273. 81. 111. 97.
      228. 98. 127. 99. 388. 175. 232. 295. 296. 327. 271. 122. 92. 128.
      152. 334. 86. 113. 76. 275. 327. 317. 202. 870. 111. 181. 100.
      203. 193. 95. 109. 54. 1468. 283. 275. 294. 457. 127. 127. 123.
      1534. 419. 668. 292. 112. 101. 126. 246. 279. 238. 221. 1612. 260.
      208. 170. 403. 341. 371. 351. 803. 277. 113. 121. 119. 172. 111.
      96. 151. 482. 210. 263. 201. 262. 197. 138. 138. 82. 154. 278.
      325. 77. 116. 101. 287. 151. 150. 220. 445. 98. 165. 90. 260. 448.
      245. 163. 91. 1434. 397. 449. 336. 721. 213. 120. 186. 1236. 378.
      223. 276. 64. 101. 373. 432. 262. 333. 315. 1554. 182. 168. 334.
      678. 219. 390. 191. 1479.</_>
    <_>
      6412. 218. 317. 215. 678. 226. 183. 155. 904. 178. 269. 180. 520.
      322. 192. 105. 225. 233. 270. 377. 96. 307. 168. 290. 485. 311.
      256. 557. 103. 119. 117. 190. 397. 132. 589. 141. 316. 234. 152.
      310. 308. 107. 270. 95. 322. 190. 154. 126. 123. 128. 200. 425.
      197. 234. 154. 753. 188. 170. 267. 246. 151. 205. 200. 180. 503.
      195. 414. 274. 381. 196. 202. 123. 879. 150. 208. 162. 346. 138.
      79. 79. 181. 911. 285. 349. 156. 209. 95. 180. 263. 320. 259. 670.
      147. 180. 91. 281. 188. 123. 121. 120. 643. 205. 1027. 164. 242.
      103. 121. 106. 460. 140. 142. 102. 111. 592. 435. 371. 823. 342.
      114. 335. 100. 68. 112. 132. 167. 102. 90. 239. 241. 143. 365.
      132. 301. 147. 124. 92. 483. 190. 331. 412. 285. 350. 326. 97. 62.
      120. 158. 283. 89. 91. 129. 227. 475. 1023. 168. 1308. 144. 106.
      75. 161. 198. 76. 147. 99. 725. 234. 225. 289. 539. 144. 233. 141.
      921. 319. 570. 287. 96. 96. 115. 302. 201. 260. 245. 1528. 242.
      193. 101. 200. 192. 433. 193. 394. 195. 116. 413. 153. 264. 164.
      364. 106. 491. 143. 151. 169. 281. 131. 132. 115. 93. 126. 143.
      233. 103. 134. 102. 274. 266. 134. 202. 411. 96. 856. 67. 424.
      396. 140. 101. 111. 725. 234. 405. 484. 635. 253. 106. 111. 993.
      272. 395. 198. 183. 146. 555. 377. 208. 181. 202. 997. 273. 169.
      525. 355. 206. 292. 180. 876.</_>
    <_>
      1247. 228. 395. 245. 884. 364. 251. 223. 970. 239. 313. 217. 786.
      316. 164. 186. 187. 275. 251. 590. 224. 173. 417. 367. 245. 282.
      328. 790. 161. 140. 379. 480. 445. 166. 254. 120. 466. 220. 185.
      341. 439. 130. 218. 68. 493. 215. 163. 172. 115. 223. 199. 408.
      194. 192. 188. 664. 140. 117. 207. 298. 168. 182. 161. 284. 792.
      168. 427. 230. 543. 211. 224. 194. 810. 191. 245. 288. 533. 207.
      153. 110. 283. 346. 311. 756. 256. 222. 199. 204. 233. 338. 253.
      1027. 142. 186. 129. 303. 269. 123. 226. 134. 335. 234. 219. 251.
      491. 116. 242. 141. 561. 162. 213. 145. 156. 152. 134. 252. 251.
      215. 155. 446. 161. 155. 142. 340. 186. 219. 150. 331. 295. 93.
      166. 94. 549. 155. 184. 156. 684. 157. 218. 146. 432. 193. 161.
      133. 92. 126. 143. 315. 82. 105. 125. 402. 516. 210. 182. 487.
      121. 182. 79. 277. 312. 165. 192. 135. 1162. 251. 310. 253. 496.
      192. 221. 115. 859. 362. 351. 257. 154. 232. 158. 592. 210. 269.
